[array([[-4.94999753e-04,  4.94999636e-04,  4.94999869e-04,
         4.95000160e-04, -4.95000160e-04, -4.94999636e-04,
         4.95000160e-04, -4.95000451e-04, -4.95000160e-04,
         4.95000160e-04, -4.95000102e-04, -4.94999636e-04,
        -4.95000160e-04,  4.95000160e-04,  4.94999869e-04,
        -4.95000451e-04, -4.95000160e-04, -4.95000219e-04,
         4.95000160e-04,  4.94999636e-04,  4.95000102e-04,
        -4.95000451e-04, -4.95000160e-04, -4.95000160e-04,
         4.94999636e-04,  4.95000451e-04, -4.95000160e-04,
         4.94999869e-04, -4.95000451e-04, -4.95000160e-04,
         4.95000451e-04,  4.95000160e-04, -4.95000160e-04,
        -4.95000160e-04, -4.95000568e-04,  4.95000160e-04,
         4.94999869e-04,  4.95000102e-04, -4.95000335e-04,
        -4.95000160e-04,  4.94999636e-04,  4.94999753e-04,
        -4.94999753e-04, -4.95000335e-04,  4.95000102e-04,
        -4.94999636e-04,  4.95000102e-04, -4.95000160e-04,
        -4.95000160e-04,  4.95000102e-04],
       [ 4.95000335e-04, -4.95000160e-04,  4.95000160e-04,
         4.95000160e-04, -4.95000160e-04,  4.95000160e-04,
        -4.95000160e-04,  4.94999636e-04,  4.95000160e-04,
         4.94999869e-04,  4.95000102e-04, -4.95000160e-04,
         4.94999753e-04,  4.95000160e-04, -4.95000102e-04,
        -4.95000160e-04,  4.95000568e-04, -4.94999636e-04,
        -4.95000160e-04, -4.95000102e-04,  4.95000160e-04,
        -4.95000160e-04, -4.95000160e-04,  4.94999753e-04,
        -4.94999636e-04, -4.95000160e-04,  4.95000160e-04,
        -4.95000451e-04, -4.95000160e-04, -4.95000160e-04,
        -4.95000335e-04, -4.95000160e-04, -4.95000451e-04,
        -4.95000160e-04,  4.95000451e-04,  4.95000160e-04,
         4.94999753e-04,  4.95000160e-04, -4.95000160e-04,
         4.95000160e-04,  4.95000160e-04, -4.95000160e-04,
        -4.95000160e-04, -4.95000160e-04,  4.95000160e-04,
         4.95000160e-04, -4.95000160e-04, -4.95000160e-04,
        -4.94999869e-04,  4.95000160e-04],
       [-4.95000160e-04, -4.94999636e-04,  4.95000219e-04,
        -4.94999869e-04,  4.95000219e-04, -4.95000160e-04,
         4.95000160e-04,  4.95000160e-04, -4.95000160e-04,
         4.95000160e-04,  4.94999636e-04,  4.94999869e-04,
         4.95000160e-04,  4.95000102e-04,  4.95000160e-04,
         4.95000160e-04, -4.95000568e-04,  4.95000160e-04,
         4.95000160e-04,  4.95000160e-04, -4.94999636e-04,
         4.95000451e-04,  4.94999636e-04, -4.94999753e-04,
         4.94999636e-04,  4.95000102e-04,  4.94999753e-04,
         4.95000568e-04, -4.95000160e-04,  4.95000102e-04,
         4.95000160e-04, -4.95000160e-04, -4.95000160e-04,
        -4.95000160e-04,  4.95000160e-04,  4.94999636e-04,
        -4.95000335e-04,  4.95000102e-04, -4.95000160e-04,
        -4.94999869e-04,  4.95000160e-04,  4.94999869e-04,
         4.95000160e-04,  4.95000568e-04, -4.95000160e-04,
        -4.95000160e-04,  4.95000160e-04, -4.95000160e-04,
         4.95000160e-04, -4.95000160e-04],
       [-3.64527404e-02, -7.11285546e-02,  5.74826561e-02,
        -1.47561906e-02,  3.08035575e-02, -4.51413170e-02,
        -2.81807967e-02, -4.12270799e-02,  6.33089617e-02,
        -5.45633398e-02,  3.63169541e-03,  2.63613481e-02,
         2.79661585e-02,  3.21821272e-02,  4.22043093e-02,
        -2.87670502e-03,  7.33082518e-02,  4.41479273e-02,
         3.44494246e-02, -8.35124031e-02,  2.75646783e-02,
        -3.22958827e-02, -1.07280752e-02,  4.66679521e-02,
         1.35901235e-02,  1.17629562e-02, -2.23027896e-02,
        -4.56821807e-02, -8.10784772e-02, -5.69085553e-02,
         7.01019093e-02,  7.16227619e-03, -1.58771258e-02,
        -2.86998060e-02,  8.13795626e-02, -5.72970361e-02,
         2.91874092e-02,  1.27855800e-02, -4.53595743e-02,
         7.47292563e-02,  5.88098280e-02, -4.41867746e-02,
        -8.66536796e-02, -2.16056984e-02, -5.11312438e-03,
         4.55278158e-02, -4.55433875e-03, -9.92586538e-02,
        -2.74845827e-02,  4.24114652e-02],
       [-4.94999869e-04,  4.95000160e-04, -4.94999636e-04,
        -4.94999753e-04,  4.95000160e-04, -4.94999753e-04,
        -4.95000160e-04,  4.95000160e-04,  4.94999869e-04,
        -4.95000160e-04, -4.94999753e-04,  4.95000102e-04,
         4.95000160e-04,  4.94999753e-04, -4.95000160e-04,
        -4.94999869e-04,  4.95000568e-04,  4.95000219e-04,
         4.94999636e-04, -4.95000160e-04,  4.94999636e-04,
         4.95000160e-04, -4.95000160e-04, -4.95000219e-04,
         4.94999636e-04,  4.95000160e-04,  4.94999636e-04,
         4.95000160e-04,  4.95000160e-04,  4.95000160e-04,
        -4.95000219e-04, -4.95000160e-04, -4.95000568e-04,
        -4.95000160e-04, -4.95000219e-04,  4.95000219e-04,
        -4.95000451e-04, -4.95000102e-04,  4.95000160e-04,
         4.95000160e-04,  4.94999636e-04, -4.94999636e-04,
         4.94999636e-04, -4.95000335e-04, -4.94999636e-04,
        -4.95000160e-04,  4.95000451e-04, -4.94999869e-04,
        -4.95000160e-04,  4.95000160e-04],
       [-4.95000335e-04, -4.95000160e-04, -4.95000160e-04,
        -4.95000160e-04, -4.95000160e-04,  4.95000160e-04,
         4.95000160e-04, -4.95000160e-04, -4.95000160e-04,
        -4.95000160e-04, -4.95000160e-04, -4.94999869e-04,
         4.95000160e-04,  4.95000102e-04, -4.95000160e-04,
         4.94999636e-04, -4.94999636e-04, -4.94999869e-04,
         4.95000451e-04, -4.95000160e-04,  4.95000160e-04,
         4.95000102e-04,  4.94999753e-04,  4.94999636e-04,
         4.95000160e-04,  4.94999636e-04, -4.95000160e-04,
         4.95000219e-04, -4.94999753e-04, -4.95000160e-04,
         4.95000160e-04, -4.94999869e-04,  4.95000160e-04,
        -4.94999636e-04, -4.95000160e-04,  4.95000451e-04,
         4.95000160e-04, -4.95000102e-04, -4.95000160e-04,
         4.95000102e-04, -4.95000451e-04, -4.94999753e-04,
         4.95000160e-04, -4.95000160e-04,  4.95000160e-04,
         4.95000160e-04,  4.94999636e-04,  4.94999636e-04,
         4.94999636e-04, -4.95000160e-04],
       [ 3.13913776e-03,  3.38620180e-03, -1.90803513e-03,
         3.13785905e-03, -3.39643308e-03, -9.24891327e-04,
         2.75903102e-03,  1.05900283e-03, -2.90468452e-03,
         2.05147150e-03, -2.71191308e-03, -3.65533144e-03,
        -3.72059364e-03, -3.56806340e-05, -3.08268447e-03,
        -1.35510124e-03, -9.29572212e-04, -3.03253648e-03,
        -3.76163959e-03,  1.57828603e-04,  2.32640305e-04,
         3.76853533e-03,  3.10104457e-03, -3.01933847e-03,
        -3.11510102e-03,  8.90064286e-04,  5.19824680e-03,
         3.84399923e-03,  1.12160831e-03,  2.45868135e-03,
        -1.92217191e-03, -1.93843176e-03, -1.42267882e-03,
         8.00978101e-04, -1.42679864e-05,  3.63917719e-03,
         1.71885069e-04, -2.01285607e-03,  1.31753716e-03,
        -1.32723653e-03, -1.57105050e-03,  9.48249071e-04,
         5.72209712e-03, -5.87656803e-04,  1.59731926e-03,
        -8.02537485e-04,  1.81971572e-03, -1.53585302e-03,
         2.10852199e-03, -6.91003457e-04],
       [ 4.94999636e-04, -4.95000451e-04, -4.95000451e-04,
         4.95000160e-04, -4.95000160e-04, -4.95000160e-04,
         4.94999636e-04, -4.95000160e-04, -4.95000451e-04,
        -4.95000160e-04, -4.95000335e-04, -4.94999753e-04,
         4.95000335e-04, -4.95000568e-04, -4.95000160e-04,
        -4.95000102e-04, -4.95000160e-04, -4.94999869e-04,
         4.95000160e-04, -4.95000160e-04, -4.95000219e-04,
         4.95000160e-04,  4.95000160e-04,  4.94999636e-04,
         4.95000451e-04,  4.95000160e-04, -4.95000160e-04,
         4.95000335e-04,  4.94999753e-04, -4.95000160e-04,
        -4.95000160e-04, -4.94999753e-04, -4.95000219e-04,
         4.95000160e-04, -4.95000160e-04, -4.95000160e-04,
        -4.95000160e-04,  4.95000160e-04,  4.95000160e-04,
        -4.95000160e-04,  4.95000160e-04, -4.95000160e-04,
        -4.95000160e-04,  4.95000451e-04, -4.95000335e-04,
         4.95000160e-04, -4.95000160e-04, -4.95000160e-04,
         4.95000160e-04, -4.95000160e-04],
       [ 4.95000160e-04,  4.95000102e-04, -4.94999753e-04,
         4.94999869e-04, -4.95000160e-04, -4.95000160e-04,
         4.95000160e-04, -4.95000451e-04,  4.95000568e-04,
        -4.95000160e-04, -4.95000160e-04, -4.95000335e-04,
        -4.95000160e-04, -4.94999869e-04, -4.95000219e-04,
        -4.95000160e-04,  4.95000160e-04, -4.95000160e-04,
        -4.95000451e-04, -4.95000335e-04, -4.94999636e-04,
        -4.95000335e-04, -4.95000568e-04, -4.95000160e-04,
        -4.95000451e-04, -4.95000160e-04,  4.95000160e-04,
        -4.95000335e-04,  4.94999636e-04,  4.95000451e-04,
         4.94999869e-04,  4.95000102e-04, -4.95000335e-04,
        -4.95000160e-04,  4.95000451e-04, -4.94999753e-04,
        -4.95000451e-04,  4.94999636e-04,  4.95000102e-04,
         4.95000160e-04, -4.95000160e-04, -4.95000160e-04,
         4.95000160e-04,  4.94999636e-04, -4.94999869e-04,
         4.95000219e-04, -4.95000160e-04, -4.95000160e-04,
        -4.95000160e-04, -4.95000102e-04],
       [ 4.94999869e-04, -4.94999636e-04, -4.95000160e-04,
        -4.95000160e-04, -4.95000160e-04,  4.95000160e-04,
         4.95000335e-04,  4.95000102e-04, -4.95000160e-04,
        -4.95000160e-04, -4.94999636e-04, -4.95000335e-04,
        -4.95000335e-04, -4.95000160e-04,  4.95000160e-04,
        -4.95000160e-04, -4.95000160e-04, -4.95000160e-04,
        -4.95000160e-04, -4.95000160e-04,  4.95000160e-04,
         4.94999869e-04,  4.95000160e-04,  4.95000160e-04,
        -4.94999869e-04,  4.95000160e-04, -4.95000160e-04,
        -4.94999636e-04, -4.95000451e-04,  4.95000160e-04,
         4.95000160e-04,  4.95000102e-04,  4.94999869e-04,
         4.95000160e-04,  4.95000335e-04,  4.95000335e-04,
         4.95000160e-04,  4.95000160e-04, -4.95000219e-04,
        -4.95000160e-04, -4.94999636e-04, -4.95000160e-04,
         4.95000160e-04, -4.95000160e-04, -4.95000160e-04,
        -4.95000160e-04, -4.95000160e-04,  4.95000160e-04,
         4.95000160e-04,  4.94999869e-04],
       [ 4.95000568e-04,  4.95000160e-04, -4.95000160e-04,
        -4.94999869e-04, -4.94999869e-04,  4.95000160e-04,
        -4.95000335e-04, -4.95000160e-04, -4.95000160e-04,
         4.95000160e-04,  4.95000568e-04, -4.95000160e-04,
        -4.94999636e-04, -4.94999636e-04, -4.95000160e-04,
        -4.95000160e-04, -4.95000160e-04,  4.94999753e-04,
         4.95000160e-04, -4.94999753e-04,  4.94999636e-04,
        -4.95000451e-04,  4.95000160e-04, -4.94999636e-04,
        -4.94999636e-04,  4.95000102e-04,  4.95000160e-04,
        -4.95000160e-04, -4.95000160e-04,  4.95000160e-04,
         4.95000219e-04,  4.95000160e-04,  4.95000160e-04,
        -4.94999869e-04,  4.95000160e-04, -4.95000160e-04,
         4.95000160e-04,  4.94999636e-04, -4.95000160e-04,
        -4.95000160e-04, -4.95000568e-04, -4.94999636e-04,
         4.95000160e-04, -4.95000160e-04, -4.95000160e-04,
        -4.94999636e-04, -4.95000160e-04, -4.95000160e-04,
        -4.95000102e-04, -4.95000568e-04],
       [-4.95000160e-04,  4.95000160e-04, -4.94999636e-04,
        -4.95000160e-04,  4.95000160e-04,  4.95000335e-04,
        -4.95000160e-04,  4.94999753e-04, -4.95000160e-04,
         4.95000451e-04, -4.95000160e-04,  4.95000160e-04,
        -4.94999636e-04,  4.95000568e-04,  4.95000568e-04,
        -4.94999869e-04,  4.95000102e-04, -4.95000219e-04,
        -4.95000160e-04, -4.95000160e-04, -4.95000160e-04,
        -4.95000160e-04,  4.95000160e-04,  4.95000335e-04,
         4.95000160e-04, -4.95000102e-04, -4.95000335e-04,
        -4.95000451e-04, -4.95000160e-04, -4.94999753e-04,
         4.95000568e-04,  4.95000160e-04,  4.95000451e-04,
         4.95000451e-04,  4.95000160e-04, -4.95000160e-04,
        -4.95000160e-04, -4.95000568e-04,  4.95000160e-04,
         4.95000160e-04,  4.95000451e-04,  4.95000335e-04,
        -4.95000160e-04, -4.95000160e-04,  4.94999636e-04,
         4.95000160e-04, -4.94999636e-04, -4.95000160e-04,
        -4.95000160e-04, -4.95000219e-04],
       [-4.95000160e-04,  4.95000219e-04, -4.95000160e-04,
         4.95000568e-04,  4.95000160e-04,  4.95000451e-04,
         4.95000219e-04, -4.95000568e-04, -4.95000219e-04,
         4.95000568e-04,  4.95000568e-04, -4.94999753e-04,
        -4.95000160e-04,  4.95000160e-04,  4.95000160e-04,
        -4.95000568e-04, -4.95000160e-04, -4.95000568e-04,
         4.95000568e-04,  4.95000160e-04,  4.95000160e-04,
         4.95000219e-04,  4.95000451e-04, -4.95000160e-04,
        -4.95000160e-04, -4.95000568e-04,  4.95000160e-04,
        -4.95000160e-04, -4.95000568e-04,  4.95000219e-04,
         4.95000160e-04,  4.94999636e-04,  4.95000102e-04,
        -4.95000219e-04,  4.95000160e-04, -4.95000160e-04,
         4.95000219e-04,  4.95000160e-04,  4.95000160e-04,
         4.94999636e-04,  4.95000160e-04, -4.95000451e-04,
        -4.95000160e-04, -4.95000160e-04,  4.95000568e-04,
         4.95000451e-04, -4.95000160e-04,  4.95000160e-04,
        -4.95000160e-04, -4.95000160e-04],
       [-4.94999636e-04, -4.95000160e-04, -4.95000160e-04,
        -4.95000335e-04, -4.95000568e-04,  4.95000160e-04,
        -4.95000160e-04, -4.94999869e-04, -4.95000160e-04,
         4.95000160e-04, -4.95000160e-04,  4.95000160e-04,
        -4.94999636e-04, -4.94999636e-04,  4.95000160e-04,
         4.95000451e-04,  4.95000160e-04,  4.95000160e-04,
         4.95000160e-04, -4.95000160e-04, -4.95000160e-04,
        -4.94999753e-04, -4.95000160e-04,  4.95000160e-04,
         4.94999869e-04,  4.95000568e-04, -4.95000160e-04,
        -4.95000160e-04, -4.95000451e-04, -4.95000568e-04,
         4.95000160e-04, -4.94999636e-04,  4.95000160e-04,
         4.95000160e-04,  4.95000160e-04,  4.95000160e-04,
         4.95000160e-04, -4.95000160e-04,  4.95000160e-04,
         4.95000160e-04,  4.95000219e-04,  4.95000160e-04,
        -4.95000160e-04,  4.95000160e-04, -4.94999636e-04,
        -4.95000160e-04, -4.94999636e-04, -4.95000219e-04,
        -4.95000451e-04,  4.95000102e-04],
       [-4.95000160e-04, -4.95000160e-04, -4.94999636e-04,
        -4.95000451e-04,  4.95000160e-04,  4.94999869e-04,
         4.95000335e-04, -4.95000160e-04,  4.94999636e-04,
        -4.95000160e-04, -4.94999753e-04, -4.94999753e-04,
         4.95000160e-04, -4.95000160e-04,  4.94999753e-04,
        -4.95000102e-04,  4.95000160e-04, -4.95000102e-04,
         4.95000335e-04,  4.95000102e-04, -4.95000160e-04,
         4.95000102e-04,  4.95000451e-04, -4.94999636e-04,
        -4.95000160e-04,  4.95000160e-04,  4.95000451e-04,
        -4.94999869e-04,  4.95000160e-04,  4.94999636e-04,
        -4.94999753e-04,  4.95000219e-04, -4.95000160e-04,
         4.95000160e-04, -4.94999636e-04,  4.95000160e-04,
        -4.95000451e-04, -4.95000160e-04, -4.95000160e-04,
         4.95000160e-04, -4.95000160e-04,  4.95000160e-04,
         4.95000160e-04, -4.94999753e-04, -4.94999753e-04,
        -4.95000102e-04, -4.95000160e-04,  4.95000160e-04,
         4.95000160e-04, -4.95000160e-04],
       [-4.95000160e-04,  4.95000160e-04, -4.94999636e-04,
        -4.94999753e-04,  4.95000160e-04,  4.95000451e-04,
        -4.94999753e-04,  4.95000160e-04,  4.95000451e-04,
        -4.94999636e-04, -4.95000160e-04,  4.95000160e-04,
        -4.95000160e-04,  4.95000102e-04, -4.94999753e-04,
        -4.95000451e-04,  4.95000160e-04, -4.94999636e-04,
        -4.95000160e-04, -4.95000160e-04, -4.95000160e-04,
        -4.95000568e-04,  4.95000160e-04,  4.95000160e-04,
         4.95000160e-04, -4.95000102e-04, -4.95000160e-04,
        -4.95000160e-04,  4.95000160e-04,  4.95000102e-04,
         4.94999636e-04, -4.95000160e-04, -4.95000160e-04,
        -4.95000160e-04, -4.95000451e-04,  4.95000160e-04,
        -4.95000160e-04,  4.95000160e-04,  4.95000160e-04,
        -4.95000160e-04,  4.95000160e-04, -4.95000160e-04,
        -4.95000160e-04,  4.95000160e-04, -4.95000160e-04,
         4.95000160e-04,  4.95000568e-04,  4.94999636e-04,
         4.95000160e-04, -4.95000160e-04],
       [-4.94999636e-04,  4.94999636e-04,  4.95000568e-04,
         4.95000160e-04, -4.95000160e-04,  4.95000451e-04,
         4.95000451e-04,  4.94999636e-04,  4.94999869e-04,
         4.95000160e-04, -4.95000160e-04, -4.95000160e-04,
         4.95000160e-04, -4.94999753e-04, -4.94999636e-04,
        -4.95000160e-04,  4.95000102e-04, -4.95000219e-04,
         4.94999869e-04,  4.94999869e-04,  4.95000451e-04,
         4.95000160e-04, -4.95000160e-04, -4.95000160e-04,
        -4.95000160e-04,  4.95000160e-04,  4.95000160e-04,
         4.94999636e-04, -4.94999636e-04, -4.95000160e-04,
         4.94999636e-04, -4.95000160e-04, -4.95000160e-04,
        -4.95000160e-04,  4.94999636e-04, -4.95000451e-04,
        -4.94999753e-04, -4.95000160e-04, -4.95000160e-04,
        -4.95000160e-04,  4.95000160e-04, -4.95000102e-04,
         4.95000451e-04,  4.95000160e-04,  4.95000160e-04,
         4.95000160e-04, -4.95000160e-04, -4.94999636e-04,
        -4.94999636e-04,  4.95000160e-04],
       [ 4.95000160e-04,  4.95000335e-04,  4.95000102e-04,
         4.95000160e-04,  4.95000160e-04, -4.95000160e-04,
        -4.95000160e-04, -4.95000160e-04,  4.95000160e-04,
        -4.95000160e-04, -4.95000160e-04, -4.95000160e-04,
         4.94999636e-04, -4.94999753e-04,  4.95000160e-04,
        -4.95000160e-04,  4.94999753e-04, -4.95000160e-04,
         4.94999636e-04, -4.95000335e-04, -4.94999636e-04,
         4.95000451e-04, -4.94999869e-04, -4.95000160e-04,
        -4.95000160e-04, -4.95000160e-04,  4.95000160e-04,
        -4.94999636e-04, -4.95000160e-04,  4.95000160e-04,
         4.95000451e-04, -4.94999869e-04,  4.95000335e-04,
         4.95000451e-04, -4.94999753e-04,  4.95000160e-04,
         4.95000160e-04, -4.94999869e-04,  4.95000160e-04,
         4.94999636e-04,  4.95000160e-04, -4.95000102e-04,
        -4.95000160e-04,  4.95000160e-04, -4.95000160e-04,
         4.95000160e-04,  4.95000160e-04,  4.95000451e-04,
        -4.94999636e-04,  4.95000335e-04],
       [-4.95000451e-04,  4.95000102e-04,  4.95000160e-04,
        -4.95000160e-04, -4.95000335e-04,  4.95000102e-04,
         4.94999753e-04, -4.95000160e-04, -4.94999753e-04,
         4.95000102e-04, -4.95000160e-04,  4.95000160e-04,
        -4.95000160e-04,  4.94999869e-04,  4.95000160e-04,
         4.95000160e-04, -4.94999869e-04,  4.95000160e-04,
         4.94999869e-04, -4.95000102e-04, -4.95000160e-04,
        -4.94999753e-04, -4.95000102e-04, -4.95000160e-04,
        -4.95000160e-04, -4.94999869e-04, -4.95000451e-04,
         4.95000160e-04, -4.95000102e-04, -4.94999636e-04,
         4.95000160e-04,  4.94999636e-04,  4.95000451e-04,
        -4.95000160e-04, -4.95000160e-04, -4.95000160e-04,
         4.95000160e-04, -4.95000160e-04, -4.95000160e-04,
         4.95000160e-04,  4.95000160e-04, -4.95000568e-04,
        -4.95000160e-04, -4.95000160e-04,  4.95000160e-04,
        -4.95000335e-04,  4.95000335e-04,  4.95000160e-04,
         4.95000160e-04,  4.95000160e-04],
       [ 4.95000160e-04,  4.95000568e-04,  4.95000160e-04,
        -4.94999869e-04, -4.95000160e-04, -4.95000335e-04,
         4.95000160e-04, -4.95000219e-04,  4.95000568e-04,
        -4.95000160e-04, -4.95000160e-04,  4.95000160e-04,
        -4.95000102e-04,  4.95000451e-04, -4.95000160e-04,
        -4.95000160e-04, -4.94999636e-04, -4.95000102e-04,
         4.95000160e-04,  4.95000219e-04, -4.94999636e-04,
         4.95000160e-04,  4.95000335e-04,  4.95000160e-04,
         4.95000160e-04, -4.95000160e-04, -4.95000335e-04,
         4.94999869e-04, -4.95000102e-04, -4.95000160e-04,
        -4.94999636e-04, -4.94999869e-04, -4.94999869e-04,
        -4.95000568e-04,  4.95000160e-04,  4.95000160e-04,
         4.95000102e-04,  4.95000219e-04,  4.95000451e-04,
        -4.95000160e-04, -4.95000160e-04, -4.95000335e-04,
         4.95000160e-04,  4.95000160e-04,  4.95000160e-04,
         4.95000160e-04, -4.95000451e-04,  4.95000160e-04,
        -4.95000160e-04, -4.95000335e-04],
       [ 4.95000160e-04, -4.95000160e-04, -4.94999636e-04,
         4.95000160e-04, -4.95000160e-04,  4.95000568e-04,
        -4.95000160e-04, -4.95000568e-04,  4.95000451e-04,
        -4.95000160e-04,  4.95000160e-04, -4.95000160e-04,
         4.95000160e-04, -4.95000160e-04,  4.95000160e-04,
        -4.95000160e-04,  4.95000160e-04, -4.94999869e-04,
        -4.95000568e-04, -4.95000568e-04, -4.95000568e-04,
         4.94999869e-04,  4.95000160e-04,  4.95000160e-04,
         4.95000160e-04, -4.95000160e-04, -4.95000568e-04,
        -4.94999869e-04,  4.95000451e-04, -4.95000160e-04,
         4.95000160e-04, -4.95000160e-04,  4.95000160e-04,
        -4.95000451e-04, -4.95000160e-04,  4.95000451e-04,
        -4.95000160e-04, -4.95000160e-04, -4.95000160e-04,
        -4.95000160e-04, -4.95000451e-04, -4.95000451e-04,
        -4.95000160e-04, -4.95000160e-04, -4.95000160e-04,
         4.95000102e-04,  4.95000568e-04,  4.95000102e-04,
         4.95000160e-04, -4.95000160e-04],
       [ 4.95000568e-04, -4.95000160e-04,  4.95000160e-04,
        -4.95000451e-04, -4.95000568e-04, -4.95000451e-04,
        -4.95000160e-04,  4.95000219e-04, -4.95000160e-04,
        -4.95000160e-04,  4.95000335e-04, -4.94999753e-04,
         4.95000451e-04, -4.94999869e-04, -4.94999869e-04,
        -4.95000219e-04,  4.94999636e-04,  4.95000160e-04,
         4.95000160e-04,  4.94999636e-04,  4.95000160e-04,
        -4.95000451e-04,  4.95000160e-04,  4.95000160e-04,
         4.95000160e-04,  4.95000335e-04, -4.95000160e-04,
        -4.95000102e-04,  4.94999869e-04,  4.95000160e-04,
        -4.95000102e-04, -4.95000335e-04, -4.94999869e-04,
         4.95000160e-04,  4.95000160e-04,  4.95000160e-04,
        -4.95000160e-04, -4.95000160e-04,  4.95000160e-04,
        -4.95000160e-04, -4.94999869e-04,  4.95000568e-04,
         4.94999636e-04,  4.94999636e-04,  4.95000160e-04,
        -4.95000160e-04,  4.94999869e-04, -4.95000160e-04,
        -4.95000102e-04,  4.95000160e-04],
       [ 4.95000160e-04,  4.95000160e-04, -4.95000160e-04,
         4.95000160e-04, -4.95000102e-04,  4.95000451e-04,
        -4.95000568e-04,  4.95000451e-04,  4.94999869e-04,
        -4.95000568e-04,  4.95000160e-04,  4.95000160e-04,
         4.95000160e-04,  4.94999869e-04, -4.95000451e-04,
        -4.95000160e-04, -4.95000102e-04, -4.95000160e-04,
        -4.95000335e-04, -4.95000160e-04, -4.95000160e-04,
         4.95000451e-04, -4.94999636e-04,  4.95000160e-04,
        -4.95000160e-04, -4.95000160e-04, -4.95000568e-04,
        -4.95000160e-04,  4.95000160e-04, -4.95000102e-04,
         4.95000160e-04,  4.95000451e-04,  4.95000160e-04,
        -4.94999636e-04, -4.95000219e-04, -4.94999636e-04,
        -4.95000160e-04,  4.95000160e-04,  4.95000160e-04,
        -4.95000451e-04,  4.95000160e-04, -4.95000335e-04,
         4.94999869e-04, -4.95000219e-04, -4.94999753e-04,
        -4.95000568e-04, -4.95000451e-04, -4.95000451e-04,
         4.95000160e-04, -4.95000160e-04],
       [-4.95000160e-04, -4.95000160e-04, -4.95000160e-04,
         4.94999869e-04,  4.95000160e-04,  4.95000160e-04,
         4.95000160e-04,  4.95000160e-04,  4.95000160e-04,
         4.95000160e-04,  4.95000160e-04, -4.95000160e-04,
         4.95000160e-04,  4.95000160e-04, -4.95000160e-04,
         4.95000160e-04,  4.95000160e-04,  4.94999636e-04,
        -4.95000160e-04, -4.95000160e-04, -4.95000160e-04,
        -4.95000568e-04, -4.94999753e-04,  4.94999869e-04,
         4.95000160e-04, -4.94999636e-04,  4.95000102e-04,
         4.95000160e-04,  4.95000451e-04, -4.95000102e-04,
        -4.95000160e-04, -4.94999636e-04,  4.94999636e-04,
        -4.95000160e-04, -4.95000160e-04,  4.95000160e-04,
        -4.95000160e-04,  4.95000160e-04, -4.95000160e-04,
         4.95000160e-04, -4.95000160e-04, -4.95000160e-04,
         4.95000160e-04,  4.95000160e-04,  4.95000160e-04,
        -4.95000160e-04, -4.95000219e-04,  4.95000160e-04,
        -4.95000160e-04,  4.95000160e-04],
       [-4.95000160e-04, -4.95000160e-04, -4.95000451e-04,
        -4.95000160e-04,  4.95000160e-04, -4.95000568e-04,
         4.95000160e-04, -4.95000160e-04, -4.95000335e-04,
         4.95000451e-04, -4.95000102e-04, -4.95000451e-04,
        -4.95000160e-04, -4.94999869e-04,  4.95000160e-04,
         4.95000160e-04,  4.95000102e-04,  4.95000568e-04,
         4.95000160e-04,  4.95000160e-04, -4.94999869e-04,
         4.95000160e-04, -4.95000160e-04, -4.95000160e-04,
         4.94999869e-04, -4.94999636e-04, -4.95000451e-04,
        -4.95000160e-04,  4.94999636e-04,  4.95000160e-04,
         4.94999753e-04, -4.95000160e-04,  4.94999636e-04,
         4.95000451e-04, -4.95000219e-04, -4.94999869e-04,
        -4.94999636e-04, -4.94999869e-04,  4.95000160e-04,
         4.95000568e-04,  4.95000160e-04,  4.95000102e-04,
         4.94999636e-04, -4.95000160e-04,  4.95000160e-04,
        -4.95000102e-04,  4.95000102e-04,  4.95000160e-04,
        -4.95000160e-04, -4.94999636e-04],
       [ 3.34487180e-04,  4.56795067e-04, -4.71831940e-04,
        -5.09157893e-04, -4.09406668e-04, -4.20512457e-04,
        -3.75206175e-04, -4.95128275e-04,  7.45094963e-04,
         5.92233555e-04,  7.36220740e-04, -5.94178040e-04,
         3.42538813e-04,  1.88111502e-04,  3.29149771e-04,
        -4.31160093e-04, -4.23228368e-04, -5.17807610e-04,
         3.48665752e-04,  4.83784534e-04, -2.72500532e-04,
         3.46175861e-04, -4.84489661e-04, -4.85902419e-04,
         7.75392284e-04, -4.44892939e-04, -2.52923710e-05,
        -4.58489696e-04, -4.85165161e-04, -7.66114099e-04,
         4.66802507e-04,  5.41829853e-04,  2.50004668e-04,
        -2.03517964e-04, -5.27001161e-04,  5.05301054e-04,
        -2.80967157e-04,  5.52218233e-04, -2.95928272e-04,
        -5.21446811e-04,  4.98771202e-04,  2.22718198e-04,
         1.20059285e-05, -3.82176164e-04, -6.18807622e-04,
        -2.30199657e-04,  5.62768197e-04, -4.92769701e-04,
         4.10599867e-04, -2.27297016e-04],
       [ 4.95000568e-04, -4.95000451e-04,  4.95000219e-04,
         4.95000160e-04,  4.95000160e-04,  4.95000160e-04,
        -4.95000160e-04, -4.94999753e-04,  4.94999636e-04,
         4.95000160e-04, -4.95000451e-04, -4.95000160e-04,
         4.95000451e-04, -4.95000160e-04,  4.95000451e-04,
        -4.94999869e-04, -4.95000160e-04,  4.95000451e-04,
        -4.95000160e-04,  4.95000160e-04, -4.95000160e-04,
        -4.95000160e-04, -4.95000451e-04, -4.95000335e-04,
        -4.95000102e-04, -4.95000160e-04,  4.95000451e-04,
        -4.94999869e-04, -4.94999636e-04,  4.94999636e-04,
         4.95000160e-04,  4.94999636e-04,  4.95000160e-04,
         4.95000160e-04, -4.95000160e-04, -4.94999753e-04,
         4.95000335e-04, -4.95000160e-04,  4.94999753e-04,
         4.95000160e-04,  4.94999753e-04, -4.95000160e-04,
         4.95000160e-04, -4.95000160e-04,  4.94999869e-04,
        -4.95000568e-04,  4.94999869e-04, -4.94999636e-04,
        -4.95000160e-04,  4.94999636e-04],
       [-4.94999869e-04, -4.94999753e-04,  4.95000451e-04,
        -4.94999636e-04, -4.94999869e-04,  4.95000160e-04,
         4.95000160e-04, -4.95000160e-04,  4.95000102e-04,
         4.95000219e-04,  4.95000568e-04,  4.95000219e-04,
         4.95000160e-04,  4.95000160e-04,  4.95000102e-04,
        -4.94999636e-04,  4.94999753e-04,  4.95000160e-04,
         4.94999636e-04, -4.95000160e-04, -4.95000160e-04,
         4.95000568e-04,  4.95000160e-04, -4.95000160e-04,
        -4.95000160e-04,  4.95000160e-04,  4.95000160e-04,
        -4.95000160e-04, -4.94999636e-04,  4.95000160e-04,
        -4.94999753e-04,  4.94999753e-04, -4.95000160e-04,
        -4.95000160e-04, -4.95000160e-04, -4.95000219e-04,
        -4.94999869e-04, -4.95000160e-04, -4.95000451e-04,
        -4.94999636e-04,  4.95000160e-04, -4.95000102e-04,
         4.95000102e-04, -4.95000160e-04, -4.95000160e-04,
        -4.95000219e-04, -4.95000160e-04,  4.95000160e-04,
         4.94999869e-04, -4.95000160e-04],
       [-4.94999636e-04,  4.95000160e-04, -4.95000160e-04,
        -4.94999869e-04,  4.95000451e-04, -4.95000335e-04,
         4.94999636e-04,  4.95000335e-04,  4.95000160e-04,
        -4.95000335e-04,  4.95000160e-04, -4.95000160e-04,
        -4.95000102e-04, -4.95000568e-04, -4.95000160e-04,
        -4.94999869e-04,  4.95000335e-04, -4.95000160e-04,
         4.95000451e-04, -4.94999636e-04,  4.95000568e-04,
        -4.95000160e-04, -4.94999636e-04,  4.95000160e-04,
         4.94999753e-04, -4.95000160e-04,  4.94999636e-04,
         4.95000102e-04, -4.94999636e-04,  4.94999869e-04,
        -4.95000160e-04, -4.95000160e-04, -4.95000160e-04,
         4.95000219e-04, -4.95000160e-04,  4.95000219e-04,
        -4.95000160e-04, -4.95000160e-04, -4.95000160e-04,
         4.95000160e-04,  4.95000160e-04, -4.95000451e-04,
        -4.95000160e-04,  4.95000160e-04,  4.94999636e-04,
         4.95000160e-04, -4.94999753e-04,  4.94999869e-04,
        -4.95000160e-04,  4.95000160e-04],
       [ 4.94999636e-04, -4.95000160e-04, -4.95000160e-04,
        -4.94999753e-04, -4.95000160e-04, -4.95000160e-04,
        -4.95000102e-04,  4.95000160e-04, -4.94999636e-04,
        -4.95000160e-04, -4.95000102e-04,  4.95000160e-04,
        -4.94999636e-04,  4.95000160e-04, -4.95000160e-04,
         4.94999636e-04, -4.95000102e-04,  4.95000160e-04,
        -4.95000335e-04, -4.95000160e-04,  4.95000160e-04,
        -4.95000160e-04,  4.95000160e-04, -4.95000335e-04,
         4.94999636e-04,  4.95000568e-04,  4.95000160e-04,
         4.95000160e-04, -4.95000451e-04, -4.95000160e-04,
         4.95000219e-04,  4.95000451e-04,  4.95000160e-04,
        -4.94999636e-04,  4.95000568e-04, -4.95000102e-04,
         4.95000160e-04, -4.94999869e-04,  4.95000102e-04,
         4.95000335e-04,  4.95000451e-04, -4.95000160e-04,
        -4.94999636e-04, -4.94999869e-04, -4.95000568e-04,
         4.95000160e-04, -4.95000451e-04, -4.94999869e-04,
         4.94999869e-04,  4.95000335e-04],
       [ 4.95000160e-04, -4.95000160e-04,  4.94999869e-04,
         4.95000160e-04,  4.95000219e-04, -4.95000160e-04,
        -4.95000160e-04,  4.95000160e-04,  4.95000219e-04,
         4.95000160e-04,  4.95000160e-04,  4.95000160e-04,
        -4.95000335e-04, -4.94999636e-04, -4.95000160e-04,
         4.95000160e-04, -4.95000160e-04, -4.95000160e-04,
        -4.95000160e-04,  4.95000568e-04, -4.95000160e-04,
        -4.94999869e-04,  4.95000160e-04, -4.94999636e-04,
        -4.95000102e-04,  4.94999869e-04,  4.94999636e-04,
        -4.95000568e-04,  4.94999869e-04, -4.95000102e-04,
         4.95000219e-04, -4.94999753e-04,  4.95000160e-04,
        -4.95000160e-04,  4.95000451e-04,  4.95000160e-04,
        -4.94999753e-04, -4.95000102e-04,  4.95000160e-04,
        -4.94999636e-04, -4.95000568e-04, -4.95000160e-04,
         4.95000160e-04, -4.95000160e-04, -4.94999636e-04,
         4.94999869e-04,  4.94999753e-04,  4.95000160e-04,
        -4.95000219e-04, -4.95000160e-04],
       [-4.95000160e-04,  4.95000160e-04, -4.95000451e-04,
        -4.95000568e-04, -4.95000219e-04, -4.95000160e-04,
         4.95000160e-04, -4.95000160e-04,  4.94999869e-04,
        -4.95000160e-04, -4.95000451e-04, -4.94999636e-04,
         4.95000160e-04,  4.94999636e-04,  4.95000160e-04,
         4.95000160e-04,  4.95000160e-04, -4.94999636e-04,
        -4.95000160e-04,  4.95000102e-04, -4.95000160e-04,
         4.95000102e-04,  4.94999869e-04, -4.95000160e-04,
         4.95000568e-04, -4.94999869e-04,  4.95000160e-04,
        -4.94999869e-04, -4.95000160e-04, -4.95000102e-04,
        -4.95000160e-04, -4.95000160e-04, -4.95000102e-04,
        -4.94999869e-04,  4.94999636e-04,  4.95000160e-04,
         4.95000102e-04,  4.95000160e-04,  4.95000160e-04,
         4.95000160e-04, -4.94999636e-04,  4.95000160e-04,
         4.94999869e-04,  4.94999869e-04, -4.95000335e-04,
        -4.94999636e-04,  4.95000160e-04, -4.94999869e-04,
        -4.95000568e-04, -4.95000451e-04],
       [ 4.95000568e-04, -4.95000160e-04,  4.94999636e-04,
         4.95000335e-04, -4.95000160e-04,  4.95000160e-04,
         4.95000160e-04,  4.95000335e-04, -4.95000219e-04,
         4.95000160e-04,  4.94999636e-04,  4.94999636e-04,
        -4.94999869e-04,  4.95000568e-04, -4.95000160e-04,
         4.95000451e-04,  4.95000160e-04,  4.95000160e-04,
        -4.95000160e-04,  4.95000568e-04,  4.95000160e-04,
        -4.94999636e-04, -4.95000160e-04, -4.94999636e-04,
        -4.95000160e-04, -4.95000102e-04, -4.95000160e-04,
         4.94999869e-04,  4.95000160e-04, -4.95000160e-04,
        -4.95000160e-04,  4.95000160e-04, -4.95000160e-04,
        -4.94999636e-04, -4.95000160e-04,  4.95000160e-04,
        -4.95000160e-04,  4.95000335e-04,  4.95000160e-04,
        -4.95000102e-04, -4.95000451e-04,  4.95000160e-04,
         4.94999636e-04,  4.95000160e-04, -4.95000160e-04,
         4.94999636e-04, -4.95000219e-04, -4.94999636e-04,
        -4.95000160e-04, -4.95000160e-04],
       [-2.26587415e-01,  1.78718314e-01,  2.07164943e-01,
        -2.17417642e-01,  2.21711963e-01, -2.11375117e-01,
        -2.01127782e-01, -2.16723219e-01, -1.81680754e-01,
        -2.26348817e-01,  2.12510213e-01,  2.24107429e-01,
         2.23573193e-01, -1.97990611e-01,  2.26641893e-01,
         2.11429328e-01,  1.91371068e-01,  2.27250695e-01,
         2.25711048e-01, -1.51587158e-01, -2.00280041e-01,
        -2.26902261e-01, -2.15118155e-01,  2.27003276e-01,
         2.15766340e-01, -2.04924896e-01,  5.69313206e-02,
        -2.26840109e-01, -1.30665705e-01,  1.86651796e-01,
         1.39203086e-01,  2.16125935e-01,  2.04680115e-01,
        -1.86399907e-01,  1.66288897e-01, -2.25705639e-01,
        -1.99505165e-01,  2.01227352e-01,  1.92373574e-01,
         1.73420832e-01,  9.69259664e-02,  1.92818388e-01,
         1.58812031e-01,  2.03012183e-01, -2.13795513e-01,
        -1.92163870e-01, -2.14838907e-01, -1.79527536e-01,
        -2.23959446e-01, -1.94096893e-01],
       [-4.95000160e-04, -4.94999753e-04, -4.95000335e-04,
         4.95000160e-04,  4.95000160e-04, -4.94999636e-04,
         4.95000568e-04, -4.95000335e-04,  4.95000568e-04,
        -4.94999636e-04,  4.94999869e-04,  4.95000568e-04,
         4.94999869e-04,  4.95000219e-04,  4.95000160e-04,
         4.94999753e-04,  4.95000160e-04,  4.95000160e-04,
        -4.95000160e-04,  4.95000160e-04,  4.95000451e-04,
        -4.94999869e-04, -4.95000160e-04,  4.95000160e-04,
        -4.95000160e-04, -4.94999636e-04,  4.94999753e-04,
        -4.95000160e-04,  4.94999753e-04, -4.95000160e-04,
         4.95000219e-04, -4.94999869e-04, -4.95000160e-04,
        -4.95000160e-04,  4.95000160e-04, -4.94999636e-04,
        -4.95000160e-04,  4.94999636e-04, -4.94999753e-04,
         4.95000102e-04, -4.95000102e-04,  4.95000102e-04,
        -4.94999869e-04, -4.95000160e-04, -4.95000160e-04,
        -4.95000160e-04,  4.95000160e-04,  4.95000160e-04,
        -4.95000335e-04,  4.95000160e-04],
       [ 4.94999636e-04, -4.95000160e-04, -4.95000451e-04,
         4.95000102e-04, -4.95000160e-04, -4.94999636e-04,
         4.94999869e-04, -4.95000160e-04, -4.94999636e-04,
         4.95000160e-04, -4.95000568e-04,  4.95000160e-04,
         4.95000160e-04,  4.95000160e-04,  4.95000160e-04,
         4.95000568e-04, -4.94999636e-04,  4.95000160e-04,
        -4.94999753e-04, -4.94999753e-04, -4.95000160e-04,
         4.94999636e-04,  4.94999869e-04,  4.95000102e-04,
        -4.95000219e-04,  4.95000219e-04,  4.95000160e-04,
        -4.95000160e-04,  4.95000160e-04, -4.94999636e-04,
        -4.95000160e-04,  4.95000160e-04,  4.95000568e-04,
        -4.95000160e-04,  4.95000160e-04, -4.95000568e-04,
         4.95000160e-04, -4.95000568e-04,  4.95000160e-04,
        -4.94999636e-04, -4.95000160e-04,  4.95000160e-04,
         4.95000160e-04, -4.95000160e-04, -4.95000219e-04,
        -4.95000160e-04,  4.95000160e-04, -4.95000160e-04,
         4.94999636e-04, -4.94999753e-04],
       [ 4.95000160e-04, -4.95000160e-04, -4.95000160e-04,
         4.95000335e-04, -4.95000160e-04,  4.95000160e-04,
         4.95000160e-04,  4.95000160e-04, -4.95000102e-04,
         4.95000451e-04,  4.95000160e-04,  4.95000160e-04,
         4.95000219e-04,  4.95000451e-04,  4.95000160e-04,
        -4.95000568e-04, -4.94999869e-04,  4.95000335e-04,
         4.95000160e-04,  4.95000160e-04, -4.95000160e-04,
         4.95000160e-04, -4.95000160e-04, -4.95000160e-04,
         4.95000160e-04,  4.95000160e-04, -4.95000160e-04,
        -4.94999636e-04,  4.95000451e-04, -4.95000160e-04,
        -4.95000160e-04,  4.95000160e-04, -4.95000160e-04,
        -4.95000335e-04,  4.95000160e-04,  4.95000335e-04,
        -4.95000102e-04,  4.95000160e-04, -4.94999753e-04,
         4.95000160e-04, -4.94999753e-04,  4.95000568e-04,
        -4.95000160e-04,  4.94999636e-04,  4.95000219e-04,
        -4.95000160e-04, -4.94999869e-04,  4.95000160e-04,
        -4.95000102e-04, -4.95000335e-04],
       [-4.95000160e-04, -4.95000160e-04,  4.95000451e-04,
         4.95000160e-04,  4.94999753e-04, -4.95000160e-04,
        -4.94999753e-04, -4.95000160e-04,  4.95000102e-04,
        -4.95000160e-04,  4.94999636e-04,  4.95000102e-04,
        -4.94999869e-04,  4.95000160e-04, -4.95000160e-04,
        -4.95000335e-04, -4.95000160e-04,  4.94999869e-04,
        -4.94999869e-04,  4.95000160e-04,  4.95000335e-04,
         4.95000160e-04, -4.95000451e-04, -4.95000160e-04,
         4.95000160e-04, -4.94999753e-04,  4.95000219e-04,
         4.95000160e-04, -4.94999636e-04, -4.94999869e-04,
         4.94999636e-04, -4.95000160e-04, -4.95000160e-04,
         4.95000219e-04, -4.94999636e-04,  4.95000160e-04,
         4.95000219e-04,  4.95000160e-04,  4.95000160e-04,
         4.95000160e-04,  4.95000160e-04, -4.95000160e-04,
        -4.95000160e-04, -4.95000160e-04,  4.95000160e-04,
         4.95000102e-04,  4.95000568e-04,  4.95000160e-04,
        -4.95000219e-04, -4.95000160e-04],
       [ 4.95000335e-04,  4.94999636e-04, -4.95000160e-04,
         4.95000160e-04,  4.94999753e-04, -4.94999869e-04,
        -4.95000568e-04, -4.95000160e-04,  4.95000160e-04,
         4.95000451e-04, -4.95000335e-04, -4.95000451e-04,
        -4.94999869e-04,  4.95000160e-04,  4.95000160e-04,
        -4.94999636e-04,  4.95000160e-04, -4.95000160e-04,
        -4.95000102e-04,  4.95000160e-04, -4.95000160e-04,
        -4.95000160e-04, -4.95000451e-04, -4.95000160e-04,
        -4.95000160e-04, -4.94999753e-04, -4.94999636e-04,
        -4.95000160e-04,  4.94999753e-04,  4.94999869e-04,
        -4.95000102e-04,  4.94999636e-04, -4.95000160e-04,
        -4.95000102e-04, -4.95000160e-04, -4.95000102e-04,
        -4.94999636e-04, -4.95000102e-04, -4.95000451e-04,
         4.94999869e-04, -4.95000568e-04, -4.95000160e-04,
         4.95000160e-04,  4.94999636e-04, -4.94999636e-04,
        -4.95000160e-04,  4.94999636e-04,  4.95000160e-04,
         4.95000102e-04,  4.95000451e-04],
       [-4.95000568e-04, -4.95000451e-04, -4.94999636e-04,
         4.95000160e-04, -4.94999869e-04,  4.95000160e-04,
         4.95000160e-04, -4.95000160e-04,  4.94999636e-04,
        -4.95000160e-04, -4.95000160e-04,  4.94999636e-04,
        -4.95000160e-04,  4.95000160e-04,  4.95000160e-04,
         4.95000451e-04,  4.95000160e-04,  4.94999636e-04,
        -4.95000160e-04,  4.94999753e-04, -4.94999636e-04,
        -4.94999869e-04,  4.95000160e-04, -4.95000160e-04,
        -4.94999636e-04, -4.95000160e-04, -4.94999753e-04,
        -4.95000160e-04, -4.95000160e-04, -4.94999636e-04,
        -4.95000160e-04, -4.95000102e-04, -4.95000335e-04,
         4.95000568e-04, -4.95000160e-04,  4.95000160e-04,
        -4.94999636e-04,  4.95000160e-04,  4.95000335e-04,
         4.94999753e-04, -4.94999753e-04, -4.95000160e-04,
        -4.94999636e-04, -4.95000568e-04,  4.95000160e-04,
         4.95000160e-04,  4.94999636e-04,  4.95000160e-04,
        -4.95000160e-04,  4.94999636e-04],
       [ 4.95000160e-04, -4.95000160e-04, -4.95000160e-04,
        -4.95000335e-04,  4.94999753e-04,  4.94999636e-04,
        -4.95000160e-04,  4.95000160e-04,  4.95000160e-04,
        -4.95000160e-04, -4.95000160e-04,  4.95000160e-04,
        -4.95000160e-04, -4.95000102e-04,  4.95000102e-04,
        -4.95000102e-04, -4.95000160e-04, -4.94999636e-04,
        -4.94999753e-04,  4.95000160e-04, -4.95000568e-04,
         4.95000160e-04, -4.95000160e-04,  4.95000160e-04,
        -4.95000160e-04,  4.95000102e-04,  4.95000160e-04,
         4.95000451e-04, -4.95000160e-04,  4.94999869e-04,
        -4.95000160e-04, -4.95000160e-04, -4.95000160e-04,
        -4.95000160e-04,  4.95000568e-04, -4.95000451e-04,
        -4.94999636e-04,  4.95000160e-04, -4.95000160e-04,
         4.95000160e-04,  4.95000160e-04,  4.94999869e-04,
        -4.95000160e-04, -4.95000160e-04, -4.95000568e-04,
         4.94999869e-04,  4.95000160e-04, -4.95000102e-04,
         4.95000160e-04,  4.95000219e-04],
       [-4.95000102e-04, -4.95000160e-04, -4.95000160e-04,
         4.94999753e-04,  4.95000451e-04,  4.95000160e-04,
         4.95000160e-04, -4.95000160e-04,  4.95000451e-04,
        -4.95000568e-04, -4.95000160e-04, -4.94999636e-04,
         4.95000102e-04, -4.94999636e-04, -4.95000160e-04,
         4.94999753e-04,  4.95000160e-04,  4.95000568e-04,
        -4.95000160e-04,  4.95000160e-04,  4.95000102e-04,
         4.95000160e-04, -4.95000160e-04, -4.95000160e-04,
         4.95000568e-04, -4.95000160e-04, -4.95000160e-04,
        -4.95000160e-04,  4.95000451e-04, -4.94999636e-04,
        -4.94999636e-04, -4.95000160e-04,  4.94999869e-04,
         4.95000160e-04, -4.95000160e-04, -4.95000568e-04,
         4.95000160e-04,  4.95000335e-04, -4.94999636e-04,
        -4.95000335e-04, -4.94999753e-04, -4.94999869e-04,
        -4.95000160e-04,  4.95000160e-04,  4.95000160e-04,
         4.95000160e-04,  4.95000451e-04,  4.95000451e-04,
         4.95000451e-04, -4.95000160e-04],
       [ 4.95000160e-04,  4.95000160e-04, -4.94999636e-04,
        -4.94999636e-04, -4.95000160e-04, -4.94999636e-04,
        -4.95000160e-04,  4.95000160e-04, -4.95000160e-04,
        -4.95000160e-04,  4.95000568e-04, -4.95000160e-04,
         4.94999869e-04, -4.95000335e-04, -4.95000160e-04,
        -4.95000335e-04, -4.95000160e-04,  4.94999753e-04,
        -4.94999869e-04, -4.95000160e-04,  4.95000102e-04,
        -4.95000160e-04, -4.95000160e-04, -4.95000451e-04,
         4.95000160e-04, -4.95000160e-04,  4.95000451e-04,
        -4.95000160e-04,  4.95000160e-04, -4.95000102e-04,
        -4.95000160e-04, -4.95000160e-04, -4.94999753e-04,
        -4.95000160e-04, -4.94999636e-04, -4.94999636e-04,
         4.95000219e-04,  4.94999636e-04, -4.95000160e-04,
         4.95000160e-04,  4.95000451e-04, -4.94999753e-04,
        -4.95000160e-04, -4.94999869e-04, -4.94999753e-04,
         4.94999869e-04, -4.95000160e-04, -4.95000160e-04,
         4.95000160e-04,  4.94999869e-04],
       [-4.94999869e-04, -4.95000160e-04,  4.95000160e-04,
         4.95000568e-04,  4.95000160e-04, -4.95000160e-04,
         4.95000568e-04, -4.95000451e-04,  4.94999869e-04,
        -4.95000568e-04, -4.95000568e-04, -4.95000160e-04,
        -4.94999636e-04, -4.94999869e-04, -4.95000160e-04,
        -4.95000160e-04,  4.94999636e-04, -4.94999869e-04,
         4.95000219e-04, -4.95000102e-04, -4.94999869e-04,
        -4.94999636e-04, -4.95000568e-04,  4.95000335e-04,
        -4.95000451e-04, -4.95000160e-04, -4.94999869e-04,
        -4.94999869e-04,  4.94999636e-04, -4.95000102e-04,
         4.95000160e-04, -4.95000451e-04,  4.94999636e-04,
         4.95000160e-04,  4.94999869e-04,  4.95000160e-04,
         4.94999636e-04,  4.94999636e-04, -4.94999636e-04,
        -4.95000102e-04, -4.95000160e-04,  4.94999869e-04,
        -4.95000335e-04,  4.95000451e-04, -4.94999869e-04,
         4.95000160e-04,  4.95000160e-04,  4.95000568e-04,
         4.95000160e-04, -4.94999753e-04],
       [ 4.95000160e-04, -4.94999869e-04,  4.94999753e-04,
         4.95000160e-04, -4.94999869e-04,  4.95000568e-04,
         4.95000160e-04,  4.95000160e-04,  4.95000219e-04,
         4.94999869e-04, -4.95000568e-04, -4.95000335e-04,
        -4.95000219e-04,  4.95000160e-04, -4.95000160e-04,
        -4.95000160e-04,  4.95000160e-04, -4.95000160e-04,
        -4.95000160e-04, -4.95000160e-04,  4.95000160e-04,
         4.94999753e-04,  4.95000160e-04, -4.95000160e-04,
        -4.94999869e-04,  4.95000160e-04, -4.95000160e-04,
        -4.95000160e-04,  4.95000160e-04, -4.95000160e-04,
        -4.95000160e-04, -4.95000160e-04,  4.94999636e-04,
        -4.95000102e-04,  4.95000568e-04, -4.94999636e-04,
         4.95000451e-04,  4.94999636e-04,  4.95000160e-04,
        -4.94999753e-04, -4.95000160e-04, -4.95000160e-04,
        -4.95000451e-04,  4.95000160e-04, -4.95000102e-04,
         4.95000451e-04,  4.95000568e-04,  4.95000160e-04,
        -4.95000160e-04, -4.95000160e-04],
       [ 4.94999869e-04,  4.94999636e-04,  4.95000335e-04,
        -4.95000160e-04,  4.94999753e-04, -4.95000219e-04,
        -4.95000160e-04,  4.95000451e-04, -4.95000335e-04,
        -4.95000160e-04, -4.95000160e-04, -4.95000451e-04,
        -4.95000160e-04, -4.95000160e-04, -4.95000160e-04,
         4.94999869e-04, -4.95000160e-04,  4.95000160e-04,
         4.95000160e-04, -4.95000160e-04,  4.95000451e-04,
        -4.94999636e-04, -4.95000160e-04, -4.95000568e-04,
         4.94999636e-04,  4.95000160e-04,  4.95000451e-04,
         4.94999636e-04,  4.95000160e-04,  4.94999753e-04,
        -4.95000160e-04, -4.95000160e-04,  4.95000568e-04,
        -4.94999636e-04, -4.95000102e-04,  4.95000451e-04,
         4.94999636e-04,  4.95000160e-04,  4.94999636e-04,
         4.95000102e-04, -4.95000160e-04, -4.95000160e-04,
         4.95000160e-04,  4.94999636e-04,  4.95000219e-04,
        -4.95000160e-04, -4.95000160e-04, -4.95000160e-04,
        -4.95000160e-04,  4.95000160e-04],
       [-4.95000160e-04,  4.95000335e-04,  4.94999636e-04,
         4.94999753e-04,  4.94999869e-04, -4.95000160e-04,
         4.94999636e-04,  4.94999636e-04, -4.95000451e-04,
        -4.95000160e-04,  4.95000160e-04,  4.95000160e-04,
        -4.95000335e-04, -4.94999753e-04,  4.95000335e-04,
         4.94999636e-04,  4.94999636e-04,  4.95000451e-04,
        -4.95000102e-04,  4.95000160e-04,  4.95000219e-04,
         4.95000102e-04, -4.95000160e-04,  4.95000160e-04,
         4.95000160e-04, -4.95000160e-04, -4.95000451e-04,
        -4.95000160e-04, -4.95000335e-04, -4.95000160e-04,
        -4.95000219e-04,  4.95000335e-04, -4.95000160e-04,
        -4.95000335e-04, -4.94999753e-04, -4.95000160e-04,
         4.94999869e-04,  4.95000568e-04,  4.95000451e-04,
        -4.95000160e-04, -4.95000160e-04,  4.94999753e-04,
        -4.94999869e-04,  4.95000160e-04,  4.95000160e-04,
        -4.95000160e-04,  4.94999636e-04,  4.95000160e-04,
        -4.95000160e-04,  4.95000160e-04],
       [-4.95000160e-04, -4.95000568e-04,  4.95000102e-04,
        -4.95000451e-04, -4.95000160e-04, -4.95000568e-04,
        -4.94999753e-04, -4.95000102e-04, -4.94999869e-04,
         4.95000160e-04, -4.95000160e-04, -4.94999869e-04,
        -4.94999636e-04, -4.95000160e-04, -4.94999636e-04,
         4.95000160e-04, -4.95000160e-04,  4.94999869e-04,
         4.94999636e-04, -4.94999869e-04, -4.95000160e-04,
         4.95000160e-04,  4.95000219e-04,  4.95000160e-04,
        -4.94999869e-04, -4.95000160e-04, -4.95000568e-04,
         4.95000335e-04,  4.95000160e-04,  4.95000160e-04,
        -4.95000160e-04,  4.95000102e-04,  4.95000335e-04,
        -4.95000335e-04, -4.95000160e-04,  4.95000568e-04,
        -4.95000102e-04,  4.95000160e-04,  4.95000160e-04,
        -4.95000160e-04, -4.95000160e-04, -4.95000335e-04,
         4.95000219e-04,  4.95000102e-04,  4.95000219e-04,
         4.95000219e-04, -4.94999753e-04,  4.95000335e-04,
        -4.94999636e-04,  4.94999869e-04],
       [ 4.95000160e-04,  4.95000160e-04,  4.95000160e-04,
        -4.95000160e-04, -4.95000160e-04, -4.95000160e-04,
        -4.94999869e-04, -4.95000160e-04, -4.95000160e-04,
        -4.95000160e-04, -4.95000160e-04,  4.95000160e-04,
         4.95000160e-04, -4.94999869e-04,  4.95000160e-04,
        -4.95000160e-04,  4.95000219e-04, -4.95000160e-04,
         4.95000160e-04, -4.95000160e-04,  4.95000160e-04,
         4.95000160e-04, -4.95000102e-04,  4.95000568e-04,
        -4.95000160e-04,  4.95000102e-04,  4.95000160e-04,
        -4.95000160e-04,  4.95000160e-04, -4.94999753e-04,
         4.95000160e-04, -4.94999636e-04, -4.95000451e-04,
         4.95000160e-04,  4.95000160e-04, -4.95000160e-04,
        -4.94999636e-04, -4.95000160e-04, -4.94999869e-04,
        -4.95000160e-04, -4.95000160e-04,  4.95000160e-04,
        -4.95000160e-04, -4.95000160e-04, -4.95000160e-04,
         4.95000160e-04, -4.95000160e-04,  4.95000160e-04,
         4.95000160e-04, -4.95000160e-04],
       [ 4.94999636e-04,  4.95000160e-04, -4.95000160e-04,
         4.95000160e-04, -4.94999869e-04,  4.95000568e-04,
         4.94999753e-04,  4.95000160e-04, -4.95000335e-04,
        -4.95000102e-04,  4.95000451e-04,  4.95000160e-04,
        -4.95000160e-04,  4.95000160e-04,  4.95000219e-04,
         4.94999753e-04,  4.95000335e-04, -4.95000160e-04,
         4.95000160e-04,  4.95000160e-04, -4.94999636e-04,
         4.94999636e-04, -4.95000219e-04,  4.95000160e-04,
        -4.95000568e-04, -4.95000335e-04, -4.95000160e-04,
         4.95000219e-04, -4.95000160e-04,  4.95000568e-04,
        -4.95000102e-04, -4.95000160e-04,  4.94999869e-04,
         4.95000219e-04, -4.95000160e-04, -4.95000160e-04,
         4.95000160e-04,  4.95000335e-04, -4.95000160e-04,
        -4.95000160e-04,  4.95000102e-04,  4.94999636e-04,
         4.95000451e-04,  4.95000102e-04, -4.94999753e-04,
         4.95000160e-04, -4.94999753e-04,  4.95000160e-04,
        -4.94999636e-04, -4.95000335e-04],
       [ 4.94999869e-04,  4.95000160e-04,  4.94999636e-04,
         4.95000160e-04,  4.95000160e-04,  4.95000451e-04,
        -4.94999869e-04,  4.95000160e-04, -4.95000160e-04,
         4.94999636e-04, -4.95000160e-04, -4.95000160e-04,
         4.95000160e-04,  4.94999636e-04, -4.95000451e-04,
        -4.95000160e-04, -4.95000160e-04, -4.95000160e-04,
        -4.95000160e-04,  4.95000335e-04,  4.94999636e-04,
         4.94999636e-04,  4.94999636e-04, -4.95000160e-04,
        -4.95000160e-04,  4.95000451e-04,  4.95000335e-04,
         4.95000160e-04,  4.94999869e-04,  4.95000160e-04,
         4.95000102e-04, -4.95000160e-04, -4.95000160e-04,
        -4.95000160e-04,  4.94999869e-04,  4.95000451e-04,
         4.94999636e-04,  4.94999636e-04, -4.95000219e-04,
         4.95000160e-04,  4.95000160e-04, -4.94999636e-04,
        -4.95000160e-04, -4.95000160e-04,  4.95000451e-04,
         4.95000451e-04,  4.94999869e-04,  4.94999636e-04,
         4.95000160e-04, -4.95000219e-04],
       [ 4.94999869e-04, -4.95000160e-04,  4.95000160e-04,
         4.94999869e-04,  4.95000451e-04, -4.95000160e-04,
        -4.94999869e-04, -4.95000568e-04,  4.95000160e-04,
        -4.95000102e-04,  4.95000160e-04, -4.95000335e-04,
        -4.95000160e-04,  4.94999636e-04,  4.95000451e-04,
        -4.94999636e-04, -4.95000160e-04, -4.95000160e-04,
         4.95000160e-04,  4.95000160e-04, -4.95000451e-04,
         4.94999636e-04, -4.94999636e-04,  4.95000160e-04,
         4.95000451e-04,  4.95000160e-04, -4.95000160e-04,
         4.95000160e-04,  4.95000160e-04, -4.95000160e-04,
         4.95000160e-04, -4.95000102e-04, -4.95000451e-04,
        -4.95000568e-04,  4.95000451e-04,  4.94999636e-04,
        -4.95000160e-04, -4.94999636e-04, -4.95000160e-04,
         4.95000568e-04, -4.95000160e-04,  4.95000160e-04,
         4.95000160e-04,  4.95000160e-04, -4.95000160e-04,
        -4.95000160e-04, -4.94999869e-04, -4.95000160e-04,
         4.95000160e-04, -4.95000160e-04],
       [ 4.94999869e-04,  4.95000219e-04, -4.95000160e-04,
         4.95000160e-04, -4.95000160e-04,  4.95000160e-04,
         4.95000160e-04,  4.95000160e-04,  4.95000160e-04,
         4.95000335e-04,  4.95000160e-04, -4.94999869e-04,
         4.95000160e-04, -4.95000160e-04,  4.94999636e-04,
        -4.95000451e-04, -4.95000335e-04,  4.94999753e-04,
        -4.95000160e-04,  4.95000451e-04, -4.95000451e-04,
         4.95000102e-04, -4.95000335e-04, -4.95000160e-04,
         4.95000160e-04,  4.95000160e-04,  4.95000160e-04,
        -4.95000160e-04,  4.95000160e-04, -4.95000160e-04,
        -4.95000160e-04,  4.95000160e-04, -4.95000160e-04,
         4.95000160e-04,  4.95000160e-04, -4.95000160e-04,
        -4.95000160e-04,  4.94999636e-04, -4.94999636e-04,
         4.95000219e-04, -4.95000160e-04, -4.94999636e-04,
        -4.95000160e-04,  4.95000451e-04,  4.95000160e-04,
         4.95000160e-04,  4.94999636e-04,  4.95000451e-04,
        -4.95000160e-04, -4.94999636e-04],
       [ 4.94999753e-04, -4.95000160e-04,  4.95000160e-04,
        -4.95000160e-04,  4.95000160e-04,  4.95000335e-04,
         4.95000160e-04,  4.94999636e-04,  4.95000160e-04,
         4.95000102e-04,  4.95000160e-04,  4.94999869e-04,
         4.95000160e-04, -4.94999869e-04,  4.94999869e-04,
        -4.95000160e-04,  4.95000160e-04,  4.94999636e-04,
        -4.95000160e-04, -4.95000335e-04, -4.95000102e-04,
         4.95000451e-04, -4.95000160e-04,  4.94999636e-04,
         4.94999869e-04, -4.95000102e-04,  4.95000335e-04,
        -4.95000160e-04,  4.94999636e-04, -4.95000451e-04,
        -4.94999636e-04, -4.94999636e-04, -4.95000451e-04,
         4.95000219e-04, -4.94999753e-04, -4.95000160e-04,
         4.95000335e-04,  4.95000160e-04, -4.95000160e-04,
        -4.95000160e-04, -4.95000160e-04, -4.94999636e-04,
        -4.95000160e-04,  4.95000102e-04, -4.95000102e-04,
         4.95000160e-04,  4.95000219e-04, -4.95000160e-04,
        -4.94999869e-04, -4.95000160e-04],
       [-4.95000160e-04,  4.95000160e-04,  4.95000219e-04,
        -4.95000568e-04, -4.95000160e-04, -4.95000568e-04,
        -4.94999753e-04, -4.95000219e-04, -4.95000335e-04,
         4.95000219e-04,  4.95000102e-04, -4.95000160e-04,
        -4.95000160e-04,  4.95000160e-04,  4.94999753e-04,
         4.95000102e-04, -4.95000160e-04,  4.95000568e-04,
         4.95000451e-04, -4.95000160e-04,  4.95000102e-04,
        -4.95000335e-04, -4.95000568e-04,  4.95000102e-04,
        -4.95000160e-04, -4.95000160e-04,  4.95000160e-04,
        -4.94999869e-04, -4.95000160e-04, -4.95000451e-04,
         4.95000160e-04,  4.95000451e-04,  4.95000160e-04,
        -4.95000160e-04, -4.94999869e-04,  4.95000160e-04,
         4.95000102e-04, -4.95000160e-04, -4.95000335e-04,
         4.95000160e-04,  4.95000160e-04, -4.95000160e-04,
        -4.95000160e-04,  4.95000102e-04, -4.95000568e-04,
         4.95000102e-04, -4.95000160e-04, -4.94999869e-04,
         4.95000102e-04,  4.95000335e-04],
       [-4.94999636e-04,  4.94999636e-04,  4.95000335e-04,
         4.95000160e-04,  4.94999636e-04,  4.95000160e-04,
         4.95000160e-04,  4.95000160e-04,  4.94999636e-04,
         4.94999753e-04,  4.95000160e-04,  4.95000160e-04,
        -4.94999636e-04,  4.95000160e-04,  4.95000160e-04,
        -4.95000160e-04, -4.95000219e-04,  4.95000160e-04,
         4.94999753e-04, -4.95000160e-04, -4.95000160e-04,
        -4.95000160e-04, -4.95000160e-04,  4.95000335e-04,
        -4.94999636e-04,  4.95000102e-04,  4.95000451e-04,
        -4.95000160e-04, -4.95000102e-04,  4.95000160e-04,
         4.95000102e-04,  4.95000219e-04,  4.95000160e-04,
         4.95000568e-04,  4.95000160e-04, -4.95000335e-04,
        -4.95000451e-04,  4.94999869e-04, -4.95000160e-04,
         4.94999753e-04, -4.95000102e-04,  4.95000160e-04,
        -4.94999636e-04, -4.95000160e-04, -4.95000335e-04,
        -4.95000102e-04, -4.95000219e-04, -4.95000219e-04,
         4.95000160e-04,  4.94999753e-04],
       [-8.94050463e-04, -6.40133163e-03,  9.36893222e-04,
        -3.78908881e-04,  1.06513617e-03, -1.96338122e-04,
        -3.73341306e-03, -8.76096368e-04,  5.57441125e-03,
        -9.92908492e-04, -2.72612262e-04,  9.61933460e-04,
         8.68103467e-04,  2.51365476e-03,  1.13505987e-03,
        -7.53711443e-04,  1.00990932e-03,  1.13874837e-03,
         9.54595685e-04, -2.44517671e-03,  2.04040948e-03,
        -9.84218786e-04, -1.92598178e-04,  1.14908721e-03,
         2.24071642e-04,  1.18727458e-03,  1.58001557e-02,
        -1.07908540e-03, -9.14595206e-04, -5.16460976e-03,
         3.20327003e-04, -1.17412776e-04, -1.28150522e-03,
        -4.91838530e-03,  1.00633036e-03, -1.08945486e-03,
         2.22779159e-03,  5.21199126e-03, -4.16295324e-03,
         7.56966532e-04,  1.72798929e-03, -3.45838373e-03,
        -1.00748399e-02, -1.67928054e-03,  4.77890193e-04,
         3.62805859e-03,  2.33458093e-04, -5.47824893e-04,
        -6.53117138e-04,  3.59068182e-03],
       [-4.95000568e-04,  4.95000160e-04,  4.95000219e-04,
        -4.95000102e-04,  4.95000160e-04,  4.95000160e-04,
        -4.95000160e-04,  4.95000160e-04, -4.95000160e-04,
         4.95000451e-04, -4.95000160e-04, -4.95000451e-04,
        -4.95000568e-04,  4.95000102e-04,  4.94999869e-04,
         4.95000160e-04, -4.95000160e-04,  4.95000451e-04,
        -4.95000335e-04,  4.95000102e-04, -4.95000160e-04,
        -4.95000160e-04, -4.95000160e-04,  4.95000160e-04,
         4.95000160e-04, -4.94999636e-04, -4.95000102e-04,
        -4.95000451e-04, -4.95000160e-04, -4.95000160e-04,
         4.95000568e-04, -4.95000102e-04,  4.95000451e-04,
         4.95000451e-04, -4.95000568e-04, -4.95000160e-04,
         4.94999636e-04,  4.94999636e-04, -4.95000568e-04,
         4.95000451e-04, -4.95000160e-04, -4.95000160e-04,
        -4.95000335e-04, -4.95000568e-04, -4.95000160e-04,
         4.95000451e-04, -4.95000160e-04,  4.95000160e-04,
         4.95000160e-04,  4.95000160e-04],
       [-4.95000160e-04, -4.95000160e-04,  4.94999869e-04,
         4.95000568e-04,  4.94999869e-04,  4.95000160e-04,
        -4.95000102e-04,  4.95000160e-04,  4.95000451e-04,
         4.95000568e-04,  4.95000451e-04,  4.95000335e-04,
         4.95000160e-04,  4.95000568e-04,  4.95000160e-04,
        -4.95000160e-04,  4.95000160e-04, -4.95000160e-04,
         4.95000219e-04,  4.95000102e-04,  4.95000160e-04,
         4.95000160e-04,  4.95000451e-04,  4.94999636e-04,
        -4.95000451e-04, -4.95000160e-04,  4.95000102e-04,
        -4.95000160e-04, -4.95000102e-04, -4.95000335e-04,
         4.95000102e-04, -4.95000335e-04, -4.95000451e-04,
         4.95000451e-04, -4.95000160e-04,  4.95000160e-04,
         4.95000451e-04, -4.95000219e-04, -4.95000568e-04,
        -4.95000160e-04,  4.95000335e-04,  4.95000160e-04,
        -4.94999869e-04, -4.95000568e-04,  4.95000160e-04,
        -4.95000102e-04,  4.95000335e-04,  4.94999869e-04,
        -4.95000568e-04,  4.95000160e-04],
       [-4.95000160e-04,  4.95000102e-04, -4.94999636e-04,
         4.94999753e-04,  4.95000451e-04, -4.95000160e-04,
         4.94999869e-04,  4.95000102e-04,  4.94999869e-04,
         4.95000160e-04,  4.95000160e-04, -4.95000160e-04,
        -4.95000160e-04,  4.95000160e-04, -4.95000160e-04,
        -4.95000160e-04, -4.95000160e-04, -4.95000451e-04,
        -4.95000160e-04,  4.95000451e-04, -4.95000160e-04,
         4.95000160e-04, -4.95000102e-04,  4.95000160e-04,
         4.95000102e-04, -4.94999636e-04, -4.95000160e-04,
        -4.95000160e-04,  4.95000160e-04, -4.94999869e-04,
        -4.94999869e-04, -4.94999636e-04, -4.94999636e-04,
         4.95000160e-04,  4.94999636e-04,  4.95000335e-04,
         4.95000160e-04, -4.95000160e-04,  4.94999636e-04,
        -4.95000160e-04,  4.95000160e-04, -4.95000160e-04,
        -4.95000219e-04,  4.95000568e-04,  4.95000568e-04,
         4.95000451e-04,  4.95000451e-04, -4.95000102e-04,
        -4.95000160e-04, -4.95000160e-04],
       [-4.94999636e-04,  4.95000160e-04, -4.95000160e-04,
        -4.95000160e-04,  4.95000160e-04, -4.95000160e-04,
         4.95000160e-04, -4.94999636e-04, -4.95000160e-04,
        -4.95000160e-04,  4.95000160e-04,  4.95000160e-04,
        -4.95000160e-04,  4.94999753e-04, -4.95000219e-04,
        -4.95000160e-04,  4.95000160e-04, -4.95000568e-04,
         4.95000102e-04, -4.94999753e-04, -4.95000160e-04,
         4.95000102e-04,  4.95000219e-04,  4.95000451e-04,
        -4.95000160e-04,  4.95000160e-04, -4.94999636e-04,
         4.95000160e-04,  4.94999753e-04, -4.95000160e-04,
        -4.94999869e-04, -4.94999753e-04, -4.95000160e-04,
        -4.95000160e-04, -4.95000160e-04, -4.95000160e-04,
        -4.94999636e-04,  4.95000160e-04, -4.95000160e-04,
        -4.94999753e-04, -4.95000160e-04,  4.95000219e-04,
        -4.95000451e-04, -4.95000160e-04, -4.95000160e-04,
         4.94999753e-04,  4.95000219e-04,  4.95000451e-04,
         4.95000160e-04, -4.95000160e-04],
       [ 4.95000568e-04,  4.95000160e-04,  4.94999869e-04,
        -4.95000568e-04, -4.95000160e-04,  4.95000160e-04,
         4.95000160e-04, -4.95000568e-04,  4.95000160e-04,
         4.95000160e-04, -4.95000568e-04, -4.95000160e-04,
         4.95000160e-04, -4.95000160e-04, -4.95000160e-04,
        -4.95000160e-04,  4.95000160e-04, -4.95000160e-04,
         4.95000568e-04, -4.95000160e-04, -4.95000160e-04,
         4.94999636e-04,  4.95000160e-04, -4.95000568e-04,
        -4.95000160e-04,  4.95000160e-04, -4.95000568e-04,
         4.95000160e-04,  4.94999753e-04,  4.94999753e-04,
        -4.95000568e-04, -4.94999636e-04,  4.95000160e-04,
         4.95000160e-04,  4.95000568e-04,  4.94999636e-04,
         4.95000160e-04, -4.95000160e-04,  4.95000160e-04,
         4.95000568e-04,  4.94999636e-04, -4.94999636e-04,
        -4.95000160e-04, -4.95000160e-04,  4.94999636e-04,
         4.95000160e-04, -4.94999753e-04, -4.95000568e-04,
        -4.95000160e-04,  4.94999636e-04],
       [-4.95000102e-04, -4.94999869e-04, -4.95000335e-04,
         4.94999636e-04, -4.95000102e-04,  4.95000160e-04,
         4.94999636e-04, -4.95000160e-04, -4.95000160e-04,
        -4.95000160e-04,  4.95000160e-04, -4.95000160e-04,
        -4.95000160e-04, -4.95000451e-04, -4.94999636e-04,
        -4.95000160e-04,  4.95000160e-04,  4.94999636e-04,
        -4.95000335e-04, -4.95000102e-04,  4.94999636e-04,
        -4.94999753e-04,  4.95000102e-04,  4.95000160e-04,
        -4.94999636e-04, -4.95000160e-04, -4.95000335e-04,
         4.95000451e-04, -4.95000335e-04, -4.94999869e-04,
        -4.95000160e-04,  4.94999869e-04, -4.95000160e-04,
        -4.95000160e-04,  4.95000160e-04, -4.95000160e-04,
         4.95000160e-04,  4.94999869e-04, -4.95000160e-04,
         4.95000160e-04, -4.95000160e-04, -4.94999869e-04,
         4.94999636e-04,  4.95000451e-04,  4.94999753e-04,
         4.95000160e-04, -4.95000160e-04, -4.95000160e-04,
        -4.95000160e-04, -4.94999636e-04],
       [ 4.95000451e-04, -4.95000335e-04, -4.95000160e-04,
         4.95000160e-04,  4.95000160e-04,  4.94999636e-04,
        -4.94999869e-04, -4.95000160e-04, -4.95000451e-04,
        -4.95000451e-04, -4.95000335e-04,  4.94999869e-04,
        -4.95000160e-04, -4.95000160e-04,  4.95000160e-04,
         4.94999753e-04, -4.95000160e-04,  4.95000451e-04,
         4.95000160e-04,  4.95000160e-04,  4.94999636e-04,
        -4.95000160e-04, -4.95000160e-04, -4.95000160e-04,
        -4.94999636e-04, -4.95000451e-04, -4.94999869e-04,
        -4.95000335e-04,  4.95000160e-04,  4.95000160e-04,
         4.94999869e-04, -4.95000160e-04,  4.95000160e-04,
        -4.95000160e-04,  4.95000160e-04,  4.94999753e-04,
         4.94999636e-04,  4.95000160e-04, -4.95000568e-04,
         4.95000568e-04,  4.95000160e-04, -4.94999869e-04,
         4.95000568e-04, -4.94999869e-04, -4.95000160e-04,
         4.95000160e-04,  4.94999636e-04,  4.94999636e-04,
         4.94999869e-04,  4.95000102e-04],
       [ 4.95000335e-04,  4.95000160e-04, -4.94999636e-04,
         4.95000160e-04,  4.95000160e-04, -4.95000451e-04,
        -4.95000568e-04, -4.95000451e-04,  4.95000160e-04,
         4.95000160e-04, -4.94999869e-04, -4.94999869e-04,
         4.95000160e-04,  4.95000102e-04, -4.95000160e-04,
        -4.94999753e-04, -4.95000160e-04,  4.95000160e-04,
        -4.95000160e-04,  4.95000160e-04, -4.95000160e-04,
        -4.95000160e-04, -4.95000335e-04,  4.94999636e-04,
        -4.95000160e-04,  4.94999869e-04,  4.95000451e-04,
         4.95000160e-04,  4.95000160e-04,  4.95000160e-04,
        -4.95000160e-04,  4.95000102e-04,  4.94999869e-04,
        -4.95000160e-04, -4.94999636e-04, -4.94999636e-04,
        -4.95000160e-04, -4.95000160e-04,  4.95000102e-04,
         4.95000160e-04, -4.95000451e-04, -4.94999869e-04,
        -4.95000451e-04, -4.95000160e-04, -4.95000160e-04,
         4.95000568e-04, -4.95000160e-04, -4.94999636e-04,
        -4.95000160e-04,  4.94999753e-04],
       [-4.94999753e-04,  4.94999636e-04,  4.95000219e-04,
         4.94999869e-04, -4.95000160e-04, -4.95000160e-04,
        -4.95000451e-04, -4.95000160e-04,  4.94999869e-04,
         4.95000451e-04, -4.95000160e-04, -4.95000568e-04,
        -4.94999753e-04, -4.95000160e-04, -4.95000160e-04,
         4.94999636e-04,  4.94999636e-04, -4.95000160e-04,
        -4.94999869e-04, -4.95000160e-04,  4.94999869e-04,
         4.95000160e-04,  4.95000219e-04,  4.95000160e-04,
        -4.95000335e-04, -4.95000160e-04,  4.94999636e-04,
         4.95000160e-04,  4.95000335e-04,  4.95000160e-04,
         4.95000160e-04, -4.94999636e-04,  4.94999753e-04,
         4.95000160e-04, -4.95000335e-04, -4.95000568e-04,
         4.95000160e-04, -4.95000160e-04,  4.95000219e-04,
        -4.95000451e-04,  4.95000102e-04, -4.95000160e-04,
        -4.95000219e-04, -4.95000160e-04,  4.95000160e-04,
         4.95000160e-04,  4.95000160e-04, -4.95000160e-04,
        -4.94999869e-04,  4.94999869e-04],
       [ 4.95000219e-04, -4.94999753e-04,  4.95000102e-04,
         4.95000160e-04, -4.95000160e-04, -4.94999636e-04,
         4.95000160e-04, -4.95000160e-04, -4.94999869e-04,
        -4.95000451e-04, -4.95000160e-04,  4.95000160e-04,
        -4.95000451e-04,  4.95000160e-04, -4.95000219e-04,
         4.95000160e-04, -4.95000160e-04, -4.95000335e-04,
        -4.95000568e-04, -4.95000160e-04,  4.95000160e-04,
         4.94999636e-04, -4.95000160e-04,  4.95000160e-04,
        -4.95000335e-04,  4.94999753e-04, -4.95000451e-04,
         4.95000160e-04,  4.95000451e-04, -4.94999636e-04,
         4.95000160e-04,  4.94999636e-04, -4.95000160e-04,
        -4.95000160e-04, -4.95000160e-04,  4.95000451e-04,
        -4.95000160e-04,  4.95000160e-04,  4.94999636e-04,
        -4.95000335e-04, -4.94999636e-04,  4.95000160e-04,
         4.95000102e-04,  4.95000102e-04, -4.95000160e-04,
         4.95000568e-04,  4.95000160e-04, -4.95000102e-04,
        -4.95000102e-04, -4.95000160e-04],
       [-4.95000160e-04,  4.95000160e-04,  4.95000160e-04,
         4.95000160e-04,  4.95000451e-04,  4.95000160e-04,
         4.95000335e-04,  4.94999869e-04,  4.95000451e-04,
         4.95000160e-04, -4.95000160e-04,  4.95000160e-04,
         4.94999636e-04, -4.95000219e-04,  4.94999636e-04,
         4.94999869e-04,  4.95000160e-04, -4.94999636e-04,
        -4.94999636e-04, -4.95000160e-04, -4.95000568e-04,
        -4.94999636e-04,  4.94999753e-04, -4.94999636e-04,
        -4.95000160e-04, -4.95000160e-04, -4.95000160e-04,
        -4.95000160e-04, -4.95000451e-04, -4.95000335e-04,
        -4.95000102e-04, -4.95000335e-04, -4.95000451e-04,
        -4.95000160e-04,  4.95000160e-04, -4.94999636e-04,
        -4.95000451e-04, -4.95000160e-04, -4.95000160e-04,
         4.95000160e-04,  4.95000160e-04,  4.95000160e-04,
         4.95000568e-04, -4.95000219e-04, -4.95000451e-04,
        -4.95000102e-04,  4.95000219e-04,  4.94999636e-04,
         4.95000451e-04,  4.95000160e-04],
       [-4.95000160e-04, -4.95000219e-04,  4.94999753e-04,
         4.95000160e-04,  4.95000102e-04, -4.95000160e-04,
        -4.95000451e-04,  4.95000451e-04,  4.95000160e-04,
        -4.95000568e-04, -4.95000160e-04,  4.95000160e-04,
        -4.95000219e-04,  4.95000160e-04,  4.95000160e-04,
         4.95000102e-04,  4.94999636e-04, -4.94999636e-04,
         4.95000568e-04, -4.95000160e-04, -4.95000160e-04,
         4.95000160e-04, -4.95000160e-04,  4.95000451e-04,
         4.95000160e-04, -4.95000160e-04, -4.95000160e-04,
         4.95000160e-04,  4.95000160e-04, -4.94999636e-04,
        -4.95000160e-04, -4.94999636e-04, -4.94999636e-04,
        -4.95000160e-04,  4.95000160e-04, -4.95000160e-04,
        -4.94999753e-04, -4.95000160e-04,  4.95000451e-04,
         4.94999636e-04, -4.94999636e-04, -4.95000102e-04,
        -4.95000160e-04,  4.95000160e-04,  4.95000160e-04,
         4.95000160e-04,  4.95000160e-04,  4.94999869e-04,
         4.94999869e-04,  4.94999753e-04],
       [ 7.55823217e-03, -2.08223443e-02,  2.81646056e-03,
         1.01624141e-02, -9.04155709e-03, -7.24285608e-03,
        -1.59556288e-02,  1.45804964e-03,  1.97261274e-02,
         4.74451762e-03, -1.12409741e-02, -6.50862046e-03,
        -9.21932701e-03,  1.47475405e-02, -7.82987569e-03,
        -1.21418722e-02,  1.61899962e-02, -7.76099414e-03,
        -9.27888602e-03, -4.08544391e-02,  1.41435582e-02,
         9.16377269e-03,  1.04091316e-02, -7.37040350e-03,
        -1.05761904e-02,  1.26687717e-02,  1.47137819e-02,
         7.10913260e-03, -3.46075222e-02, -1.96571257e-02,
         7.37770051e-02, -1.10481903e-02, -1.27825830e-02,
        -6.93997135e-03,  3.97851132e-02,  4.07776656e-03,
         1.41860507e-02,  1.36348708e-02, -1.83404516e-02,
         3.37844267e-02,  1.18236683e-01, -1.69371124e-02,
        -2.29775514e-02, -1.33021576e-02,  1.17801251e-02,
         1.72142796e-02,  1.13447197e-02, -2.27345675e-02,
         8.74574017e-03,  1.74658764e-02],
       [ 4.95000568e-04,  4.95000219e-04,  4.95000568e-04,
         4.95000160e-04, -4.94999753e-04, -4.95000160e-04,
        -4.95000451e-04, -4.95000219e-04,  4.95000160e-04,
        -4.95000160e-04, -4.95000160e-04, -4.95000160e-04,
        -4.94999636e-04, -4.95000160e-04,  4.95000160e-04,
         4.95000160e-04, -4.94999636e-04, -4.94999869e-04,
        -4.94999636e-04, -4.95000160e-04, -4.94999753e-04,
        -4.94999636e-04, -4.95000568e-04, -4.95000160e-04,
        -4.95000451e-04, -4.95000160e-04, -4.95000160e-04,
        -4.94999869e-04, -4.95000160e-04,  4.95000568e-04,
         4.95000335e-04, -4.95000160e-04, -4.95000160e-04,
        -4.95000335e-04,  4.94999636e-04, -4.95000451e-04,
        -4.94999869e-04, -4.94999636e-04, -4.95000568e-04,
         4.95000160e-04, -4.95000160e-04, -4.94999636e-04,
         4.95000102e-04,  4.95000160e-04,  4.95000160e-04,
         4.95000219e-04,  4.95000160e-04, -4.95000160e-04,
         4.95000160e-04,  4.95000160e-04],
       [ 4.95000160e-04, -4.95000160e-04,  4.95000219e-04,
         4.95000160e-04,  4.95000160e-04, -4.95000160e-04,
        -4.95000160e-04,  4.95000102e-04,  4.94999636e-04,
         4.95000160e-04, -4.95000102e-04, -4.95000102e-04,
        -4.94999869e-04,  4.95000160e-04,  4.95000160e-04,
        -4.95000160e-04, -4.95000568e-04, -4.95000451e-04,
        -4.94999869e-04, -4.95000160e-04,  4.94999869e-04,
         4.94999753e-04,  4.95000160e-04,  4.95000160e-04,
        -4.95000160e-04,  4.95000160e-04,  4.95000160e-04,
        -4.95000451e-04, -4.94999753e-04, -4.94999636e-04,
         4.95000160e-04, -4.95000160e-04, -4.95000160e-04,
        -4.95000160e-04, -4.95000160e-04,  4.95000160e-04,
         4.94999869e-04,  4.94999636e-04,  4.95000160e-04,
        -4.95000160e-04, -4.95000160e-04, -4.94999869e-04,
         4.95000160e-04, -4.95000160e-04,  4.95000160e-04,
         4.95000160e-04,  4.94999869e-04,  4.95000160e-04,
         4.95000160e-04,  4.95000160e-04],
       [ 4.95000160e-04, -4.95000160e-04,  4.95000160e-04,
         4.95000160e-04,  4.94999869e-04, -4.95000160e-04,
        -4.95000160e-04,  4.95000568e-04,  4.94999636e-04,
         4.95000102e-04, -4.95000160e-04, -4.94999753e-04,
         4.95000335e-04, -4.95000568e-04,  4.95000335e-04,
         4.95000160e-04, -4.95000160e-04,  4.95000335e-04,
        -4.95000451e-04,  4.94999753e-04, -4.95000451e-04,
         4.95000160e-04, -4.95000568e-04, -4.95000160e-04,
         4.95000160e-04, -4.95000219e-04,  4.95000451e-04,
        -4.95000160e-04, -4.95000160e-04,  4.95000160e-04,
         4.94999869e-04,  4.94999636e-04,  4.94999869e-04,
         4.95000160e-04,  4.95000219e-04,  4.95000160e-04,
         4.95000451e-04, -4.95000160e-04,  4.95000160e-04,
        -4.95000568e-04, -4.95000102e-04, -4.95000160e-04,
        -4.95000160e-04,  4.95000219e-04,  4.94999636e-04,
         4.94999753e-04, -4.95000102e-04, -4.95000451e-04,
        -4.95000160e-04,  4.95000219e-04],
       [-4.95000160e-04,  4.95000102e-04, -4.94999636e-04,
         4.94999753e-04,  4.94999636e-04, -4.94999636e-04,
         4.94999636e-04, -4.95000160e-04, -4.95000160e-04,
        -4.94999636e-04,  4.95000160e-04, -4.95000160e-04,
         4.95000160e-04,  4.95000102e-04,  4.94999636e-04,
         4.95000335e-04, -4.94999636e-04,  4.95000160e-04,
         4.94999753e-04, -4.95000160e-04, -4.95000160e-04,
         4.95000160e-04, -4.95000219e-04, -4.95000160e-04,
        -4.95000335e-04, -4.94999636e-04, -4.95000102e-04,
        -4.95000102e-04, -4.95000160e-04, -4.95000160e-04,
        -4.95000160e-04,  4.95000160e-04, -4.95000160e-04,
         4.95000219e-04, -4.95000160e-04,  4.95000451e-04,
         4.95000160e-04, -4.95000451e-04, -4.95000451e-04,
        -4.94999636e-04,  4.95000160e-04,  4.95000451e-04,
        -4.95000160e-04,  4.95000160e-04, -4.95000160e-04,
         4.94999869e-04,  4.95000451e-04, -4.94999636e-04,
        -4.95000568e-04, -4.95000160e-04],
       [ 4.95000451e-04, -4.95000160e-04, -4.95000568e-04,
         4.95000160e-04, -4.95000160e-04, -4.95000160e-04,
        -4.95000160e-04, -4.95000160e-04, -4.95000160e-04,
        -4.94999636e-04, -4.95000160e-04, -4.94999636e-04,
         4.95000451e-04, -4.95000335e-04, -4.95000160e-04,
        -4.95000160e-04,  4.95000160e-04,  4.95000160e-04,
        -4.95000102e-04, -4.95000160e-04,  4.95000160e-04,
        -4.95000160e-04, -4.94999636e-04, -4.95000160e-04,
        -4.95000102e-04,  4.94999753e-04, -4.94999636e-04,
        -4.95000568e-04,  4.94999753e-04,  4.95000160e-04,
        -4.95000160e-04, -4.95000102e-04,  4.95000568e-04,
         4.94999636e-04,  4.95000160e-04,  4.95000160e-04,
         4.95000160e-04,  4.95000160e-04,  4.95000335e-04,
         4.95000160e-04,  4.95000160e-04, -4.95000160e-04,
        -4.94999636e-04, -4.95000160e-04, -4.95000160e-04,
         4.95000160e-04,  4.95000568e-04, -4.95000219e-04,
         4.95000451e-04, -4.94999636e-04],
       [ 4.95000160e-04, -4.95000160e-04, -4.95000568e-04,
        -4.95000160e-04, -4.94999869e-04,  4.95000335e-04,
         4.94999753e-04,  4.95000160e-04,  4.94999636e-04,
        -4.95000160e-04,  4.95000568e-04,  4.95000160e-04,
         4.95000160e-04,  4.95000219e-04,  4.95000160e-04,
        -4.94999869e-04,  4.95000219e-04,  4.95000160e-04,
         4.95000160e-04,  4.95000102e-04, -4.95000102e-04,
         4.95000160e-04,  4.95000160e-04, -4.95000160e-04,
        -4.95000568e-04,  4.94999869e-04, -4.94999869e-04,
        -4.94999753e-04, -4.95000219e-04, -4.94999869e-04,
         4.95000102e-04, -4.95000160e-04,  4.95000160e-04,
        -4.95000160e-04, -4.95000160e-04, -4.95000102e-04,
        -4.95000160e-04, -4.95000219e-04, -4.94999869e-04,
         4.95000219e-04,  4.94999753e-04,  4.95000219e-04,
         4.95000160e-04, -4.94999636e-04, -4.95000160e-04,
        -4.95000160e-04, -4.94999636e-04,  4.94999753e-04,
        -4.94999636e-04, -4.95000451e-04],
       [-4.95000160e-04,  4.95000160e-04, -4.95000160e-04,
        -4.95000160e-04, -4.95000102e-04, -4.95000160e-04,
         4.95000160e-04, -4.94999636e-04, -4.95000160e-04,
        -4.95000160e-04,  4.95000160e-04,  4.95000160e-04,
         4.95000160e-04, -4.95000160e-04,  4.94999753e-04,
         4.95000160e-04,  4.95000568e-04,  4.95000160e-04,
         4.95000160e-04,  4.95000451e-04, -4.95000160e-04,
        -4.95000160e-04, -4.95000160e-04, -4.95000160e-04,
         4.95000160e-04, -4.95000160e-04, -4.95000160e-04,
        -4.94999636e-04,  4.95000160e-04,  4.95000160e-04,
        -4.95000102e-04,  4.95000160e-04,  4.95000160e-04,
         4.95000160e-04, -4.95000160e-04, -4.94999753e-04,
        -4.95000160e-04, -4.95000160e-04,  4.95000160e-04,
        -4.95000160e-04,  4.95000160e-04,  4.95000160e-04,
         4.95000160e-04,  4.95000160e-04, -4.95000160e-04,
        -4.95000160e-04, -4.95000160e-04, -4.94999636e-04,
        -4.95000160e-04, -4.95000160e-04],
       [-4.95000160e-04,  4.95000160e-04, -4.95000102e-04,
         4.95000160e-04, -4.95000160e-04, -4.94999636e-04,
         4.95000160e-04,  4.94999753e-04,  4.94999869e-04,
         4.95000160e-04,  4.94999869e-04,  4.94999869e-04,
        -4.95000160e-04,  4.95000160e-04, -4.94999753e-04,
        -4.95000160e-04,  4.95000160e-04, -4.94999636e-04,
        -4.95000160e-04, -4.95000160e-04,  4.95000160e-04,
         4.95000160e-04, -4.94999636e-04, -4.95000160e-04,
         4.95000160e-04, -4.95000219e-04,  4.94999636e-04,
        -4.95000160e-04, -4.95000160e-04, -4.95000160e-04,
        -4.95000160e-04, -4.95000568e-04, -4.95000160e-04,
         4.94999753e-04,  4.95000160e-04,  4.95000160e-04,
         4.94999869e-04, -4.95000160e-04,  4.95000160e-04,
         4.95000160e-04, -4.95000451e-04, -4.94999753e-04,
        -4.95000160e-04, -4.95000335e-04,  4.95000160e-04,
         4.95000160e-04,  4.95000451e-04,  4.94999753e-04,
        -4.95000160e-04, -4.95000160e-04],
       [-4.95000335e-04,  4.95000160e-04, -4.95000335e-04,
         4.95000160e-04, -4.95000160e-04, -4.94999636e-04,
        -4.94999636e-04,  4.95000451e-04,  4.94999636e-04,
         4.95000160e-04, -4.94999869e-04, -4.95000160e-04,
        -4.95000451e-04,  4.95000160e-04, -4.95000451e-04,
        -4.95000451e-04, -4.94999869e-04,  4.95000335e-04,
         4.95000160e-04, -4.95000451e-04, -4.95000160e-04,
        -4.95000160e-04,  4.95000160e-04, -4.95000451e-04,
         4.95000160e-04, -4.95000160e-04,  4.95000160e-04,
        -4.95000160e-04, -4.95000160e-04, -4.95000160e-04,
        -4.95000160e-04, -4.95000160e-04, -4.95000160e-04,
        -4.95000160e-04, -4.94999636e-04,  4.94999636e-04,
        -4.95000160e-04,  4.95000335e-04,  4.95000160e-04,
        -4.95000160e-04,  4.94999869e-04, -4.95000335e-04,
        -4.95000102e-04,  4.95000451e-04,  4.95000219e-04,
         4.95000160e-04,  4.95000219e-04,  4.95000335e-04,
        -4.95000102e-04, -4.95000160e-04],
       [ 4.95000160e-04, -4.95000160e-04,  4.94999869e-04,
         4.95000160e-04, -4.95000160e-04,  4.94999636e-04,
        -4.95000451e-04,  4.95000335e-04,  4.95000160e-04,
         4.95000160e-04,  4.95000160e-04,  4.94999869e-04,
        -4.95000102e-04,  4.95000451e-04, -4.94999869e-04,
         4.95000160e-04, -4.95000160e-04, -4.95000568e-04,
        -4.95000160e-04, -4.95000102e-04, -4.94999636e-04,
         4.95000160e-04,  4.95000102e-04, -4.95000160e-04,
         4.94999636e-04, -4.94999636e-04,  4.95000160e-04,
        -4.94999636e-04, -4.95000102e-04, -4.95000160e-04,
        -4.95000451e-04, -4.95000160e-04, -4.95000160e-04,
         4.95000160e-04,  4.95000160e-04, -4.95000160e-04,
         4.95000568e-04,  4.95000160e-04,  4.95000160e-04,
         4.94999869e-04, -4.95000160e-04, -4.95000160e-04,
        -4.94999869e-04,  4.94999636e-04,  4.95000451e-04,
         4.94999636e-04,  4.95000160e-04,  4.95000160e-04,
         4.94999636e-04,  4.95000160e-04],
       [ 4.95000568e-04, -4.95000219e-04,  4.95000160e-04,
         4.95000160e-04,  4.95000451e-04,  4.95000160e-04,
        -4.95000102e-04, -4.95000160e-04,  4.95000160e-04,
         4.95000568e-04, -4.95000568e-04, -4.95000160e-04,
         4.95000160e-04,  4.95000219e-04,  4.95000160e-04,
        -4.95000102e-04,  4.95000102e-04, -4.95000160e-04,
         4.95000219e-04, -4.95000160e-04,  4.95000160e-04,
         4.95000568e-04,  4.95000568e-04, -4.95000451e-04,
        -4.95000568e-04,  4.95000451e-04,  4.95000160e-04,
        -4.95000160e-04, -4.95000160e-04, -4.95000160e-04,
         4.95000219e-04, -4.95000160e-04, -4.95000451e-04,
        -4.95000160e-04, -4.94999753e-04, -4.95000219e-04,
         4.95000219e-04,  4.95000160e-04, -4.95000160e-04,
         4.95000219e-04,  4.95000219e-04, -4.95000102e-04,
         4.95000160e-04, -4.95000160e-04,  4.95000219e-04,
         4.95000102e-04,  4.95000451e-04,  4.95000568e-04,
         4.95000568e-04,  4.95000160e-04],
       [ 4.95000102e-04,  4.94999869e-04,  4.95000451e-04,
        -4.94999636e-04,  4.94999753e-04,  4.95000160e-04,
        -4.95000160e-04,  4.95000160e-04, -4.95000160e-04,
         4.95000160e-04, -4.95000160e-04, -4.95000451e-04,
        -4.95000160e-04, -4.95000219e-04, -4.95000160e-04,
        -4.95000451e-04, -4.95000160e-04, -4.95000160e-04,
        -4.94999636e-04, -4.94999753e-04, -4.95000160e-04,
        -4.95000160e-04,  4.94999753e-04, -4.94999869e-04,
         4.95000160e-04, -4.95000160e-04, -4.95000160e-04,
        -4.94999753e-04,  4.95000160e-04,  4.94999753e-04,
        -4.95000219e-04, -4.95000451e-04,  4.95000160e-04,
        -4.95000160e-04,  4.95000160e-04,  4.95000568e-04,
         4.95000160e-04, -4.95000160e-04, -4.95000160e-04,
         4.95000160e-04,  4.95000160e-04,  4.94999636e-04,
         4.94999636e-04, -4.95000102e-04,  4.95000568e-04,
        -4.94999869e-04, -4.95000335e-04, -4.94999636e-04,
        -4.95000160e-04, -4.95000160e-04],
       [-4.94999636e-04,  4.95000335e-04, -4.95000160e-04,
        -4.94999869e-04, -4.95000451e-04,  4.94999753e-04,
         4.95000160e-04, -4.95000160e-04, -4.95000160e-04,
        -4.94999753e-04,  4.95000160e-04, -4.95000160e-04,
         4.95000451e-04,  4.94999869e-04,  4.95000102e-04,
        -4.95000160e-04,  4.95000160e-04, -4.95000451e-04,
        -4.94999636e-04,  4.95000568e-04,  4.94999869e-04,
         4.95000219e-04, -4.95000102e-04,  4.95000160e-04,
         4.95000160e-04, -4.95000160e-04,  4.95000160e-04,
         4.95000335e-04, -4.94999753e-04,  4.95000219e-04,
         4.95000102e-04, -4.94999636e-04,  4.94999636e-04,
         4.94999753e-04,  4.95000451e-04,  4.95000568e-04,
         4.94999869e-04,  4.95000451e-04,  4.94999869e-04,
         4.94999636e-04,  4.95000160e-04,  4.95000451e-04,
         4.95000451e-04, -4.94999636e-04,  4.95000160e-04,
        -4.95000160e-04,  4.94999869e-04, -4.95000160e-04,
        -4.94999753e-04, -4.95000160e-04],
       [ 4.95000160e-04, -4.95000160e-04, -4.95000160e-04,
         4.94999636e-04, -4.95000160e-04,  4.95000160e-04,
        -4.95000160e-04,  4.95000160e-04, -4.95000160e-04,
         4.95000160e-04, -4.95000160e-04, -4.95000160e-04,
        -4.95000160e-04, -4.95000335e-04, -4.94999869e-04,
        -4.95000160e-04, -4.95000160e-04, -4.95000160e-04,
        -4.95000160e-04,  4.95000160e-04, -4.95000160e-04,
         4.95000102e-04,  4.95000160e-04, -4.95000160e-04,
        -4.94999636e-04,  4.95000160e-04,  4.95000160e-04,
         4.95000335e-04, -4.95000160e-04, -4.95000102e-04,
        -4.95000568e-04,  4.95000160e-04, -4.95000160e-04,
        -4.95000160e-04, -4.95000160e-04,  4.95000160e-04,
         4.94999869e-04, -4.95000568e-04,  4.95000160e-04,
        -4.95000102e-04,  4.95000160e-04,  4.94999869e-04,
        -4.95000160e-04, -4.94999753e-04,  4.95000335e-04,
         4.95000568e-04,  4.95000160e-04,  4.94999636e-04,
         4.95000451e-04,  4.95000335e-04],
       [-4.95000160e-04,  4.94999753e-04,  4.95000102e-04,
         4.95000102e-04,  4.95000160e-04,  4.95000568e-04,
         4.95000160e-04,  4.94999869e-04,  4.95000160e-04,
         4.94999636e-04, -4.94999869e-04, -4.95000160e-04,
        -4.95000160e-04, -4.95000160e-04, -4.94999636e-04,
         4.95000160e-04,  4.94999636e-04, -4.94999636e-04,
        -4.95000568e-04,  4.95000160e-04, -4.94999753e-04,
         4.95000160e-04,  4.94999636e-04, -4.95000160e-04,
        -4.94999636e-04, -4.95000160e-04, -4.95000160e-04,
         4.95000160e-04, -4.95000102e-04, -4.95000160e-04,
        -4.95000568e-04,  4.95000102e-04, -4.95000160e-04,
        -4.94999869e-04, -4.95000160e-04,  4.95000160e-04,
         4.94999636e-04, -4.94999753e-04,  4.95000451e-04,
         4.95000160e-04, -4.95000160e-04,  4.94999869e-04,
         4.95000160e-04, -4.95000335e-04, -4.94999753e-04,
        -4.95000160e-04, -4.95000160e-04,  4.95000160e-04,
         4.95000160e-04,  4.94999869e-04],
       [-4.95000335e-04,  4.95000160e-04, -4.94999636e-04,
         4.95000160e-04,  4.95000102e-04, -4.94999636e-04,
        -4.94999753e-04,  4.95000160e-04, -4.94999869e-04,
         4.94999753e-04, -4.95000160e-04, -4.95000160e-04,
         4.94999636e-04,  4.95000160e-04, -4.94999869e-04,
         4.95000160e-04,  4.95000568e-04,  4.95000160e-04,
         4.94999636e-04,  4.94999753e-04,  4.94999753e-04,
        -4.95000568e-04,  4.94999636e-04, -4.95000160e-04,
         4.95000160e-04,  4.95000568e-04,  4.95000160e-04,
         4.95000102e-04, -4.95000160e-04,  4.94999869e-04,
         4.95000335e-04,  4.95000160e-04, -4.95000568e-04,
        -4.94999636e-04,  4.94999636e-04, -4.95000160e-04,
        -4.95000160e-04, -4.95000102e-04,  4.94999636e-04,
         4.95000219e-04, -4.95000160e-04,  4.94999636e-04,
        -4.95000160e-04, -4.95000335e-04, -4.95000160e-04,
        -4.95000160e-04,  4.95000160e-04,  4.95000160e-04,
         4.95000160e-04, -4.95000102e-04],
       [ 4.95000102e-04, -4.94999869e-04, -4.94999636e-04,
        -4.95000451e-04,  4.95000160e-04, -4.95000219e-04,
         4.95000160e-04, -4.95000160e-04, -4.95000160e-04,
         4.94999636e-04, -4.95000160e-04,  4.95000451e-04,
        -4.95000160e-04, -4.94999636e-04, -4.95000160e-04,
        -4.95000160e-04,  4.95000160e-04,  4.95000102e-04,
        -4.94999636e-04, -4.95000219e-04,  4.95000160e-04,
        -4.95000160e-04,  4.95000335e-04, -4.94999869e-04,
         4.95000160e-04,  4.94999636e-04, -4.95000160e-04,
        -4.95000102e-04, -4.95000451e-04, -4.95000160e-04,
         4.95000160e-04,  4.95000160e-04,  4.94999753e-04,
         4.94999636e-04, -4.95000102e-04,  4.95000160e-04,
         4.94999636e-04,  4.95000160e-04, -4.95000102e-04,
         4.95000568e-04, -4.95000160e-04,  4.95000102e-04,
        -4.95000160e-04,  4.94999636e-04, -4.94999753e-04,
        -4.94999869e-04, -4.94999753e-04, -4.94999869e-04,
         4.95000160e-04, -4.95000102e-04],
       [ 4.94999869e-04,  4.95000160e-04,  4.95000451e-04,
         4.95000160e-04, -4.95000160e-04,  4.95000451e-04,
         4.94999869e-04,  4.95000160e-04,  4.95000160e-04,
        -4.95000219e-04,  4.95000160e-04, -4.94999753e-04,
         4.95000335e-04,  4.95000219e-04,  4.95000160e-04,
        -4.94999869e-04, -4.95000335e-04, -4.95000102e-04,
         4.95000568e-04, -4.94999636e-04, -4.95000160e-04,
         4.95000160e-04, -4.94999636e-04, -4.95000102e-04,
        -4.95000160e-04, -4.94999636e-04, -4.95000160e-04,
        -4.95000568e-04, -4.95000160e-04, -4.95000160e-04,
        -4.94999636e-04,  4.95000160e-04, -4.95000160e-04,
        -4.95000160e-04,  4.95000160e-04, -4.95000160e-04,
        -4.95000160e-04, -4.95000160e-04,  4.95000451e-04,
         4.95000335e-04, -4.95000335e-04, -4.95000160e-04,
         4.95000568e-04, -4.95000160e-04, -4.94999636e-04,
         4.95000160e-04, -4.94999636e-04,  4.95000160e-04,
        -4.95000160e-04, -4.94999753e-04],
       [-4.94999636e-04, -4.95000102e-04,  4.95000160e-04,
        -4.94999753e-04, -4.95000160e-04,  4.94999636e-04,
         4.95000451e-04, -4.95000335e-04,  4.94999869e-04,
        -4.94999869e-04,  4.95000160e-04,  4.94999636e-04,
         4.95000219e-04, -4.94999869e-04, -4.94999636e-04,
        -4.94999753e-04, -4.94999753e-04, -4.94999869e-04,
        -4.94999869e-04, -4.95000102e-04, -4.95000160e-04,
         4.95000160e-04,  4.95000160e-04, -4.95000160e-04,
        -4.95000335e-04, -4.94999636e-04, -4.95000160e-04,
         4.95000160e-04,  4.94999869e-04,  4.94999869e-04,
         4.95000102e-04,  4.95000335e-04,  4.94999636e-04,
         4.95000102e-04, -4.95000335e-04, -4.95000568e-04,
        -4.94999636e-04, -4.95000160e-04,  4.95000219e-04,
         4.95000160e-04, -4.95000160e-04,  4.95000568e-04,
         4.94999636e-04,  4.94999636e-04, -4.95000102e-04,
        -4.95000219e-04, -4.95000335e-04,  4.95000451e-04,
        -4.94999636e-04, -4.95000160e-04],
       [ 4.95000568e-04, -4.95000451e-04, -4.95000160e-04,
        -4.94999636e-04, -4.95000451e-04,  4.95000160e-04,
         4.95000160e-04,  4.94999753e-04, -4.95000160e-04,
        -4.95000160e-04,  4.95000160e-04, -4.94999753e-04,
        -4.94999636e-04,  4.95000160e-04, -4.94999636e-04,
         4.95000160e-04, -4.95000160e-04, -4.94999636e-04,
        -4.95000160e-04,  4.95000160e-04, -4.94999753e-04,
         4.95000451e-04,  4.94999869e-04, -4.94999636e-04,
        -4.95000160e-04,  4.95000335e-04, -4.95000160e-04,
        -4.95000160e-04, -4.95000335e-04,  4.95000451e-04,
         4.95000160e-04,  4.95000160e-04, -4.95000451e-04,
        -4.95000160e-04, -4.95000160e-04,  4.95000102e-04,
        -4.95000160e-04, -4.95000160e-04, -4.95000160e-04,
         4.94999869e-04, -4.95000160e-04,  4.95000160e-04,
         4.94999636e-04,  4.95000160e-04, -4.94999869e-04,
        -4.94999636e-04,  4.95000451e-04, -4.95000219e-04,
         4.95000160e-04,  4.95000160e-04],
       [-4.95000102e-04, -4.95000335e-04,  4.95000160e-04,
         4.95000160e-04,  4.95000160e-04,  4.94999869e-04,
        -4.95000160e-04, -4.94999753e-04,  4.95000160e-04,
         4.94999753e-04, -4.95000160e-04, -4.95000160e-04,
         4.94999869e-04, -4.95000160e-04, -4.95000335e-04,
        -4.94999869e-04, -4.95000160e-04,  4.95000160e-04,
        -4.95000451e-04, -4.95000160e-04,  4.95000568e-04,
         4.95000160e-04,  4.95000160e-04,  4.95000102e-04,
         4.95000160e-04,  4.95000160e-04,  4.94999869e-04,
         4.95000160e-04,  4.95000102e-04, -4.95000160e-04,
        -4.94999636e-04, -4.95000102e-04,  4.95000160e-04,
        -4.95000335e-04,  4.94999636e-04, -4.95000335e-04,
         4.95000568e-04,  4.95000160e-04,  4.94999636e-04,
        -4.94999753e-04,  4.95000102e-04, -4.95000160e-04,
         4.95000102e-04, -4.95000451e-04,  4.95000102e-04,
        -4.95000160e-04, -4.95000160e-04,  4.95000160e-04,
        -4.94999636e-04, -4.95000160e-04],
       [ 4.95000160e-04, -4.94999753e-04,  4.95000102e-04,
        -4.95000160e-04, -4.95000160e-04, -4.95000451e-04,
        -4.94999636e-04, -4.95000102e-04,  4.95000451e-04,
         4.95000160e-04,  4.95000568e-04, -4.95000160e-04,
        -4.95000219e-04, -4.94999636e-04,  4.95000568e-04,
        -4.95000102e-04,  4.94999753e-04, -4.95000160e-04,
        -4.95000160e-04,  4.95000160e-04, -4.95000160e-04,
         4.94999636e-04,  4.95000160e-04,  4.94999753e-04,
         4.95000160e-04, -4.95000160e-04, -4.95000160e-04,
         4.95000160e-04, -4.95000160e-04,  4.95000102e-04,
         4.94999869e-04,  4.95000335e-04,  4.94999636e-04,
        -4.95000451e-04,  4.95000160e-04, -4.95000451e-04,
         4.95000160e-04,  4.95000160e-04, -4.95000451e-04,
        -4.95000451e-04,  4.95000160e-04,  4.95000219e-04,
         4.94999869e-04, -4.95000568e-04, -4.95000335e-04,
         4.95000160e-04,  4.95000160e-04, -4.95000160e-04,
        -4.95000451e-04,  4.95000160e-04],
       [-4.95000160e-04, -4.95000160e-04,  4.94999753e-04,
         4.95000160e-04, -4.95000451e-04,  4.95000160e-04,
         4.95000160e-04, -4.95000160e-04, -4.95000160e-04,
        -4.95000160e-04,  4.95000160e-04,  4.95000102e-04,
        -4.95000160e-04, -4.95000160e-04,  4.94999869e-04,
         4.95000451e-04,  4.94999869e-04, -4.94999636e-04,
         4.95000160e-04, -4.95000160e-04, -4.95000451e-04,
        -4.95000160e-04, -4.95000160e-04,  4.95000160e-04,
         4.95000160e-04, -4.95000568e-04,  4.95000160e-04,
         4.95000568e-04,  4.95000160e-04,  4.95000451e-04,
         4.94999869e-04, -4.95000451e-04,  4.95000160e-04,
        -4.95000160e-04, -4.95000160e-04,  4.95000568e-04,
         4.95000160e-04,  4.95000160e-04,  4.95000160e-04,
        -4.95000160e-04,  4.95000102e-04, -4.94999636e-04,
         4.95000160e-04,  4.95000160e-04,  4.94999636e-04,
        -4.94999636e-04, -4.94999869e-04, -4.95000160e-04,
         4.95000160e-04, -4.95000160e-04],
       [ 4.95000568e-04, -4.95000160e-04,  4.95000335e-04,
        -4.95000335e-04,  4.94999869e-04,  4.95000160e-04,
         4.95000160e-04,  4.95000219e-04,  4.95000160e-04,
         4.95000160e-04,  4.95000160e-04, -4.94999869e-04,
         4.95000160e-04,  4.95000160e-04,  4.95000160e-04,
         4.95000160e-04,  4.95000219e-04,  4.95000219e-04,
         4.95000160e-04, -4.94999636e-04, -4.94999636e-04,
        -4.95000568e-04,  4.95000102e-04, -4.94999636e-04,
         4.95000160e-04,  4.95000160e-04, -4.95000160e-04,
         4.95000219e-04, -4.95000451e-04, -4.95000102e-04,
        -4.95000160e-04,  4.94999869e-04,  4.94999869e-04,
        -4.95000102e-04, -4.95000160e-04, -4.95000160e-04,
        -4.95000160e-04,  4.95000160e-04,  4.95000219e-04,
         4.95000160e-04,  4.95000451e-04, -4.94999869e-04,
         4.94999869e-04, -4.94999636e-04, -4.95000335e-04,
        -4.95000102e-04,  4.95000335e-04, -4.94999869e-04,
         4.95000160e-04, -4.95000102e-04],
       [ 4.95000451e-04, -4.95000160e-04,  4.94999636e-04,
         4.95000160e-04, -4.95000160e-04,  4.95000160e-04,
        -4.95000102e-04, -4.95000160e-04,  4.95000160e-04,
         4.95000160e-04, -4.95000160e-04, -4.95000160e-04,
         4.95000160e-04, -4.95000160e-04,  4.95000160e-04,
         4.95000160e-04, -4.95000160e-04,  4.94999869e-04,
        -4.94999636e-04,  4.95000160e-04,  4.95000160e-04,
         4.94999636e-04, -4.95000102e-04, -4.95000160e-04,
        -4.94999753e-04, -4.94999869e-04,  4.95000568e-04,
        -4.94999636e-04, -4.95000219e-04,  4.95000451e-04,
         4.95000160e-04,  4.95000160e-04,  4.95000451e-04,
         4.95000160e-04,  4.95000160e-04,  4.95000160e-04,
         4.95000568e-04, -4.95000160e-04,  4.95000160e-04,
         4.94999869e-04,  4.95000335e-04, -4.95000451e-04,
         4.95000102e-04,  4.95000160e-04, -4.94999636e-04,
         4.94999869e-04, -4.95000160e-04, -4.95000160e-04,
        -4.95000335e-04,  4.95000160e-04],
       [ 4.94999636e-04, -4.95000219e-04, -4.95000160e-04,
         4.95000160e-04,  4.94999869e-04, -4.94999753e-04,
         4.95000219e-04, -4.95000160e-04,  4.95000160e-04,
         4.95000160e-04,  4.95000160e-04,  4.95000160e-04,
         4.95000160e-04, -4.95000160e-04,  4.95000160e-04,
        -4.95000160e-04, -4.95000451e-04, -4.95000160e-04,
        -4.94999869e-04, -4.95000160e-04,  4.95000102e-04,
         4.94999636e-04, -4.95000160e-04,  4.95000160e-04,
         4.95000160e-04, -4.94999636e-04, -4.95000451e-04,
        -4.95000160e-04,  4.94999636e-04,  4.95000102e-04,
        -4.95000160e-04, -4.94999869e-04, -4.95000160e-04,
         4.95000160e-04, -4.94999636e-04,  4.95000160e-04,
         4.95000160e-04, -4.95000160e-04, -4.95000102e-04,
        -4.95000102e-04, -4.94999869e-04, -4.94999869e-04,
         4.95000335e-04, -4.95000160e-04, -4.94999636e-04,
        -4.95000219e-04, -4.95000160e-04, -4.95000160e-04,
        -4.94999869e-04,  4.95000160e-04],
       [ 4.95000160e-04,  4.95000160e-04,  4.95000568e-04,
         4.95000160e-04,  4.95000160e-04, -4.95000160e-04,
        -4.94999869e-04, -4.94999636e-04, -4.95000160e-04,
        -4.94999636e-04, -4.94999636e-04,  4.95000102e-04,
        -4.95000219e-04, -4.95000160e-04,  4.94999636e-04,
        -4.95000102e-04,  4.95000160e-04,  4.95000160e-04,
         4.95000160e-04, -4.95000102e-04, -4.95000160e-04,
        -4.94999636e-04,  4.94999869e-04,  4.95000160e-04,
        -4.95000568e-04, -4.94999869e-04, -4.95000568e-04,
        -4.95000568e-04, -4.95000160e-04,  4.95000160e-04,
         4.95000160e-04,  4.95000160e-04,  4.95000160e-04,
         4.95000451e-04,  4.95000160e-04, -4.94999753e-04,
        -4.94999636e-04,  4.95000335e-04, -4.94999869e-04,
         4.94999636e-04,  4.95000160e-04,  4.95000219e-04,
        -4.95000160e-04, -4.95000160e-04, -4.94999869e-04,
        -4.95000160e-04,  4.95000335e-04, -4.95000160e-04,
         4.95000160e-04,  4.95000451e-04],
       [-4.95000160e-04, -4.95000102e-04,  4.95000160e-04,
        -4.94999636e-04,  4.95000160e-04,  4.95000160e-04,
        -4.95000160e-04,  4.94999869e-04, -4.94999636e-04,
        -4.94999636e-04, -4.95000102e-04,  4.95000160e-04,
         4.95000160e-04, -4.95000160e-04, -4.95000160e-04,
        -4.95000160e-04,  4.95000160e-04,  4.94999636e-04,
         4.94999869e-04,  4.95000160e-04,  4.95000160e-04,
         4.95000451e-04,  4.94999636e-04, -4.94999636e-04,
         4.94999636e-04, -4.95000102e-04, -4.94999636e-04,
         4.94999869e-04, -4.95000160e-04,  4.95000160e-04,
         4.95000102e-04, -4.95000160e-04,  4.95000568e-04,
         4.95000160e-04, -4.94999753e-04, -4.94999636e-04,
         4.95000568e-04,  4.94999636e-04,  4.95000451e-04,
        -4.94999753e-04, -4.95000160e-04, -4.95000160e-04,
        -4.95000160e-04, -4.95000160e-04, -4.95000160e-04,
         4.95000160e-04,  4.94999636e-04,  4.95000160e-04,
         4.94999869e-04, -4.94999636e-04],
       [-4.95000160e-04, -4.95000160e-04,  4.95000160e-04,
        -4.95000160e-04,  4.94999636e-04,  4.95000160e-04,
        -4.95000335e-04, -4.95000160e-04, -4.94999753e-04,
        -4.95000102e-04,  4.95000568e-04, -4.95000160e-04,
         4.94999636e-04,  4.95000335e-04,  4.95000160e-04,
         4.94999869e-04,  4.94999636e-04, -4.95000160e-04,
         4.95000219e-04,  4.95000335e-04, -4.95000160e-04,
        -4.94999753e-04,  4.95000451e-04,  4.95000160e-04,
        -4.95000219e-04,  4.95000160e-04,  4.95000160e-04,
        -4.95000160e-04,  4.95000160e-04, -4.95000451e-04,
        -4.95000160e-04,  4.95000160e-04, -4.95000160e-04,
        -4.95000335e-04, -4.95000160e-04,  4.95000160e-04,
        -4.94999636e-04, -4.95000160e-04,  4.95000451e-04,
         4.95000102e-04, -4.95000160e-04,  4.95000160e-04,
        -4.94999753e-04,  4.95000335e-04,  4.95000160e-04,
        -4.95000451e-04,  4.95000451e-04, -4.95000102e-04,
         4.94999636e-04,  4.94999636e-04],
       [-4.95000160e-04, -4.95000102e-04,  4.95000160e-04,
         4.94999753e-04,  4.94999636e-04,  4.95000160e-04,
        -4.94999636e-04,  4.95000160e-04,  4.95000160e-04,
         4.94999753e-04,  4.95000102e-04, -4.94999636e-04,
        -4.95000160e-04, -4.95000219e-04, -4.94999753e-04,
         4.95000568e-04, -4.95000160e-04, -4.94999869e-04,
         4.95000335e-04,  4.95000160e-04, -4.95000160e-04,
         4.95000568e-04, -4.95000102e-04,  4.95000160e-04,
        -4.94999753e-04, -4.94999869e-04,  4.95000160e-04,
         4.95000451e-04, -4.94999636e-04, -4.94999636e-04,
         4.95000102e-04,  4.95000160e-04, -4.95000335e-04,
         4.95000160e-04, -4.95000160e-04,  4.95000102e-04,
         4.95000160e-04,  4.95000160e-04, -4.95000160e-04,
         4.94999753e-04,  4.94999636e-04, -4.95000160e-04,
        -4.95000160e-04,  4.95000568e-04,  4.94999636e-04,
         4.94999636e-04,  4.95000160e-04, -4.94999636e-04,
         4.95000160e-04,  4.94999636e-04],
       [ 4.94999869e-04, -4.94999869e-04,  4.94999753e-04,
         4.95000160e-04,  4.95000160e-04, -4.95000160e-04,
        -4.94999869e-04,  4.95000160e-04, -4.95000102e-04,
         4.94999869e-04, -4.94999636e-04,  4.95000160e-04,
         4.94999869e-04, -4.95000160e-04,  4.95000335e-04,
         4.95000219e-04, -4.95000219e-04,  4.94999636e-04,
        -4.95000102e-04,  4.95000160e-04, -4.95000335e-04,
        -4.95000160e-04, -4.95000160e-04, -4.95000160e-04,
         4.95000160e-04, -4.94999636e-04,  4.95000160e-04,
        -4.95000160e-04, -4.95000160e-04,  4.95000160e-04,
         4.95000102e-04,  4.95000219e-04,  4.95000219e-04,
         4.94999636e-04,  4.95000160e-04,  4.95000160e-04,
         4.95000451e-04,  4.95000160e-04,  4.95000451e-04,
        -4.95000451e-04, -4.95000160e-04, -4.94999869e-04,
        -4.95000160e-04,  4.95000219e-04,  4.95000160e-04,
         4.95000160e-04, -4.94999869e-04, -4.95000160e-04,
         4.94999869e-04,  4.95000160e-04],
       [-4.95000160e-04,  4.95000160e-04,  4.95000160e-04,
        -4.95000160e-04, -4.94999636e-04, -4.95000160e-04,
         4.95000160e-04, -4.94999636e-04, -4.94999869e-04,
         4.95000160e-04,  4.95000160e-04,  4.94999636e-04,
        -4.94999636e-04, -4.95000160e-04,  4.95000160e-04,
