[array([[[ 1.28638178e-01, -2.72681154e-02,  2.38689974e-01, ...,
         -1.35610983e-01, -5.30717894e-03,  1.62600160e-01],
        [ 8.31135213e-02,  1.04893930e-01,  1.33358762e-01, ...,
          1.08923264e-01,  9.97703597e-02,  3.99159700e-01],
        [ 1.80481195e-01, -2.84284297e-02, -1.79564103e-01, ...,
          1.27379507e-01, -1.03336230e-01,  7.67855421e-02],
        ...,
        [ 1.16437986e-01,  3.44705582e-01, -4.77246866e-02, ...,
          1.47618860e-01, -4.89618368e-02,  2.05961123e-01],
        [ 2.33941689e-01, -4.27760882e-03, -2.05972306e-02, ...,
          9.39617902e-02,  1.96396068e-01, -1.37600172e-02],
        [ 1.31300598e-01,  1.52972475e-01, -1.08603865e-01, ...,
          4.81487028e-02,  2.40439296e-01,  5.18692890e-03]],

       [[ 9.00833867e-03, -1.87023766e-02,  2.20662639e-01, ...,
          7.45268092e-02,  1.49129061e-02, -2.89308935e-01],
        [-1.33391470e-02,  3.40681188e-02, -1.19923368e-01, ...,
         -2.39491835e-01,  1.66355610e-01, -1.57972291e-01],
        [ 4.29561026e-02,  3.09409261e-01, -2.79578388e-01, ...,
          3.19484025e-02,  6.96738809e-02, -1.17988788e-01],
        ...,
        [ 8.19847584e-02,  7.74554536e-02, -3.90001386e-02, ...,
         -9.73120108e-02, -6.12948500e-02, -1.21454373e-01],
        [ 9.85143185e-02,  3.44710201e-01, -3.28813404e-01, ...,
          4.30123359e-02, -4.44670357e-02,  1.51183233e-01],
        [ 1.59083650e-01, -8.47790204e-03, -2.74523329e-02, ...,
          1.22320801e-01,  1.10993631e-01,  7.00366348e-02]],

       [[ 1.06235243e-01, -1.38717089e-02,  8.78593549e-02, ...,
          2.26958081e-01, -3.50631148e-01, -2.99100298e-02],
        [ 1.19378477e-01,  9.10386071e-02,  5.20539470e-02, ...,
          3.44846427e-01, -6.85022354e-01, -1.92973852e-01],
        [ 1.62214488e-01, -5.20466864e-02, -1.01016343e-01, ...,
          1.08443744e-01, -1.08575150e-01,  6.87725022e-02],
        ...,
        [ 9.87663940e-02,  9.58346575e-02,  2.13167712e-01, ...,
          2.85102934e-01, -2.19638303e-01,  2.30848733e-02],
        [ 1.98000163e-01,  2.93232113e-01, -5.91663346e-02, ...,
         -9.43384469e-02, -2.13121831e-01,  1.52248340e-02],
        [ 2.00468659e-01, -1.70254692e-01,  2.10489482e-01, ...,
          2.21687645e-01, -2.40857899e-01,  1.41427100e-01]],

       [[ 1.33150071e-01,  8.98504481e-02,  9.68830884e-02, ...,
          3.53312157e-02,  2.22244044e-03, -2.85579655e-02],
        [ 6.76289499e-02,  4.12646972e-04,  1.65212303e-01, ...,
          1.69033706e-01,  2.26820856e-02, -6.21121339e-02],
        [ 1.62301064e-01,  1.71224214e-02, -2.29105085e-01, ...,
          1.33801877e-01, -2.40215048e-01, -1.57013848e-01],
        ...,
        [ 1.05932660e-01, -2.04872899e-02,  7.09785670e-02, ...,
          9.54558700e-02, -1.07172392e-02, -1.98697925e-01],
        [-3.83152738e-02, -1.63692627e-02,  4.88154627e-02, ...,
          1.31748587e-01, -1.22348487e-01,  1.75426573e-01],
        [ 1.67851269e-01,  1.77568153e-01,  1.43350000e-02, ...,
          1.23717509e-01, -7.90131763e-02,  5.73589541e-02]],

       [[ 3.31764631e-02,  5.28192259e-02,  4.55854870e-02, ...,
          4.78949323e-02, -8.77764374e-02, -4.62927781e-02],
        [ 2.05838650e-01,  2.62377113e-01,  4.71054129e-02, ...,
          1.24781676e-01, -1.02005318e-01,  7.47022405e-02],
        [ 1.59061819e-01,  1.03166811e-01, -5.52878678e-02, ...,
          1.64683759e-01, -2.89630443e-02, -8.14381912e-02],
        ...,
        [ 2.40973622e-01, -1.48677137e-02, -3.72540988e-02, ...,
          5.92600182e-02, -1.46379277e-01, -3.18434834e-02],
        [ 2.09897816e-01,  8.22276399e-02, -3.49829137e-01, ...,
          2.14026511e-01, -1.64171398e-01, -1.24834307e-01],
        [ 6.12870865e-02,  2.64462560e-01,  4.60036099e-02, ...,
          2.49868497e-01, -1.72398731e-01, -1.86798930e-01]]],
      dtype=float32), array([-0.6395784 , -1.563795  , -1.366968  ,  0.41377875, -1.459136  ,
       -1.2863444 , -0.64350134, -1.5569935 , -1.6818486 , -1.3654853 ,
        0.05957353,  0.44090334,  0.67049617, -1.5021441 , -0.59655434,
        1.2183318 , -1.2259564 , -1.5808032 , -1.284654  , -1.5760987 ,
       -1.4645015 , -1.5128858 , -1.3755023 , -0.8595248 , -0.48694804,
       -0.21466628, -1.2822435 ,  0.59974164, -1.3134254 , -0.39282468,
        0.4387866 , -1.1840852 ], dtype=float32)]