[array([[[-0.25959706, -0.34117717,  0.06747686, ..., -0.0994667 ,
         -0.0481707 , -0.28325588],
        [-0.04793924, -0.2012353 ,  0.0566158 , ..., -0.16987301,
         -0.26401713, -0.2481621 ],
        [-0.09495904, -0.11356617,  0.07026018, ..., -0.09888422,
         -0.15913846,  0.03843231],
        ...,
        [ 0.2896946 , -0.03834283, -0.2162824 , ..., -0.09255672,
         -0.10370778,  0.15884039],
        [ 0.06607387, -0.0951291 ,  0.07593415, ..., -0.28927517,
         -0.00151686, -0.16411002],
        [ 0.01132357, -0.02034161, -0.24725994, ..., -0.05735668,
         -0.06430399,  0.09618945]],

       [[-0.12475464, -0.19768651,  0.14967084, ..., -0.1438576 ,
         -0.16044389,  0.1182247 ],
        [ 0.12263484, -0.15357703, -0.10425095, ...,  0.11053122,
          0.06737977,  0.09514828],
        [-0.07755364, -0.10615295, -0.23495197, ...,  0.03490395,
         -0.01631024,  0.05939169],
        ...,
        [ 0.00958173,  0.03987304, -0.4748861 , ..., -0.11059888,
         -0.04354281,  0.13721898],
        [-0.05954031, -0.14577402, -0.1194421 , ...,  0.2125372 ,
         -0.20176582,  0.02144618],
        [ 0.1523402 , -0.1858667 , -0.15464099, ..., -0.06247917,
         -0.07544449, -0.03306786]],

       [[ 0.02767771, -0.26141745,  0.13750191, ..., -0.11674749,
         -0.35677782, -0.05412733],
        [-0.07524315, -0.3089196 , -0.23821254, ...,  0.06921288,
         -0.16862445,  0.09342178],
        [-0.11730995,  0.12196895,  0.07611398, ...,  0.13605471,
          0.12052613,  0.1769244 ],
        ...,
        [-0.11565782, -0.18355826,  0.02804955, ..., -0.06258613,
         -0.09347286, -0.06518001],
        [ 0.07426353, -0.01525544, -0.00265548, ..., -0.49484634,
         -0.31773865, -0.17369485],
        [ 0.00927631, -0.21944644, -0.18379167, ..., -0.17308263,
          0.07569201, -0.25702816]],

       [[ 0.4372743 , -0.04303782,  0.5369896 , ...,  0.1112522 ,
         -0.12231042,  0.18376544],
        [ 0.05087109,  0.3772782 ,  0.0526485 , ...,  0.05216255,
         -0.24540474,  0.07097641],
        [ 0.0663872 , -0.02268162, -0.2087183 , ..., -0.07771394,
          0.37907305, -0.21212998],
        ...,
        [ 0.03211706,  0.14368314, -0.14957   , ..., -0.00395271,
          0.05539818,  0.17993684],
        [ 0.05707325,  0.10881621, -0.21172315, ...,  0.08036143,
          0.00192676,  0.0028312 ],
        [ 0.29116744,  0.02799295,  0.03217259, ...,  0.15668273,
          0.13624656, -0.17181386]],

       [[ 0.14971201,  0.11631612,  0.31620863, ...,  0.22759745,
         -0.00785344,  0.27661043],
        [ 0.11858634,  0.05780133, -0.14381006, ...,  0.26138294,
         -0.00508811,  0.30991876],
        [-0.26029566, -0.13986424,  0.03609698, ..., -0.06957865,
         -0.03517382, -0.01559871],
        ...,
        [ 0.25641   ,  0.15794717, -0.2877045 , ..., -0.17579018,
         -0.00895891,  0.02489964],
        [-0.06447432,  0.11634937, -0.11698498, ...,  0.24839737,
          0.21988343,  0.11190715],
        [ 0.18983515,  0.2318894 ,  0.21871272, ...,  0.24862094,
         -0.20724897, -0.04926186]]], dtype=float32), array([-0.14957811, -0.20772804, -0.05899475, -0.43836138, -0.15328005,
       -0.10853425, -0.31756976, -0.17582086, -0.25465742, -0.12181116,
       -0.3451653 , -0.022689  , -0.3279538 , -0.29492506, -0.21722107,
       -0.26294607, -0.21012183, -0.30331156, -0.33329505, -0.64974195,
       -0.08483725, -0.10344797, -0.27968   , -0.17441195,  0.08677581,
       -0.5774444 , -0.21789062, -0.10954058, -0.24229193,  0.0083246 ,
       -0.07783668, -0.21596298], dtype=float32)]