[array([[ 4.95000160e-04,  4.94999636e-04, -4.95000335e-04,
        -4.94999636e-04, -4.94999869e-04, -4.95000160e-04,
        -4.95000219e-04,  4.95000160e-04, -4.95000160e-04,
         4.94999636e-04, -4.95000102e-04, -4.94999636e-04,
         4.94999869e-04, -4.94999869e-04,  4.95000160e-04,
         4.95000160e-04,  4.95000160e-04,  4.94999753e-04,
         4.95000160e-04, -4.95000568e-04,  4.95000160e-04,
         4.94999869e-04, -4.95000160e-04, -4.95000160e-04,
        -4.95000160e-04, -4.94999869e-04,  4.94999869e-04,
        -4.94999753e-04,  4.94999636e-04,  4.94999753e-04,
         4.94999869e-04, -4.95000160e-04, -4.95000160e-04,
        -4.95000160e-04, -4.95000160e-04,  4.95000219e-04,
        -4.95000102e-04,  4.94999753e-04, -4.95000160e-04,
         4.94999636e-04, -4.95000160e-04,  4.95000219e-04,
         4.94999636e-04, -4.95000160e-04, -4.95000160e-04,
         4.95000160e-04, -4.95000160e-04,  4.94999869e-04,
         4.95000160e-04,  4.95000160e-04],
       [ 4.95000160e-04, -4.94999636e-04,  4.95000160e-04,
         4.95000160e-04,  4.94999753e-04, -4.94999636e-04,
        -4.95000160e-04,  4.95000568e-04, -4.95000568e-04,
         4.95000160e-04, -4.95000160e-04, -4.95000160e-04,
         4.95000160e-04,  4.95000160e-04,  4.95000160e-04,
        -4.95000160e-04,  4.95000160e-04,  4.95000160e-04,
         4.95000160e-04, -4.95000160e-04, -4.95000451e-04,
        -4.94999869e-04,  4.95000160e-04,  4.95000160e-04,
        -4.95000102e-04,  4.95000160e-04,  4.95000160e-04,
         4.95000160e-04,  4.94999636e-04,  4.95000160e-04,
         4.95000160e-04,  4.95000219e-04,  4.95000160e-04,
         4.95000335e-04, -4.95000335e-04, -4.95000160e-04,
        -4.95000160e-04, -4.95000160e-04,  4.95000219e-04,
        -4.95000335e-04, -4.94999636e-04,  4.94999636e-04,
        -4.95000160e-04,  4.95000102e-04, -4.95000160e-04,
         4.94999636e-04,  4.95000160e-04,  4.94999636e-04,
         4.95000160e-04,  4.94999869e-04],
       [ 4.95000160e-04,  4.95000568e-04,  4.95000102e-04,
        -4.95000160e-04,  4.94999636e-04, -4.95000160e-04,
         4.95000160e-04, -4.95000160e-04, -4.95000219e-04,
        -4.95000160e-04, -4.95000160e-04, -4.95000335e-04,
        -4.95000160e-04, -4.95000160e-04,  4.95000160e-04,
         4.95000160e-04,  4.95000160e-04,  4.95000568e-04,
         4.95000160e-04, -4.95000160e-04,  4.95000160e-04,
         4.95000160e-04,  4.95000160e-04,  4.95000160e-04,
         4.95000160e-04,  4.95000451e-04, -4.95000219e-04,
        -4.95000160e-04,  4.94999869e-04,  4.95000160e-04,
        -4.94999636e-04, -4.95000102e-04,  4.95000160e-04,
        -4.95000160e-04,  4.95000160e-04,  4.95000160e-04,
        -4.95000451e-04, -4.95000219e-04, -4.94999753e-04,
         4.94999636e-04,  4.95000160e-04, -4.95000160e-04,
        -4.95000102e-04,  4.95000160e-04, -4.95000160e-04,
         4.95000160e-04,  4.95000451e-04, -4.94999636e-04,
        -4.95000102e-04,  4.95000160e-04],
       [ 4.95000160e-04,  4.95000160e-04,  4.94999869e-04,
        -4.95000160e-04,  4.95000160e-04, -4.95000451e-04,
         4.94999636e-04, -4.94999869e-04,  4.95000160e-04,
        -4.95000335e-04,  4.95000102e-04,  4.95000160e-04,
        -4.95000451e-04,  4.95000451e-04, -4.94999753e-04,
         4.95000102e-04, -4.95000160e-04, -4.95000160e-04,
        -4.95000160e-04, -4.95000160e-04,  4.94999869e-04,
         4.95000219e-04,  4.95000160e-04,  4.95000568e-04,
         4.95000160e-04, -4.95000102e-04,  4.94999636e-04,
        -4.95000160e-04,  4.95000160e-04,  4.95000160e-04,
        -4.95000335e-04,  4.95000568e-04, -4.95000568e-04,
        -4.95000568e-04, -4.95000160e-04, -4.95000160e-04,
        -4.95000160e-04,  4.94999636e-04,  4.95000160e-04,
        -4.95000160e-04, -4.95000160e-04, -4.94999636e-04,
        -4.95000160e-04, -4.95000160e-04, -4.95000160e-04,
        -4.95000102e-04,  4.95000160e-04,  4.94999869e-04,
         4.95000160e-04,  4.94999636e-04],
       [-4.95000160e-04,  4.95000451e-04,  4.94999869e-04,
        -4.94999869e-04,  4.95000335e-04, -4.95000160e-04,
        -4.95000160e-04,  4.95000160e-04,  4.95000160e-04,
        -4.94999636e-04, -4.95000219e-04, -4.94999753e-04,
         4.95000160e-04,  4.95000160e-04, -4.95000160e-04,
         4.95000160e-04, -4.95000160e-04,  4.94999753e-04,
         4.95000160e-04,  4.94999636e-04,  4.95000160e-04,
        -4.94999636e-04, -4.94999869e-04,  4.94999636e-04,
        -4.95000160e-04, -4.95000335e-04,  4.95000160e-04,
         4.94999636e-04,  4.95000160e-04,  4.95000160e-04,
        -4.95000335e-04,  4.95000160e-04, -4.95000102e-04,
         4.95000160e-04, -4.94999869e-04, -4.94999636e-04,
         4.95000160e-04, -4.95000568e-04,  4.95000335e-04,
         4.95000102e-04, -4.95000160e-04, -4.95000102e-04,
        -4.95000160e-04,  4.95000219e-04, -4.95000219e-04,
        -4.94999869e-04,  4.95000451e-04,  4.95000160e-04,
         4.95000160e-04, -4.95000160e-04],
       [ 2.85201296e-02, -2.13904474e-02,  3.24384868e-02,
        -2.20336616e-02, -6.11280873e-02,  3.25150602e-03,
        -4.96092997e-02, -1.40979802e-02,  1.34016844e-02,
        -5.75669808e-03,  1.50106288e-02, -1.23321958e-01,
        -9.05167591e-03,  1.98927447e-02, -7.78363422e-02,
         1.38280457e-02, -1.63346082e-02, -5.00116907e-02,
        -3.39157805e-02,  3.21342200e-02,  1.09732682e-02,
        -1.16056651e-01,  2.55874600e-02, -8.51982646e-03,
        -6.44085333e-02,  1.85044408e-02,  8.71507823e-02,
        -1.57239158e-02, -3.94581854e-02,  3.03753912e-02,
         6.21772371e-02, -2.90405117e-02,  6.58027157e-02,
        -8.18519592e-02,  1.06883021e-02,  8.06041434e-02,
        -6.27350211e-02,  5.97262792e-02,  2.78600510e-02,
         5.14448807e-03,  4.70968001e-02, -1.13022644e-02,
         3.31605156e-03, -4.35440838e-02, -8.39118101e-03,
         1.49080353e-02,  1.49314012e-02,  5.50540425e-02,
         7.37416148e-02,  7.51298852e-04],
       [-4.95000160e-04, -4.95000160e-04,  4.95000451e-04,
         4.95000160e-04, -4.94999869e-04, -4.95000160e-04,
         4.95000335e-04, -4.95000160e-04, -4.95000160e-04,
         4.95000160e-04,  4.95000160e-04,  4.95000160e-04,
         4.95000160e-04,  4.95000451e-04,  4.94999869e-04,
         4.95000568e-04,  4.95000568e-04, -4.94999753e-04,
        -4.95000102e-04,  4.95000160e-04,  4.95000568e-04,
        -4.94999636e-04, -4.95000102e-04,  4.95000160e-04,
        -4.95000160e-04, -4.94999869e-04, -4.95000568e-04,
         4.95000160e-04, -4.95000160e-04,  4.95000568e-04,
         4.95000160e-04,  4.95000451e-04, -4.95000160e-04,
         4.95000160e-04,  4.95000160e-04, -4.95000160e-04,
         4.95000451e-04,  4.95000160e-04, -4.95000102e-04,
         4.95000102e-04,  4.95000160e-04, -4.94999869e-04,
        -4.95000568e-04,  4.95000160e-04, -4.95000160e-04,
         4.95000160e-04,  4.95000160e-04, -4.95000335e-04,
         4.95000160e-04, -4.95000160e-04],
       [-4.95000451e-04,  4.95000160e-04, -4.95000102e-04,
         4.95000160e-04,  4.95000160e-04, -4.94999636e-04,
         4.95000102e-04, -4.94999753e-04, -4.95000160e-04,
        -4.95000160e-04,  4.94999636e-04, -4.95000160e-04,
        -4.95000568e-04,  4.95000160e-04, -4.95000568e-04,
         4.95000102e-04, -4.95000160e-04, -4.94999869e-04,
        -4.95000335e-04,  4.94999636e-04, -4.95000160e-04,
         4.95000160e-04,  4.95000219e-04,  4.95000160e-04,
        -4.95000160e-04, -4.95000160e-04,  4.95000160e-04,
        -4.95000335e-04, -4.94999636e-04, -4.94999636e-04,
         4.95000102e-04, -4.95000160e-04, -4.95000568e-04,
         4.95000160e-04,  4.94999636e-04, -4.94999636e-04,
         4.95000160e-04, -4.95000160e-04, -4.95000160e-04,
        -4.95000160e-04, -4.95000568e-04, -4.95000102e-04,
        -4.95000160e-04, -4.95000160e-04, -4.95000160e-04,
        -4.95000335e-04, -4.95000335e-04, -4.95000219e-04,
         4.95000451e-04,  4.95000160e-04],
       [ 4.95000160e-04, -4.95000451e-04,  4.94999753e-04,
         4.94999753e-04, -4.95000160e-04, -4.95000568e-04,
         4.95000160e-04, -4.94999753e-04, -4.95000451e-04,
        -4.95000160e-04,  4.95000160e-04, -4.95000160e-04,
        -4.95000160e-04,  4.95000160e-04,  4.94999753e-04,
        -4.95000102e-04, -4.94999869e-04,  4.95000160e-04,
        -4.95000335e-04,  4.95000335e-04, -4.95000160e-04,
         4.94999636e-04,  4.95000102e-04, -4.94999869e-04,
         4.95000160e-04,  4.94999753e-04,  4.95000160e-04,
        -4.95000568e-04, -4.94999636e-04,  4.95000160e-04,
        -4.95000160e-04, -4.95000451e-04,  4.94999753e-04,
        -4.95000568e-04,  4.94999636e-04,  4.95000160e-04,
        -4.95000160e-04, -4.95000102e-04, -4.95000160e-04,
         4.95000160e-04,  4.94999753e-04, -4.95000160e-04,
        -4.95000160e-04,  4.95000160e-04,  4.95000160e-04,
         4.95000568e-04,  4.95000160e-04, -4.95000160e-04,
        -4.95000335e-04,  4.95000451e-04],
       [-4.95000160e-04,  4.95000335e-04,  4.94999753e-04,
         4.95000160e-04,  4.95000160e-04, -4.94999869e-04,
         4.95000335e-04,  4.95000102e-04, -4.95000160e-04,
         4.94999869e-04,  4.94999869e-04,  4.94999869e-04,
         4.94999636e-04, -4.94999636e-04, -4.94999869e-04,
         4.95000219e-04,  4.95000102e-04, -4.94999636e-04,
         4.95000160e-04,  4.94999869e-04,  4.95000451e-04,
         4.94999869e-04, -4.95000160e-04, -4.95000102e-04,
        -4.95000160e-04,  4.95000219e-04,  4.95000568e-04,
         4.95000160e-04, -4.95000160e-04,  4.95000102e-04,
        -4.94999753e-04,  4.95000160e-04,  4.95000160e-04,
        -4.94999869e-04, -4.95000335e-04,  4.95000160e-04,
        -4.95000160e-04,  4.95000160e-04, -4.95000160e-04,
         4.95000160e-04,  4.95000160e-04,  4.95000160e-04,
        -4.95000160e-04, -4.95000160e-04,  4.94999753e-04,
        -4.95000335e-04,  4.95000102e-04,  4.95000160e-04,
        -4.95000160e-04,  4.95000160e-04],
       [ 4.95000160e-04,  4.94999869e-04, -4.95000160e-04,
        -4.94999753e-04,  4.95000160e-04, -4.95000160e-04,
        -4.95000160e-04,  4.95000160e-04, -4.95000568e-04,
         4.95000451e-04,  4.94999869e-04, -4.95000160e-04,
        -4.95000160e-04, -4.95000568e-04, -4.95000160e-04,
         4.95000160e-04,  4.95000335e-04, -4.94999869e-04,
        -4.95000160e-04,  4.95000160e-04,  4.95000451e-04,
        -4.95000160e-04, -4.95000102e-04,  4.95000160e-04,
         4.95000160e-04,  4.95000160e-04,  4.95000160e-04,
        -4.95000160e-04, -4.95000451e-04,  4.95000219e-04,
         4.94999636e-04, -4.95000160e-04, -4.95000451e-04,
         4.95000160e-04,  4.95000160e-04, -4.95000160e-04,
        -4.95000568e-04,  4.95000160e-04, -4.95000102e-04,
         4.95000102e-04,  4.95000219e-04, -4.95000102e-04,
        -4.95000160e-04,  4.95000102e-04, -4.95000451e-04,
        -4.95000160e-04,  4.95000160e-04,  4.95000160e-04,
         4.95000160e-04,  4.95000102e-04],
       [ 4.94999636e-04,  4.95000160e-04, -4.95000160e-04,
        -4.95000102e-04, -4.95000102e-04, -4.94999636e-04,
        -4.94999636e-04,  4.95000160e-04, -4.95000160e-04,
        -4.95000160e-04, -4.94999636e-04,  4.95000160e-04,
         4.95000160e-04, -4.95000160e-04,  4.95000160e-04,
        -4.95000160e-04, -4.95000160e-04, -4.94999869e-04,
        -4.94999869e-04, -4.95000160e-04,  4.95000160e-04,
        -4.95000160e-04,  4.95000160e-04, -4.95000160e-04,
        -4.94999636e-04, -4.95000160e-04, -4.95000335e-04,
        -4.95000160e-04,  4.95000160e-04, -4.95000160e-04,
         4.95000160e-04,  4.94999869e-04, -4.95000335e-04,
        -4.95000335e-04,  4.95000160e-04,  4.95000160e-04,
         4.94999636e-04, -4.95000102e-04,  4.95000160e-04,
         4.95000160e-04, -4.94999869e-04, -4.95000102e-04,
         4.95000160e-04,  4.95000160e-04,  4.95000160e-04,
        -4.95000160e-04,  4.95000219e-04, -4.94999636e-04,
        -4.95000219e-04,  4.95000160e-04],
       [ 4.95000160e-04,  4.94999636e-04, -4.95000160e-04,
        -4.94999636e-04, -4.95000335e-04,  4.95000160e-04,
         4.94999869e-04,  4.94999636e-04, -4.95000219e-04,
        -4.95000160e-04, -4.95000160e-04, -4.95000160e-04,
        -4.95000160e-04, -4.94999869e-04, -4.95000451e-04,
        -4.95000160e-04,  4.95000568e-04,  4.94999753e-04,
        -4.95000451e-04, -4.95000160e-04, -4.95000160e-04,
         4.95000335e-04,  4.95000160e-04, -4.95000160e-04,
        -4.95000160e-04,  4.95000160e-04, -4.95000160e-04,
         4.95000160e-04,  4.95000160e-04, -4.95000160e-04,
         4.95000160e-04, -4.95000160e-04,  4.95000160e-04,
         4.95000102e-04, -4.95000160e-04, -4.95000219e-04,
         4.95000160e-04, -4.95000335e-04,  4.94999869e-04,
         4.95000160e-04, -4.95000335e-04, -4.94999869e-04,
         4.95000160e-04,  4.95000160e-04, -4.95000160e-04,
         4.94999753e-04, -4.95000568e-04,  4.94999753e-04,
        -4.95000568e-04,  4.95000160e-04],
       [ 4.95000160e-04,  4.95000160e-04, -4.94999636e-04,
         4.94999753e-04,  4.95000160e-04, -4.95000160e-04,
         4.95000335e-04,  4.95000102e-04, -4.95000160e-04,
        -4.94999869e-04, -4.95000160e-04,  4.95000219e-04,
        -4.94999869e-04,  4.94999753e-04, -4.95000160e-04,
         4.95000160e-04,  4.94999869e-04,  4.95000102e-04,
        -4.94999636e-04,  4.94999753e-04,  4.95000160e-04,
        -4.94999636e-04,  4.95000160e-04,  4.95000160e-04,
         4.95000160e-04,  4.95000160e-04, -4.95000568e-04,
         4.94999869e-04,  4.95000568e-04,  4.95000102e-04,
         4.94999753e-04,  4.95000160e-04, -4.95000160e-04,
        -4.95000160e-04,  4.95000219e-04, -4.94999753e-04,
        -4.95000160e-04, -4.95000160e-04, -4.95000102e-04,
         4.94999753e-04,  4.95000160e-04,  4.94999869e-04,
         4.95000160e-04,  4.95000160e-04, -4.95000451e-04,
         4.95000160e-04, -4.95000160e-04, -4.95000160e-04,
        -4.95000451e-04, -4.94999636e-04],
       [-4.95000451e-04,  4.95000160e-04,  4.95000160e-04,
        -4.95000219e-04, -4.95000160e-04,  4.95000160e-04,
        -4.95000160e-04,  4.95000160e-04,  4.94999636e-04,
         4.95000568e-04,  4.95000160e-04, -4.95000160e-04,
        -4.95000102e-04,  4.95000160e-04, -4.95000102e-04,
        -4.95000160e-04,  4.95000160e-04,  4.95000160e-04,
         4.95000160e-04, -4.95000219e-04, -4.94999636e-04,
         4.94999753e-04,  4.95000451e-04, -4.95000102e-04,
         4.95000451e-04, -4.95000102e-04,  4.95000568e-04,
         4.94999636e-04, -4.95000160e-04,  4.95000160e-04,
        -4.94999869e-04,  4.95000160e-04,  4.94999869e-04,
        -4.94999636e-04,  4.95000160e-04,  4.95000568e-04,
         4.94999636e-04, -4.94999636e-04, -4.95000160e-04,
         4.95000451e-04, -4.95000160e-04,  4.95000568e-04,
        -4.94999636e-04, -4.95000160e-04, -4.95000160e-04,
        -4.95000568e-04, -4.95000160e-04,  4.94999869e-04,
        -4.94999753e-04, -4.95000160e-04],
       [-4.94999636e-04,  4.95000160e-04, -4.94999869e-04,
        -4.95000160e-04,  4.94999636e-04, -4.94999869e-04,
        -4.95000160e-04,  4.95000160e-04,  4.94999869e-04,
         4.95000160e-04, -4.95000335e-04,  4.95000160e-04,
        -4.95000160e-04, -4.95000219e-04, -4.95000568e-04,
        -4.95000160e-04, -4.95000160e-04, -4.95000102e-04,
        -4.95000160e-04, -4.95000160e-04,  4.95000160e-04,
        -4.95000102e-04,  4.95000335e-04,  4.95000160e-04,
         4.95000160e-04, -4.95000219e-04,  4.94999869e-04,
         4.95000160e-04,  4.94999753e-04,  4.95000568e-04,
         4.95000160e-04, -4.95000451e-04, -4.95000160e-04,
         4.95000335e-04, -4.95000451e-04, -4.95000160e-04,
        -4.95000335e-04, -4.95000160e-04, -4.94999636e-04,
        -4.95000160e-04, -4.95000568e-04,  4.95000160e-04,
         4.95000160e-04, -4.95000160e-04, -4.95000160e-04,
         4.95000451e-04,  4.95000568e-04,  4.95000160e-04,
        -4.95000335e-04,  4.94999869e-04],
       [ 4.95000335e-04,  4.95000451e-04,  4.95000160e-04,
        -4.95000160e-04,  4.95000160e-04,  4.95000102e-04,
         4.95000451e-04,  4.95000160e-04, -4.95000160e-04,
         4.95000160e-04,  4.95000451e-04, -4.95000219e-04,
         4.94999636e-04, -4.95000102e-04, -4.95000219e-04,
         4.94999869e-04, -4.95000160e-04, -4.94999869e-04,
        -4.95000160e-04, -4.95000160e-04,  4.95000160e-04,
         4.95000160e-04,  4.95000102e-04, -4.95000335e-04,
        -4.95000160e-04, -4.95000160e-04, -4.95000160e-04,
        -4.95000160e-04, -4.94999636e-04,  4.95000160e-04,
        -4.95000160e-04,  4.94999869e-04,  4.95000160e-04,
        -4.95000335e-04, -4.95000160e-04,  4.94999636e-04,
         4.94999636e-04,  4.95000160e-04, -4.94999636e-04,
         4.95000160e-04,  4.94999869e-04,  4.94999869e-04,
        -4.94999636e-04, -4.94999636e-04, -4.95000451e-04,
         4.95000451e-04, -4.95000160e-04, -4.95000160e-04,
         4.94999636e-04,  4.95000160e-04],
       [ 4.94999636e-04,  4.94999753e-04,  4.95000160e-04,
        -4.95000568e-04, -4.95000160e-04,  4.95000102e-04,
         4.95000335e-04,  4.95000160e-04, -4.95000102e-04,
        -4.95000160e-04,  4.95000568e-04, -4.95000160e-04,
        -4.95000102e-04,  4.95000160e-04, -4.94999636e-04,
        -4.94999869e-04,  4.95000160e-04, -4.95000160e-04,
         4.95000160e-04, -4.95000451e-04,  4.94999753e-04,
         4.95000160e-04, -4.94999869e-04, -4.95000160e-04,
        -4.95000160e-04,  4.94999753e-04, -4.95000160e-04,
         4.95000160e-04, -4.95000160e-04,  4.95000160e-04,
        -4.95000335e-04,  4.94999636e-04, -4.95000160e-04,
         4.94999753e-04, -4.95000102e-04, -4.94999636e-04,
         4.94999753e-04,  4.95000160e-04,  4.95000160e-04,
         4.94999636e-04,  4.95000451e-04, -4.95000451e-04,
         4.95000451e-04, -4.95000160e-04,  4.95000160e-04,
         4.95000160e-04,  4.95000160e-04,  4.94999636e-04,
        -4.95000160e-04,  4.95000160e-04],
       [-4.95000160e-04, -4.95000160e-04, -4.94999753e-04,
         4.95000160e-04,  4.95000219e-04,  4.95000160e-04,
         4.95000160e-04,  4.95000160e-04,  4.95000160e-04,
         4.95000451e-04, -4.95000160e-04,  4.95000335e-04,
        -4.94999636e-04,  4.94999753e-04,  4.95000160e-04,
        -4.95000451e-04,  4.95000160e-04, -4.94999636e-04,
        -4.94999753e-04,  4.94999636e-04, -4.95000451e-04,
         4.95000451e-04, -4.94999869e-04, -4.95000160e-04,
        -4.94999753e-04,  4.94999636e-04,  4.95000160e-04,
        -4.94999753e-04, -4.95000102e-04,  4.95000160e-04,
        -4.95000160e-04, -4.95000160e-04,  4.95000160e-04,
        -4.95000160e-04, -4.95000160e-04,  4.95000451e-04,
         4.95000160e-04, -4.95000451e-04, -4.94999869e-04,
        -4.95000568e-04, -4.95000568e-04, -4.95000102e-04,
        -4.95000102e-04,  4.94999636e-04, -4.95000160e-04,
         4.94999753e-04, -4.95000102e-04,  4.95000451e-04,
        -4.95000160e-04, -4.95000160e-04],
       [ 4.95000160e-04, -4.95000160e-04, -4.95000160e-04,
         4.94999869e-04,  4.95000568e-04,  4.95000160e-04,
         4.95000160e-04,  4.94999636e-04, -4.95000568e-04,
         4.95000160e-04, -4.95000160e-04, -4.94999636e-04,
         4.95000160e-04,  4.95000160e-04,  4.94999636e-04,
        -4.95000568e-04,  4.95000335e-04,  4.94999636e-04,
        -4.94999636e-04, -4.95000102e-04, -4.95000160e-04,
         4.95000335e-04,  4.95000160e-04, -4.95000160e-04,
        -4.95000102e-04, -4.95000160e-04, -4.95000160e-04,
         4.95000160e-04, -4.95000160e-04,  4.94999753e-04,
         4.95000160e-04, -4.95000160e-04,  4.95000160e-04,
        -4.95000335e-04, -4.94999869e-04,  4.94999753e-04,
        -4.95000335e-04, -4.95000219e-04,  4.95000102e-04,
         4.94999636e-04, -4.95000160e-04,  4.95000160e-04,
         4.95000160e-04, -4.95000160e-04,  4.94999869e-04,
         4.95000102e-04, -4.94999869e-04, -4.95000451e-04,
         4.95000160e-04,  4.94999869e-04],
       [ 4.95000160e-04,  4.95000219e-04, -4.95000160e-04,
        -4.94999869e-04, -4.95000160e-04,  4.94999636e-04,
         4.95000102e-04, -4.95000160e-04, -4.94999869e-04,
        -4.94999753e-04, -4.94999636e-04, -4.94999869e-04,
         4.95000160e-04,  4.95000160e-04,  4.95000160e-04,
         4.94999636e-04, -4.95000160e-04,  4.95000160e-04,
        -4.95000335e-04,  4.95000160e-04, -4.95000160e-04,
         4.95000160e-04,  4.95000160e-04, -4.95000160e-04,
        -4.95000160e-04,  4.94999753e-04,  4.95000102e-04,
        -4.95000160e-04,  4.95000160e-04, -4.94999869e-04,
         4.95000160e-04, -4.95000160e-04, -4.95000160e-04,
        -4.95000160e-04,  4.95000160e-04,  4.95000160e-04,
         4.94999869e-04, -4.95000160e-04, -4.95000160e-04,
        -4.95000568e-04, -4.94999753e-04,  4.94999869e-04,
         4.95000160e-04,  4.95000160e-04, -4.95000160e-04,
        -4.95000335e-04, -4.95000219e-04, -4.94999869e-04,
        -4.95000160e-04, -4.95000160e-04],
       [-4.95000451e-04, -4.95000160e-04,  4.95000568e-04,
        -4.95000102e-04, -4.95000451e-04,  4.94999753e-04,
         4.95000160e-04, -4.95000451e-04, -4.95000160e-04,
         4.95000160e-04,  4.95000160e-04, -4.95000451e-04,
         4.95000160e-04, -4.95000160e-04,  4.94999869e-04,
         4.95000160e-04,  4.94999753e-04, -4.95000335e-04,
         4.95000160e-04,  4.95000568e-04, -4.95000160e-04,
         4.95000160e-04,  4.95000160e-04,  4.95000335e-04,
         4.95000160e-04,  4.94999869e-04,  4.95000160e-04,
         4.95000160e-04, -4.95000160e-04, -4.94999753e-04,
         4.95000160e-04, -4.95000102e-04,  4.95000160e-04,
        -4.95000160e-04, -4.95000160e-04, -4.94999869e-04,
         4.95000451e-04,  4.95000335e-04,  4.95000160e-04,
         4.94999869e-04, -4.95000160e-04, -4.94999869e-04,
         4.95000160e-04,  4.95000335e-04,  4.95000160e-04,
        -4.95000160e-04,  4.95000160e-04, -4.95000160e-04,
        -4.95000160e-04, -4.94999636e-04],
       [-4.94999753e-04,  4.95000102e-04, -4.95000160e-04,
         4.94999869e-04,  4.95000568e-04, -4.95000160e-04,
         4.94999636e-04, -4.95000160e-04, -4.95000160e-04,
        -4.95000102e-04,  4.95000160e-04,  4.95000102e-04,
         4.95000160e-04, -4.95000102e-04,  4.95000160e-04,
        -4.94999636e-04, -4.95000160e-04, -4.94999869e-04,
         4.95000219e-04, -4.95000160e-04, -4.95000335e-04,
         4.95000451e-04,  4.95000568e-04, -4.95000160e-04,
        -4.95000160e-04, -4.95000219e-04, -4.95000451e-04,
        -4.94999869e-04, -4.95000102e-04,  4.95000335e-04,
         4.95000160e-04,  4.95000219e-04,  4.95000568e-04,
         4.95000160e-04,  4.95000160e-04,  4.95000160e-04,
        -4.95000160e-04,  4.95000160e-04, -4.94999753e-04,
        -4.95000335e-04, -4.95000160e-04,  4.95000160e-04,
         4.95000160e-04, -4.95000160e-04, -4.94999636e-04,
        -4.95000160e-04,  4.94999636e-04, -4.95000160e-04,
         4.95000219e-04, -4.95000568e-04],
       [-4.95000160e-04, -4.95000160e-04,  4.95000335e-04,
        -4.95000568e-04, -4.94999636e-04,  4.95000160e-04,
         4.95000160e-04, -4.95000160e-04, -4.94999636e-04,
        -4.94999636e-04,  4.95000219e-04,  4.95000451e-04,
         4.95000160e-04, -4.95000102e-04,  4.95000160e-04,
        -4.95000160e-04, -4.94999869e-04, -4.95000335e-04,
        -4.94999636e-04, -4.94999753e-04, -4.95000160e-04,
         4.95000160e-04, -4.94999636e-04,  4.95000102e-04,
         4.95000160e-04, -4.95000160e-04,  4.95000451e-04,
         4.95000568e-04, -4.95000451e-04,  4.95000451e-04,
        -4.95000451e-04, -4.94999636e-04,  4.95000160e-04,
        -4.95000102e-04,  4.95000335e-04,  4.94999636e-04,
         4.95000335e-04,  4.95000160e-04, -4.95000160e-04,
         4.95000335e-04,  4.95000335e-04,  4.95000160e-04,
        -4.95000102e-04, -4.94999636e-04,  4.95000160e-04,
         4.94999636e-04, -4.95000451e-04,  4.94999753e-04,
        -4.94999636e-04, -4.95000160e-04],
       [ 4.59523064e-22, -5.93384657e-22,  1.29416153e-22,
        -5.19384202e-22, -5.25299372e-22,  5.57243064e-22,
        -7.14965262e-22,  6.86925132e-22, -4.27553018e-22,
        -2.09794364e-22,  5.72805611e-22, -4.25879232e-17,
        -4.17066898e-22, -5.81455010e-22,  6.99326379e-22,
         5.16666684e-22, -5.49621178e-22, -7.02083530e-22,
         1.95885926e-22, -5.02470217e-22,  1.87187757e-22,
        -6.95282261e-22,  7.63876910e-22,  1.61457061e-23,
        -4.95049229e-04, -7.39051647e-22, -6.92385817e-22,
         1.27307320e-22,  5.19735189e-22,  8.95754201e-04,
        -7.22256962e-22, -7.33885504e-22, -4.55089088e-04,
        -7.14005907e-22,  6.82957149e-22, -5.21604928e-22,
        -2.38770425e-22,  4.64266226e-22, -1.64836083e-22,
        -6.64949108e-22,  5.10680126e-22,  1.33349552e-22,
         6.41514613e-22,  2.58097592e-22, -1.08454213e-22,
        -3.12529374e-22,  1.04113212e-18, -2.19384793e-22,
        -4.86021318e-22,  3.32639470e-22],
       [-4.95000160e-04,  4.94999869e-04, -4.94999869e-04,
         4.95000160e-04,  4.95000219e-04, -4.95000102e-04,
         4.94999636e-04, -4.94999636e-04,  4.95000160e-04,
        -4.95000219e-04, -4.94999869e-04, -4.95000160e-04,
        -4.95000219e-04,  4.95000160e-04,  4.95000160e-04,
         4.95000160e-04, -4.95000451e-04,  4.94999869e-04,
        -4.95000568e-04,  4.94999636e-04,  4.95000160e-04,
        -4.95000160e-04, -4.95000160e-04,  4.95000160e-04,
         4.95000451e-04, -4.95000160e-04, -4.95000451e-04,
        -4.94999636e-04, -4.95000568e-04, -4.95000160e-04,
        -4.95000160e-04, -4.94999753e-04,  4.95000219e-04,
         4.95000160e-04, -4.95000160e-04,  4.95000451e-04,
        -4.95000568e-04, -4.94999636e-04, -4.95000160e-04,
        -4.95000335e-04,  4.95000102e-04,  4.95000160e-04,
         4.94999869e-04, -4.95000160e-04, -4.94999869e-04,
         4.95000451e-04, -4.95000160e-04, -4.95000160e-04,
        -4.95000160e-04,  4.95000160e-04],
       [-4.95000102e-04,  4.95000160e-04, -4.94999869e-04,
         4.95000160e-04,  4.95000160e-04, -4.95000160e-04,
        -4.95000160e-04,  4.95000102e-04, -4.95000102e-04,
         4.95000160e-04, -4.95000451e-04, -4.94999869e-04,
         4.95000102e-04,  4.95000160e-04, -4.95000568e-04,
        -4.95000160e-04,  4.95000160e-04,  4.95000160e-04,
         4.94999636e-04, -4.95000160e-04, -4.95000102e-04,
         4.95000160e-04, -4.95000451e-04,  4.95000451e-04,
         4.94999753e-04,  4.95000160e-04,  4.95000160e-04,
        -4.95000451e-04, -4.94999636e-04, -4.95000451e-04,
         4.95000335e-04, -4.95000160e-04, -4.95000160e-04,
        -4.95000102e-04, -4.95000160e-04,  4.94999636e-04,
         4.95000160e-04,  4.95000160e-04,  4.95000160e-04,
         4.95000160e-04, -4.95000160e-04,  4.95000160e-04,
        -4.95000335e-04,  4.95000102e-04, -4.95000160e-04,
         4.95000219e-04, -4.95000160e-04, -4.95000160e-04,
        -4.94999753e-04, -4.95000160e-04],
       [ 4.95000451e-04,  4.95000160e-04,  4.94999869e-04,
         4.95000160e-04,  4.94999753e-04,  4.95000160e-04,
        -4.95000451e-04, -4.95000160e-04, -4.95000568e-04,
        -4.95000160e-04, -4.94999636e-04,  4.94999636e-04,
         4.95000160e-04,  4.94999636e-04,  4.95000451e-04,
        -4.95000219e-04, -4.95000160e-04, -4.95000102e-04,
         4.95000160e-04, -4.94999753e-04,  4.95000160e-04,
        -4.95000160e-04,  4.95000160e-04, -4.95000335e-04,
        -4.95000451e-04,  4.94999636e-04, -4.95000451e-04,
        -4.95000451e-04,  4.95000160e-04, -4.95000160e-04,
         4.95000160e-04,  4.95000160e-04,  4.95000160e-04,
         4.95000160e-04,  4.95000335e-04,  4.95000568e-04,
         4.95000160e-04,  4.95000335e-04, -4.95000160e-04,
        -4.94999636e-04,  4.95000160e-04,  4.95000160e-04,
         4.95000160e-04,  4.95000160e-04,  4.94999636e-04,
         4.94999636e-04,  4.94999636e-04, -4.95000451e-04,
        -4.95000568e-04,  4.95000160e-04],
       [ 4.95000160e-04,  4.94999636e-04, -4.95000219e-04,
        -4.95000160e-04,  4.95000160e-04, -4.94999869e-04,
        -4.94999753e-04, -4.94999636e-04,  4.95000102e-04,
         4.94999636e-04,  4.95000160e-04, -4.94999636e-04,
        -4.95000160e-04, -4.95000451e-04, -4.95000160e-04,
        -4.94999636e-04,  4.95000160e-04, -4.95000335e-04,
        -4.95000451e-04,  4.94999636e-04, -4.95000160e-04,
         4.94999636e-04,  4.94999869e-04, -4.95000160e-04,
         4.94999869e-04,  4.95000160e-04,  4.94999636e-04,
         4.95000160e-04,  4.94999636e-04, -4.95000219e-04,
         4.95000160e-04,  4.95000160e-04, -4.95000160e-04,
         4.94999869e-04, -4.94999869e-04, -4.95000160e-04,
         4.95000102e-04,  4.95000160e-04,  4.95000160e-04,
        -4.95000451e-04, -4.95000335e-04,  4.95000160e-04,
        -4.94999636e-04, -4.95000102e-04, -4.95000160e-04,
         4.95000160e-04,  4.95000451e-04, -4.95000219e-04,
         4.95000160e-04,  4.95000451e-04],
       [ 4.94999753e-04,  4.95000160e-04, -4.95000160e-04,
        -4.95000160e-04, -4.95000160e-04,  4.95000160e-04,
         4.95000160e-04, -4.95000160e-04,  4.94999869e-04,
         4.95000102e-04, -4.94999636e-04, -4.95000160e-04,
        -4.95000160e-04, -4.94999636e-04, -4.95000451e-04,
        -4.95000160e-04,  4.94999636e-04,  4.95000160e-04,
         4.95000219e-04, -4.95000568e-04, -4.95000219e-04,
         4.95000160e-04,  4.95000102e-04,  4.95000102e-04,
         4.95000568e-04, -4.94999636e-04,  4.95000568e-04,
         4.95000451e-04,  4.95000568e-04,  4.95000160e-04,
         4.95000160e-04, -4.94999636e-04, -4.94999869e-04,
         4.95000160e-04, -4.95000102e-04, -4.95000160e-04,
        -4.95000219e-04, -4.94999636e-04,  4.95000160e-04,
         4.94999636e-04, -4.95000160e-04, -4.95000160e-04,
         4.95000451e-04, -4.94999869e-04, -4.95000451e-04,
        -4.95000160e-04, -4.95000160e-04,  4.95000160e-04,
         4.95000160e-04,  4.95000102e-04],
       [ 4.95000451e-04, -4.95000160e-04,  4.94999753e-04,
        -4.95000102e-04, -4.94999869e-04, -4.95000160e-04,
         4.94999869e-04,  4.95000160e-04, -4.95000160e-04,
        -4.95000160e-04, -4.95000219e-04,  4.95000160e-04,
         4.95000160e-04,  4.95000160e-04,  4.95000160e-04,
        -4.95000451e-04,  4.95000160e-04, -4.95000160e-04,
        -4.95000102e-04, -4.95000335e-04,  4.95000160e-04,
        -4.95000160e-04, -4.94999636e-04,  4.94999869e-04,
         4.94999869e-04,  4.95000451e-04,  4.95000160e-04,
        -4.95000160e-04,  4.95000160e-04, -4.95000102e-04,
         4.94999636e-04, -4.95000160e-04,  4.95000451e-04,
         4.95000160e-04,  4.95000160e-04,  4.95000160e-04,
         4.95000568e-04, -4.95000160e-04, -4.95000160e-04,
        -4.94999636e-04, -4.95000160e-04,  4.95000160e-04,
        -4.95000102e-04,  4.95000335e-04, -4.95000102e-04,
        -4.95000160e-04,  4.95000451e-04,  4.95000568e-04,
        -4.95000160e-04, -4.95000219e-04],
       [ 4.95000160e-04, -4.95000160e-04, -4.95000160e-04,
         4.95000568e-04, -4.95000160e-04,  4.95000160e-04,
        -4.94999636e-04, -4.95000160e-04, -4.95000102e-04,
         4.95000160e-04, -4.95000568e-04,  4.95000160e-04,
         4.94999753e-04,  4.94999636e-04, -4.95000160e-04,
        -4.95000160e-04,  4.94999636e-04, -4.95000160e-04,
        -4.94999636e-04,  4.95000160e-04,  4.94999753e-04,
         4.95000160e-04,  4.95000160e-04,  4.95000160e-04,
         4.95000160e-04,  4.95000102e-04,  4.94999636e-04,
         4.95000160e-04,  4.94999869e-04,  4.95000160e-04,
         4.95000160e-04, -4.95000160e-04,  4.95000451e-04,
         4.94999869e-04, -4.95000568e-04, -4.94999869e-04,
         4.95000160e-04,  4.95000160e-04, -4.95000160e-04,
         4.95000160e-04, -4.95000160e-04,  4.95000160e-04,
         4.94999636e-04, -4.94999636e-04,  4.95000451e-04,
        -4.95000160e-04, -4.95000568e-04,  4.95000160e-04,
        -4.95000160e-04, -4.95000160e-04],
       [-4.95000160e-04,  4.94999869e-04, -4.94999869e-04,
        -4.95000102e-04,  4.95000160e-04, -4.94999636e-04,
        -4.95000160e-04,  4.95000102e-04, -4.95000335e-04,
         4.95000102e-04,  4.95000160e-04,  4.95000160e-04,
         4.95000160e-04, -4.95000102e-04,  4.95000160e-04,
        -4.95000102e-04,  4.95000160e-04,  4.95000160e-04,
         4.95000160e-04, -4.94999753e-04,  4.95000160e-04,
        -4.95000568e-04, -4.95000160e-04,  4.95000160e-04,
         4.94999636e-04, -4.95000160e-04,  4.94999636e-04,
        -4.95000160e-04, -4.94999753e-04, -4.95000160e-04,
         4.94999636e-04, -4.95000102e-04,  4.95000568e-04,
         4.94999636e-04, -4.95000160e-04,  4.95000160e-04,
         4.94999753e-04, -4.94999636e-04,  4.95000160e-04,
        -4.95000160e-04,  4.95000451e-04,  4.95000219e-04,
        -4.95000102e-04, -4.94999636e-04, -4.95000160e-04,
         4.95000451e-04, -4.95000335e-04, -4.95000160e-04,
         4.95000160e-04, -4.94999636e-04],
       [-4.95000160e-04, -4.95000568e-04,  4.95000160e-04,
         4.95000335e-04, -4.95000160e-04,  4.95000160e-04,
        -4.95000160e-04, -4.94999869e-04, -4.95000160e-04,
         4.94999753e-04,  4.95000160e-04,  4.95000451e-04,
         4.95000451e-04,  4.95000160e-04,  4.95000160e-04,
        -4.95000160e-04, -4.95000160e-04,  4.94999636e-04,
        -4.94999869e-04, -4.95000160e-04,  4.95000160e-04,
        -4.95000160e-04,  4.95000160e-04,  4.94999753e-04,
        -4.95000160e-04,  4.94999636e-04, -4.94999753e-04,
        -4.94999636e-04, -4.95000160e-04, -4.95000160e-04,
         4.94999636e-04, -4.95000160e-04, -4.95000219e-04,
         4.95000160e-04,  4.95000160e-04, -4.95000160e-04,
         4.95000160e-04, -4.95000160e-04, -4.95000160e-04,
        -4.94999869e-04,  4.95000160e-04,  4.95000160e-04,
         4.95000160e-04,  4.95000451e-04,  4.95000160e-04,
        -4.94999636e-04, -4.95000160e-04, -4.95000160e-04,
        -4.95000160e-04, -4.95000160e-04],
       [-4.94999636e-04, -4.95000160e-04,  4.95000160e-04,
        -4.95000335e-04, -4.95000160e-04,  4.94999753e-04,
         4.95000568e-04,  4.95000160e-04, -4.95000160e-04,
         4.95000160e-04, -4.95000160e-04,  4.95000568e-04,
        -4.95000160e-04, -4.95000568e-04, -4.95000160e-04,
         4.95000568e-04, -4.95000160e-04,  4.95000160e-04,
         4.95000568e-04,  4.94999869e-04,  4.95000160e-04,
         4.94999869e-04,  4.95000335e-04,  4.94999636e-04,
         4.95000160e-04,  4.95000160e-04,  4.94999636e-04,
        -4.94999753e-04, -4.95000102e-04,  4.95000160e-04,
         4.94999869e-04, -4.95000160e-04,  4.94999636e-04,
        -4.95000160e-04, -4.95000160e-04,  4.95000160e-04,
        -4.95000160e-04,  4.94999636e-04, -4.94999636e-04,
        -4.95000160e-04,  4.95000160e-04, -4.95000219e-04,
        -4.95000160e-04,  4.94999869e-04, -4.94999753e-04,
         4.95000160e-04,  4.95000160e-04,  4.95000451e-04,
         4.95000160e-04,  4.94999636e-04],
       [ 4.95000219e-04, -4.95000160e-04, -4.95000451e-04,
        -4.95000160e-04,  4.94999869e-04,  4.95000160e-04,
        -4.95000160e-04, -4.95000160e-04, -4.95000160e-04,
        -4.95000102e-04,  4.95000335e-04,  4.95000160e-04,
        -4.95000219e-04, -4.95000451e-04,  4.95000160e-04,
        -4.94999636e-04,  4.94999636e-04,  4.94999636e-04,
        -4.94999636e-04,  4.95000160e-04, -4.94999636e-04,
         4.95000160e-04,  4.95000160e-04, -4.95000102e-04,
         4.95000160e-04, -4.94999869e-04,  4.95000160e-04,
         4.95000451e-04,  4.95000335e-04, -4.95000568e-04,
        -4.95000160e-04,  4.95000219e-04,  4.94999869e-04,
         4.94999636e-04,  4.94999869e-04, -4.95000160e-04,
        -4.94999869e-04,  4.95000160e-04, -4.95000160e-04,
         4.95000219e-04,  4.95000160e-04,  4.95000160e-04,
         4.94999869e-04, -4.95000160e-04, -4.94999869e-04,
        -4.95000160e-04, -4.94999869e-04,  4.95000568e-04,
        -4.95000160e-04, -4.95000160e-04],
       [ 4.95000102e-04, -4.95000102e-04, -4.94999636e-04,
         4.94999636e-04, -4.95000160e-04,  4.95000451e-04,
        -4.94999869e-04, -4.95000160e-04, -4.95000160e-04,
         4.95000102e-04,  4.95000160e-04,  4.95000160e-04,
        -4.94999636e-04, -4.95000160e-04,  4.95000160e-04,
        -4.95000219e-04, -4.94999636e-04, -4.95000160e-04,
        -4.95000160e-04,  4.94999753e-04, -4.95000568e-04,
        -4.95000160e-04, -4.95000160e-04,  4.95000160e-04,
        -4.95000160e-04, -4.95000102e-04, -4.95000335e-04,
        -4.95000160e-04, -4.95000160e-04, -4.95000160e-04,
        -4.94999753e-04,  4.95000568e-04, -4.94999636e-04,
         4.95000219e-04,  4.94999636e-04, -4.95000160e-04,
         4.94999753e-04,  4.95000160e-04,  4.94999636e-04,
        -4.95000160e-04, -4.94999636e-04, -4.94999753e-04,
        -4.94999753e-04,  4.94999636e-04, -4.95000160e-04,
        -4.95000160e-04,  4.95000335e-04, -4.94999636e-04,
         4.95000160e-04, -4.94999753e-04],
       [-4.95000160e-04, -4.95000160e-04, -4.95000160e-04,
         4.95000160e-04, -4.95000160e-04, -4.95000335e-04,
        -4.94999869e-04,  4.95000160e-04,  4.95000160e-04,
        -4.95000160e-04, -4.95000160e-04,  4.95000160e-04,
         4.95000160e-04,  4.95000160e-04,  4.95000160e-04,
        -4.95000451e-04, -4.94999636e-04,  4.95000102e-04,
        -4.94999753e-04,  4.94999869e-04,  4.94999753e-04,
        -4.95000160e-04,  4.95000451e-04,  4.95000160e-04,
         4.94999636e-04, -4.95000160e-04, -4.95000160e-04,
         4.94999753e-04, -4.95000219e-04, -4.95000160e-04,
        -4.95000160e-04, -4.95000160e-04, -4.94999636e-04,
        -4.95000160e-04, -4.95000160e-04, -4.94999636e-04,
         4.95000335e-04, -4.95000160e-04,  4.95000102e-04,
        -4.95000160e-04, -4.95000451e-04, -4.94999636e-04,
        -4.94999636e-04, -4.94999753e-04, -4.95000160e-04,
         4.95000219e-04,  4.94999636e-04,  4.95000451e-04,
         4.95000160e-04, -4.95000160e-04],
       [ 4.95000160e-04,  4.94999636e-04, -4.95000160e-04,
         4.94999636e-04,  4.94999869e-04, -4.95000160e-04,
        -4.95000160e-04, -4.95000160e-04, -4.95000160e-04,
         4.95000160e-04, -4.95000102e-04, -4.95000102e-04,
        -4.95000160e-04,  4.95000160e-04,  4.95000160e-04,
         4.95000102e-04, -4.95000160e-04, -4.95000160e-04,
        -4.94999869e-04,  4.94999753e-04, -4.95000160e-04,
        -4.95000102e-04, -4.95000219e-04, -4.95000568e-04,
         4.95000160e-04,  4.95000451e-04, -4.95000160e-04,
         4.94999869e-04,  4.95000102e-04, -4.95000160e-04,
        -4.95000160e-04, -4.95000160e-04,  4.95000160e-04,
         4.95000160e-04, -4.94999636e-04, -4.95000160e-04,
         4.95000160e-04,  4.94999636e-04,  4.95000451e-04,
        -4.94999636e-04,  4.94999869e-04, -4.95000160e-04,
         4.95000160e-04, -4.95000451e-04, -4.95000451e-04,
         4.95000451e-04,  4.95000160e-04, -4.95000160e-04,
        -4.95000102e-04, -4.95000160e-04],
       [-4.95000160e-04, -4.94999869e-04, -4.95000160e-04,
         4.95000160e-04, -4.95000160e-04,  4.95000451e-04,
         4.94999753e-04, -4.94999636e-04,  4.95000160e-04,
        -4.94999636e-04,  4.95000160e-04, -4.95000102e-04,
        -4.95000160e-04,  4.95000160e-04, -4.95000160e-04,
        -4.94999753e-04,  4.95000160e-04, -4.95000160e-04,
        -4.94999636e-04, -4.95000160e-04, -4.94999636e-04,
         4.95000160e-04,  4.94999636e-04, -4.95000160e-04,
         4.94999636e-04, -4.94999636e-04,  4.95000160e-04,
        -4.95000451e-04, -4.95000160e-04,  4.95000568e-04,
         4.95000451e-04,  4.95000160e-04,  4.95000160e-04,
        -4.95000160e-04,  4.94999636e-04, -4.94999869e-04,
         4.95000102e-04,  4.95000160e-04,  4.95000160e-04,
         4.95000160e-04, -4.95000160e-04, -4.95000451e-04,
         4.95000160e-04, -4.95000160e-04, -4.94999753e-04,
        -4.94999636e-04, -4.94999753e-04, -4.95000451e-04,
        -4.94999753e-04, -4.95000160e-04],
       [-4.95000160e-04, -4.95000160e-04,  4.95000102e-04,
         4.94999636e-04, -4.95000160e-04, -4.95000160e-04,
        -4.95000335e-04,  4.95000102e-04,  4.95000160e-04,
         4.95000160e-04,  4.95000160e-04, -4.94999869e-04,
        -4.94999636e-04,  4.95000568e-04, -4.94999636e-04,
        -4.95000160e-04,  4.95000160e-04,  4.95000219e-04,
         4.95000568e-04, -4.95000160e-04, -4.94999636e-04,
        -4.95000335e-04,  4.95000160e-04,  4.95000160e-04,
        -4.95000160e-04, -4.95000219e-04,  4.95000102e-04,
        -4.95000160e-04, -4.95000102e-04, -4.95000335e-04,
        -4.94999869e-04,  4.95000160e-04, -4.95000102e-04,
        -4.95000160e-04, -4.95000160e-04, -4.95000219e-04,
        -4.95000160e-04, -4.95000160e-04, -4.95000219e-04,
        -4.94999869e-04,  4.95000451e-04,  4.95000568e-04,
         4.95000160e-04, -4.95000102e-04, -4.95000160e-04,
         4.95000160e-04,  4.95000160e-04,  4.95000160e-04,
         4.95000160e-04,  4.95000160e-04],
       [ 4.94999869e-04,  4.95000568e-04,  4.95000102e-04,
         4.95000160e-04,  4.95000160e-04,  4.94999636e-04,
         4.95000451e-04,  4.95000160e-04, -4.95000160e-04,
         4.95000160e-04, -4.94999636e-04, -4.95000160e-04,
         4.95000160e-04, -4.95000160e-04,  4.94999869e-04,
         4.94999636e-04,  4.95000160e-04, -4.95000160e-04,
         4.95000160e-04,  4.95000160e-04, -4.94999869e-04,
        -4.95000160e-04, -4.94999636e-04,  4.95000160e-04,
        -4.95000102e-04, -4.95000335e-04, -4.95000451e-04,
        -4.95000451e-04, -4.95000160e-04, -4.95000102e-04,
        -4.95000160e-04,  4.94999636e-04, -4.95000102e-04,
         4.95000160e-04,  4.94999636e-04, -4.95000160e-04,
         4.95000160e-04,  4.95000160e-04, -4.94999869e-04,
         4.95000160e-04,  4.95000102e-04,  4.94999753e-04,
        -4.95000160e-04,  4.95000160e-04, -4.95000160e-04,
        -4.95000160e-04, -4.95000160e-04, -4.95000160e-04,
         4.94999636e-04, -4.95000568e-04],
       [-4.95000160e-04,  4.94999636e-04, -4.95000568e-04,
         4.94999636e-04,  4.95000160e-04, -4.95000160e-04,
        -4.94999753e-04, -4.95000160e-04,  4.95000451e-04,
         4.95000335e-04, -4.95000160e-04, -4.95000160e-04,
        -4.95000160e-04, -4.95000160e-04,  4.94999753e-04,
        -4.95000160e-04,  4.95000160e-04, -4.95000102e-04,
        -4.95000160e-04, -4.95000160e-04,  4.95000160e-04,
         4.95000160e-04,  4.95000219e-04, -4.95000451e-04,
         4.95000335e-04,  4.95000160e-04, -4.95000160e-04,
         4.95000160e-04,  4.95000160e-04, -4.95000160e-04,
         4.95000160e-04, -4.95000160e-04,  4.94999869e-04,
         4.95000102e-04, -4.95000160e-04, -4.95000160e-04,
        -4.95000160e-04, -4.95000102e-04,  4.95000160e-04,
        -4.95000160e-04, -4.94999753e-04,  4.94999636e-04,
        -4.95000160e-04, -4.95000335e-04,  4.94999636e-04,
         4.95000160e-04,  4.94999869e-04, -4.94999869e-04,
         4.95000160e-04, -4.95000335e-04],
       [ 4.95000160e-04,  4.95000335e-04,  4.95000160e-04,
         4.95000160e-04, -4.94999636e-04,  4.95000451e-04,
        -4.95000568e-04,  4.95000219e-04, -4.95000160e-04,
        -4.95000160e-04,  4.95000160e-04, -4.95000102e-04,
         4.95000568e-04, -4.95000335e-04, -4.95000160e-04,
         4.95000160e-04, -4.95000160e-04, -4.95000335e-04,
        -4.95000160e-04,  4.94999636e-04, -4.94999869e-04,
         4.95000160e-04, -4.95000160e-04,  4.94999636e-04,
         4.95000335e-04,  4.94999636e-04,  4.95000451e-04,
         4.95000160e-04, -4.95000160e-04,  4.95000102e-04,
        -4.95000160e-04,  4.95000451e-04,  4.94999869e-04,
         4.94999636e-04,  4.95000160e-04,  4.94999869e-04,
        -4.94999636e-04,  4.94999636e-04, -4.95000160e-04,
        -4.95000160e-04,  4.94999869e-04,  4.95000335e-04,
         4.95000568e-04,  4.95000451e-04, -4.95000160e-04,
        -4.94999636e-04,  4.95000568e-04,  4.94999636e-04,
        -4.95000160e-04,  4.95000160e-04],
       [-4.95000219e-04, -4.94999753e-04, -4.95000160e-04,
        -4.95000451e-04,  4.95000160e-04, -4.95000160e-04,
         4.95000160e-04,  4.95000160e-04,  4.95000160e-04,
        -4.95000160e-04, -4.94999636e-04, -4.94999636e-04,
        -4.95000160e-04, -4.95000160e-04,  4.95000160e-04,
         4.95000160e-04,  4.95000160e-04,  4.95000219e-04,
         4.95000160e-04,  4.95000160e-04,  4.94999753e-04,
        -4.95000160e-04, -4.95000160e-04, -4.95000160e-04,
         4.95000102e-04, -4.94999869e-04,  4.95000160e-04,
         4.94999869e-04, -4.95000160e-04,  4.95000160e-04,
        -4.95000568e-04, -4.95000160e-04, -4.94999636e-04,
        -4.94999636e-04,  4.95000160e-04, -4.94999636e-04,
         4.95000451e-04, -4.95000335e-04,  4.94999636e-04,
        -4.95000160e-04, -4.94999753e-04,  4.95000451e-04,
        -4.95000160e-04, -4.95000160e-04, -4.95000102e-04,
        -4.94999636e-04,  4.95000219e-04, -4.95000160e-04,
        -4.94999636e-04, -4.94999869e-04],
       [-4.95000160e-04,  4.95000102e-04,  4.95000160e-04,
         4.94999753e-04, -4.95000160e-04, -4.95000160e-04,
        -4.95000160e-04, -4.94999636e-04,  4.95000160e-04,
         4.95000335e-04, -4.94999636e-04, -4.94999636e-04,
        -4.95000451e-04, -4.95000160e-04, -4.94999636e-04,
        -4.94999636e-04,  4.95000335e-04,  4.95000160e-04,
         4.95000568e-04,  4.95000160e-04,  4.95000160e-04,
        -4.95000568e-04,  4.94999636e-04, -4.95000102e-04,
        -4.95000160e-04, -4.95000451e-04, -4.95000160e-04,
         4.95000160e-04,  4.95000160e-04,  4.95000160e-04,
         4.95000160e-04,  4.95000160e-04,  4.95000451e-04,
         4.95000160e-04,  4.95000160e-04,  4.95000160e-04,
         4.95000160e-04, -4.95000102e-04,  4.95000219e-04,
        -4.95000451e-04,  4.95000160e-04,  4.95000335e-04,
         4.95000160e-04,  4.95000160e-04, -4.95000160e-04,
        -4.95000160e-04,  4.95000160e-04, -4.95000160e-04,
        -4.95000102e-04, -4.95000160e-04],
       [-4.95000160e-04, -4.95000451e-04,  4.94999636e-04,
        -4.95000160e-04,  4.94999869e-04, -4.95000160e-04,
        -4.95000160e-04, -4.95000160e-04,  4.95000160e-04,
        -4.94999636e-04,  4.95000160e-04, -4.95000451e-04,
        -4.95000568e-04, -4.94999636e-04, -4.94999636e-04,
        -4.95000160e-04, -4.95000160e-04,  4.95000219e-04,
         4.95000160e-04, -4.95000160e-04,  4.95000160e-04,
         4.94999636e-04,  4.95000451e-04, -4.95000335e-04,
        -4.94999636e-04, -4.95000451e-04, -4.95000160e-04,
         4.95000335e-04, -4.95000160e-04, -4.95000160e-04,
        -4.94999636e-04,  4.95000160e-04,  4.94999636e-04,
        -4.95000160e-04,  4.95000451e-04, -4.95000451e-04,
         4.95000160e-04, -4.95000160e-04,  4.94999636e-04,
         4.95000160e-04, -4.95000160e-04, -4.95000335e-04,
        -4.95000568e-04,  4.95000160e-04,  4.95000102e-04,
        -4.95000160e-04, -4.95000160e-04, -4.95000160e-04,
         4.95000219e-04, -4.94999753e-04],
       [-4.94999636e-04, -4.95000160e-04, -4.94999636e-04,
         4.95000451e-04, -4.94999869e-04,  4.95000102e-04,
        -4.95000335e-04,  4.94999636e-04,  4.95000335e-04,
        -4.95000451e-04, -4.94999869e-04,  4.94999869e-04,
        -4.95000160e-04,  4.95000160e-04, -4.95000219e-04,
        -4.95000160e-04,  4.95000219e-04, -4.95000335e-04,
         4.95000160e-04, -4.95000160e-04,  4.95000160e-04,
        -4.95000160e-04, -4.95000160e-04,  4.95000219e-04,
         4.95000219e-04, -4.95000160e-04,  4.95000568e-04,
         4.95000160e-04,  4.94999636e-04,  4.95000160e-04,
        -4.95000219e-04, -4.94999636e-04,  4.95000160e-04,
         4.94999636e-04, -4.95000160e-04,  4.95000451e-04,
         4.95000219e-04,  4.95000160e-04,  4.95000160e-04,
        -4.95000102e-04, -4.95000160e-04,  4.95000160e-04,
         4.95000160e-04,  4.95000160e-04, -4.95000160e-04,
        -4.94999636e-04, -4.95000451e-04, -4.95000160e-04,
        -4.95000102e-04,  4.95000160e-04],
       [ 4.94999636e-04, -4.94999636e-04,  4.95000160e-04,
        -4.94999869e-04,  4.95000160e-04, -4.95000160e-04,
        -4.95000102e-04, -4.95000160e-04, -4.95000160e-04,
        -4.95000160e-04, -4.95000160e-04, -4.94999869e-04,
         4.94999869e-04,  4.94999869e-04,  4.94999636e-04,
        -4.95000160e-04,  4.95000160e-04, -4.94999869e-04,
         4.94999869e-04,  4.95000160e-04, -4.95000160e-04,
        -4.95000160e-04,  4.94999636e-04, -4.95000160e-04,
         4.95000160e-04,  4.95000160e-04, -4.94999869e-04,
        -4.95000160e-04, -4.95000451e-04, -4.95000160e-04,
        -4.95000451e-04, -4.94999636e-04,  4.95000160e-04,
        -4.94999636e-04,  4.94999636e-04, -4.95000160e-04,
        -4.95000160e-04,  4.95000219e-04, -4.95000160e-04,
         4.95000335e-04, -4.94999636e-04,  4.95000335e-04,
         4.95000160e-04, -4.95000219e-04, -4.95000451e-04,
        -4.94999636e-04,  4.94999636e-04,  4.95000102e-04,
        -4.95000102e-04,  4.95000160e-04],
       [ 6.00605197e-02, -3.14112343e-02,  1.12657398e-01,
         4.50651869e-02, -6.29979745e-03, -1.83681250e-02,
        -1.96021739e-02,  5.78432623e-03,  3.87379434e-04,
        -9.68180597e-03,  5.13478033e-02, -5.46114333e-02,
         3.11514065e-02, -1.42309731e-02, -5.71586192e-02,
         2.11828221e-02,  4.44384702e-02, -8.34552497e-02,
        -2.93322373e-03,  3.94430310e-02,  3.41280699e-02,
         4.61356007e-02, -2.99775042e-02, -5.12918923e-04,
        -7.08054602e-02, -8.74373596e-03,  6.15037531e-02,
        -4.35608113e-03, -1.02201171e-01,  3.37936007e-03,
         4.16815802e-02,  3.46518382e-02,  1.40228540e-01,
        -2.76743099e-02,  2.72783195e-03, -3.21818478e-02,
         6.48943358e-04, -3.47055681e-03,  2.97078546e-02,
        -5.17725796e-02,  1.47288498e-02,  6.81752199e-03,
        -2.92038750e-02, -4.05717455e-02, -2.76344884e-02,
        -1.36666158e-02,  6.48290478e-03,  3.32806408e-02,
         3.93780209e-02, -1.00943036e-02],
       [ 4.94999869e-04, -4.95000568e-04, -4.95000160e-04,
        -4.95000160e-04, -4.95000160e-04,  4.95000160e-04,
        -4.94999869e-04,  4.95000160e-04,  4.95000160e-04,
         4.94999636e-04, -4.95000568e-04,  4.95000160e-04,
         4.95000160e-04, -4.94999636e-04, -4.94999636e-04,
         4.95000160e-04,  4.95000451e-04,  4.94999636e-04,
         4.94999753e-04, -4.95000160e-04,  4.95000160e-04,
         4.95000451e-04,  4.94999636e-04, -4.95000160e-04,
         4.94999636e-04,  4.95000160e-04,  4.95000102e-04,
         4.95000160e-04,  4.95000160e-04, -4.94999636e-04,
         4.94999753e-04, -4.95000102e-04,  4.95000568e-04,
        -4.94999869e-04,  4.95000160e-04, -4.95000160e-04,
         4.95000219e-04, -4.95000335e-04,  4.94999636e-04,
         4.95000160e-04,  4.95000160e-04, -4.95000160e-04,
         4.94999636e-04, -4.94999869e-04, -4.95000160e-04,
        -4.94999636e-04, -4.94999869e-04, -4.95000160e-04,
         4.95000160e-04,  4.95000160e-04],
       [-4.95000160e-04, -4.94999636e-04, -4.95000219e-04,
         4.95000335e-04,  4.95000102e-04, -4.95000160e-04,
         4.95000451e-04,  4.95000102e-04, -4.95000219e-04,
        -4.94999753e-04,  4.95000160e-04,  4.94999636e-04,
        -4.95000160e-04, -4.95000160e-04, -4.95000160e-04,
        -4.95000160e-04, -4.95000451e-04,  4.95000160e-04,
        -4.95000160e-04, -4.95000568e-04, -4.95000160e-04,
        -4.95000160e-04, -4.95000451e-04, -4.95000160e-04,
         4.95000160e-04,  4.95000160e-04, -4.94999753e-04,
         4.94999636e-04, -4.95000160e-04,  4.95000160e-04,
         4.95000102e-04,  4.95000102e-04,  4.95000160e-04,
        -4.95000160e-04,  4.95000160e-04,  4.94999753e-04,
        -4.94999636e-04, -4.95000160e-04, -4.95000160e-04,
        -4.95000451e-04,  4.94999636e-04, -4.95000102e-04,
         4.94999753e-04,  4.95000451e-04,  4.95000160e-04,
        -4.95000160e-04,  4.95000335e-04,  4.95000102e-04,
        -4.95000160e-04, -4.95000219e-04],
       [-4.95000102e-04,  4.95000160e-04,  4.95000335e-04,
         4.95000160e-04, -4.95000160e-04, -4.94999869e-04,
         4.95000160e-04,  4.95000160e-04,  4.95000160e-04,
        -4.95000160e-04,  4.95000102e-04,  4.95000160e-04,
        -4.95000160e-04,  4.95000160e-04,  4.95000160e-04,
         4.95000160e-04,  4.94999753e-04,  4.95000160e-04,
         4.95000160e-04, -4.95000160e-04, -4.94999869e-04,
        -4.95000160e-04,  4.95000102e-04,  4.95000160e-04,
         4.94999636e-04, -4.95000160e-04, -4.94999753e-04,
         4.95000160e-04, -4.95000160e-04, -4.95000335e-04,
        -4.94999636e-04, -4.94999869e-04,  4.94999636e-04,
         4.95000219e-04,  4.95000102e-04, -4.95000160e-04,
         4.94999636e-04,  4.95000335e-04,  4.95000335e-04,
        -4.95000160e-04, -4.94999636e-04, -4.95000160e-04,
         4.95000335e-04, -4.95000102e-04, -4.95000160e-04,
         4.95000160e-04,  4.95000160e-04,  4.95000102e-04,
         4.95000160e-04, -4.95000102e-04],
       [-4.95000160e-04, -4.94999869e-04,  4.95000451e-04,
        -4.95000160e-04,  4.95000160e-04, -4.95000102e-04,
         4.95000160e-04,  4.94999869e-04, -4.95000451e-04,
         4.94999753e-04,  4.94999753e-04,  4.95000160e-04,
        -4.95000160e-04,  4.95000568e-04, -4.95000160e-04,
        -4.95000160e-04,  4.94999636e-04, -4.94999753e-04,
        -4.95000160e-04,  4.95000160e-04, -4.95000160e-04,
        -4.95000160e-04,  4.94999636e-04,  4.95000160e-04,
        -4.94999636e-04,  4.95000160e-04,  4.94999753e-04,
         4.95000160e-04,  4.95000160e-04, -4.95000160e-04,
        -4.95000219e-04,  4.95000568e-04, -4.95000335e-04,
         4.95000160e-04,  4.94999753e-04,  4.94999636e-04,
        -4.95000451e-04, -4.95000568e-04,  4.95000160e-04,
         4.95000568e-04,  4.95000102e-04, -4.95000160e-04,
        -4.95000160e-04,  4.95000160e-04, -4.95000568e-04,
         4.94999636e-04,  4.95000160e-04,  4.94999636e-04,
        -4.95000160e-04, -4.95000451e-04],
       [ 4.95000160e-04,  4.95000219e-04, -4.94999636e-04,
        -4.95000160e-04, -4.95000160e-04,  4.95000160e-04,
         4.94999636e-04,  4.95000451e-04,  4.95000568e-04,
        -4.94999869e-04, -4.94999869e-04,  4.94999869e-04,
        -4.95000160e-04,  4.94999636e-04, -4.94999869e-04,
        -4.95000160e-04,  4.94999869e-04,  4.95000160e-04,
         4.94999636e-04, -4.95000160e-04, -4.95000451e-04,
         4.95000160e-04,  4.95000335e-04, -4.95000335e-04,
         4.94999753e-04,  4.95000160e-04,  4.95000160e-04,
         4.95000451e-04, -4.95000160e-04, -4.95000335e-04,
        -4.94999636e-04,  4.95000160e-04, -4.95000160e-04,
         4.95000160e-04, -4.95000451e-04,  4.95000160e-04,
        -4.95000102e-04, -4.94999636e-04,  4.94999636e-04,
         4.95000335e-04, -4.95000219e-04,  4.94999636e-04,
        -4.95000160e-04,  4.95000160e-04, -4.95000335e-04,
        -4.95000160e-04,  4.95000160e-04,  4.95000160e-04,
        -4.95000160e-04, -4.95000160e-04],
       [-4.95000160e-04,  4.94999636e-04, -4.94999636e-04,
        -4.95000451e-04, -4.94999636e-04, -4.95000160e-04,
         4.95000160e-04,  4.95000160e-04, -4.95000335e-04,
        -4.95000160e-04, -4.95000160e-04,  4.94999636e-04,
        -4.94999753e-04, -4.95000160e-04,  4.95000160e-04,
         4.95000160e-04,  4.94999636e-04,  4.95000160e-04,
         4.95000160e-04,  4.95000451e-04, -4.95000568e-04,
         4.95000160e-04, -4.95000160e-04, -4.95000160e-04,
         4.95000160e-04, -4.94999636e-04,  4.95000102e-04,
         4.95000160e-04, -4.95000160e-04, -4.95000160e-04,
         4.95000160e-04, -4.95000451e-04,  4.95000160e-04,
         4.94999869e-04, -4.95000335e-04, -4.95000160e-04,
        -4.95000160e-04, -4.95000160e-04,  4.95000160e-04,
        -4.95000160e-04, -4.94999753e-04, -4.95000160e-04,
        -4.95000160e-04,  4.95000160e-04,  4.95000335e-04,
         4.95000160e-04, -4.94999869e-04, -4.94999636e-04,
         4.95000160e-04, -4.94999636e-04],
       [ 1.09537002e-02, -1.07097225e-02,  7.38355145e-02,
         2.01745443e-02, -1.46006029e-02, -3.33929732e-02,
        -2.33391020e-03,  5.63747669e-03, -1.34979896e-02,
        -8.33082423e-02,  7.11601833e-03, -4.43701521e-02,
         3.20787653e-02,  1.61052570e-02, -3.28254998e-02,
         4.07533683e-02,  6.68702126e-02, -6.01920672e-02,
         3.25157195e-02,  3.48883793e-02, -3.01506044e-03,
         7.42575526e-02,  2.15969235e-02, -2.84041297e-02,
         6.81930780e-02, -3.36091667e-02,  3.50536853e-02,
         5.06846495e-02, -7.08091334e-02,  6.33904617e-03,
         1.14066921e-01, -2.30556577e-02, -5.97505532e-02,
         6.29571229e-02, -2.01335307e-02,  1.88694410e-02,
         4.60519493e-02,  5.06663397e-02, -1.25854062e-02,
         1.30406981e-02,  1.70846656e-02,  4.66442108e-02,
        -5.38572147e-02, -6.57242239e-02,  4.52081598e-02,
        -3.47836949e-02,  1.08878519e-02,  2.72054709e-02,
        -8.90243426e-03,  3.57394591e-02],
       [-4.95000160e-04,  4.95000160e-04, -4.95000160e-04,
         4.95000160e-04, -4.95000160e-04,  4.94999869e-04,
        -4.94999636e-04, -4.95000160e-04,  4.95000160e-04,
         4.94999869e-04, -4.95000160e-04, -4.95000160e-04,
         4.94999636e-04, -4.95000568e-04, -4.94999753e-04,
         4.95000160e-04,  4.94999869e-04,  4.95000102e-04,
        -4.95000160e-04,  4.95000451e-04, -4.95000160e-04,
        -4.95000451e-04, -4.95000568e-04,  4.95000160e-04,
        -4.95000102e-04, -4.95000160e-04,  4.95000160e-04,
        -4.95000160e-04, -4.95000160e-04, -4.95000160e-04,
         4.95000160e-04, -4.95000102e-04, -4.95000160e-04,
        -4.95000451e-04, -4.95000102e-04,  4.94999753e-04,
        -4.95000102e-04,  4.95000219e-04, -4.94999636e-04,
         4.95000160e-04,  4.94999869e-04,  4.94999753e-04,
        -4.95000160e-04,  4.95000219e-04,  4.94999753e-04,
        -4.95000102e-04, -4.95000160e-04,  4.95000568e-04,
        -4.94999753e-04, -4.95000160e-04],
       [ 4.95000160e-04,  4.95000160e-04,  4.95000160e-04,
        -4.94999636e-04, -4.95000160e-04, -4.94999869e-04,
        -4.95000335e-04,  4.94999636e-04,  4.94999869e-04,
        -4.95000451e-04, -4.95000451e-04,  4.94999636e-04,
        -4.95000160e-04,  4.95000160e-04,  4.95000160e-04,
         4.95000102e-04, -4.95000160e-04,  4.95000568e-04,
        -4.94999869e-04,  4.95000160e-04, -4.95000335e-04,
        -4.95000160e-04, -4.95000568e-04,  4.94999753e-04,
         4.95000160e-04, -4.95000568e-04,  4.94999636e-04,
         4.95000160e-04, -4.95000160e-04,  4.95000568e-04,
         4.95000160e-04, -4.95000160e-04,  4.95000160e-04,
         4.94999636e-04, -4.95000160e-04,  4.95000160e-04,
        -4.95000102e-04,  4.95000160e-04,  4.94999753e-04,
        -4.94999869e-04, -4.95000102e-04, -4.94999869e-04,
        -4.95000160e-04,  4.95000160e-04, -4.94999636e-04,
         4.95000219e-04,  4.95000160e-04, -4.95000160e-04,
         4.95000160e-04,  4.95000102e-04],
       [-4.95000160e-04, -4.95000335e-04, -4.95000160e-04,
         4.94999636e-04,  4.94999869e-04, -4.95000160e-04,
         4.95000160e-04, -4.94999636e-04, -4.95000160e-04,
        -4.95000219e-04,  4.95000160e-04,  4.95000568e-04,
        -4.94999753e-04,  4.95000160e-04,  4.95000568e-04,
        -4.95000160e-04, -4.95000160e-04, -4.95000568e-04,
        -4.95000102e-04, -4.95000219e-04, -4.94999869e-04,
        -4.95000160e-04, -4.95000160e-04,  4.94999636e-04,
         4.94999636e-04,  4.95000160e-04, -4.95000160e-04,
        -4.95000160e-04, -4.94999869e-04, -4.95000160e-04,
         4.95000160e-04,  4.95000451e-04, -4.95000160e-04,
         4.95000160e-04,  4.95000219e-04,  4.95000102e-04,
        -4.95000102e-04,  4.95000160e-04,  4.95000160e-04,
         4.94999753e-04,  4.95000160e-04,  4.95000568e-04,
         4.95000451e-04,  4.95000160e-04,  4.94999869e-04,
        -4.95000160e-04,  4.95000160e-04,  4.95000160e-04,
         4.95000160e-04, -4.94999636e-04],
       [-4.94999636e-04,  4.95000160e-04, -4.95000160e-04,
        -4.95000451e-04,  4.95000160e-04, -4.95000160e-04,
        -4.95000160e-04,  4.95000160e-04, -4.94999753e-04,
         4.94999869e-04, -4.94999636e-04,  4.95000160e-04,
        -4.94999636e-04,  4.95000160e-04,  4.95000451e-04,
         4.95000102e-04, -4.95000219e-04,  4.95000160e-04,
        -4.94999753e-04,  4.95000335e-04, -4.95000335e-04,
         4.95000160e-04,  4.94999753e-04, -4.95000160e-04,
         4.95000160e-04,  4.95000335e-04,  4.95000160e-04,
        -4.95000335e-04, -4.95000160e-04,  4.94999636e-04,
         4.95000335e-04,  4.95000160e-04, -4.95000102e-04,
         4.95000160e-04,  4.95000160e-04, -4.95000160e-04,
        -4.95000102e-04, -4.95000160e-04,  4.95000102e-04,
         4.95000219e-04,  4.94999869e-04,  4.94999636e-04,
         4.95000160e-04,  4.95000335e-04,  4.95000102e-04,
         4.95000568e-04, -4.94999869e-04,  4.95000160e-04,
         4.94999636e-04,  4.95000451e-04],
       [-4.94999753e-04,  4.95000160e-04,  4.94999636e-04,
        -4.95000160e-04,  4.95000451e-04, -4.95000160e-04,
        -4.95000568e-04,  4.95000160e-04, -4.95000160e-04,
        -4.94999869e-04, -4.95000568e-04, -4.95000160e-04,
         4.95000160e-04,  4.94999636e-04, -4.95000160e-04,
         4.95000160e-04, -4.95000160e-04,  4.95000160e-04,
        -4.95000160e-04,  4.94999869e-04, -4.95000160e-04,
        -4.95000335e-04,  4.94999753e-04, -4.95000219e-04,
         4.94999869e-04,  4.95000160e-04,  4.94999869e-04,
        -4.95000568e-04, -4.95000160e-04, -4.94999636e-04,
         4.95000160e-04, -4.95000102e-04,  4.95000160e-04,
         4.94999869e-04, -4.95000160e-04,  4.95000451e-04,
        -4.95000451e-04,  4.95000160e-04, -4.94999636e-04,
         4.95000160e-04, -4.95000160e-04, -4.94999636e-04,
        -4.95000160e-04,  4.95000451e-04,  4.95000160e-04,
         4.95000160e-04, -4.95000451e-04,  4.95000160e-04,
         4.95000160e-04,  4.94999636e-04],
       [ 4.95000102e-04, -4.95000160e-04, -4.95000160e-04,
        -4.95000160e-04, -4.95000219e-04, -4.95000451e-04,
        -4.95000102e-04,  4.94999753e-04,  4.95000335e-04,
         4.95000160e-04, -4.95000160e-04, -4.94999753e-04,
        -4.95000160e-04,  4.95000160e-04, -4.95000160e-04,
         4.94999869e-04,  4.95000160e-04,  4.95000160e-04,
        -4.94999636e-04, -4.95000160e-04,  4.95000160e-04,
         4.94999636e-04, -4.95000102e-04,  4.94999636e-04,
        -4.95000160e-04, -4.95000160e-04, -4.95000102e-04,
        -4.95000160e-04, -4.95000160e-04, -4.95000160e-04,
        -4.95000160e-04, -4.95000451e-04, -4.95000160e-04,
         4.94999636e-04, -4.95000160e-04,  4.95000568e-04,
         4.95000160e-04,  4.94999753e-04,  4.94999869e-04,
         4.95000451e-04,  4.95000160e-04, -4.95000160e-04,
         4.94999636e-04,  4.94999636e-04, -4.95000451e-04,
         4.94999869e-04, -4.95000160e-04,  4.94999636e-04,
         4.95000160e-04, -4.95000160e-04],
       [-4.94999753e-04, -4.94999869e-04,  4.94999753e-04,
         4.95000568e-04, -4.94999869e-04,  4.95000160e-04,
         4.94999869e-04,  4.95000451e-04, -4.95000160e-04,
         4.94999636e-04, -4.95000160e-04,  4.95000160e-04,
        -4.94999753e-04, -4.95000160e-04,  4.95000160e-04,
         4.95000160e-04, -4.95000160e-04, -4.95000568e-04,
        -4.95000160e-04,  4.95000451e-04, -4.94999636e-04,
         4.95000160e-04, -4.95000160e-04,  4.95000160e-04,
        -4.94999636e-04, -4.95000160e-04, -4.95000102e-04,
        -4.95000160e-04, -4.95000335e-04, -4.95000160e-04,
         4.95000160e-04,  4.95000451e-04, -4.95000160e-04,
        -4.95000160e-04,  4.95000451e-04, -4.95000160e-04,
        -4.95000219e-04, -4.95000451e-04, -4.94999636e-04,
         4.95000568e-04, -4.95000160e-04,  4.95000160e-04,
         4.95000102e-04, -4.94999636e-04, -4.95000219e-04,
         4.95000160e-04, -4.94999636e-04,  4.95000160e-04,
         4.94999753e-04,  4.95000160e-04],
       [-4.95000160e-04, -4.95000219e-04, -4.95000335e-04,
         4.95000160e-04, -4.95000160e-04, -4.94999869e-04,
        -4.95000451e-04,  4.94999753e-04, -4.94999869e-04,
        -4.95000102e-04, -4.95000160e-04,  4.95000568e-04,
        -4.95000160e-04, -4.94999869e-04, -4.94999869e-04,
        -4.95000451e-04, -4.95000102e-04, -4.95000160e-04,
         4.95000160e-04,  4.95000160e-04, -4.95000160e-04,
        -4.95000102e-04,  4.95000451e-04, -4.95000160e-04,
         4.95000160e-04, -4.95000102e-04,  4.95000219e-04,
        -4.95000160e-04,  4.95000160e-04,  4.95000160e-04,
        -4.94999636e-04,  4.95000219e-04, -4.95000160e-04,
         4.95000160e-04,  4.95000160e-04, -4.95000160e-04,
        -4.94999869e-04,  4.95000160e-04, -4.95000160e-04,
         4.95000160e-04,  4.95000335e-04,  4.95000102e-04,
        -4.94999869e-04,  4.95000568e-04, -4.95000160e-04,
        -4.95000160e-04, -4.95000160e-04,  4.95000160e-04,
        -4.95000160e-04,  4.95000160e-04],
       [ 4.94999636e-04, -4.95000160e-04,  4.95000102e-04,
         4.95000160e-04, -4.95000160e-04, -4.95000451e-04,
        -4.95000160e-04, -4.95000160e-04,  4.95000160e-04,
         4.94999869e-04, -4.95000160e-04,  4.95000102e-04,
         4.94999869e-04, -4.95000160e-04, -4.95000219e-04,
         4.94999753e-04,  4.95000451e-04, -4.95000160e-04,
        -4.95000335e-04,  4.95000160e-04,  4.95000160e-04,
         4.95000160e-04, -4.95000160e-04, -4.95000160e-04,
        -4.95000160e-04, -4.95000335e-04,  4.95000160e-04,
         4.95000102e-04,  4.94999869e-04, -4.95000160e-04,
        -4.95000219e-04,  4.95000160e-04,  4.95000160e-04,
        -4.95000160e-04, -4.94999869e-04,  4.95000219e-04,
        -4.94999753e-04, -4.95000160e-04,  4.95000160e-04,
        -4.95000568e-04, -4.94999753e-04, -4.95000160e-04,
        -4.95000102e-04,  4.95000160e-04, -4.95000102e-04,
         4.95000160e-04, -4.95000160e-04, -4.94999636e-04,
         4.95000219e-04,  4.95000219e-04],
       [-4.95000160e-04,  4.94999636e-04, -4.95000102e-04,
         4.94999636e-04, -4.94999636e-04, -4.94999753e-04,
         4.95000568e-04, -4.95000160e-04, -4.95000160e-04,
         4.95000160e-04,  4.95000160e-04,  4.94999636e-04,
        -4.95000160e-04, -4.95000160e-04, -4.95000160e-04,
         4.95000102e-04,  4.95000102e-04,  4.95000160e-04,
         4.95000219e-04, -4.95000335e-04,  4.94999869e-04,
        -4.94999753e-04, -4.95000160e-04,  4.95000160e-04,
         4.94999753e-04,  4.94999869e-04, -4.94999636e-04,
         4.95000160e-04, -4.95000160e-04,  4.95000160e-04,
        -4.94999636e-04, -4.95000160e-04,  4.95000160e-04,
         4.95000102e-04,  4.94999636e-04,  4.95000451e-04,
        -4.95000335e-04, -4.95000451e-04, -4.95000160e-04,
         4.94999869e-04, -4.95000160e-04, -4.94999753e-04,
        -4.95000568e-04,  4.95000451e-04,  4.94999869e-04,
         4.95000160e-04,  4.95000160e-04, -4.94999636e-04,
        -4.95000160e-04, -4.95000568e-04],
       [-4.94999753e-04,  4.95000160e-04, -4.95000160e-04,
         4.95000160e-04, -4.95000160e-04, -4.95000160e-04,
         4.95000160e-04, -4.95000160e-04,  4.94999636e-04,
        -4.95000568e-04,  4.94999636e-04,  4.95000160e-04,
        -4.95000160e-04,  4.95000160e-04,  4.95000160e-04,
        -4.95000160e-04, -4.95000160e-04, -4.95000160e-04,
         4.95000451e-04, -4.95000160e-04,  4.94999753e-04,
        -4.95000102e-04, -4.95000568e-04, -4.94999869e-04,
         4.95000335e-04, -4.95000160e-04,  4.95000160e-04,
        -4.95000102e-04,  4.95000160e-04, -4.95000160e-04,
        -4.95000568e-04,  4.95000160e-04,  4.95000568e-04,
         4.94999636e-04, -4.95000335e-04, -4.95000160e-04,
         4.95000160e-04,  4.95000160e-04, -4.95000160e-04,
        -4.95000160e-04,  4.95000568e-04, -4.95000335e-04,
        -4.94999636e-04,  4.95000160e-04,  4.95000335e-04,
        -4.95000160e-04,  4.95000160e-04, -4.94999753e-04,
        -4.95000451e-04,  4.95000160e-04],
       [-4.95000160e-04,  4.95000160e-04, -4.95000219e-04,
        -4.95000568e-04, -4.94999753e-04,  4.94999869e-04,
        -4.95000160e-04,  4.95000335e-04, -4.95000160e-04,
         4.95000160e-04, -4.95000160e-04, -4.95000160e-04,
        -4.95000160e-04, -4.95000160e-04, -4.95000568e-04,
         4.95000160e-04,  4.95000160e-04,  4.94999636e-04,
         4.95000160e-04,  4.94999636e-04, -4.94999869e-04,
        -4.95000160e-04,  4.95000160e-04, -4.95000160e-04,
         4.95000160e-04, -4.95000160e-04,  4.94999636e-04,
        -4.95000335e-04, -4.95000160e-04,  4.95000160e-04,
         4.95000160e-04,  4.95000160e-04, -4.95000160e-04,
        -4.94999636e-04, -4.95000451e-04, -4.94999753e-04,
         4.95000160e-04,  4.94999869e-04,  4.95000160e-04,
         4.95000160e-04,  4.95000160e-04, -4.94999636e-04,
         4.95000102e-04,  4.95000160e-04, -4.95000451e-04,
         4.95000160e-04,  4.95000160e-04,  4.95000160e-04,
        -4.95000102e-04,  4.94999869e-04],
       [-4.94999753e-04,  4.95000451e-04,  4.95000160e-04,
        -4.95000160e-04, -4.95000335e-04,  4.95000451e-04,
         4.94999869e-04, -4.95000219e-04,  4.95000160e-04,
         4.95000160e-04,  4.95000102e-04,  4.94999636e-04,
        -4.95000160e-04,  4.95000160e-04,  4.94999753e-04,
         4.94999636e-04,  4.95000160e-04,  4.94999636e-04,
        -4.95000160e-04,  4.94999636e-04,  4.95000451e-04,
         4.95000335e-04, -4.95000160e-04, -4.95000160e-04,
        -4.94999753e-04, -4.95000160e-04,  4.95000160e-04,
         4.95000160e-04,  4.95000160e-04,  4.95000160e-04,
         4.95000451e-04, -4.95000102e-04,  4.95000160e-04,
         4.94999636e-04,  4.95000451e-04, -4.95000160e-04,
         4.95000568e-04, -4.95000160e-04,  4.94999753e-04,
         4.95000568e-04, -4.95000160e-04,  4.95000160e-04,
         4.95000219e-04,  4.94999636e-04, -4.95000160e-04,
         4.94999869e-04,  4.95000160e-04,  4.95000451e-04,
         4.95000102e-04,  4.95000160e-04],
       [-4.95000160e-04, -4.95000160e-04, -4.94999869e-04,
        -4.94999869e-04, -4.94999869e-04,  4.94999636e-04,
        -4.94999869e-04, -4.95000160e-04, -4.95000568e-04,
        -4.94999636e-04, -4.95000160e-04, -4.95000160e-04,
         4.95000160e-04, -4.95000219e-04, -4.95000160e-04,
         4.95000160e-04,  4.95000160e-04,  4.95000102e-04,
         4.95000160e-04, -4.94999636e-04,  4.94999636e-04,
         4.95000160e-04,  4.95000160e-04, -4.95000160e-04,
         4.95000160e-04, -4.95000219e-04, -4.95000160e-04,
         4.95000160e-04, -4.95000451e-04, -4.95000160e-04,
         4.95000160e-04,  4.95000160e-04, -4.95000568e-04,
         4.95000335e-04, -4.95000160e-04, -4.94999753e-04,
         4.95000160e-04,  4.95000160e-04,  4.94999753e-04,
        -4.95000160e-04,  4.95000160e-04, -4.94999869e-04,
        -4.94999869e-04,  4.95000451e-04, -4.95000160e-04,
        -4.95000160e-04,  4.95000102e-04, -4.95000160e-04,
         4.95000451e-04,  4.94999869e-04],
       [-4.95000160e-04, -4.95000568e-04, -4.95000160e-04,
         4.94999636e-04, -4.95000335e-04,  4.95000160e-04,
         4.94999636e-04,  4.95000568e-04,  4.95000160e-04,
         4.94999636e-04,  4.95000160e-04, -4.94999753e-04,
        -4.94999636e-04, -4.95000219e-04,  4.95000160e-04,
        -4.94999869e-04, -4.94999636e-04, -4.95000160e-04,
         4.94999869e-04,  4.95000160e-04,  4.95000160e-04,
        -4.95000160e-04, -4.95000568e-04, -4.95000102e-04,
        -4.95000160e-04,  4.94999753e-04, -4.95000160e-04,
         4.95000160e-04,  4.95000102e-04,  4.95000160e-04,
        -4.95000102e-04, -4.94999753e-04,  4.95000568e-04,
         4.95000568e-04,  4.95000102e-04,  4.94999636e-04,
        -4.95000160e-04, -4.95000160e-04,  4.94999636e-04,
        -4.95000160e-04,  4.95000568e-04,  4.95000160e-04,
         4.95000335e-04, -4.95000102e-04, -4.95000160e-04,
        -4.94999869e-04,  4.95000568e-04, -4.95000160e-04,
         4.95000160e-04,  4.95000160e-04],
       [-4.94999636e-04, -4.95000160e-04,  4.94999753e-04,
        -4.95000451e-04,  4.95000102e-04, -4.95000160e-04,
         4.94999869e-04,  4.95000160e-04,  4.95000160e-04,
        -4.95000160e-04, -4.95000160e-04, -4.94999636e-04,
         4.94999636e-04, -4.94999869e-04, -4.95000160e-04,
         4.95000160e-04, -4.94999636e-04, -4.95000160e-04,
         4.95000160e-04,  4.94999869e-04,  4.95000335e-04,
        -4.95000451e-04, -4.95000160e-04, -4.95000160e-04,
        -4.95000160e-04, -4.95000335e-04,  4.95000335e-04,
         4.95000335e-04, -4.94999869e-04,  4.94999753e-04,
         4.95000335e-04,  4.95000160e-04, -4.94999636e-04,
        -4.94999636e-04, -4.95000451e-04,  4.95000102e-04,
         4.95000451e-04,  4.95000160e-04, -4.95000160e-04,
         4.95000160e-04, -4.95000160e-04,  4.95000160e-04,
         4.95000160e-04,  4.95000102e-04,  4.94999636e-04,
         4.94999753e-04, -4.95000160e-04, -4.94999869e-04,
        -4.95000568e-04, -4.95000451e-04],
       [ 4.95000160e-04, -4.95000102e-04, -4.95000160e-04,
        -4.94999636e-04, -4.94999753e-04, -4.95000160e-04,
        -4.95000160e-04,  4.95000102e-04,  4.95000160e-04,
         4.94999753e-04,  4.95000102e-04,  4.95000160e-04,
         4.94999869e-04, -4.95000451e-04,  4.95000219e-04,
         4.95000160e-04,  4.95000160e-04, -4.95000160e-04,
         4.95000160e-04,  4.95000451e-04,  4.95000451e-04,
        -4.95000160e-04,  4.95000160e-04,  4.95000160e-04,
         4.95000160e-04, -4.95000451e-04, -4.95000335e-04,
         4.95000568e-04, -4.95000160e-04, -4.95000160e-04,
        -4.95000451e-04, -4.95000160e-04, -4.94999869e-04,
         4.94999753e-04,  4.95000451e-04, -4.95000335e-04,
         4.95000160e-04, -4.95000160e-04, -4.95000160e-04,
        -4.95000160e-04, -4.95000160e-04,  4.95000160e-04,
         4.95000568e-04, -4.94999753e-04,  4.95000160e-04,
         4.95000160e-04, -4.95000102e-04,  4.95000160e-04,
         4.95000160e-04,  4.95000160e-04],
       [-4.95000102e-04,  4.95000102e-04, -4.94999636e-04,
         4.94999636e-04,  4.94999869e-04,  4.94999869e-04,
        -4.94999753e-04,  4.95000219e-04,  4.95000160e-04,
         4.95000102e-04,  4.95000335e-04, -4.95000160e-04,
        -4.95000160e-04,  4.95000160e-04, -4.95000160e-04,
        -4.95000160e-04, -4.94999869e-04,  4.94999869e-04,
         4.95000160e-04,  4.95000160e-04,  4.95000219e-04,
         4.94999869e-04,  4.95000160e-04, -4.95000102e-04,
         4.95000160e-04, -4.95000160e-04,  4.95000102e-04,
         4.95000160e-04, -4.95000219e-04,  4.95000335e-04,
         4.95000451e-04,  4.95000160e-04,  4.95000160e-04,
         4.95000102e-04, -4.95000160e-04,  4.95000160e-04,
        -4.94999869e-04,  4.95000335e-04,  4.95000219e-04,
        -4.95000160e-04,  4.95000568e-04, -4.94999636e-04,
        -4.95000160e-04,  4.94999636e-04,  4.94999753e-04,
         4.95000160e-04,  4.94999636e-04,  4.95000160e-04,
         4.94999753e-04, -4.95000160e-04],
       [ 4.94999636e-04,  4.95000451e-04,  4.95000160e-04,
        -4.95000160e-04, -4.95000160e-04,  4.94999869e-04,
         4.95000451e-04,  4.95000219e-04, -4.95000160e-04,
         4.95000160e-04,  4.95000160e-04,  4.94999636e-04,
        -4.94999636e-04, -4.94999636e-04,  4.95000160e-04,
         4.95000160e-04,  4.95000160e-04,  4.94999869e-04,
         4.95000160e-04, -4.95000335e-04,  4.95000160e-04,
        -4.94999869e-04, -4.94999636e-04, -4.94999636e-04,
        -4.95000160e-04,  4.95000451e-04,  4.95000160e-04,
        -4.95000160e-04, -4.95000160e-04,  4.95000160e-04,
         4.95000160e-04,  4.95000568e-04, -4.95000160e-04,
         4.94999753e-04,  4.94999753e-04, -4.94999869e-04,
        -4.95000102e-04, -4.95000102e-04, -4.95000160e-04,
         4.94999753e-04, -4.95000160e-04, -4.95000160e-04,
         4.94999869e-04, -4.95000160e-04, -4.95000160e-04,
        -4.95000102e-04,  4.95000160e-04,  4.95000160e-04,
         4.95000219e-04, -4.95000219e-04],
       [ 4.95000160e-04,  4.94999636e-04,  4.95000568e-04,
        -4.95000160e-04,  4.95000160e-04, -4.95000160e-04,
         4.95000160e-04, -4.95000335e-04,  4.95000160e-04,
        -4.95000451e-04, -4.95000160e-04, -4.94999869e-04,
        -4.94999636e-04,  4.95000568e-04, -4.95000160e-04,
         4.95000160e-04, -4.95000160e-04, -4.95000160e-04,
        -4.95000451e-04,  4.95000160e-04,  4.95000102e-04,
        -4.95000568e-04,  4.94999869e-04, -4.95000160e-04,
        -4.95000160e-04,  4.95000160e-04,  4.95000160e-04,
         4.95000102e-04,  4.95000160e-04,  4.94999636e-04,
        -4.95000160e-04, -4.94999869e-04,  4.95000568e-04,
         4.94999636e-04,  4.94999869e-04,  4.95000160e-04,
         4.95000451e-04,  4.95000568e-04,  4.95000160e-04,
        -4.95000160e-04, -4.95000160e-04, -4.95000160e-04,
        -4.95000160e-04,  4.95000160e-04, -4.94999869e-04,
         4.95000102e-04,  4.95000335e-04,  4.95000160e-04,
         4.95000160e-04, -4.95000160e-04],
       [-4.95000160e-04,  4.95000102e-04, -4.95000160e-04,
         4.95000568e-04,  4.94999753e-04,  4.95000335e-04,
         4.94999636e-04,  4.95000451e-04,  4.95000102e-04,
        -4.95000160e-04,  4.95000335e-04, -4.94999636e-04,
         4.95000568e-04,  4.95000160e-04,  4.95000451e-04,
         4.95000451e-04,  4.95000160e-04, -4.95000160e-04,
         4.94999869e-04,  4.95000160e-04,  4.95000102e-04,
         4.95000160e-04,  4.95000102e-04,  4.95000568e-04,
        -4.95000451e-04,  4.95000160e-04,  4.95000568e-04,
        -4.95000160e-04,  4.95000160e-04,  4.95000160e-04,
         4.95000160e-04, -4.95000219e-04, -4.95000219e-04,
         4.94999636e-04, -4.95000160e-04,  4.95000160e-04,
        -4.94999636e-04, -4.95000335e-04, -4.94999753e-04,
         4.95000160e-04, -4.95000160e-04, -4.95000160e-04,
         4.95000160e-04, -4.94999636e-04,  4.95000160e-04,
        -4.95000102e-04, -4.95000160e-04, -4.95000160e-04,
        -4.95000160e-04,  4.95000160e-04],
       [ 4.94999636e-04, -4.94999636e-04, -4.95000160e-04,
         4.95000160e-04, -4.95000160e-04,  4.95000160e-04,
        -4.94999753e-04,  4.95000568e-04, -4.94999753e-04,
        -4.95000219e-04,  4.95000568e-04,  4.95000160e-04,
         4.95000160e-04, -4.95000160e-04,  4.95000568e-04,
        -4.95000160e-04,  4.95000160e-04, -4.95000160e-04,
         4.95000102e-04, -4.95000160e-04, -4.95000102e-04,
        -4.95000102e-04,  4.95000160e-04,  4.95000160e-04,
         4.95000160e-04, -4.95000160e-04,  4.95000160e-04,
         4.94999753e-04, -4.95000160e-04, -4.95000160e-04,
         4.95000160e-04, -4.94999636e-04, -4.95000335e-04,
         4.95000160e-04,  4.95000160e-04,  4.95000160e-04,
        -4.94999636e-04, -4.94999636e-04,  4.94999753e-04,
        -4.94999869e-04,  4.95000160e-04, -4.95000160e-04,
         4.94999869e-04, -4.95000335e-04,  4.95000160e-04,
        -4.95000160e-04,  4.95000160e-04, -4.95000160e-04,
         4.94999636e-04,  4.94999636e-04],
       [-4.95000335e-04,  4.94999636e-04, -4.94999636e-04,
         4.94999869e-04,  4.95000451e-04, -4.95000160e-04,
         4.95000219e-04,  4.95000451e-04,  4.95000160e-04,
         4.95000160e-04,  4.95000160e-04,  4.94999869e-04,
        -4.95000335e-04,  4.95000160e-04,  4.95000160e-04,
        -4.94999636e-04, -4.94999869e-04,  4.95000160e-04,
         4.95000160e-04,  4.94999636e-04,  4.94999869e-04,
         4.95000160e-04, -4.94999636e-04, -4.94999753e-04,
         4.95000160e-04, -4.95000160e-04,  4.95000335e-04,
        -4.95000102e-04, -4.94999636e-04, -4.95000160e-04,
        -4.95000160e-04,  4.95000160e-04,  4.95000160e-04,
        -4.95000451e-04, -4.95000160e-04,  4.95000160e-04,
        -4.95000160e-04, -4.94999753e-04, -4.95000102e-04,
         4.95000160e-04, -4.95000160e-04,  4.95000160e-04,
        -4.94999869e-04, -4.95000160e-04,  4.94999753e-04,
        -4.95000160e-04,  4.94999869e-04, -4.95000160e-04,
         4.95000102e-04, -4.95000102e-04],
       [ 4.94999869e-04, -4.94999753e-04,  4.95000160e-04,
        -4.95000102e-04, -4.95000335e-04,  4.94999869e-04,
         4.95000160e-04, -4.94999753e-04, -4.95000160e-04,
         4.95000568e-04, -4.94999636e-04,  4.95000160e-04,
         4.95000568e-04,  4.95000160e-04,  4.94999636e-04,
        -4.95000335e-04, -4.95000451e-04,  4.94999636e-04,
         4.94999636e-04,  4.95000160e-04,  4.94999753e-04,
        -4.95000160e-04, -4.94999869e-04,  4.95000102e-04,
        -4.95000568e-04,  4.95000335e-04,  4.95000451e-04,
        -4.95000160e-04,  4.95000160e-04,  4.95000160e-04,
         4.94999636e-04,  4.95000568e-04,  4.95000160e-04,
        -4.95000160e-04,  4.94999753e-04, -4.95000160e-04,
        -4.95000160e-04,  4.94999869e-04,  4.95000160e-04,
         4.94999753e-04,  4.95000160e-04, -4.94999636e-04,
         4.94999869e-04,  4.95000160e-04, -4.95000160e-04,
         4.95000160e-04, -4.95000160e-04,  4.95000102e-04,
        -4.95000160e-04, -4.94999636e-04],
       [-4.91129346e-02,  7.91053381e-03,  5.42129055e-02,
         2.15938631e-02, -3.20989713e-02, -2.93546394e-02,
         1.56710134e-03, -5.77613059e-03,  1.13721928e-02,
         7.12104049e-03, -1.06738796e-02, -2.80044880e-02,
        -7.00339349e-03,  2.09851619e-02, -1.88915934e-02,
        -2.72060614e-02, -3.74245457e-03, -4.13467400e-02,
         2.17823070e-02, -3.11275711e-03, -2.63341446e-03,
        -2.93928254e-02, -7.94993248e-04, -2.55986582e-02,
        -1.30003199e-01,  1.08650774e-01,  1.30784884e-02,
        -5.09901717e-03, -1.88806374e-02,  3.74067724e-02,
         9.49103981e-02, -1.34618953e-03, -8.77288207e-02,
        -9.58718732e-03,  4.51312074e-03,  1.44873979e-02,
        -9.52994544e-03,  2.23901942e-02,  5.87215647e-02,
         2.72226450e-03, -1.10450089e-02, -1.05076954e-02,
         4.19978239e-02, -1.55781982e-02,  1.56576335e-02,
        -8.13090615e-03, -5.30227879e-03,  1.14757502e-02,
        -1.24606900e-02,  2.18870305e-02],
       [-4.94999636e-04, -4.95000160e-04,  4.95000160e-04,
         4.95000160e-04, -4.95000160e-04,  4.95000160e-04,
         4.95000335e-04, -4.94999636e-04, -4.95000160e-04,
        -4.95000160e-04,  4.95000451e-04, -4.95000160e-04,
        -4.94999636e-04, -4.95000160e-04,  4.94999636e-04,
         4.95000160e-04,  4.94999753e-04,  4.95000160e-04,
        -4.94999636e-04, -4.95000160e-04, -4.95000160e-04,
         4.95000160e-04, -4.95000160e-04, -4.95000160e-04,
        -4.94999636e-04, -4.95000160e-04,  4.95000102e-04,
         4.94999869e-04,  4.94999636e-04, -4.95000160e-04,
         4.94999636e-04, -4.95000568e-04,  4.94999869e-04,
         4.95000160e-04, -4.94999753e-04, -4.94999636e-04,
         4.95000160e-04,  4.95000568e-04, -4.95000160e-04,
        -4.95000160e-04, -4.95000160e-04,  4.95000160e-04,
        -4.95000160e-04, -4.95000451e-04,  4.95000160e-04,
        -4.95000160e-04,  4.95000160e-04,  4.95000160e-04,
        -4.95000451e-04, -4.95000160e-04],
       [-4.95000160e-04,  4.95000160e-04,  4.95000160e-04,
        -4.94999869e-04,  4.95000102e-04,  4.95000160e-04,
         4.95000102e-04,  4.95000160e-04,  4.95000102e-04,
         4.94999636e-04, -4.94999753e-04, -4.95000451e-04,
         4.95000160e-04, -4.95000451e-04, -4.94999869e-04,
         4.94999753e-04, -4.95000160e-04, -4.95000160e-04,
         4.95000160e-04,  4.95000160e-04,  4.94999869e-04,
        -4.95000160e-04,  4.94999636e-04, -4.95000160e-04,
        -4.95000335e-04,  4.95000219e-04, -4.95000160e-04,
         4.95000102e-04, -4.95000102e-04, -4.95000160e-04,
         4.94999636e-04, -4.95000102e-04,  4.95000160e-04,
        -4.95000335e-04,  4.95000160e-04, -4.95000160e-04,
        -4.95000160e-04, -4.95000160e-04, -4.95000219e-04,
        -4.95000219e-04, -4.95000160e-04,  4.95000160e-04,
        -4.95000160e-04,  4.95000160e-04, -4.95000160e-04,
         4.94999753e-04,  4.95000160e-04, -4.94999869e-04,
         4.95000102e-04,  4.95000160e-04],
       [ 4.94999636e-04,  4.94999636e-04,  4.95000160e-04,
         4.95000568e-04, -4.94999869e-04, -4.95000160e-04,
        -4.94999753e-04,  4.95000102e-04, -4.95000160e-04,
        -4.95000160e-04,  4.95000160e-04, -4.95000335e-04,
         4.94999636e-04,  4.94999869e-04, -4.94999636e-04,
        -4.94999869e-04, -4.94999636e-04, -4.95000335e-04,
        -4.95000102e-04,  4.95000160e-04,  4.94999753e-04,
         4.95000160e-04,  4.95000160e-04, -4.94999636e-04,
         4.95000451e-04,  4.95000335e-04,  4.95000102e-04,
         4.94999753e-04,  4.95000160e-04,  4.95000160e-04,
        -4.95000102e-04,  4.94999753e-04, -4.94999753e-04,
         4.95000160e-04,  4.95000160e-04, -4.95000160e-04,
        -4.95000160e-04, -4.94999753e-04,  4.95000160e-04,
        -4.95000160e-04, -4.95000219e-04, -4.95000160e-04,
         4.95000160e-04, -4.95000160e-04, -4.94999869e-04,
         4.94999636e-04,  4.94999869e-04,  4.95000160e-04,
         4.94999636e-04,  4.95000451e-04],
       [-4.95000160e-04, -4.95000102e-04, -4.94999869e-04,
         4.95000160e-04,  4.95000160e-04,  4.94999636e-04,
         4.95000568e-04,  4.94999869e-04,  4.95000160e-04,
        -4.94999753e-04, -4.94999636e-04, -4.95000160e-04,
        -4.95000160e-04,  4.95000335e-04,  4.95000160e-04,
         4.95000160e-04, -4.95000160e-04, -4.95000102e-04,
         4.95000160e-04, -4.94999753e-04,  4.95000160e-04,
        -4.94999636e-04, -4.95000160e-04, -4.95000160e-04,
        -4.95000160e-04, -4.95000160e-04, -4.95000160e-04,
        -4.95000160e-04, -4.94999869e-04, -4.95000160e-04,
         4.95000160e-04, -4.95000160e-04,  4.95000160e-04,
         4.95000160e-04,  4.95000451e-04, -4.95000160e-04,
        -4.95000219e-04, -4.95000160e-04, -4.95000335e-04,
        -4.95000160e-04,  4.95000102e-04, -4.95000160e-04,
        -4.95000160e-04,  4.95000335e-04, -4.94999636e-04,
        -4.95000160e-04, -4.95000160e-04, -4.95000160e-04,
         4.95000160e-04,  4.95000102e-04],
       [ 4.95000160e-04,  4.94999636e-04, -4.95000160e-04,
        -4.94999869e-04, -4.94999636e-04, -4.95000160e-04,
         4.95000160e-04, -4.95000160e-04, -4.95000451e-04,
        -4.94999636e-04, -4.95000160e-04,  4.95000160e-04,
        -4.94999869e-04,  4.94999869e-04, -4.95000160e-04,
        -4.95000160e-04,  4.95000160e-04, -4.94999753e-04,
        -4.94999636e-04, -4.95000160e-04,  4.95000160e-04,
        -4.95000160e-04, -4.95000160e-04,  4.95000160e-04,
        -4.95000335e-04,  4.95000451e-04, -4.95000160e-04,
         4.95000335e-04,  4.94999636e-04,  4.95000160e-04,
        -4.95000160e-04,  4.95000160e-04, -4.95000160e-04,
         4.95000160e-04,  4.95000451e-04, -4.95000451e-04,
         4.95000160e-04, -4.95000160e-04, -4.95000335e-04,
         4.95000160e-04, -4.95000160e-04,  4.95000160e-04,
        -4.95000102e-04, -4.95000160e-04,  4.95000219e-04,
         4.95000160e-04,  4.95000160e-04, -4.95000102e-04,
        -4.95000102e-04, -4.95000160e-04],
       [-1.21434266e-02, -5.96457766e-03,  2.27331258e-02,
        -1.24692768e-02, -6.96050876e-04, -9.62214638e-03,
         6.65731914e-03, -6.60413876e-03, -1.36850160e-02,
        -1.60290916e-02, -6.32422417e-03, -2.26336136e-03,
        -2.44432334e-02,  2.18751188e-02, -1.47984931e-02,
        -1.03015201e-02, -3.09463069e-02, -3.89703810e-02,
        -4.29391768e-03, -1.87757835e-02,  1.44286668e-02,
        -3.93887237e-02,  3.13031226e-02, -1.53854741e-02,
        -1.20081350e-01,  1.06454127e-01, -9.60494764e-03,
        -1.29982354e-02, -2.35144719e-02,  2.34650401e-03,
         6.03888668e-02, -1.17527170e-03, -1.16387131e-02,
        -9.59585980e-03,  8.36507697e-03,  3.02080307e-02,
        -2.84966105e-03,  2.36979946e-02,  4.97344658e-02,
        -1.19878268e-02,  1.56498086e-02,  3.88335227e-03,
         2.32221968e-02, -2.08009370e-02,  1.96828023e-02,
         2.58633541e-03, -1.85250919e-02, -3.67242930e-04,
         7.55610270e-03,  1.96680278e-02],
       [-4.95000160e-04,  4.94999753e-04, -4.95000335e-04,
         4.94999636e-04, -4.94999753e-04, -4.95000335e-04,
        -4.95000451e-04,  4.94999636e-04,  4.95000219e-04,
        -4.95000160e-04, -4.94999636e-04, -4.95000160e-04,
        -4.95000160e-04, -4.94999869e-04,  4.94999636e-04,
        -4.95000160e-04, -4.95000160e-04, -4.95000102e-04,
         4.94999636e-04, -4.95000160e-04, -4.95000160e-04,
        -4.95000451e-04, -4.95000160e-04, -4.95000160e-04,
        -4.95000451e-04, -4.95000451e-04,  4.95000451e-04,
         4.95000160e-04, -4.94999869e-04,  4.95000160e-04,
         4.94999636e-04,  4.94999869e-04,  4.95000160e-04,
         4.95000160e-04, -4.95000160e-04, -4.95000160e-04,
         4.95000160e-04,  4.95000160e-04, -4.95000160e-04,
         4.95000102e-04, -4.94999869e-04,  4.95000335e-04,
        -4.95000160e-04, -4.94999636e-04,  4.94999869e-04,
        -4.95000568e-04,  4.95000160e-04, -4.95000160e-04,
         4.95000102e-04,  4.95000160e-04],
       [-4.95000160e-04, -4.95000160e-04, -4.95000160e-04,
        -4.95000160e-04, -4.95000160e-04, -4.95000160e-04,
         4.95000160e-04, -4.95000160e-04,  4.95000102e-04,
         4.94999753e-04,  4.94999636e-04,  4.95000160e-04,
        -4.95000160e-04,  4.95000102e-04,  4.94999636e-04,
        -4.95000160e-04, -4.95000102e-04,  4.95000160e-04,
        -4.94999636e-04,  4.95000568e-04,  4.95000568e-04,
         4.95000160e-04, -4.95000451e-04, -4.95000160e-04,
         4.95000335e-04, -4.95000160e-04, -4.95000160e-04,
         4.95000160e-04,  4.95000160e-04, -4.95000160e-04,
         4.95000451e-04, -4.95000160e-04,  4.95000102e-04,
        -4.95000102e-04, -4.95000160e-04,  4.94999869e-04,
         4.94999869e-04, -4.94999753e-04,  4.95000160e-04,
         4.95000160e-04, -4.95000568e-04,  4.95000160e-04,
        -4.95000160e-04, -4.95000160e-04,  4.95000160e-04,
         4.95000160e-04,  4.95000102e-04,  4.95000160e-04,
        -4.95000160e-04,  4.95000160e-04],
       [ 4.94999636e-04,  4.95000160e-04, -4.95000335e-04,
        -4.95000160e-04,  4.95000160e-04,  4.94999636e-04,
        -4.95000568e-04,  4.95000451e-04,  4.95000335e-04,
        -4.95000160e-04,  4.95000160e-04, -4.95000451e-04,
         4.95000102e-04,  4.95000160e-04,  4.94999636e-04,
        -4.95000160e-04,  4.95000160e-04, -4.94999636e-04,
        -4.95000160e-04, -4.95000160e-04, -4.95000160e-04,
        -4.95000160e-04, -4.95000160e-04,  4.95000335e-04,
        -4.95000102e-04, -4.95000102e-04,  4.94999636e-04,
        -4.95000219e-04, -4.94999753e-04,  4.95000160e-04,
         4.94999636e-04,  4.95000160e-04,  4.95000160e-04,
        -4.95000160e-04,  4.95000102e-04, -4.95000160e-04,
        -4.95000160e-04, -4.95000160e-04,  4.95000160e-04,
        -4.95000160e-04,  4.94999753e-04,  4.95000160e-04,
        -4.94999636e-04, -4.95000160e-04, -4.94999753e-04,
        -4.95000451e-04,  4.95000160e-04, -4.95000160e-04,
        -4.95000160e-04, -4.95000160e-04],
       [ 1.35061634e-03,  2.89824866e-02, -7.24820746e-03,
         2.95430366e-02,  4.37379815e-02, -3.09368242e-02,
        -1.68402139e-02, -2.86978371e-02, -4.33797985e-02,
        -2.38853898e-02, -1.45568922e-02, -4.14327160e-02,
         1.59403421e-02, -5.87386370e-04, -2.08054739e-03,
         7.11041130e-03, -3.09644472e-02,  5.31801069e-03,
        -1.49169546e-02, -2.32375115e-02,  2.01992691e-03,
        -4.37774248e-02, -2.74305195e-02, -2.20396463e-02,
        -2.44215339e-01,  9.99565274e-02,  2.29741689e-02,
        -7.68747879e-03, -1.95471495e-02,  4.63633426e-02,
        -4.94741276e-03, -4.33601551e-02,  1.41414460e-02,
         1.81051660e-02, -3.10161919e-03,  1.54444308e-03,
        -2.32226625e-02,  1.94197949e-02,  2.08009947e-02,
        -1.89199764e-02,  1.39123052e-02, -2.72663422e-02,
         3.29941660e-02,  2.11839434e-02, -1.09737245e-02,
        -1.17286853e-02, -1.65786024e-03,  7.66814314e-03,
         1.46601526e-02, -1.76964365e-02],
       [-4.95000102e-04,  4.95000160e-04,  4.94999636e-04,
        -4.95000451e-04, -4.94999636e-04, -4.95000335e-04,
         4.95000160e-04,  4.95000160e-04, -4.95000451e-04,
         4.95000102e-04, -4.95000160e-04,  4.95000219e-04,
         4.95000160e-04, -4.95000160e-04, -4.94999869e-04,
        -4.95000160e-04,  4.94999869e-04,  4.94999869e-04,
        -4.95000160e-04,  4.94999636e-04,  4.95000102e-04,
        -4.95000160e-04, -4.95000160e-04, -4.95000160e-04,
         4.94999636e-04,  4.95000160e-04,  4.95000160e-04,
        -4.95000335e-04, -4.95000451e-04, -4.95000335e-04,
        -4.95000160e-04,  4.95000160e-04, -4.95000568e-04,
        -4.95000160e-04,  4.94999869e-04,  4.94999753e-04,
         4.95000160e-04,  4.95000160e-04,  4.95000160e-04,
        -4.95000451e-04, -4.95000451e-04, -4.94999636e-04,
         4.95000160e-04,  4.95000160e-04, -4.95000160e-04,
        -4.94999636e-04, -4.95000335e-04,  4.95000160e-04,
        -4.95000451e-04,  4.95000451e-04],
       [ 4.95000160e-04,  4.95000160e-04,  4.94999636e-04,
        -4.95000335e-04, -4.95000160e-04,  4.94999753e-04,
         4.95000451e-04,  4.95000160e-04,  4.95000568e-04,
         4.95000160e-04,  4.95000160e-04,  4.95000160e-04,
        -4.95000568e-04,  4.95000102e-04,  4.95000160e-04,
        -4.95000160e-04, -4.95000568e-04, -4.95000451e-04,
         4.95000160e-04,  4.94999636e-04, -4.95000160e-04,
        -4.95000160e-04,  4.95000102e-04, -4.95000160e-04,
         4.95000335e-04,  4.94999636e-04,  4.95000160e-04,
         4.95000160e-04, -4.95000160e-04, -4.95000568e-04,
        -4.95000451e-04, -4.95000160e-04, -4.95000335e-04,
         4.94999753e-04, -4.94999869e-04, -4.94999636e-04,
         4.94999636e-04, -4.95000335e-04,  4.95000160e-04,
        -4.95000160e-04, -4.95000451e-04, -4.95000568e-04,
        -4.95000568e-04,  4.95000160e-04,  4.95000160e-04,
        -4.95000160e-04,  4.94999753e-04, -4.94999869e-04,
         4.95000160e-04, -4.95000160e-04],
       [ 4.95000335e-04,  4.95000160e-04,  4.95000160e-04,
        -4.94999753e-04, -4.95000160e-04, -4.95000335e-04,
         4.95000102e-04,  4.95000219e-04,  4.95000335e-04,
         4.95000160e-04, -4.95000160e-04, -4.95000160e-04,
         4.95000160e-04, -4.95000160e-04, -4.95000160e-04,
        -4.95000160e-04, -4.95000568e-04,  4.95000160e-04,
        -4.95000160e-04, -4.95000160e-04,  4.94999869e-04,
        -4.95000451e-04,  4.95000160e-04, -4.94999753e-04,
         4.95000102e-04,  4.94999636e-04, -4.94999869e-04,
        -4.95000160e-04,  4.94999636e-04,  4.95000160e-04,
        -4.94999636e-04, -4.95000335e-04, -4.95000219e-04,
        -4.95000451e-04,  4.95000160e-04, -4.94999636e-04,
        -4.95000160e-04,  4.95000160e-04,  4.94999753e-04,
         4.95000160e-04,  4.95000160e-04, -4.95000160e-04,
         4.95000160e-04,  4.95000160e-04, -4.95000160e-04,
        -4.95000160e-04, -4.95000160e-04, -4.94999753e-04,
         4.95000160e-04,  4.95000102e-04],
       [ 4.95000568e-04,  4.95000160e-04, -4.94999753e-04,
         4.95000102e-04,  4.95000160e-04,  4.95000160e-04,
         4.95000160e-04, -4.95000160e-04,  4.95000160e-04,
         4.94999753e-04, -4.95000335e-04, -4.94999636e-04,
         4.95000160e-04,  4.95000451e-04, -4.94999636e-04,
         4.95000160e-04, -4.94999636e-04,  4.95000160e-04,
         4.95000160e-04, -4.95000568e-04,  4.95000160e-04,
        -4.95000160e-04, -4.94999869e-04, -4.95000160e-04,
        -4.94999753e-04, -4.94999869e-04,  4.95000219e-04,
         4.95000219e-04,  4.95000160e-04, -4.94999753e-04,
         4.95000160e-04, -4.95000451e-04, -4.95000160e-04,
         4.95000335e-04,  4.94999636e-04,  4.95000160e-04,
        -4.94999636e-04,  4.95000568e-04,  4.95000160e-04,
        -4.94999869e-04, -4.95000160e-04, -4.94999636e-04,
        -4.94999636e-04,  4.95000451e-04, -4.95000160e-04,
         4.95000219e-04,  4.95000160e-04, -4.95000568e-04,
         4.95000160e-04,  4.94999636e-04],
       [-4.95000160e-04, -4.95000160e-04,  4.94999636e-04,
         4.95000160e-04,  4.95000160e-04, -4.95000335e-04,
         4.94999636e-04, -4.95000160e-04, -4.95000451e-04,
         4.95000160e-04, -4.95000568e-04, -4.94999869e-04,
        -4.95000160e-04, -4.95000160e-04, -4.95000102e-04,
        -4.95000160e-04, -4.95000160e-04, -4.95000219e-04,
         4.95000160e-04, -4.95000451e-04, -4.94999636e-04,
         4.95000160e-04, -4.94999869e-04, -4.95000568e-04,
         4.95000160e-04,  4.95000160e-04, -4.95000160e-04,
        -4.95000160e-04, -4.94999636e-04,  4.95000451e-04,
         4.95000160e-04,  4.95000219e-04, -4.95000160e-04,
        -4.95000160e-04,  4.95000160e-04,  4.95000451e-04,
         4.95000568e-04,  4.95000451e-04, -4.95000160e-04,
         4.95000160e-04,  4.95000335e-04,  4.95000160e-04,
         4.95000160e-04,  4.94999753e-04, -4.94999869e-04,
        -4.95000160e-04,  4.94999636e-04,  4.94999636e-04,
         4.94999753e-04, -4.94999636e-04],
       [ 4.95000160e-04,  4.95000160e-04, -4.95000160e-04,
         4.95000451e-04, -4.94999636e-04,  4.95000160e-04,
        -4.95000160e-04, -4.94999636e-04,  4.95000160e-04,
         4.94999869e-04,  4.95000102e-04, -4.95000160e-04,
         4.94999753e-04,  4.94999753e-04, -4.95000160e-04,
        -4.95000335e-04,  4.95000160e-04,  4.95000160e-04,
         4.95000160e-04,  4.95000160e-04,  4.95000451e-04,
         4.94999753e-04,  4.95000160e-04,  4.95000160e-04,
        -4.95000160e-04, -4.95000160e-04, -4.95000160e-04,
        -4.94999869e-04,  4.95000160e-04, -4.95000160e-04,
        -4.95000160e-04, -4.95000160e-04,  4.95000219e-04,
         4.94999636e-04,  4.95000102e-04, -4.95000160e-04,
         4.94999869e-04, -4.95000160e-04, -4.95000160e-04,
        -4.95000102e-04, -4.95000160e-04,  4.95000160e-04,
        -4.95000102e-04,  4.95000219e-04,  4.95000160e-04,
         4.94999636e-04,  4.95000451e-04, -4.94999636e-04,
        -4.95000160e-04,  4.94999869e-04],
       [ 4.95000160e-04, -4.94999636e-04,  4.95000102e-04,
        -4.94999869e-04,  4.94999636e-04, -4.95000160e-04,
        -4.95000160e-04,  4.95000160e-04,  4.95000102e-04,
        -4.95000160e-04, -4.95000102e-04,  4.95000102e-04,
        -4.94999869e-04,  4.95000451e-04, -4.95000160e-04,
         4.94999636e-04,  4.95000451e-04,  4.95000160e-04,
        -4.95000160e-04, -4.95000160e-04, -4.95000160e-04,
        -4.95000160e-04,  4.94999636e-04,  4.94999636e-04,
        -4.94999753e-04,  4.95000219e-04,  4.95000160e-04,
         4.95000160e-04, -4.95000160e-04, -4.95000451e-04,
        -4.94999869e-04, -4.95000160e-04, -4.94999636e-04,
        -4.94999869e-04, -4.95000160e-04,  4.95000160e-04,
        -4.95000160e-04,  4.95000160e-04, -4.94999869e-04,
         4.95000568e-04, -4.94999636e-04,  4.94999869e-04,
         4.95000160e-04, -4.95000451e-04, -4.95000160e-04,
         4.95000160e-04,  4.95000160e-04, -4.95000335e-04,
         4.95000451e-04, -4.95000102e-04],
       [-4.95000160e-04,  4.95000160e-04,  4.95000160e-04,
         4.95000335e-04, -4.95000160e-04,  4.95000451e-04,
         4.95000568e-04,  4.94999869e-04,  4.95000160e-04,
         4.95000160e-04,  4.95000160e-04, -4.95000160e-04,
        -4.95000160e-04, -4.95000160e-04,  4.95000160e-04,
         4.95000160e-04, -4.95000160e-04, -4.94999636e-04,
        -4.95000160e-04,  4.95000219e-04,  4.95000160e-04,
         4.94999753e-04,  4.95000335e-04, -4.94999636e-04,
        -4.95000160e-04,  4.95000160e-04,  4.95000451e-04,
         4.94999636e-04, -4.95000160e-04, -4.95000160e-04,
         4.95000102e-04, -4.95000160e-04,  4.95000160e-04,
         4.95000160e-04, -4.95000335e-04,  4.95000451e-04,
         4.95000160e-04, -4.95000102e-04,  4.95000568e-04,
         4.95000160e-04, -4.94999869e-04, -4.94999753e-04,
         4.94999636e-04, -4.94999636e-04, -4.95000219e-04,
         4.95000160e-04, -4.95000568e-04,  4.94999753e-04,
         4.95000568e-04,  4.95000102e-04],
       [ 4.94999636e-04,  4.95000102e-04,  4.94999869e-04,
        -4.95000568e-04,  4.95000568e-04,  4.95000160e-04,
         4.94999869e-04, -4.95000160e-04, -4.95000219e-04,
         4.94999753e-04,  4.95000160e-04,  4.95000160e-04,
        -4.94999636e-04,  4.95000160e-04,  4.95000451e-04,
         4.95000102e-04,  4.95000160e-04, -4.94999869e-04,
        -4.95000568e-04, -4.95000160e-04, -4.95000160e-04,
        -4.95000160e-04,  4.95000160e-04, -4.95000160e-04,
         4.95000160e-04, -4.95000160e-04,  4.95000335e-04,
         4.95000160e-04, -4.95000568e-04,  4.95000160e-04,
         4.95000160e-04,  4.95000102e-04,  4.95000102e-04,
        -4.94999869e-04, -4.94999869e-04, -4.95000568e-04,
         4.95000160e-04,  4.94999753e-04, -4.95000568e-04,
         4.95000219e-04,  4.94999869e-04,  4.95000160e-04,
         4.95000160e-04,  4.95000160e-04,  4.95000160e-04,
         4.95000160e-04,  4.95000160e-04,  4.95000160e-04,
        -4.95000160e-04,  4.95000335e-04],
       [ 4.95000160e-04, -4.94999636e-04,  4.95000160e-04,
        -4.95000160e-04,  4.95000102e-04, -4.94999753e-04,
         4.94999753e-04, -4.95000160e-04, -4.94999636e-04,
         4.95000160e-04,  4.95000160e-04,  4.95000160e-04,
        -4.95000160e-04,  4.94999636e-04,  4.95000160e-04,
