[array([[[ 0.02814424,  0.03022818, -0.05968694,  0.03500737,
          0.03057509, -0.01296613, -0.1456503 , -0.00852376,
          0.01987855,  0.01140453,  0.12491666, -0.0180837 ,
          0.09175073,  0.08425412, -0.05595611,  0.07737872,
         -0.14165126, -0.1299345 , -0.05955657, -0.1215251 ,
          0.09686534, -0.12404674,  0.06750569, -0.04165309,
          0.09254452,  0.04886244, -0.13505395,  0.08075142,
         -0.09725932, -0.05064968,  0.0037838 ,  0.0725949 ,
          0.0270136 ,  0.06913492, -0.09669912,  0.1208038 ,
         -0.09166884, -0.07267976, -0.13032073,  0.0387566 ,
         -0.04925359,  0.07708   , -0.08288511, -0.07433432,
         -0.06790075, -0.10868443, -0.00045907, -0.1174378 ,
          0.01912749,  0.06926451, -0.1058844 ,  0.01837438,
         -0.07135943, -0.0775751 , -0.0717606 ,  0.13139994,
          0.09007432,  0.09855314,  0.03315377,  0.06850611,
         -0.07408021, -0.09289303, -0.12846242,  0.03844762]],

       [[ 0.05036194, -0.08915761,  0.08799542,  0.06256004,
          0.00566556,  0.11050726, -0.02303198,  0.00139152,
          0.10513328, -0.05726768, -0.02528467,  0.00164518,
         -0.03954324,  0.01068559,  0.00695029, -0.12505525,
          0.08723968,  0.00137652,  0.0251513 ,  0.10143165,
         -0.03202804, -0.04196026, -0.10162703,  0.01244159,
         -0.06219155, -0.11350085,  0.04290487, -0.04649457,
          0.05333779,  0.08236931,  0.12115322,  0.02264959,
         -0.11042906, -0.08955182,  0.04860066, -0.1144718 ,
          0.00410053,  0.03845177,  0.13334325,  0.0795067 ,
          0.10098237, -0.11880773, -0.14788851, -0.11360054,
         -0.00964264, -0.04649465,  0.06267431,  0.06534118,
         -0.12193467, -0.03071508, -0.0044568 , -0.09902023,
         -0.06143991, -0.00958338,  0.0876465 ,  0.07845732,
          0.00393143, -0.06353986,  0.02634627,  0.0243933 ,
         -0.05397593, -0.07736113, -0.07171866, -0.07604533]],

       [[-0.12505604,  0.11642285, -0.07540608,  0.07161487,
         -0.09006308, -0.08362591, -0.09463017,  0.0132109 ,
         -0.15205392,  0.02828402, -0.06533487, -0.11765864,
          0.01237566, -0.06531066, -0.06353031, -0.0894805 ,
         -0.07739503,  0.00994019,  0.0406591 ,  0.08870495,
          0.07613291,  0.11067541, -0.11105602, -0.06120291,
          0.00158555, -0.00171656,  0.0047011 , -0.05605042,
          0.0152713 , -0.1354236 ,  0.03374133, -0.0719716 ,
          0.01861547,  0.02870744,  0.104713  ,  0.08268613,
         -0.1364747 ,  0.05909549, -0.01960263,  0.12749587,
         -0.02495915,  0.05821973,  0.01428149, -0.06108671,
         -0.04033136, -0.05063101,  0.1150732 , -0.12208598,
         -0.11959644, -0.09469198, -0.06732615, -0.08017649,
          0.12372353, -0.08056326, -0.09128087,  0.06587674,
          0.09467018, -0.01866788, -0.01280213, -0.03946173,
         -0.06288664, -0.1406432 ,  0.05126363,  0.0894893 ]],

       [[ 0.11333673, -0.12327318, -0.02925717, -0.09539486,
         -0.1193513 ,  0.06297531,  0.08292632,  0.062814  ,
         -0.04727814, -0.10301973, -0.1276164 ,  0.08231884,
         -0.09279699, -0.08438392,  0.07816575,  0.10611634,
          0.04360061,  0.10255017, -0.13700955,  0.08844402,
         -0.01963594,  0.01758235, -0.024648  ,  0.09284985,
          0.070205  ,  0.06252662,  0.01732694,  0.03015707,
          0.0446379 ,  0.10300152,  0.00479359, -0.0078742 ,
         -0.07902879, -0.15200439, -0.13088194,  0.0200701 ,
          0.0391608 , -0.04469009,  0.06073275, -0.07814068,
          0.09708808,  0.05233383, -0.00521818,  0.07227986,
         -0.01985951,  0.14944431, -0.05399191,  0.11028951,
         -0.09667997, -0.11847728, -0.00526226, -0.01541664,
         -0.08318079, -0.01658648, -0.09816412, -0.109215  ,
         -0.02724033, -0.03843777,  0.08399023, -0.13255668,
          0.1196633 ,  0.090028  , -0.03114859, -0.13802421]],

       [[-0.09533089,  0.08041147, -0.10144964, -0.08997274,
         -0.00578804, -0.10505667,  0.12153602, -0.07105241,
          0.09151595, -0.10463646, -0.07620304, -0.01439356,
         -0.0795384 , -0.09250975, -0.00186942, -0.00548679,
          0.08552463, -0.04965353,  0.05017193, -0.09302367,
          0.11209007,  0.06754286, -0.05110196, -0.03040834,
         -0.00690085, -0.00452879, -0.10691318,  0.10937753,
         -0.15097068,  0.07013059,  0.12685771,  0.0254545 ,
         -0.00549901,  0.06299756,  0.09383532,  0.02788361,
          0.01708668, -0.01656366, -0.10278231, -0.13030222,
          0.05209345, -0.11549722,  0.07767076,  0.06945209,
          0.09639989,  0.0165794 , -0.03046962,  0.05184074,
          0.10107503,  0.00684134, -0.09256449, -0.02450708,
         -0.03971069, -0.01928596,  0.08622237, -0.09282811,
          0.06933828, -0.01875252, -0.05010189,  0.03777329,
         -0.0982582 , -0.02723225, -0.03168093,  0.03582723]]],
      dtype=float32), array([ 0.00587118, -0.00897926,  0.01531127,  0.00252036,  0.00981573,
       -0.01391883, -0.0050368 , -0.00133607, -0.00833613,  0.01353135,
       -0.00490223, -0.00681307,  0.00668049,  0.02199818, -0.00176074,
        0.01512307, -0.00629682, -0.00369779, -0.00139335, -0.02128335,
       -0.02004367,  0.00949803,  0.00952273, -0.02976747, -0.00811779,
        0.00995592,  0.00416913,  0.00118745, -0.00452185,  0.00343057,
       -0.02273002, -0.01490798, -0.00537307, -0.00742618, -0.00814108,
       -0.01387344,  0.00616249, -0.00764539, -0.00999137, -0.00607655,
       -0.03787307, -0.01410172, -0.00248545,  0.00769609,  0.01018575,
        0.01336414,  0.00984008,  0.02611724, -0.00074346, -0.00243698,
        0.00745366, -0.00936461, -0.00550813,  0.01610951, -0.01445684,
        0.018661  , -0.01648215,  0.01578208,  0.0160827 , -0.00210238,
        0.01259812,  0.0096877 ,  0.0258739 ,  0.01631705], dtype=float32)]