[array([[[ 2.90497579e-03, -2.10905686e-01,  4.50800695e-02,
          9.09730047e-03, -3.78653973e-01,  5.65740727e-02,
         -6.15610629e-02, -5.21381274e-02,  1.39975116e-01,
         -5.54175116e-03, -2.97368485e-02,  5.06244451e-02,
          1.36402268e-02, -9.43996534e-02, -2.75199208e-03,
         -9.01851580e-02,  1.62345886e-01,  6.12556711e-02,
         -7.02972934e-02, -5.91813773e-02,  1.90852463e-01,
         -1.48403719e-01,  6.23913342e-03, -1.52309090e-01,
         -7.84386843e-02, -1.46108028e-02,  8.70897248e-02,
          1.10074310e-02, -2.26045810e-02, -1.48041025e-01,
          9.59040374e-02,  7.93678463e-02],
        [ 2.69133761e-03,  1.20214194e-01,  4.36046064e-01,
          1.01819731e-01,  7.52432197e-02, -9.35888588e-02,
         -9.03451741e-02, -3.81269336e-01, -2.73688674e-01,
          1.87032893e-01,  3.02286327e-01, -2.72454649e-01,
         -1.16998479e-01,  2.72079080e-01,  2.00334415e-02,
          1.99182164e-02, -4.33560282e-01, -7.73523450e-02,
          1.97407573e-01, -4.33934540e-01,  1.41997799e-01,
          2.29814768e-01,  4.14773524e-02, -2.25722879e-01,
         -2.75349200e-01, -6.04003072e-02, -1.23491354e-01,
          1.30992085e-01, -2.06416659e-02, -9.63911116e-02,
         -1.30420521e-01, -5.27616084e-01],
        [-8.85592923e-02, -2.20932171e-01, -4.47519690e-01,
          1.65391974e-02, -5.33095360e-01, -3.14219981e-01,
          2.35239461e-01, -9.89170969e-02,  4.14512232e-02,
          1.27559721e-01,  1.48709625e-01,  4.68806773e-02,
         -7.56733716e-02, -3.89403254e-02,  2.07847252e-01,
         -3.17806602e-02, -1.58963963e-01,  1.66526847e-02,
          1.65743381e-01,  4.77762986e-03, -1.08276516e-01,
         -2.34654576e-01,  2.89406538e-01, -2.54457086e-01,
         -1.88936144e-01, -5.83122745e-02,  9.79160070e-02,
         -8.32281634e-02, -1.69934228e-01, -1.59751475e-01,
         -1.81450546e-01, -3.90950665e-02],
        [ 9.24523268e-03,  1.30943224e-01,  2.79091239e-01,
          1.48700848e-01,  5.78535050e-02, -2.10106879e-01,
          2.19054043e-01,  1.07167125e-01, -2.07753778e-02,
          2.18880162e-01,  2.49784544e-01, -9.55217634e-04,
         -2.53675252e-01,  5.66180423e-02,  3.68725717e-01,
         -5.57840541e-02, -2.98872590e-02, -8.66745561e-02,
          6.72553852e-02,  2.39322349e-01,  6.13718703e-02,
          2.07714811e-01, -2.43376926e-01,  2.14527667e-01,
         -1.96621343e-01, -2.47055709e-01,  4.39272784e-02,
         -5.27116433e-02, -8.54130313e-02, -3.09789002e-01,
          1.32894710e-01,  1.62436306e-01],
        [-1.66960403e-01,  2.43437383e-03, -9.73772854e-02,
         -2.36647248e-01, -3.12498927e-01, -1.23577677e-01,
          3.63794446e-01, -2.26283535e-01, -2.36120567e-01,
          1.23343155e-01,  5.88154048e-02,  1.23738527e-01,
         -3.55999880e-02, -3.05122267e-02,  2.68460453e-01,
         -1.86740354e-01,  5.75256310e-02,  1.45162106e-01,
          2.38217801e-01, -3.56602192e-01, -2.47803524e-01,
          6.13615215e-02, -1.12629354e-01, -1.73263326e-01,
         -2.41441146e-01, -6.26558438e-02, -3.05250548e-02,
         -2.65700221e-02,  3.06852367e-02, -1.64487988e-01,
         -7.37397447e-02, -2.72259474e-01],
        [ 1.13475524e-01, -5.96466437e-02, -1.43365592e-01,
         -1.24065802e-01, -2.77100682e-01, -1.86360493e-01,
         -2.46965170e-01, -4.66252655e-01,  1.57494128e-01,
         -2.25040987e-01,  7.05072582e-02, -2.39801735e-01,
          2.10599601e-01, -1.40285298e-01, -2.32190281e-01,
          2.28465155e-01,  4.32360739e-01,  3.33099701e-02,
         -3.97136062e-01,  1.74294084e-01, -3.03924322e-01,
         -6.87507689e-02, -1.86858311e-01, -1.74694255e-01,
         -5.08189611e-02,  1.70197412e-01,  9.46651548e-02,
         -8.13059360e-02,  8.00876506e-03, -2.51169711e-01,
         -2.22195555e-02,  4.25914712e-02],
        [-2.11428255e-02,  1.08732864e-01,  5.20433307e-01,
          8.51978883e-02,  4.73072499e-01,  3.64710800e-02,
         -1.36472225e-01,  5.09306826e-02,  3.35986853e-01,
          6.83512688e-02,  2.96666831e-01,  3.79464179e-02,
         -2.35578477e-01, -1.55256465e-02, -2.09190980e-01,
         -6.03465475e-02, -3.26113641e-01,  1.05065014e-02,
          9.41630974e-02, -1.16217636e-01,  2.39123330e-01,
          6.89878166e-02,  2.95860730e-02,  1.84045330e-01,
          5.86773038e-01, -2.56786048e-01, -1.38965413e-01,
          1.31409183e-01, -4.21357453e-02,  9.85594988e-02,
         -8.32390338e-02, -2.04648733e-01],
        [ 3.02358598e-01,  2.31369510e-01, -3.13804328e-01,
         -4.34801802e-02, -1.67540148e-01,  8.35985467e-02,
          1.27123356e-01,  2.15783864e-01,  1.42470017e-01,
          6.94977641e-02,  3.55413221e-02, -1.50774680e-02,
          7.70888478e-02,  4.83493954e-02,  2.11387917e-01,
          2.26152897e-01,  1.35357693e-01, -4.09545861e-02,
         -2.75090873e-01,  6.26534224e-02, -2.08173931e-01,
         -6.34707585e-02,  8.12297538e-02, -2.87949383e-01,
         -2.63025582e-01,  1.33007526e-01, -1.32059187e-01,
          6.95368648e-02, -3.63942720e-02, -2.69290924e-01,
          1.81382343e-01, -1.89828381e-01],
        [ 1.84126690e-01, -1.21768057e-01,  3.35960507e-01,
          1.58076048e-01,  1.81297675e-01,  2.35090792e-01,
          6.70410842e-02,  1.11043006e-02,  4.79488522e-02,
          8.63026008e-02,  3.17404926e-01,  3.51119488e-02,
          2.58697290e-03, -3.63877080e-02,  8.33293498e-02,
          6.89905658e-02, -2.23829612e-01, -6.13067783e-02,
          1.55143812e-01, -8.95683188e-03,  3.18098664e-01,
         -7.35665038e-02,  1.92649662e-01,  3.66746157e-01,
          1.95177257e-01, -1.42468184e-01, -2.35137492e-01,
          1.50156319e-01, -1.62509426e-01, -1.72134459e-01,
         -1.91175506e-01,  9.45355222e-02],
        [ 1.19240172e-01,  1.05517186e-01,  1.23091899e-01,
          2.54835367e-01,  2.45447028e-02,  6.68902248e-02,
          5.33797264e-01, -1.49095699e-01, -2.72916108e-01,
          3.80430445e-02,  1.06387638e-01,  8.08451101e-02,
          1.85077950e-01,  1.23820849e-01,  2.87090510e-01,
         -5.47634214e-02, -3.26420903e-01,  3.07224728e-02,
          1.16190568e-01, -2.29673430e-01,  1.40060514e-01,
          4.59235340e-01, -2.58408189e-01, -9.82569903e-03,
         -7.89283738e-02, -1.85130164e-01,  5.16280271e-02,
          2.83957124e-01,  1.44693702e-01, -1.75428599e-01,
          2.53877163e-01, -7.63474852e-02],
        [ 2.56946623e-01, -2.60536671e-01, -1.82983596e-02,
          1.59659773e-01,  2.37547934e-01,  2.48141497e-01,
         -7.76777044e-02, -2.55437613e-01,  1.44404799e-01,
         -2.44327635e-01,  4.80005652e-01,  2.85386108e-02,
          2.01470882e-01, -1.26633480e-01, -2.97354609e-01,
          4.27186459e-01, -6.34933785e-02, -1.78268865e-01,
         -1.03404880e-01,  1.91879734e-01, -3.24457772e-02,
         -3.54616851e-01,  3.65851313e-01,  1.71207055e-01,
         -4.90296371e-02, -2.02831045e-01, -3.64444405e-03,
          1.08829960e-01,  5.02590165e-02,  1.04995817e-02,
         -1.30857050e-01, -1.96044788e-01],
        [-3.41082752e-01, -7.95510933e-02,  4.56743449e-01,
         -2.82177150e-01, -2.37762451e-01, -9.58620682e-02,
         -1.96250483e-01, -2.72283077e-01,  1.22600734e-01,
         -4.56127822e-01, -1.88716292e-01, -1.01965778e-01,
          7.12159276e-02,  8.02060589e-04, -9.06782448e-02,
          8.04423764e-02,  3.44489664e-01, -7.88848698e-02,
          9.89914909e-02,  2.79391766e-01, -3.34710717e-01,
         -7.00938255e-02, -8.56554061e-02, -2.26047531e-01,
         -1.36776939e-01, -5.58263026e-02, -3.67974974e-02,
         -3.31035210e-03, -1.10409573e-01,  9.11612436e-02,
         -4.71406132e-01,  2.21692398e-01],
        [ 9.60848033e-02,  1.32984579e-01, -2.88661439e-02,
         -7.45631903e-02, -1.09461859e-01,  5.96773103e-02,
          1.44769341e-01,  1.54210120e-01,  8.33937600e-02,
          1.12702705e-01,  1.29698768e-01,  1.27550051e-01,
         -5.59011381e-03, -1.31626964e-01, -1.11944042e-01,
         -9.37032849e-02, -1.93122879e-01,  1.57909140e-01,
         -3.06096440e-03, -9.34395045e-02,  4.30772841e-01,
         -1.08707517e-01, -2.46547218e-02,  7.29118958e-02,
         -9.45783332e-02, -4.49814573e-02,  5.68051748e-02,
         -1.70684710e-01,  6.44934103e-02, -3.90813947e-01,
          1.34548932e-01, -2.15312421e-01],
        [-2.25117519e-01, -6.28159270e-02, -1.80980593e-01,
         -4.77320142e-02, -5.45998029e-02, -1.40101835e-01,
          3.02512527e-01,  9.81588960e-02, -5.26889026e-01,
          1.34413794e-01,  3.79498303e-02,  8.21061581e-02,
         -6.90233037e-02, -1.33677423e-01,  2.80759633e-01,
          2.12334037e-01, -3.02975714e-01,  3.36504206e-02,
         -9.11084414e-02, -4.10786897e-01,  2.64677525e-01,
          1.50378793e-01, -1.94182903e-01, -5.96554987e-02,
         -5.22304466e-03,  4.43978198e-02,  5.21514900e-02,
          3.24403852e-01,  5.15913591e-02, -2.36596510e-01,
          2.02305868e-01, -2.18888342e-01],
        [ 3.75457071e-02,  3.17079723e-01,  1.69503376e-01,
          8.39712247e-02,  9.05658379e-02, -2.64417619e-01,
         -3.92102450e-02, -9.40549746e-02, -2.41023600e-01,
          4.35686298e-02, -1.25978068e-01, -2.00003088e-01,
         -8.93636197e-02,  1.82730347e-01, -7.53074810e-02,
          8.95270407e-02,  3.76260513e-03, -7.07822740e-02,
          1.39493644e-01, -2.69851238e-01,  7.98503384e-02,
         -4.66752937e-03, -1.55613199e-01,  1.61817417e-01,
          4.50843796e-02, -3.36555719e-01, -1.72559068e-01,
         -9.93522555e-02, -6.04968928e-02,  1.66491851e-01,
          1.18112683e-01, -1.39090046e-01],
        [ 4.91653793e-02, -1.06109075e-01,  1.37280807e-01,
         -1.29293948e-01,  6.02967180e-02,  7.51990527e-02,
          1.95833102e-01,  1.67462990e-01,  1.31803513e-01,
          1.72207311e-01, -9.89001542e-02, -7.45035009e-04,
         -1.43699661e-01, -8.03820137e-03, -9.95482281e-02,
          1.75923798e-02,  4.37071025e-02, -1.02299668e-01,
         -2.93399338e-02,  1.44615367e-01,  1.40548900e-01,
          1.17702208e-01, -1.50068607e-02,  9.31513682e-02,
          1.23888887e-01, -1.76168531e-01, -1.87684923e-01,
         -2.36006662e-01,  8.25258065e-03, -9.08437669e-02,
          1.83117330e-01,  9.54586267e-02],
        [ 1.06298707e-01,  2.48371795e-01, -1.78132266e-01,
          2.47609109e-01,  1.67897329e-01, -4.85537685e-02,
          7.40894070e-03,  2.86433339e-01, -4.20037955e-02,
         -1.55930117e-01,  9.28900242e-02,  2.31031269e-01,
          1.72102079e-01,  3.08199953e-02, -2.85298824e-01,
          5.10237254e-02, -2.99989700e-01,  2.74125021e-02,
         -7.93738365e-02, -9.94001515e-03,  1.85536012e-01,
          2.90330015e-02,  1.04378715e-01,  1.75256595e-01,
          3.86364907e-01, -1.07172929e-01,  1.42557323e-01,
          3.91943473e-03, -1.56842560e-01,  4.70893420e-02,
         -4.00609002e-02, -1.47660628e-01],
        [ 9.96266976e-02,  1.29489169e-01,  1.37356251e-01,
          2.53401816e-01,  1.49710700e-01, -5.58041371e-02,
         -1.32807419e-01,  1.36489287e-01, -1.94203839e-01,
          2.70382941e-01,  1.52776003e-01, -1.74592957e-01,
         -1.12050697e-01, -1.41989127e-01,  1.19469620e-01,
         -7.83235729e-02, -5.05364120e-01, -2.15890303e-01,
         -2.69093603e-01, -1.47665367e-01,  1.09755263e-01,
         -1.13153551e-02, -1.48871979e-02,  3.10434073e-01,
          1.83966741e-01, -1.44224644e-01,  7.45835761e-03,
         -4.09004465e-02, -5.90712065e-03, -2.34512120e-01,
         -1.42540827e-01, -1.37842953e-01],
        [ 1.65801421e-02, -4.72533107e-02,  2.09077805e-01,
          1.47348568e-01, -1.86618105e-01,  2.19515324e-01,
         -2.54696667e-01, -2.83075333e-01, -6.29260093e-02,
         -1.15531921e-01,  2.03626201e-01, -6.03303537e-02,
          9.97153744e-02, -3.32584456e-02, -3.07868868e-01,
          1.32458106e-01,  4.02744897e-02, -1.78706899e-01,
         -1.98907286e-01,  1.31300747e-01, -8.84209573e-02,
         -1.86809808e-01,  3.46993536e-01,  8.07164470e-05,
         -1.61754161e-01, -9.88460258e-02, -1.48241416e-01,
          1.04313962e-01,  1.20644281e-02,  1.30461365e-01,
         -1.32861078e-01,  6.72587380e-02],
        [-1.72796831e-01, -5.03023118e-02, -8.87118652e-02,
         -1.89282577e-02, -9.55621302e-02,  5.42062670e-02,
          1.23535886e-01,  4.59222309e-02, -4.11561161e-01,
          1.85200185e-01,  6.93925694e-02, -6.40143827e-02,
         -2.79611915e-01, -2.55881667e-01,  1.84210613e-01,
         -9.13631320e-02, -2.74757981e-01, -1.46595582e-01,
         -8.86119008e-02, -1.69122711e-01, -8.10891539e-02,
         -2.19697934e-02, -3.56618047e-01,  1.87068045e-01,
         -2.44010404e-01,  3.58686090e-01, -2.83165351e-02,
          2.47239526e-02,  5.86147644e-02, -2.41476804e-01,
         -2.67121166e-01, -3.64003330e-01],
        [-6.46224916e-02, -9.88320075e-03,  1.42064929e-01,
          2.02350527e-01, -1.09860748e-01, -6.71159402e-02,
          3.89890105e-01,  1.41241208e-01,  1.36627004e-01,
          4.02929068e-01,  4.11322802e-01, -1.26299530e-01,
          2.00183675e-01,  1.99116081e-01,  4.14712280e-02,
          6.28662296e-03,  2.30958443e-02, -1.69168655e-02,
         -2.14784205e-01,  1.43532567e-02,  2.06667647e-01,
          6.41848072e-02,  2.26385131e-01, -1.32512957e-01,
         -1.76357985e-01,  7.42350817e-02, -8.90175775e-02,
          3.59354943e-01,  8.59369710e-02, -1.88078650e-03,
         -3.48869041e-02,  1.60706788e-01],
        [-1.04530826e-02,  5.95920049e-02,  1.94214191e-02,
          7.86224455e-02, -9.75198671e-02,  7.46286437e-02,
          1.56540200e-02, -1.77089170e-01,  2.38885190e-02,
         -9.24583822e-02,  2.53705736e-02,  3.00671041e-01,
         -1.74559932e-02,  5.39120147e-03, -1.27516493e-01,
          5.03147542e-02,  2.85937600e-02,  7.79382139e-02,
         -2.62302339e-01,  1.27548561e-01,  4.52781050e-03,
          9.58510488e-02,  1.14512645e-01,  2.37440661e-01,
         -2.87956417e-01, -2.29484618e-01,  1.98252812e-01,
          5.81071377e-02,  3.30916494e-02, -2.80981679e-02,
         -8.24388713e-02,  4.49889228e-02],
        [ 5.96484281e-02,  3.80869433e-02, -9.76550113e-03,
          2.54714966e-01,  3.13828468e-01,  1.73095852e-01,
          1.20282270e-01,  4.84017134e-02,  7.68807232e-02,
          1.03749737e-01,  2.46186107e-01, -8.83692410e-05,
         -1.75530344e-01, -1.16232671e-01, -1.62223622e-01,
          1.81543887e-01, -7.21494034e-02, -2.09010452e-01,
          8.16912577e-02,  2.00637951e-01,  2.50636220e-01,
          1.81881145e-01, -2.61668175e-01,  2.98955858e-01,
          4.54587698e-01,  9.52788591e-02,  6.07066154e-02,
         -1.20978951e-01, -1.10576199e-02,  5.79829374e-03,
          1.16016231e-01,  5.80459423e-02],
        [-1.96553588e-01, -4.19881016e-01, -1.96187630e-01,
         -2.20935017e-01, -3.61281067e-01, -8.63910094e-02,
         -3.35694522e-01, -6.49641931e-01, -1.29012421e-01,
         -2.84615993e-01,  2.30102211e-01, -4.57860082e-01,
          3.28063786e-01,  7.43890032e-02, -3.34806561e-01,
         -5.24605848e-02,  1.13544762e-02, -4.13777381e-02,
         -2.33044907e-01,  2.08915010e-01, -3.98730755e-01,
          5.71487397e-02,  2.66789824e-01, -2.12489069e-01,
         -1.75479531e-01, -3.61767203e-01,  6.88488930e-02,
          6.82958364e-02,  2.12010145e-01, -2.71096051e-01,
         -2.51387149e-01,  1.21656679e-01],
        [ 1.39232159e-01,  7.59489136e-04, -1.17876023e-01,
         -9.54521373e-02, -1.45323664e-01,  1.52556300e-01,
          1.25596840e-02, -3.28431964e-01,  1.17370807e-01,
         -7.32273757e-02,  1.17535695e-01,  9.96770263e-02,
          3.44534591e-02, -9.98187214e-02,  1.00198844e-02,
          7.56133720e-02, -3.87428045e-01,  8.91735330e-02,
         -1.65912911e-01, -5.82507253e-02,  7.51571311e-03,
          2.13740900e-01,  2.37775356e-01,  5.69271203e-03,
         -1.74994692e-01,  4.07305993e-02, -9.42049697e-02,
          2.74032541e-02, -2.15862259e-01, -3.00921828e-01,
         -1.71032846e-01, -8.86560306e-02],
        [ 4.97884989e-01,  3.68161947e-01, -6.68284968e-02,
          3.66795897e-01,  4.21949267e-01,  4.62584704e-01,
         -1.53292179e-01, -2.59891868e-01,  7.33048141e-01,
         -2.44306281e-01,  1.22844413e-01, -7.12783784e-02,
         -1.86242953e-01, -1.40530774e-02, -6.07014060e-01,
          1.25415906e-01,  6.18940353e-01,  5.49358055e-02,
         -3.19305331e-01,  5.78298628e-01,  8.96181315e-02,
         -3.77327949e-01, -1.60416171e-01,  3.69748077e-03,
         -2.81658508e-02, -8.70207231e-03, -1.37243420e-01,
         -7.11674094e-02, -4.66960333e-02,  4.16887775e-02,
          6.56602383e-02,  2.66396940e-01],
        [ 2.78841108e-01,  2.54742980e-01,  7.73231983e-02,
          1.61463648e-01,  1.35767579e-01, -2.10948475e-02,
          1.82491079e-01, -4.57768105e-02, -1.28843710e-01,
          1.34865409e-02,  2.05964878e-01, -3.79215926e-04,
         -2.61126637e-01,  3.73090267e-01, -2.08003838e-02,
         -1.19529620e-01, -7.82645047e-02, -4.44500074e-02,
         -8.20603445e-02, -2.08514795e-01,  9.69137996e-02,
          5.10134324e-02, -1.36295408e-01,  1.09287910e-01,
         -2.08831746e-02, -6.86379820e-02, -9.45205688e-02,
         -7.10161999e-02,  1.29484506e-02,  8.08247104e-02,
          3.53707075e-02, -7.91074112e-02],
        [ 7.69506097e-02,  2.43441477e-01,  1.87038347e-01,
          7.16775209e-02,  2.40999490e-01,  1.02026410e-01,
          5.33960275e-02,  2.85984665e-01,  2.42925495e-01,
         -8.83217156e-02, -6.00720271e-02, -9.54045132e-02,
         -1.96628720e-01, -1.31076500e-01, -2.34333426e-01,
          1.41276807e-01,  1.51807159e-01, -7.35229999e-03,
         -1.68240905e-01,  2.11797804e-01,  3.94380122e-01,
         -1.34672448e-01, -1.99407682e-01,  1.81577414e-01,
          3.09975207e-01,  3.81810218e-02, -5.94202392e-02,
          2.03518942e-01,  1.97231352e-01,  3.06385122e-02,
          8.62936396e-03,  3.18896025e-01],
        [-3.84518579e-02, -2.00293977e-02, -4.16094393e-01,
         -3.62993032e-01, -1.41143605e-01, -2.16192633e-01,
          3.86190563e-02, -3.50667030e-01, -6.01124346e-01,
          1.46169774e-03, -1.79573432e-01,  2.51297921e-01,
         -1.61497574e-02, -2.29287148e-01, -2.90364474e-02,
         -2.40704507e-01, -5.90603650e-01,  1.97908014e-01,
         -1.81045279e-01, -2.47709677e-01, -3.25613201e-01,
          3.25139076e-01,  1.23750880e-01, -3.34897161e-01,
         -6.40267134e-01, -2.26656310e-02,  1.72552347e-01,
          3.44854826e-03, -1.17596358e-01, -3.30438346e-01,
         -1.67364269e-01, -2.84694105e-01],
        [-1.03861086e-01, -2.01032579e-01, -1.11519352e-01,
          5.72666004e-02, -1.08526386e-01,  2.08727404e-01,
         -2.88159907e-01, -3.03918600e-01,  1.48685098e-01,
         -3.90235573e-01,  2.61516929e-01, -1.68528885e-01,
          9.15974379e-02, -5.09398952e-02, -2.20179424e-01,
         -7.03460118e-03,  2.55954564e-01, -3.75999250e-02,
          2.59451151e-01,  2.89918343e-03, -2.10035339e-01,
         -1.05545394e-01, -7.85854384e-02, -1.05610967e-01,
         -8.76292586e-02,  7.69406499e-04, -1.89897433e-01,
          1.10263210e-02, -8.67686495e-02,  1.02137320e-01,
         -3.03585440e-01, -6.05469756e-02],
        [ 2.84802288e-01,  1.99172348e-01,  3.08234412e-02,
          3.70303899e-01,  3.54478240e-01,  5.94329357e-01,
          3.27811420e-01,  4.48543876e-02,  4.50539410e-01,
         -1.18186571e-01,  2.85292327e-01,  2.67412104e-02,
         -2.75988132e-01, -1.33595355e-02, -3.03417772e-01,
          2.28257224e-01,  3.61340679e-02, -2.47660011e-01,
         -1.27075940e-01,  7.29141831e-01,  2.73186773e-01,
         -6.85636759e-01, -2.32596874e-01,  1.71140447e-01,
          2.33249724e-01, -4.80041429e-02, -4.84930754e-01,
          2.83966940e-02, -1.10700034e-01,  5.25628738e-02,
         -1.74738929e-01,  9.50589478e-02],
        [-6.71200380e-02,  8.98906216e-02,  3.00004091e-02,
          6.87263086e-02, -2.18258366e-01, -3.35423537e-02,
          1.74511641e-01, -5.42465150e-02, -1.75658122e-01,
          1.05088606e-01,  1.72754779e-01,  6.60737529e-02,
          2.50604779e-01,  2.77552128e-01, -1.61677018e-01,
         -6.45655617e-02,  2.17572957e-01, -1.64486587e-01,
          2.33018890e-01, -2.04889283e-01, -6.62201643e-02,
         -3.27516913e-01,  9.34680328e-02, -1.10752977e-01,
         -1.93817630e-01,  1.32381469e-01,  1.69967413e-01,
         -3.83662917e-02, -6.14619590e-02,  4.95677702e-02,
          8.58297199e-02, -1.14561729e-01]],

       [[-2.46652570e-02, -8.09081420e-02,  1.63928598e-01,
         -3.34079005e-02, -1.02728836e-01,  4.96584177e-02,
          8.86984766e-02,  2.12806016e-02, -1.30108878e-01,
         -2.86354721e-02,  1.53684631e-01, -1.57515198e-01,
          3.39999832e-02, -1.05552822e-01,  1.66782930e-01,
         -9.10168961e-02, -8.93518105e-02, -1.69528008e-01,
          1.41291812e-01, -1.11540496e-01,  2.33473144e-02,
         -3.98977846e-01, -1.80515572e-01, -4.16130014e-02,
          1.80028483e-01, -2.59058654e-01, -1.06506990e-02,
         -1.57829627e-01, -1.72919229e-01, -5.63068241e-02,
         -2.06723407e-01, -9.31527093e-02],
        [ 2.30680302e-01, -5.05677946e-02,  1.81839287e-01,
          1.50404632e-01,  1.37899488e-01,  1.26623705e-01,
         -2.49747247e-01, -3.87772650e-01, -1.22628234e-01,
         -5.18016852e-02, -1.70455128e-01, -3.00580531e-01,
         -8.65955725e-02,  1.55209705e-01, -1.88971460e-01,
          6.43678606e-02,  6.42149597e-02, -2.46729553e-01,
          1.53774336e-01,  4.87992689e-02, -2.04335764e-01,
         -2.04032898e-01, -4.00086306e-02,  2.22147983e-02,
         -1.60178870e-01,  1.56450823e-01, -6.64904714e-02,
          1.06538692e-02,  1.14524014e-01, -1.60197154e-01,
         -4.04815525e-02, -3.80053341e-01],
        [ 5.09115271e-02, -1.34373814e-01, -1.17542684e-01,
          1.10826381e-01, -7.81536773e-02, -1.59317479e-01,
         -2.92489946e-01, -2.12603033e-01,  2.19941467e-01,
         -1.68073177e-01, -1.64640956e-02,  1.81295443e-02,
          2.07329821e-02, -1.25432298e-01,  1.41036034e-01,
         -1.48471385e-01,  8.76131374e-03, -1.78511351e-01,
         -3.99491973e-02, -1.83751900e-02,  2.26973239e-02,
         -1.49503902e-01,  1.00369453e-01,  9.10542756e-02,
         -8.23055431e-02, -2.62699753e-01, -2.18505025e-01,
         -8.89413208e-02, -2.86189705e-01,  1.77232519e-01,
         -2.72654742e-01, -2.17814043e-01],
        [-9.00905579e-02,  8.36063698e-02,  2.41712928e-01,
          2.17703730e-02, -1.22362889e-01, -4.30609621e-02,
         -1.49488468e-02, -1.06192254e-01, -2.96499759e-01,
         -1.20637648e-01,  6.65958505e-03, -9.53190103e-02,
         -1.05325647e-01,  4.61059250e-02,  2.13801369e-01,
          1.08964756e-01,  6.35826290e-02,  1.65926799e-01,
         -6.24829018e-03,  7.32304230e-02, -1.25346661e-01,
          2.35200107e-01, -1.37277573e-01, -2.29873154e-02,
         -4.04688977e-02,  2.57989205e-02,  4.91865985e-02,
          6.97480291e-02,  1.80536419e-01, -3.33404876e-02,
          1.57189369e-01, -1.15442477e-01],
        [-1.31415740e-01, -9.68940631e-02,  1.79453537e-01,
         -2.04611063e-01, -1.33670837e-01, -1.03914797e-01,
         -1.72497451e-01, -1.83837369e-01,  4.70298082e-02,
         -4.89118584e-02,  6.49321750e-02,  6.98851645e-02,
          2.09919475e-02,  1.11952968e-01, -1.21922977e-01,
         -4.91008312e-02,  2.24373844e-02, -5.81081919e-02,
          2.28416100e-01, -1.59952939e-01, -1.66654289e-02,
         -1.82444960e-01,  1.45619869e-01,  3.92129160e-02,
          1.13987617e-01, -3.74045363e-03, -2.73555011e-01,
          4.06804774e-03, -8.57927054e-02,  2.46418286e-02,
         -2.41040349e-01, -2.69095272e-01],
        [-4.11712825e-02,  7.88272098e-02,  2.48045623e-02,
         -2.23798484e-01, -1.68095544e-01, -2.36414835e-01,
          3.03679347e-01,  4.03792374e-02,  1.02557182e-01,
          2.25342497e-01, -3.21006663e-02,  2.85177737e-01,
         -1.55827478e-02,  5.63406236e-02,  1.66453555e-01,
         -1.72844492e-02,  5.96958660e-02, -4.02863994e-02,
         -2.61004776e-01,  2.87325680e-01, -5.94905242e-02,
         -7.30111301e-02, -1.91611022e-01, -2.60707498e-01,
         -8.18790868e-03,  1.44298062e-01, -1.56597868e-01,
         -2.81989396e-01, -5.23184948e-02,  6.80699125e-02,
          2.81050075e-02, -2.17682555e-01],
        [-6.96393549e-02,  1.31531090e-01, -9.42505822e-02,
         -8.55290517e-02, -5.94095737e-02, -2.39103228e-01,
         -3.77454720e-02,  1.21855468e-01,  9.56079140e-02,
          6.51434958e-02, -1.89778164e-01, -2.75476307e-01,
         -1.33410007e-01, -1.24723509e-01,  1.35920301e-01,
         -1.52248472e-01, -2.38398477e-01,  1.50309578e-01,
         -7.20419735e-02, -1.35853335e-01, -1.98612005e-01,
          9.61611494e-02, -9.43442211e-02,  9.08776671e-02,
         -2.43460853e-02, -2.46590003e-01,  1.70929879e-01,
         -9.96612851e-03, -4.43159826e-02,  1.54959619e-01,
          2.21089989e-01, -1.93185300e-01],
        [ 2.81970680e-01,  2.79263765e-01, -3.36552173e-01,
         -3.55114520e-04, -6.38875440e-02, -1.79018639e-02,
         -2.08923724e-02,  1.04420513e-01, -9.47616324e-02,
          1.66808128e-01,  1.13288343e-01, -1.09182477e-01,
          3.73055376e-02,  2.99527287e-01, -9.37505737e-02,
          1.75193936e-01, -5.86887076e-03, -1.51279820e-02,
         -2.08574221e-01, -1.75260127e-01,  2.66095828e-02,
         -8.08017328e-02,  1.58340290e-01, -9.58429649e-02,
         -5.85922264e-02,  1.48981854e-01, -4.48611081e-02,
          2.21225068e-01,  6.91836551e-02,  1.17499009e-01,
          1.90431681e-02, -3.71297337e-02],
        [-1.66933686e-01, -9.42120999e-02,  1.10443264e-01,
         -5.42487502e-02, -9.23182443e-03, -1.24048322e-01,
         -1.20541612e-02,  8.78120735e-02, -5.43109104e-02,
         -1.07879229e-01, -2.91302562e-01,  1.10952213e-01,
          1.30561925e-02, -1.42500967e-01,  1.67475894e-01,
          3.39245461e-02, -1.79391325e-01, -4.49058488e-02,
          2.25798860e-02, -1.62059337e-01,  4.81593423e-02,
          3.00882496e-02,  1.29133761e-01, -1.12089485e-01,
         -6.79222345e-02, -1.87148437e-01, -1.42692164e-01,
         -9.24749672e-03, -5.03853373e-02,  1.44926578e-01,
          2.02893496e-01,  2.66474206e-02],
        [ 7.23173916e-02, -1.64140947e-02,  7.26431534e-02,
          4.92910631e-02, -8.30994993e-02,  2.28792369e-01,
          4.28129248e-02, -1.33625090e-01, -6.26351452e-03,
          1.29664391e-01, -1.07340403e-02, -2.54067868e-01,
          6.48644045e-02,  2.06698105e-01, -3.05692881e-01,
          1.31377801e-01, -2.07703654e-02, -8.41801390e-02,
          1.13069169e-01,  4.26411740e-02,  2.09770780e-02,
          2.21151024e-01,  4.04939987e-02, -1.97011799e-01,
         -1.95734594e-02, -6.39496744e-02, -3.45322281e-01,
          1.20292626e-01,  1.26855401e-02,  1.39376670e-01,
         -8.10444951e-02, -8.51914883e-02],
        [-8.34671929e-02,  1.00649990e-01,  1.84820920e-01,
         -1.46101024e-02,  1.27905980e-01, -1.71211809e-01,
         -1.82363838e-01,  2.70098031e-01,  1.48122698e-01,
          1.37293935e-01,  1.36283068e-02, -1.05095528e-01,
         -2.50338793e-01, -6.62568808e-02,  2.76493013e-01,
          7.11040199e-02,  8.81541818e-02,  7.85316061e-03,
          4.15871516e-02, -2.02486683e-02,  4.65016477e-02,
          1.85837641e-01, -1.86339960e-01,  1.96886986e-01,
          1.37375295e-01,  6.77494854e-02, -1.03348680e-01,
         -1.15668520e-01,  1.98471155e-02, -2.45056711e-02,
          9.07160938e-02,  6.11159764e-02],
        [ 1.59783959e-01, -2.56284270e-02,  6.40250668e-02,
          9.69763249e-02,  5.89683242e-02,  3.98231186e-02,
         -3.20452563e-02, -2.73125749e-02,  1.33181334e-01,
         -1.50984988e-01, -1.28823161e-01, -1.30969584e-01,
          3.14142294e-02, -7.14933276e-02,  4.82062884e-02,
         -8.68895203e-02, -3.87990996e-02, -1.76736176e-01,
          5.00582438e-03,  1.48763105e-01, -4.58533019e-02,
          2.00716052e-02,  2.67209020e-03,  2.01257288e-01,
          1.64469182e-01, -2.27444377e-02, -1.32783815e-01,
          2.23749336e-02, -2.07945019e-01, -7.85174891e-02,
         -9.98840667e-03, -8.50108415e-02],
        [ 1.28405811e-02,  3.36750150e-02, -2.03927636e-01,
          1.84217855e-01, -1.08396783e-01, -3.49259609e-03,
         -1.72035113e-01,  5.54015785e-02, -2.81438917e-01,
         -9.38605443e-02,  1.84265584e-01, -5.74147105e-02,
          4.77007776e-03,  5.34774456e-03,  2.10513949e-01,
         -2.13038683e-01, -1.27228141e-01,  1.20617665e-01,
         -4.19911519e-02, -2.19294131e-01,  1.05290137e-01,
          1.62301236e-03,  8.40659440e-02,  1.10418662e-01,
         -1.82128698e-01, -4.33686934e-02,  9.83598158e-02,
         -2.33974785e-01,  9.31848884e-02, -3.51053625e-02,
          3.23875947e-03, -1.43295020e-01],
        [ 1.71471566e-01, -1.78445756e-01, -1.27148092e-01,
         -1.02345280e-01, -1.22448474e-01,  1.67517379e-01,
          3.06878258e-02, -2.90363044e-01,  1.62070140e-01,
         -2.72326648e-01,  1.60757557e-01, -2.24208817e-01,
          1.96241856e-01,  2.68787295e-01, -3.73433352e-01,
          3.12248051e-01, -5.99121489e-02, -5.10682799e-02,
         -7.07454979e-02,  1.94255963e-01, -2.59076990e-02,
         -2.13218704e-01, -6.47848845e-02, -5.13296276e-02,
         -1.17077373e-01,  1.10899597e-01, -2.88726330e-01,
          8.67910311e-02,  1.91523656e-01,  5.93154728e-02,
          3.97915989e-02, -2.84160357e-02],
        [-1.40141882e-02,  4.89603579e-01,  3.07775319e-01,
         -7.22350255e-02, -1.43868253e-01, -5.22135682e-02,
         -2.63493508e-01, -3.28101069e-02, -4.49587069e-02,
         -9.99993533e-02, -2.67233670e-01, -3.87053452e-02,
         -1.07897833e-01,  1.25712287e-02, -7.60565102e-02,
          2.09628209e-01,  1.31802648e-01,  1.16467737e-01,
          1.04205593e-01, -1.78297386e-01, -2.70564824e-01,
          4.08133380e-02, -1.93691969e-01,  1.31221622e-01,
         -2.77208630e-02, -2.58778661e-01, -1.70715675e-01,
         -2.03220755e-01,  5.01463339e-02,  5.26517592e-02,
          7.44765326e-02, -6.85076565e-02],
        [-1.42032370e-01, -1.01838112e-01, -3.31412777e-02,
         -1.73409283e-01, -2.91861743e-01,  2.88737863e-02,
         -1.40026480e-01, -1.14858747e-01,  1.11383364e-01,
          6.40375689e-02, -1.60822496e-01, -7.42987543e-02,
          8.07979405e-02,  4.13161069e-02,  2.33778298e-01,
          2.14012101e-01,  1.18688934e-01, -9.80980173e-02,
          7.19794706e-02,  1.06422789e-01, -1.48192644e-01,
          7.35510588e-02,  1.35849163e-01, -9.85635519e-02,
          1.11186385e-01, -1.25079811e-01, -2.52730399e-01,
         -2.70662457e-01, -3.02576929e-01, -8.84141400e-03,
          1.82880517e-02,  1.16568863e-01],
        [-6.36303425e-02, -2.89645530e-02,  9.37653109e-02,
         -1.30100340e-01, -4.42919470e-02, -1.73616573e-01,
          2.05003303e-02,  3.86134572e-02,  2.25370705e-01,
          1.76840156e-01, -8.15626755e-02,  2.35000312e-01,
         -6.80224895e-02,  9.99647230e-02,  1.28949150e-01,
         -1.40154520e-02,  1.08351998e-01, -1.47686929e-01,
          9.02279839e-02,  3.36862542e-02, -1.91588849e-01,
         -6.72398135e-02, -5.77608347e-02, -6.53089676e-03,
         -2.54927218e-01,  7.41333291e-02,  2.26685077e-01,
         -1.97364148e-02, -1.21046044e-01,  2.45185480e-01,
          1.27837509e-01,  6.49045780e-02],
        [-9.59889367e-02, -3.20094675e-02,  8.43870789e-02,
         -1.29310042e-01, -1.66315809e-01, -1.24301746e-01,
         -8.74460712e-02,  7.27883577e-02,  6.84479102e-02,
          3.58286500e-01,  2.05784261e-01, -1.46567058e-02,
         -1.58585593e-01, -2.49655262e-01, -5.62146120e-02,
         -1.07423589e-01, -1.70159966e-01,  1.78683609e-01,
         -1.13361388e-01, -2.90234033e-02, -1.79457217e-01,
         -2.00888112e-01, -8.12750384e-02, -2.68519670e-02,
         -1.61846071e-01, -4.02080901e-02,  1.33536637e-01,
         -3.74580085e-01, -5.04684374e-02, -2.09745139e-01,
         -4.06767763e-02,  6.70792088e-02],
        [-1.20542742e-01,  9.67883598e-03, -2.80404650e-02,
         -1.10515371e-01, -1.48805439e-01,  6.48631230e-02,
          7.58957118e-02, -8.11112598e-02,  1.01537600e-01,
          9.44211856e-02,  4.02585454e-02, -8.06796774e-02,
         -1.18326187e-01, -9.54126567e-02, -3.89793962e-02,
          1.55231401e-01, -1.13453977e-01, -4.42126356e-02,
         -2.30523661e-01,  7.66156763e-02, -6.28092736e-02,
         -3.24988604e-01,  9.26710442e-02,  1.08125828e-01,
         -1.23861194e-01,  4.78361640e-03, -2.87789665e-02,
         -4.75595556e-02, -5.46616763e-02,  5.27725853e-02,
         -1.86513707e-01,  1.85882345e-01],
        [-5.96564412e-02, -2.70162493e-01,  4.86721471e-02,
         -8.54480267e-02,  7.22677410e-02,  7.72510096e-02,
         -1.23006374e-01, -2.59269834e-01,  1.06588326e-01,
         -1.86548993e-01,  2.13768166e-02, -8.20782036e-02,
         -1.09162740e-02,  5.71262091e-02, -1.82592079e-01,
         -1.22108953e-02,  7.74360001e-02, -1.23307034e-01,
         -1.56662092e-02, -4.77315334e-04,  8.36371630e-02,
          1.30539760e-01,  8.74693543e-02, -6.98619485e-02,
         -1.66201398e-01,  6.05443865e-02, -3.31681550e-01,
          5.21457605e-02,  1.24809995e-01, -1.05329305e-01,
         -1.81984141e-01, -3.13795656e-01],
        [ 3.06312650e-01, -1.20254628e-01,  9.80480462e-02,
          9.89596248e-02,  5.90288043e-02, -7.80111179e-02,
         -1.93029810e-02,  4.16835658e-02,  2.71164119e-01,
          1.53185442e-01,  9.77963805e-02, -1.97894171e-01,
          5.02965562e-02,  1.65870897e-02,  2.64709771e-01,
          1.99220434e-01,  2.04035059e-01,  1.12230115e-01,
         -1.49498567e-01,  3.18506628e-01,  8.28338042e-02,
         -8.88106450e-02,  2.02276945e-01,  1.54297635e-01,
          3.43536288e-02, -6.19003214e-02, -2.33456627e-01,
          3.64749618e-02, -1.68636978e-01, -1.80314496e-01,
         -4.67570052e-02,  1.28165737e-01],
        [-1.52763680e-01,  1.48477629e-01,  4.16460574e-01,
          1.96552351e-01,  4.35959734e-02,  8.12811106e-02,
          6.26710728e-02, -8.71059601e-05, -1.25445992e-01,
          5.62542640e-02, -1.34073585e-01,  1.21888846e-01,
          4.42541949e-02,  2.71259934e-01,  5.30104898e-02,
         -1.90641224e-01, -2.06490774e-02,  8.23978856e-02,
         -1.52143964e-03,  2.90720072e-02,  5.69965392e-02,
          1.07698068e-01,  7.67173246e-03,  8.07373971e-02,
         -1.71772763e-01, -2.60115385e-01,  1.83190465e-01,
          8.67062286e-02,  5.86216152e-02, -4.64792736e-02,
          1.63324758e-01, -2.22516358e-01],
        [-5.13213694e-01, -3.53769213e-02,  7.61152431e-02,
         -1.57965094e-01, -2.43807703e-01, -1.42180920e-01,
         -5.36307618e-02,  2.53077764e-02, -1.36615247e-01,
         -1.46433175e-01,  4.90644723e-02, -2.17767298e-01,
         -1.75248533e-02,  5.89587986e-02, -1.12935781e-01,
         -6.67741969e-02,  1.02183469e-01, -7.06108510e-02,
         -3.76327001e-02,  8.81718323e-02, -8.55272859e-02,
          1.35642990e-01, -1.16814964e-01,  2.01263744e-02,
         -1.14823058e-01, -2.00258389e-01,  6.36202767e-02,
         -7.21944496e-02, -5.00162467e-02,  6.95581958e-02,
         -1.35680601e-01, -4.90221791e-02],
        [ 1.78472862e-01, -1.65604632e-02,  2.36470953e-01,
         -8.50700811e-02,  1.70560986e-01,  2.33303323e-01,
         -9.35164317e-02, -2.29894891e-01,  2.26315320e-01,
         -4.58383635e-02,  1.01126455e-01, -3.83553840e-02,
          1.71404462e-02,  1.98560163e-01, -2.91105155e-02,
         -4.65869009e-02,  1.05500825e-01,  2.04829678e-01,
         -5.94008230e-02,  2.68739462e-01,  1.41375184e-01,
         -7.85236061e-02, -2.64558733e-01,  1.66641641e-02,
          1.95252284e-01, -5.71925975e-02, -2.84114741e-02,
         -6.56558499e-02,  7.71173313e-02, -2.37612817e-02,
         -1.58984751e-01, -4.50084098e-02],
        [-7.68945217e-02, -1.85810089e-01,  1.38845667e-01,
         -9.70594585e-02,  4.36682114e-03, -9.83605459e-02,
         -7.43346140e-02,  1.35778666e-01, -2.20409572e-01,
         -1.48687184e-01,  4.08989429e-01,  6.91130534e-02,
          1.61433276e-02,  1.70781896e-01, -3.31478263e-03,
          3.40643488e-02, -7.09795654e-01,  9.29686651e-02,
         -2.12096069e-02, -4.20087218e-01, -1.09011345e-01,
          2.15169922e-01,  1.66297749e-01, -8.02764967e-02,
         -3.60522270e-02,  3.37798029e-01,  6.15441687e-02,
          2.04547006e-03,  1.06288671e-01, -1.02752522e-01,
         -5.55179976e-02, -4.54168350e-01],
        [-7.99483284e-02, -7.48440996e-02, -4.51549172e-01,
         -1.71596721e-01, -4.31329578e-01, -2.20286295e-01,
          4.23995793e-01,  1.36534914e-01,  1.55206338e-01,
          2.75724471e-01,  2.67166436e-01,  8.64366442e-02,
         -1.88812360e-01, -1.09551221e-01,  5.57397425e-01,
         -2.21788958e-01,  3.87665093e-01, -6.56452253e-02,
         -3.24568033e-01,  1.33846447e-01, -4.63405624e-02,
         -5.96064985e-01,  1.49010479e-01, -2.49427170e-01,
         -1.75550114e-02,  1.05328739e-01, -8.71171653e-02,
         -3.49731624e-01, -5.51957369e-01,  8.59346017e-02,
         -9.65698808e-02, -2.71727681e-01],
        [-2.99698468e-02,  1.10819697e-01, -1.55809447e-02,
         -2.04870641e-01, -7.06273392e-02,  1.40263170e-01,
          3.81538458e-02, -4.71078046e-02, -9.04907659e-02,
         -1.27883423e-02,  1.37654975e-01, -1.87589675e-01,
         -2.44263098e-01,  3.89228672e-01,  8.81777778e-02,
         -1.08971782e-01,  1.10809039e-02, -3.59551683e-02,
         -5.33728637e-02, -5.01642451e-02, -2.02876121e-01,
          1.20211221e-01, -2.05502249e-02, -3.49835120e-02,
         -2.65344262e-01,  1.46439075e-01,  1.67951956e-02,
         -2.54337750e-02, -9.93560478e-02, -6.03736676e-02,
          4.79853153e-02, -8.15395489e-02],
        [-8.72451589e-02,  5.61224297e-02, -9.30488035e-02,
         -1.62626117e-01, -3.39476705e-01,  4.34823409e-02,
          8.57543573e-03, -3.49214524e-02,  1.27994657e-01,
          9.71099883e-02, -1.51340112e-01, -4.12315056e-02,
          3.44252735e-01,  1.46069258e-01,  1.40784189e-01,
         -7.09949583e-02,  1.46546379e-01,  9.61846262e-02,
         -6.75184652e-02,  1.67326167e-01, -6.64351359e-02,
         -7.46003017e-02,  1.86930716e-01, -3.49734753e-01,
         -3.02478909e-01, -1.43633813e-01, -1.32575661e-01,
         -3.08526512e-02,  1.25034630e-01,  1.90106198e-01,
         -1.04598641e-01,  7.41071403e-02],
        [ 2.38662228e-01,  5.43831997e-02,  3.30497742e-01,
          1.57281816e-01,  1.71896383e-01,  3.26440409e-02,
         -1.45684302e-01, -3.83603573e-01, -3.06207567e-01,
         -4.10711557e-01,  3.13939154e-01, -1.77272022e-01,
          2.35433877e-01, -4.50531542e-02, -4.09359127e-01,
         -1.45382702e-01, -6.64125800e-01,  2.07684413e-01,
          2.82735169e-01, -2.81118490e-02,  2.99639404e-01,
          1.72668040e-01,  4.02832985e-01,  2.89369255e-01,
          1.71423301e-01, -2.60298878e-01, -1.98809102e-01,
          9.78316888e-02, -1.51339293e-01, -6.79383501e-02,
         -4.03511405e-01, -4.70395923e-01],
        [-3.89857730e-03, -2.01103821e-01, -2.67577976e-01,
          1.35909528e-01,  4.31907400e-02, -9.13776923e-03,
          9.26825106e-02, -1.38685733e-01,  1.23921193e-01,
         -2.55403131e-01,  2.90739328e-01, -1.10769548e-01,
         -1.70605570e-01,  2.44893730e-02, -9.66922194e-02,
          2.27239374e-02,  4.09002975e-02,  2.27352321e-01,
          2.38795325e-01,  1.12559512e-01, -2.66352966e-02,
         -1.94057319e-02, -3.75585705e-02,  1.11861728e-01,
          2.11941585e-01,  2.49589950e-01, -3.10180653e-02,
          7.21850097e-02, -1.15124092e-01,  6.15512840e-02,
          3.56390178e-02, -3.96502800e-02],
        [-4.97127205e-01,  1.25416175e-01, -1.98119596e-01,
         -4.89978731e-01, -4.34316367e-01, -3.55677933e-01,
          3.38542789e-01,  4.19477187e-02,  1.91923708e-01,
          1.70199305e-01, -7.38757178e-02,  5.37047833e-02,
          3.74214947e-02,  7.25636724e-04,  5.43614328e-01,
         -4.05194968e-01, -3.30259055e-02,  1.11908972e-01,
         -7.06136972e-02, -4.04783376e-02, -3.32442492e-01,
         -3.69998887e-02, -9.70390514e-02, -5.36325097e-01,
         -1.39285102e-01,  1.19411901e-01,  5.47814555e-02,
         -2.67850995e-01,  1.25177085e-01, -2.01823100e-01,
          4.18172814e-02,  1.72210023e-01],
        [ 4.28390652e-02,  7.26555809e-02,  1.24093905e-01,
         -7.93594569e-02, -4.24429715e-01, -1.79580618e-02,
         -1.83566406e-01, -1.34341214e-02, -1.66399847e-03,
         -1.31311074e-01, -1.87421199e-02, -2.99410790e-01,
         -2.17713024e-02,  1.74965039e-01, -3.21051210e-01,
          1.23428814e-01, -3.40379551e-02, -1.31913483e-01,
          7.50543475e-02, -1.06479704e-01, -5.14479820e-03,
         -4.33675088e-02,  2.07372662e-02,  9.17605776e-03,
          1.61938116e-01, -2.56920755e-01, -1.03607431e-01,
          1.64760649e-01, -6.97624609e-02,  1.27197295e-01,
          7.75367534e-03, -5.17313108e-02]],

       [[ 1.00538500e-01,  4.28285822e-03,  8.39032158e-02,
         -2.40537912e-01, -3.83493960e-01, -1.06742010e-01,
          1.79941192e-01,  6.61830530e-02,  1.32765502e-01,
          2.65464216e-01, -7.42205381e-02,  7.97610432e-02,
          2.12708011e-01, -1.95448399e-01,  2.09975868e-01,
         -1.59547836e-01,  8.66833329e-02,  1.59984514e-01,
          2.05933973e-01, -1.24105714e-01, -1.23879045e-01,
          8.81173834e-03, -1.60382763e-01, -9.98885185e-02,
         -1.27178013e-01, -5.03531657e-02, -5.42327166e-02,
          1.87996179e-01,  4.44555022e-02,  1.71643067e-02,
          1.40290633e-01,  2.00717989e-02],
        [ 2.74001330e-01, -1.51957832e-02,  7.63541982e-02,
         -1.63724616e-01, -1.98672324e-01,  7.93486387e-02,
          1.72244594e-01, -2.26026759e-01,  1.01291865e-01,
          1.60198629e-01, -1.09719276e-01, -2.38935843e-01,
          2.57854164e-01,  1.45967603e-01,  8.73771235e-02,
         -1.48920193e-01,  7.76845962e-02,  4.61068526e-02,
          1.26138270e-01, -4.48415801e-02, -4.48740155e-01,
         -9.61300209e-02,  1.81091502e-01, -1.53593540e-01,
          6.57719746e-03,  1.11818910e-01,  9.27512273e-02,
          1.02921896e-01,  1.54931024e-01,  3.96117754e-02,
          3.25551838e-01, -3.15991163e-01],
        [ 6.69392347e-02, -2.99574822e-01, -1.66272521e-01,
          1.74263179e-01, -1.14559695e-01, -8.97803286e-04,
          3.62740844e-01,  4.19048443e-02,  1.22370943e-01,
          3.52069736e-01, -3.96178335e-01,  5.15724778e-01,
         -2.63732910e-01, -3.12147796e-01, -1.13920391e-01,
         -5.07097207e-02, -1.16131701e-01, -3.96577381e-02,
         -1.35812871e-02, -7.15460405e-02,  1.24347717e-01,
          2.15671230e-02, -2.97719717e-01,  3.42745423e-01,
         -1.71865001e-01,  1.24802189e-02,  5.36276996e-02,
          1.02450594e-01,  3.11734051e-01, -1.83678284e-01,
          4.94194329e-02,  9.65040401e-02],
        [ 9.17613134e-02, -2.28717774e-02, -1.44330710e-01,
          9.92818400e-02, -1.23858355e-01,  1.43964086e-02,
          2.01737970e-01, -1.80740654e-01, -7.36316592e-02,
         -6.91907480e-02,  2.64243949e-02,  1.62559614e-01,
          1.78419739e-01, -6.54027611e-02,  2.31885597e-01,
         -3.11793182e-02, -8.27899724e-02,  1.40278218e-02,
          6.61148652e-02,  1.99152485e-01,  9.85508636e-02,
         -2.63890296e-01, -1.06460966e-01,  1.01465501e-01,
         -1.41407531e-02,  3.86324190e-02,  6.50594383e-02,
         -1.05111748e-01,  7.01100938e-03, -2.47646213e-01,
          1.65718719e-01, -1.97577655e-01],
        [ 2.21697882e-01,  1.43008515e-01, -2.71981001e-01,
          9.40380245e-03,  1.61996372e-02, -2.24803075e-01,
          3.39365393e-01,  2.84612216e-02,  1.56695500e-01,
          1.41891658e-01, -1.39488444e-01,  2.49554276e-01,
         -4.52729501e-02,  4.51817550e-02,  6.85554743e-02,
         -8.23412389e-02, -5.29218204e-02,  9.09052715e-02,
          5.48347309e-02,  9.89997387e-02,  2.40060270e-01,
         -2.43560314e-01, -2.51867652e-01,  6.46514222e-02,
          2.07148179e-01,  4.16485369e-02, -1.46941543e-02,
          2.53856510e-01,  5.84528893e-02, -2.09265593e-02,
         -4.22662869e-02, -2.20704034e-01],
        [-2.36264884e-01,  2.35666171e-01, -2.27665901e-01,
         -1.97599083e-01, -1.17642127e-01, -2.34692350e-01,
          9.86616015e-02,  5.98882586e-02, -2.77466416e-01,
         -2.50075907e-01, -1.73261672e-01, -3.48346010e-02,
          5.59184067e-02,  6.79341629e-02, -2.61528701e-01,
          1.88548043e-01,  3.52200344e-02, -1.47333279e-01,
         -1.27036244e-01,  2.62821615e-02,  4.38635834e-02,
          1.71299294e-01, -3.25275034e-01, -1.63413748e-01,
         -8.94008353e-02,  1.59340203e-01, -9.50964764e-02,
          2.38207072e-01, -1.34614751e-01, -1.63327754e-01,
          3.61733958e-02, -2.60929734e-01],
        [ 6.77836239e-02,  9.70149599e-03,  2.00602025e-01,
          2.69847419e-02,  2.89280657e-02, -1.12497143e-01,
         -2.34199628e-01, -1.27220973e-01,  2.20712777e-02,
          5.47102988e-02, -5.02840951e-02, -1.22093342e-01,
          2.20864043e-01, -1.99403062e-01, -5.26844524e-02,
         -3.15343827e-01, -1.13886386e-01, -4.01589349e-02,
          1.92734480e-01, -1.68065593e-01, -2.43900478e-01,
         -2.94217002e-03,  1.09958440e-01,  1.78792933e-03,
          6.21808991e-02, -4.00734365e-01,  4.69718315e-02,
         -1.94113459e-02, -7.46763404e-03,  3.00386786e-01,
          1.39627129e-01, -3.13632563e-02],
        [ 1.89660430e-01,  3.36240560e-01,  2.62204707e-01,
          1.05240531e-01, -4.24894989e-02, -2.25796074e-01,
          1.49280161e-01, -7.51340762e-02, -1.00222826e-01,
         -9.36011672e-02, -4.32821624e-02,  1.41744092e-01,
         -1.08803742e-01, -3.43884490e-02,  9.21266079e-02,
          2.37470612e-01, -4.11092602e-02, -2.47174129e-01,
         -8.08598623e-02,  8.68565142e-02,  4.65199798e-02,
         -1.90912813e-01, -2.21473962e-01,  1.31065190e-01,
         -1.04172945e-01,  2.03902304e-01, -3.90766449e-02,
         -4.93047200e-03,  4.22479399e-02,  1.18544310e-01,
          5.46124540e-02, -5.96211515e-02],
        [-1.13990538e-01, -1.82411537e-01,  2.05072358e-01,
          1.72919706e-01,  8.85201767e-02,  2.63324738e-01,
         -3.29581648e-02, -9.05094594e-02,  1.16951745e-02,
          3.45147937e-03, -2.24079832e-01,  5.96172921e-02,
         -2.82223299e-02,  5.61676621e-02,  2.01389603e-02,
          1.21150963e-01,  7.57016987e-02,  1.34328008e-01,
         -1.01705022e-01, -1.02031425e-01, -3.31354141e-02,
         -1.32324412e-01,  1.34466682e-02, -1.07641220e-01,
          4.23954092e-02, -3.34200449e-02, -9.65553056e-03,
          1.59414083e-01,  9.22258645e-02,  1.73511565e-01,
          3.41358082e-03,  3.09693348e-02],
        [-8.32537860e-02,  1.02907948e-01,  2.72933692e-01,
         -2.80984398e-02, -1.86520085e-01,  2.26855138e-03,
          3.08684856e-01, -9.64365155e-02, -9.22301933e-02,
          2.03670282e-02,  8.24043900e-02, -1.27309754e-01,
          7.02336654e-02, -1.49819059e-02,  1.19636454e-01,
          1.66340679e-01, -2.90178116e-02, -9.01994705e-02,
         -7.86844715e-02,  1.30673453e-01,  1.82648927e-01,
         -1.96704529e-02,  7.28033856e-02, -6.01422712e-02,
         -9.67062563e-02, -1.17996842e-01, -2.04266280e-01,
          4.27240916e-02,  8.05582628e-02,  8.43478218e-02,
          9.89520624e-02,  1.14665940e-01],
        [-1.10795170e-01, -9.03588906e-02,  9.29354355e-02,
          2.25945935e-01,  1.90740898e-01, -2.16910690e-02,
         -4.26704079e-01,  2.19532698e-02, -2.47951955e-01,
          2.38110453e-01, -1.18210897e-01, -9.11395699e-02,
         -2.07344800e-01, -9.69650894e-02, -7.06560016e-02,
          3.02274264e-02, -6.10417947e-02, -4.00969908e-02,
         -3.86633724e-03, -1.68666780e-01,  5.41213481e-03,
          1.53024808e-01, -9.53695849e-02,  2.37894252e-01,
          2.36921590e-02, -2.40271688e-01, -2.59294473e-02,
          3.09094340e-01,  2.20379591e-01,  6.89743981e-02,
         -9.66817588e-02, -2.70800199e-03],
        [-1.83171615e-01,  2.37327620e-01,  1.44092560e-01,
          1.32709893e-03,  4.85027470e-02, -2.86718458e-01,
         -4.05772269e-01,  2.74556845e-01, -3.14287871e-01,
         -8.59911218e-02, -3.67492974e-01,  2.37982094e-01,
          1.38841299e-02, -6.01057932e-02,  7.28357211e-02,
          9.67079774e-02, -3.29856366e-01, -1.64044827e-01,
          4.43630926e-02,  2.59777121e-02, -1.25824794e-01,
         -1.17766857e-02, -1.84312671e-01, -7.33374357e-02,
          1.82048455e-01,  9.21857581e-02,  3.89716513e-02,
          3.14812288e-02,  1.74040467e-01, -8.91400352e-02,
          6.20013699e-02,  2.71032918e-02],
        [ 2.84272254e-01, -4.88828644e-02, -8.81159957e-03,
          2.39711851e-01, -1.62622526e-01,  5.07400818e-02,
          3.30508322e-01,  2.34678164e-02, -3.84919830e-02,
          2.54203051e-01,  1.40092030e-01, -1.59262158e-02,
         -2.10967124e-01, -1.54948592e-01,  1.29181994e-02,
         -5.54925539e-02, -4.30542052e-01,  1.11174462e-02,
         -2.03546491e-02, -4.03127028e-03,  2.57653087e-01,
         -1.72144860e-01,  7.58855343e-02,  2.54032969e-01,
          1.08863950e-01, -1.26695111e-01,  2.43788157e-02,
         -2.79610395e-01,  6.72414228e-02,  8.90739262e-03,
          1.22441173e-01, -2.70135492e-01],
        [-7.53946900e-02, -4.98211309e-02,  1.73124820e-01,
          4.01106551e-02, -3.30695398e-02,  9.34874266e-02,
          6.79426193e-02,  1.17925547e-01,  8.79513174e-02,
         -3.33297849e-02,  5.45274429e-02,  1.17302291e-01,
          7.64321014e-02,  1.69701487e-01,  1.62851840e-01,
          5.77957667e-02,  6.24067299e-02, -8.39316994e-02,
          2.46443087e-03,  1.92359969e-01,  1.49165869e-01,
          2.08021160e-02, -3.99633497e-02,  6.60280511e-02,
          1.65139899e-01,  4.39659022e-02, -8.24273303e-02,
          8.75070505e-03,  1.40400723e-01,  6.84980974e-02,
         -2.53785364e-02,  1.22192642e-02],
        [-9.70831290e-02,  5.14475644e-01,  8.71298835e-02,
         -1.35454983e-01, -2.33042628e-01, -1.78273991e-01,
         -2.20915060e-02, -1.74070559e-02, -1.50785923e-01,
         -4.44113351e-02, -1.03312582e-01, -1.06403381e-02,
         -6.97397366e-02,  2.18323797e-01,  1.09810114e-01,
          2.97286902e-02,  1.95631877e-01,  9.06590447e-02,
          1.84208721e-01, -1.96446642e-01, -6.38250411e-02,
          1.69479385e-01,  6.73682168e-02,  3.54960948e-01,
         -1.47917092e-01, -3.11524779e-01,  7.80909583e-02,
         -1.08018242e-01,  4.64152172e-03,  5.90507761e-02,
          2.12196067e-01, -6.11094087e-02],
        [ 1.02706715e-01,  1.70263276e-01,  6.62346184e-02,
         -6.24867007e-02,  5.51180616e-02, -1.12168901e-01,
         -1.37944505e-01,  8.35987180e-02,  3.58747020e-02,
          2.71674603e-01, -1.42917037e-01,  2.55783319e-01,
         -8.32475275e-02,  5.90458773e-02,  1.18568324e-01,
          1.08574465e-01, -1.08200632e-01, -1.51742950e-01,
         -1.58109024e-01,  4.18931618e-02, -1.43445849e-01,
         -6.70791715e-02, -1.81381389e-01,  2.35714763e-01,
          8.18008110e-02, -1.43545717e-01,  5.31094428e-03,
          9.47768763e-02,  2.78518368e-02, -1.22824833e-01,
         -6.04807362e-02, -5.13623767e-02],
        [-3.52227949e-02,  1.79520816e-01,  1.22412413e-01,
         -4.90256883e-02, -7.80614913e-02, -7.43474439e-02,
         -2.70024508e-01, -7.92184174e-02,  3.71348411e-01,
         -1.13306746e-01, -1.68150574e-01, -3.67666297e-02,
         -6.75626099e-02, -5.26358858e-02, -6.14713617e-02,
          1.82632804e-01,  8.79993662e-02, -7.80562982e-02,
          3.29566598e-02,  1.39472499e-01, -1.96132600e-01,
         -6.59884736e-02,  2.15458646e-01,  1.10642262e-01,
         -1.12967663e-01, -1.66662440e-01,  6.53458089e-02,
         -6.61988482e-02,  2.78103072e-02,  1.80753037e-01,
         -4.27390598e-02, -1.26794418e-02],
        [-4.39634882e-02, -3.73256803e-02,  2.71266341e-01,
         -1.27439573e-01, -8.35725889e-02, -3.91023718e-02,
          6.86459914e-02, -7.59482086e-02,  1.40276432e-01,
          6.89839944e-02,  1.25791475e-01,  4.58881520e-02,
         -1.96522832e-01,  1.72648937e-01, -1.69809029e-01,
          7.43118152e-02, -9.96578857e-02, -8.48819017e-02,
         -1.34845808e-01, -1.16889499e-01, -7.80456662e-02,
          2.69838244e-01, -6.62383214e-02, -1.78213134e-01,
         -1.79088607e-01,  9.32146907e-02, -1.09464243e-01,
         -5.87419271e-02,  8.99098217e-02, -2.74718732e-01,
         -9.78301540e-02, -1.09839559e-01],
        [-1.00152612e-01,  1.06389999e-01,  1.75654236e-02,
         -1.69749528e-01, -2.45990515e-01,  1.07555613e-01,
         -2.33566463e-02,  1.12852510e-02, -2.27071494e-01,
          3.13509209e-03, -1.24047212e-02, -5.63272536e-02,
          2.92523243e-02, -9.35755000e-02, -8.38671532e-03,
         -6.02812953e-02,  1.25339646e-02,  1.13169931e-01,
          1.75708622e-01, -1.11307733e-01,  8.38934109e-02,
         -2.93977737e-01,  1.94232017e-01, -1.77642569e-01,
         -1.03592135e-01,  1.73462301e-01, -4.51510493e-03,
         -9.23001990e-02,  1.28269225e-01,  1.17730722e-01,
          2.80462597e-02,  1.07089564e-01],
        [ 1.18911102e-01, -5.34451678e-02,  1.31193578e-01,
          1.34636790e-01,  2.05898359e-01, -8.67949426e-02,
          1.70152128e-01, -2.23977771e-02,  2.41414309e-02,
          2.95980215e-01,  8.51008743e-02, -6.57443702e-02,
          2.29873687e-01, -5.97380586e-02,  2.54766285e-01,
         -3.24033126e-02, -2.49484435e-01,  8.39139596e-02,
          4.50593829e-02,  2.29361132e-02,  1.44427091e-01,
         -8.83509368e-02, -4.95869219e-02,  2.04126701e-01,
          1.94491729e-01,  9.45038497e-02, -1.73335988e-02,
         -1.28840819e-01, -7.92170092e-02,  7.11988136e-02,
          1.39046103e-01, -1.27744466e-01],
        [ 2.70779550e-01,  5.06182611e-02,  1.48789927e-01,
          6.14085048e-02,  3.66646707e-01,  6.01263568e-02,
         -5.79981133e-02,  1.02147475e-01,  2.11996250e-02,
          3.07478905e-01,  4.70586354e-03, -1.69216871e-01,
         -9.32486802e-02, -2.60318946e-02,  2.35118449e-01,
          6.15855344e-02,  6.03844486e-02,  5.78400418e-02,
         -3.50145280e-01,  2.71859150e-02,  1.18114233e-01,
          1.96252853e-01, -2.83737481e-01, -1.64704677e-02,
         -1.88541889e-01,  5.41725270e-02,  1.20093860e-01,
          1.22832879e-01,  1.51998520e-01, -6.62653744e-02,
          1.34731397e-01, -1.41821811e-02],
        [-1.71444222e-01,  1.98698670e-01,  4.95209843e-01,
          1.81580707e-01,  3.30854133e-02,  5.29859476e-02,
          3.16269159e-01, -1.23703694e-02, -5.87935559e-02,
          9.09622461e-02, -2.59856135e-01,  1.28221914e-01,
         -9.68886241e-02,  7.59004653e-02, -6.61173910e-02,
         -1.89575300e-01, -2.53197163e-01,  1.59153976e-02,
          2.03739643e-01,  2.01649010e-01,  9.44396630e-02,
          1.28549859e-01, -6.82633296e-02,  1.37288436e-01,
         -3.79295677e-01, -1.11321948e-01, -1.23522088e-01,
          8.97751972e-02, -9.45613682e-02,  3.62372965e-01,
         -4.02611643e-02, -1.50916547e-01],
        [ 2.59353146e-02, -2.19447222e-02,  5.65035157e-02,
          7.69653916e-02, -4.83212508e-02,  1.59632921e-01,
         -1.21839046e-02, -1.04085959e-01, -5.12341820e-02,
         -3.74854505e-01, -9.18048341e-03, -8.29375684e-02,
         -1.88400507e-01, -2.10382883e-02, -2.13834867e-01,
         -2.27496728e-01, -2.73869246e-01, -1.98363826e-01,
          1.77569598e-01,  1.16956785e-01,  7.65410364e-02,
         -7.82821402e-02, -8.62339661e-02,  1.19298488e-01,
          2.89835259e-02, -2.70299613e-01, -1.30470932e-01,
          1.59145907e-01,  2.31295507e-02,  1.84086755e-01,
         -3.00809771e-01, -1.64056271e-01],
        [ 1.28425702e-01, -4.00483981e-02, -1.37429640e-01,
         -1.81915089e-01, -2.48656180e-02,  7.94665981e-03,
         -2.84589380e-02,  1.80112109e-01, -1.51446149e-01,
          2.83220351e-01, -1.82860702e-01,  5.03003262e-02,
          1.14922486e-02, -7.26512223e-02,  1.46337077e-01,
         -2.04748839e-01, -2.64016032e-01,  3.63212568e-03,
         -8.46092552e-02, -6.86720237e-02,  3.70525837e-01,
          3.96035433e-01, -2.18625709e-01, -2.59995759e-01,
         -1.10724255e-01,  5.13448752e-02,  1.06444046e-01,
          4.61511403e-01,  1.94071829e-01, -1.39836207e-01,
          2.67801940e-01, -1.85961183e-02],
        [ 1.49312988e-01,  3.12081482e-02,  2.60374397e-01,
         -9.12420228e-02, -5.18142711e-04, -1.24813924e-02,
         -2.43841797e-01,  1.74231514e-01,  4.22916353e-01,
         -2.08383858e-01, -2.65514672e-01,  3.78577001e-02,
          1.76502392e-02,  4.67030853e-02, -4.21263017e-02,
         -1.80746447e-02, -3.52426916e-02,  1.62056405e-02,
         -1.04128994e-01,  2.27376014e-01, -1.29349867e-03,
          5.00090793e-02, -4.62410413e-02,  3.74704078e-02,
          7.28866756e-02, -1.10742331e-01,  3.55037689e-01,
         -9.92731377e-02,  1.98698893e-01,  1.22104317e-01,
          2.30189309e-01,  1.84595495e-01],
        [-1.58750683e-01,  3.12383443e-01, -6.33001924e-02,
         -6.81780651e-02, -2.60017246e-01, -5.82410842e-02,
         -2.08736390e-01, -2.60687750e-02, -2.79394746e-01,
         -2.55558282e-01, -2.93748677e-01,  1.20228687e-02,
         -3.18922251e-02,  2.56132875e-02, -3.18997264e-01,
         -2.80891478e-01, -1.97972685e-01,  1.02897502e-01,
         -1.33673489e-01, -4.85662520e-01, -2.13299796e-01,
          2.81162169e-02, -4.20195945e-02, -2.55284756e-01,
         -1.56292543e-01,  1.33249968e-01, -2.02886865e-01,
          4.23417956e-01, -4.73090596e-02,  1.03667326e-01,
         -9.92458090e-02, -1.73168123e-01],
        [ 2.09661826e-01,  3.01608711e-01,  1.31268784e-01,
          7.47841671e-02,  2.40099117e-01,  1.18851021e-01,
         -1.65404871e-01, -4.88751568e-02, -7.43702240e-03,
         -7.55880550e-02,  1.05755240e-01,  9.48178768e-02,
         -2.47329205e-01,  2.12795794e-01, -5.84142059e-02,
         -8.93939063e-02, -1.95629582e-01, -1.55309990e-01,
          5.60900345e-02, -1.08058803e-01, -1.43042445e-01,
          1.83853075e-01, -1.13374084e-01, -6.61930628e-03,
         -1.23324946e-01,  9.12747458e-02, -4.34012618e-03,
         -4.55752164e-02, -1.61439925e-01,  1.81246758e-01,
         -1.36829942e-01, -1.54285938e-01],
        [-2.93951351e-02, -1.28546432e-01,  3.00310761e-01,
         -6.44281320e-03,  7.31616141e-03,  1.59807593e-01,
         -1.22751594e-02, -1.86241399e-02, -1.07338965e-01,
         -2.42707342e-01, -1.28559515e-01, -2.04722300e-01,
          1.39581606e-01,  1.19031288e-01, -2.77961940e-01,
         -4.88330945e-02, -1.91100031e-01, -8.25484917e-02,
         -2.44286284e-03, -1.82420574e-02,  9.65827107e-02,
         -1.13062121e-01,  8.33084509e-02,  3.69341159e-03,
          2.53058553e-01, -2.84606367e-01, -1.07032053e-01,
          5.97626418e-02, -1.15856469e-01, -3.41162086e-02,
         -1.06982246e-01,  1.79841984e-02],
        [-2.00000003e-01,  2.48721763e-01,  6.31676018e-01,
          2.73291647e-01,  2.91997492e-01,  4.26437594e-02,
          6.15496673e-02,  1.33706555e-01,  2.17832223e-01,
         -7.40249753e-02, -2.29170024e-01,  1.81730002e-01,
         -3.21146816e-01,  2.73508672e-02,  2.16381215e-02,
         -7.89549798e-02, -6.22685179e-02, -7.34671876e-02,
          1.58286933e-02,  3.03977937e-01,  4.11862969e-01,
         -4.25797403e-01, -5.58625571e-02, -3.50182131e-03,
         -1.15124263e-01, -5.83711490e-02,  4.81838547e-02,
          6.59616664e-02,  9.39762443e-02,  3.89619082e-01,
         -3.07911307e-01, -2.35923305e-01],
        [ 7.78256878e-02, -1.50841624e-02, -3.71664375e-01,
          1.24553666e-01,  1.97076052e-01, -4.19567488e-02,
         -1.72522083e-01, -1.90749571e-01, -6.26342297e-02,
         -6.19654581e-02,  4.66364026e-02, -3.89769405e-01,
          1.32583817e-02, -6.20299801e-02, -9.42881852e-02,
         -1.35574847e-01,  1.76122859e-01,  1.50622189e-01,
         -2.33809184e-02, -2.15407938e-01, -4.51183766e-02,
         -2.19437145e-02,  1.01265917e-02, -1.80323645e-01,
          1.30598560e-01,  1.89824775e-01, -2.14246903e-02,
          1.19776323e-01, -4.98834103e-02, -3.38236466e-02,
          1.82846084e-01, -5.34091368e-02],
        [-1.60021141e-01,  2.53064856e-02,  3.39734912e-01,
          1.74466595e-01,  6.33993670e-02,  8.18666592e-02,
         -3.66727263e-01, -2.79545039e-02, -2.45727807e-01,
         -4.21563610e-02, -3.08783143e-03, -4.59023565e-01,
         -2.48564314e-02,  6.88185841e-02, -4.38414961e-01,
         -2.48471990e-01, -2.36347720e-01, -2.32936200e-02,
         -1.12429433e-01, -1.92235112e-01, -2.15291128e-01,
          4.29150999e-01, -1.92211960e-02,  2.49260329e-02,
          1.44663006e-01, -3.53345871e-02, -5.60217023e-01,
          4.13693152e-02, -3.18929628e-02,  8.73006135e-02,
         -2.18870372e-01, -1.34058088e-01],
        [ 2.22672939e-01, -1.00821689e-01,  3.48252878e-02,
         -8.16133395e-02, -7.83601627e-02,  7.15577453e-02,
          1.33592471e-01,  1.18864495e-02,  5.35239801e-02,
          3.04060549e-01, -3.01430136e-01,  1.31886989e-01,
         -1.01627983e-01,  2.64075458e-01, -4.54350799e-01,
          7.30203763e-02,  1.48053095e-01, -9.39267576e-02,
          1.53091177e-01,  1.09825106e-02, -1.68486550e-01,
         -2.36077935e-01, -2.04199757e-02,  1.24303967e-01,
          9.11627486e-02,  5.12376837e-02, -1.79611698e-01,
          3.95879969e-02,  2.90169507e-01,  2.94501901e-01,
          3.43512446e-02,  5.74731864e-02]],

       [[-4.17997763e-02,  1.53608918e-02, -2.01088637e-01,
         -1.36321366e-01, -1.29052281e-01, -7.25454465e-02,
         -9.99351665e-02, -2.30699126e-02, -3.98704186e-02,
         -1.08670644e-01,  1.61808848e-01,  1.91302896e-01,
          6.25665635e-02, -1.79173872e-02, -1.34215102e-01,
          6.89714029e-02,  1.48410290e-01,  6.91757575e-02,
          1.65161997e-01, -9.43649840e-03,  9.71194729e-02,
          2.16288492e-04,  1.54385015e-01, -9.63723287e-02,
         -2.06036001e-01,  1.12088053e-02, -1.83186620e-01,
          2.56771594e-01, -3.78355607e-02,  6.35932758e-03,
         -1.47429302e-01,  3.85626964e-02],
        [ 1.81400806e-01,  2.72359341e-01, -1.91467851e-01,
         -7.03596557e-03, -3.86437550e-02,  9.48613957e-02,
         -9.87319276e-02, -7.53500834e-02, -1.60104230e-01,
          7.43275210e-02, -3.90525520e-01, -4.51428056e-01,
         -3.47804576e-01,  8.96755904e-02,  3.14860120e-02,
          1.72461137e-01, -3.33632678e-02, -1.09499685e-01,
          6.42224476e-02, -1.95213140e-03, -5.41987158e-02,
          1.11393698e-01, -5.40130101e-02, -1.50370479e-01,
         -2.15648592e-01, -7.23225102e-02, -2.66206950e-01,
          1.47494495e-01,  1.81295186e-01,  1.00609720e-01,
         -6.92971423e-02, -1.98494226e-01],
        [-2.44006649e-01, -3.65253538e-01, -1.53484687e-01,
         -2.32956976e-01, -4.91646677e-01, -1.48960561e-01,
         -1.15450107e-01, -4.19259608e-01,  5.94463766e-01,
          9.61864591e-02, -5.13810702e-02,  2.28323638e-01,
          4.42769587e-01, -2.61688977e-01, -1.04780219e-01,
          4.84708846e-02,  2.79109150e-01,  2.71772891e-01,
         -3.06527354e-02,  1.91511527e-01, -3.17713350e-01,
         -1.44355819e-01,  3.41174155e-01, -8.45936909e-02,
         -3.98137681e-02, -1.09732360e-01,  1.40546426e-01,
          1.15876868e-01,  1.30639046e-01,  8.11360404e-02,
          5.81790507e-03,  3.45600784e-01],
        [-1.04978587e-02, -7.25753978e-02, -2.26469889e-01,
         -2.19525486e-01, -2.20212057e-01, -2.42031470e-01,
         -3.35602686e-02, -6.71124160e-02, -3.60288441e-01,
          1.44163981e-01,  2.45210394e-01,  2.53899526e-02,
          2.25205362e-01, -1.10305034e-01,  2.32422069e-01,
         -1.08555667e-01, -3.27712595e-01,  1.87426269e-01,
         -1.02375641e-01, -9.94642973e-02,  1.85930438e-03,
          2.05634795e-02,  1.11991003e-01, -1.96083952e-02,
         -2.33126655e-01,  2.53277570e-01, -9.79702398e-02,
          1.34369314e-01,  2.90888011e-01, -1.94668829e-01,
          3.38349044e-01,  2.72644572e-02],
        [ 1.32592365e-01, -2.77452141e-01, -1.94641680e-01,
          9.17581841e-02, -1.60299893e-02,  1.37950294e-04,
         -9.82974693e-02, -2.87818164e-01,  2.00109452e-01,
          1.29337102e-01,  1.86123416e-01, -1.35462105e-01,
          1.84527487e-01,  3.42658423e-02,  1.23361461e-01,
          2.71131452e-02,  2.37921271e-02,  1.43968931e-03,
          5.38634770e-02, -1.10323787e-01, -1.07873805e-01,
         -1.96973220e-01,  5.19824512e-02,  1.49723679e-01,
         -4.71428037e-02, -5.37683591e-02,  2.25594398e-02,
          2.20663548e-01,  1.53960288e-01, -2.55114913e-01,
          4.46078852e-02, -1.80879265e-01],
        [ 2.06572160e-01, -1.41342953e-01,  2.19000533e-01,
          3.06402177e-01,  1.76391542e-01,  6.91160560e-02,
          2.18949378e-01, -3.42447519e-01,  2.37090688e-04,
         -6.47935718e-02, -3.85420546e-02,  2.53571682e-02,
          1.92807138e-01, -1.68767795e-01, -2.40368336e-01,
          3.54298323e-01, -3.20789278e-01, -1.12150937e-01,
         -9.22082141e-02,  3.16320211e-01,  1.08201414e-01,
         -3.85879606e-01,  2.64688302e-02,  2.23056972e-01,
          5.48402429e-01,  3.17458481e-01, -1.62167341e-01,
          2.04448283e-01,  1.27692640e-01,  1.25542944e-02,
         -3.86751294e-02, -1.60848036e-01],
        [ 8.59879926e-02,  3.20472598e-01,  1.30027652e-01,
         -6.80875108e-02,  1.14878580e-01,  3.99683528e-02,
          1.39497519e-01, -4.86443564e-02,  1.97777867e-01,
          8.65700990e-02, -3.16379398e-01, -4.04830091e-02,
         -2.17846856e-01, -7.81608075e-02, -5.68841700e-04,
         -1.80265561e-01,  1.42310467e-02,  1.54111668e-01,
         -2.31021225e-01, -1.31036565e-01,  2.08395682e-02,
         -1.93309002e-02, -3.93329382e-01,  4.92032319e-02,
          9.48334578e-03, -6.50974140e-02, -1.53343245e-01,
         -7.53090084e-02, -1.39529273e-01,  1.05797194e-01,
          2.39527449e-01,  1.77343369e-01],
        [-8.67657661e-02,  2.80968040e-01, -1.77621245e-02,
         -2.27272600e-01, -6.57758415e-02, -1.94936663e-01,
          1.56310841e-01, -1.73821867e-01, -3.28409433e-01,
          1.36259124e-01,  6.48826808e-02,  3.77638713e-02,
          1.23071887e-01,  3.39356959e-02,  2.04056129e-02,
         -5.98933697e-02, -5.76186255e-02, -1.80728242e-01,
          9.24613923e-02, -2.40902796e-01, -3.23030889e-01,
          5.32881916e-02,  1.58721820e-01, -3.01159739e-01,
         -4.95792255e-02,  1.17233030e-01,  2.06761733e-02,
          4.01874065e-01,  1.93407774e-01, -3.73054370e-02,
         -1.26692951e-01,  1.07936207e-02],
        [-2.52923965e-01,  2.15110108e-01,  5.31346090e-02,
         -9.97275487e-02, -1.29297450e-01, -5.93396425e-02,
          8.63458812e-02, -3.79082114e-02,  2.00890094e-01,
          1.58294678e-01, -3.58276993e-01, -1.57830760e-01,
         -1.18645906e-01, -2.97448933e-01,  1.63302109e-01,
          1.26473024e-03, -1.23413065e-02,  1.13233618e-01,
          5.51173314e-02, -8.20162985e-03, -1.77237675e-01,
         -5.02282269e-02, -1.78727299e-01, -1.17829591e-01,
         -1.64314538e-01, -1.57096058e-01, -2.07714468e-01,
          1.82503685e-01, -1.27097011e-01,  1.40899606e-03,
          4.01383676e-02,  1.32851213e-01],
        [ 2.09148247e-02, -2.01235175e-01, -8.02722201e-02,
          1.46160617e-01, -4.45163846e-01, -5.82155995e-02,
         -3.12994719e-01, -2.25551412e-01, -1.63883746e-01,
         -1.72793418e-01, -5.82882240e-02, -2.60812789e-01,
         -5.58575056e-02, -6.49246871e-02,  4.90482859e-02,
          1.23936288e-01,  2.13257829e-03, -9.66484249e-02,
         -2.14214727e-01, -1.27550796e-01,  4.07134816e-02,
          2.90831029e-01, -9.99873206e-02, -1.70470178e-02,
         -1.55751899e-01, -5.04026830e-01, -6.84021413e-02,
         -2.58423313e-02,  9.82188135e-02, -2.45516509e-01,
          2.48660043e-01,  1.70059934e-01],
        [-2.00154334e-01,  1.77505672e-01,  4.62802559e-01,
          1.26736000e-01,  2.50222161e-03, -1.24080293e-01,
          3.28806490e-02, -7.13847429e-02,  1.79267988e-01,
          1.04446128e-01, -3.67099941e-01, -2.51809955e-01,
         -3.95195127e-01, -1.40031828e-02, -1.91216782e-01,
         -3.05443350e-02, -1.28688132e-02,  1.44825831e-01,
          2.94238757e-02,  2.02891052e-01,  9.06665921e-02,
         -1.63379475e-01, -2.39787981e-01, -6.17908649e-02,
         -6.77325726e-02,  1.98065877e-01, -2.41382927e-01,
         -2.49179870e-01,  1.60664633e-01,  2.74561912e-01,
          1.34602338e-01,  1.94238484e-01],
        [ 1.63774356e-01,  3.18247378e-02,  2.34265357e-01,
          1.26151696e-01,  1.05427109e-01,  8.03345442e-02,
          3.04280818e-02,  3.56063247e-02,  1.42989621e-01,
          1.90645516e-01, -3.62849623e-01,  1.72249436e-01,
          1.36922866e-01,  3.48245390e-02, -5.69845140e-02,
          9.90134105e-03, -1.59538519e-02, -1.89783245e-01,
         -4.20527607e-02, -8.73248205e-02,  8.29891562e-02,
         -5.22001758e-02,  8.49552825e-02,  5.02883755e-02,
          2.61083394e-01,  1.19812220e-01, -1.43122613e-01,
          7.22449869e-02,  9.79747344e-03, -9.19191241e-02,
         -1.69644013e-01, -1.43196294e-02],
        [-1.66805580e-01,  1.62925705e-01,  8.45796838e-02,
         -2.49833405e-01, -2.01416939e-01, -2.23298833e-01,
          2.89838761e-01, -2.21256852e-01,  3.64551097e-01,
         -1.10767685e-01,  1.40375704e-01, -8.15727636e-02,
         -2.18298465e-01, -2.85430610e-01,  9.09422114e-02,
         -5.89145720e-02,  4.33545023e-01,  2.90637672e-01,
         -2.87077650e-02,  3.84851456e-01,  4.22391631e-02,
          4.66963928e-03, -3.59937176e-02, -8.75443146e-02,
         -3.93803805e-01, -1.64465711e-01,  3.72682549e-02,
         -1.67966485e-02,  1.38198376e-01,  1.70059055e-01,
          1.43723458e-01,  2.44186953e-01],
        [-5.65971099e-02, -1.46941155e-01, -5.39494380e-02,
          1.47525415e-01, -5.67559712e-02,  3.44722830e-02,
         -3.72945517e-01, -2.13941336e-01,  1.14632897e-01,
         -3.92657310e-01,  4.35935669e-02, -2.61888921e-01,
         -1.20243482e-01,  5.91395050e-02,  1.50386631e-01,
          3.01109515e-02,  3.66623178e-02, -1.79031804e-01,
         -1.67306304e-01, -1.31942034e-02, -8.81247744e-02,
          2.06646591e-01, -2.89599955e-01, -2.40787864e-01,
         -9.13787261e-02, -7.23340586e-02, -1.07579246e-01,
          3.23801637e-01,  1.45451605e-01,  1.06012791e-01,
         -3.81442867e-02,  7.25883469e-02],
        [-8.18051472e-02,  4.80762571e-01, -6.06819242e-02,
          5.97222662e-03,  3.39130908e-02, -1.27367437e-01,
         -2.16903418e-01, -1.18586592e-01,  1.75864026e-01,
         -1.61610544e-01, -2.68665832e-02, -2.62660384e-01,
         -7.72301108e-02,  1.47078499e-01,  2.95719486e-02,
          1.97791070e-01, -5.50355390e-02, -7.72140697e-02,
         -5.19459844e-02, -1.30229890e-01,  3.25387008e-02,
          1.36103099e-02,  1.56123236e-01,  3.53160739e-01,
          1.16243817e-01, -3.47557724e-01, -7.27698673e-03,
         -2.39184096e-01,  1.45195238e-02, -1.77232593e-01,
          2.07727954e-01, -3.44832465e-02],
        [-1.49604008e-01, -8.98843929e-02,  9.40398499e-03,
         -1.38401434e-01, -9.58739668e-02,  2.07744502e-02,
         -1.90953426e-02, -5.37007069e-03, -7.09578767e-02,
          1.89113364e-01, -1.73350140e-01,  2.35359475e-01,
          1.08866349e-01, -1.85288101e-01, -6.02068044e-02,
          2.96532232e-02, -5.79774380e-02, -1.66108415e-01,
         -7.50612468e-02,  7.07938224e-02, -2.48549461e-01,
         -9.54849273e-02, -8.26849230e-03, -4.45124283e-02,
         -1.47749484e-01, -5.30930161e-02, -1.32629052e-02,
          2.59360373e-02, -5.74109750e-03, -1.76119953e-02,
          3.97192389e-02,  2.83302050e-02],
        [-2.27639943e-01, -1.71537057e-01,  4.64539289e-01,
         -1.77754924e-01, -4.91259247e-02, -2.13879421e-01,
          2.63168216e-02, -2.34441370e-01,  8.91578496e-02,
         -1.20883361e-01, -4.00688440e-01,  4.30225432e-02,
         -8.41003880e-02, -4.25966591e-01, -1.16461553e-01,
         -1.51057884e-01, -1.32854447e-01, -1.63021535e-01,
          7.01238587e-03, -1.86311990e-01, -7.64981955e-02,
         -4.29047197e-02, -1.33408219e-01,  2.24677660e-02,
          1.17522269e-01, -1.91781983e-01, -1.37363955e-01,
         -1.16769150e-01, -1.53912246e-01,  1.19029157e-01,
         -2.21701786e-01,  1.78937882e-01],
        [ 1.53247099e-02, -1.67554155e-01,  1.72882929e-01,
         -1.02258652e-01, -5.32206409e-02,  1.38878301e-01,
          9.34445634e-02,  1.05698379e-02,  5.44536263e-02,
          7.38913119e-02,  3.83815505e-02,  6.77277595e-02,
          4.69377190e-02, -1.62915364e-01, -2.03817755e-01,
         -1.89153433e-01, -1.32013455e-01,  4.93240263e-03,
         -1.33261591e-01, -4.84271422e-02, -1.19923674e-01,
          9.02150348e-02,  3.47441845e-02, -2.50082552e-01,
         -3.41662377e-01,  1.71737969e-01, -3.85033176e-03,
         -2.26723507e-01, -9.32239741e-02, -3.43520455e-02,
         -1.47509396e-01,  7.90845379e-02],
        [ 5.00737019e-02,  9.12771299e-02,  9.23858359e-02,
          1.24580957e-01, -2.40500525e-01,  3.01072568e-01,
         -9.12028085e-03,  1.16858728e-01,  5.49257621e-02,
         -1.31884828e-01,  2.22244505e-02,  3.06004286e-02,
          1.03965223e-01, -2.82391068e-02, -2.83278406e-01,
         -4.06506844e-02,  1.02293603e-02, -1.10212110e-01,
         -3.05544771e-02,  1.32145375e-01, -6.13920912e-02,
         -2.77140647e-01,  1.44178495e-01,  1.28838897e-01,
         -3.61565873e-02,  4.67708483e-02,  1.69478487e-02,
         -1.49830729e-01, -1.18516959e-01,  4.51542661e-02,
         -2.49328807e-01,  3.18139017e-01],
        [ 9.07461792e-02,  8.12884346e-02, -2.33448729e-01,
         -1.20674916e-01, -6.44886121e-02, -2.03713194e-01,
          3.36883254e-02,  3.81898950e-04, -3.57692122e-01,
          2.54145056e-01,  8.44556168e-02, -1.46494191e-02,
         -2.06005350e-01, -3.01681906e-02, -7.03040361e-02,
          4.89946939e-02, -3.32889318e-01,  6.89697191e-02,
         -4.24921513e-02, -2.02377155e-01,  2.77027369e-01,
          2.14355230e-01, -1.86841652e-01,  1.16538718e-01,
          5.26397564e-02,  2.41004139e-01, -1.48749575e-01,
          1.16975896e-01,  1.33105382e-01,  1.11304559e-01,
          2.75638074e-01, -1.78919479e-01],
        [-1.23669906e-02,  2.52729859e-02, -4.58425935e-03,
         -1.41092882e-01, -3.54154967e-02,  1.17267847e-01,
          7.05006495e-02, -7.71102831e-02,  1.63185120e-01,
          2.47120783e-01, -2.97826469e-01, -1.42775312e-01,
         -8.48156661e-02,  3.53780799e-02, -4.18852754e-02,
          4.45334539e-02,  1.40149280e-01, -5.32126464e-02,
         -2.44699746e-01,  7.23362714e-02, -6.46134093e-02,
         -6.35831580e-02,  7.16460496e-02, -3.75217319e-01,
         -2.61881530e-01, -8.15913603e-02, -1.93543419e-01,
         -8.46273601e-02,  2.09166378e-01,  1.93022378e-02,
          9.90039930e-02,  7.01896250e-02],
        [ 3.37240025e-02,  7.60052949e-02,  2.92641312e-01,
          5.24232984e-02,  1.70859993e-01,  2.18143612e-01,
          2.27167293e-01, -3.10935348e-01, -3.08560450e-02,
         -2.26085305e-01, -1.78403571e-01,  3.37254643e-01,
          1.13764726e-01,  1.15323067e-01,  1.39025062e-01,
          7.19386190e-02,  4.78221774e-02, -5.17937019e-02,
          4.92614694e-02,  1.46067426e-01, -4.27180864e-02,
          3.92706180e-03,  4.10822220e-02, -5.64561039e-02,
         -2.88462400e-01, -1.22617610e-01,  8.37711319e-02,
         -4.00128737e-02,  3.26995999e-02,  3.27418566e-01,
          6.02692738e-02,  2.57239252e-01],
        [ 6.44294992e-02,  1.69085011e-01,  1.31729424e-01,
         -2.50010610e-01, -1.82953030e-01, -5.99742793e-02,
          1.62752256e-01, -1.07248478e-01,  2.13299453e-01,
         -1.49378493e-01, -1.32468432e-01, -8.56515616e-02,
          1.98411141e-02, -1.59041703e-01, -1.24328285e-01,
          1.10266902e-01, -6.10481575e-02,  1.09541148e-01,
          1.69609323e-01,  3.38262975e-01, -2.65755624e-01,
         -1.11986458e-01, -8.31811205e-02, -2.58588612e-01,
         -2.03656748e-01, -1.71986252e-01, -1.09863937e-01,
          6.70942366e-02,  2.26757769e-02,  2.05601096e-01,
          4.80307788e-02,  1.06798470e-01],
        [ 1.36184126e-01, -2.33314425e-01,  5.13885133e-02,
          1.36567563e-01, -3.33733559e-02,  6.41225055e-02,
          7.69933686e-02, -2.48387888e-01, -4.80263643e-02,
          1.72694653e-01,  1.42515242e-01, -1.20952211e-01,
          4.37176228e-01, -4.72004786e-02, -1.55733481e-01,
          7.11014792e-02, -2.70504594e-01,  9.42144729e-03,
          1.93209201e-03,  3.91741723e-01, -2.06903994e-01,
         -1.46161780e-01,  1.48812175e-01, -1.36475235e-01,
         -1.00032622e-02, -2.33881012e-01,  5.38454354e-02,
          3.70064765e-01,  1.74405903e-01,  4.47512902e-02,
          8.29288289e-02, -5.65010607e-02],
        [ 1.67999357e-01,  1.47652179e-01,  1.11131236e-01,
          1.15725443e-01,  3.22598405e-02,  2.28365883e-01,
          4.10175472e-02, -6.13453146e-03,  9.24115255e-02,
          9.36765000e-02, -3.52698937e-02, -3.17897439e-01,
          1.03217408e-01, -2.93789152e-02,  7.48684034e-02,
          7.41055533e-02,  1.81995660e-01,  9.90728214e-02,
         -9.20696277e-03,  5.94640411e-02, -4.96217608e-03,
          4.13369983e-02,  4.24202159e-02,  1.68298140e-01,
          1.95037410e-01, -1.47241041e-01,  5.46478145e-02,
          1.01803746e-02,  1.93093643e-01,  9.80313942e-02,
          1.55745015e-01,  3.36916834e-01],
        [ 1.08684152e-01, -2.86918203e-03,  1.25682890e-01,
          4.10699904e-01,  2.84204811e-01,  1.72071308e-01,
          1.34721413e-01, -1.72753632e-01,  2.74729878e-02,
          3.25084001e-01, -4.02241528e-01,  1.81611404e-01,
         -7.84924068e-03, -1.50265962e-01, -3.59195471e-01,
         -1.30380556e-01,  4.08938974e-02, -2.88374037e-01,
          2.97866166e-01,  4.15050909e-02, -2.12105699e-02,
         -3.73767078e-01, -2.13058904e-01,  4.93037015e-01,
          2.62661010e-01,  5.54911494e-02, -3.69795799e-01,
         -2.44728044e-01, -1.73149943e-01,  3.95862944e-02,
         -5.94855174e-02, -3.20049934e-02],
        [ 2.79482305e-01,  1.23519801e-01, -8.40786770e-02,
          1.00536615e-01,  9.02068540e-02,  7.79172331e-02,
         -2.99206674e-02, -3.24889392e-01, -2.93702275e-01,
         -1.86461762e-01,  4.41453569e-02,  1.11302264e-01,
         -2.56739467e-01,  1.95744470e-01, -1.14087962e-01,
         -3.54125388e-02,  6.34796098e-02,  1.59210395e-02,
         -6.69330731e-02, -9.85763036e-03, -3.68683219e-01,
          3.87574844e-02,  6.51608929e-02,  5.90211526e-02,
         -2.17814162e-01, -1.36224791e-01, -6.93496689e-02,
          6.69286251e-02, -3.63405198e-02,  2.11468905e-01,
         -6.55887872e-02,  3.54712158e-02],
        [-3.60030234e-02,  1.61365396e-03,  3.68547410e-01,
         -2.13220090e-01, -3.47727150e-01, -1.46382332e-01,
          6.66955346e-03, -1.72171053e-02, -1.09505304e-03,
         -2.01808289e-01, -1.62828416e-01, -9.11967233e-02,
          6.99328482e-02, -2.03101888e-01,  2.14427970e-02,
          2.04013899e-01, -2.41818205e-02,  3.78326699e-02,
          2.32830808e-01,  9.15594548e-02, -5.83421513e-02,
         -2.72649348e-01, -1.13782488e-01, -5.07609881e-02,
         -5.01572639e-02, -1.41637195e-02, -4.61480558e-01,
          1.16617583e-01, -8.76052380e-02,  3.91442657e-01,
         -5.58057614e-02,  6.35230169e-02],
        [-1.02561712e-01, -2.45417312e-01,  2.09225595e-01,
         -6.05981164e-02,  7.75067732e-02,  8.63361061e-02,
         -2.91619569e-01, -6.51385963e-01,  2.68827885e-01,
         -6.09362088e-02, -6.03990592e-02, -6.64832741e-02,
         -6.49333820e-02,  1.39798239e-01,  1.72552228e-01,
          3.82060446e-02,  3.88389289e-01,  1.38445854e-01,
          1.23896033e-01,  3.99029106e-01,  1.16183432e-02,
          1.50414631e-01,  3.40438575e-01, -2.25190252e-01,
         -1.70567632e-01, -1.11850046e-01,  3.34512234e-01,
          1.69353351e-01,  1.34047791e-01,  2.11581543e-01,
         -4.94159348e-02,  3.23449552e-01],
        [ 2.65826911e-01, -1.98513001e-01, -4.07466412e-01,
          1.73749998e-01,  1.58276856e-01,  2.24820331e-01,
          6.09206706e-02, -1.18923917e-01,  8.27535987e-02,
         -5.01164943e-02,  2.81254798e-01, -8.75226930e-02,
          1.61416396e-01, -3.81331518e-03, -2.27645651e-01,
          5.65689504e-02, -4.19517644e-02,  1.09345488e-01,
         -5.65701500e-02,  4.93767560e-02, -8.73829722e-02,
         -1.97734833e-02,  2.64825765e-02, -9.21135992e-02,
          1.29793018e-01,  3.04357052e-01,  7.35196425e-03,
         -2.81589944e-02,  4.67693135e-02,  1.00933295e-02,
          1.99170828e-01, -2.59283304e-01],
        [-5.28999753e-02,  1.55445680e-01,  3.87736380e-01,
          4.95716810e-01,  1.50139406e-01,  5.91569878e-02,
          1.53770670e-01,  1.31332606e-01,  1.89643860e-01,
         -7.22936122e-03, -4.09136683e-01,  2.11379379e-01,
         -3.24237853e-01,  6.20834306e-02, -1.10284336e-01,
          2.61843681e-01, -3.61559749e-01, -2.13042632e-01,
          2.42293954e-01,  9.06736851e-02,  1.62153929e-01,
         -4.66542751e-01, -4.11577255e-01,  1.79203302e-01,
          2.49382377e-01,  2.01363206e-01, -4.70092088e-01,
         -3.64637226e-01, -1.00585550e-01,  2.42561087e-01,
          2.72714794e-02, -7.23803714e-02],
        [ 6.07480220e-02,  1.24544144e-01,  8.47535655e-02,
         -1.71308473e-01, -3.75996709e-01,  1.46444410e-01,
         -1.29385754e-01, -2.37835422e-01,  4.43642229e-01,
          1.04633801e-01, -3.37776169e-02, -4.84067500e-02,
          8.67857635e-02,  2.45731175e-01, -9.50495079e-02,
          7.63367862e-02,  4.63404208e-01, -2.91795935e-03,
          1.16191626e-01,  2.28681713e-01, -1.37568220e-01,
         -4.89925928e-02,  4.63428766e-01,  5.94268963e-02,
          1.21339925e-01, -2.38142848e-01,  5.67229129e-02,
          3.03631365e-01, -5.35536222e-02,  2.82853037e-01,
         -6.96924478e-02,  3.24720323e-01]],

       [[ 1.19148463e-01, -4.05913107e-02, -1.89799368e-02,
          1.25266492e-01, -1.04446009e-01,  7.14987814e-02,
          8.15742984e-02,  3.70965868e-01,  1.33192718e-01,
          1.06724007e-02,  2.93687224e-01,  8.87768790e-02,
          2.20771298e-01,  2.88343038e-02,  8.51212963e-02,
          4.78750654e-02,  1.43811047e-01, -7.37056434e-02,
          7.92616755e-02,  1.94515333e-01,  1.03652246e-01,
         -1.40298322e-01,  2.99580604e-01,  1.15274459e-01,
         -3.38715315e-02,  1.12789012e-01,  1.16973370e-01,
          1.89202726e-01, -1.00860722e-01, -7.40938708e-02,
         -2.38488942e-01,  7.53051266e-02],
        [-1.75816230e-02,  4.69339103e-01,  2.02562094e-01,
         -2.76153505e-01, -6.11399561e-02,  4.70062532e-02,
         -7.46743008e-02,  1.08103313e-01,  4.96623255e-02,
          7.80021697e-02,  2.25506052e-01, -2.13544860e-01,
         -7.26945326e-02,  2.46946812e-01,  2.23806277e-01,
          1.46930918e-01,  2.10817069e-01, -2.03320071e-01,
          2.11212918e-01, -2.60033403e-02, -6.55798167e-02,
         -5.73155247e-02, -1.85748130e-01, -3.93896431e-01,
         -2.37003565e-01,  1.29336357e-01, -1.34871393e-01,
          5.19410335e-02, -6.63644597e-02, -1.32179379e-01,
          5.77128567e-02, -9.86627042e-02],
        [ 8.05205330e-02, -3.38141955e-02, -6.70024529e-02,
          2.47903258e-01,  1.46766990e-01,  3.53427455e-02,
          1.83155134e-01,  2.99966574e-01, -2.20338583e-01,
         -2.57869549e-02, -1.13296799e-01,  1.84489965e-01,
          1.60749406e-01, -8.63369182e-02,  1.29077062e-01,
         -1.89089611e-01, -2.62115389e-01, -1.53638646e-01,
         -2.05512866e-01, -9.37199518e-02,  4.24585611e-01,
         -2.65777856e-01,  1.43823354e-02,  3.26802373e-01,
          2.23969579e-01,  3.20083201e-01, -1.28177996e-03,
          6.25515077e-03,  2.14971706e-01, -9.40342098e-02,
         -2.38819078e-01, -1.58654079e-02],
        [-5.42312376e-02,  6.46922067e-02, -1.81686625e-01,
          1.18186384e-01,  8.05292428e-02, -8.57856944e-02,
         -1.55367758e-02,  8.93984064e-02, -1.25267595e-01,
         -1.83941603e-01,  1.93603441e-01, -6.49117306e-02,
          1.56620190e-01, -7.42188543e-02, -1.71389766e-02,
          2.22884029e-01,  1.76491350e-01, -4.14943844e-02,
         -5.30701764e-02,  3.29001844e-01,  8.53489488e-02,
          2.13752985e-01,  1.44334286e-01,  1.60983622e-01,
          1.79534010e-03,  1.07914649e-01, -1.59284934e-01,
          3.00414413e-01,  6.86604455e-02, -2.88800836e-01,
          2.26423085e-01, -2.51831412e-01],
        [ 1.06735818e-01,  5.16839437e-02, -3.25935394e-01,
          4.53199893e-02,  1.76696077e-01,  5.10825329e-02,
          7.15040639e-02,  1.56016126e-01,  1.93616837e-01,
          8.24970566e-03,  7.07666501e-02,  1.14853084e-01,
         -3.83748531e-01,  9.98169705e-02,  2.80338943e-01,
         -1.00090258e-01,  1.08380742e-01,  8.21122527e-02,
         -1.01974726e-01,  1.10980280e-01,  7.08264410e-02,
         -1.29754454e-01, -1.30235180e-01,  9.00180563e-02,
          1.73485324e-01,  3.64067554e-02,  2.45253406e-02,
         -4.00736034e-02, -5.95970489e-02,  1.03227729e-02,
         -5.59987612e-02,  8.05626214e-02],
        [-2.88284630e-01,  1.40775517e-01, -2.12149158e-01,
          7.70748258e-02,  1.23330995e-01, -7.71951154e-02,
          1.62852868e-01,  2.26289809e-01, -3.74980599e-01,
          1.14238754e-01, -6.18233830e-02,  4.62944135e-02,
         -2.77898729e-01,  5.83265610e-02,  2.31737450e-01,
         -9.97251943e-02, -7.38127753e-02,  1.05839714e-01,
         -2.95154266e-02, -9.43393633e-02,  2.18828365e-01,
          3.48142326e-01, -2.23008826e-01,  7.60100782e-02,
          3.50503564e-01,  2.29513180e-02,  9.09053534e-02,
          1.54912304e-02,  3.95875834e-02, -4.01502587e-02,
          4.63252775e-02,  8.86047930e-02],
        [ 2.25473776e-01,  1.41447723e-01, -3.98290530e-02,
         -5.40011287e-01,  6.76722601e-02, -5.70716448e-02,
         -1.15784720e-01, -1.44702300e-01,  4.49908860e-02,
         -1.65415123e-01,  7.80857652e-02, -2.50404269e-01,
          3.13764781e-01, -1.32957354e-01, -6.05153553e-02,
         -9.68370587e-02,  1.17065810e-01,  2.16040388e-03,
         -7.52236620e-02, -1.37205496e-01, -4.54857260e-01,
         -1.04286738e-01,  1.19748428e-01,  9.57658738e-02,
         -3.33056509e-01, -3.77757519e-01,  1.37282103e-01,
          1.15760788e-03, -1.30388319e-01,  2.65891887e-02,
         -5.29994592e-02,  1.63567916e-01],
        [-8.81673172e-02,  1.02032281e-01, -1.56593844e-01,
          1.51246348e-02,  1.31705940e-01, -1.15778260e-02,
          1.23996936e-01,  1.90870032e-01, -5.40101640e-02,
         -1.61942720e-01,  2.40871459e-02, -2.35188454e-02,
          2.14450192e-02, -5.39358780e-02, -8.32040161e-02,
          1.31403476e-01,  1.44422293e-01, -2.83289999e-01,
         -1.80695564e-01, -1.36097148e-01, -1.14465840e-01,
         -3.15962806e-02,  1.56074956e-01,  1.11070618e-01,
          2.01464310e-01,  2.23912075e-01, -5.93671426e-02,
          1.92933023e-01,  2.00685352e-01, -1.62639260e-01,
          3.79105248e-02, -7.77747855e-02],
        [ 8.08739513e-02,  1.15161918e-01,  2.24179905e-02,
          5.60088269e-02, -1.87098294e-01,  8.55359808e-02,
         -1.60549417e-01, -3.60958017e-02,  1.48478344e-01,
         -6.77865446e-02, -2.85206556e-01, -7.95449037e-03,
          1.07737124e-01,  5.89125045e-02, -1.46760240e-01,
         -8.19681287e-02,  3.93229313e-02, -1.71917096e-01,
          1.94024853e-02,  7.32183903e-02, -1.27276599e-01,
         -1.17457099e-01, -6.73415288e-02, -3.28661591e-01,
         -2.48044923e-01,  3.56708514e-03, -7.10240901e-02,
          1.00516677e-01, -7.12764487e-02,  1.41847447e-01,
         -5.69329821e-02,  1.20628037e-01],
        [-2.76413839e-02,  2.12863341e-01,  3.05428840e-02,
          9.99638289e-02, -9.43610072e-02,  1.12416327e-01,
          6.38932288e-02, -1.01538375e-01,  1.12737365e-01,
          1.90014273e-01, -2.96232969e-01, -8.02809000e-02,
         -2.47608751e-01, -6.43909276e-02, -1.90070540e-01,
          1.45435035e-01,  4.73633185e-02, -1.53299034e-01,
         -2.21374426e-02, -9.61788148e-02,  2.03988269e-01,
         -1.64118372e-02, -2.44160488e-01,  1.52899355e-01,
          3.28805000e-02, -4.95006256e-02,  7.59764016e-02,
          1.18404388e-01,  2.88842935e-02, -6.73592016e-02,
          2.68192533e-02, -6.45240247e-02],
        [-5.14731705e-02,  4.45185304e-02,  6.97961375e-02,
         -2.40964904e-01,  2.62277406e-02,  2.81421263e-02,
          7.07834437e-02,  1.68734994e-02, -3.01746547e-01,
          5.89330420e-02,  1.55852037e-03, -2.31145605e-01,
          1.12796925e-01,  7.60808811e-02,  2.97180980e-01,
         -8.85773152e-02, -3.37737799e-01,  4.02074680e-02,
         -2.10345872e-02, -1.63407311e-01, -1.75695449e-01,
          3.66484672e-01, -1.10393509e-01, -1.22560970e-01,
         -1.54093772e-01,  1.33514479e-01, -1.39044449e-01,
          3.14243920e-02,  8.67398381e-02,  8.22791308e-02,
          1.41221974e-02, -1.74913466e-01],
        [-4.43233848e-02, -2.83472747e-01,  1.22053534e-01,
         -5.32468967e-02, -1.14603877e-01, -4.10892852e-02,
          1.75240133e-02,  3.40655714e-01, -1.46010518e-01,
          1.78853631e-01, -1.42379969e-01,  1.60514843e-02,
          3.55336905e-01, -6.59850091e-02,  2.88632572e-01,
         -1.47755342e-02,  2.64172908e-02,  8.76782015e-02,
          1.65338919e-01,  2.09203511e-01,  2.94801053e-02,
          1.64134666e-01, -9.64803398e-02,  6.43993244e-02,
          1.67935878e-01,  1.16773844e-01, -3.74178365e-02,
          1.56485170e-01, -3.43781710e-01, -1.91153631e-01,
          7.73988366e-02,  1.74389686e-02],
        [ 1.35889903e-01,  2.29919419e-01, -2.44903684e-01,
         -2.69754529e-02, -1.08981520e-01,  4.78915498e-02,
         -5.58569357e-02, -4.01308954e-01,  1.30462006e-01,
         -1.91126153e-01,  5.23877084e-01, -1.32795528e-01,
          3.86003226e-01,  1.25623733e-01,  4.99151275e-02,
          1.71773098e-02,  2.12752789e-01, -1.34441078e-01,
          1.34148255e-01, -8.04861337e-02, -2.63545127e-03,
         -6.89059347e-02,  2.37812161e-01,  3.35010067e-02,
         -1.23340100e-01, -9.18115675e-02, -5.74850105e-02,
          8.89509767e-02,  6.16101623e-02, -1.26425937e-01,
         -8.01100656e-02,  2.98737228e-01],
        [-9.80729237e-02,  1.78302959e-01, -7.29352534e-02,
          1.27838120e-01,  3.96369733e-02, -7.12147057e-02,
          2.30185390e-01,  9.55063924e-02, -7.84373563e-03,
          9.99664962e-02,  1.40463129e-01,  4.82723378e-02,
         -2.61196256e-01,  8.99863318e-02,  1.62413612e-01,
          1.30304709e-01,  2.08225116e-01, -1.53416663e-01,
          1.14848930e-03,  2.55347013e-01,  1.20523110e-01,
         -2.50994116e-01, -2.93951243e-01, -3.65612959e-03,
         -1.10218957e-01,  5.64566404e-02,  1.81137159e-01,
         -9.51156914e-02,  3.38740259e-01, -7.05296546e-03,
          2.29241267e-01, -4.20810692e-02],
        [ 1.18280796e-03,  5.38510799e-01,  6.73826933e-02,
         -1.03258833e-01,  3.76525931e-02, -1.01108380e-01,
         -1.90529004e-01,  2.06947982e-01, -7.93597698e-02,
          9.48092118e-02,  3.62406448e-02,  4.74674278e-04,
          1.96580626e-02,  2.00414330e-01, -3.44485343e-02,
         -2.60873139e-02, -3.84348221e-02,  1.68461800e-02,
         -3.54256406e-02, -1.50017411e-01,  3.20356861e-02,
          5.94148301e-02,  1.76385865e-02,  3.84927601e-01,
          1.51145384e-01, -4.06097062e-02,  1.41927928e-01,
         -5.91720231e-02, -3.58538069e-02,  4.27068816e-03,
          5.76577038e-02, -3.11465144e-01],
        [ 3.72968055e-02, -1.98524535e-01,  1.28805071e-01,
         -1.53916299e-01,  7.92936459e-02, -6.35709912e-02,
          7.35937282e-02,  9.29718688e-02, -2.91409969e-01,
         -1.11336358e-01,  1.16634384e-01,  2.80993491e-01,
          3.17569822e-01, -8.96614939e-02, -2.27352809e-02,
          1.14397965e-01, -2.79544204e-01, -1.46906093e-01,
         -1.41670153e-01, -2.17837960e-01, -2.55498737e-01,
          9.55425799e-02,  2.81972289e-01, -1.91255242e-01,
          2.25478560e-01,  1.02383308e-01,  3.98626104e-02,
          2.86958277e-01,  2.68738773e-02, -2.01782972e-01,
         -1.97816446e-01, -9.38735828e-02],
        [-6.88466653e-02, -3.65945250e-01, -4.50867601e-02,
         -3.48122716e-01, -3.10892016e-01, -4.93640155e-02,
         -1.02000788e-01, -3.71112749e-02, -1.42498761e-01,
         -2.83690654e-02,  2.90888697e-02,  3.71987343e-01,
          1.98420003e-01, -1.07972451e-01, -2.28737488e-01,
         -5.85875921e-02, -2.66409606e-01,  4.46937755e-02,
          1.42231777e-01, -2.94152915e-01, -1.30066127e-01,
         -8.41184780e-02,  8.46805722e-02, -2.20485374e-01,
         -2.09098071e-01, -1.40830740e-01,  5.88284247e-02,
         -4.93588969e-02,  6.75252751e-02, -2.56223455e-02,
          1.81673378e-01, -2.28974111e-02],
        [-1.79421529e-01, -2.08252192e-01,  9.93603021e-02,
         -8.86404812e-02, -7.88612068e-02, -1.00768819e-01,
          1.36580393e-01, -1.45610645e-01, -1.84904054e-01,
          1.85662732e-02,  1.09482452e-01, -6.77584931e-02,
          1.04166783e-01, -5.67994490e-02, -5.54863960e-02,
         -8.14266503e-02, -3.61074954e-01, -3.95084396e-02,
         -5.93552031e-02, -1.69867948e-01, -2.25217178e-01,
          6.62787482e-02,  6.00702129e-02, -1.63224965e-01,
         -1.74645692e-01,  2.15590864e-01, -2.83134803e-02,
         -1.39382333e-01, -7.29359090e-02,  1.27000157e-02,
         -1.00146718e-01, -1.17432728e-01],
        [ 3.98150943e-02,  8.20732564e-02,  1.02135718e-01,
          3.38513963e-02, -8.30199569e-02,  3.12828794e-02,
          1.27193853e-01,  9.25199091e-02, -6.19807690e-02,
          6.30493388e-02, -1.02146119e-01,  1.08538844e-01,
          8.06739107e-02,  7.20340014e-02, -1.30653247e-01,
         -1.37574494e-01,  9.04108807e-02,  1.98664770e-01,
          1.32301643e-01,  4.96277288e-02,  7.48014376e-02,
         -1.33177891e-01,  1.62907653e-02,  1.72307149e-01,
         -1.46345511e-01, -1.37115836e-01,  8.60082880e-02,
          1.18173249e-01, -2.58274693e-02,  1.72691476e-02,
         -8.52140933e-02,  2.38692150e-01],
        [-8.25759768e-02,  1.82852581e-01, -3.03916782e-01,
          2.32508183e-02, -1.57177728e-02, -7.36005083e-02,
         -3.20270032e-01, -6.73799068e-02,  1.45330682e-01,
          2.13041380e-01,  1.73970580e-01, -1.02442324e-01,
         -6.71855882e-02,  9.42820385e-02, -1.25880182e-01,
          3.32947541e-03,  2.23967329e-01,  1.26080737e-02,
         -2.16427654e-01,  1.94651932e-01,  1.75631549e-02,
         -3.86129692e-02, -9.19441357e-02, -6.78396225e-02,
         -2.52657056e-01,  9.91601348e-02, -2.65390873e-01,
         -1.82810575e-01,  2.01101955e-02, -2.59963095e-01,
         -1.03594214e-01, -4.33402415e-03],
        [ 9.50112268e-02,  8.60971063e-02,  8.52880627e-02,
         -8.66036862e-02,  1.35340288e-01, -5.01708649e-02,
          2.64950901e-01,  6.55375272e-02, -1.63135737e-01,
          3.31829786e-01,  6.98828772e-02,  4.82179895e-02,
         -4.35035154e-02,  1.21129721e-01,  2.36193910e-01,
         -1.98958348e-02, -9.59789455e-02,  2.62023322e-02,
         -8.04182291e-02,  7.98894558e-03, -6.69998955e-03,
          7.78002217e-02, -6.17116950e-02, -2.39070773e-01,
         -1.31722957e-01,  1.24058470e-01, -1.07028753e-01,
          1.54224649e-01,  1.79274768e-01,  9.03839432e-03,
         -1.67095453e-01, -1.71146780e-01],
        [-1.21793933e-02, -4.31397632e-02,  4.01127905e-01,
          9.65516716e-02, -1.91024002e-02,  5.70725203e-02,
          9.57821682e-02, -3.83886516e-01, -8.40677097e-02,
         -1.69790626e-01, -2.38409802e-01, -9.90857184e-02,
         -1.36304438e-01, -2.17713509e-03,  6.93728402e-02,
         -7.17141852e-02,  4.88814861e-02, -1.00534596e-01,
         -1.00056455e-01,  1.25869960e-01,  1.81360826e-01,
          2.32832432e-01, -1.34792805e-01,  2.14442592e-02,
         -3.51995170e-01, -4.48459983e-01,  8.54308382e-02,
         -1.91516966e-01, -1.65348187e-01, -7.86607191e-02,
          2.34603267e-02,  1.61062285e-01],
        [ 5.26770018e-05, -1.19044945e-01, -2.57064998e-01,
         -1.27718166e-01,  8.95523373e-03,  1.42346814e-01,
         -3.76289301e-02, -1.21626437e-01, -3.41949761e-01,
         -3.95469040e-01,  2.73971390e-02, -3.37691158e-02,
          1.68060154e-01, -8.71489421e-02,  1.33951694e-01,
         -5.49344905e-02, -8.50301757e-02, -1.07166290e-01,
          8.16311315e-02, -5.29556461e-02,  9.15139839e-02,
          1.12138413e-01, -1.67435288e-01, -1.44871995e-01,
          1.43581808e-01,  5.92763536e-03, -1.34032503e-01,
          6.39532954e-02, -5.32199740e-02,  3.83217484e-02,
         -2.98942566e-01,  1.08861573e-01],
        [ 5.49328700e-02,  2.41630778e-01,  2.85798870e-02,
          1.85570210e-01,  3.78274977e-01,  2.21551079e-02,
          2.06138894e-01,  2.69942850e-01, -1.93769515e-01,
          4.80331481e-01, -8.05602074e-02,  1.19278149e-03,
         -3.12343836e-01,  2.38449663e-01,  5.05582750e-01,
         -1.82197914e-01, -2.34633580e-01,  7.77420998e-02,
         -4.96360920e-02, -9.66795310e-02,  3.18277657e-01,
          2.68352509e-01, -4.97885615e-01,  1.10575289e-01,
          4.14975613e-01,  1.46191716e-01, -2.36111563e-02,
          5.15535995e-02,  4.79079485e-02, -2.23768689e-02,
          3.01299971e-02,  1.57137707e-01],
        [-1.76299155e-01, -1.10434003e-01, -3.25088762e-02,
         -1.36950076e-01, -2.49716386e-01, -6.45855516e-02,
          1.00777701e-01,  1.71630606e-01,  6.04658946e-02,
         -1.58609208e-02, -3.64520937e-01,  9.51236337e-02,
         -2.53634453e-01,  5.42898662e-02, -1.44154072e-01,
         -2.48209760e-02,  9.50316414e-02, -2.49042869e-01,
         -2.32869145e-02, -1.39753863e-01, -2.03839708e-02,
          1.30689040e-01, -8.23939517e-02,  1.77175194e-01,
         -1.24632441e-01,  2.58232087e-01, -1.36396930e-01,
         -1.96253538e-01,  1.80886686e-01,  2.91712005e-02,
         -1.09354466e-01, -8.51261429e-03],
        [-1.86051577e-01, -2.28443235e-01,  2.10341047e-02,
         -2.35565782e-01, -1.98771551e-01,  1.11336578e-02,
          2.08345354e-02, -4.17014748e-01, -4.98665601e-01,
          1.01602279e-01,  1.88347951e-01,  6.68923035e-02,
          6.44016117e-02, -1.55848637e-01,  3.93856078e-01,
         -1.23624086e-01, -2.81766593e-01,  1.39864057e-01,
          7.68239573e-02, -2.78288543e-01, -3.35169077e-01,
          3.66035849e-01, -1.27039803e-02,  1.22927502e-02,
          2.15765610e-02,  1.60721421e-01, -1.22353956e-02,
          2.57529616e-01, -4.58734035e-01,  2.59243667e-01,
         -2.73730874e-01, -3.50977570e-01],
        [ 7.17295557e-02,  7.69862682e-02,  3.58817726e-02,
          2.06447646e-01,  1.31029040e-01,  9.38279256e-02,
         -1.28248736e-01, -3.12338889e-01, -1.93672433e-01,
         -5.86144254e-02, -4.52535180e-03, -1.06041595e-01,
         -1.76604629e-01,  1.37266964e-01, -2.86888480e-02,
          6.01330251e-02,  3.71768977e-03, -9.67167169e-02,
          1.72191441e-01, -1.54577166e-01, -1.46787211e-01,
          2.36576825e-01,  2.05673743e-02,  1.92939751e-02,
          3.11545432e-02, -8.09947476e-02,  1.33860871e-01,
         -1.29540265e-01, -4.73106056e-02,  4.68978658e-02,
         -2.83222795e-01,  1.65485591e-02],
        [ 1.24583676e-01, -7.04490542e-02,  2.29116548e-02,
         -3.30823064e-01, -3.72075677e-01, -1.92223564e-02,
