[array([[[ 8.89480114e-03, -2.99741682e-02, -9.28158462e-02,
         -4.00975486e-03, -1.29091041e-03,  5.10712974e-02,
         -8.87252763e-02,  6.59039393e-02,  4.48888689e-02,
          2.01022811e-02,  2.36434527e-02, -5.30234985e-02,
         -1.06464274e-01, -4.42082472e-02, -9.49370787e-02,
         -7.97261298e-02, -1.46401823e-02, -6.21162867e-03,
         -7.92027116e-02, -9.70858708e-02, -6.01623654e-02,
         -1.11069903e-02,  1.00853331e-01, -1.09543465e-01,
          2.81720720e-02, -9.10276100e-02, -1.23844065e-01,
         -1.44274831e-01, -2.30941232e-02, -6.40254617e-02,
         -8.43598843e-02,  5.79063147e-02],
        [-6.54299930e-02, -1.01656206e-01,  7.69681705e-04,
         -2.96467096e-02,  4.84022200e-02, -4.94118854e-02,
          4.12035212e-02,  3.67570743e-02,  2.64020823e-02,
         -7.01243579e-02, -3.75076644e-02,  3.39442380e-02,
          1.98491868e-02, -1.13746144e-01, -1.29336208e-01,
          7.49616250e-02, -1.03909194e-01, -8.14435184e-02,
         -8.09039846e-02, -1.43480273e-02, -4.54357862e-02,
         -6.60302863e-02,  5.28117791e-02,  3.08240931e-02,
         -4.44865674e-02, -1.34198219e-01,  8.65991563e-02,
         -4.46680225e-02,  8.68404210e-02,  6.30074218e-02,
          4.19475250e-02, -2.39755958e-02],
        [ 1.21559007e-02,  6.41671643e-02,  3.41507792e-02,
          3.71713601e-02, -5.79508170e-02, -1.31846331e-02,
         -2.14897096e-02,  7.64470547e-02,  1.04525402e-01,
         -4.41573747e-03, -8.73396173e-02,  7.52370507e-02,
         -2.37504728e-02, -1.21991590e-01,  6.21124804e-02,
          2.68896557e-02,  8.13375860e-02, -5.54624647e-02,
          3.48311923e-02, -1.30909413e-01,  7.80511200e-02,
          2.50596255e-02,  6.72465265e-02, -5.80616370e-02,
          5.53454049e-02, -6.37349933e-02,  7.83405080e-03,
         -5.07130809e-02,  1.75709631e-02, -5.01033217e-02,
          4.78050895e-02, -6.53030127e-02],
        [ 6.98632970e-02, -8.85435939e-02, -4.29787636e-02,
          9.19661745e-02, -1.28671795e-01, -1.09477393e-01,
          5.23166843e-02,  5.90902148e-03,  8.68731141e-02,
         -2.15108879e-02, -8.58570356e-03,  8.37705806e-02,
         -6.97276518e-02, -5.51120304e-02, -1.07704706e-01,
         -4.12564129e-02,  9.82765406e-02, -4.68207523e-02,
          6.85079722e-04, -3.89844812e-02,  6.66348860e-02,
          7.73705393e-02,  3.05204466e-02, -1.01708822e-01,
          7.85978958e-02, -2.28344165e-02, -7.55183324e-02,
          5.65244853e-02, -8.59805718e-02,  2.72480529e-02,
         -3.84813957e-02,  5.69986403e-02],
        [ 5.74046150e-02,  8.19127485e-02,  7.66350552e-02,
          1.13520950e-01, -8.14825967e-02, -9.20139849e-02,
         -6.93106130e-02,  3.82417105e-02,  5.14285043e-02,
          2.38170382e-02, -4.07130904e-02, -6.63618520e-02,
          1.61319114e-02, -9.61541906e-02, -3.85342985e-02,
         -7.77176544e-02, -4.73508909e-02,  9.86547470e-02,
         -3.76528315e-02, -8.88964012e-02,  7.82801211e-03,
         -5.63370017e-03, -4.59152721e-02,  9.16190678e-04,
          1.65462829e-02,  7.77992085e-02, -3.99531722e-02,
          4.76047173e-02, -5.51036000e-02,  8.20281953e-02,
         -7.83039257e-02, -1.17938966e-01],
        [-7.89432898e-02,  6.29256144e-02,  9.86556932e-02,
          4.26511802e-02,  2.42855935e-03, -3.42056565e-02,
          3.07409484e-02, -6.60540685e-02,  1.42736807e-01,
         -8.67627412e-02,  9.83199626e-02,  5.11513017e-02,
         -7.62413889e-02, -1.96255576e-02, -8.77786055e-02,
         -2.52415482e-02, -1.98515840e-02,  8.35374370e-03,
          9.22579765e-02,  9.41417962e-02, -5.45209609e-02,
          6.70724884e-02,  7.40642920e-02,  2.40004901e-02,
          2.07128394e-02, -8.07289854e-02, -9.24519673e-02,
          1.56199122e-02,  6.11083247e-02,  1.22718379e-01,
          6.36735931e-02,  1.11472316e-01],
        [ 9.05337557e-02,  7.55129158e-02,  2.86091864e-02,
         -9.95101221e-03,  2.96032391e-02,  9.22049582e-02,
         -6.68295175e-02, -8.37512463e-02,  1.06161296e-01,
          7.95044228e-02, -2.46953238e-02,  6.84502348e-02,
         -6.98607937e-02, -3.76153961e-02, -2.87670009e-02,
         -5.17311655e-02, -3.16463448e-02, -8.76178592e-02,
         -4.87733558e-02,  1.02655932e-01,  8.87219310e-02,
         -6.84290901e-02,  6.15215525e-02,  8.25807080e-03,
         -1.68807115e-02, -6.95068315e-02, -6.40032962e-02,
          2.87071504e-02,  1.95419900e-02, -2.70454008e-02,
         -6.85562417e-02,  5.53348027e-02],
        [-8.17173496e-02, -6.70560747e-02, -1.02085315e-01,
         -3.17398384e-02, -2.98271608e-02,  8.10145810e-02,
          4.82265987e-02, -5.63413948e-02, -2.86571737e-02,
         -9.26385820e-02,  2.37472150e-02,  6.10033385e-02,
          3.03001441e-02, -5.77096455e-02, -4.07862738e-02,
         -9.36332569e-02,  1.15093470e-01, -1.06402859e-01,
          6.11768737e-02, -8.18369165e-02,  4.66101505e-02,
          2.14615595e-02, -8.89617135e-04,  1.62918610e-03,
          1.05135918e-01, -8.68861601e-02,  6.22224547e-02,
         -2.37518623e-02,  2.28348207e-02, -9.17064548e-02,
          7.43139833e-02,  6.19167741e-03],
        [ 6.53519779e-02,  1.04115859e-01, -7.74504617e-02,
         -4.04127203e-02, -2.10127397e-03, -6.51791245e-02,
          6.00186400e-02, -4.50417213e-02,  8.70729536e-02,
          3.76373678e-02,  1.10675106e-02,  1.62984598e-02,
          2.84281150e-02, -8.66750702e-02, -7.08694384e-02,
         -3.15165669e-02, -9.00283530e-02,  8.81555825e-02,
         -9.18322727e-02,  3.30989026e-02,  3.80779915e-02,
         -9.19085667e-02, -3.87440249e-02,  7.32839257e-02,
         -5.47398105e-02,  3.79104428e-02, -3.90824676e-03,
         -7.26487786e-02,  9.74828824e-02, -9.90438312e-02,
         -7.94044137e-02,  8.35260302e-02],
        [-5.57710417e-03, -8.23139846e-02,  2.87406184e-02,
         -5.18820025e-02,  3.81302796e-02, -7.07469732e-02,
         -4.53882515e-02,  9.75872204e-02,  1.96759552e-02,
         -8.25425435e-04,  8.45945925e-02,  7.05108687e-05,
         -4.16931883e-02, -7.11994022e-02,  7.51027465e-02,
          2.18898579e-02, -1.10526579e-02, -3.23240496e-02,
          9.33464319e-02,  9.58560780e-02, -8.06417018e-02,
         -8.44348446e-02,  9.06426981e-02,  6.83053909e-03,
          6.55179694e-02,  9.55816507e-02, -7.51640722e-02,
          5.70078939e-02, -2.48265583e-02,  6.64828569e-02,
          6.84682876e-02, -8.78097042e-02],
        [-1.24503903e-01, -9.23501607e-03, -8.52549821e-02,
         -9.45794210e-02, -5.64888725e-03,  5.57715213e-03,
         -6.75316527e-02, -6.82436153e-02, -3.14089991e-02,
         -6.78682551e-02,  3.00170816e-02, -2.22883075e-02,
          9.17320028e-02, -5.71301114e-03, -7.67743886e-02,
         -6.33765161e-02,  4.71194610e-02, -1.99344624e-02,
          3.87336686e-02, -3.62345204e-02, -5.98998815e-02,
          1.09278392e-02,  7.55410790e-02, -3.61144952e-02,
         -6.12694165e-03,  1.68915419e-03,  9.77081954e-02,
          4.28057127e-02,  6.48534745e-02,  9.06611905e-02,
          1.41606694e-02,  3.66218276e-02],
        [-5.23861349e-02, -2.53755879e-02,  9.39715095e-03,
          4.47603464e-02,  3.10597885e-02, -6.35244697e-02,
         -1.07771531e-01, -1.21792117e-02, -4.61606421e-02,
         -6.31627664e-02,  1.36736348e-01, -5.92299961e-02,
          6.44191727e-02,  7.79853985e-02, -6.11635633e-02,
         -3.68643478e-02, -1.08582862e-02,  4.08707559e-02,
         -7.03248605e-02,  1.86638013e-02, -9.22660381e-02,
          5.82769997e-02, -5.11951894e-02, -2.79852711e-02,
          1.16759397e-01, -1.13891259e-01, -9.22421645e-03,
          7.08857626e-02,  1.13609180e-01, -8.13139528e-02,
          5.22084348e-03,  9.27178655e-03],
        [ 1.62409560e-03,  1.92324836e-02,  3.35883684e-02,
          6.63720891e-02,  4.05934416e-02, -8.87423977e-02,
         -6.22767471e-02,  1.53071349e-02,  5.83375581e-02,
          1.95266493e-02, -9.08756256e-02, -3.00691109e-02,
          4.11703251e-02,  9.35998708e-02,  6.08167909e-02,
          4.14991640e-02, -3.31030041e-02, -2.50321496e-02,
          7.62151778e-02,  1.53198317e-02,  1.73704661e-02,
          7.69039104e-03, -2.50041950e-02, -2.12292727e-02,
          2.14144960e-02,  4.21757735e-02, -7.51837865e-02,
          8.20140988e-02, -2.81696655e-02, -7.77858347e-02,
          4.49478067e-02, -7.43905231e-02],
        [ 1.01853587e-01, -6.18247204e-02, -8.17426890e-02,
          9.85491369e-03, -2.18595434e-02,  2.99561769e-02,
          5.11219800e-02, -3.48150432e-02,  3.70499976e-02,
         -2.27786284e-02,  6.84582964e-02,  9.26690176e-02,
         -9.71692950e-02,  4.97664046e-03, -2.12880671e-02,
          2.95890551e-02,  1.22982435e-01,  7.27391839e-02,
         -7.58264959e-02,  9.05922875e-02,  1.77756604e-02,
          6.17177226e-03, -8.98862407e-02,  5.51754721e-02,
         -1.03329353e-01,  9.85932797e-02, -7.88671002e-02,
          7.91180953e-02, -1.16112335e-02,  4.06952165e-02,
         -3.19646817e-04,  7.58747458e-02],
        [ 6.86963797e-02,  6.02066666e-02,  5.06591313e-02,
          9.61735100e-03, -7.48618171e-02, -9.47168097e-03,
          3.77823152e-02, -7.74386525e-02,  1.21200599e-01,
         -6.50987476e-02,  1.62264630e-02, -7.74060562e-02,
         -1.14295952e-01,  7.69996271e-02, -7.85304978e-02,
         -1.31006435e-01,  9.06990841e-02,  1.07821830e-01,
         -2.35762149e-02, -7.30323568e-02, -1.21487670e-01,
          4.92888391e-02,  9.48486775e-02, -1.17193729e-01,
         -2.50748917e-02, -4.34652939e-02, -4.05681916e-02,
          4.10593972e-02,  4.48380038e-02,  7.76683316e-02,
          1.29223475e-02, -1.18884584e-03],
        [ 2.03101076e-02,  7.96933919e-02, -9.30159092e-02,
         -1.19353771e-01, -8.76447558e-02,  3.16783562e-02,
         -2.11574528e-02, -1.04124541e-03,  8.49066749e-02,
         -8.58820751e-02,  3.45808081e-02, -5.46295233e-02,
         -6.34314045e-02, -8.95439163e-02, -3.36671546e-02,
          6.41661212e-02, -2.76660603e-02,  2.97566168e-02,
         -5.71727864e-02, -8.58020131e-03, -8.41825604e-02,
         -7.97954276e-02, -7.75966421e-02, -1.09294474e-01,
          6.90570176e-02,  2.43779961e-02,  2.31976807e-02,
         -1.51891243e-02, -1.48726329e-02,  3.41213532e-02,
          2.41677221e-02, -7.27571696e-02],
        [-2.89381407e-02, -9.82278660e-02, -1.84310079e-02,
          1.25375912e-01, -1.15733452e-01, -7.04750493e-02,
          7.47436881e-02,  1.65891536e-02,  9.02031735e-02,
          8.19618255e-02, -9.11347568e-02,  8.63868967e-02,
          6.60673948e-04, -4.18088995e-02,  2.86740139e-02,
         -4.80943732e-02,  2.15188283e-02,  4.39746641e-02,
          5.65714948e-03, -1.39022730e-02, -5.47136329e-02,
         -3.48446928e-02, -3.99608538e-02,  1.18535131e-01,
         -2.43157949e-02,  2.93118563e-02, -7.32790381e-02,
          6.14012331e-02,  3.16505507e-02,  6.91983476e-02,
         -5.68190217e-02,  8.51573944e-02],
        [-7.07152858e-02,  2.56747436e-02, -2.63640303e-02,
          6.52096197e-02, -8.41749161e-02, -8.92921984e-02,
          1.54428929e-02,  8.01857859e-02, -6.83092549e-02,
          1.07815554e-02,  5.95691390e-02, -3.39256413e-02,
          1.09232590e-02, -3.94215994e-02,  4.52321582e-02,
         -8.71343762e-02, -9.48223993e-02, -1.32721707e-01,
         -9.68700368e-03,  1.05298674e-02, -2.88563687e-02,
         -3.09487768e-02, -7.73877054e-02, -7.46916234e-02,
          1.20580658e-01,  3.20916139e-02, -1.29462257e-01,
         -4.87360023e-02,  1.29871804e-03, -2.85618976e-02,
         -6.59978017e-02, -4.58912626e-02],
        [-9.13120210e-02,  3.71482670e-02, -1.88810024e-02,
         -7.13018999e-02, -1.03593051e-01,  9.76045802e-02,
         -9.60600525e-02,  6.67275907e-03, -6.18873201e-02,
         -5.84487990e-02, -9.03048366e-02,  6.74043894e-02,
          4.81952541e-02, -6.63908944e-02, -8.27781036e-02,
          3.92469838e-02,  2.04740278e-02,  6.45375252e-02,
         -9.44563448e-02,  4.07453626e-02, -1.18529975e-01,
         -4.03271839e-02,  1.88944861e-02,  1.02392875e-01,
         -2.10872218e-02, -5.44282719e-02, -7.35147223e-02,
         -2.42506992e-02,  6.04481399e-02, -7.03516975e-02,
         -3.33549418e-02, -7.05910288e-03],
        [ 2.17754487e-02,  3.58652994e-02,  1.01208620e-01,
         -7.86273973e-04, -4.71754521e-02, -4.05977704e-02,
         -2.90000322e-03,  6.11325651e-02,  1.18229359e-01,
         -1.29860388e-02, -7.09588304e-02, -3.16213705e-02,
          4.91592735e-02,  7.03560337e-02,  1.90711487e-02,
         -2.96967532e-02, -1.25707328e-01, -6.61478639e-02,
          4.30735201e-02, -5.06937169e-02, -7.16607794e-02,
          8.30628257e-03,  4.97463532e-03,  1.63085628e-02,
          1.16201326e-01, -4.25952598e-02,  7.12796748e-02,
          5.16951978e-02,  8.93708691e-03,  7.00237453e-02,
         -6.75940290e-02,  8.45844373e-02],
        [-1.45047195e-02, -5.55450357e-02,  9.44780931e-03,
         -1.10325515e-02, -1.13507975e-02,  8.99942964e-02,
          4.33701016e-02, -2.80010104e-02, -4.33455780e-03,
         -9.46319252e-02, -7.46056065e-03, -2.71237679e-02,
          2.27409638e-02,  3.49261649e-02,  1.10625818e-01,
          8.04965273e-02,  2.67106108e-03, -6.17933925e-03,
          5.80481440e-02,  2.04658718e-03, -8.19705054e-03,
         -1.12149529e-01, -1.62697583e-02,  4.74973097e-02,
         -2.08311919e-02, -7.39868917e-03, -6.35353923e-02,
          5.61547093e-02, -7.37743527e-02, -4.44517061e-02,
          3.46924216e-02,  1.10813275e-01],
        [ 7.20151439e-02, -5.59424274e-02,  6.65395195e-03,
          8.44244137e-02,  4.81146760e-02,  2.75855158e-02,
          5.76965474e-02, -6.14378117e-02, -5.87112382e-02,
          2.81834584e-02, -2.05291919e-02, -1.46649852e-02,
          7.94277340e-03, -8.81240796e-03, -9.90240872e-02,
          1.56997982e-02,  9.05604437e-02,  8.16693529e-02,
          1.13555677e-01,  5.84517233e-02,  3.03885750e-02,
          1.93873588e-02, -4.44906689e-02, -1.11453943e-01,
          6.70023486e-02,  7.56100118e-02, -7.07991701e-03,
          7.10372031e-02,  9.40133408e-02, -9.52067375e-02,
          2.17455886e-02, -5.58149181e-02],
        [-3.14628296e-02,  3.14576216e-02, -1.20246653e-02,
          3.89871933e-02, -8.23158547e-02,  4.69578952e-02,
         -7.11421147e-02, -5.34061459e-04,  5.45254797e-02,
          1.58990324e-02, -7.65619287e-03, -8.53198469e-02,
          1.97125990e-02,  6.80861324e-02,  7.15250522e-02,
          4.55356054e-02,  9.23600346e-02,  1.09144405e-01,
          8.22668429e-03, -2.08454188e-02,  9.81331021e-02,
         -5.47078103e-02, -1.06968470e-01,  2.97106635e-02,
          7.09078014e-02,  3.43644992e-02,  9.64935198e-02,
         -9.63448808e-02,  2.79122703e-02, -2.05183160e-02,
          1.01767160e-01,  7.70689398e-02],
        [-2.26508845e-02, -9.82090235e-02,  3.68601317e-03,
          1.24981791e-01, -5.41724153e-02, -1.00352027e-01,
         -8.14489741e-03, -9.18928832e-02, -9.04323161e-02,
          4.18314189e-02, -2.12942213e-02, -1.21473327e-01,
         -5.97154386e-02, -7.74807110e-02,  9.88827087e-03,
          8.89553279e-02, -7.05552101e-02, -1.78426690e-02,
         -7.47851953e-02, -4.40063849e-02,  3.04975118e-02,
          4.26043477e-03,  1.05282450e-02, -8.69471207e-02,
          4.54317331e-02, -1.26344562e-01,  6.84225187e-02,
          6.49813265e-02, -3.01800249e-03,  5.40955253e-02,
          1.05377948e-02,  6.44790903e-02],
        [ 9.51014608e-02, -6.59270510e-02,  3.04897148e-02,
          1.08724214e-01,  8.62786733e-03,  2.17237342e-02,
          1.11147992e-01, -9.69113633e-02, -2.51307734e-03,
         -4.81099561e-02, -3.45575958e-02,  5.29917553e-02,
         -1.94748752e-02,  6.58763275e-02, -9.30804387e-03,
         -6.16621301e-02,  7.75187742e-03,  1.06527153e-02,
         -9.34604332e-02, -2.67811567e-02, -9.97434258e-02,
         -4.48320694e-02,  6.67810217e-02,  1.04306541e-01,
         -7.15896636e-02, -6.28155917e-02, -7.53745586e-02,
          1.02128327e-01,  1.81642435e-02,  2.31078994e-02,
          1.76901910e-02, -9.55218077e-02],
        [-5.92821203e-02, -9.55455098e-03, -5.36666363e-02,
         -8.28261077e-02, -7.63319209e-02,  2.38211360e-02,
          5.06460620e-03,  4.61622514e-02, -4.51662168e-02,
         -6.67578503e-02, -8.68240744e-02,  3.20182443e-02,
         -4.53872941e-02,  2.92809475e-02,  8.28387439e-02,
         -3.52891982e-02, -6.85344860e-02, -5.84368259e-02,
         -3.50680985e-02, -5.02001569e-02, -5.64112626e-02,
         -1.98681895e-02, -7.70372804e-03,  4.76986095e-02,
          7.07289949e-02, -1.58442594e-02, -3.66908908e-02,
          7.49810264e-02, -9.80336871e-03,  7.00677484e-02,
          6.82986602e-02, -1.06609939e-03],
        [-3.30101103e-02,  3.78709212e-02, -1.05940411e-02,
         -5.39406054e-02, -4.96528260e-02,  3.18997875e-02,
          7.71465227e-02,  9.77329537e-02, -8.12069476e-02,
         -5.96916527e-02, -6.26761690e-02,  3.71093140e-03,
         -1.02980293e-01, -1.04451053e-01, -6.80189580e-02,
          2.57081329e-03,  1.72761474e-02, -1.01629525e-01,
          1.26929015e-01, -7.67638013e-02, -1.13604501e-01,
         -5.79600967e-03,  8.85450244e-02,  1.15178712e-01,
          4.52249460e-02,  5.28361686e-02,  7.54687116e-02,
          2.75581945e-02,  2.90763378e-02,  6.20250702e-02,
          6.72584996e-02,  6.68123830e-05],
        [ 1.03486054e-01,  1.10836141e-03, -7.76507631e-02,
         -1.27740741e-01, -4.49977554e-02,  7.69215636e-04,
          2.93713436e-02, -2.13453304e-02,  1.15938589e-01,
         -4.43003774e-02, -1.40735116e-02, -8.89314786e-02,
          7.65723437e-02, -2.19500400e-02,  1.84402410e-02,
          1.40692191e-02, -4.55546342e-02,  1.39864059e-02,
          7.67231211e-02, -8.41827393e-02,  1.02619864e-01,
         -6.96325451e-02,  2.35133953e-02,  1.43431835e-02,
          2.32663471e-02, -5.11092842e-02,  8.90397429e-02,
         -1.07086599e-01,  1.75482519e-02, -9.46514234e-02,
         -2.15396564e-02, -7.09283575e-02],
        [-5.35466634e-02, -8.95751640e-02,  2.66431365e-02,
          8.75494406e-02, -3.74668054e-02,  6.64611757e-02,
         -1.19982705e-01,  9.85346586e-02,  9.18072313e-02,
          8.86974931e-02,  2.49148831e-02, -1.83096137e-02,
         -4.00988199e-02, -6.36144429e-02,  2.56171506e-02,
          6.19063154e-02, -2.75628343e-02,  9.28873345e-02,
         -1.11052081e-01, -8.24115649e-02, -1.17867261e-01,
          3.12928669e-02, -2.67139673e-02, -6.22133166e-02,
         -2.82946918e-02, -5.11558913e-03, -6.95891008e-02,
         -2.52080895e-02, -5.85323200e-02,  7.74208307e-02,
         -7.55074667e-04, -1.19281739e-01],
        [-1.13642648e-01, -1.37836993e-01, -2.86985282e-03,
          4.66269488e-03,  1.47068752e-02, -2.74966080e-02,
          5.07189520e-03, -8.83816034e-02, -8.65918472e-02,
         -2.87865773e-02,  8.01529661e-02, -3.79473381e-02,
         -3.34008299e-02, -6.64450005e-02,  1.04279973e-01,
         -9.39035118e-02,  3.31390137e-03, -8.26342553e-02,
         -4.84813005e-02, -7.41097182e-02, -6.38275668e-02,
         -8.73890519e-02,  5.66827282e-02, -4.16938495e-03,
         -8.49361569e-02,  7.14514703e-02, -3.26452591e-02,
         -1.50290737e-02, -3.37163843e-02, -1.23372816e-01,
         -3.61575931e-02, -3.74337733e-02],
        [ 1.83288716e-02,  1.13506593e-01, -7.11897314e-02,
          9.03211832e-02,  5.93567118e-02, -3.24251205e-02,
          2.85935812e-02,  5.33872172e-02,  4.92509529e-02,
         -3.19579653e-02, -3.81528996e-02,  6.01795800e-02,
          1.23629920e-01,  3.23159546e-02, -1.06340805e-02,
          2.31861789e-02,  5.00470810e-02,  5.65226302e-02,
         -9.98119265e-02,  9.73216295e-02,  7.83871263e-02,
         -6.31191134e-02,  4.55094911e-02, -4.56189811e-02,
          4.00169007e-02, -2.22688783e-02, -4.40796874e-02,
         -6.07059561e-02,  1.03775531e-01,  5.46208918e-02,
         -1.14099562e-01, -5.86150326e-02],
        [-4.19650003e-02, -1.51639413e-02, -2.58910991e-02,
          9.76054221e-02,  9.24172103e-02,  1.00728884e-01,
          9.30466130e-02, -6.67333081e-02, -1.04385354e-01,
         -3.53382118e-02, -2.42839009e-02,  6.84652850e-02,
          5.65731376e-02,  9.01940651e-03,  2.52307262e-02,
         -1.09784365e-01, -3.86286266e-02, -3.30718979e-02,
          2.82835420e-02, -1.18480541e-01,  7.14981779e-02,
         -3.58298011e-02, -1.43030835e-02, -5.65752089e-02,
          8.87590647e-02,  7.65427873e-02,  6.80482015e-02,
         -8.28311443e-02,  4.81806584e-02,  1.20071545e-02,
         -2.17570309e-02, -4.69310470e-02],
        [ 6.48997771e-03,  2.84062959e-02,  1.05775990e-01,
          1.12592451e-01, -1.05077513e-02,  5.49983904e-02,
          1.09068826e-01, -9.02124420e-02, -2.05676984e-02,
          1.10470178e-02,  9.26361308e-02,  9.52065885e-02,
         -3.73714343e-02, -3.01264506e-02, -1.25730038e-02,
         -1.20335557e-01, -4.33342978e-02,  9.59216058e-02,
          3.77174802e-02, -5.89107163e-02,  3.25856656e-02,
          2.14745272e-02, -8.48752074e-03,  7.06928000e-02,
          3.51382568e-02, -1.01749122e-01, -8.84181187e-02,
         -9.26226750e-02,  4.36332077e-02, -5.39686196e-02,
          2.07252894e-02,  7.27228895e-02],
        [ 1.41938943e-02, -8.47699568e-02, -4.54397220e-03,
         -1.04821466e-01, -6.55720979e-02, -1.33110389e-01,
          8.33245963e-02, -8.78301933e-02, -3.47374938e-03,
         -8.05550162e-03,  2.30736714e-02,  7.09201694e-02,
         -6.62397295e-02, -3.91309336e-02,  4.75516822e-03,
         -5.27006993e-03, -1.54809840e-02,  7.12526292e-02,
         -8.27003270e-03,  1.08908497e-01,  9.57599431e-02,
          2.05057375e-02, -7.65960068e-02, -8.76856446e-02,
          9.03748814e-03,  8.10315013e-02,  8.51721391e-02,
          9.79050249e-03,  6.45420775e-02,  6.33934587e-02,
         -3.90221588e-02, -9.18743312e-02],
        [-6.84076594e-03,  6.73840940e-02,  7.54226223e-02,
         -1.52278766e-02, -7.93598592e-03, -7.66987652e-02,
          4.96954992e-02,  2.32300088e-02, -3.56479287e-02,
          1.76539030e-02,  1.91052500e-02, -6.30282685e-02,
          8.95737633e-02,  5.54184280e-02, -1.90292988e-02,
          8.35668817e-02, -1.91405453e-02,  2.89936420e-02,
         -5.12256511e-02,  4.27838936e-02, -2.12870706e-02,
          7.95108974e-02, -1.09944843e-01, -1.19850174e-01,
         -9.52251852e-02,  4.09889147e-02,  9.70226303e-02,
          7.32739829e-03,  1.29461288e-02, -1.82401817e-02,
          6.83496743e-02,  8.42956677e-02],
        [ 8.17077458e-02, -9.43769962e-02,  6.13657087e-02,
          1.27395958e-01,  6.15989454e-02,  4.77379598e-02,
          2.94159055e-02, -2.31207740e-02, -8.94183889e-02,
         -9.87802595e-02,  8.52631852e-02,  1.26199727e-03,
         -6.34145886e-02, -1.02778047e-01, -8.67721345e-03,
         -1.30834147e-01,  6.71601892e-02, -2.67394204e-02,
          8.05631429e-02,  2.73187924e-02,  1.21000886e-01,
          6.78647012e-02, -7.01622814e-02, -2.18006913e-02,
          3.87337878e-02, -8.79528224e-02,  3.87052670e-02,
         -6.74688146e-02, -3.61070447e-02, -1.91962961e-02,
         -6.36635125e-02,  1.82601705e-03],
        [-6.71506599e-02, -7.40424991e-02, -7.76763335e-02,
          1.07908569e-01, -3.74741852e-02, -9.43755507e-02,
         -6.27357736e-02,  7.75113702e-02,  7.45150521e-02,
          7.98368976e-02, -1.11320965e-01,  1.64868683e-02,
          4.76835808e-03, -9.46413428e-02, -5.11717461e-02,
         -6.07463978e-02, -1.02730118e-01,  4.57576960e-02,
         -3.61823030e-02,  1.99449137e-02, -2.81871352e-02,
         -2.40992457e-02,  4.66585867e-02, -7.15568289e-02,
          1.26583710e-01,  7.74284527e-02, -1.10442964e-02,
          7.55188018e-02, -5.06555066e-02,  4.46252991e-03,
          5.58116697e-02, -6.26784563e-02],
        [-6.30341396e-02,  4.04458269e-02, -5.64044081e-02,
          1.06282271e-01, -3.04493345e-02, -1.13600060e-01,
         -1.03059977e-01, -4.45205308e-02,  7.24429414e-02,
         -1.35184914e-01,  7.77579844e-02, -7.56101962e-03,
         -9.10914019e-02, -7.45449811e-02,  8.61588717e-02,
          2.15408076e-02, -8.71930048e-02, -7.21741468e-02,
         -9.89669003e-03,  5.35286069e-02,  1.19923972e-01,
         -3.58986147e-02,  4.38391529e-02,  1.41997617e-02,
          4.06940393e-02,  5.07208966e-02, -9.24834888e-03,
          4.64576520e-02,  1.13279104e-01,  4.99058701e-02,
         -8.65797773e-02, -3.71104889e-02],
        [ 5.75219654e-03,  5.35213798e-02, -2.61026993e-02,
         -6.93507269e-02, -7.55254924e-02,  1.52075477e-02,
         -2.21080128e-02, -3.07762083e-02, -3.51037434e-03,
          4.72226180e-02,  3.09784822e-02,  7.45133981e-02,
         -4.24210168e-02, -5.46018109e-02, -7.46818492e-03,
         -1.94872692e-02, -1.17254451e-01, -4.81510609e-02,
          5.41113690e-02, -1.09297499e-01,  1.05646096e-01,
          3.02249771e-02, -4.64505143e-03, -9.34773386e-02,
         -9.03726965e-02,  8.71222168e-02, -6.14533909e-02,
          1.76921263e-02, -1.94431227e-02, -5.24038859e-02,
          1.47286002e-02,  2.27496754e-02],
        [ 5.04737645e-02,  2.29238793e-02, -1.97230764e-02,
          1.01500049e-01, -1.16866522e-01,  8.88592005e-02,
          2.46576685e-02,  3.81917879e-02, -8.43311995e-02,
          6.08240487e-03,  3.43298800e-02, -8.13427269e-02,
         -6.96998686e-02,  4.46607210e-02,  3.92414480e-02,
         -6.40982687e-02,  9.85280126e-02,  1.06896952e-01,
         -2.66922009e-03, -1.84426345e-02,  6.41161874e-02,
         -1.30629390e-01,  9.10032094e-02, -1.11682983e-02,
         -4.92595844e-02, -7.91896656e-02,  1.70940012e-02,
          2.91654784e-02,  3.01891994e-02,  1.24518352e-03,
         -8.15984085e-02, -4.57091853e-02],
        [ 5.27492613e-02,  1.89927183e-02,  3.37370969e-02,
         -4.95747365e-02, -7.50815794e-02,  9.40874219e-02,
          8.23795348e-02,  4.31919731e-02,  6.70775026e-02,
          2.73375381e-02,  5.53793199e-02, -4.04184759e-02,
         -2.60279998e-02, -1.32523671e-01, -9.58587788e-03,
          2.02552844e-02, -3.09697557e-02,  6.01303987e-02,
          7.23451674e-02,  1.20042160e-01, -2.97457892e-02,
          1.59768835e-02, -4.05569039e-02, -2.59747226e-02,
         -2.82717831e-02,  5.84097952e-02, -8.79807994e-02,
         -7.62682557e-02, -6.05653711e-02,  5.60278669e-02,
          2.19436511e-02,  9.25099179e-02],
        [ 8.30532461e-02,  5.42311519e-02,  2.18611825e-02,
          1.05084598e-01, -8.50210525e-03,  8.97758454e-02,
         -1.50037953e-03, -8.35261643e-02, -4.98885363e-02,
         -9.45595428e-02,  8.89171213e-02,  4.01425026e-02,
          9.16676968e-02,  4.96811084e-02,  2.64721252e-02,
         -7.10399747e-02,  9.85714495e-02, -4.78442572e-02,
         -1.96199957e-02, -7.79127330e-02,  1.33430241e-02,
         -2.44972762e-02, -2.02097502e-02, -1.60672404e-02,
          6.77358955e-02,  6.04867339e-02, -9.44074690e-02,
          2.71645300e-02, -5.48835173e-02, -2.28781160e-02,
         -3.30165215e-02,  2.32337043e-02],
        [ 1.22884065e-02,  2.91505437e-02, -1.88364405e-02,
         -3.22613716e-02, -1.03274211e-01,  5.40222824e-02,
          2.92010489e-03,  4.47852015e-02, -2.78651100e-02,
         -7.97974914e-02, -3.50609645e-02,  3.18439826e-02,
         -4.95379940e-02, -7.30924159e-02,  3.19942012e-02,
          2.87971571e-02, -4.09491286e-02, -4.85196300e-02,
         -3.88463289e-02, -7.43594989e-02,  2.95861770e-04,
         -8.79769493e-03, -2.32462492e-03, -9.52448770e-02,
         -1.83378905e-02, -9.59389806e-02, -1.13322802e-01,
         -3.76102291e-02,  7.83240870e-02,  8.96769762e-02,
         -4.84194271e-02,  2.72712000e-02],
        [-1.28463730e-01, -1.29041210e-01, -7.45043233e-02,
         -1.13284945e-01,  6.29755482e-02,  4.21711951e-02,
          2.59362105e-02, -7.51723498e-02,  6.67934567e-02,
         -8.29101801e-02, -5.38971648e-02,  5.46434298e-02,
         -1.88402571e-02,  6.28737807e-02, -4.07612026e-02,
          2.68566776e-02,  9.52399522e-02, -8.07302222e-02,
         -7.43308198e-03,  1.07782081e-01, -1.14850223e-01,
          3.39985937e-02, -4.75975219e-03,  7.91839063e-02,
          1.79427788e-02, -5.18101007e-02, -8.39231908e-02,
          7.41589740e-02,  9.96498913e-02, -1.37936231e-03,
          9.44406465e-02,  3.26138511e-02],
        [ 4.77979444e-02, -2.55979616e-02, -1.10415190e-01,
         -7.76294395e-02, -1.49530629e-02, -1.57238785e-02,
         -7.09531317e-03, -6.85692430e-02, -8.07604641e-02,
         -6.92174062e-02, -6.73152655e-02, -7.11601824e-02,
         -4.16995622e-02, -4.48585898e-02, -7.04096481e-02,
         -5.31174801e-02, -9.79874432e-02, -4.71208170e-02,
         -2.84272060e-02,  3.68338898e-02, -8.93252417e-02,
          1.08482458e-01,  8.62452835e-02, -4.03341576e-02,
         -6.84333816e-02,  2.19820384e-02,  4.94687408e-02,
         -6.76700100e-02,  7.47749880e-02,  1.25450283e-01,
         -3.70236039e-02,  3.51515412e-02],
        [ 7.76448026e-02, -1.72353871e-02, -8.71929228e-02,
          7.15358406e-02, -8.86048451e-02,  3.74340639e-02,
         -2.76334565e-02,  5.30318543e-02,  2.74358075e-02,
          8.39743018e-02,  6.11922424e-03,  5.47466204e-02,
          8.75985697e-02, -2.50798054e-02,  8.12529176e-02,
          5.44745177e-02, -7.58930072e-02, -8.34552944e-02,
         -3.09495139e-03, -6.49038777e-02, -8.29304084e-02,
          3.23437117e-02,  1.99252255e-02,  4.96336184e-02,
          3.34806703e-02, -9.40651540e-03,  1.59881171e-02,
         -1.23260543e-01,  7.28403730e-03, -6.62971735e-02,
          8.84853899e-02,  6.15757182e-02],
        [-1.07367940e-01,  6.69314861e-02,  2.84523368e-02,
         -7.62548968e-02, -3.25803272e-02,  6.20740280e-02,
          4.66972031e-02,  1.23000994e-01,  7.78170601e-02,
         -1.11789688e-01, -1.15123264e-01,  5.49236462e-02,
          3.72141302e-02, -7.90372193e-02,  8.94963518e-02,
          8.18611123e-03,  5.28228767e-02, -8.91142115e-02,
         -5.62133379e-02, -8.85589272e-02,  6.43447042e-02,
          9.79171097e-02, -5.39526865e-02, -9.64119658e-02,
         -5.65032884e-02,  6.77071959e-02, -7.73636773e-02,
          6.86066821e-02,  5.73997349e-02, -4.63672541e-02,
         -5.17636426e-02,  9.36908126e-02],
        [-7.37067759e-02, -7.65807694e-03,  9.27313697e-03,
          7.47873709e-02,  1.04563452e-01,  7.72517454e-03,
         -6.32930696e-02, -1.17220111e-01,  9.58235860e-02,
          3.26969987e-03,  1.03550348e-02,  5.02660014e-02,
          8.87210295e-02, -4.59551290e-02,  3.62900943e-02,
          1.16866194e-02, -1.14790410e-01,  7.86853582e-02,
          8.39846879e-02, -9.93387550e-02,  8.57539289e-03,
         -4.12280001e-02,  6.85049295e-02, -1.16755970e-01,
          5.14388718e-02, -8.16080272e-02, -1.28711546e-02,
          5.08220419e-02, -4.98228446e-02, -5.90969697e-02,
         -9.10260379e-02, -7.25062713e-02],
        [-1.21155657e-01,  4.19365987e-02,  2.21211351e-02,
          8.43592361e-02, -4.68777493e-02,  6.81262184e-03,
         -2.33461913e-02, -6.88702464e-02,  1.74987689e-02,
          7.23909438e-02,  6.88771829e-02,  5.54122664e-02,
          7.79650211e-02, -4.76326421e-02, -1.03015192e-01,
         -5.70050515e-02, -2.41249409e-02,  3.91306728e-02,
          1.09346978e-01, -4.14971123e-03, -7.04791024e-02,
         -1.02313310e-01,  8.76360834e-02,  6.53039292e-02,
         -9.05568302e-02, -2.01498047e-02,  3.85878459e-02,
          6.78141564e-02, -6.96035326e-02,  9.50662345e-02,
          5.69713414e-02,  5.36669120e-02],
        [ 7.45794624e-02, -1.17788054e-01, -4.19304594e-02,
          5.39043136e-02, -1.17588609e-01, -5.81479035e-02,
          9.23298225e-02,  1.14482902e-01, -1.76630002e-02,
         -5.47613315e-02,  1.98813882e-02,  1.30356941e-02,
          1.71086751e-02,  3.08141597e-02, -3.34716812e-02,
         -2.36476585e-02,  2.24996321e-02, -1.45620685e-02,
         -9.83478501e-02, -1.04556894e-02, -2.43455525e-02,
          3.60633694e-02,  9.77845713e-02,  9.57555473e-02,
          4.76435982e-02, -2.81756707e-02,  2.19009649e-02,
          1.12333849e-01,  1.71371773e-02, -7.79034048e-02,
          5.37980488e-03, -9.48293060e-02],
        [ 6.68380186e-02, -5.68258986e-02,  9.86643732e-02,
         -3.82642485e-02, -7.38688409e-02,  1.58738047e-02,
         -2.60798167e-02, -8.62024352e-02, -7.72501379e-02,
         -3.88626233e-02,  2.84426436e-02, -6.34249374e-02,
         -3.20287943e-02, -8.30062926e-02,  7.53479451e-02,
          8.96322802e-02, -7.62564689e-02,  1.08305104e-01,
          3.47969942e-02, -2.65284274e-02,  9.06945020e-02,
         -9.45983529e-02,  5.77624738e-02, -9.92919281e-02,
          2.68233158e-02,  3.89907584e-02,  3.55109908e-02,
         -7.92558268e-02,  8.69977251e-02,  6.05572723e-02,
          6.12441935e-02,  3.14597823e-02],
        [ 1.20101959e-01, -6.89584687e-02,  3.97584774e-02,
         -1.20898327e-02,  1.54862702e-02, -9.88579690e-02,
          7.52124861e-02,  1.43220425e-02,  2.69824397e-02,
         -3.83666269e-02, -2.21644025e-02,  1.24897316e-01,
          1.79696791e-02,  7.90473893e-02,  1.20427430e-01,
          1.60332695e-02,  5.10657057e-02,  7.37999678e-02,
          2.83108205e-02,  8.47720951e-02, -8.36348832e-02,
          1.04532547e-01, -3.63242477e-02,  1.04882769e-01,
         -2.33828910e-02, -8.09916183e-02, -7.00130388e-02,
          8.42482150e-02,  1.13753840e-01,  9.40895230e-02,
         -6.55789822e-02,  2.41584424e-02],
        [-1.08795166e-01,  8.46177936e-02, -3.90661433e-02,
          5.28694093e-02, -6.32909909e-02, -9.43754092e-02,
          3.42454831e-03,  1.31924031e-02, -2.39399020e-02,
          7.07801953e-02,  4.06051949e-02,  1.14049092e-01,
          6.66028634e-02,  6.11709915e-02, -3.93929183e-02,
         -6.81377500e-02,  2.53495537e-02,  7.89340883e-02,
         -6.52541816e-02, -8.83520767e-03, -5.57288565e-02,
         -3.68311033e-02,  6.10201880e-02,  1.26632228e-02,
         -7.76029378e-03, -1.09131172e-01,  6.14651963e-02,
         -4.34037298e-02, -3.59539464e-02,  1.55163975e-02,
          2.02918202e-02,  1.91769861e-02],
        [-9.60730165e-02, -7.72410706e-02,  5.83623797e-02,
         -4.25706170e-02,  3.22173201e-02,  3.83904856e-03,
         -6.22756407e-02,  1.74267422e-02,  6.16372079e-02,
          1.14012390e-01, -7.38353059e-02,  4.09196764e-02,
         -1.26014590e-01, -5.50719947e-02, -1.95939839e-02,
          2.26433985e-02, -1.03060231e-02,  4.88144904e-02,
         -6.08381163e-03,  2.74256803e-03,  6.01062225e-03,
         -7.65348673e-02,  6.40997812e-02, -6.95303455e-02,
          8.14707763e-03, -1.19592011e-01, -4.54896726e-02,
          1.76378489e-02,  5.31863384e-02,  7.89289698e-02,
         -4.53600213e-02, -1.13120556e-01],
        [-9.41291153e-02,  1.02058724e-02, -5.38077280e-02,
          7.54165128e-02, -7.72125944e-02, -1.96791105e-02,
         -1.02527551e-01, -1.08776808e-01, -4.20594290e-02,
         -6.46143556e-02,  1.10475548e-01, -1.20676115e-01,
          9.07703191e-02,  5.73178269e-02,  4.59817238e-02,
         -1.05794929e-01, -1.01480022e-01, -7.92918131e-02,
          6.42564148e-02, -1.01700902e-01, -7.64806122e-02,
          8.78637470e-03,  7.38001615e-02,  1.00811958e-01,
          1.27346337e-01,  3.22720408e-02,  3.65302749e-02,
          5.55969812e-02,  8.18028077e-02,  1.37424637e-02,
          8.12048987e-02, -7.26875290e-02],
        [-7.10680410e-02,  1.06057897e-02,  6.10816889e-02,
          4.84710783e-02,  9.46203098e-02, -4.93883081e-02,
          8.79905298e-02,  1.00698531e-01,  1.24289148e-01,
         -4.73331921e-02,  5.91284111e-02, -3.84839997e-02,
          2.11274941e-02, -1.13131441e-01, -8.65898803e-02,
         -3.05037647e-02,  1.03720566e-02, -8.29014480e-02,
          9.26266387e-02,  6.18205853e-02, -2.47357562e-02,
          2.25877408e-02,  9.00709704e-02, -2.86140689e-03,
          4.94869612e-03, -2.09624916e-02, -1.78627148e-02,
          9.02756080e-02,  3.78406681e-02,  7.95070827e-02,
          7.36127496e-02, -1.76137052e-02],
        [-3.29552777e-03, -6.96327537e-02, -3.72340111e-03,
          1.52699929e-02, -5.22088371e-02, -9.45675299e-02,
          3.02948579e-02, -9.07897577e-02, -7.22179636e-02,
          3.83850560e-02,  6.76687956e-02,  8.29096138e-03,
         -6.44834712e-02,  4.75286357e-02, -5.93377277e-02,
         -7.89470226e-02, -1.09532140e-01, -1.02261163e-01,
         -5.44861518e-02,  8.21141526e-02, -5.02898656e-02,
          4.76556979e-02, -3.94125953e-02,  8.74485262e-03,
         -5.20197935e-02,  3.02809719e-02, -5.26955351e-02,
         -2.20103506e-02,  1.39850993e-02, -6.44098222e-02,
          2.28642765e-02, -8.61876905e-02],
        [-4.79763262e-02, -2.10481491e-02,  1.78918522e-02,
          9.34621170e-02,  4.37658951e-02,  5.12375217e-03,
         -1.10751145e-01, -1.18748117e-02,  3.10524199e-02,
          6.53119087e-02,  5.68047874e-02,  8.31816271e-02,
          4.62542474e-02,  5.29668853e-02, -8.16279501e-02,
          7.91091174e-02, -4.53258231e-02,  4.11833217e-03,
          5.07099628e-02, -1.10264570e-01,  7.43257031e-02,
         -6.93069845e-02, -6.87801689e-02,  1.00094900e-02,
         -6.99300840e-02, -1.07601933e-01,  2.67084222e-02,
          1.50713306e-02, -1.77905262e-02, -7.06840307e-02,
         -1.18051566e-01,  2.20391117e-02],
        [-2.34417059e-02, -8.66604075e-02, -6.77917004e-02,
          2.28558686e-02,  2.07275990e-02, -1.12125531e-01,
          7.08004087e-02,  7.17525184e-02, -4.25024778e-02,
          8.51096064e-02, -6.42703474e-02, -1.14216357e-01,
         -1.33421132e-02,  3.97972502e-02,  8.29882845e-02,
         -9.54231992e-02,  6.11209720e-02,  9.72732753e-02,
          1.76056232e-02,  7.78657719e-02,  8.77106264e-02,
         -1.45841122e-01,  7.13117048e-02,  8.66722241e-02,
          1.08536705e-01, -5.23275547e-02, -2.03152578e-02,
         -7.63194934e-02, -4.84879054e-02, -3.88486311e-02,
         -7.16816857e-02, -2.35256515e-02],
        [ 9.70683694e-02, -2.89577730e-02, -4.96653020e-02,
          2.42964234e-02,  6.79026842e-02, -2.07979903e-02,
          1.23858877e-01,  1.07895084e-01,  9.47766565e-03,
          9.21245217e-02,  9.53996778e-02,  6.60275072e-02,
         -6.53879866e-02, -8.54569376e-02, -6.84184954e-03,
          4.13770974e-03, -8.99262652e-02,  1.76145174e-02,
          2.30992213e-03, -3.60742696e-02, -5.56534529e-02,
         -2.29099169e-02, -3.81764881e-02,  6.49004877e-02,
         -4.47281338e-02, -4.11770828e-02, -7.82770216e-02,
          8.47681910e-02,  3.55330892e-02, -3.68600301e-02,
         -3.82838249e-02, -5.38622700e-02],
        [-8.51988140e-03,  8.78487453e-02,  5.37695363e-03,
         -5.93513213e-02,  1.39128016e-02, -4.30963896e-02,
         -1.00295417e-01, -7.77689964e-02,  7.08461553e-02,
         -1.00558467e-01, -8.65065902e-02, -5.94263151e-02,
         -9.62955132e-02,  1.07776122e-02, -6.97186291e-02,
         -7.41311163e-02,  3.03169750e-02, -3.54716517e-02,
         -1.11530557e-01, -1.02749541e-02,  5.26683852e-02,
          7.13459402e-02,  6.60627382e-04,  8.02625790e-02,
          4.47073504e-02, -9.70363095e-02,  6.26794845e-02,
         -1.18773066e-01,  8.94499645e-02, -8.08523074e-02,
          7.54683316e-02, -4.38140295e-02],
        [ 9.48278885e-03, -1.26842940e-02, -4.27591875e-02,
         -5.62682515e-03, -4.16932069e-03, -1.07898653e-01,
          1.01637855e-01, -5.24063818e-02,  7.91709051e-02,
          8.73178616e-02,  1.15087256e-01, -8.76247287e-02,
          1.56515595e-02, -1.05276041e-01,  1.17735090e-02,
         -2.16138419e-02, -8.11401904e-02,  3.48619930e-03,
          3.11336596e-03, -1.30464532e-03, -3.13703753e-02,
          7.81702027e-02,  1.03342213e-01, -1.10897794e-01,
          3.73391807e-02,  1.87121555e-02,  9.79699716e-02,
         -1.38398493e-04,  1.19815141e-01, -8.79845396e-02,
         -1.25020549e-01, -7.91957974e-02],
        [-7.01846108e-02, -2.94766296e-03, -3.64839807e-02,
          2.96520516e-02,  3.97935845e-02,  2.36651581e-02,
         -8.04973766e-02,  2.36775037e-02, -9.43540875e-03,
          3.62507440e-02,  8.55195299e-02, -1.15129910e-01,
         -1.09254099e-01, -9.83760282e-02, -8.98027420e-02,
         -1.08732060e-01,  7.98616186e-02, -9.43808928e-02,
         -1.23500982e-02,  4.00903672e-02, -9.81959850e-02,
         -8.84726942e-02, -4.68111373e-02, -9.38392580e-02,
         -5.61677516e-02, -2.67062299e-02,  2.27444004e-02,
         -3.52738723e-02, -1.01093017e-02, -9.85366777e-02,
          8.26864392e-02,  2.36494318e-02],
        [ 5.47444485e-02, -5.05337939e-02,  9.85053703e-02,
         -7.70299435e-02, -8.56470168e-02, -1.28067344e-01,
          6.97604269e-02,  6.66873455e-02,  2.61510871e-02,
         -1.01811290e-01,  1.37432581e-02,  9.36905518e-02,
          7.16876090e-02, -1.06607579e-01,  7.20076412e-02,
          8.26176032e-02,  2.34321188e-02,  5.79653867e-02,
          2.07940228e-02,  3.42138819e-02,  1.04280323e-01,
         -3.93533111e-02,  8.02691504e-02, -9.24074054e-02,
          7.98617825e-02, -5.45898788e-02, -2.16501113e-02,
          8.96153972e-02,  1.21472038e-01, -7.50273392e-02,
         -6.94230273e-02,  3.63536030e-02]],

       [[-9.81784016e-02, -2.15982832e-03, -3.31480578e-02,
          7.18787685e-02, -1.15006668e-02,  5.41270189e-02,
         -3.01193856e-02, -7.11142123e-02,  1.26521856e-01,
          4.45898883e-02,  5.31708635e-02,  4.78734449e-02,
         -1.57649294e-02,  2.86217295e-02,  3.28106582e-02,
         -1.34777650e-01, -5.24707958e-02, -6.91755861e-03,
         -3.85677852e-02,  9.49971303e-02,  7.37690330e-02,
         -8.36736485e-02,  2.48986064e-03, -2.31383611e-02,
         -4.37663421e-02, -7.36570135e-02,  1.00220479e-01,
         -7.81092271e-02, -3.88679877e-02,  8.15675557e-02,
         -6.26604585e-03,  8.59010369e-02],
        [-6.11604191e-03, -3.91151123e-02,  1.10620514e-01,
         -9.03579593e-02,  2.49280352e-02, -4.15149815e-02,
          1.15140907e-01, -1.01666726e-01, -1.86003395e-03,
         -3.33802290e-02,  4.08828929e-02,  6.02039546e-02,
          7.43155032e-02, -7.94872493e-02, -4.41754386e-02,
         -1.19655766e-01, -7.29103684e-02, -6.52230382e-02,
         -6.10317923e-02,  2.48321006e-03,  4.75639887e-02,
         -1.16943106e-01,  9.24138129e-02,  9.67844352e-02,
          7.91846961e-02, -7.74411932e-02,  3.93197462e-02,
          2.22094152e-02,  8.05664137e-02, -7.90204778e-02,
          1.40052177e-02, -5.39275445e-03],
        [-8.08675513e-02, -1.04846075e-01,  4.01447415e-02,
         -9.33255330e-02,  5.54198809e-02,  8.11800659e-02,
          8.60725716e-02, -8.38197991e-02, -5.81072271e-02,
          1.03928775e-01,  3.93473729e-02, -2.05105692e-02,
          4.28825095e-02, -4.42555882e-02, -4.41654958e-02,
         -3.11707240e-02,  9.07627717e-02,  9.73365158e-02,
         -1.04318693e-01,  1.25261635e-01, -5.13206124e-02,
          6.24841712e-02,  8.19944963e-02, -6.08162284e-02,
         -3.21679227e-02,  4.65421975e-02,  7.81207979e-02,
          2.42796866e-03, -5.83882965e-02,  5.87430708e-02,
         -4.03872579e-02,  7.18687922e-02],
        [ 3.54285911e-02, -1.02141947e-01,  2.42372584e-02,
          2.19973270e-02,  5.03301844e-02, -1.15933130e-03,
          2.21581422e-02, -4.20793109e-02, -5.06594591e-02,
          3.83855365e-02,  6.92910375e-03, -6.56975880e-02,
         -1.05421320e-01,  9.15285498e-02,  2.40957756e-02,
          9.09998175e-03,  1.10217810e-01,  4.20196867e-03,
          1.89712588e-02,  8.68157297e-02, -1.21794231e-01,
         -2.83567570e-02, -3.95143293e-02, -1.08520180e-01,
         -9.02742520e-02, -1.26654193e-01,  3.69109437e-02,
         -1.25617519e-01,  9.58678871e-02, -9.33470652e-02,
         -1.04100145e-01, -9.09623802e-02],
        [ 1.12005420e-01,  5.70100099e-02,  9.16500986e-02,
         -4.23329100e-02, -1.66216400e-02,  1.14070527e-01,
         -3.56220640e-02, -6.73650950e-02,  9.69045535e-02,
          1.27318174e-01, -1.55097786e-02,  1.21718682e-01,
         -7.93958604e-02,  7.23106936e-02,  9.80583355e-02,
          5.37780486e-02, -6.71775118e-02,  1.07059449e-01,
         -9.20728594e-02,  9.88376066e-02, -6.01927796e-03,
         -5.84950931e-02, -9.07769352e-02, -5.00993244e-02,
          6.02041464e-03,  1.05271265e-01,  7.44274259e-02,
          2.87870523e-02, -7.53373802e-02,  9.53511000e-02,
         -5.33187166e-02,  7.17192665e-02],
        [-3.67631540e-02, -4.54683155e-02,  7.34865963e-02,
          5.66993244e-02, -1.14957668e-01,  6.42912313e-02,
          8.91147777e-02, -9.19944420e-02, -4.74414602e-02,
         -4.81831469e-02, -2.99188662e-02, -2.31879633e-02,
          1.05337764e-03,  2.80082934e-02, -5.78054488e-02,
         -9.18902904e-02,  7.59581551e-02, -3.27254012e-02,
          3.95872351e-03, -6.62104040e-02, -9.86748114e-02,
          3.81062105e-02, -1.65577605e-02,  4.20197248e-02,
          2.68073436e-02,  5.06754518e-02,  6.28125817e-02,
          9.52591072e-04, -7.97274262e-02,  1.01077586e-01,
         -1.86587498e-02,  6.29916340e-02],
        [ 8.90974998e-02,  2.11047642e-02, -7.27932751e-02,
          1.90384649e-02,  4.27730605e-02, -2.20149895e-03,
         -7.44448463e-03, -6.62286878e-02, -3.81848495e-03,
         -2.58445386e-02, -1.06453635e-02, -4.78145517e-02,
         -1.03807384e-02,  4.43532579e-02,  7.28174532e-03,
         -4.28993907e-03, -2.76186131e-02,  3.98455895e-02,
         -8.11031908e-02, -6.39622658e-02, -7.53496662e-02,
         -6.08906746e-02,  2.39117220e-02,  9.60356966e-02,
          8.68413970e-02, -2.51601287e-03,  9.44948494e-02,
          5.77193424e-02,  6.58082888e-02,  5.09371236e-02,
         -1.26037195e-01, -9.94912311e-02],
        [-4.44454849e-02,  8.15969426e-04, -5.01859002e-02,
         -2.31960956e-02,  9.62222088e-03,  1.94018595e-02,
         -1.21949933e-01,  3.52456756e-02, -4.36677784e-03,
         -3.50627974e-02, -6.62090816e-03, -4.50478755e-02,
          9.24899802e-02, -5.71861938e-02, -8.80226120e-02,
          2.00228151e-02,  1.83911659e-02, -4.79129441e-02,
         -2.22705882e-02,  4.99995798e-03, -8.21415856e-02,
         -4.94216084e-02, -3.64278704e-02,  4.33788821e-02,
          1.00764289e-01,  1.28740203e-02, -4.09194231e-02,
          7.07317516e-02,  1.21116510e-03, -3.01044490e-02,
          3.29969916e-03,  1.93888303e-02],
        [ 6.11410141e-02, -1.12510651e-01, -7.37878680e-02,
         -4.16886322e-02, -3.02495733e-02, -2.36442424e-02,
          4.47698585e-05,  7.75204897e-02,  7.29581341e-02,
         -6.24992698e-02, -4.88836365e-03,  6.77987784e-02,
         -5.71227558e-02,  4.24644649e-02, -6.09509507e-03,
         -8.41043890e-02,  2.32882388e-02, -2.13696156e-02,
         -1.09357394e-01, -8.74290429e-03,  6.86599538e-02,
          5.91763556e-02, -3.05692572e-02, -7.66016096e-02,
          5.17076477e-02, -8.39232951e-02,  2.72244979e-02,
         -2.72978581e-02, -7.95525089e-02, -4.43993462e-03,
          1.64075606e-02, -9.23117772e-02],
        [-9.15373042e-02,  1.93923246e-02, -9.66085196e-02,
          1.16615258e-01,  5.49328178e-02,  1.38351647e-02,
         -7.64072761e-02, -7.86193013e-02, -1.07113399e-01,
          3.80094945e-02, -8.33246782e-02,  4.38401029e-02,
         -7.65595362e-02, -3.32773663e-02, -3.68653908e-02,
         -7.96790868e-02,  3.65721658e-02,  5.81613295e-02,
         -4.81352136e-02, -1.63807382e-03,  7.83704445e-02,
          4.00092639e-02,  6.33022338e-02,  8.28470811e-02,
         -8.70632660e-03, -9.56021845e-02,  3.27777341e-02,
         -1.52905919e-02, -7.67140016e-02,  7.76554644e-02,
         -8.75222534e-02,  7.11761713e-02],
        [-2.30344646e-02, -6.39118701e-02,  4.19054516e-02,
         -2.45079631e-03,  7.20536523e-03, -4.38654833e-02,
         -1.09851710e-01,  3.73318605e-02, -6.92876652e-02,
          7.37530813e-02,  5.48736528e-02,  5.59360385e-02,
         -1.01667814e-01, -9.94618535e-02,  2.65325159e-02,
         -1.22133784e-01,  4.02296558e-02,  8.02712748e-05,
         -1.03792205e-01,  3.83166261e-02, -3.10033783e-02,
          7.68970102e-02, -8.66361484e-02, -4.13502678e-02,
         -2.74883732e-02,  6.58336356e-02,  5.15738986e-02,
          6.61263540e-02, -9.38163921e-02,  8.21215883e-02,
         -3.17488797e-03, -8.06659274e-03],
        [-1.17501289e-01, -3.99081670e-02,  4.96059731e-02,
          3.37754674e-02, -5.67501597e-03, -2.52556521e-02,
          3.28007005e-02,  5.13528436e-02,  1.43258646e-01,
          8.28797370e-02,  6.71713650e-02,  4.32475889e-03,
         -2.71592792e-02,  9.78938537e-04, -3.55324382e-03,
         -1.21585071e-01,  4.17755859e-04,  3.42103802e-02,
         -7.63177648e-02,  1.33638456e-01, -7.37603530e-02,
          1.23089040e-02,  1.20790917e-02,  1.12592876e-01,
          6.23443760e-02, -7.94770643e-02, -7.29288608e-02,
         -7.75840804e-02,  3.25048976e-02, -1.08096488e-02,
         -5.92738986e-02,  6.79762363e-02],
        [-1.15858428e-01,  6.05496345e-03, -6.63426593e-02,
         -8.09586234e-03, -4.35159206e-02, -4.60133962e-02,
          6.91640303e-02, -2.04688142e-04, -4.13466468e-02,
          4.95682135e-02,  1.24654137e-02, -7.72182196e-02,
         -9.05424803e-02, -1.28770359e-02, -3.30275334e-02,
         -3.48432399e-02, -8.27721879e-02,  5.54661639e-02,
         -5.73480688e-02,  5.58709241e-02, -9.38986838e-02,
         -8.64896998e-02,  7.75450692e-02, -6.61542490e-02,
         -7.31853396e-02,  1.02642901e-01,  5.97451553e-02,
          8.36268216e-02, -1.06350906e-01, -6.29626065e-02,
         -8.65705237e-02,  8.98192003e-02],
        [-1.52003695e-03, -6.75423518e-02,  5.18400185e-02,
         -8.71922821e-03, -9.43221748e-02,  9.04781520e-02,
          8.54649954e-03,  4.46064509e-02, -8.31375271e-02,
         -3.27248573e-02, -5.47734536e-02,  1.83008425e-02,
          8.49457160e-02,  1.12279043e-01, -8.92714038e-02,
         -6.72914907e-02,  6.69090822e-02, -7.38032395e-03,
         -6.03645742e-02, -8.35666358e-02, -9.04311314e-02,
         -9.10964981e-02, -9.34447944e-02,  2.67270836e-03,
         -2.87038293e-02, -1.43711886e-03,  5.93250394e-02,
         -2.65557617e-02,  1.46812741e-02,  6.80906028e-02,
         -1.66592151e-02, -5.08563081e-03],
        [ 8.53863284e-02, -1.61509290e-02,  7.38445893e-02,
          2.30407603e-02,  7.60910064e-02, -8.77193287e-02,
         -5.18799014e-02, -2.61613969e-02,  6.14241278e-03,
          1.79000460e-02,  1.27734728e-02,  3.88597175e-02,
         -4.39280532e-02, -3.72475125e-02,  8.21057856e-02,
          4.10335464e-03, -1.07021458e-01,  7.07840594e-03,
         -1.39869945e-02,  6.94269165e-02, -7.89215937e-02,
         -7.25956932e-02,  1.13498107e-01,  6.39006421e-02,
          5.60584962e-02, -1.29187807e-01, -5.84574640e-02,
         -6.63799122e-02, -5.37810177e-02, -8.86957198e-02,
         -1.50949452e-02,  1.10269800e-01],
        [ 7.32554570e-02, -8.05401206e-02, -4.50391583e-02,
         -5.63839562e-02,  8.86039138e-02, -1.03600435e-01,
          3.81151512e-02,  6.82111084e-02, -7.95731619e-02,
          7.24223501e-04,  4.12520804e-02,  2.23189183e-02,
          7.65814185e-02, -9.56211463e-02, -3.30448970e-02,
         -7.06654340e-02, -7.57018570e-05,  4.64211963e-02,
         -3.17909233e-02, -1.17219813e-01,  1.55951362e-02,
          1.60928126e-02,  3.28530446e-02,  4.86003682e-02,
          7.58799091e-02,  3.39472219e-02,  9.70012248e-02,
          1.12127848e-01,  2.93259080e-02,  9.92456377e-02,
         -7.23260641e-02, -5.88709936e-02],
        [-2.03633551e-02, -9.56230834e-02,  1.01587959e-01,
         -2.66490933e-02,  5.17663620e-02, -1.02390558e-01,
         -5.69216199e-02, -3.88575830e-02,  8.63948092e-02,
          2.69599538e-02, -1.30326927e-01,  9.21352878e-02,
         -1.46108950e-02,  7.94114247e-02,  8.67466722e-03,
         -1.40019394e-02, -9.74887833e-02, -6.57779630e-03,
          8.78020450e-02, -8.50761496e-03, -3.72614674e-02,
          1.17578462e-01, -5.09408489e-03, -7.69714862e-02,
          1.12509370e-01,  6.03521541e-02, -6.05214462e-02,
         -3.68151478e-02,  3.19743678e-02,  8.11127499e-02,
          1.91296712e-02, -3.48351372e-04],
        [ 4.33244631e-02, -2.87827384e-02,  1.29429266e-01,
          2.39147078e-02, -8.02739337e-02, -3.74238342e-02,
         -2.14008614e-02, -1.40318517e-02,  1.65807791e-02,
         -3.60341892e-02,  1.05373524e-01, -5.96019700e-02,
         -9.72936451e-02, -1.07111208e-01, -9.09133479e-02,
          7.64475539e-02,  1.47096124e-02,  6.73325062e-02,
          8.34940895e-02,  9.25402790e-02, -6.21612743e-02,
          3.03178187e-02,  2.95650959e-02,  6.38796762e-02,
         -9.11657661e-02, -3.31843905e-02,  9.11788195e-02,
          2.75086444e-02,  9.25525501e-02, -1.06837280e-01,
         -4.39210013e-02,  6.16683215e-02],
        [-8.56107250e-02, -4.82040681e-02,  1.22006513e-01,
          2.05630809e-02, -3.20971496e-02, -7.96087608e-02,
          3.63278538e-02,  1.04364246e-01,  3.86674814e-02,
          9.62576941e-02,  3.66260931e-02, -8.92058238e-02,
         -1.13747325e-02,  6.82760999e-02,  6.38176501e-02,
          3.95112522e-02, -9.88801848e-03, -8.03745985e-02,
         -1.16976048e-03, -2.84373444e-02,  5.35290949e-02,
         -5.81662171e-03, -5.68658523e-02,  8.60932693e-02,
          5.92272580e-02, -2.83383508e-03, -8.44595432e-02,
         -6.51700273e-02,  3.10860965e-02,  8.66826400e-02,
          2.89793927e-02,  7.38040805e-02],
        [-9.63742211e-02,  3.20333913e-02,  1.08669885e-01,
          3.31626497e-02, -3.84751447e-02,  6.00876696e-02,
          4.37992886e-02, -6.27600774e-02, -2.11682655e-02,
         -1.02623269e-01, -4.76950267e-03, -7.11342180e-03,
         -2.64173485e-02,  1.28830997e-02,  3.47194001e-02,
         -8.11016187e-02,  6.66005090e-02, -3.67973894e-02,
         -1.88019052e-02,  2.69910470e-02, -9.03513655e-02,
         -1.21339798e-01,  5.11672311e-02, -5.30642085e-02,
         -2.57758908e-02, -1.06959507e-01, -7.59277791e-02,
          6.73134103e-02,  7.25091249e-02,  5.20030893e-02,
         -5.53670293e-03,  1.20522581e-01],
        [ 7.22586140e-02, -1.17621295e-01,  8.94669816e-02,
         -1.06908688e-02,  4.33874205e-02,  1.72973219e-02,
          7.91839138e-02,  5.57301380e-03,  6.02129996e-02,
          5.72600178e-02,  1.12360775e-01, -5.76661862e-02,
          2.11652350e-02, -3.19915265e-02,  2.17312085e-03,
          2.37316843e-02, -2.44534835e-02,  3.06760315e-02,
         -1.13267630e-01,  9.26294848e-02,  1.09480005e-02,
         -6.28455430e-02,  1.11105256e-01,  3.80181111e-02,
         -7.41795450e-02,  6.43714517e-02,  8.70127138e-03,
          8.46186727e-02,  7.75333643e-02,  5.22655249e-03,
         -1.00453049e-01,  4.13548276e-02],
        [-3.97968218e-02,  1.38533730e-02, -3.71965766e-02,
          5.33627905e-02,  2.20640711e-02, -8.83685201e-02,
         -8.93603861e-02, -3.08756977e-02,  4.41511311e-02,
         -2.04025917e-02, -8.01186562e-02, -1.06487192e-01,
          1.22603625e-02, -3.80221270e-02, -5.80925122e-02,
         -7.70979971e-02,  9.67727900e-02,  2.53062788e-02,
         -5.67181148e-02, -9.36047211e-02,  9.15530249e-02,
         -7.49386400e-02, -3.79407629e-02,  6.93566799e-02,
          3.58246379e-02,  2.64548603e-02,  4.71060351e-02,
          4.44071479e-02, -7.57346973e-02, -2.84738722e-03,
          3.65534201e-02, -5.70274843e-03],
        [ 4.27701436e-02,  8.16635787e-02,  4.07142714e-02,
         -5.59417307e-02,  6.14613853e-03,  5.01531884e-02,
          1.53476242e-02, -2.12702285e-02, -1.87349617e-02,
         -5.63370734e-02, -1.12392634e-01,  8.98673609e-02,
         -5.83707020e-02,  8.10472667e-02,  9.87487584e-02,
          4.90376540e-03, -7.72204399e-02,  9.35324654e-02,
          4.29056138e-02,  8.03778842e-02, -3.31709646e-02,
          4.82903123e-02,  1.02683753e-02, -2.21465658e-02,
         -6.45481283e-03, -8.43665525e-02, -5.97165972e-02,
         -2.68146917e-02,  1.75126968e-03, -2.17749774e-02,
         -7.47644529e-02,  8.16114899e-03],
        [-4.93692458e-02,  4.93080579e-02,  1.21469513e-01,
          4.08951379e-02,  7.14838579e-02,  5.18440008e-02,
          4.66108657e-02,  7.90163055e-02,  6.81777820e-02,
          1.64677724e-02, -1.13763232e-02,  7.83787891e-02,
          9.96570587e-02, -1.14415258e-01,  7.59079382e-02,
         -5.92803350e-03,  1.25979289e-01,  6.48333654e-02,
          8.63922611e-02, -1.09441727e-01, -9.66188535e-02,
         -9.97271165e-02, -5.63353933e-02,  5.33939302e-02,
          3.58680114e-02,  7.22988844e-02,  2.29804888e-02,
          6.93534967e-03, -5.70839271e-03,  7.84537941e-02,
         -7.01117218e-02,  1.01642437e-01],
        [-7.69994631e-02, -1.62705705e-02, -1.37724094e-02,
          6.30895272e-02, -6.27327859e-02,  1.08979300e-01,
          7.30740651e-02, -1.99519880e-02, -1.84218194e-02,
         -7.13349655e-02, -3.67939501e-04,  1.08876787e-01,
         -3.61973271e-02, -8.24391097e-02,  2.54484024e-02,
         -9.67619345e-02, -6.01436310e-02,  7.63154104e-02,
         -9.98319462e-02, -9.63638648e-02,  1.14302620e-01,
         -2.88682822e-02, -9.78357941e-02, -3.17857713e-02,
          1.09445952e-01, -9.23982486e-02, -1.08007431e-01,
         -5.05523607e-02, -8.59012604e-02, -1.82829536e-02,
         -8.14541802e-02, -4.33226824e-02],
        [-5.00197522e-02, -7.12375790e-02,  3.75174172e-02,
          4.89687137e-02,  2.26770379e-02, -5.96622787e-02,
         -5.89655936e-02, -4.30087410e-02, -8.30933675e-02,
         -1.08123444e-01, -1.08892895e-01,  4.22336385e-02,
          8.58999491e-02, -9.18504596e-02,  5.92306331e-02,
          8.81239399e-02, -2.98464019e-02,  4.53410745e-02,
         -1.22904181e-02, -6.99568167e-02, -7.08624572e-02,
          4.19223718e-02,  9.73367393e-02,  6.48588091e-02,
          8.78414959e-02,  1.92244984e-02, -2.25103181e-02,
          9.82815176e-02, -1.28320036e-02,  9.98947620e-02,
         -9.59463045e-02, -1.16213970e-02],
        [-1.43659115e-02, -9.90027562e-02,  1.34532765e-01,
          1.03693046e-01,  5.88302910e-02,  9.09026936e-02,
         -1.16063207e-02, -5.23102377e-03,  3.54352482e-02,
          1.05076052e-01,  8.58867988e-02,  5.18637486e-02,
          1.58681162e-02, -1.12375140e-01, -5.24664596e-02,
         -1.00802056e-01,  1.07822239e-01, -6.02014028e-02,
          3.33392574e-03, -8.62699077e-02, -2.99069285e-02,
          3.99362408e-02,  4.96127456e-02,  8.26220661e-02,
          4.76580253e-03, -3.61272432e-02,  4.84123407e-03,
         -4.23705913e-02,  2.23587472e-02, -2.92913374e-02,
         -7.66866729e-02, -1.11673847e-02],
        [ 6.83385730e-02, -5.83017580e-02, -9.78604853e-02,
         -9.80883557e-03, -1.11760393e-01,  9.27157030e-02,
         -5.50653189e-02, -2.80551221e-02, -7.12600257e-03,
         -9.23241153e-02,  8.91983360e-02,  9.95147452e-02,
         -3.70668694e-02, -4.60106358e-02, -1.23032913e-01,
         -1.09944917e-01,  4.84533980e-02, -1.49098197e-02,
          3.14758494e-02, -4.59905043e-02,  3.06647457e-02,
          8.19991156e-02,  5.84621392e-02, -7.32070282e-02,
         -1.02892064e-01, -2.98946220e-02, -6.00674301e-02,
         -8.98653269e-02, -6.46647885e-02,  6.16701245e-02,
         -6.65312260e-02, -6.43185377e-02],
        [ 7.48617351e-02, -1.13153368e-01,  7.81658664e-03,
         -3.98802124e-02,  9.91711579e-03,  1.98221505e-02,
         -4.98046204e-02, -4.29469682e-02,  6.54310510e-02,
          3.29088084e-02,  3.08151655e-02, -6.84841722e-02,
          5.42396866e-02,  9.04853269e-02, -5.11526130e-02,
         -7.20265806e-02, -5.28750904e-02, -7.26289153e-02,
         -1.63386837e-02,  2.61925571e-02, -6.90875649e-02,
         -7.77811408e-02, -4.03929092e-02, -1.32782310e-02,
         -1.16293669e-01,  4.26013395e-02, -5.93033582e-02,
          3.90793607e-02,  3.32873873e-02,  2.90836394e-02,
         -2.59941518e-02,  1.21932782e-01],
        [-7.69016594e-02, -3.97415124e-02,  1.04760386e-01,
          1.82948299e-02, -2.99652386e-02,  1.12166442e-01,
          2.08966658e-02, -1.20599873e-01, -9.89160314e-03,
         -1.83517002e-02,  4.67552990e-02,  8.73227566e-02,
          5.13672493e-02,  3.43119353e-02,  6.46079332e-02,
         -1.06013440e-01, -2.37354171e-02,  3.70839760e-02,
          8.90927315e-02,  5.41802496e-02, -7.46616796e-02,
         -9.76027772e-02, -7.49963447e-02,  1.65310372e-02,
          7.45309219e-02, -3.05510722e-02,  3.69030721e-02,
         -6.57086521e-02, -3.63671705e-02, -6.32263254e-03,
         -8.90773088e-02, -5.64847030e-02],
        [ 5.91608211e-02,  5.54032288e-02, -6.75943866e-02,
          1.04528144e-02,  6.64079040e-02,  5.12353666e-02,
         -1.31938839e-02,  8.72430131e-02,  8.61939937e-02,
          6.55385330e-02,  5.90262786e-02,  6.25064671e-02,
          2.95391809e-02, -1.11539975e-01, -1.09897017e-01,
         -3.97882164e-02, -5.70531562e-02,  9.70923379e-02,
          1.69279147e-02, -1.59822907e-02,  9.39467028e-02,
          1.99880619e-02, -4.57624830e-02, -4.28040661e-02,
         -2.47543175e-02, -1.00100257e-01, -5.14424406e-02,
          4.36201766e-02,  9.60413516e-02,  6.54959530e-02,
         -9.40572098e-02, -2.99626403e-02],
        [-9.98858362e-02, -5.84216230e-02,  8.64247307e-02,
         -4.30476926e-02,  3.87501419e-02, -9.11805183e-02,
         -2.18183566e-02, -3.50413136e-02,  3.29808556e-02,
          6.53114095e-02, -1.02410287e-01, -6.39235368e-03,
         -6.24383986e-02, -1.05666175e-01,  8.92513171e-02,
         -2.10126638e-02,  1.65771544e-02,  1.21844210e-01,
          8.74189064e-02, -7.66416546e-03, -4.55974378e-02,
         -5.66380695e-02, -2.47677397e-02,  5.07003367e-02,
          3.63506339e-02,  3.67968827e-02, -5.99941872e-02,
          8.52447599e-02,  5.48818186e-02,  3.98471244e-02,
          2.16254983e-02,  1.04253940e-01],
        [ 5.06345108e-02,  1.62830874e-02, -8.01431164e-02,
         -1.60466954e-02, -1.05950631e-01,  2.49508582e-02,
         -4.76024263e-02,  6.67329654e-02,  5.49037643e-02,
         -6.43998682e-02, -1.84477901e-03, -9.67211574e-02,
          7.39092752e-02, -8.46302211e-02,  6.02356605e-02,
          5.19492030e-02, -2.64357999e-02, -2.66178995e-02,
          2.11347826e-02,  6.26853257e-02,  4.01337259e-02,
          4.25452590e-02, -2.63164993e-02,  3.12891714e-02,
          5.23377545e-02,  4.79928367e-02,  1.71984546e-02,
         -1.00019388e-01,  3.58263552e-02,  6.37494028e-02,
         -1.02715150e-01, -9.08258408e-02],
        [-1.00825384e-01,  5.98680601e-02, -1.70674790e-02,
          1.07070990e-01,  6.43993393e-02, -8.68829563e-02,
          5.55775017e-02,  5.47190532e-02, -9.96516198e-02,
          3.67788114e-02, -1.13725297e-01, -8.54115784e-02,
          9.19172615e-02,  5.27932383e-02, -1.15212806e-01,
         -1.05675071e-01, -4.58256081e-02, -1.49733527e-03,
         -1.24993362e-02,  9.19147804e-02, -5.21364436e-02,
         -8.69450122e-02,  1.17985934e-01,  5.60650714e-02,
         -8.61286297e-02, -8.26526061e-02, -2.77525038e-02,
          2.18496621e-02, -6.57658800e-02,  5.65198958e-02,
         -2.34990735e-02,  3.08442768e-02],
        [ 2.93867812e-02, -1.34352967e-02, -1.10653281e-01,
         -2.01431871e-03,  4.47364477e-03,  4.59401309e-02,
         -6.28407151e-02, -9.15066749e-02, -8.82578939e-02,
         -2.36565787e-02,  2.38815974e-02,  2.93037202e-02,
          1.12287160e-02,  4.45736088e-02,  4.97623347e-02,
          1.16358288e-01, -6.24674410e-02,  8.00259411e-03,
         -5.78003284e-03, -9.22290906e-02, -1.55876372e-02,
          7.12256553e-03,  1.14050955e-02, -1.07172333e-01,
          1.00846507e-01,  2.61071660e-02, -3.43428440e-02,
          6.54761493e-02, -8.73699486e-02,  2.70086024e-02,
          6.89138547e-02, -2.94297263e-02],
        [-4.88137566e-02,  8.44093412e-02,  7.05429316e-02,
         -5.11503480e-02, -3.08531174e-03,  1.65929217e-02,
         -6.23364374e-02, -1.15822993e-01, -6.78292215e-02,
         -8.39506015e-02, -8.26016665e-02, -8.41826648e-02,
          4.74113412e-02,  9.12750959e-02,  9.27958563e-02,
          1.25197321e-02,  1.14500262e-02,  4.28265929e-02,
         -1.17044896e-02, -7.82399327e-02,  1.13542322e-02,
         -2.79610939e-02, -1.18386783e-02,  5.51791936e-02,
         -3.54932547e-02, -3.41537781e-02,  5.39083295e-02,
          1.99178210e-03,  8.71368647e-02, -8.80153850e-02,
         -1.12855569e-01,  8.63564238e-02],
        [ 2.82029659e-02,  8.18253607e-02, -7.61324260e-03,
          7.89537728e-02, -8.43443647e-02,  8.61067325e-02,
          4.08295132e-02,  9.76476446e-02, -5.48955798e-02,
          5.33930734e-02, -3.43931578e-02, -5.36325611e-02,
         -1.62545443e-02,  1.07752252e-03,  7.69903958e-02,
          6.30569831e-02,  6.79496070e-03,  6.34861067e-02,
          2.83733830e-02,  8.84070620e-02,  9.25047398e-02,
         -4.02184054e-02, -5.27335554e-02,  2.35065911e-03,
         -6.82029724e-02, -9.90842879e-02,  7.41508231e-02,
         -7.59973675e-02,  9.88277495e-02, -9.16739851e-02,
         -5.48059456e-02,  7.47957751e-02],
        [ 7.54030645e-02, -1.18480232e-02, -1.19206674e-01,
         -7.88472407e-03,  4.41839509e-02,  1.99588668e-02,
          4.40317392e-02, -1.25114117e-02,  8.50782841e-02,
          7.33544752e-02,  2.94901375e-02, -5.65781072e-02,
          1.03835864e-02, -7.95896351e-02,  8.09413567e-02,
          4.90054823e-02, -1.05114534e-01, -3.63375880e-02,
         -9.47656929e-02, -1.01174861e-01,  5.67230843e-02,
         -5.61006330e-02, -7.57778436e-02,  7.72659434e-03,
         -8.88467506e-02, -1.04577072e-01,  3.52679044e-02,
         -3.80312204e-02,  9.48602613e-03, -3.23311724e-02,
          3.52949128e-02, -2.47197896e-02],
        [-5.06131724e-02, -3.52619514e-02,  8.18179026e-02,
          5.60246706e-02, -2.73159668e-02,  3.31757218e-02,
          1.47414953e-02,  5.18141948e-02,  7.64688477e-02,
          3.67536917e-02, -3.99952903e-02,  7.15952814e-02,
         -1.04313828e-01, -1.48654422e-02, -4.43609059e-02,
         -1.85413565e-02, -1.02703199e-01, -9.22677666e-02,
          6.21888041e-02,  1.33028328e-01, -8.89480412e-02,
          7.07674623e-02,  3.54419760e-02, -7.09924847e-02,
         -3.61415111e-02,  5.90425842e-02,  7.40659907e-02,
         -9.90430862e-02, -9.68977287e-02,  1.29955383e-02,
         -1.55869164e-02,  5.26177362e-02],
        [-6.25483394e-02, -6.13805726e-02,  6.51792884e-02,
         -2.37692911e-02, -6.85973912e-02,  6.90216944e-02,
         -4.55134921e-02,  8.44395161e-02, -8.85048509e-02,
          4.44060229e-02, -7.77852014e-02,  2.79436111e-02,
          6.40055910e-02,  4.97106537e-02,  3.07953376e-02,
         -6.42819777e-02,  2.08903328e-02,  1.39866602e-02,
         -8.12413916e-02,  4.34501246e-02,  3.32301334e-02,
          6.83480427e-02, -1.05003398e-02, -8.06641579e-02,
         -1.43062305e-02,  4.54906188e-02, -4.70660627e-02,
         -7.30979145e-02,  9.27421302e-02, -4.16516401e-02,
          5.72242141e-02,  4.37157881e-03],
        [-3.16175558e-02,  8.44845772e-02,  8.70185196e-02,
         -6.51847571e-02,  5.54039292e-02,  6.80570304e-02,
          5.85811846e-02, -4.34939340e-02, -1.45415366e-02,
         -7.37558156e-02,  6.03243634e-02, -2.27811728e-02,
          1.06788106e-01,  1.09690679e-02,  1.01968730e-02,
         -8.05741996e-02, -5.72913401e-02,  2.17278115e-02,
         -7.14078695e-02, -6.54692575e-02,  6.75593540e-02,
         -2.72459313e-02,  1.00209668e-01, -4.84436564e-02,
          3.53336930e-02,  7.71682411e-02,  6.69364855e-02,
          1.81647409e-02, -9.23163444e-02,  8.22716802e-02,
          9.41321626e-02,  5.70826530e-02],
        [-1.87589508e-02,  5.04071303e-02,  8.20538029e-02,
          2.51992401e-02,  3.63539495e-02, -5.26720397e-02,
          1.35385068e-02,  9.58232656e-02,  9.58532002e-03,
          1.10725433e-01,  2.50355899e-02, -1.01436742e-01,
         -2.48662475e-03, -1.37285069e-01, -1.17323101e-01,
          7.15239942e-02, -1.16674677e-01, -6.42657652e-02,
          5.83984703e-02, -8.17793310e-02,  5.94731420e-02,
          9.69945192e-02,  6.32161880e-03,  9.06994715e-02,
         -1.04932636e-02, -1.32309675e-01, -2.53536683e-02,
         -1.61436591e-02,  1.02347374e-01, -1.16019823e-01,
          7.97070116e-02,  3.08900140e-02],
        [ 7.14237690e-02,  7.18347132e-02, -5.46719991e-02,
         -1.84802264e-02, -5.98292612e-02, -4.56058681e-02,
          4.76879068e-02, -5.44377826e-02,  5.03706299e-02,
         -8.38461146e-02,  1.47823850e-02,  1.08104371e-01,
         -2.85489541e-02, -5.34460172e-02, -5.59167378e-02,
         -2.30917591e-03,  1.22889660e-01, -3.12105641e-02,
          9.85909328e-02,  6.30493984e-02,  2.06175484e-02,
         -1.17239319e-01,  1.31375352e-02,  8.19209497e-03,
         -1.94304436e-02, -6.31525889e-02, -1.26882181e-01,
          2.53509227e-02,  5.23587205e-02,  2.57032141e-02,
          7.24776238e-02,  7.20246583e-02],
        [-2.84377802e-02, -6.85100853e-02,  7.10861087e-02,
          9.32473838e-02,  9.84378234e-02, -1.59669872e-02,
          1.23447161e-02, -5.80026396e-02,  1.86485834e-02,
          3.14721204e-02, -7.37745734e-03,  2.69175749e-02,
          7.46489540e-02,  7.02165440e-02,  5.29579632e-03,
         -6.05074093e-02, -1.66570321e-02,  2.48899106e-02,
         -4.09287885e-02, -1.80529561e-02, -5.15639596e-02,
         -8.86835307e-02,  1.04247428e-01,  1.09655317e-02,
         -1.04423523e-01,  7.06010982e-02,  1.61759590e-03,
          3.77293006e-02,  8.42224360e-02,  2.36205533e-02,
         -8.65156054e-02, -3.28965448e-02],
        [-5.08463494e-02,  2.12214626e-02, -6.30040094e-02,
         -1.00555249e-01, -1.11502074e-01,  1.38969137e-03,
          2.27778386e-02, -9.94054824e-02, -6.15581535e-02,
         -8.90627578e-02, -2.29231045e-02, -9.40182507e-02,
          4.59785797e-02,  6.95804507e-02, -1.23614192e-01,
         -1.16941445e-01, -4.00582701e-03,  7.20118657e-02,
          4.31605168e-02,  7.95323681e-03, -6.84576808e-03,
         -6.84912354e-02, -6.64671883e-02, -7.66749531e-02,
         -1.91039424e-02,  7.72623941e-02,  8.48827511e-02,
         -3.14766876e-02, -4.11447510e-02,  5.71972318e-02,
         -6.15967028e-02, -4.20544902e-03],
        [-7.03367367e-02, -1.02607403e-02, -1.16059259e-01,
         -8.98735300e-02, -1.80287380e-03, -1.22951768e-01,
         -9.95249823e-02,  7.03881010e-02,  9.38319862e-02,
          8.79054591e-02, -5.81250899e-02, -9.00182687e-03,
         -9.72973332e-02,  6.86224736e-03, -9.75399539e-02,
         -5.88371381e-02, -5.39712310e-02, -5.20233437e-02,
         -6.42030165e-02,  8.89621004e-02,  9.06810686e-02,
         -5.25459275e-02,  3.00855897e-02, -3.83679196e-02,
         -4.12306562e-02, -7.74194300e-02, -2.41763350e-02,
          1.05599269e-01,  8.31788629e-02,  3.48987468e-02,
         -1.00196771e-01, -4.40519303e-02],
        [-8.36538002e-02, -4.60170023e-02, -5.91304246e-03,
          2.05414500e-02, -7.89762139e-02, -9.69180614e-02,
          5.89175411e-02,  7.73665830e-02,  4.81177978e-02,
         -3.15807052e-02,  8.05981234e-02, -6.62914217e-02,
         -1.53554659e-02, -5.03240339e-02, -9.21338350e-02,
         -6.40618242e-03, -3.77125852e-02, -5.58453053e-02,
          7.70427212e-02, -5.09019569e-02,  2.11094841e-02,
         -7.54593387e-02, -9.06338841e-02,  2.46002916e-02,
          1.22118600e-01,  3.94269340e-02, -4.38166317e-04,
          8.88530686e-02,  7.25544617e-02,  8.30012634e-02,
         -1.02019892e-03, -4.23026010e-02],
        [ 1.03735059e-01, -5.14526144e-02,  1.84857491e-02,
          6.15819134e-02, -3.16033587e-02, -8.19417685e-02,
         -7.87602663e-02, -2.41481997e-02,  9.82755423e-02,
          1.06333978e-01, -9.08849090e-02, -5.74159212e-02,
         -6.94699362e-02,  3.52401775e-03, -2.27419380e-02,
          4.75889817e-02, -4.97747660e-02, -1.15371197e-01,
          3.80546153e-02,  4.46967185e-02, -1.15856878e-04,
         -6.43761689e-03,  5.30332066e-02, -2.23540403e-02,
         -9.05106738e-02, -3.44078592e-03, -2.38429997e-02,
         -9.51389130e-03,  3.63640375e-02, -5.03462777e-02,
          4.97281132e-03,  3.47672179e-02],
        [ 8.48506764e-03,  5.25900498e-02,  9.49632190e-03,
          1.09889776e-01, -9.28949788e-02, -1.12105228e-01,
         -6.10756800e-02, -8.42632428e-02,  7.21710697e-02,
          1.21553056e-03, -8.58040601e-02, -1.53966900e-02,
          7.64021929e-03,  1.23343930e-01,  8.47474635e-02,
         -4.95917685e-02, -3.26797217e-02,  1.03179112e-01,
         -5.30124567e-02,  6.30564429e-03, -1.12710923e-01,
         -8.10229108e-02, -1.27283679e-02,  4.02355520e-03,
         -4.87707034e-02, -6.72964891e-03, -2.57043634e-02,
         -2.44817026e-02, -2.49449424e-02, -6.09656535e-02,
         -1.09766275e-01, -5.96751273e-02],
        [-6.66857734e-02,  4.87530828e-02,  4.64725606e-02,
          1.09557681e-01,  1.57109718e-03, -6.57220855e-02,
          1.32562891e-02,  1.29927145e-02, -8.42430815e-03,
         -7.30495304e-02, -6.83067515e-02,  9.14200768e-02,
          8.97391066e-02, -4.97302338e-02, -4.26861681e-02,
         -9.48220268e-02, -5.93044199e-02, -2.83076381e-03,
          5.30589893e-02,  9.00290348e-03,  5.90149984e-02,
         -1.13487989e-01, -8.96882638e-02,  2.61403341e-02,
         -7.53840432e-02, -2.42717024e-02, -1.10674269e-01,
          5.97966723e-02, -9.67881829e-02,  5.85395657e-02,
         -4.88138646e-02,  8.35242569e-02],
        [-8.27257857e-02,  9.18543618e-03, -3.25883813e-02,
          7.85289705e-02, -4.59805578e-02,  1.02721401e-01,
          2.15109773e-02,  8.31175223e-02,  8.19004849e-02,
          4.00628038e-02,  8.74499977e-02, -7.59466290e-02,
         -5.14297672e-02,  1.55819231e-03, -5.02509400e-02,
         -5.69464378e-02, -1.04138544e-02,  6.21383414e-02,
         -5.10281436e-02,  9.62832049e-02, -1.10432900e-01,
         -7.90988058e-02, -1.09303355e-01, -9.60781947e-02,
          1.32721961e-02,  3.79703715e-02, -7.92621002e-02,
         -2.81647071e-02,  3.98216881e-02, -3.18246968e-02,
         -9.31471363e-02, -3.91096771e-02],
        [ 7.94119760e-02, -2.19776873e-02, -3.51001769e-02,
         -1.45379677e-02, -7.63932616e-02, -9.78544801e-02,
          5.11081703e-02, -1.65346488e-02,  1.10238902e-01,
         -1.36737600e-02,  1.22234479e-01, -9.95914266e-02,
         -9.65669099e-03, -5.22810258e-02,  2.38504522e-02,
          5.09331226e-02, -7.13081807e-02,  1.11622997e-02,
          5.79306185e-02, -8.73026997e-02,  2.67868713e-02,
         -3.11029330e-02, -3.93098295e-02, -1.00859925e-01,
         -1.25041530e-01,  2.95960903e-02, -2.48680338e-02,
          9.24407393e-02, -4.24543396e-02, -5.86835593e-02,
          3.46423350e-02,  4.13155444e-02],
        [-8.99135023e-02, -9.13506821e-02,  5.05419038e-02,
         -3.74305137e-02,  4.41452190e-02,  8.32355842e-02,
          1.21734291e-01,  4.68833558e-02,  1.25853181e-01,
         -1.51802795e-02,  1.13252655e-01,  2.29637101e-02,
         -3.07637434e-02, -3.46206687e-02,  5.14488518e-02,
          1.12407014e-01,  8.83181542e-02,  1.84885617e-02,
         -7.13255210e-03, -4.06563394e-02, -9.83366370e-02,
         -5.16727827e-02, -7.88450539e-02,  7.49306753e-02,
          1.01262741e-01, -1.02302410e-01, -6.46867324e-03,
         -3.52640748e-02,  3.65877487e-02,  3.51536013e-02,
         -3.03776818e-03, -1.00905508e-01],
        [-2.25056075e-02, -3.07426881e-02,  1.11177593e-01,
         -7.26490244e-02,  1.01218447e-02,  2.45827176e-02,
         -9.37338267e-03,  3.24454382e-02,  1.30218165e-02,
         -1.13136075e-01, -6.90231612e-03, -8.82729590e-02,
          8.19783062e-02,  1.13021314e-01,  2.83936281e-02,
          5.74188568e-02, -4.13878188e-02, -3.42291258e-02,
         -6.24483265e-02,  6.05332330e-02,  8.64176825e-02,
          9.79039595e-02,  2.06779549e-03, -3.71602699e-02,
         -1.30378483e-02,  6.78219795e-02, -1.02214560e-01,
         -1.38720693e-02,  1.14816530e-02,  5.44287153e-02,
          3.00507620e-03, -5.88995703e-02],
        [ 1.10937998e-01,  1.24491267e-02, -5.35841063e-02,
          4.83795553e-02, -8.93443823e-02,  2.90934220e-02,
         -8.16478506e-02,  1.25491098e-01, -8.37601125e-02,
          8.20414871e-02, -6.85038194e-02, -5.78753762e-02,
          1.19887084e-01,  4.55083698e-02, -4.96904105e-02,
          1.17012402e-02, -2.08805595e-02,  4.26171757e-02,
          5.16005382e-02,  1.60406213e-02,  7.81700835e-02,
         -9.65889543e-02, -2.49578943e-03, -4.74332236e-02,
         -5.07338420e-02, -9.45208147e-02,  2.50707362e-02,
          5.50886542e-02, -9.60838888e-03,  8.98861513e-02,
          4.36188169e-02,  1.19653093e-02],
        [-1.62105821e-02, -9.81415287e-02,  7.35267028e-02,
         -1.15478203e-01, -4.37774509e-02,  2.17123572e-02,
         -5.70107065e-03,  1.03043608e-01,  2.96882968e-02,
         -8.42679758e-03,  1.94663112e-03,  8.73904079e-02,
         -8.24060477e-03, -2.85041835e-02, -4.64421557e-03,
         -6.60455823e-02, -5.24909943e-02,  3.41763347e-03,
          4.00077440e-02, -8.96918401e-02,  3.25848050e-02,
          9.78440344e-02,  8.82162899e-02,  7.65936729e-03,
         -4.13873531e-02, -9.08159986e-02, -2.77256351e-02,
         -2.39866320e-02,  6.27986863e-02, -1.17135756e-01,
         -3.67875174e-02,  6.69414401e-02],
        [-7.23799458e-03,  6.10206425e-02, -1.77206378e-02,
         -7.54379183e-02, -7.23650232e-02,  3.34017128e-02,
         -1.00493152e-02, -7.98607692e-02, -1.73166152e-02,
          8.17993879e-02,  6.14911765e-02,  6.21006973e-02,
         -6.06943071e-02, -6.34374246e-02,  1.67376921e-02,
         -1.50179176e-03,  9.94297713e-02, -3.68390568e-02,
          5.68604022e-02, -5.68306074e-02, -1.17495678e-01,
          6.61731139e-02,  4.04937044e-02,  3.48561741e-02,
         -6.10692129e-02,  5.60611077e-02, -7.50783384e-02,
          9.66126174e-02,  5.10265455e-02,  5.14345914e-02,
          3.40473428e-02,  3.61066610e-02],
        [-8.22606906e-02,  7.84966722e-02,  1.15434406e-03,
         -9.31624174e-02, -2.75241807e-02, -9.87157449e-02,
         -1.32252071e-02,  2.41936240e-02,  2.94469967e-02,
         -4.69933711e-02, -8.24383050e-02,  4.69583161e-02,
          6.35864511e-02,  1.93154942e-02, -8.60864073e-02,
          1.00169212e-01,  9.28001925e-02,  6.79265289e-03,
         -6.25266135e-02, -8.07761252e-02,  2.19394937e-02,
          6.30342513e-02,  8.02343413e-02, -1.50495395e-02,
          8.08184072e-02,  9.42057967e-02,  3.49487662e-02,
         -8.03846419e-02,  9.15175378e-02, -5.18913791e-02,
         -1.85701321e-03, -6.61607552e-03],
        [-1.54628837e-02, -1.07993521e-01,  1.01025049e-02,
         -6.71516433e-02, -9.41484571e-02,  5.50233480e-03,
         -1.18034892e-02, -1.14252687e-01, -2.97564585e-02,
          3.87683474e-02, -7.58955702e-02,  7.28828460e-02,
         -9.77407116e-03,  7.33448984e-03, -6.40204698e-02,
          5.45568541e-02, -2.14021672e-02,  4.67478633e-02,
         -5.11115231e-03,  8.76075774e-02,  9.36204270e-02,
          9.40169394e-02,  1.09950460e-01, -1.31079750e-02,
         -1.16709378e-02, -9.44162384e-02,  7.29960874e-02,
         -6.34360500e-03, -1.60795059e-02, -1.30738374e-02,
          6.58202693e-02,  3.16703878e-02],
        [-9.11541004e-03,  4.00819853e-02, -2.17570718e-02,
          6.62132427e-02,  4.03992608e-02, -5.30601777e-02,
         -1.63202956e-02, -3.95673439e-02, -2.93756630e-02,
         -9.81003195e-02,  5.76179288e-02,  1.01280101e-01,
         -6.55715317e-02,  6.61786497e-02,  1.08194826e-02,
         -8.22363347e-02, -1.02009624e-03,  8.85761902e-02,
         -6.77640364e-02, -4.71129008e-02,  2.74441671e-02,
         -3.98138389e-02, -4.41131443e-02, -8.65596384e-02,
         -5.86863905e-02,  7.84745440e-02,  8.77780318e-02,
          3.11171263e-02,  1.10012844e-01, -1.16645992e-01,
         -9.03393850e-02, -4.64852676e-02],
        [-4.69073206e-02, -6.72525086e-04, -5.49523905e-02,
         -3.48691940e-02, -3.80598754e-02,  3.58214304e-02,
          1.59600060e-02, -1.09287113e-01, -1.73083171e-02,
          3.98981161e-02, -5.21591045e-02, -9.48659435e-05,
         -2.56139059e-02, -1.24462722e-02, -8.96448120e-02,
         -9.40556675e-02, -9.71582904e-03,  1.04093641e-01,
          1.11256070e-01,  3.46215218e-02, -3.44926566e-02,
         -6.90472499e-02, -3.20513695e-02,  8.53261128e-02,
         -1.09643236e-01, -9.60752964e-02, -5.44825830e-02,
          1.63079873e-02,  4.20508981e-02, -5.13227396e-02,
          6.04462922e-02, -7.08988011e-02],
        [-2.26225685e-02,  1.04383558e-01, -2.81281099e-02,
         -7.60150701e-02,  7.33746588e-02,  1.17337719e-01,
          6.54041618e-02,  4.36996520e-02,  8.40198621e-02,
         -6.56660721e-02,  1.06024303e-01, -3.40275355e-02,
         -3.70313530e-03,  8.72492641e-02, -1.01987928e-01,
         -2.21374258e-02,  4.94900569e-02,  2.24794205e-02,
         -7.16740862e-02, -8.76516663e-03, -8.27781782e-02,
          7.40557387e-02, -6.14819862e-02,  8.20048824e-02,
         -5.95839582e-02, -9.36040655e-02, -2.87301224e-02,
          7.90483207e-02,  9.52476561e-02,  7.86931738e-02,
          8.85210782e-02, -5.98723479e-02],
        [ 6.53148741e-02,  4.22966406e-02,  9.76835340e-02,
          4.54924293e-02,  1.54713169e-03, -2.27925330e-02,
          7.27767823e-03,  2.48001050e-02,  2.61240918e-02,
         -7.16249496e-02,  1.00568987e-01,  2.50559580e-02,
         -5.28200455e-02,  1.36359900e-01, -3.56152579e-02,
          9.60101490e-04,  4.30990271e-02, -3.81555744e-02,
          5.27833728e-03,  3.92023027e-02, -7.17817852e-03,
         -7.11234286e-02, -2.52933502e-02,  6.17299676e-02,
          3.96270817e-03, -4.85834628e-02,  5.00430875e-02,
         -1.01581439e-01, -1.09176822e-01,  1.68063445e-03,
          1.77798439e-02, -1.27997482e-02],
        [ 3.54609042e-02, -1.02869198e-01,  1.69735737e-02,
          4.29494902e-02, -3.61884125e-02, -5.79261594e-02,
         -3.89443450e-02, -2.30604643e-03,  5.23990653e-02,
          5.52527905e-02,  1.27369883e-02,  8.65651369e-02,
          4.04871106e-02,  8.52601305e-02,  4.84698340e-02,
         -1.54944107e-01,  4.77001593e-02,  2.85144616e-02,
          6.44382164e-02, -1.37599697e-02, -7.82083906e-03,
         -9.53832269e-02,  4.69458625e-02,  1.18843190e-01,
         -4.68514897e-02,  6.77969232e-02,  1.98257645e-03,
          6.94530755e-02,  1.20156199e-01, -7.53112733e-02,
         -1.04788229e-01, -3.66525352e-02]],

       [[-6.98994030e-04, -1.19036928e-01, -4.95260619e-02,
          5.96427880e-02,  3.28310914e-02,  5.44098243e-02,
          4.06875685e-02,  1.10906713e-01,  4.64048237e-02,
          5.46107106e-02,  5.26251225e-03, -7.72077963e-02,
         -6.00063503e-02, -1.14528678e-01, -5.06519601e-02,
         -1.03807919e-01, -9.68757197e-02,  5.75783998e-02,
          1.30513050e-02, -8.52679461e-03, -1.18670151e-01,
         -3.49788517e-02, -8.50806981e-02, -9.05206650e-02,
         -2.63882540e-02,  3.40788928e-03,  2.39461791e-02,
          3.01061682e-02, -7.97584951e-02,  1.29598126e-01,
          2.73963623e-02, -2.00299043e-02],
        [-1.28483051e-03,  4.12621349e-02, -5.05517796e-02,
          7.20004588e-02,  1.13472836e-02, -3.44836302e-02,
          2.53404789e-02, -4.78270203e-02,  1.13788687e-01,
          7.60084242e-02, -1.34348758e-02,  3.70358191e-02,
          6.68014213e-03, -7.44673610e-02,  5.06822020e-02,
          5.46971476e-03, -6.12257309e-02,  7.20146671e-02,
          5.63747138e-02, -5.65769784e-02, -3.07263900e-02,
          6.50563389e-02, -2.89200973e-02,  5.46566620e-02,
         -1.66913047e-02, -4.09169821e-04,  2.37186737e-02,
          3.56241427e-02, -4.62401174e-02, -6.82391673e-02,
          4.76679951e-02,  1.21904844e-02],
        [ 1.05957140e-03,  6.45400258e-04,  1.17043212e-01,
         -9.38232914e-02, -9.33343172e-03, -5.94706181e-03,
          2.18893420e-02, -8.28707442e-02,  4.47493345e-02,
         -4.99041378e-03, -4.52808589e-02, -3.41737084e-02,
          7.62207014e-03, -1.29671320e-02, -6.67620972e-02,
         -4.90348227e-02,  1.04324624e-01,  2.67208647e-02,
         -2.13628467e-02,  8.28140005e-02, -4.19135727e-02,
         -3.96171398e-02,  8.33908543e-02,  1.32544208e-02,
         -1.39891580e-02, -1.04684353e-01,  3.61431316e-02,
          4.14144434e-02,  1.56352557e-02, -7.65730441e-02,
          1.39568169e-02, -8.28676894e-02],
        [-5.48080057e-02, -7.39591047e-02,  4.09742519e-02,
         -4.43605818e-02, -1.35733988e-02, -6.17010109e-02,
          8.07246491e-02,  4.04695682e-02, -2.81787887e-02,
         -2.98863091e-02,  1.01396859e-01,  2.90861055e-02,
          8.37693140e-02,  1.05284117e-02,  9.08081755e-02,
         -6.09312095e-02, -5.27610034e-02,  7.30445310e-02,
         -6.77258298e-02,  3.74536328e-02, -4.39745896e-02,
          7.98369870e-02, -1.85691733e-02,  5.40061258e-02,
         -3.64223011e-02,  3.56904194e-02,  1.21972427e-01,
         -4.13244627e-02, -8.08737651e-02, -6.79061413e-02,
         -2.22318005e-02, -7.49874488e-02],
        [ 2.41785310e-02, -1.12126274e-02,  6.90113679e-02,
          3.47525626e-02, -4.56916168e-02,  9.26520452e-02,
         -1.52886622e-02,  1.56776607e-02,  7.59631097e-02,
         -2.21758112e-02, -4.33555059e-02,  1.02268502e-01,
         -2.13912483e-02, -9.79258940e-02, -3.77884582e-02,
         -3.07194609e-02,  4.78690974e-02, -6.34860545e-02,
          8.01123381e-02, -3.79097089e-02, -7.55508170e-02,
          7.46366605e-02, -9.55801383e-02, -3.58934551e-02,
          1.08250342e-01,  3.22160944e-02,  7.33082369e-02,
         -4.80511114e-02,  2.44346447e-02,  9.23717860e-03,
         -3.45368981e-02,  8.36744457e-02],
        [-6.42351247e-03, -3.46820354e-02,  1.14501469e-01,
          1.72031391e-02, -6.50444254e-02,  3.19528617e-02,
          3.88669707e-02,  1.57570019e-02, -2.66274661e-02,
         -1.18077450e-01,  2.02474892e-02,  2.06843074e-02,
          7.28873238e-02, -1.01398095e-01,  2.74235234e-02,
         -1.98317338e-02, -3.96696366e-02,  1.06547028e-01,
          3.73363011e-02, -6.16964549e-02, -3.65623645e-02,
         -7.54287243e-02, -5.02969623e-02,  1.13849975e-01,
         -2.82154977e-02,  4.86086532e-02, -1.10974483e-01,
         -1.05425738e-01,  1.14182122e-02,  4.87078615e-02,
         -6.08375967e-02,  1.42130017e-01],
        [-1.28329024e-01, -3.84505056e-02, -9.21981037e-03,
          7.91583508e-02,  7.65463570e-03, -2.99291052e-02,
          1.05388388e-01, -2.83995531e-02, -6.89781830e-02,
         -1.30206138e-01, -2.31148340e-02,  1.65185630e-02,
          7.63504878e-02, -1.28068626e-01, -6.98285028e-02,
         -7.91334435e-02,  7.42246062e-02, -7.84350261e-02,
          1.06159970e-01, -6.85757445e-03,  2.73898225e-02,
         -8.27364326e-02,  3.25541338e-03,  3.25941644e-03,
          7.19176512e-03,  4.66129072e-02,  1.84188131e-02,
         -1.14251129e-01,  6.41988665e-02,  1.76271852e-02,
          7.20267966e-02, -8.85619968e-02],
        [ 1.00008965e-01, -8.75015333e-02, -4.43084389e-02,
         -7.89143294e-02, -1.48030287e-02,  1.96956210e-02,
         -5.79497144e-02, -5.01028709e-02, -5.87835200e-02,
         -5.65569140e-02,  1.08355731e-01,  8.53838772e-02,
          8.71324092e-02, -6.64282814e-02, -8.48110393e-02,
         -3.27749224e-03, -5.62582863e-03, -3.89188994e-04,
         -7.01983199e-02, -9.55208763e-02, -1.97521411e-02,
         -1.06660493e-01, -3.39555629e-02, -1.11034237e-01,
          3.20993774e-02, -7.93614015e-02, -4.57612388e-02,
         -6.98163286e-02, -5.42573705e-02, -6.80817338e-03,
         -6.78111911e-02,  2.04954315e-02],
        [ 5.24984188e-02,  1.62300896e-02,  2.90227719e-02,
         -5.96961603e-02, -1.31251439e-02, -9.70789418e-02,
         -3.17255259e-02,  8.03404897e-02,  9.80184078e-02,
          8.57068598e-02, -2.62411293e-02,  9.56548527e-02,
          8.34756419e-02,  4.47101630e-02,  3.23570445e-02,
          1.02831744e-01,  2.25831456e-02,  6.22328222e-02,
         -7.33419582e-02, -1.01015419e-01, -2.01115943e-02,
         -9.87034813e-02, -1.00214906e-01, -5.68446070e-02,
          9.42987576e-02,  4.04524282e-02, -8.39931369e-02,
          6.21663146e-02,  1.19545376e-02, -8.53546485e-02,
         -3.69422771e-02,  7.12478980e-02],
        [ 6.05578572e-02,  1.01971112e-01,  7.74947181e-03,
         -6.79291086e-04,  3.96108031e-02,  1.02175670e-02,
         -3.23071936e-03, -4.57027480e-02, -8.80001858e-02,
         -2.28230059e-02, -4.15767096e-02,  4.37199585e-02,
         -4.49734740e-03,  1.36672575e-02,  2.15715952e-02,
         -3.06072477e-02,  9.85115469e-02,  3.11900694e-02,
         -3.37513462e-02, -1.90939251e-02,  1.03565063e-02,
         -3.92429009e-02, -1.78195126e-02,  2.33453177e-02,
         -1.10000588e-01, -9.89794061e-02, -3.89302112e-02,
          5.52994423e-02,  1.01468317e-01, -7.36527815e-02,
          3.44827659e-02,  4.75104712e-02],
        [-1.02828391e-01, -5.74854910e-02,  8.38877261e-02,
         -7.70265562e-03, -6.79910854e-02,  9.53246281e-02,
          1.20212272e-01,  2.13118270e-02, -6.06275499e-02,
          3.76917012e-02,  5.52452495e-03, -7.52219558e-02,
         -8.57660472e-02, -6.65118247e-02, -7.80337378e-02,
         -1.53895337e-02, -7.04215541e-02, -9.79579091e-02,
         -8.72554556e-02, -8.37899595e-02,  7.99803510e-02,
         -2.33830186e-03, -9.80304480e-02, -2.57373806e-02,
         -4.81590554e-02, -9.28629749e-03,  7.15594292e-02,
         -7.65482411e-02, -4.99916077e-02,  7.98127726e-02,
         -2.95910798e-02, -6.77157044e-02],
        [ 1.17456429e-02, -4.33751568e-02,  3.33970338e-02,
          7.07849264e-02,  7.10100457e-02,  2.62365267e-02,
          4.69903536e-02, -5.43390140e-02,  1.28467754e-01,
          8.44508708e-02,  1.64474603e-02, -1.08917490e-01,
         -9.06754211e-02,  4.55137379e-02, -6.48548976e-02,
          2.50523705e-02, -4.89288010e-03, -1.00799717e-01,
         -7.21096396e-02,  1.07273161e-01,  8.36099833e-02,
          3.32590342e-02,  6.40523657e-02, -6.63098097e-02,
         -9.41236154e-04,  3.61678638e-02,  1.03041470e-01,
         -4.60756980e-02,  1.28241375e-01, -3.91651702e-04,
          8.08717310e-02, -9.82679985e-03],
        [-1.27131879e-01,  6.37172982e-02, -5.44395223e-02,
          1.02936096e-01,  1.15962222e-01,  5.27171455e-02,
         -6.22646362e-02,  8.00370350e-02,  9.50395316e-03,
         -1.12699062e-01,  1.15923621e-02,  6.38967678e-02,
          8.84971172e-02,  4.66856025e-02, -7.62875285e-03,
         -5.82680292e-02, -7.15543404e-02,  1.81729887e-02,
         -8.79288316e-02,  6.36794344e-02,  5.26082814e-02,
         -1.03949457e-01, -6.58798963e-02,  6.01721480e-02,
         -1.01020105e-01,  7.29443803e-02,  1.51057048e-02,
          1.23401843e-02,  9.02334694e-03,  2.50451360e-02,
         -6.88567236e-02, -4.20749411e-02],
        [ 5.91940358e-02, -6.77576363e-02,  1.59388855e-02,
         -4.51808907e-02,  8.57993662e-02, -6.22896738e-02,
         -4.41713221e-02,  4.81351838e-02,  1.16701832e-03,
         -7.71771893e-02, -2.67964918e-02,  1.00286424e-01,
         -1.18914219e-02, -4.83305193e-02, -8.67430940e-02,
         -4.25941199e-02, -9.27929431e-02,  1.52376750e-02,
          1.23597914e-03, -1.01340506e-02, -1.58157088e-02,
          5.16788214e-02,  5.29378690e-02,  6.20539375e-02,
         -5.29559096e-03,  5.12895361e-02,  1.15114279e-01,
         -8.66249576e-03, -3.34275961e-02,  9.70908720e-03,
         -4.67255712e-02, -1.13393947e-01],
        [ 4.81964238e-02,  4.74997796e-02,  1.03591681e-01,
          2.33220756e-02,  1.62465312e-03,  4.28657308e-02,
          6.96572363e-02, -3.44689563e-02, -4.75496352e-02,
          5.77631593e-02, -1.31934825e-02,  7.61650205e-02,
         -7.45573491e-02, -4.30815481e-02, -9.30311009e-02,
         -5.61321750e-02, -1.42035529e-01, -6.70396164e-02,
          4.85918187e-02,  7.65611231e-02,  6.20811060e-02,
          5.65720862e-03, -1.58618502e-02, -9.16009024e-03,
         -8.28634202e-02, -9.20014754e-02, -4.12595235e-02,
         -1.16343230e-01,  7.31678605e-02,  3.66275758e-02,
         -1.16417371e-01,  1.38144821e-01],
        [-8.75112936e-02,  7.97671378e-02,  5.53407613e-03,
          8.79497752e-02, -8.23070258e-02, -7.94374645e-02,
          9.82526541e-02, -2.13064700e-02, -3.54558602e-02,
          4.23212798e-04,  8.60229656e-02, -2.60459930e-02,
         -6.00761771e-02, -2.44483799e-02, -9.32229012e-02,
          4.10260521e-02, -4.92173284e-02, -5.52667677e-03,
          2.61339154e-02,  7.85985496e-03, -7.36682117e-02,
          5.73570020e-02, -6.68321848e-02,  5.29508963e-02,
          6.50444925e-02,  3.52595448e-02,  2.72795055e-02,
          8.08290765e-02,  4.09837328e-02, -3.16937305e-02,
          8.36613253e-02, -3.28479633e-02],
        [-1.20801739e-01, -2.18022484e-02,  1.05480149e-01,
          1.55084701e-02, -3.27100568e-02, -6.77434877e-02,
         -4.64537777e-02, -9.28944275e-02,  9.14056376e-02,
          5.91087081e-02,  5.29154427e-02,  7.48987310e-03,
         -6.95034191e-02, -8.09733793e-02,  8.91286582e-02,
         -3.11131664e-02, -7.91066140e-02,  3.93041186e-02,
          9.23939124e-02, -5.66190667e-02, -2.14868318e-02,
          9.15675461e-02,  7.73314089e-02, -9.75273028e-02,
         -9.33406502e-03, -6.13114983e-02, -8.34532380e-02,
          6.82728142e-02,  4.72646803e-02,  6.83998242e-02,
          9.41285938e-02,  8.31472129e-02],
        [ 6.42357767e-02,  4.87460792e-02,  6.57226592e-02,
         -7.16962591e-02, -4.42947187e-02,  1.00299947e-01,
         -9.96287167e-02, -2.31473204e-02,  1.21008597e-01,
          9.83481109e-02, -2.89797653e-02,  4.50010505e-03,
          7.91072994e-02,  6.89248517e-02,  3.59557606e-02,
         -1.55533720e-02, -8.70743394e-02,  4.59232889e-02,
         -1.30696982e-01, -6.64087683e-02, -2.91345976e-02,
          1.87428691e-03, -2.44441181e-02, -5.35124391e-02,
          8.20684433e-02,  2.29464062e-02,  9.51330885e-02,
          6.12689070e-02,  1.21434387e-02,  8.72534811e-02,
         -6.25023171e-02,  4.77903038e-02],
        [-3.68402861e-02, -3.83931436e-02,  1.17516384e-01,
         -4.05778438e-02,  1.67990997e-02,  7.60339648e-02,
         -2.91202441e-02, -5.54916747e-02, -2.67946552e-02,
          3.63547094e-02,  1.09001407e-02, -5.71852699e-02,
          1.19539291e-01,  7.29150996e-02,  1.50849055e-02,
         -9.90295317e-03,  1.40996918e-01,  9.40219760e-02,
         -3.61983068e-02, -8.00976828e-02, -1.35453165e-01,
          7.80175552e-02,  1.44507661e-02, -5.10386564e-02,
         -5.30355424e-02, -1.88708063e-02,  8.19478780e-02,
         -8.98757726e-02,  4.24825214e-03,  4.10076007e-02,
         -1.19574867e-01, -3.34915072e-02],
        [ 4.59769033e-02,  1.79950725e-02, -8.20674077e-02,
          3.99857946e-02,  8.96274745e-02,  4.75447923e-02,
          1.04449391e-02, -5.75405844e-02,  1.31056637e-01,
          1.10789835e-02,  9.85756591e-02, -7.55108073e-02,
          2.93661784e-02, -3.88568640e-02, -9.83423293e-02,
          5.98572530e-02, -3.95798153e-04, -4.00536740e-03,
          7.93780759e-02, -6.78786859e-02,  1.09222487e-01,
          4.62581702e-02,  4.96974513e-02, -1.49938632e-02,
          6.04038015e-02, -2.39144396e-02, -4.91781682e-02,
          1.03604384e-01,  2.41962727e-02, -6.17864132e-02,
          6.55896291e-02,  1.02953441e-01],
        [-3.60059142e-02,  7.19861016e-02, -2.17115339e-02,
          9.67301801e-02, -1.09901011e-01, -8.05390179e-02,
          6.36928007e-02, -5.30209281e-02,  5.25520965e-02,
         -7.25638028e-03, -4.23024185e-02,  8.70394483e-02,
         -2.86393799e-02, -5.27376588e-03, -7.04963058e-02,
          7.91411772e-02,  6.27664849e-06, -7.82298744e-02,
         -3.49884517e-02,  4.92672138e-02, -1.23048406e-02,
         -6.35932833e-02, -3.62150520e-02, -4.79113758e-02,
          1.55388936e-02,  9.83301084e-03, -8.20846707e-02,
          3.41105498e-02, -6.72255829e-02, -1.02375858e-01,
          8.54028985e-02,  9.61296074e-03],
        [-3.53541411e-02,  9.52048153e-02, -8.16045478e-02,
         -9.58284363e-02,  1.08670115e-01,  5.00170514e-02,
          5.36763370e-02,  3.94557938e-02, -8.79673138e-02,
          6.59801140e-02,  1.00855514e-01,  7.69480914e-02,
         -9.25512984e-02, -6.67969957e-02, -2.21505351e-02,
         -1.14922464e-01, -5.68986870e-02, -2.45102067e-02,
          4.61628772e-02, -1.91266667e-02, -1.16649605e-01,
          7.38892928e-02,  8.67780671e-02, -3.58981416e-02,
         -3.90953645e-02,  5.14302216e-02,  1.19721955e-02,
          8.28598812e-02, -2.44038948e-03, -1.02522045e-01,
         -5.92539124e-02,  9.32602212e-02],
        [ 7.36593455e-02,  6.07407577e-02, -9.83123481e-02,
         -8.98139402e-02,  7.64892101e-02,  6.78303912e-02,
         -1.56284552e-02, -7.13073611e-02, -1.16191156e-01,
         -6.19071908e-02,  5.33529650e-03, -5.95580600e-02,
          7.40258722e-03,  5.83361834e-02, -7.39625543e-02,
          1.25481961e-02, -8.09302777e-02, -1.01531453e-01,
          1.16634676e-02,  2.18978524e-02,  3.47844732e-04,
         -2.03125421e-02,  7.78818354e-02, -6.97031990e-02,
          1.95284020e-02, -9.87189338e-02,  7.93311372e-02,
         -6.81441799e-02,  6.60841167e-02, -6.26480356e-02,
         -1.08223341e-01,  4.50689755e-02],
        [-9.58252251e-02, -8.72361287e-02, -5.84803671e-02,
         -8.30384269e-02, -5.13606109e-02, -6.79254979e-02,
         -4.19154726e-02, -5.21246046e-02,  6.78130090e-02,
         -1.13770619e-01,  1.77846923e-02, -3.39822285e-02,
          7.72744715e-02,  9.19848979e-02, -9.13266316e-02,
         -7.53820911e-02, -4.46108542e-02, -4.20723446e-02,
         -1.20235130e-01,  5.59988841e-02,  7.48885497e-02,
         -9.49216336e-02, -1.60233804e-03, -7.67776743e-02,
         -6.13173842e-02,  7.04480857e-02, -1.78424772e-02,
         -3.21190655e-02,  7.41946325e-02, -1.43606085e-02,
         -6.91822544e-02,  4.29589637e-02],
        [ 4.73975688e-02, -1.64568834e-02, -7.00082034e-02,
         -2.33950354e-02,  5.69556914e-02, -3.74797545e-02,
         -1.26074955e-01,  7.15810880e-02,  5.20820059e-02,
         -1.20583158e-02, -5.18121198e-02, -2.99507491e-02,
          2.30611535e-03, -2.36321967e-02, -2.38407906e-02,
          4.51937802e-02,  9.81432796e-02,  4.75804023e-02,
         -3.76118682e-02, -6.64618053e-03, -3.25958282e-02,
          6.61323667e-02,  1.22585567e-02, -1.06655844e-01,
          6.53345734e-02,  4.40413915e-02,  7.96527322e-03,
         -1.64621288e-03, -7.69493803e-02, -4.33918796e-02,
         -5.85582629e-02,  8.47475231e-02],
        [-3.11064906e-03,  5.10746650e-02,  8.19018558e-02,
         -7.95127898e-02,  5.78623936e-02, -6.04066029e-02,
         -1.95754673e-02, -1.04303077e-01,  7.01997578e-02,
          8.82544369e-02,  5.34661561e-02, -8.97107064e-04,
         -5.65403439e-02,  6.44593611e-02, -1.92582514e-02,
         -8.70759934e-02, -2.77385060e-02, -1.21095568e-01,
          3.91181298e-02,  6.36662841e-02,  7.50734610e-03,
         -4.43148874e-02,  4.76276204e-02, -5.35247885e-02,
          6.78107738e-02, -7.97156096e-02,  8.25940371e-02,
          4.22191024e-02, -2.28042509e-02, -2.39608111e-03,
          4.80294786e-02,  5.48114926e-02],
        [-5.48547059e-02, -9.16006565e-02,  3.53300422e-02,
          1.17075168e-01,  7.81022236e-02,  2.06199698e-02,
         -2.30121221e-02, -6.27162904e-02,  5.00336401e-02,
          1.00911647e-01,  8.24516565e-02,  5.82683422e-02,
         -2.91394908e-02, -1.15206605e-02, -3.23363468e-02,
         -9.51226130e-02,  7.61936754e-02,  9.45278704e-02,
          2.11829450e-02, -6.62828162e-02,  5.47175445e-02,
          4.52966206e-02,  3.63379009e-02,  1.24392033e-01,
         -3.87551561e-02,  2.85946708e-02,  8.78373086e-02,
         -2.36983523e-02, -3.15188468e-02,  2.79600751e-02,
         -1.16177291e-01,  1.16764054e-01],
        [ 1.06343225e-01, -6.19442202e-02, -5.00475243e-02,
         -1.03022143e-01,  7.25940168e-02,  1.21181220e-01,
