[array([[[-1.01839937e-01, -2.66662464e-02, -1.45573780e-01,
          1.47296593e-01,  1.50969833e-01, -1.06421866e-01,
          1.77444622e-01,  4.38661575e-02,  5.18011814e-03,
          8.04478526e-02, -9.14978534e-02, -1.55551046e-01,
          9.98684615e-02,  1.00664034e-01, -2.02921894e-03,
          1.14233553e-01, -1.59422293e-01,  1.04212083e-01,
          2.96163857e-02,  1.57862723e-01, -5.10150753e-03,
          8.07520300e-02,  1.18210949e-01, -2.46505037e-01,
          1.82092953e-02, -2.72407413e-01, -8.49614851e-04,
         -1.34524614e-01, -7.32963383e-02, -9.33613852e-02,
         -2.04982776e-02, -1.18882440e-01],
        [-1.62936896e-01,  2.53784060e-02, -2.25092769e-01,
          3.37559760e-01, -3.94484773e-02, -1.32317394e-01,
         -3.60279940e-02,  3.41136754e-03, -3.41584720e-02,
          1.59534872e-01, -3.33453417e-01,  3.80854085e-02,
         -4.01581116e-02,  8.10460448e-02, -2.07118824e-01,
         -9.57007110e-02,  8.24883729e-02, -1.08117580e-01,
         -8.57408047e-02,  1.83531031e-01, -1.22039124e-01,
          2.55208313e-02,  1.88577529e-02, -2.70673722e-01,
          1.22473150e-01, -1.60997719e-01, -1.90134078e-01,
         -3.32252271e-02, -1.66087121e-01, -5.08557446e-02,
          2.00516004e-02, -8.00208524e-02],
        [-1.41412362e-01,  3.43125850e-01,  1.22183524e-01,
          7.28144543e-03,  1.67948708e-01, -9.83799919e-02,
         -1.60864159e-01,  1.96382508e-01, -4.86515602e-03,
          2.76060045e-01, -1.62553072e-01, -1.61583215e-01,
         -6.78991452e-02,  1.27236247e-01,  2.72285074e-01,
         -2.58219212e-01, -3.82293940e-01, -5.23055255e-01,
          1.54889002e-02,  4.39771712e-01, -1.43947139e-01,
         -1.29562542e-01,  1.21173464e-01,  1.73171774e-01,
          2.38782570e-01, -4.80134785e-01, -1.35301933e-01,
         -3.83335143e-01,  2.93329269e-01, -1.57798603e-02,
         -3.36862028e-01, -3.30814309e-02],
        [-7.64462054e-02, -1.84861183e-01,  1.46669179e-01,
         -4.11065191e-01, -8.52960199e-02,  2.01649159e-01,
         -2.15841189e-01, -2.59232461e-01, -3.11628580e-01,
         -6.64778892e-03,  1.00938983e-01,  6.33668853e-04,
         -5.13691194e-02,  1.43605381e-01, -1.70385703e-01,
         -1.65433362e-01, -3.59741658e-01,  1.21502399e-01,
          3.35108310e-01, -3.97445746e-02,  2.07797691e-01,
          1.35564342e-01, -2.47932523e-01,  5.44073701e-01,
          1.56047404e-01, -1.87789246e-01, -1.45737737e-01,
         -3.31160903e-01,  9.96586680e-02,  2.47428119e-01,
         -4.91399944e-01, -2.68289074e-02],
        [-3.57632607e-01, -5.69752455e-02, -3.47769618e-01,
          2.35986307e-01, -3.29001158e-01, -7.77251087e-03,
         -2.39883944e-01, -1.30053863e-01,  3.73147607e-01,
          2.75470823e-01, -2.50066351e-02, -1.23222418e-01,
         -9.70130041e-02, -1.04041860e-01, -3.32370818e-01,
         -9.95841250e-02,  3.99939306e-02, -2.09644228e-01,
         -1.10777758e-01,  4.56984282e-01, -8.32699426e-03,
         -6.02080263e-02,  2.56699353e-01, -3.16228718e-02,
          6.56004906e-01, -5.20597279e-01, -5.05980700e-02,
         -1.65080503e-01,  1.30056232e-01, -4.87387693e-03,
         -3.76436859e-01, -2.72135496e-01],
        [-1.45309821e-01,  9.53900144e-02, -7.07893968e-02,
          3.20695117e-02,  1.10230654e-01, -2.76138950e-02,
         -2.07968540e-02, -4.14228477e-02, -6.02872577e-03,
         -4.81410362e-02, -5.96033819e-02,  1.14528209e-01,
          1.39984608e-01, -1.39412254e-01, -2.24329298e-03,
          5.38078249e-02, -6.42700074e-03, -1.08287677e-01,
         -1.21088803e-01,  4.08725828e-01, -1.53598860e-01,
         -9.99842510e-02,  2.62680091e-02,  5.92159852e-02,
          1.65989324e-01, -5.17801762e-01,  3.23484614e-02,
         -1.22080550e-01,  2.13977009e-01, -9.51431096e-02,
         -4.28930610e-01,  4.52180766e-02],
        [ 7.13267475e-02, -2.62908041e-01,  4.60175835e-02,
          1.53562678e-02,  3.29414099e-01,  1.60383489e-02,
         -2.97121942e-01,  2.03031823e-01, -2.70394415e-01,
          1.16913356e-01, -1.40667036e-01,  2.28003472e-01,
         -4.02482152e-02,  1.32275568e-02,  5.34573533e-02,
         -2.64293998e-02, -2.31297582e-01, -1.84616342e-01,
          2.64048487e-01,  3.31032902e-01, -8.68245140e-02,
          6.75556203e-03, -3.65091115e-01,  5.83730817e-01,
          2.85762817e-01, -4.09507155e-01, -3.25348586e-01,
         -6.10711634e-01,  2.49468654e-01,  2.17754602e-01,
         -5.69290519e-01,  6.80548325e-03],
        [ 2.24185456e-02,  1.68759555e-01, -2.78146304e-02,
         -1.37029327e-02,  1.28339946e-01,  2.72740163e-02,
         -1.04550168e-01,  1.76711261e-01, -3.14665556e-01,
          9.05795172e-02,  1.37492731e-01, -1.82385482e-02,
         -2.58668989e-01,  1.89849257e-01,  1.51482806e-01,
         -1.94875836e-01, -2.52472401e-01, -1.76431611e-01,
          9.90740061e-02,  3.44021976e-01, -1.39648989e-01,
         -2.27022953e-02, -1.36023283e-01,  3.50068748e-01,
          2.30167493e-01, -2.18890861e-01, -2.70903021e-01,
         -1.44022152e-01,  3.41258906e-02,  2.16321617e-01,
         -3.13854754e-01,  8.86345580e-02],
        [-8.72553214e-02, -1.86491027e-01,  1.83636636e-01,
          1.66458469e-02,  1.64065897e-01,  1.74973905e-01,
         -1.10067703e-01,  8.95678774e-02, -1.69795528e-02,
          9.71705765e-02, -2.44627357e-01, -5.38146729e-03,
         -6.75364435e-02,  9.85736102e-02, -3.34882550e-02,
         -3.37022126e-01, -9.31364521e-02, -2.02863604e-01,
          1.42155886e-01,  2.74453253e-01, -2.40212902e-01,
          5.24982363e-02, -8.47345144e-02,  1.73939750e-01,
          4.65784550e-01, -4.41085607e-01, -2.16351263e-02,
         -5.01461923e-02,  2.08212852e-01,  1.16263516e-01,
         -5.75422466e-01, -8.28651488e-02],
        [-2.11530313e-01,  3.45261432e-02,  1.60217911e-01,
          1.90387726e-01,  1.72238573e-01, -3.71211022e-02,
         -1.92880020e-01, -3.86494584e-02, -1.49956301e-01,
          2.79753089e-01,  1.23113291e-02, -1.83876038e-01,
         -1.09609216e-01,  1.65417358e-01,  4.69277753e-03,
          1.36886137e-02, -1.42917886e-01, -1.32734507e-01,
         -1.80788442e-01,  7.40021169e-02, -1.08330036e-02,
         -1.54013276e-01, -2.98212737e-01, -1.47253886e-01,
          2.92566329e-01, -7.60671049e-02, -6.28531426e-02,
         -1.21159479e-01, -1.32612094e-01,  5.20656258e-02,
         -4.03712809e-01,  1.72249943e-01],
        [ 1.24882817e-01,  1.00059761e-02,  3.34670782e-01,
          1.63005769e-01,  3.51291627e-01,  7.58688301e-02,
         -1.22308217e-01, -1.14154160e-01, -1.80727035e-01,
          9.68720466e-02, -2.95410573e-01,  3.87924425e-02,
         -1.66035682e-01,  6.70144632e-02, -1.02140129e-01,
          6.62948762e-04, -5.54317944e-02, -1.19988099e-01,
         -1.95059299e-01,  3.14945489e-01, -2.54414737e-01,
          1.15669996e-01, -2.66738176e-01,  1.76700801e-01,
          2.08026588e-01, -6.19506717e-01, -5.63398749e-03,
         -2.23694652e-01,  3.69764328e-01,  1.07035160e-01,
         -5.51511943e-01,  1.27085811e-02],
        [-5.97358085e-02, -3.67356017e-02,  7.43598938e-01,
         -9.10377055e-02,  9.86697897e-02, -5.29690087e-01,
         -2.16929406e-01, -2.03469336e-01, -8.75390247e-02,
          3.29545915e-01,  5.24513014e-02, -2.68213600e-01,
         -1.33917123e-01,  4.35424834e-01, -1.48212716e-01,
          4.38768476e-01, -3.34551901e-01,  3.72762233e-01,
          5.92168868e-02, -1.25160441e-01,  5.89604914e-01,
         -2.82728951e-02, -5.79935536e-02, -1.20886549e-01,
         -4.89557922e-01, -1.62478000e-01,  4.72589359e-02,
         -1.01311900e-01, -7.47558102e-02, -1.40011296e-01,
          5.42833693e-02,  1.36050284e-01],
        [-2.05726251e-01,  2.41068110e-01,  1.78651258e-01,
          2.85263062e-01, -5.52941263e-02, -1.01110138e-01,
         -6.31607324e-02, -2.98748445e-02,  1.43013939e-01,
          3.40594172e-01, -2.87496358e-01,  4.15977314e-02,
         -6.68830797e-02,  2.81401742e-02, -5.17330281e-02,
          3.18151623e-01, -2.25999430e-01, -5.21954373e-02,
         -4.62940633e-02,  1.58632115e-01,  1.18404970e-01,
         -2.23865826e-03, -1.53657287e-01, -1.11151077e-01,
          1.11087643e-01, -3.27288717e-01,  1.94652583e-02,
         -4.90374058e-01,  7.80300051e-02, -2.29257345e-01,
         -1.95330232e-01, -3.54727097e-02],
        [-1.75631940e-01,  1.64365187e-01,  1.97179258e-01,
         -1.66415535e-02,  1.67947724e-01, -2.19451226e-02,
         -2.02417582e-01,  2.03577772e-01, -1.88064575e-01,
          1.97241604e-01, -1.66494682e-01,  8.99316091e-03,
         -3.47576648e-01,  3.75215001e-02,  1.21957466e-01,
         -2.14400172e-01, -1.91332400e-01, -7.58039728e-02,
          1.98477015e-01,  2.18146577e-01, -1.30445480e-01,
         -1.80348113e-01, -1.69689372e-01,  3.75262469e-01,
          3.11974704e-01, -6.18121028e-01, -1.36361003e-01,
         -2.47111917e-01,  2.09230438e-01,  6.19325936e-02,
         -3.69395643e-01,  1.03792347e-01],
        [-3.31492245e-01, -6.45850897e-02, -2.25897394e-02,
          2.77693689e-01,  6.69017136e-02,  2.39386886e-01,
         -4.17881191e-01, -1.99770942e-01, -5.94015867e-02,
         -2.48455569e-01, -2.58853137e-01, -9.40285325e-02,
         -1.18511571e-02,  1.01336360e-01, -1.63696140e-01,
         -1.72516227e-01,  2.87095457e-01, -1.49547413e-01,
          4.97381836e-02,  3.53370160e-01, -2.91589499e-01,
          1.21218242e-01,  3.74005511e-02,  2.21790262e-02,
          4.14695323e-01, -4.09330875e-01, -7.05625266e-02,
         -2.04877794e-01,  3.20645779e-01,  1.73366457e-01,
         -3.32194418e-01, -1.11682475e-01],
        [-8.44434276e-02, -1.00796103e-01, -2.33812481e-01,
          2.67893910e-01, -1.59173869e-04,  2.40782529e-01,
         -1.85983345e-01, -7.32098445e-02,  2.78287251e-02,
         -2.14455500e-01, -3.91900033e-01,  1.41000092e-01,
          8.66342988e-03, -2.13534862e-01, -1.29581124e-01,
         -2.12636486e-01,  4.87284735e-02,  1.35320589e-01,
          2.70229690e-02,  4.00437474e-01, -1.54883847e-01,
          2.70366013e-01,  5.22785261e-02,  5.67159913e-02,
          4.46788698e-01, -5.41992366e-01, -7.67539665e-02,
         -1.27714604e-01,  4.31678087e-01,  3.55764955e-01,
         -4.68609363e-01, -5.33875942e-01],
        [ 2.51837075e-01, -2.03231480e-02,  2.75999159e-02,
         -2.32200921e-01,  3.96315455e-01,  3.18104923e-01,
         -3.08765739e-01,  6.39582947e-02, -4.36051428e-01,
         -2.10872233e-01, -2.84877867e-01,  1.57933325e-01,
         -2.20717102e-01,  2.16697559e-01,  1.18473619e-01,
         -1.19906664e-01, -4.56475616e-01, -2.48379603e-01,
          2.84397751e-01,  1.45904526e-01, -1.38929024e-01,
          8.58918391e-03, -2.86189765e-01,  5.97425938e-01,
          3.37196440e-01, -4.10295367e-01, -3.54939282e-01,
         -2.39469230e-01,  2.22989276e-01,  5.23364067e-01,
         -4.22991633e-01,  8.33614767e-02],
        [-1.39692366e-01,  8.47175047e-02,  9.09867287e-02,
         -9.09903646e-02,  1.37839941e-02,  2.92921960e-02,
          1.97990872e-02, -3.76646817e-01,  1.02909602e-01,
         -1.84611231e-01, -5.62938489e-02, -1.82130076e-02,
          1.69562072e-01,  2.09527519e-02, -4.34334613e-02,
         -2.36219421e-01, -2.90355273e-02, -1.05562963e-01,
          4.86609386e-03,  1.68756381e-01,  3.28116387e-01,
          1.35103106e-01, -1.17954217e-01,  3.99863064e-01,
          3.09762090e-01, -2.83651084e-01,  6.10015281e-02,
         -1.36853695e-01,  3.21002267e-02,  2.00194567e-01,
          1.07840948e-01,  3.98680232e-02],
        [ 6.58726618e-02, -2.86866855e-02,  2.01940268e-01,
          1.60081208e-01,  2.89672375e-01,  6.34240657e-02,
         -1.78314775e-01,  9.47955176e-02,  1.12162046e-02,
          8.22610483e-02, -1.63298935e-01, -2.73105025e-01,
         -3.64264622e-02,  2.29137272e-01, -4.93316874e-02,
         -1.22014713e-02, -2.86940277e-01, -1.52419999e-01,
         -2.19251424e-01,  2.90690064e-01,  2.01554187e-02,
         -1.20925955e-01,  4.01528254e-02, -1.82073116e-01,
         -1.11170067e-03, -2.50992626e-01,  1.22299582e-01,
          1.10826030e-01,  2.17834771e-01, -1.82731271e-01,
         -3.73101115e-01,  3.35825272e-02],
        [ 7.32985064e-02, -8.57390985e-02, -1.27349913e-01,
          2.41414547e-01,  3.02587092e-01,  6.82533756e-02,
         -3.50406855e-01,  4.17109951e-02, -1.42939821e-01,
         -1.21497937e-01, -5.84839582e-02,  3.05617541e-01,
         -1.68017641e-01, -1.98015258e-01, -1.41170830e-01,
          7.02157468e-02,  4.75680083e-02,  1.28565386e-01,
          1.61589861e-01,  2.96546847e-01, -1.68975424e-02,
         -1.21992547e-02, -2.31084693e-02,  2.47813594e-02,
          9.89501327e-02, -1.66268438e-01,  2.38576215e-02,
         -1.59545675e-01,  2.03120887e-01, -3.53236031e-03,
         -4.53336477e-01, -3.06056142e-02],
        [-5.60133457e-02,  1.27163738e-01,  4.46336418e-02,
          6.76604062e-02,  2.15694934e-01, -2.64703512e-01,
         -5.89321880e-03,  1.15580894e-01, -1.44386664e-01,
          1.36550730e-02, -4.50720191e-01,  2.45559141e-01,
         -2.15119034e-01, -4.85889651e-02,  2.38383841e-02,
         -6.63073361e-02, -4.02801603e-01, -1.94704622e-01,
         -4.96108271e-02,  2.70404816e-01, -4.08084169e-02,
         -9.92405880e-03, -4.07410920e-01, -3.08882415e-01,
          4.22552675e-01, -3.38873416e-01, -1.03973091e-01,
         -4.91641015e-01,  8.73870626e-02,  1.58140332e-01,
         -1.54253110e-01, -6.12703636e-02],
        [ 1.42420260e-02, -2.75889665e-01,  1.09977819e-01,
         -1.97539642e-01,  7.94787109e-02,  3.43231708e-01,
         -1.34079456e-01, -2.43799940e-01, -3.57774049e-01,
         -2.13098377e-01,  3.60178977e-01,  4.00613815e-01,
         -4.00683023e-02, -5.26305363e-02, -2.29999781e-01,
          2.97030807e-03, -9.26198810e-02,  5.20101897e-02,
          2.18499660e-01, -8.00638050e-02,  2.94938207e-01,
         -2.55730242e-01, -2.75117904e-01,  5.60564101e-01,
          1.64765537e-01, -2.19255894e-01, -1.30507573e-01,
         -1.20059744e-01, -1.06482722e-01,  4.00531620e-01,
         -7.99432322e-02, -2.02402502e-01],
        [-6.92832321e-02, -8.79489034e-02, -5.54850161e-01,
         -8.84863958e-02,  2.11478374e-03,  2.63827860e-01,
         -1.17561609e-01, -1.96629658e-01,  4.13593471e-01,
         -5.01859725e-01, -5.70906326e-02,  1.08202167e-01,
          3.46189849e-02, -7.04820871e-01, -4.06532455e-03,
         -2.15143412e-01,  3.30823213e-01, -1.51414931e-01,
          8.63537751e-03,  5.42465925e-01, -2.79407680e-01,
          6.57039210e-02,  2.51844049e-01,  2.33321145e-01,
          4.73751009e-01, -4.38522905e-01,  1.01877756e-01,
          1.14801839e-01,  7.73365796e-02,  2.36442924e-01,
         -2.82106191e-01, -6.83331192e-01],
        [-5.78515083e-02, -4.24356665e-03, -2.59520262e-02,
          1.75848708e-01,  3.37830722e-01,  1.64365619e-01,
         -1.88437596e-01, -2.82567739e-01, -8.31445605e-02,
          2.37913691e-02, -7.06383213e-02,  2.07827911e-01,
         -1.44786134e-01, -2.33009845e-01, -6.80571273e-02,
         -1.05703332e-01,  1.95706040e-01,  1.27508923e-01,
         -1.60595939e-01,  4.83602524e-01, -3.91146541e-02,
          2.22017348e-01,  2.43417487e-01, -5.68343252e-02,
         -7.97637999e-02, -3.88549685e-01, -2.23079361e-02,
         -5.92030697e-02,  1.70795649e-01,  1.21543050e-01,
         -1.86061621e-01, -4.01020586e-01],
        [ 2.86826063e-02, -1.31995499e-01, -8.76813978e-02,
          1.21721447e-01, -6.01390516e-03,  2.37550557e-01,
         -3.05615574e-01, -1.41150998e-02, -9.58333015e-02,
         -7.54492059e-02,  1.57675192e-01,  1.67406783e-01,
         -1.36935979e-01,  2.30305940e-01, -2.29240745e-01,
          4.04034369e-02, -2.86065657e-02, -4.89957333e-02,
          2.30136327e-02,  1.79842129e-01, -1.10274456e-01,
          7.82111213e-02, -1.01185059e-02,  1.65693089e-01,
         -7.70557597e-02, -1.42187119e-01,  1.29645336e-02,
          1.96430031e-02,  3.36820096e-01,  2.31857225e-02,
         -1.94118962e-01, -1.54800430e-01],
        [ 1.36051491e-01, -2.09713914e-02,  6.73285007e-01,
          1.22127391e-01,  8.77886489e-02, -2.07348213e-01,
          1.71370828e-03,  3.80876474e-02,  1.90538824e-01,
          2.91881174e-01,  2.61448622e-01,  1.07935004e-01,
          1.18159518e-01,  4.25641358e-01,  4.03519869e-02,
          1.20174758e-01, -1.98899209e-01,  2.74626881e-01,
         -1.87150761e-01, -5.97169884e-02,  1.69297069e-01,
          1.12451427e-01, -4.69464064e-02, -1.39740586e-01,
         -3.93804133e-01, -2.78883338e-01,  1.96843278e-02,
          2.57069975e-01,  4.13662083e-02,  7.88912550e-02,
          8.59949067e-02,  1.76443905e-01],
        [ 5.01309000e-02,  1.38806164e-01,  5.60913205e-01,
         -6.37665614e-02, -1.17016234e-01, -5.27625740e-01,
         -1.97992444e-01, -2.78184801e-01,  1.55098870e-01,
          4.93303925e-01,  3.12837064e-01, -3.18784148e-01,
          2.23765336e-02,  3.00270379e-01, -1.20154627e-01,
          6.64049566e-01, -4.08230364e-01,  2.01775268e-01,
         -1.28812239e-01, -1.54877175e-02,  6.26482368e-01,
          6.82590157e-02,  2.51739651e-01, -9.21596140e-02,
         -2.89065003e-01,  7.41472915e-02,  1.62855536e-01,
          3.19759279e-01, -2.97237694e-01, -4.42941129e-01,
          6.59573674e-02,  1.94584221e-01],
        [-2.44934008e-01,  7.98756704e-02,  7.66976550e-02,
         -1.61150977e-01,  1.95320800e-01,  2.34989300e-01,
         -3.37164432e-01,  7.57898614e-02, -7.42505789e-02,
         -1.78912029e-01, -7.05378354e-02,  6.57219142e-02,
         -2.99582612e-02,  7.06158653e-02,  7.72837773e-02,
         -3.19505811e-01, -1.84795216e-01, -3.41387004e-01,
          2.88814873e-01,  3.69736999e-01, -2.05467105e-01,
         -8.66887253e-03, -2.27050841e-01,  2.96375483e-01,
          1.56992808e-01, -3.43244940e-01, -2.05200285e-01,
         -4.73809034e-01,  3.22729796e-01,  3.68499875e-01,
         -5.11429548e-01, -1.41239166e-01],
        [ 1.61448464e-01,  9.71703511e-03,  2.05032051e-01,
          1.08207449e-01,  1.90930545e-01, -2.09917009e-01,
         -1.04427755e-01, -4.74007875e-02,  2.23698132e-02,
          2.37981036e-01,  3.83929326e-03,  1.97379723e-01,
         -2.25691929e-01,  3.62988040e-02, -1.86664832e-03,
         -4.02050167e-02, -4.88831103e-02, -1.33935615e-01,
         -9.90051627e-02,  1.65708691e-01, -1.50394931e-01,
         -2.70152986e-01, -1.27325486e-02, -5.17683178e-02,
          1.92039341e-01, -9.11522731e-02, -1.33197278e-01,
         -1.11263767e-01, -5.26730902e-02, -1.24955634e-02,
         -8.29003528e-02,  1.86868370e-01],
        [-1.87153772e-01, -9.61574465e-02, -6.94914460e-02,
          7.62924254e-02,  3.93353589e-02, -1.64787829e-01,
          1.57583907e-01,  2.27331579e-01,  7.50240162e-02,
          8.83781165e-03, -5.95969670e-02, -5.31908691e-01,
          1.25171229e-01, -2.64155865e-02, -1.38530001e-01,
          3.70573699e-02,  5.41826822e-02, -1.78972766e-01,
         -8.56505036e-02,  3.96484882e-02, -1.58093140e-01,
          1.73993595e-02, -4.54759896e-02, -1.84294686e-01,
          2.06231222e-01, -3.40263933e-01, -1.43854350e-01,
         -2.53262162e-01,  8.58164802e-02, -5.83562590e-02,
         -3.24123591e-01, -1.30585089e-01],
        [-4.98132519e-02, -1.35244474e-01,  3.88524383e-02,
          1.14613034e-01,  2.12883830e-01, -2.93694884e-01,
         -2.20242366e-01,  1.80634037e-01, -2.01448217e-01,
          2.31150627e-01, -2.19398886e-01, -1.62211150e-01,
         -1.52382210e-01,  3.64078879e-01, -9.10004824e-02,
         -1.27914116e-01, -4.75345217e-02, -2.97439098e-01,
         -3.12373668e-01,  3.33906144e-01, -3.34577233e-01,
          4.40398753e-02, -2.67709792e-01, -1.77801684e-01,
          3.23752373e-01, -4.15224046e-01,  2.28636548e-01,
         -3.07395756e-01, -2.28248611e-02, -3.90346535e-02,
         -6.10909820e-01,  9.61505398e-02],
        [-2.28611246e-01, -2.69890189e-01, -3.88769239e-01,
          2.14268774e-01, -1.40093505e-01,  4.53350425e-01,
         -5.67151345e-02, -4.23484929e-02,  3.82768035e-01,
         -2.24301040e-01,  1.53750703e-01,  3.38454805e-02,
         -5.12269698e-02, -2.57380307e-01, -3.11944425e-01,
         -1.75866857e-02,  1.89558193e-01,  9.80614126e-02,
          1.08453326e-01,  3.97443622e-01, -2.21109182e-01,
          9.14815739e-02,  3.11065376e-01,  2.25428596e-01,
          5.46220779e-01, -3.08772683e-01, -9.71099585e-02,
         -1.07622454e-02,  1.63510010e-01,  3.16274762e-01,
         -3.53672892e-01, -6.28269434e-01],
        [ 2.97297388e-01,  9.73023623e-02,  9.68786240e-01,
         -4.33248609e-01,  9.05137975e-03, -1.39085293e-01,
         -3.26685727e-01, -2.40768760e-01, -3.66130769e-01,
          8.39109719e-02,  2.75768310e-01, -3.86814535e-01,
          1.02345869e-02,  4.05327290e-01,  1.92335527e-02,
          3.84279460e-01, -5.28925478e-01,  3.03747684e-01,
         -8.67733955e-02, -2.08012927e-02,  8.20058227e-01,
          1.48628116e-01,  2.17386484e-01,  9.17174220e-02,
         -6.66205525e-01, -6.91238269e-02,  4.65616286e-02,
          3.55607003e-01, -1.18966095e-01, -2.49646500e-01,
         -2.16526259e-02,  1.73855096e-01],
        [ 2.48506188e-01, -4.67823520e-02,  1.07648037e-01,
         -2.65916958e-02,  3.83908778e-01,  3.11074853e-01,
         -2.21111730e-01,  1.57884836e-01, -4.28993523e-01,
         -6.49723709e-02, -4.15999778e-02,  2.64971375e-01,
          1.66376755e-02,  7.14491680e-02,  1.31558359e-01,
          7.43860453e-02, -8.65057409e-02,  2.63488516e-02,
         -2.33202730e-03,  2.34534815e-01,  1.88269541e-02,
          2.66068399e-01, -2.68238991e-01,  2.15922236e-01,
         -1.56340510e-01, -3.52636874e-01,  2.26976201e-02,
         -3.26431900e-01,  4.23470110e-01, -2.01973468e-02,
         -3.04047376e-01,  1.23205796e-01],
        [-2.39443220e-03, -5.81371486e-02,  1.30435839e-01,
          2.84681678e-01,  1.07368745e-01, -2.68157780e-01,
         -9.15705338e-02,  2.02106237e-01,  8.14664215e-02,
          1.40745819e-01, -4.36497450e-01, -2.17335582e-01,
          3.58500518e-02,  2.03158185e-01, -1.35311231e-01,
         -1.92894831e-01,  7.63116404e-02, -3.81577499e-02,
         -3.22043300e-01,  2.62481328e-02, -4.90705729e-01,
          4.84238639e-02, -9.14590582e-02, -3.41977984e-01,
          3.15277874e-01, -1.92068085e-01, -4.38707061e-02,
         -2.89920628e-01,  1.31822005e-01, -1.97631091e-01,
         -1.61197931e-01,  2.90380809e-02],
        [ 1.49348781e-01,  2.35739261e-01,  1.13848126e+00,
         -3.29473823e-01,  1.44722402e-01, -3.99409264e-01,
         -4.21931446e-01, -3.12742680e-01, -2.76075751e-01,
          4.05904979e-01,  4.48932618e-01, -3.13903332e-01,
          3.54327671e-02,  5.41552246e-01, -1.54159904e-01,
          2.73302853e-01, -7.04278648e-01,  2.71370441e-01,
         -1.05761454e-01, -2.39083439e-01,  9.39444423e-01,
          1.08656064e-01,  1.42277246e-02,  5.39511144e-01,
         -1.09903729e+00, -1.30876690e-01,  4.16070223e-03,
          2.70614147e-01, -3.62229407e-01, -6.16253950e-02,
         -3.56139123e-01,  3.34389031e-01],
        [-1.64015722e-02,  1.24193057e-02,  4.74843234e-01,
         -9.71502438e-02,  2.48722717e-01,  1.59525722e-02,
         -1.55265197e-01, -7.90663734e-02, -1.44903407e-01,
         -9.20289289e-03,  1.97193310e-01,  1.52567267e-01,
         -1.34360090e-01, -1.84732601e-01,  1.06141061e-01,
         -2.87014768e-02, -2.59639949e-01,  2.13411227e-01,
          6.38852641e-02, -9.05154198e-02,  6.47111773e-01,
         -6.21526055e-02, -9.72987711e-02,  3.59392017e-01,
          3.58116105e-02,  3.16493623e-02, -1.85326844e-01,
          1.72017038e-01, -2.62121167e-02,  6.38630241e-02,
         -3.39819849e-01,  6.36180565e-02],
        [ 8.84884447e-02,  3.00331593e-01,  1.53225943e-01,
          1.72712475e-01,  3.14269215e-01, -2.83249229e-01,
          1.44767672e-01,  2.26121575e-01,  1.80003226e-01,
         -1.93676744e-02, -2.24724874e-01, -2.14590803e-01,
          1.04259901e-01,  8.31043199e-02,  1.42464682e-01,
         -1.68808643e-02,  1.11022815e-01, -5.23051396e-02,
         -1.30804479e-01,  2.41070315e-01, -8.97633508e-02,
          2.00242594e-01,  5.44705093e-02, -9.26926062e-02,
          2.79923618e-01, -3.88583928e-01, -3.49474885e-02,
         -2.07284391e-01,  5.01720726e-01, -4.15888708e-03,
         -1.49310276e-01,  1.58120114e-02],
        [ 1.28011853e-02,  6.01977520e-02, -8.10756162e-03,
         -1.55107394e-01,  6.96234107e-02,  7.61006027e-02,
         -1.08561501e-01, -2.53216594e-01, -9.82970297e-02,
         -8.31730738e-02,  3.76075273e-03, -4.90162671e-02,
         -7.67624378e-02, -1.46304697e-01, -5.37914596e-02,
         -1.02029564e-02, -2.86977142e-02,  1.15151167e-01,
          1.73203677e-01, -6.70342520e-02,  1.14776686e-01,
          5.43735176e-02, -2.13384219e-02,  2.49030098e-01,
          1.47787044e-02,  2.60586273e-02,  9.91979614e-02,
         -2.40245819e-01,  1.33051530e-01,  8.46549645e-02,
         -9.98427197e-02, -1.65452391e-01],
        [-7.35391378e-02,  7.78818727e-02,  2.36683905e-01,
          1.04200326e-01,  1.66631550e-01, -1.70580372e-01,
          9.87884123e-04,  1.36797456e-02,  1.31409138e-01,
         -1.97281256e-01, -4.74712908e-01, -2.24083856e-01,
         -2.14053109e-01, -1.40169352e-01, -6.60201088e-02,
         -1.22983478e-01,  2.42869481e-02, -1.04233414e-01,
         -1.39799267e-01,  5.27742445e-01, -1.64587185e-01,
          3.63793492e-01, -1.69570342e-01, -1.08006366e-01,
          1.35152280e-01, -3.62087607e-01, -5.76083548e-02,
         -3.13891619e-01,  2.28644386e-01, -7.70127028e-02,
         -4.08706635e-01, -1.53827876e-01],
        [-6.27234653e-02,  2.81859525e-02, -8.52272511e-02,
          2.18696445e-01,  1.86134219e-01,  6.16151206e-02,
         -2.99272835e-01,  5.68977706e-02, -1.23785041e-01,
          6.40084743e-02, -1.78677261e-01,  1.74194008e-01,
         -1.08450986e-01,  1.15660816e-01, -5.50515726e-02,
         -2.16419235e-01, -3.39580812e-02, -9.95198190e-02,
          2.72335619e-01,  4.87942547e-01, -2.13222578e-01,
         -1.09812856e-01, -2.12522417e-01, -5.91739342e-02,
          1.43815562e-01, -5.20121515e-01, -2.12527215e-01,
         -2.90725470e-01,  3.83446693e-01,  8.52213725e-02,
         -4.14265245e-01, -3.33061162e-03],
        [-4.68658805e-02, -1.69966407e-02, -8.86075795e-02,
          3.83222759e-01,  1.45978361e-01,  2.02497765e-01,
         -2.92421371e-01, -3.21051143e-02,  3.58665921e-02,
         -3.51885200e-01, -3.04838419e-01,  1.29220426e-01,
          2.27846373e-02, -2.30631694e-01,  1.01318248e-01,
         -7.45755211e-02,  7.83171803e-02, -1.42037822e-02,
         -5.09130657e-02,  3.72037053e-01, -2.40794703e-01,
          1.00322142e-01,  1.57445639e-01, -1.88731566e-01,
          6.11630380e-01, -4.62744802e-01, -3.10921371e-01,
         -3.21282983e-01,  2.67633885e-01,  2.94826210e-01,
         -3.23519021e-01, -3.41600984e-01],
        [ 9.09997821e-02,  1.24218255e-01,  3.22735250e-01,
          1.69673413e-02,  2.07735971e-01, -2.74027258e-01,
          1.50369748e-01,  2.18730241e-01, -7.72862658e-02,
          1.94954649e-01, -1.17699765e-01,  4.95074727e-02,
         -2.77134597e-01,  1.29371360e-01,  1.45122319e-01,
         -3.97491902e-02, -2.37450004e-01,  1.66355714e-01,
         -8.17645639e-02,  1.53652579e-01,  6.04052059e-02,
          8.04278031e-02, -1.12378985e-01,  3.23872715e-02,
         -4.37463894e-02, -1.05174847e-01, -1.90553010e-01,
         -1.42667860e-01,  1.45910740e-01, -2.60207569e-03,
         -1.36997700e-01,  1.24617606e-01],
        [ 4.60284650e-02, -2.59558618e-01,  2.56706297e-01,
         -3.65196526e-01, -5.97540177e-02,  3.81726861e-01,
         -4.46974277e-01, -2.03906655e-01, -3.82246435e-01,
         -1.51069179e-01,  2.58859754e-01,  3.49111073e-02,
         -1.88668407e-02, -1.70284092e-01, -3.24396461e-01,
         -6.29760101e-02,  6.00122698e-02, -1.12097114e-02,
         -9.06228051e-02,  7.99383819e-02,  2.11759694e-02,
         -2.48046890e-02, -1.36893004e-01,  5.82353830e-01,
          1.59198400e-02, -1.42100036e-01,  4.79393080e-02,
         -7.77444765e-02,  1.33713454e-01,  1.19083934e-01,
         -3.63077164e-01, -8.85911062e-02],
        [-2.44645104e-01, -3.10073882e-01,  2.55447745e-01,
         -2.78399944e-01,  1.13873757e-01,  7.91408047e-02,
         -3.13100457e-01, -3.25329155e-01,  5.27512655e-02,
         -1.22054145e-01,  6.89996453e-03,  9.83010978e-02,
         -4.54799011e-02,  4.58112247e-02, -4.69997615e-01,
          5.83193563e-02,  6.87247589e-02,  1.84685931e-01,
          8.58025178e-02, -1.49627700e-01,  6.42488375e-02,
         -1.56655669e-01, -1.03288136e-01,  6.05339885e-01,
          3.32040280e-01, -5.11322729e-02,  9.26749185e-02,
         -9.61142331e-02,  2.89903551e-01,  1.58462495e-01,
          3.77580263e-02, -4.18085791e-02],
        [ 1.06573454e-03, -1.32026583e-01, -2.32537150e-01,
          1.63458884e-01,  3.18716079e-01,  2.88491428e-01,
         -3.98020476e-01, -1.48866013e-01, -1.49102479e-01,
         -3.24071795e-01, -2.83489347e-01,  2.40188032e-01,
          5.15092686e-02, -6.86033070e-02, -1.03945665e-01,
         -7.86075294e-02,  2.05696762e-01, -3.48991007e-02,
          1.94928154e-01,  4.54629987e-01,  7.46556520e-02,
          1.92899872e-02, -2.94039190e-01,  2.14809820e-01,
          2.76301593e-01, -4.47574586e-01, -4.51002866e-02,
         -5.39591670e-01,  7.49341249e-02,  1.41182855e-01,
         -3.20356160e-01, -3.74416113e-01],
        [ 2.26357162e-01, -1.38366371e-01,  1.64235979e-01,
         -2.88032237e-02,  4.54344839e-01,  9.65144858e-02,
         -2.46072710e-01,  3.94387916e-02, -3.01745951e-01,
          8.06806460e-02, -3.55304569e-01,  3.89959484e-01,
         -1.82756022e-01,  1.72329918e-01,  6.60744235e-02,
         -1.57075137e-01, -1.41395152e-01, -1.60348579e-01,
          4.10625264e-02,  1.84435979e-01, -2.35545173e-01,
          1.55274615e-01, -2.19259590e-01,  4.02235299e-01,
          2.32912093e-01, -6.23183966e-01, -1.60008103e-01,
         -6.91642016e-02,  3.14196348e-01,  8.71962085e-02,
         -3.32897246e-01,  3.17458808e-02],
        [-2.35549927e-01,  4.88564372e-02,  2.40003929e-01,
          1.53235182e-01, -1.88768774e-01, -2.07934871e-01,
          6.63719848e-02,  8.21033791e-02, -7.72207007e-02,
          2.89236009e-01, -6.70142621e-02, -1.77637339e-01,
          5.83122857e-02,  6.58204854e-02, -1.56373829e-01,
          4.04199697e-02,  1.75647795e-01,  4.55846116e-02,
         -3.97270657e-02,  3.98834765e-01, -1.93501711e-01,
          4.69979011e-02,  1.18777551e-01, -3.00018311e-01,
         -2.11672992e-01, -7.68908635e-02,  2.13757798e-01,
         -9.45473928e-03, -2.98653573e-01, -2.88879275e-02,
         -1.44299090e-01, -1.13169320e-01],
        [ 3.11704073e-02, -1.83239385e-01, -2.30024949e-01,
         -1.79416630e-02,  2.16623485e-01,  3.37312758e-01,
         -3.24691296e-01,  4.96588796e-02, -1.01773413e-02,
          8.18434879e-02, -1.93755642e-01,  2.03798175e-01,
          1.54765621e-02,  9.83059481e-02, -1.35726646e-01,
         -1.12196423e-01, -7.67300022e-04, -1.88333213e-01,
          9.03767794e-02,  3.98983985e-01, -2.39702865e-01,
          1.18169919e-01, -1.95410401e-01,  3.34195048e-01,
          2.52848357e-01, -2.78586924e-01, -4.28969264e-02,
         -2.68232405e-01,  3.45222235e-01,  3.41581106e-01,
         -4.05029029e-01, -8.49065110e-02],
        [-1.71638176e-01, -1.03724906e-02, -2.18886375e-01,
         -1.02504395e-01,  1.45197079e-01,  1.81268156e-01,
         -3.79198134e-01,  4.57587354e-02, -1.49442539e-01,
          1.18668213e-01,  9.63882543e-03,  6.06907122e-02,
          3.20158824e-02, -5.42791262e-02,  6.93848059e-02,
         -1.71258643e-01, -7.38629550e-02, -3.84738594e-01,
          9.68233272e-02,  5.90752244e-01,  8.30074251e-02,
         -1.16591461e-01, -2.07843915e-01,  5.01379430e-01,
          4.30628896e-01, -3.99607718e-01,  9.49620157e-02,
         -3.59476328e-01,  3.56878817e-01,  1.65712282e-01,
         -4.91014004e-01, -3.14800665e-02],
        [ 2.01670721e-01,  1.66786343e-01,  1.60711437e-01,
          1.81869909e-01,  3.61301452e-01, -4.48063724e-02,
         -1.30452693e-01,  3.08463335e-01, -1.74594715e-01,
          1.31294942e-02, -4.00782555e-01,  5.46862278e-03,
         -1.15970068e-01,  8.52995440e-02,  7.36241639e-02,
         -1.56262934e-01,  1.05568744e-01, -1.58202887e-01,
         -5.56941964e-02,  3.58674973e-01, -1.71993732e-01,
         -5.82409836e-02, -9.84557569e-02, -3.66092212e-02,
          2.74950564e-01, -2.77753800e-01, -1.12126470e-01,
         -2.66459972e-01,  3.64638925e-01,  4.33952138e-02,
         -3.02094668e-01,  1.71244480e-02],
        [ 6.08379543e-02,  1.44956753e-01,  4.92637426e-01,
         -1.03193866e-02, -7.04921708e-02, -3.10285360e-01,
         -1.11119978e-01,  1.85637534e-01,  1.14066087e-01,
          2.12599307e-01,  3.94535542e-01, -2.30217203e-01,
         -1.00233899e-02,  2.70778388e-01,  3.61518823e-02,
          2.07982913e-01, -1.01911444e-02,  3.15588236e-01,
          6.60122931e-03,  2.06688166e-01,  5.20545304e-01,
          7.97547400e-03,  3.69259566e-02, -7.86334351e-02,
         -4.14471835e-01,  1.53232506e-02, -1.79539204e-01,
          1.30712897e-01, -3.68934840e-01,  1.26988478e-02,
         -3.42271447e-01,  4.42037806e-02],
        [-1.31084740e-01,  8.19401518e-02,  1.86329111e-01,
         -9.08084959e-02, -1.02271684e-01,  1.57429114e-01,
         -8.81320536e-02,  2.35905632e-01,  1.44770637e-01,
         -2.31923878e-01, -8.40967447e-02, -2.80124694e-01,
         -6.37987554e-02,  2.78665945e-02,  1.63066044e-01,
         -1.16119593e-01, -1.24197774e-01, -1.26101509e-01,
          9.20188129e-02,  4.12787110e-01, -3.67957383e-01,
          1.99582577e-01,  4.80280481e-02, -1.19566925e-01,
          1.97205588e-01, -4.01426077e-01, -1.46409824e-01,
         -2.55960763e-01, -7.76123777e-02, -1.33018479e-01,
         -4.31911170e-01, -4.43733409e-02],
        [-1.38880685e-01, -1.07220642e-01,  9.87455621e-02,
          2.49737114e-01,  1.42660618e-01, -4.15883632e-03,
         -1.70031041e-01,  1.06669910e-01, -8.87678564e-02,
          3.45732793e-02, -2.95007646e-01, -8.05992931e-02,
         -2.98586726e-01,  1.13629960e-01,  4.48267125e-02,
         -1.61509529e-01, -1.12543762e-01, -1.94113731e-01,
         -1.50433034e-01,  3.11939865e-01, -9.08470303e-02,
          7.69654661e-02, -1.72413558e-01, -3.28680068e-01,
          1.30927801e-01, -2.65943587e-01, -2.99061418e-01,
         -2.53203422e-01,  1.01136200e-01,  2.28569061e-02,
         -1.95023224e-01, -6.26987740e-02],
        [ 2.94194996e-01, -1.33697629e-01, -3.23355794e-01,
          3.34036350e-02,  2.67160475e-01,  2.13505238e-01,
         -1.27514020e-01,  1.37158349e-01, -4.46989447e-01,
         -2.29305372e-01, -4.26161915e-01,  1.63673803e-01,
         -9.73399282e-02, -1.46824837e-01,  4.97815572e-02,
         -7.40425289e-02,  1.04248382e-01, -4.21750452e-03,
         -9.58594084e-02,  4.48233932e-01, -1.33437410e-01,
          2.61282891e-01, -5.41598126e-02,  6.53944863e-03,
          3.21209192e-01, -3.97324443e-01, -1.28780887e-01,
         -1.56572938e-01,  2.60986835e-01,  1.53322697e-01,
         -2.75883853e-01, -2.93455631e-01],
        [ 2.00086594e-01, -2.74501562e-01,  6.49012951e-03,
         -2.37289201e-02,  4.16545160e-02,  1.93905383e-01,
         -3.22392553e-01, -6.70487285e-02, -1.76452503e-01,
          1.85056865e-01, -6.46340549e-02,  3.34115356e-01,
          3.25926505e-02,  1.60702392e-01,  1.78301036e-02,
         -1.42653389e-02, -3.39847654e-01, -2.24432483e-01,
          1.03891119e-01,  6.16364144e-02, -4.09924006e-03,
         -1.20868862e-01, -2.21559256e-01,  2.46518046e-01,
          1.91407442e-01, -4.91534211e-02, -7.83228725e-02,
         -3.14685524e-01,  5.97208813e-02,  1.08396299e-01,
         -3.84178907e-01,  7.72399306e-02],
        [-1.10531569e-01,  1.55001953e-01,  5.40105820e-01,
          2.23265573e-01,  1.64196402e-01, -4.79997665e-01,
          7.19670951e-02, -1.47589073e-01,  2.67538242e-03,
          2.54988849e-01,  2.24703297e-01, -6.09046280e-01,
          1.56316206e-01,  2.65536666e-01, -1.35393277e-01,
          1.24206722e-01, -1.00497067e-01,  2.85966635e-01,
         -2.81540513e-01,  1.24127932e-01,  4.80586827e-01,
          5.36215417e-02,  2.99112648e-01, -4.28712040e-01,
         -4.45907921e-01,  1.01382166e-01,  9.53282863e-02,
          2.86767125e-01, -2.20449194e-01, -2.79406160e-01,
          1.16447195e-01,  9.77495387e-02],
        [ 1.28029203e-02,  3.18307355e-02,  2.99607664e-01,
          1.16567299e-01, -5.33972913e-03, -2.96515197e-01,
         -1.35850593e-01,  2.68208802e-01, -1.68086395e-01,
          9.79470983e-02, -3.88960987e-02,  3.55482958e-02,
         -3.56727652e-02, -7.48634860e-02,  2.76924491e-01,
          1.41664669e-01, -8.40661377e-02,  2.36836269e-01,
         -9.75931436e-02, -8.75146165e-02,  3.88000965e-01,
          5.07936487e-03,  1.07869670e-01,  6.84241503e-02,
         -1.05168529e-01, -2.17529774e-01, -1.23275615e-01,
         -7.64002949e-02, -5.51580675e-02,  1.55072227e-01,
         -2.74719000e-01,  7.15710670e-02],
        [-1.75000429e-01, -6.07263902e-03, -4.75707389e-02,
          2.10691318e-01,  5.43442219e-02, -2.11853549e-01,
          9.62957814e-02,  7.24293143e-02,  1.13175750e-01,
          1.49446607e-01, -1.09719180e-01, -5.87314703e-02,
         -1.30070537e-01, -5.33669256e-02,  1.32217050e-01,
         -1.59807563e-01,  1.19125769e-01, -8.12607910e-03,
         -1.30546346e-01,  3.16627264e-01, -1.03377327e-01,
          9.77297500e-02,  5.90612590e-02, -5.32773435e-01,
          1.45929828e-01, -1.97117299e-01, -2.17084475e-02,
          1.39322594e-01, -2.18401939e-01,  1.66525897e-02,
         -6.29954189e-02, -9.86097381e-02],
        [ 1.33406401e-01,  2.87172168e-01, -4.08694446e-02,
          1.11776002e-01,  5.25812544e-02,  1.14327129e-02,
         -8.78661498e-02,  2.16383383e-01,  1.78713396e-01,
          5.04741490e-01,  1.70492362e-02, -3.39481197e-02,
         -5.61848208e-02,  1.43954471e-01,  3.16034555e-02,
         -1.79566536e-02, -3.59599710e-01, -1.31981686e-01,
          2.66048521e-01,  3.43264818e-01,  5.21244928e-02,
          1.01176046e-01,  7.54817761e-03, -5.10387160e-02,
          3.13773118e-02, -2.23334104e-01, -1.19210251e-01,
         -2.22703934e-01,  1.62987486e-01, -5.27033322e-02,
         -2.28567198e-01,  1.76334694e-01],
        [-9.15385224e-03, -1.65714696e-01,  7.14592962e-03,
         -7.28900284e-02,  2.75570631e-01,  2.33507231e-01,
         -3.38353187e-01,  2.43503422e-01, -7.77814984e-02,
         -3.06711048e-02,  6.22355239e-03,  1.34877145e-01,
          1.83530524e-02, -6.03108108e-02,  5.67202084e-02,
          3.88894379e-02, -1.13103371e-02, -2.57754833e-01,
          5.07790484e-02,  2.39075646e-01,  4.95597087e-02,
          9.65272859e-02, -3.55137885e-01,  3.51890773e-01,
          4.43889409e-01, -2.06025094e-01, -6.50696978e-02,
         -2.90164381e-01,  4.35139984e-01, -1.97855849e-02,
         -2.58920014e-01, -1.26228958e-01],
        [-8.76329467e-02,  8.60571191e-02,  1.06217310e-01,
         -2.12571234e-01,  1.03033371e-01,  5.12012281e-02,
         -7.97116086e-02, -9.36850682e-02,  1.31061688e-01,
         -2.02409104e-02, -1.20761618e-01, -3.64771336e-02,
          1.17843524e-02,  2.25086231e-03, -1.83874473e-01,
         -6.47361726e-02, -2.96167403e-01, -1.34359866e-01,
          2.06557781e-01,  1.18747070e-01,  9.59435701e-02,
          2.38308862e-01, -2.05269396e-01,  2.51848280e-01,
          2.96067774e-01, -1.65198892e-01, -1.35526761e-01,
         -1.11669295e-01,  8.24532136e-02,  1.24183692e-01,
         -2.68606097e-01,  6.01939932e-02],
        [-3.68313976e-02, -2.54469495e-02,  2.53458351e-01,
          2.36149319e-02,  4.34355170e-01, -7.77324364e-02,
         -1.12269141e-01,  1.46335140e-01, -1.22682981e-01,
         -6.36670068e-02, -2.93186218e-01,  3.72577831e-02,
         -1.59709424e-01,  1.70936167e-01, -1.12014994e-01,
         -6.46724626e-02, -1.95555285e-01, -5.15362322e-02,
          5.48309796e-02,  1.78871065e-01, -5.23962229e-02,
         -9.12177712e-02, -2.13523328e-01,  7.47685581e-02,
          7.74648488e-02, -4.61641848e-01, -2.21359745e-01,
         -4.00101990e-01,  3.88865173e-01, -7.45118689e-03,
         -3.26883376e-01,  2.20792107e-02],
        [-8.26659948e-02,  1.82864070e-01,  1.52002931e-01,
          2.82999337e-01,  2.19223604e-01, -2.07690820e-01,
         -1.04328379e-01,  2.57666111e-01, -3.18138570e-01,
         -3.22879732e-01, -4.72945184e-01, -1.57373860e-01,
         -5.89044355e-02,  7.21970275e-02, -1.20500252e-01,
         -9.31992754e-02,  4.27989550e-02, -2.56190239e-03,
          1.19952019e-02,  3.91794652e-01, -8.60957280e-02,
          4.41408977e-02, -4.55244556e-02, -1.10640235e-01,
          2.26951897e-01, -5.02146125e-01, -3.70303243e-02,
         -5.79657912e-01,  3.37039769e-01,  7.98793882e-02,
         -4.55274791e-01, -4.95947227e-02]],

       [[-1.03275247e-01,  3.55314910e-02,  4.55980673e-02,
          2.00916976e-01,  8.74047801e-02, -1.76335007e-01,
          1.39644608e-01, -1.22990049e-01,  2.46368218e-02,
          7.27390945e-02, -1.21111065e-01, -4.55230940e-04,
          8.28827545e-02,  4.34843838e-01,  9.36833397e-03,
          3.88927124e-02,  7.74777262e-03,  6.14647940e-02,
          6.34320229e-02,  2.03793664e-02, -8.48188549e-02,
          8.34626257e-02, -1.57104805e-02, -1.03822127e-01,
         -2.14440778e-01, -1.25657722e-01, -8.56120978e-03,
          4.80315275e-02,  2.17354462e-01, -5.36909774e-02,
         -1.23841397e-01, -1.88203946e-01],
        [ 6.15239255e-02,  1.50176555e-01,  1.58021167e-01,
          2.46345133e-01, -2.39486787e-02, -2.92120725e-01,
          5.04978895e-02, -8.89053717e-02,  4.67947014e-02,
          8.72518569e-02, -2.55937763e-02, -6.63309693e-02,
          8.05588439e-03,  3.49564761e-01, -3.26230340e-02,
          5.58207482e-02, -3.81720699e-02, -1.45580038e-01,
         -1.93311974e-01, -1.25050649e-01, -1.85523257e-02,
         -1.34287342e-01,  1.23509422e-01, -2.22668543e-01,
         -3.42844069e-01,  1.87261812e-02, -1.67025968e-01,
         -1.76309139e-01, -6.06109984e-02, -1.69400364e-01,
         -1.03235312e-01,  1.93888977e-01],
        [-1.25907376e-01,  1.49794072e-01,  3.61547321e-02,
         -1.87660694e-01,  1.73729941e-01,  7.62540624e-02,
         -2.65484210e-02, -5.10221394e-03,  2.27826647e-02,
          2.32911959e-01,  8.50279704e-02, -1.43010169e-01,
          1.00783810e-01,  4.02546853e-01,  2.92325437e-01,
         -1.21101335e-01, -2.24156424e-01, -1.54284015e-01,
         -4.64470945e-02,  1.14497267e-01, -7.02929199e-02,
         -3.87385488e-03, -5.56620061e-02,  1.27472773e-01,
         -1.38190955e-01, -2.30738878e-01, -2.89914221e-01,
         -1.85327336e-01,  3.18360806e-01, -1.46396860e-01,
         -1.34225905e-01,  2.32615188e-01],
        [-1.06763922e-01, -2.38792598e-01, -1.52989015e-01,
         -1.90864697e-01, -1.82307232e-02,  2.54073560e-01,
         -1.20887466e-01, -1.74331680e-01, -1.40400216e-01,
          2.42289295e-03,  1.05862737e-01, -3.49688679e-02,
          6.61176071e-02,  7.90427849e-02, -1.18630312e-01,
         -1.73219576e-01, -1.98294878e-01,  1.04740009e-01,
          2.40753531e-01, -1.72015458e-01, -1.72473282e-01,
          3.52606736e-02, -3.77441555e-01,  7.19803452e-01,
          7.92517811e-02, -2.79397190e-01,  2.56730765e-02,
         -3.16566557e-01,  3.19540799e-01,  4.17692095e-01,
         -3.35895449e-01, -1.44746959e-01],
        [-4.40378278e-01,  1.21705547e-01, -5.62125705e-02,
          1.47305891e-01, -3.67572278e-01, -3.34582478e-01,
         -2.26509366e-02, -2.32515320e-01,  5.18383563e-01,
          2.29079112e-01,  2.21152946e-01, -2.96165615e-01,
         -1.67639643e-01,  2.37298876e-01, -1.15470275e-01,
         -3.93858142e-02, -2.29912534e-01, -2.17922866e-01,
          5.45272641e-02, -2.31987938e-01, -2.45666757e-01,
         -3.80289316e-01,  6.83885589e-02, -1.09323144e-01,
          1.90394387e-01, -1.83408961e-01,  1.20602943e-01,
         -3.43146324e-01, -3.15397352e-01,  3.61281671e-02,
         -1.36375010e-01,  8.41548666e-02],
        [-7.00885803e-02, -5.13745621e-02, -2.91282944e-02,
         -9.82757751e-03, -6.82885349e-02, -4.23512161e-02,
          1.38861211e-02, -1.16244167e-01,  6.25743866e-02,
          2.71552484e-02,  1.03021979e-01,  6.40443265e-02,
         -7.34276623e-02,  2.33564749e-01, -4.96410988e-02,
         -3.16251218e-02, -2.20769703e-01, -9.75035951e-02,
         -2.04563618e-01,  1.59816816e-01, -2.06297755e-01,
         -1.50144681e-01, -3.02648507e-02, -1.78194404e-01,
         -1.45241931e-01, -2.15913370e-01, -5.58449291e-02,
         -1.85157657e-01, -2.84241196e-02, -1.09762423e-01,
         -2.07490355e-01,  7.87112955e-03],
        [ 1.03352152e-01, -1.27006799e-01,  2.00999081e-01,
         -1.49929106e-01,  1.06805868e-01, -2.63466481e-02,
         -3.38849992e-01,  6.30165190e-02, -7.27622285e-02,
          1.46541983e-01,  1.47093356e-01,  2.22300962e-01,
          2.25435998e-02, -4.14858274e-02, -6.76267222e-02,
         -2.16406062e-01, -2.05714270e-01, -2.29374897e-02,
          1.88287407e-01, -8.30141362e-03, -5.38468128e-03,
         -5.05492985e-02, -3.48208368e-01,  3.15791607e-01,
          2.73343772e-01, -1.42142028e-01, -2.58497089e-01,
         -4.49397773e-01,  1.53584972e-01, -3.94551493e-02,
         -2.98436373e-01,  1.79223657e-01],
        [-1.10440902e-01,  2.59048622e-02,  8.55040848e-02,
         -3.20535123e-01,  1.32883087e-01, -3.20521556e-02,
         -1.37639642e-01,  1.03501700e-01, -1.61958873e-01,
          2.66188174e-01,  1.50907397e-01,  1.50553092e-01,
         -5.57058081e-02,  2.52199709e-01,  3.44925299e-02,
         -2.21509933e-01, -2.53190011e-01, -2.29434595e-01,
          2.63331592e-01,  1.41033947e-01,  1.45875737e-01,
         -1.10072337e-01, -6.79921508e-02,  2.70542532e-01,
         -1.35636866e-01, -1.15971260e-01, -3.08215141e-01,
         -6.30830750e-02,  3.20061743e-02,  1.29508629e-01,
         -1.60107240e-01,  5.34385405e-02],
        [-1.01910710e-01, -2.63644934e-01,  1.37694284e-01,
         -6.72688428e-03, -7.50688538e-02,  2.30666548e-01,
         -1.99892744e-01, -1.97751392e-02, -7.88396299e-02,
          3.73625532e-02, -5.24922274e-02, -1.25054985e-01,
         -6.55880496e-02,  2.61510223e-01, -2.21687064e-01,
         -1.52617663e-01, -7.28900060e-02, -9.52961594e-02,
          2.20139980e-01,  3.00711989e-02, -2.64051259e-01,
         -1.92335337e-01, -1.18757822e-01,  2.57484913e-01,
         -1.73678715e-02, -1.56217828e-01, -1.75617769e-01,
         -9.80508551e-02,  1.79742008e-01,  1.30715981e-01,
         -4.89145160e-01, -7.43085071e-02],
        [-1.24207310e-01, -8.06741696e-03,  4.35714349e-02,
         -9.30060297e-02,  1.62125558e-01, -1.24714456e-01,
         -1.34441912e-01, -1.20175406e-01,  1.71132743e-01,
          2.32344911e-01, -1.52456239e-02, -5.55205010e-02,
         -8.77781957e-02,  8.66815820e-02, -7.35407472e-02,
          6.78251125e-03, -2.79642135e-01,  8.88867378e-02,
          1.50610949e-03, -3.25501263e-01,  4.67200875e-02,
         -1.85758308e-01, -1.19074084e-01, -7.66488016e-02,
          1.01441436e-01, -1.27097428e-01, -3.84978428e-02,
         -1.09318495e-01,  1.23405889e-01, -5.10779247e-02,
         -2.71877378e-01,  2.00546175e-01],
        [ 6.07199185e-02, -2.45840084e-02,  3.78780156e-01,
         -1.82142034e-02,  1.17751077e-01,  3.83771025e-02,
         -1.48921087e-01, -6.71567321e-02, -2.45627627e-01,
          1.52463347e-01, -2.45973654e-02,  6.32449165e-02,
          2.49480437e-02,  2.97816038e-01, -1.84299603e-01,
         -7.25145638e-02,  1.44151002e-01, -1.18581414e-01,
         -1.55937430e-02,  6.10060580e-02, -1.65595889e-01,
          1.02932252e-01, -2.76705027e-01,  5.11798523e-02,
          4.34408896e-03, -4.49003279e-01, -1.98350232e-02,
         -3.51366065e-02,  1.73700497e-01, -9.88911316e-02,
         -1.17464036e-01,  1.56933933e-01],
        [-1.03443213e-01, -3.27335924e-01, -1.18047699e-01,
          1.04648191e-02,  1.64318487e-01,  3.95622194e-01,
         -1.67480975e-01, -3.88899565e-01,  2.42535681e-01,
          9.15799066e-02,  1.41133899e-02,  1.48862734e-01,
          4.58511233e-01, -2.98676658e-02, -1.01395808e-01,
         -2.48841532e-02,  5.70805728e-01,  5.40128827e-01,
         -8.92381445e-02, -1.27968758e-01,  1.46146253e-01,
          2.09550396e-01, -1.02747165e-01,  4.75403488e-01,
         -2.04548955e-01, -2.76581764e-01, -2.36062575e-02,
         -2.46244833e-01,  3.63664359e-01,  1.94139555e-01,
          2.09507998e-02, -6.08728588e-01],
        [-7.18088970e-02,  5.91853932e-02,  1.83088019e-01,
          1.63827930e-02,  1.56000018e-01, -2.12722406e-01,
         -9.17168930e-02, -1.60767704e-01,  1.26551002e-01,
          4.49994445e-01, -1.22419437e-02,  1.56024709e-01,
          7.85974711e-02,  2.72972018e-01, -5.10394946e-02,
          3.40759784e-01, -6.93257898e-02,  1.27638713e-01,
          1.63342766e-02, -9.06543210e-02,  6.67264163e-02,
         -1.04491808e-01,  6.15770789e-03, -6.85355887e-02,
         -1.47150934e-01, -2.75317729e-01, -4.41271253e-02,
         -2.07038149e-01,  5.54538965e-01, -1.69899791e-01,
         -1.15720592e-01, -5.43712676e-02],
        [-2.14269996e-01,  1.04530282e-01, -5.70877418e-02,
         -1.06426239e-01, -4.41290159e-03,  3.18881311e-02,
         -5.62778637e-02, -1.23717692e-02, -1.00496493e-01,
          1.15158886e-01, -1.47898972e-01, -6.61168098e-02,
          5.95060065e-02, -4.90773022e-02, -3.34281963e-03,
         -2.29493052e-01, -1.38947843e-02,  1.26821294e-01,
          9.28506479e-02, -7.96571374e-02,  3.62638794e-02,
         -2.73118556e-01, -1.85486794e-01,  3.79712045e-01,
         -2.60150786e-02, -4.93545502e-01, -1.33019790e-01,
         -1.34713501e-01,  3.26573640e-01,  1.06900834e-01,
         -2.15203375e-01, -1.04294978e-01],
        [-2.55065650e-01,  1.70047674e-02,  2.36823499e-01,
         -2.54349802e-02, -8.77418816e-02,  8.47332552e-03,
         -2.67670602e-01, -1.83096945e-01,  3.25269774e-02,
         -1.20053031e-01, -1.39482785e-02, -7.58017078e-02,
         -3.14579993e-01,  3.02149840e-02,  2.72827521e-02,
         -2.37108767e-01, -1.12160131e-01, -3.01487505e-01,
          1.31246790e-01, -1.69960529e-01, -2.21334398e-01,
         -8.79980400e-02,  5.86618334e-02, -8.74908343e-02,
          6.15724772e-02, -1.15498208e-01,  4.01595868e-02,
         -3.94975007e-01,  1.98445246e-02,  1.40438527e-01,
         -2.93469995e-01,  1.76018745e-01],
        [-2.39964444e-02, -3.53518724e-02,  3.94982904e-01,
         -3.95289585e-02, -2.49717295e-01, -9.53574926e-02,
         -1.75131887e-01, -1.19613253e-01, -1.90792769e-01,
         -1.05788611e-01, -4.01087329e-02,  4.09003086e-02,
         -4.04758245e-01,  2.55755428e-02,  1.29566208e-01,
         -2.26249158e-01, -2.62198836e-01, -1.52133241e-01,
         -5.91283105e-02, -1.60641909e-01, -1.88715272e-02,
         -5.29120639e-02, -1.27865285e-01,  6.11490011e-03,
          1.40677989e-01,  1.33255228e-01,  3.01020760e-02,
         -2.52886742e-01, -5.15453637e-01,  2.42357496e-02,
          8.68952870e-02,  2.14832932e-01],
        [ 1.02846585e-01, -6.32641241e-02,  7.42758512e-02,
         -4.00462180e-01,  1.85385436e-01,  3.83079648e-01,
         -2.79447764e-01, -1.59473032e-01, -2.79611886e-01,
         -2.33944356e-01, -1.32570267e-01,  1.56165898e-01,
         -2.18002304e-01,  3.30690771e-01, -4.41122651e-02,
         -1.95994854e-01, -1.94565326e-01, -1.79625511e-01,
          2.88100392e-01, -7.61876181e-02, -3.00158381e-01,
         -7.05333948e-02, -1.96186513e-01,  7.66442537e-01,
          2.17257142e-01, -2.10895628e-01, -1.89976647e-01,
         -2.48761162e-01,  3.91023010e-01,  2.84958631e-01,
         -3.49858463e-01, -2.29558907e-02],
        [-2.63138860e-01, -3.24992603e-03,  8.26501697e-02,
         -3.07804812e-02, -2.01366216e-01,  1.30685866e-01,
         -2.00430062e-02, -2.05674320e-01,  1.52650531e-02,
         -2.32725531e-01,  9.80118737e-02, -9.42093134e-02,
          6.66323956e-03,  1.32453918e-01, -1.03678487e-01,
         -6.25026748e-02, -1.87063605e-01, -2.08109636e-02,
          1.01517335e-01,  1.63511977e-01,  1.38081774e-01,
          1.34684011e-01, -2.11875632e-01,  2.88834870e-01,
          1.70724899e-01, -5.13310134e-02, -4.13573831e-02,
         -1.77549973e-01,  1.00929797e-01,  1.74730852e-01,
          1.84408158e-01,  1.46311283e-01],
        [-5.20040393e-02, -1.27036916e-03,  7.37789348e-02,
         -4.80803587e-02,  2.21951753e-01,  2.44070262e-01,
         -8.77180696e-03,  8.98254067e-02,  1.84268817e-01,
          1.83351580e-02, -5.94582371e-02, -5.79175390e-02,
          4.47925068e-02,  8.75985846e-02, -9.68003646e-02,
         -3.24859843e-02,  8.89195129e-02, -1.16735920e-01,
         -1.78374231e-01,  7.19484091e-02, -7.04514161e-02,
         -1.04725458e-01,  1.63500756e-01,  1.60288811e-01,
         -2.55407691e-01, -4.09030885e-01,  1.00122035e-01,
          6.82987496e-02,  4.51261461e-01, -1.54950649e-01,
         -3.04835886e-01, -6.50952682e-02],
        [ 2.03013748e-01, -4.31714617e-02,  7.22487271e-03,
         -2.76827458e-02,  1.01175219e-01, -4.53403667e-02,
         -1.45850420e-01,  1.60431918e-02, -1.64744139e-01,
         -2.22345904e-01,  1.41553566e-01,  1.43571571e-01,
         -1.26024887e-01,  7.58244693e-02, -1.94461849e-02,
          1.50915325e-01,  3.41327488e-02,  4.66914289e-02,
          4.90160361e-02, -1.30603045e-01,  3.05608064e-02,
          6.26922548e-02,  4.90625948e-02, -1.58869158e-02,
         -1.17255375e-01, -1.22227743e-01, -1.06519215e-01,
         -4.55676094e-02,  8.59333426e-02, -1.61806550e-02,
         -1.26275793e-01, -1.11169768e-02],
        [ 4.35627364e-02,  9.74493101e-02,  1.73206896e-01,
         -3.25477332e-01,  5.90734407e-02, -2.04329893e-01,
          1.18274882e-01, -9.16935429e-02, -6.28659427e-02,
          1.38063580e-01, -1.93721086e-01,  1.10055069e-02,
         -1.76746815e-01,  1.97797447e-01,  5.83610125e-02,
          2.19473895e-02, -5.11547148e-01,  6.48326352e-02,
          2.58478057e-02,  3.65872793e-02,  1.57521516e-01,
         -6.19637147e-02, -5.32564409e-02, -1.89666092e-01,
         -8.99787545e-02, -3.60377282e-01, -2.79789060e-01,
         -5.76889932e-01,  1.75956249e-01,  1.11949608e-01,
         -2.09979750e-02,  1.90528110e-01],
        [ 2.05816757e-02, -1.41576916e-01, -1.20039014e-02,
         -9.07032639e-02,  9.57508199e-03,  3.87904406e-01,
         -1.23932771e-01, -1.12684116e-01, -8.26543868e-02,
         -4.63840365e-01,  1.45881012e-01,  2.26110205e-01,
         -1.77373290e-01, -1.47256643e-01, -3.80473360e-02,
         -5.59332520e-02, -5.01764799e-03,  6.67533726e-02,
          2.73186475e-01, -5.30470628e-03,  9.41609293e-02,
         -3.54906172e-01, -2.08934635e-01,  2.94268012e-01,
          3.88067633e-01, -4.08638157e-02, -1.85161550e-02,
         -1.80428267e-01, -1.38388900e-02,  3.74674529e-01,
         -5.39306626e-02, -3.92512344e-02],
        [-1.88724518e-01,  1.95846766e-01,  2.71520346e-01,
         -1.37057692e-01, -4.72652704e-01,  2.90156342e-02,
          1.38350606e-01, -2.11113364e-01,  7.05343410e-02,
         -1.83120385e-01,  2.98991591e-01,  2.71364361e-01,
         -7.32223868e-01, -4.12766114e-02,  1.85789689e-01,
         -1.66955858e-01, -4.05310750e-01, -6.44516230e-01,
         -8.14245045e-02,  1.19933739e-01, -2.07748190e-02,
         -2.97750756e-02, -3.29244763e-01, -4.55839299e-02,
          1.78323805e-01,  3.50653470e-01, -8.33791718e-02,
         -4.30419773e-01, -1.08088088e+00,  9.36621055e-02,
          8.34941715e-02,  1.24634005e-01],
        [ 4.75011766e-02,  1.15425661e-02,  5.87360084e-01,
         -1.29083261e-01, -9.39821005e-02,  8.14056545e-02,
         -1.48899734e-01, -4.61986065e-02, -2.38378122e-01,
         -8.85489583e-02, -2.25821152e-01,  1.97065845e-01,
         -5.45472741e-01, -3.43499742e-02,  1.19397096e-01,
         -1.76486731e-01, -5.49568757e-02, -2.49610264e-02,
         -1.18151389e-01,  1.52985364e-01, -1.49207741e-01,
          5.33168465e-02, -2.13572010e-01, -4.68753837e-03,
          5.77038564e-02, -2.10537106e-01, -1.17471352e-01,
          6.04148675e-03, -2.07249016e-01,  6.91248178e-02,
         -7.26250485e-02,  4.83358830e-01],
        [-4.00894843e-02,  1.16152475e-02,  1.10690473e-02,
         -1.98411778e-01,  2.93124933e-02,  1.39905512e-01,
         -5.63452095e-02, -3.10519524e-02,  1.36710078e-01,
         -9.06309634e-02,  2.17041373e-01,  1.15236647e-01,
          7.54584838e-03,  3.11417580e-02, -2.45990425e-01,
         -4.19075079e-02, -2.55304817e-02, -1.32077839e-02,
          3.70794311e-02, -3.45773585e-02,  4.18157950e-02,
          7.90716382e-04,  1.37812003e-01,  1.57333344e-01,
         -2.15493187e-01, -7.11239800e-02,  5.71153266e-03,
          5.96284457e-02,  1.80338219e-01, -9.27874446e-02,
         -2.30121240e-01,  5.82177565e-02],
        [ 9.31054279e-02, -2.56318271e-01, -3.58728357e-02,
         -1.19653560e-01,  1.14871442e-01,  1.54458329e-01,
          1.20421657e-02, -1.96726352e-01, -9.71709713e-02,
          1.84261292e-01,  5.61020263e-02,  1.29832894e-01,
          1.53846577e-01,  1.92067102e-01, -1.24453768e-01,
          5.84573112e-02,  1.39648050e-01,  2.61954755e-01,
         -7.22481683e-02, -5.65527454e-02,  9.75195915e-02,
         -7.31757432e-02,  8.37493911e-02,  7.09188953e-02,
         -9.59939659e-02, -9.38184261e-02,  2.16321304e-01,
          2.16353223e-01,  2.11912468e-01,  1.71149988e-02,
          2.21326239e-02, -2.23979756e-01],
        [-3.09350610e-01, -2.61612266e-01, -5.50516784e-01,
          1.32281423e-01, -2.40967106e-02,  1.79199889e-01,
         -1.55387878e-01, -5.93206763e-01,  2.78029323e-01,
          2.24651709e-01,  1.42295763e-01,  1.54798269e-01,
          3.12720716e-01, -7.35878153e-03, -5.44070899e-02,
          1.52343094e-01,  5.42864323e-01,  1.82035610e-01,
         -2.02444226e-01, -1.81439877e-01,  1.30716428e-01,
          4.23334613e-02,  2.69255131e-01,  1.52616546e-01,
         -8.93218163e-03, -2.95022160e-01,  2.03593075e-01,
          3.55381519e-01,  2.56603390e-01, -1.85711998e-02,
          6.50188699e-02, -7.29255319e-01],
        [-2.72960991e-01,  5.08573949e-02,  1.18121624e-01,
         -3.47230256e-01,  6.80684985e-04,  6.18184954e-02,
         -2.10982636e-01, -1.65192887e-01,  5.43435067e-02,
         -7.75146484e-02, -7.27952868e-02,  3.56696248e-02,
          8.71043131e-02,  2.20835865e-01,  1.78196892e-01,
         -4.48099881e-01, -1.78112894e-01, -1.08891547e-01,
          3.95776600e-01,  1.50073394e-01, -3.08532089e-01,
          3.46223004e-02, -2.16005623e-01, -9.88198537e-03,
         -3.07403475e-01, -2.92301476e-01, -4.55837883e-03,
         -3.55382532e-01,  1.21737063e-01,  3.70024353e-01,
         -3.11550558e-01,  2.28512567e-02],
        [ 7.33615682e-02,  6.42205179e-02,  2.53890961e-01,
         -1.69574156e-01,  2.42400646e-01, -2.10200250e-01,
         -1.01520233e-01, -1.15061298e-01,  1.23489678e-01,
          2.77334303e-01,  3.29827257e-02,  1.25679806e-01,
         -1.90336630e-01,  7.35668167e-02,  2.20019855e-02,
          5.41422814e-02, -2.92196255e-02, -7.33638406e-02,
          3.56078744e-02,  9.28170010e-02, -2.94540133e-02,
         -1.96584970e-01, -3.36490646e-02, -1.55816525e-01,
         -2.20254779e-01, -2.13694662e-01, -1.83436215e-01,
          8.95862058e-02,  1.04693100e-01,  5.20074815e-02,
         -1.82122644e-02,  1.47144318e-01],
        [-1.36440620e-01, -1.37563258e-01, -7.08630010e-02,
         -4.31799889e-02,  2.59081949e-03, -1.98899940e-01,
          2.47866988e-01,  8.39590430e-02,  9.57260355e-02,
          1.25427917e-01, -6.92558512e-02, -3.72410893e-01,
          1.92164794e-01,  8.98189023e-02, -2.76868314e-01,
          7.83375725e-02, -8.14574361e-02, -2.86321323e-02,
         -1.72642514e-01, -8.36001113e-02, -1.38902767e-02,
          6.33480996e-02, -1.00333802e-02, -1.02624632e-01,
         -1.80766210e-01, -3.77923667e-01,  4.79225926e-02,
         -5.54118678e-02,  3.24915707e-01, -1.12524711e-01,
         -3.56136411e-01, -1.05664402e-01],
        [-3.82534117e-02, -7.88099468e-02, -1.12149185e-02,
         -2.45582327e-01,  1.77898869e-01, -1.33033559e-01,
         -8.03753808e-02,  3.52225713e-02,  5.05865291e-02,
          1.58194214e-01, -1.04495957e-01, -2.32417732e-01,
          1.57588534e-02,  4.99358147e-01, -1.44371539e-01,
         -1.35825604e-01,  8.00846294e-02,  1.56211210e-02,
         -1.98050410e-01,  1.20806359e-01, -2.87884921e-01,
         -6.61133006e-02, -2.43271828e-01, -1.86830148e-01,
         -2.55589094e-02, -4.85538900e-01,  2.96288729e-01,
         -2.19834059e-01,  1.74257651e-01, -8.40147287e-02,
         -4.68841851e-01,  1.87171325e-01],
        [-4.02734905e-01, -1.26327753e-01,  2.09686249e-01,
          1.41544919e-02, -3.86065274e-01,  1.22869819e-01,
          7.04868287e-02, -2.44076047e-02,  1.96703956e-01,
         -1.16098121e-01,  2.94958889e-01,  1.09248823e-02,
         -4.07247931e-01, -9.22409259e-03, -4.24696989e-02,
          4.55290787e-02, -2.10275874e-01, -1.81714043e-01,
          6.55612070e-03, -2.93674827e-01, -5.51442653e-02,
         -3.88911255e-02,  2.74682790e-02, -8.91698897e-02,
          2.78231174e-01,  1.71382859e-01, -1.13651007e-01,
         -3.21565181e-01, -8.09811473e-01,  2.96193331e-01,
          1.96316332e-01,  3.14375907e-01],
        [ 1.75349504e-01, -4.00732309e-01, -4.39532608e-01,
         -2.42596924e-01,  8.35272744e-02,  2.67034978e-01,
         -2.08669543e-01, -4.18496728e-01,  1.40874535e-01,
         -2.03954905e-01, -3.44353691e-02,  5.13282657e-01,
          5.03878355e-01, -1.68396365e-02,  7.64760375e-02,
          2.45811015e-01,  4.76610482e-01,  5.08012831e-01,
         -2.85457641e-01, -1.27158701e-01,  2.85736412e-01,
          3.71766150e-01,  2.08989218e-01,  4.61924642e-01,
         -2.05874369e-01, -2.06187755e-01,  1.89627543e-01,
          1.59724176e-01,  5.39945126e-01,  1.83485955e-01,
         -2.01813728e-02, -6.48301363e-01],
        [ 2.90713996e-01, -5.23613431e-02,  1.30099878e-01,
         -1.90739915e-01,  1.95550561e-01,  3.56503338e-01,
         -3.13171595e-01, -4.04175259e-02, -1.76915616e-01,
          1.17074855e-01,  1.30276643e-02,  1.45265684e-01,
          2.23576829e-01,  1.80288941e-01,  8.28728080e-02,
         -1.91589314e-02, -5.57224117e-02, -3.46013047e-02,
         -4.22018543e-02,  3.74061316e-02,  3.00878026e-02,
          2.82124281e-01, -1.14641257e-01,  2.06286356e-01,
         -2.44065285e-01, -1.38450816e-01, -1.49683412e-02,
         -2.44552106e-01,  4.95710522e-01, -4.69018407e-02,
         -3.84587556e-01,  1.93222418e-01],
        [-4.03032005e-02, -1.35069741e-02,  3.01299930e-01,
         -6.36034980e-02,  2.20952794e-01, -5.56781471e-01,
          6.73039556e-02,  6.12415634e-02,  9.95688587e-02,
          2.61455745e-01, -1.42208204e-01, -3.31283242e-01,
          3.45476046e-02,  3.88743222e-01,  7.86124915e-02,
          9.06666294e-02,  1.64849907e-01,  4.78698872e-02,
         -2.63379604e-01, -1.36227906e-01, -1.72935963e-01,
          7.05808550e-02,  2.60097180e-02, -3.09933007e-01,
         -1.25528187e-01, -2.76360959e-01, -1.58846512e-01,
          4.76273857e-02,  4.03247684e-01, -3.32182676e-01,
         -7.11061135e-02,  3.61986130e-01],
        [ 1.30886342e-02, -3.88624161e-01, -5.95310032e-01,
          4.34421822e-02,  1.99979171e-01,  3.88112247e-01,
         -1.91268072e-01, -5.56591332e-01,  1.96597189e-01,
         -1.10099129e-01,  4.00629461e-01,  5.01393795e-01,
          3.48010004e-01,  2.01936468e-01,  1.55217135e-02,
         -4.71888995e-03,  5.38976431e-01,  6.26238048e-01,
         -2.68553346e-02, -6.31485432e-02,  4.20079798e-01,
          4.81929749e-01, -1.74871996e-01,  7.48298943e-01,
         -2.21882433e-01, -1.75521314e-01,  1.78645194e-01,
         -1.58046316e-02,  2.19660699e-01,  2.87015647e-01,
         -2.16473117e-02, -7.07616389e-01],
        [ 7.60816708e-02, -1.58244804e-01,  2.64177203e-01,
         -1.26041502e-01,  4.61120084e-02,  1.26439417e-02,
         -7.49308476e-03, -1.88568830e-01, -9.00748447e-02,
         -5.95248379e-02,  1.71823241e-02,  3.30272198e-01,
         -1.20511865e-02,  1.17031120e-01,  2.20205281e-02,
         -1.53925657e-01,  4.76828404e-02,  3.87419462e-01,
          8.93470943e-02, -1.63983271e-01,  3.25857103e-01,
          5.40475920e-02,  4.23156247e-02,  5.08906066e-01,
         -5.97971641e-02, -1.79079235e-01, -1.43913433e-01,
          1.67600334e-01,  2.35675439e-01,  4.07090485e-01,
         -2.04151973e-01, -2.45123748e-02],
        [ 1.59681588e-01,  2.04088107e-01,  1.10234015e-01,
         -1.41183019e-01,  1.70616224e-01, -2.20684975e-01,
          2.47104570e-01,  1.95393264e-01,  2.17656538e-01,
          1.18698083e-01, -1.29977316e-01, -2.81800240e-01,
          2.68104017e-01,  3.00663829e-01,  7.54405558e-02,
         -1.64443448e-01, -1.27904728e-01, -1.99707076e-02,
         -3.16893533e-02, -3.64034288e-02, -8.20435435e-02,
          2.96492092e-02,  5.53975478e-02, -2.61660516e-01,
         -1.17044993e-01, -2.99523473e-01,  5.81409782e-02,
         -2.26136327e-01,  4.76629943e-01, -4.61986996e-02,
         -3.44544016e-02,  1.18232608e-01],
        [-6.96728602e-02, -1.22813322e-02, -7.93540105e-02,
         -1.99142873e-01, -2.36192849e-02,  2.32268974e-01,
         -7.20402300e-02, -1.33589551e-01, -2.89656699e-01,
         -2.66303807e-01,  3.46117863e-03,  4.59334254e-02,
         -2.07304493e-01, -5.28691635e-02,  2.54082885e-02,
         -1.55134708e-01, -1.69975370e-01,  3.64759564e-02,
          2.95007765e-01, -4.19336334e-02, -1.64186969e-01,
          1.92338824e-02, -6.75586611e-02,  1.55910671e-01,
         -2.79103983e-02, -7.44733140e-02,  2.96440184e-01,
         -3.73115867e-01, -1.03728175e-01,  2.13106751e-01,
         -2.65950978e-01, -1.93471059e-01],
        [-1.16284885e-01, -5.04561253e-02,  1.43432602e-01,
          1.02518953e-01,  7.29832500e-02, -2.06487834e-01,
          5.46084531e-02, -7.79665187e-02,  1.28382042e-01,
         -1.46554589e-01,  1.72179565e-02, -2.96548754e-01,
         -1.11284718e-01,  1.89459726e-01, -3.45343575e-02,
         -9.54414010e-02, -4.36434746e-02,  1.20775543e-01,
         -3.06845848e-02,  8.20534080e-02,  1.30070111e-04,
          2.54711121e-01, -2.99191717e-02, -3.55380215e-02,
         -1.16445683e-01, -2.66434968e-01,  1.23867542e-01,
         -3.16401720e-01,  3.90148491e-01, -1.17257975e-01,
         -2.16710299e-01,  8.99720788e-02],
        [-2.55136937e-03,  6.23825118e-02,  2.80405462e-01,
         -1.21025383e-01,  2.09361508e-01, -9.81865227e-02,
         -3.78784090e-01,  8.34110007e-02, -3.71950632e-03,
          1.09261341e-01,  2.47564726e-02,  2.30995923e-01,
         -5.23377284e-02,  2.78561503e-01,  1.15792215e-01,
         -3.28154527e-02, -6.44238070e-02, -4.85975854e-02,
          1.72068641e-01,  2.71353900e-01, -2.67737079e-02,
         -1.93911448e-01, -1.33361354e-01, -2.57863216e-02,
         -2.30899259e-01, -9.00999457e-02, -1.47170380e-01,
         -3.23361963e-01,  1.56760767e-01,  1.93138560e-03,
         -2.43759274e-01,  2.30841488e-02],
        [-3.36113237e-02,  1.12009406e-01,  8.16549420e-01,
         -4.91863377e-02, -6.88837990e-02, -5.53867891e-02,
          3.76497768e-02,  1.46174848e-01, -5.11688627e-02,
         -8.62698406e-02,  4.35472764e-02,  1.49123311e-01,
         -4.46234226e-01,  2.82808542e-01,  1.54541105e-01,
         -4.16310728e-02, -3.38258415e-01, -1.45112097e-01,
          8.45068470e-02, -4.09563899e-01, -8.23500007e-02,
         -6.02418557e-02,  5.81916086e-02, -2.19770253e-01,
          2.48349890e-01,  1.24452680e-01, -3.08414847e-01,
         -3.04098040e-01, -4.34693843e-01,  8.27455521e-02,
         -1.98704414e-02,  4.17302340e-01],
        [ 1.72321528e-01,  1.35184065e-01,  1.18502498e-01,
         -1.33041576e-01,  7.99290016e-02, -2.58862227e-01,
          2.20901698e-01,  1.81815296e-01, -3.33180539e-02,
          2.57316977e-01,  7.95807838e-02,  7.79797882e-02,
         -1.77675992e-01, -1.02157570e-01,  1.29434451e-01,
         -3.32010873e-02,  1.22667588e-01,  6.42064139e-02,
         -1.41167849e-01, -2.11436272e-01,  3.32122743e-02,
          1.21245630e-01, -1.66453898e-01,  9.78537649e-02,
         -1.47042349e-01,  8.82764719e-03, -1.38565972e-01,
         -1.27924904e-01,  1.73784435e-01,  9.83932018e-02,
          1.13949150e-01,  2.08086744e-01],
        [-1.89367421e-02, -4.24973756e-01,  5.00090644e-02,
         -1.29699826e-01, -1.26320109e-01,  4.23086435e-01,
         -2.69193560e-01, -1.79839939e-01, -2.72206545e-01,
         -3.74988467e-01, -2.43439060e-02, -1.24283276e-01,
         -5.33524640e-02, -8.13670531e-02, -2.77191550e-01,
         -4.16954085e-02,  1.93214908e-01,  1.55128121e-01,
          4.99501675e-02, -1.26359295e-02, -6.94466084e-02,
         -8.52056071e-02, -1.37510732e-01,  3.86297762e-01,
          6.26429468e-02,  1.10407367e-01,  6.77039996e-02,
          8.96379724e-02,  2.71385442e-02,  2.09105566e-01,
         -2.88559794e-01, -1.10476524e-01],
        [-1.07279651e-01, -3.06608647e-01,  2.12621829e-03,
         -2.03390062e-01, -4.15969528e-02,  6.26289323e-02,
         -2.73082167e-01, -1.00387096e-01,  8.06515291e-02,
         -1.69037223e-01, -9.24597159e-02, -1.95606444e-02,
         -1.86908141e-01, -7.35975057e-02, -3.43410581e-01,
          1.10009052e-01,  1.88492928e-02,  3.17898169e-02,
          1.17078602e-01, -5.23357168e-02, -1.41378522e-01,
         -1.75417811e-01,  8.39063376e-02,  3.72869521e-01,
          4.81474310e-01,  4.31676768e-02, -2.73805782e-02,
         -1.04633979e-01,  5.19863665e-02,  1.46343485e-01,
         -1.37497574e-01,  1.30105078e-01],
        [-5.58087938e-02,  4.75424528e-02,  6.29370689e-01,
         -1.21480994e-01, -1.18664689e-01,  5.99747896e-02,
         -1.91792428e-01, -5.80794960e-02, -2.74269640e-01,
         -1.52690083e-01, -8.76280367e-02,  1.34443238e-01,
         -3.17048222e-01,  2.49540448e-01,  7.45779350e-02,
         -9.30827260e-02, -1.50324762e-01, -1.65150583e-01,
          3.45770061e-01, -1.99225903e-01,  3.65814827e-02,
         -7.13063702e-02, -5.57968438e-01,  2.38560885e-01,
          1.17304780e-01,  6.52067959e-02, -2.18720138e-01,
         -5.58190823e-01, -3.79129887e-01, -2.32181754e-02,
         -8.93210843e-02,  3.20870340e-01],
        [ 1.44100323e-01, -1.19848058e-01,  4.37427670e-01,
         -5.89742772e-02,  3.68443191e-01,  4.35985029e-02,
         -2.24179775e-01, -1.12883180e-01, -2.96327006e-02,
          1.99918039e-02,  3.63952629e-02,  4.18851107e-01,
         -3.77608240e-01,  2.90207058e-01,  1.82511568e-01,
         -1.90676808e-01, -2.27944359e-01, -2.89848179e-01,
          2.05659568e-01,  5.27694002e-02, -1.64566740e-01,
         -6.82693794e-02, -1.18099391e-01,  2.28873760e-01,
         -3.23123746e-02, -3.31205547e-01, -1.23794191e-01,
         -3.46826948e-02,  2.86845297e-01,  1.71366021e-01,
         -1.81988478e-02,  2.43440419e-01],
        [ 2.95936279e-02,  8.36009309e-02,  3.08159813e-02,
          2.19111815e-01,  1.17735071e-02, -5.58832772e-02,
          4.58202101e-02, -1.80469807e-02,  3.81607227e-02,
          1.96892530e-01,  3.58493358e-04, -9.89317745e-02,
          2.10079089e-01,  1.84533149e-01, -1.25014856e-01,
          1.06203929e-01,  2.03384221e-01,  4.34333161e-02,
          4.18729298e-02,  1.19718701e-01, -6.90505132e-02,
         -5.07370308e-02,  1.61615476e-01, -9.99668166e-02,
         -2.20258325e-01, -5.48721030e-02,  2.97806244e-02,
          1.00110337e-01,  7.21378019e-03, -1.32965520e-01,
         -1.85799792e-01,  6.94553182e-02],
        [-3.96860242e-02, -2.17617348e-01,  2.60641217e-01,
         -9.32191983e-02,  1.06745072e-01,  2.01787859e-01,
         -2.11031377e-01,  1.41974539e-01,  2.86131259e-02,
          3.62015478e-02,  2.08676849e-02, -3.41172032e-02,
          8.83566216e-03,  1.84004471e-01,  6.59799278e-02,
         -1.01312488e-01, -2.56520063e-01, -1.31299317e-01,
          2.30293423e-01, -1.19603537e-01,  4.11046389e-03,
          2.01075263e-02, -6.59174845e-02,  1.90805480e-01,
         -7.85477236e-02, -4.36185859e-02,  9.87476707e-02,
         -2.93223143e-01, -1.96060054e-02,  1.58792324e-02,
         -3.03951502e-01,  1.97282270e-01],
        [-5.95011339e-02, -6.91951960e-02,  2.20503271e-01,
         -2.75201261e-01, -1.50170714e-01, -4.71283011e-02,
         -1.52054399e-01, -5.48953339e-02,  1.12682067e-01,
          2.64742196e-01,  1.59016505e-01,  9.77439880e-02,
         -1.32409642e-02,  4.39649113e-02,  4.61159013e-02,
         -5.50431907e-02, -3.17786857e-02, -4.54103500e-01,
          2.20047057e-01,  5.36614917e-02,  3.79980356e-02,
         -8.39342102e-02, -3.90401900e-01,  1.99732408e-01,
          1.14949666e-01, -3.40136617e-01, -1.00751132e-01,
         -3.33257169e-01, -9.08632725e-02,  8.34743232e-02,
         -2.05589622e-01,  6.80416450e-02],
        [ 2.09832609e-01,  7.05426857e-02,  2.73475498e-01,
         -6.71712011e-02,  3.16708297e-01, -1.40649438e-01,
         -4.91621159e-02,  1.59165293e-01, -1.22615635e-01,
          6.61630034e-02, -1.62309766e-01, -9.37635750e-02,
          6.96425606e-03,  2.46298492e-01,  2.20040143e-01,
          1.71054769e-02, -8.53192508e-02,  8.88101980e-02,
         -8.79633427e-02, -4.24260423e-02,  5.53158410e-02,
          1.59300305e-02,  9.42452904e-03,  5.27398335e-03,
         -2.04378590e-01, -3.29425603e-01,  3.86376232e-02,
         -1.51762232e-01,  4.93968815e-01, -2.08252043e-01,
         -2.58195758e-01,  2.28740677e-01],
        [ 1.17877666e-02, -1.20267473e-01, -3.91615957e-01,
          4.88418415e-02,  2.49228001e-01,  2.62354225e-01,
         -2.44749650e-01, -1.55215979e-01,  2.08780259e-01,
         -3.00659508e-01,  1.88073263e-01,  3.40852797e-01,
          3.13982397e-01,  2.35248461e-01, -1.14125729e-01,
         -2.18147580e-02,  4.55145597e-01,  4.22698051e-01,
          8.70301872e-02, -5.53047694e-02,  2.34388590e-01,
          1.40167981e-01,  2.02507704e-01,  3.35638821e-01,
         -3.81481141e-01,  5.51342927e-02, -2.85419282e-02,
          1.00028060e-01,  1.22406609e-01,  2.97086388e-01,
         -8.72732699e-02, -4.69835550e-01],
        [-1.54636011e-01,  3.45923416e-02, -6.06443733e-02,
          1.50992749e-02,  9.92677063e-02,  2.29409412e-01,
         -9.28080007e-02,  1.92564130e-01, -3.84495556e-02,
         -2.06828162e-01,  1.10765778e-01, -3.68196815e-02,
          3.01695287e-01,  4.52432968e-02,  3.90664190e-02,
         -1.53579488e-01,  9.25253332e-02,  7.29252538e-03,
          1.24691889e-01,  8.78083780e-02, -1.76429063e-01,
          1.11051112e-01, -1.14979230e-01,  8.54224414e-02,
         -2.33225137e-01, -1.79198876e-01, -9.40129682e-02,
         -8.60616118e-02,  1.42621592e-01,  1.45365400e-02,
         -2.44391486e-01,  1.06378989e-02],
        [-1.37878403e-01, -1.19678006e-01,  2.85620004e-01,
         -2.10050922e-02,  1.65306151e-01, -1.85095623e-01,
         -4.99464758e-02, -7.40744323e-02, -1.01098321e-01,
          1.67833224e-01, -2.48632550e-01, -7.90741816e-02,
         -1.56083167e-01,  4.10151720e-01, -6.23221770e-02,
         -8.12264681e-02, -4.70377840e-02,  9.83321369e-02,
         -3.47109139e-02, -7.15444237e-02, -1.84974559e-02,
          8.67068395e-02,  1.49657667e-01,  8.87674913e-02,
         -3.15348625e-01, -2.18776688e-01,  1.89410683e-04,
         -4.91288230e-02,  2.59984195e-01, -1.18254840e-01,
         -1.27083659e-01,  1.43865690e-01],
        [ 1.71260014e-01, -2.63122413e-02,  5.20221889e-01,
         -4.49423268e-02,  6.54745251e-02,  7.97607154e-02,
          7.66596943e-02,  1.17995553e-01, -1.83078885e-01,
         -1.98145226e-01, -6.36094138e-02,  1.54405773e-01,
         -2.29266465e-01,  4.28312533e-02,  2.90980879e-02,
          9.95540023e-02, -1.33982733e-01, -2.10202307e-01,
         -9.43761691e-02,  2.25006267e-02, -2.93563139e-02,
          6.16535768e-02, -2.74582326e-01, -1.49020135e-01,
          1.41641228e-02, -1.45460516e-01, -2.07918763e-01,
         -1.70377344e-01, -1.24710627e-01, -4.32119966e-02,
         -1.70458093e-01,  2.56201532e-02],
        [ 2.17843965e-01, -5.32093048e-02,  1.72031865e-01,
         -2.38263495e-02,  9.85727906e-02,  7.17392638e-02,
         -3.18436623e-01, -3.05749848e-02,  4.43378575e-02,
          2.07945317e-01, -3.86091210e-02,  1.06838606e-01,
         -6.73259124e-02,  2.47860819e-01, -5.90662770e-02,
          2.70226058e-02, -3.05692703e-01, -1.84610546e-01,
          2.34167665e-01, -1.46988750e-01,  1.44436285e-02,
         -2.12025121e-01, -2.58364707e-01,  3.34315091e-01,
          2.67370790e-01,  8.27409476e-02, -8.13174024e-02,
         -1.89593643e-01,  1.76525325e-01, -1.91573408e-02,
         -4.55657214e-01,  2.73432046e-01],
        [-1.60594851e-01, -2.35212386e-01, -2.48243380e-02,
          2.41033375e-01, -9.59887505e-02, -7.56628439e-02,
          1.57554761e-01, -1.86923966e-01,  2.02099577e-01,
          1.89908952e-01,  3.63499634e-02, -9.16427225e-02,
          5.48070610e-01,  6.91205189e-02, -1.06366172e-01,
          1.65376186e-01,  3.23943228e-01,  4.29610014e-01,
         -1.76520720e-01, -1.27185419e-01,  1.45660013e-01,
          2.13532314e-01,  2.98415571e-01, -1.21863469e-01,
         -3.15802187e-01, -3.70118171e-01,  1.44426376e-01,
          2.04671547e-02,  3.69073927e-01,  1.55564621e-02,
          2.33020216e-01, -2.18457833e-01],
        [ 4.65608239e-02, -1.38566330e-01,  1.27410954e-02,
          4.77644652e-02, -2.90578492e-02, -1.01783916e-01,
         -1.11240275e-01,  1.56926036e-01, -9.17764753e-02,
         -2.96885166e-02,  7.48620182e-02, -8.03793967e-02,
         -7.38693401e-02, -6.41176030e-02,  1.36840641e-01,
          9.01510566e-02,  7.08145723e-02,  4.44309235e-01,
          7.28055537e-02, -5.24882153e-02,  2.28664935e-01,
         -1.41474262e-01,  1.25269741e-01,  7.43138865e-02,
         -2.19389006e-01, -2.84384400e-01,  3.53724882e-02,
         -6.60998672e-02,  1.23258680e-01,  9.28508211e-03,
         -1.68350078e-02, -1.99259892e-01],
        [-6.45626187e-02,  4.98984605e-02,  2.79976159e-01,
          1.61445141e-01,  9.86848772e-02, -3.11206549e-01,
          2.42202699e-01,  8.15102160e-02,  2.90353596e-02,
          1.36676326e-01, -7.08661787e-03, -1.05232596e-01,
         -2.37825084e-02,  1.59920603e-01,  4.78059351e-02,
         -1.98166003e-04,  5.25191389e-02, -2.81029064e-02,
          2.99339984e-02, -6.98795840e-02, -5.81177101e-02,
          1.31771773e-01,  3.36974323e-01, -3.14278334e-01,
         -3.29183131e-01, -2.69222766e-01,  7.56135583e-02,
          9.70046371e-02, -1.07847542e-01, -2.09892243e-01,
          4.77713011e-02,  2.94606686e-01],
        [ 2.05065701e-02,  2.81807721e-01,  2.15727746e-01,
         -5.11387885e-02,  7.53185600e-02, -7.19303787e-02,
         -8.69422182e-02,  1.17655493e-01,  2.55225778e-01,
          5.47452211e-01,  1.85478806e-01, -1.03493128e-02,
         -9.48373415e-03,  3.67714942e-01,  5.93811236e-02,
          4.27722521e-02, -2.27135375e-01,  9.57687646e-02,
          2.19385564e-01, -3.27744032e-03,  1.21363387e-01,
          2.02365637e-01,  9.71635133e-02,  4.58661765e-02,
         -1.76729307e-01, -2.39918619e-01, -5.18450737e-02,
         -2.13032532e-02,  4.28102583e-01, -2.06447959e-01,
         -2.48713225e-01,  2.44137868e-01],
        [ 3.24241817e-02, -6.14246204e-02,  2.78473824e-01,
         -2.64568835e-01, -3.31539512e-02,  6.67802244e-02,
         -1.30943745e-01,  1.52830899e-01, -5.76485135e-03,
          5.91161661e-02,  2.87825186e-02,  6.76843449e-02,
          1.28896728e-01,  2.21069634e-01,  8.53778422e-02,
          2.19988972e-02, -1.32022128e-01, -2.83093542e-01,
          4.24208827e-02,  5.35383783e-02,  2.67310347e-03,
          7.14744925e-02, -3.77051622e-01,  2.11351797e-01,
          2.41583735e-01, -7.82826617e-02, -3.27140182e-01,
         -1.77066311e-01,  1.20062254e-01,  7.15809991e-04,
         -7.92746991e-02,  1.46586522e-01],
        [ 3.70069034e-02, -2.01612324e-01,  1.18951323e-02,
         -3.64067018e-01, -2.06686668e-02,  8.38771313e-02,
          8.91705975e-03, -2.48243332e-01,  5.70283784e-03,
         -1.16104551e-01, -1.28284603e-01, -4.87621464e-02,
         -4.16642502e-02,  4.71445806e-02, -2.43754119e-01,
         -1.56317130e-01,  6.71864077e-02,  8.14176425e-02,
          1.58567712e-01, -2.23076697e-02, -7.31182694e-02,
          5.47358915e-02, -1.94001913e-01,  2.90489018e-01,
         -2.95008370e-03, -5.12920618e-01,  8.20807293e-02,
          1.05503656e-01,  3.13965738e-01,  1.97487220e-01,
         -3.95940334e-01, -8.82249996e-02],
        [ 1.11816533e-01, -1.58927470e-01,  2.05326155e-01,
          9.67165641e-03,  1.99890465e-01,  2.12564636e-02,
         -4.70654108e-02,  1.39149562e-01, -1.49608210e-01,
          1.16654439e-02, -1.20955482e-01, -6.29225671e-02,
          1.21946134e-01,  9.95581523e-02, -1.66100428e-01,
         -8.90020207e-02, -1.54556438e-01,  1.46499544e-01,
          4.13939729e-02,  2.22135689e-02, -8.81022215e-02,
         -1.10601507e-01,  6.30076453e-02, -4.23520394e-02,
         -1.30879074e-01, -2.96529919e-01, -7.36456066e-02,
         -2.06137225e-01,  5.22818029e-01,  1.37974888e-01,
         -2.02115357e-01,  4.75106649e-02],
        [-1.25479639e-01,  1.93466112e-01,  3.37381244e-01,
          1.00231789e-01,  2.11418435e-01, -2.18718067e-01,
         -8.34407359e-02,  2.53566265e-01, -1.08054198e-01,
         -1.90124795e-01, -2.15686962e-01, -2.09615335e-01,
          7.46945068e-02,  3.74751627e-01,  8.17203242e-03,
         -1.96575031e-01,  9.85718053e-03, -1.25984866e-02,
          1.11832313e-01,  1.84953004e-01,  8.69897678e-02,
         -3.94124761e-02, -2.35126037e-02, -8.19519162e-02,
         -1.00393608e-01, -3.48506093e-01, -1.06171206e-01,
         -3.92740935e-01,  3.05742919e-01, -2.97943316e-02,
         -3.31641465e-01, -1.40447766e-01]],

       [[-6.56193867e-02, -3.38877365e-02, -2.04646423e-01,
          3.00166234e-02,  1.19024634e-01,  1.42789200e-01,
          9.38939676e-02, -8.01045373e-02, -2.69895233e-02,
         -7.91924894e-02, -2.15803966e-01, -1.34881195e-02,
          2.92849779e-01,  1.51289880e-01, -5.21772541e-02,
          1.05200652e-02,  2.77162194e-02,  8.56494233e-02,
          4.32015769e-02, -2.09537715e-01, -5.59459738e-02,
          6.74045552e-03,  6.36441410e-02,  1.81459337e-01,
         -1.10184126e-01,  1.28488362e-01,  2.53930558e-02,
         -1.18962027e-01,  2.77344644e-01,  1.29223868e-01,
         -9.73205641e-02, -1.72724381e-01],
        [ 1.55271469e-02, -4.19712327e-02, -1.58082455e-01,
          1.87399551e-01, -7.04813795e-03, -4.94199134e-02,
          9.96264741e-02,  1.92025714e-02,  2.45427713e-01,
          2.00624228e-01, -1.08796693e-01,  4.34012674e-02,
          3.02615762e-01,  9.10175145e-02, -1.46974519e-01,
          7.82898534e-03,  2.64204383e-01,  1.63389370e-01,
          3.02994009e-02, -2.55477190e-01,  1.30988002e-01,
         -1.24070957e-01,  2.10352346e-01, -1.82339758e-01,
         -1.98250577e-01,  2.52087396e-02, -2.27880981e-02,
          3.27366660e-03,  2.59505510e-01,  2.12767255e-02,
         -4.78095002e-02, -1.16012007e-01],
        [-1.33989140e-01,  1.09517865e-01, -4.57282752e-01,
         -1.77359670e-01,  2.31563002e-02,  4.76163961e-02,
          1.14811465e-01,  3.96173596e-02,  9.24858823e-02,
          4.04596105e-02,  1.61470566e-02, -1.10216543e-01,
          1.77917928e-01,  1.89870402e-01,  1.50067657e-01,
         -2.10764542e-01, -1.43969366e-02, -6.99996203e-02,
         -2.93870363e-03,  2.23290715e-02,  2.00304575e-03,
          2.24962905e-02,  9.52628627e-03,  1.47627354e-01,
         -1.27362266e-01,  1.31795272e-01, -2.09562391e-01,
         -2.40880083e-02,  2.24602878e-01,  1.38494922e-02,
         -1.31734443e-04, -1.98733062e-01],
        [-5.82912192e-02, -1.23227298e-01, -2.71893274e-02,
         -4.18451995e-01, -1.29028633e-01,  3.83740008e-01,
         -3.85045558e-02, -1.31363109e-01, -1.56405032e-01,
         -2.20427960e-01, -1.11079440e-01,  6.74443366e-03,
         -1.23468712e-01, -3.72004993e-02, -1.37145966e-01,
         -8.49521980e-02, -1.24206379e-01,  9.29062963e-02,
          2.64244050e-01, -5.18015102e-02, -1.41304629e-02,
         -1.16804190e-01, -2.52754509e-01,  4.73012477e-01,
          2.99287349e-01,  1.51937544e-01,  5.57271624e-03,
         -3.80020320e-01, -2.01795250e-01,  4.13197219e-01,
         -1.86274543e-01, -1.23746090e-01],
        [-4.86704558e-01, -1.67261571e-01, -2.61579275e-01,
          1.81759864e-01, -1.42565563e-01, -1.42728016e-01,
          1.73942760e-01, -3.33860755e-01,  4.54979420e-01,
          1.37327209e-01,  1.07761346e-01, -2.56132245e-01,
          4.16723132e-01,  2.61916041e-01, -1.77306324e-01,
         -1.67980641e-01,  1.00735389e-01,  1.18357435e-01,
          2.00416800e-02, -2.24734440e-01, -1.03753798e-01,
         -4.24616188e-02,  3.13963860e-01,  8.90320465e-02,
         -4.56968322e-02, -3.56160462e-01,  4.75699455e-02,
         -5.21528535e-02,  4.22305822e-01,  6.83289468e-02,
         -2.01116934e-01, -3.28902006e-01],
        [-1.43070728e-01, -1.07474653e-02, -1.98281616e-01,
         -1.54098719e-02,  2.13236897e-03, -2.34827548e-02,
          4.65335213e-02, -6.84108734e-02, -3.14775705e-02,
         -1.20911106e-01,  1.04531907e-01,  4.77648787e-02,
          2.59663790e-01,  1.48047388e-01, -1.60904765e-01,
          5.51936254e-02,  1.49288237e-01,  3.33507173e-02,
         -4.13717888e-02,  2.34558746e-01, -2.97720805e-02,
         -1.31051550e-02,  1.86592281e-01, -8.92166123e-02,
         -2.04387307e-01, -2.23512724e-01,  1.68521912e-03,
         -2.09572613e-02,  1.16941027e-01, -8.17240775e-03,
          4.41346969e-03, -1.74632799e-02],
        [-9.94698554e-02, -1.37157172e-01, -2.46706128e-01,
         -1.33024812e-01, -1.82711259e-01, -1.30828127e-01,
          2.61300236e-01, -4.18689027e-02,  9.79966745e-02,
          3.06051113e-02,  1.54097557e-01,  6.43221065e-02,
          2.44192421e-01, -1.78656075e-02,  2.76349317e-02,
         -1.29387027e-03, -5.84946983e-02,  9.14851502e-02,
          3.07193875e-01,  1.90431252e-02, -1.53153554e-01,
          1.84024677e-01, -3.21148515e-01,  1.58484772e-01,
          3.55857611e-02,  1.15020499e-01, -2.62637347e-01,
         -3.37336153e-01, -1.09739520e-01,  1.88971996e-01,
         -1.67850673e-01, -1.50365770e-01],
        [-1.58674255e-01,  1.95666030e-02, -1.84415624e-01,
         -2.55725920e-01, -1.39425984e-02,  3.50179553e-01,
          1.61047369e-01, -1.78502463e-02, -1.07335761e-01,
          2.87799612e-02,  1.22653037e-01,  9.09580365e-02,
         -6.05081022e-03,  1.56294685e-02,  6.52610064e-02,
         -1.25849918e-01,  7.30771571e-02, -7.21872821e-02,
          1.66362926e-01,  1.50933027e-01,  1.24048330e-02,
          1.34615168e-01, -7.73782581e-02,  4.70152050e-01,
         -9.85016003e-02,  1.34937748e-01, -2.89309710e-01,
         -1.04741238e-01,  1.17848199e-02,  2.57596821e-01,
         -1.41796753e-01, -2.60634869e-01],
        [-9.11750868e-02, -1.78028837e-01, -1.89341024e-01,
         -6.95354864e-02, -1.78084254e-01,  2.49419004e-01,
          1.97944753e-02, -1.78653270e-01,  9.97892767e-02,
         -1.22099921e-01,  5.50468341e-02, -1.07999094e-01,
          2.15053871e-01,  1.96146831e-01, -2.52110064e-01,
         -6.34767413e-02,  2.16946304e-01,  2.91114002e-02,
          2.34935880e-01,  1.05008163e-01, -1.64251238e-01,
         -5.15071079e-02, -1.45443127e-01,  3.33735168e-01,
          7.16512054e-02,  2.40016684e-01, -1.80730270e-03,
          5.60312867e-02,  2.27956131e-01,  4.41930443e-02,
         -3.12499762e-01, -4.08301055e-01],
        [-1.66681021e-01,  7.34394640e-02, -1.93391892e-03,
          7.25841075e-02, -3.83228995e-02, -3.65659706e-02,
          2.10930631e-02, -1.11449827e-02,  1.88877314e-01,
          9.06241909e-02, -1.01995282e-01,  1.53655489e-03,
          1.63469374e-01,  9.61980000e-02, -1.26452008e-02,
          1.66195501e-02,  6.40041893e-03, -5.80785749e-03,
          1.01295978e-01, -3.49832803e-01, -3.01067010e-02,
         -5.11861630e-02, -1.06625929e-01, -1.43619686e-01,
          2.61375278e-01,  2.34120637e-01, -1.82912141e-01,
         -9.39200595e-02,  1.41488031e-01,  8.37114379e-02,
         -1.75038621e-01, -6.51290938e-02],
        [ 2.66417246e-02,  6.10247115e-03, -1.43497020e-01,
          1.71352662e-02,  4.58304547e-02, -9.87191573e-02,
          2.70593733e-01, -2.63376862e-01,  5.95003255e-02,
         -1.61522731e-01, -7.45590702e-02,  1.31985685e-02,
          1.61828727e-01,  2.94933647e-01, -2.03262925e-01,
          4.79748622e-02,  3.90003026e-01,  1.42640620e-01,
         -1.18373953e-01,  1.95551314e-03, -1.57964036e-01,
          2.81864196e-01, -1.35894924e-01,  9.31496769e-02,
          4.25396040e-02,  1.98012188e-01,  7.53934355e-03,
          6.01256192e-02,  2.09924094e-02,  7.50379711e-02,
          1.05087198e-01, -1.55208841e-01],
        [ 1.05087608e-01, -2.05303162e-01,  4.79682386e-01,
          7.39488825e-02, -1.60858765e-01,  3.93372566e-01,
         -2.99849063e-01,  2.90416539e-01, -1.09423235e-01,
         -1.72181889e-01, -6.04591072e-01,  1.58151686e-01,
         -7.33484745e-01, -2.13237897e-01, -1.16196591e-02,
          2.29986295e-01,  2.28671774e-01,  3.39406610e-01,
         -1.01205893e-01, -2.57269979e-01,  1.55849829e-01,
          1.35466279e-02, -3.30347478e-01, -2.08963335e-01,
          5.21826267e-01,  3.86747628e-01, -1.95477024e-01,
         -5.17849438e-02, -5.53545892e-01,  6.74202964e-02,
         -2.02606502e-03,  5.59310988e-02],
        [-9.51178893e-02,  8.86016488e-02, -2.14464650e-01,
         -9.58100185e-02,  1.94334254e-01,  1.45314604e-01,
          1.24414954e-02, -2.03546762e-01, -6.17437735e-02,
          2.98993766e-01, -1.92291304e-01,  2.65516460e-01,
          2.94020176e-01,  7.62020275e-02, -2.81639658e-02,
          9.80166942e-02,  6.41164109e-02,  5.39607182e-02,
          8.80721137e-02, -1.13904253e-01,  6.73188865e-02,
         -2.23721057e-01, -1.01921916e-01,  2.14333951e-01,
         -7.78958723e-02,  2.46934354e-01,  1.03412494e-02,
         -3.22014451e-01,  5.14895320e-01, -1.01544432e-01,
         -5.83267920e-02, -1.80273771e-01],
        [-6.72770739e-02,  1.86674431e-01, -1.94131851e-01,
         -2.54013389e-01, -1.28359646e-01,  1.05017483e-01,
         -3.39828711e-03, -7.90187269e-02, -1.50206313e-01,
         -2.22472791e-02, -1.47310540e-01, -5.73448651e-02,
          9.98520702e-02, -2.27840003e-02,  4.33193184e-02,
         -1.34854004e-01,  5.66742644e-02,  5.50952032e-02,
          2.17260584e-01, -2.42331043e-01,  4.58808728e-02,
         -7.92253092e-02, -1.14181042e-02,  3.09089392e-01,
          2.81223476e-01,  9.74247009e-02, -2.33948186e-01,
         -1.57462694e-02, -5.29763699e-02,  1.87770143e-01,
         -1.31850868e-01, -3.31690699e-01],
        [-2.48303041e-01, -2.03852579e-01, -2.72027254e-01,
         -2.42778677e-02,  1.41166270e-01,  1.37029037e-01,
          2.94006150e-02, -3.06539178e-01,  2.91577160e-01,
         -3.22202474e-01,  1.65453821e-01, -3.85279566e-01,
          5.14502227e-01,  3.77315491e-01,  5.05126528e-02,
         -3.21687132e-01,  2.80562609e-01, -4.58889231e-02,
         -6.45199418e-03, -6.50899112e-02, -3.84325907e-02,
          9.44774412e-03,  3.68467928e-03,  2.32404947e-01,
          1.07643586e-02, -1.64315805e-01, -8.81103277e-02,
          1.73868984e-01,  5.56100190e-01,  2.00970948e-01,
         -2.96921045e-01, -3.40016872e-01],
        [-2.09369346e-01, -4.28545522e-03, -4.99598198e-02,
          6.84816912e-02,  2.90130125e-03, -2.11926311e-01,
          4.08586651e-01, -5.12580454e-01,  3.55778128e-01,
          5.85306697e-02,  2.93276995e-01, -6.94715679e-02,
          5.47500789e-01,  6.75543249e-02,  1.44577669e-02,
         -2.43882909e-01,  3.74842703e-01,  9.18439552e-02,
          6.70466423e-02, -1.56322867e-01, -1.37450948e-01,
          2.29369834e-01,  4.51399423e-02,  1.01442626e-02,
         -6.09811068e-01, -5.76144636e-01,  1.07182294e-01,
         -8.46526399e-02,  4.17517215e-01,  1.90563537e-02,
          1.87296599e-01, -3.65988404e-01],
        [ 1.05174556e-01, -3.62195484e-02, -2.11590484e-01,
         -1.48758367e-01, -8.35606903e-02,  3.54765296e-01,
         -2.91740522e-04, -1.84742481e-01, -2.17249334e-01,
         -4.52733189e-01, -2.18281541e-02,  1.48237064e-01,
         -1.02439851e-01,  1.35764882e-01, -9.91392136e-03,
         -2.86679775e-01, -9.07385349e-02, -1.15681767e-01,
          4.00795609e-01, -2.28769660e-01, -1.87008843e-01,
         -3.93964835e-02, -1.49725646e-01,  4.87934023e-01,
          3.97556871e-02,  1.02752559e-01, -3.06057692e-01,
         -1.50722370e-01,  1.42959103e-01,  3.22681725e-01,
          6.48410320e-02, -2.03475744e-01],
        [-3.71636480e-01,  1.80897847e-01, -3.08513525e-04,
          8.62268955e-02, -3.38765949e-01, -1.73338428e-01,
          2.63415635e-01, -3.43857050e-01,  1.40549615e-01,
         -7.36547932e-02,  3.74075733e-02, -1.96227089e-01,
          2.19299287e-01, -2.29783729e-02,  8.94326642e-02,
         -1.49116009e-01, -1.32516652e-01, -9.92076173e-02,
          1.36832371e-01, -1.82906557e-02,  2.21350759e-01,
          8.93715918e-02, -8.50516930e-02,  3.70393217e-01,
          2.73394436e-02, -6.55024052e-02,  2.34250072e-02,
         -8.83928984e-02, -5.45547195e-02,  1.06080294e-01,
          1.11625172e-01, -1.09888479e-01],
        [ 1.07968748e-01,  6.45796433e-02, -6.89324662e-02,
         -1.45905077e-01, -7.91385248e-02,  2.51076221e-01,
         -2.12149173e-01, -2.70030219e-02, -1.08674206e-02,
          5.99712953e-02, -1.81141391e-01, -1.83039427e-01,
          1.15347974e-01, -6.80031180e-02, -1.94691077e-01,
          9.56270099e-02,  1.09303623e-01, -1.87694971e-02,
         -2.10177228e-02,  3.86251248e-02, -2.75591668e-02,
          1.09912939e-01, -1.32063001e-01,  1.36448294e-01,
         -1.02383152e-01,  2.91960418e-01, -1.06388004e-02,
          1.41590759e-01,  2.76772141e-01, -1.44849449e-01,
         -2.81843007e-01, -1.71167135e-01],
        [ 6.44794479e-02, -1.84546962e-01, -1.88162372e-01,
          2.09683880e-01,  1.17335573e-01,  1.47713348e-01,
          1.39199704e-01,  5.72680868e-02,  1.22822791e-01,
         -1.17702998e-01,  1.74672812e-01,  6.29404783e-02,
          1.90065354e-01, -9.02297422e-02, -7.58517161e-02,
          2.85407808e-02,  2.80317903e-01,  2.74397939e-01,
          1.34942561e-01, -8.38109776e-02,  1.62583724e-01,
          1.97128460e-01,  4.76602428e-02, -8.89043212e-02,
         -3.70901167e-01, -2.38615915e-01,  7.86553845e-02,
         -1.12827249e-01,  2.89295822e-01, -5.92014156e-02,
         -1.63484618e-01, -5.57389818e-02],
        [-8.31844732e-02,  1.11479737e-01, -8.71127173e-02,
         -1.59359068e-01,  2.76905932e-02,  7.16630816e-02,
          3.82923573e-01, -2.33610958e-01,  1.55469209e-01,
          7.56428912e-02,  1.20459190e-02,  3.73528674e-02,
          1.34419054e-01, -8.59531760e-02, -1.69390999e-02,
         -2.44529918e-02, -3.34073498e-04,  1.53957635e-01,
          8.10085144e-03, -1.45307094e-01, -1.69001929e-02,
         -1.18347600e-01, -8.47004727e-02,  5.48112579e-02,
         -1.54829547e-01, -2.08890557e-01, -2.96722561e-01,
         -4.02589709e-01,  4.24139410e-01,  1.32778391e-01,
          7.04344884e-02, -3.16995472e-01],
        [-1.86157718e-01, -1.83438033e-01,  1.81838274e-01,
         -2.56702542e-01, -2.18084827e-01,  4.09125358e-01,
          1.54868886e-01, -1.69953495e-01, -1.50238395e-01,
         -2.14841515e-01,  8.30330402e-02,  2.13231504e-01,
         -1.67737067e-01, -2.77768284e-01, -1.04683451e-01,
         -5.51039875e-02, -2.11831838e-01, -2.03988194e-01,
          1.90193146e-01,  7.07380823e-05, -4.22600769e-02,
         -3.11680317e-01, -1.16764352e-01,  1.99132979e-01,
          1.57526582e-01, -8.37017596e-03, -8.84881392e-02,
         -1.55952886e-01, -1.62824407e-01,  3.30476105e-01,
          1.85746208e-01, -3.33169326e-02],
        [-4.50570405e-01, -5.85052967e-02, -2.82390088e-01,
         -2.87720859e-01, -4.02900577e-01, -4.71962392e-01,
          6.75894678e-01, -4.03433025e-01,  5.44315219e-01,
         -6.47479594e-02,  4.94784117e-01, -3.08414042e-01,
          6.57087088e-01, -1.47649273e-01,  2.51342714e-01,
         -1.62110835e-01,  4.78311568e-01,  1.97800666e-01,
         -6.42427430e-02,  1.89642549e-01, -1.04004838e-01,
          2.97707766e-01,  2.80889064e-01, -3.45542610e-01,
         -6.18532956e-01, -7.78320372e-01, -6.81591928e-02,
          2.85953820e-01,  1.54969022e-01, -5.91815747e-02,
          2.98112273e-01, -1.23785645e-01],
        [-1.09849218e-02, -8.62740651e-02, -1.38443992e-01,
         -1.85563922e-01,  1.30185857e-01,  1.30782379e-02,
          6.57385588e-02, -2.21171021e-01,  2.86644399e-02,
         -4.87366393e-02, -9.49048549e-02,  1.62895069e-01,
          4.97194082e-02, -1.98263042e-02,  1.14208244e-01,
         -2.13703066e-01,  8.31327885e-02, -1.45970015e-02,
         -1.66667043e-03, -3.11902501e-02, -7.81916007e-02,
          2.32707575e-01, -1.06145665e-01, -2.07319320e-03,
         -4.10785258e-01, -9.39269438e-02, -1.19545437e-01,
          2.95563471e-02,  4.94150847e-01,  2.08435521e-01,
          7.59824961e-02, -1.25213847e-01],
        [ 6.90331534e-02, -2.01292634e-02, -1.59585610e-01,
         -1.92744702e-01,  9.77092460e-02,  3.39652508e-01,
         -5.36711365e-02,  1.58151183e-02,  2.66208380e-01,
         -5.74123375e-02,  9.56140682e-02, -3.26249865e-03,
          9.01328623e-02,  5.87118848e-04, -8.36907402e-02,
          1.62033737e-01,  9.44328681e-03,  6.93780333e-02,
          8.01746398e-02,  1.04891002e-01, -5.08060902e-02,
          1.69266183e-02,  9.41426829e-02,  5.16460463e-02,
         -2.91205406e-01, -2.22162846e-02, -4.11137119e-02,
          2.89116949e-02,  3.99268389e-01,  1.03395805e-01,
         -1.43113062e-01, -1.33017808e-01],
        [ 2.49436527e-01, -9.39556882e-02,  1.33231327e-01,
         -2.18981251e-01,  9.63654071e-02,  2.66414255e-01,
         -2.31282294e-01,  1.00677513e-01, -2.88392693e-01,
         -1.33368313e-01, -3.44459228e-02,  2.80262530e-01,
         -3.04631919e-01, -3.36707197e-02, -2.46535793e-01,
          1.06382705e-02, -4.70873415e-02,  9.83289480e-02,
         -1.82766736e-01, -1.93073675e-02, -1.07001565e-01,
         -2.34030187e-03, -4.79227044e-02, -5.46168387e-02,
          5.36794402e-02,  3.84526849e-01,  6.88660890e-02,
          2.47400269e-01, -1.05809070e-01, -4.95169237e-02,
         -2.08808333e-01,  1.88139945e-01],
        [ 1.44296184e-01,  4.53883223e-02,  1.68621466e-01,
          4.15356345e-02, -1.15897290e-01,  4.02642757e-01,
         -2.99157560e-01,  1.05597116e-02,  1.64751951e-02,
         -1.60324067e-01, -3.57766777e-01, -4.49485853e-02,
         -4.48703438e-01, -2.32173368e-01, -1.21919336e-02,
          2.84011781e-01,  2.12931305e-01,  2.07132056e-01,
         -2.45033115e-01, -3.79578859e-01,  2.31405452e-01,
         -2.84641325e-01, -2.07511574e-01, -2.58429974e-01,
          3.36884767e-01,  4.29257900e-01,  6.43029138e-02,
          1.92935258e-01, -8.25975239e-01, -3.18449855e-01,
          7.37003237e-02,  5.72509617e-02],
        [-2.46016786e-01, -3.07501908e-02, -2.58711576e-01,
         -1.60108209e-01, -1.93216681e-01,  1.53272524e-01,
