[array([[[ 2.88604617e-01,  3.87298226e-01, -7.81366229e-01,
          1.28658378e+00, -6.40702903e-01, -3.90959293e-01,
         -2.00731725e-01, -2.40247101e-01, -3.16893905e-01,
          1.22395515e-01,  1.04283430e-01, -1.46556377e-01,
         -6.21409893e-01, -5.37756719e-02, -1.43257082e-01,
          2.56335467e-01, -1.06796050e+00, -3.00025284e-01,
         -3.72723430e-01, -3.38564962e-01,  5.45972526e-01,
         -1.69650558e-02, -2.56557971e-01,  2.94405431e-01,
          4.30717379e-01,  3.43332738e-02,  1.20516133e+00,
         -2.68761545e-01,  9.79519188e-02, -7.79796004e-01,
         -1.78575721e-02, -4.01702940e-01,  4.52790037e-02,
         -3.47349077e-01, -2.84308970e-01, -2.51716942e-01,
         -6.75957263e-01, -1.95745453e-01, -1.33568496e-01,
          3.90836924e-01, -2.67191142e-01,  1.67285576e-01,
         -1.69300928e-03,  1.09795630e+00, -4.41102415e-01,
         -6.32146820e-02, -3.69628072e-01, -2.36268461e-01,
         -1.09313123e-01,  7.23528713e-02, -4.48417803e-03,
         -1.33654371e-01,  7.98511386e-01, -3.62234414e-01,
         -5.45222342e-01, -9.77434933e-01,  7.41992891e-01,
          7.56200477e-02, -1.16041288e-01,  7.34880865e-01,
          7.57794529e-02, -9.00134742e-01,  3.00625324e-01,
          1.05236033e-02]],

       [[-2.08468497e-01,  4.59819466e-01, -2.60945231e-01,
         -7.31277883e-01, -5.23926973e-01,  4.25819904e-01,
          2.21437335e-01, -1.62527710e-01,  6.32021248e-01,
         -1.26045144e+00, -5.45174062e-01,  3.57962288e-02,
          5.70525527e-01,  5.98922744e-02,  6.77408755e-01,
          2.02778116e-01,  4.02599633e-01, -2.84420967e-01,
         -3.28906924e-01, -7.49846935e-01,  2.21578255e-02,
          2.91771889e-01,  8.61185119e-02, -2.06202894e-01,
          1.94387749e-01, -8.77475679e-01, -7.24950790e-01,
          5.80085397e-01,  1.07120864e-01,  1.02359354e+00,
          1.22602686e-01, -5.46382785e-01,  6.37981296e-02,
          4.67613459e-01,  3.04035664e-01, -7.01193392e-01,
          1.48981556e-01,  4.05134819e-02,  1.77996308e-01,
          1.45299405e-01, -6.54543221e-01, -7.05173433e-01,
         -1.81031764e-01, -9.47552145e-01, -3.95109743e-01,
          1.53217003e-01, -6.47869170e-01, -7.47495532e-01,
         -1.47111759e-01,  8.69149745e-01, -3.11510086e-01,
         -6.17806852e-01, -1.27783448e-01, -5.58342040e-01,
         -5.57652354e-01, -5.23518622e-01,  2.48425573e-01,
         -2.57797062e-01,  1.61403175e-02,  1.92919254e-01,
         -7.64339626e-01, -2.64501721e-01, -6.09058976e-01,
         -9.49946046e-03]],

       [[-4.06755179e-01,  2.82438640e-02, -6.77985787e-01,
          1.34763837e+00, -4.39087868e-01, -6.88834488e-02,
          5.12050502e-02,  2.52495140e-01,  1.35344341e-01,
          1.00446141e+00,  3.15634757e-02,  1.84378132e-01,
         -6.28570020e-01,  3.08671594e-01, -1.00646727e-01,
          4.10033278e-02, -8.82076502e-01,  2.58483469e-01,
          3.53059500e-01,  5.63705146e-01, -1.09052651e-01,
         -1.64995760e-01, -9.97084737e-01, -6.59667253e-01,
         -1.30281940e-01,  3.78242701e-01,  1.46345246e+00,
          2.79050231e-01,  5.62764257e-02, -3.20152044e-01,
          2.19693050e-01, -2.87778288e-01,  3.14424038e-02,
         -4.54650402e-01, -8.98232535e-02, -7.15874657e-02,
         -6.05415821e-01,  2.27916226e-01, -1.43255293e-01,
         -1.58487335e-01,  6.95134550e-02, -1.06476888e-01,
         -6.03298247e-01,  9.30554390e-01,  2.00660184e-01,
         -9.11368728e-02,  4.51346129e-01,  3.12600464e-01,
          3.23098674e-02, -3.83189060e-02, -3.37405503e-01,
          5.08079290e-01,  2.67642010e-02, -2.23947838e-01,
          4.76252824e-01, -8.64491284e-01, -2.55301267e-01,
         -1.75071046e-01, -1.10011831e-01, -2.09964678e-01,
          4.15422861e-03, -1.03609455e+00,  1.08872883e-01,
         -1.61898937e-02]],

       [[ 2.98029453e-01, -2.36320168e-01, -4.25254971e-01,
         -5.66197872e-01, -4.13134694e-01,  2.50364125e-01,
          2.79275239e-01,  1.43620685e-01, -1.87762380e-01,
         -6.53278887e-01, -5.65473258e-01,  4.97689918e-02,
          4.85564411e-01,  1.65680349e-01,  1.54888391e-01,
          5.70294186e-02,  8.49656522e-01,  5.53668365e-02,
         -1.03403129e-01, -2.53701419e-01, -8.04620087e-01,
          3.33595127e-01,  7.58689702e-01,  3.83924544e-01,
         -5.14332876e-02, -1.00419223e+00, -8.63026559e-01,
         -2.20601618e-01,  1.37721479e-01,  1.05223572e+00,
          2.08705544e-01, -5.19276083e-01,  8.86881799e-02,
          3.45502496e-01,  1.80195317e-01, -4.38324772e-02,
          7.19142616e-01,  9.30286571e-02,  1.68165132e-01,
         -2.03046679e-01, -2.83467144e-01, -8.70757401e-01,
          5.71609318e-01, -1.11391032e+00,  9.30623636e-02,
          2.30625018e-01, -9.30556953e-02, -3.45808774e-01,
         -2.62261450e-01, -9.62377489e-02, -6.89690888e-01,
         -1.21219642e-01, -7.17386723e-01, -3.36258590e-01,
         -1.25212118e-01,  2.87993222e-01,  1.53588593e-01,
         -7.08038509e-01,  2.20721841e-01, -6.27974391e-01,
         -1.06146252e+00, -5.61650395e-02, -7.34331965e-01,
         -8.19562003e-03]],

       [[ 1.86616629e-01, -1.81040332e-01, -2.60914147e-01,
          1.11893845e+00, -1.55122072e-01,  2.70946305e-02,
          3.52799445e-01,  3.36482465e-01, -8.59125793e-01,
          9.65406895e-01, -1.98331978e-02,  4.04940136e-02,
         -8.17347229e-01, -3.97765189e-02, -5.95889747e-01,
         -8.67748400e-04, -5.36689639e-01,  6.01195633e-01,
          6.12473369e-01,  6.06142163e-01,  2.17709169e-01,
         -3.14504862e-01, -4.23887283e-01,  4.73371670e-02,
         -1.44682109e-01,  8.60094488e-01,  1.05333257e+00,
         -3.99402648e-01,  7.30148628e-02, -6.71875358e-01,
          1.24479219e-01, -3.07237208e-01,  7.86469728e-02,
         -5.09354055e-01, -1.40177637e-01,  6.22912407e-01,
          8.98928270e-02,  9.62962955e-02, -6.94899261e-02,
         -5.01709402e-01,  6.49436355e-01,  3.58885527e-01,
         -1.12262759e-02,  5.65074801e-01,  4.17187452e-01,
         -1.71364307e-01,  5.64618647e-01,  3.57667387e-01,
          2.87305061e-02, -8.93781483e-01,  5.39136469e-01,
          4.91794914e-01, -2.98129231e-01, -3.67691070e-01,
          3.38095844e-01, -3.35224792e-02, -1.55721381e-01,
          6.77857518e-01,  4.52485085e-01, -4.16741483e-02,
          4.27119225e-01, -6.93926632e-01,  4.90396261e-01,
          4.00379673e-03]]], dtype=float32), array([-1.23965205e-03, -1.39201134e-02,  1.05314083e-01, -1.69296771e-01,
        1.16095483e-01, -6.37729466e-02, -3.86033654e-02, -3.57202142e-02,
       -7.04879453e-03, -5.97403720e-02,  5.12589552e-02,  6.54051267e-03,
        6.68780762e-04, -8.34949128e-03, -5.98839112e-02,  1.11712108e-03,
        3.83525006e-02,  7.46897096e-03,  1.62325567e-04, -3.37955020e-02,
       -1.32996459e-02, -1.54836075e-02,  8.49953201e-03, -1.52279185e-02,
       -5.06224949e-03, -3.32488976e-02, -1.75214842e-01, -5.45946211e-02,
       -2.37744823e-02, -2.48497147e-02, -6.00646585e-02,  1.60229400e-01,
       -2.07283553e-02, -3.19698527e-02, -1.92005141e-03, -1.49063738e-02,
       -5.67393899e-02,  4.39682323e-03,  2.33329972e-03, -1.62224285e-02,
       -3.47316382e-04,  3.67905460e-02,  1.14712343e-02, -9.28076282e-02,
       -1.22150062e-02, -2.18183435e-02, -2.79882457e-02,  1.10318689e-02,
       -2.75667235e-02, -2.16205455e-02,  1.70311313e-02, -5.86536862e-02,
        2.90892040e-03,  9.84124094e-02,  1.37017267e-02,  1.06696814e-01,
       -9.80864391e-02,  1.40974682e-03, -3.35804420e-03, -1.20510929e-04,
       -8.76738923e-04,  8.84443149e-02, -3.62099595e-02, -3.21558267e-02],
      dtype=float32)]