[array([[[-3.76637131e-02, -6.38368651e-02, -1.69469431e-01,
         -4.87446450e-02, -1.50711268e-01, -2.15927318e-01,
         -1.47108093e-01,  6.48562014e-02, -4.49818633e-02,
          3.71388644e-02, -2.53812164e-01,  3.57201070e-01,
          1.63281307e-01,  1.70197431e-02, -6.02743961e-02,
         -6.71161488e-02,  6.32243678e-02,  2.85952669e-02,
          1.42847374e-01, -2.60444190e-02,  2.20737308e-02,
          1.28371548e-02, -3.28047127e-01, -4.74628881e-02,
          1.48110569e-01,  6.80617169e-02,  4.04945850e-01,
         -2.20394939e-01, -1.37558445e-01, -1.32481009e-01,
         -1.46449208e-01, -1.82728291e-01,  3.30418378e-01,
          1.00027561e-01,  1.24501169e-01,  5.23410976e-01,
          2.11776838e-01, -1.99953884e-01, -7.06058443e-02,
         -1.78265870e-01,  2.51600775e-03, -9.58993956e-02,
         -7.81549886e-02,  1.03119582e-01,  1.69046625e-01,
         -2.33978368e-02,  1.00441180e-01, -1.65896658e-02,
         -1.25301838e-01, -1.58819705e-01,  1.44621715e-01,
          2.45091066e-01, -2.91403234e-01,  9.01577398e-02,
         -1.42550781e-01,  9.02966857e-02,  3.00352812e-01,
          9.27907154e-02,  3.54327820e-02,  5.97640164e-02,
         -1.10893026e-01,  1.07663698e-01, -5.08211404e-02,
         -2.70124972e-01]],

       [[-1.10252626e-01, -7.49134645e-02, -4.58850786e-02,
         -4.16592276e-03, -6.29961714e-02,  1.20366752e-01,
          7.04518259e-02, -2.85191685e-01, -4.43116575e-02,
          8.03138167e-02,  1.28936976e-01,  1.89314619e-01,
         -2.73690820e-01,  2.12686822e-01, -1.23079374e-01,
         -8.50398839e-02, -2.64064252e-01, -9.03329924e-02,
          1.03986706e-04, -2.58331150e-01, -2.52580494e-02,
          1.20001622e-01, -2.61181176e-01, -4.51352358e-01,
         -1.22550733e-01,  4.86481525e-02,  1.78906754e-01,
         -1.12513099e-02, -4.27687049e-01, -1.16981886e-01,
          1.99465141e-01, -1.71548814e-01,  2.44558394e-01,
         -2.00974829e-02, -1.20483913e-01,  2.86130995e-01,
         -1.09112822e-01,  3.99083178e-03,  6.00756854e-02,
         -5.94190694e-03, -8.31827223e-02, -3.12099308e-01,
         -7.92176872e-02,  1.76184371e-01,  2.54735500e-01,
         -2.23091006e-01, -5.10957122e-01,  4.97767702e-02,
         -1.71905681e-01,  7.35968426e-02, -3.51996481e-01,
          1.30409166e-01, -4.02857102e-02, -7.53327236e-02,
         -1.99747741e-01, -9.57611352e-02,  1.49984583e-01,
         -5.45385219e-02, -1.75519377e-01, -2.55001903e-01,
          1.30981758e-01, -2.69309580e-01,  1.51236072e-01,
          1.75769657e-01]],

       [[ 1.25598565e-01, -8.07009041e-02, -2.75967032e-01,
         -1.09821104e-01, -1.70211166e-01,  6.36325404e-03,
         -7.46120661e-02,  1.07233576e-01, -1.38626382e-01,
         -8.55719820e-02, -1.36995599e-01, -2.02524848e-02,
         -6.31893706e-03, -3.49141248e-02, -3.23868573e-01,
          2.46090904e-01,  1.32427573e-01, -4.22982089e-02,
         -5.69792613e-02,  4.35272455e-02,  3.15474644e-02,
          1.00029916e-01,  6.42232224e-02,  2.86028862e-01,
          4.11380269e-02,  1.13695368e-01, -1.48000196e-02,
         -8.39365199e-02, -1.80998072e-01, -1.58898100e-01,
         -8.50574151e-02, -7.92061016e-02, -6.61021993e-02,
          1.20428659e-01, -1.35192396e-02, -1.03561364e-01,
         -1.18942030e-01, -1.12568706e-01, -1.99466601e-01,
         -2.54947454e-01,  1.69999093e-01,  1.18996873e-01,
         -1.39036238e-01,  6.11278415e-02,  1.77578077e-01,
          6.27639741e-02,  1.23666905e-01, -1.47846505e-01,
          3.84935811e-02,  8.41170736e-03,  4.75633815e-02,
         -2.29683816e-01, -3.37905198e-01, -2.93544419e-02,
          1.24301895e-01,  1.07834220e-01, -1.41420633e-01,
         -4.53792028e-02, -1.97112620e-01, -8.86323676e-02,
          1.26618724e-02, -4.94638495e-02, -7.75441304e-02,
         -2.45027661e-01]],

       [[-4.57016230e-02, -1.19207710e-01,  1.34215251e-01,
         -1.21001959e-01,  9.98112187e-02,  1.34966105e-01,
          9.65135731e-03, -2.22282082e-01,  4.99490649e-02,
         -7.32506812e-02,  5.09332642e-02, -4.26215790e-02,
         -2.67859846e-01,  1.40947714e-01,  5.91717064e-02,
          3.00448328e-01, -3.46414030e-01,  3.58832106e-02,
         -1.79052621e-01, -6.71649650e-02, -3.57292071e-02,
         -2.02125143e-02,  2.64979035e-01,  5.20742312e-03,
         -1.57591340e-03, -1.96808398e-01, -2.00649649e-01,
          7.08144531e-02, -4.67917740e-01, -9.41521525e-02,
          3.64746973e-02,  1.22694179e-01, -5.84231652e-02,
         -1.55248895e-01, -4.35590893e-02, -1.83086529e-01,
         -3.14798683e-01,  1.61931068e-02, -2.90681180e-02,
          1.57349125e-01, -6.18001930e-02,  2.05920964e-01,
          1.71148181e-02,  2.33469561e-01,  2.17767045e-01,
          7.99188688e-02, -2.83151060e-01,  3.76551785e-03,
         -4.88587543e-02, -3.91734205e-02, -1.78503379e-01,
         -2.59901285e-01, -3.76623310e-02, -1.08752146e-01,
         -6.31597862e-02,  1.32525805e-02, -7.92429820e-02,
         -1.16915643e-01, -1.94412336e-01, -1.56248406e-01,
          3.28284651e-02, -5.66518083e-02,  1.01412334e-01,
          6.31905422e-02]],

       [[-1.07810430e-01,  1.25321493e-01, -2.77642220e-01,
         -1.40025944e-01,  2.10400462e-01,  9.28441510e-02,
         -3.48227322e-02, -1.44109335e-02, -9.95769575e-02,
          1.13720641e-01, -8.35271925e-02, -5.33141017e-01,
         -1.01404592e-01, -2.98960861e-02,  1.64358854e-01,
          3.48503023e-01, -8.02848935e-02, -7.84890875e-02,
          6.74074888e-03,  9.48368534e-02,  4.87325639e-02,
         -1.15790833e-02,  3.80271554e-01, -6.07234798e-02,
          6.56943768e-02, -1.70640528e-01, -4.48211014e-01,
         -1.56409651e-01, -1.48524269e-01, -2.17138112e-01,
         -5.13025299e-02,  2.69548088e-01, -3.31380218e-01,
          8.11991990e-02, -2.94664726e-02, -4.71739799e-01,
         -1.40433699e-01, -7.17498735e-02,  1.22787803e-01,
         -6.18928410e-02,  7.32526854e-02,  1.56830683e-01,
         -1.92072883e-01,  1.05118833e-01,  1.26266092e-01,
          8.93020350e-03,  6.16745763e-02, -2.09064648e-01,
         -6.75746128e-02,  2.11115524e-01,  7.02998787e-02,
         -4.49787289e-01, -5.08899629e-01,  1.76710468e-02,
          2.00867087e-01,  7.04918057e-02, -2.57623553e-01,
         -8.81066620e-02,  9.49859992e-02, -5.36838733e-02,
          1.20824441e-01, -1.76927805e-01, -1.17219582e-01,
         -7.67515823e-02]]], dtype=float32), array([-0.0016584 , -0.00874137,  0.01394705, -0.09475226,  0.00512888,
        0.01104368, -0.02370857,  0.14570877,  0.09463011,  0.00900031,
        0.01236269, -0.01666329, -0.00734804,  0.20618978, -0.12800765,
       -0.09598348,  0.199083  ,  0.01234971,  0.02017128,  0.00638625,
       -0.01923904, -0.06437802, -0.02238125,  0.00635481, -0.01173662,
        0.03543074, -0.1828731 , -0.01619289,  0.10058344,  0.14537814,
        0.03969264,  0.12827337, -0.00407148, -0.02400792, -0.00325543,
        0.01006029, -0.07438896,  0.03724563, -0.09607249,  0.02014186,
       -0.0123623 , -0.02318964,  0.06867764, -0.15012176, -0.01139999,
       -0.04265221, -0.03597378,  0.0706641 , -0.05197005, -0.01953523,
       -0.01807769,  0.15021397,  0.25272578,  0.00382069, -0.03476636,
       -0.08336795,  0.00111255, -0.04620277,  0.07672498,  0.01075697,
       -0.03239315, -0.12742044,  0.00796463, -0.01315643], dtype=float32)]