[array([[ 6.81877434e-02,  1.73180923e-01, -5.00930920e-02,
        -1.03650197e-01, -2.91533500e-01,  1.67547703e-01,
         3.64603668e-01, -1.13887258e-01,  7.47071207e-02,
        -4.64084232e-03, -7.33829737e-02,  1.28885031e-01,
        -2.91018933e-03,  3.86197954e-01,  5.81282862e-02,
         2.09557191e-01,  2.14469172e-02,  1.71688590e-02,
        -2.00597763e-01,  9.52868015e-02, -2.71894895e-02,
        -2.57350446e-04,  2.20115006e-01, -1.18817367e-01,
         1.92867115e-01, -3.93752158e-02, -6.18883297e-02,
        -1.09711275e-01, -8.47596228e-02,  1.30399331e-01,
         3.88538390e-02,  1.55764058e-01,  1.45748869e-01,
        -1.21034697e-01,  2.10655615e-01, -1.64612204e-01,
        -3.24872769e-02,  5.02028018e-02,  1.20456196e-01,
         1.63969263e-01,  3.93778421e-02, -2.81015038e-01,
         1.92528412e-01,  1.24038421e-01, -3.01345021e-01,
        -9.13486108e-02,  3.53562273e-03,  8.65004063e-02,
        -2.19470784e-01, -4.64238040e-02],
       [-6.52115464e-01,  2.41434112e-01, -1.54836252e-01,
        -8.02855100e-03,  1.15368299e-01, -1.49522573e-01,
        -1.70539871e-01, -7.94594884e-02, -1.65813401e-01,
        -1.98104858e-01, -2.42153585e-01, -2.00661182e-01,
         6.56675026e-02,  6.27792180e-02, -2.65457511e-01,
        -2.00387865e-01,  3.55881602e-02,  3.24251205e-02,
         5.82500063e-02,  1.78072408e-01, -1.47860825e-01,
        -3.05024862e-01, -7.41654634e-02,  1.99348822e-01,
        -8.03722627e-03, -9.57117379e-02,  7.27292383e-03,
        -1.01244763e-01,  1.93295032e-01, -1.14870533e-01,
        -2.69996107e-01, -2.32375905e-01, -9.72929522e-02,
        -8.08310807e-02,  6.25884831e-02, -5.62041812e-02,
         2.61936635e-02,  7.73413479e-02, -9.10590589e-03,
        -3.01262806e-03,  2.06456691e-01, -9.85464901e-02,
         5.85950203e-02,  1.70095310e-01,  8.74216408e-02,
         7.81923160e-02, -5.69698550e-02, -2.22313330e-01,
        -4.70344648e-02, -1.32495642e-01],
       [ 2.55037367e-01, -8.66484493e-02,  8.93097073e-02,
        -1.02783307e-01, -1.00784600e-01,  1.33125007e-01,
        -3.58719945e-01,  2.16170456e-02, -1.08795501e-01,
        -1.66007563e-01,  2.05246925e-01,  1.65384468e-02,
         3.82812135e-02, -2.97846466e-01, -2.09637374e-01,
        -2.21365616e-01,  1.47380456e-01, -1.21156298e-01,
        -1.18380031e-02,  1.03963159e-01,  8.18967968e-02,
        -8.30937922e-02, -7.56270662e-02, -2.98792124e-01,
        -1.95446215e-03, -8.45985338e-02, -6.54760599e-02,
        -8.26132223e-02,  1.27075434e-01,  2.71516770e-01,
         1.86543837e-01, -5.41785471e-02,  1.92321286e-01,
         1.51643664e-01, -1.48182020e-01,  3.33626680e-02,
         5.80139868e-02, -1.55481711e-01, -5.69123149e-05,
         5.09720705e-02, -1.72662273e-01,  1.47062272e-01,
        -2.67405331e-01,  1.19230643e-01, -1.13696195e-01,
         2.18605652e-01, -6.03519566e-02,  8.05194527e-02,
        -3.71367522e-02,  1.35043208e-02],
       [ 1.06586620e-01, -5.11102378e-02, -5.95328361e-02,
         3.64996791e-01, -1.73772439e-01,  1.84331745e-01,
        -1.90551430e-01,  1.17420450e-01, -1.06344083e-02,
         3.75533104e-02, -1.58148464e-02,  1.09121114e-01,
         6.06802814e-02,  3.27261627e-01, -2.79778093e-01,
         2.78223120e-03,  1.09285980e-01, -2.10467458e-01,
         1.57399446e-01,  8.00483972e-02, -1.04951724e-01,
         6.97762817e-02,  2.35260978e-01,  9.43946093e-03,
         1.02849714e-01,  1.38443649e-01,  9.47337970e-03,
         6.95141330e-02,  8.64704400e-02,  1.27268255e-01,
        -1.25039089e-02, -9.49192867e-02, -5.41495718e-02,
         1.18821459e-02,  5.61970949e-01, -9.91706252e-02,
         1.40028998e-01, -3.75037976e-02,  9.23114270e-02,
        -1.71579733e-01,  1.48429930e-01, -1.76796620e-03,
         1.41046479e-01,  1.26297064e-02, -9.18114558e-04,
        -5.36060296e-02, -1.00239903e-01,  1.54332206e-01,
        -1.73208848e-01,  2.97651172e-01],
       [-1.74396619e-01,  7.59943053e-02,  6.86008185e-02,
         9.37668309e-02, -1.99032456e-01,  1.97718367e-01,
         1.61414057e-01, -1.50940821e-01, -3.49790342e-02,
        -2.25726925e-02, -5.01308702e-02,  1.35100305e-01,
         2.89270468e-02,  1.57589138e-01,  1.28722608e-01,
        -4.57197092e-02,  9.28021520e-02, -1.32409379e-01,
         1.64337412e-01, -6.44103512e-02,  3.00129037e-02,
         1.99693218e-01,  4.50470299e-02, -9.45215076e-02,
        -1.68221533e-01,  2.52495129e-02, -1.76628426e-01,
        -1.17667139e-01, -9.39245299e-02,  1.66085556e-01,
         2.13946491e-01, -6.72894623e-03, -7.76083022e-02,
        -6.62181303e-02, -1.78928182e-01,  1.63913608e-01,
        -2.10117623e-02, -1.52513094e-04, -1.65765882e-01,
         1.47499457e-01,  1.02669463e-01,  1.53273135e-01,
        -2.99230993e-01, -1.68514833e-01, -8.35145861e-02,
         3.56117561e-02, -1.48932666e-01,  7.60694370e-02,
        -8.53627920e-02,  2.24987511e-03],
       [-5.67094147e-01, -2.39000581e-02, -2.64977604e-01,
        -4.29804742e-01, -2.53732294e-01, -8.88042748e-02,
        -3.71993333e-02,  2.56548971e-01, -8.14790875e-02,
        -5.06058455e-01,  2.55587958e-02, -1.10718206e-01,
        -1.51335932e-02, -1.80935413e-01, -7.21179843e-02,
         6.13609999e-02,  1.29476562e-02, -2.67296076e-01,
         1.23170592e-01,  1.98122486e-02,  1.35181338e-01,
        -1.13775954e-01, -4.07057315e-01, -6.30337745e-02,
         8.67847577e-02, -1.00815326e-01, -1.93588391e-01,
         1.29243150e-01,  2.34895289e-01, -1.60406962e-01,
         2.33689696e-01,  1.81841142e-02,  9.72016752e-02,
         6.93831965e-02, -3.69037896e-01, -1.57732412e-03,
         1.37189105e-01, -2.24676400e-01,  1.64202213e-01,
         1.73796013e-01,  2.32509449e-01, -1.22553501e-02,
        -2.95455277e-01, -6.48922399e-02, -1.34910896e-01,
        -8.39361101e-02, -6.30597919e-02,  6.88004866e-02,
         6.19633161e-02, -2.69689143e-01],
       [-4.34939750e-02,  1.58735082e-01,  1.18610211e-01,
         1.88588530e-01, -9.95267853e-02, -5.82444109e-02,
        -1.32422462e-01,  8.94585401e-02,  5.42501826e-03,
         4.41394486e-02, -1.15392558e-01,  1.96837753e-01,
        -2.98006628e-02,  2.00514629e-01, -6.47893921e-02,
        -1.74311057e-01,  1.03358112e-01, -4.20730235e-03,
         2.05894977e-01,  9.48730782e-02, -2.47642328e-03,
        -2.18479156e-01,  2.19520126e-02,  2.68446356e-02,
        -1.30701616e-01,  8.13552514e-02, -1.31451339e-01,
         3.55858244e-02,  3.19058262e-02, -6.31622151e-02,
        -6.86170384e-02,  8.59001093e-03,  2.53988445e-01,
         5.95724545e-02,  3.04212064e-01, -3.80787477e-02,
         1.17378205e-01, -1.98883712e-01,  2.09515411e-02,
        -1.24401271e-01, -2.60413826e-01, -8.75690952e-02,
        -2.70990074e-01,  1.24812998e-01,  2.13599920e-01,
         2.28814468e-01,  2.90020555e-02,  1.11331560e-01,
         1.03701785e-01,  2.17023462e-01],
       [-6.02162600e-01,  5.56265861e-02, -5.37814945e-02,
        -9.33348313e-02, -1.64161995e-01, -3.51246357e-01,
        -1.44221157e-01, -7.50642195e-02, -1.69630826e-01,
        -4.10291612e-01, -1.56977907e-01, -3.78558010e-01,
        -2.37588182e-01, -1.67385504e-01, -1.22415021e-01,
         1.74866602e-01, -2.43999317e-01,  4.28000763e-02,
        -1.03071578e-01,  7.80705549e-03,  5.84078804e-02,
        -6.61313608e-02, -1.04042657e-01, -1.09199882e-01,
        -1.07471816e-01, -5.62617064e-01,  6.70151711e-02,
        -1.10423140e-01,  7.65267089e-02, -8.99321586e-02,
        -2.20572084e-01, -2.57480621e-01,  1.17625222e-01,
         1.48584604e-01, -3.88103127e-01,  2.49255240e-01,
        -1.00924045e-01, -1.93187706e-02, -1.67235181e-01,
         2.02212304e-01, -8.00783932e-03, -3.91421795e-01,
        -1.86372772e-01, -6.89641684e-02, -7.29448646e-02,
        -9.24797878e-02, -4.89829527e-03, -1.52424186e-01,
         1.43486783e-01, -5.84944487e-01],
       [ 2.17527747e-01,  1.11949071e-01,  4.84997407e-02,
         5.13200127e-02, -2.15799302e-01,  3.10084552e-01,
         9.14334729e-02,  9.03665647e-02,  4.62644063e-02,
        -7.65702054e-02,  6.49655387e-02,  8.83753747e-02,
         1.44836575e-01, -1.04007520e-01,  2.53304839e-02,
        -4.64730412e-02,  5.39327115e-02,  1.80072397e-01,
        -1.71629265e-02, -5.91284633e-02,  4.40346636e-02,
         1.78044870e-01,  1.59496933e-01, -2.01771498e-01,
         3.48408967e-02,  3.07380911e-02, -6.44953623e-02,
        -4.95776825e-04, -9.02799238e-03, -1.32189244e-01,
        -6.48217425e-02, -1.68377787e-01,  4.46206611e-03,
         8.20695683e-02,  2.46556103e-01, -2.32443318e-01,
         1.50549710e-02,  5.52060734e-03, -8.76385197e-02,
        -1.67515919e-01, -1.71470568e-01, -2.17715994e-01,
         9.56176668e-02,  7.55901188e-02,  8.52207616e-02,
        -3.44664343e-02, -1.90735206e-01, -1.81845715e-03,
        -1.90122589e-01, -1.06684141e-01],
       [-2.14108322e-02,  1.89996064e-01, -1.11330831e-02,
        -5.51326871e-01, -1.65877983e-01, -8.15356910e-01,
         3.03309292e-01, -8.25008750e-02, -2.84120329e-02,
        -1.20360926e-01, -1.16344027e-01, -3.16251934e-01,
         1.70630708e-01, -7.31314421e-01, -1.46111384e-01,
         2.60800887e-02,  1.02552079e-01,  1.18327700e-01,
         9.89395231e-02,  1.51372090e-01, -3.78052555e-02,
        -2.53482401e-01, -1.62531540e-01, -1.53487965e-01,
        -1.69588774e-02, -1.10682525e-01,  1.21763229e-01,
         1.96720809e-01,  8.14683437e-02, -7.06150353e-01,
        -6.10277057e-03, -2.24945024e-01, -2.65670031e-01,
         7.21973628e-02, -6.30748749e-01, -2.08979666e-01,
         4.30887453e-02, -1.85562983e-01,  6.89390302e-02,
        -2.87384748e-01, -8.62715006e-01, -5.61655760e-01,
        -1.31492391e-01,  1.48962080e-01, -2.81683877e-02,
        -6.46033064e-02, -7.84628540e-02, -2.68081605e-01,
        -2.54637867e-01,  1.73536345e-01],
       [ 1.03761859e-01, -1.72734648e-01, -3.02152038e-02,
        -3.70459110e-01,  1.87936798e-02,  7.97057301e-02,
         7.88358748e-02, -2.17706308e-01, -1.95367858e-01,
        -1.45414993e-01, -3.10648263e-01,  1.67135462e-01,
         1.75023451e-01,  2.74675459e-01, -2.87846029e-01,
        -1.81314349e-01,  4.67255563e-02,  2.21001178e-01,
         1.44793212e-01, -1.76087841e-01,  1.66832030e-01,
        -1.71194851e-01,  1.84442639e-01, -2.57431895e-01,
        -3.08577597e-01, -1.78567857e-01, -4.31905270e-01,
         1.24583974e-01, -1.66037325e-02, -5.10310866e-02,
        -2.74870187e-01, -1.02859817e-01,  2.03582898e-01,
         4.37422097e-02, -1.87596753e-01,  6.49007410e-03,
         2.59268545e-02, -1.58569768e-01, -3.06020051e-01,
         6.34169877e-02,  1.04525633e-01,  2.27472901e-01,
        -2.55536679e-02, -7.60242194e-02,  8.55095163e-02,
         2.16253325e-01, -2.19738223e-02, -5.32742105e-02,
         1.18788898e-01,  1.69634521e-01],
       [-1.27745360e-01, -6.76287189e-02,  9.67928916e-02,
         1.49824262e-01, -1.09778941e-01,  6.18909709e-02,
        -1.40622422e-01,  9.75295752e-02, -1.14520565e-01,
         1.70093119e-01,  9.03910473e-02,  1.36521980e-01,
         1.87135100e-01,  1.23302445e-01, -1.14039026e-01,
        -1.70975521e-01,  9.40087885e-02,  9.69435275e-03,
         5.25758341e-02, -2.40005866e-01,  6.49401173e-02,
         9.14087594e-02, -1.25887096e-01, -1.09078586e-01,
         1.34292161e-02, -5.58992811e-02,  3.52280252e-02,
         1.97530445e-02, -8.82180184e-02,  5.24066389e-03,
        -2.63007195e-03, -1.44159958e-01, -3.56939770e-02,
        -2.01856606e-02,  7.60015026e-02,  1.98362052e-01,
        -2.77257431e-02, -1.10212535e-01, -2.24828452e-01,
        -9.66485497e-03,  3.01529057e-02, -2.48730183e-02,
         1.00592688e-01,  2.57554688e-02,  2.80564606e-01,
         8.54909867e-02, -6.30203709e-02, -1.04427621e-01,
         9.67914015e-02,  2.62046427e-01],
       [ 2.89536595e-01, -6.54858872e-02,  6.41428083e-02,
        -8.90802518e-02, -2.60397434e-01,  2.85281628e-01,
        -4.71617207e-02,  2.65455879e-02,  1.55145869e-01,
        -1.42932758e-01,  4.46848758e-02, -2.18789071e-01,
         1.81865945e-01, -7.57738277e-02,  1.29527867e-01,
        -2.11206332e-01, -1.66987360e-01,  1.13115180e-02,
        -1.27973482e-02, -2.05488831e-01,  1.24722734e-01,
         1.09661825e-01,  1.24664441e-01, -8.18996280e-02,
         3.40091921e-02,  1.51878849e-01, -2.94226725e-02,
        -6.57855440e-03, -1.11979820e-01,  1.44382820e-01,
         2.09307089e-01, -2.79231109e-02,  3.66498604e-02,
         1.83699391e-04, -2.25108638e-01, -1.62787169e-01,
         1.33430764e-01, -9.36157033e-02, -2.59592712e-01,
         2.12693125e-01,  1.42579973e-02,  1.65034115e-01,
         6.69187605e-02, -2.03747749e-01, -1.45751342e-01,
        -2.30369959e-02,  8.85313749e-02,  1.36816278e-01,
        -1.09612487e-01,  5.59184663e-02],
       [ 7.30627999e-02, -2.29019925e-01, -2.00195670e-01,
         7.07395449e-02,  8.76144320e-02, -5.45626022e-02,
         1.55672468e-02, -1.78491548e-01, -1.76788643e-01,
         1.77948214e-02, -1.04465872e-01,  1.58281416e-01,
        -5.47307283e-02, -1.24441301e-02, -1.56677037e-01,
        -1.06232762e-01, -2.11484671e-01,  2.04026680e-02,
        -7.66657144e-02, -2.61571091e-02, -2.34945249e-02,
         1.93449575e-02,  2.94547200e-01,  1.31525367e-01,
         1.04156278e-01,  9.01594833e-02,  7.23799542e-02,
         1.38411552e-01, -4.62024324e-02,  2.81072482e-02,
         9.72615257e-02, -1.58164784e-01, -9.47559997e-02,
         1.73908770e-01,  1.87094491e-02,  9.84036997e-02,
         3.90798697e-04,  5.58623672e-03,  2.78765619e-01,
        -1.93490416e-01, -1.34910613e-01, -1.60180032e-01,
         1.39288664e-01,  1.22324713e-01,  5.86833395e-02,
        -5.36149414e-03,  1.42942697e-01,  1.87805161e-01,
        -1.57410130e-01,  3.52542520e-01],
       [ 5.99684147e-03, -6.91150948e-02,  1.64739162e-01,
        -1.82765350e-01, -2.68441170e-01, -1.26112700e-01,
         1.01717189e-01, -2.29780935e-02,  1.14420392e-01,
         9.41149667e-02, -4.39705729e-01, -1.75592810e-01,
        -5.01141511e-02,  1.43075496e-01, -8.32383335e-02,
        -1.33984894e-01, -1.86930209e-01, -1.35450348e-01,
        -3.42768691e-02,  2.71463413e-02, -9.06165913e-02,
        -3.03311460e-02,  1.37787744e-01,  9.44245309e-02,
        -1.31999016e-01,  3.16936662e-03,  1.17715046e-01,
        -1.26207530e-01,  5.76340258e-02, -7.95733929e-02,
        -2.84619808e-01,  1.40675664e-01,  1.25004739e-01,
        -6.45176545e-02,  5.32667078e-02, -4.33865398e-01,
         2.63827853e-02,  5.63054830e-02,  3.09518222e-02,
        -1.47722224e-02, -1.32055253e-01, -1.15658827e-02,
         1.63943574e-01, -1.41461715e-01, -4.29689474e-02,
         1.69113591e-01, -1.79179072e-01, -2.21380353e-01,
        -2.00496867e-01, -3.52966070e-01],
       [-3.56664270e-01,  1.24556087e-01, -2.84712529e-03,
        -1.61999747e-01, -1.67859390e-01, -3.15583467e-01,
         2.54923403e-01,  8.67517069e-02,  4.98332344e-02,
        -1.26205981e-01, -1.19954823e-02,  1.27578862e-02,
         2.78343946e-01,  2.86698882e-02, -1.68604985e-01,
         1.43219575e-01,  1.55264020e-01, -5.75179718e-02,
        -3.00539751e-02,  3.25669535e-02, -7.14386404e-02,
        -3.10994953e-01, -8.25593024e-02, -1.51980758e-01,
        -2.43922457e-01, -1.70840889e-01, -1.18595865e-02,
        -5.84062897e-02,  9.20661315e-02, -1.96067810e-01,
        -1.71626732e-01,  1.89301133e-01,  1.00313395e-01,
         1.39565170e-01, -7.91899040e-02,  1.18391812e-02,
        -4.21549022e-01,  6.50866181e-02,  2.06324309e-01,
        -3.02949339e-01, -1.89079363e-02,  8.73448029e-02,
         5.14110588e-02, -6.15241714e-02, -8.30488559e-03,
         2.87337881e-02, -6.21242821e-03, -1.55327320e-01,
        -1.63838044e-01, -1.42768413e-01],
       [ 2.62611602e-02, -9.15145501e-02,  1.99809760e-01,
        -6.02799356e-01,  1.26587078e-01, -1.01194263e+00,
        -1.76775366e-01, -2.00857297e-01, -1.38455644e-01,
         4.01442982e-02,  7.72174373e-02,  4.72890623e-02,
        -2.64136698e-02, -8.26660275e-01, -7.15428684e-03,
         9.00973231e-02, -9.64855403e-02, -3.77939641e-02,
        -8.62008706e-03,  2.62509227e-01, -8.23221058e-02,
        -6.92599788e-02, -3.13183814e-01,  6.18386157e-02,
        -1.75436452e-01, -1.55054834e-02,  1.10878967e-01,
         2.13324167e-02, -2.20296785e-01, -1.16059458e+00,
        -2.57306457e-01, -4.10179108e-01, -1.33650169e-01,
         1.69463515e-01, -8.46495807e-01, -4.27534394e-02,
         4.99761738e-02, -5.52137457e-02, -3.73656489e-02,
        -2.88174242e-01, -3.90605032e-01, -6.08279288e-01,
        -1.66651636e-01, -3.08257658e-02, -2.33676136e-01,
        -5.46956956e-02, -6.11204514e-03,  1.17796943e-01,
        -2.74830669e-01, -9.59605053e-02],
       [ 3.60073119e-01, -3.82798404e-01,  1.67832747e-01,
         3.31267044e-02, -1.27177954e-01, -1.65492132e-01,
        -4.50777203e-01, -6.79308772e-01,  2.33254373e-01,
         7.80644640e-02, -1.27183422e-02, -8.43177885e-02,
         9.73583460e-02,  3.27738374e-01,  1.41582087e-01,
        -8.99865776e-02,  1.61843359e-01,  1.25020087e-01,
        -6.67891204e-02, -5.88067248e-02,  5.20170853e-02,
         1.81225315e-01,  2.70424008e-01, -3.21266949e-01,
         1.77157134e-01, -1.03729233e-01, -1.87935203e-01,
         2.35160202e-01,  6.84819743e-02, -3.99155979e-04,
         5.23519106e-02,  5.47860414e-02, -3.61605920e-02,
         2.21105497e-02,  6.41677827e-02,  4.17971537e-02,
        -3.88091877e-02,  3.29455733e-03, -2.72375077e-01,
        -1.02479711e-01,  2.15913147e-01,  2.04744846e-01,
        -2.47695893e-01, -1.82871461e-01, -4.63343114e-02,
         1.84409052e-01, -1.51264474e-01,  2.10518286e-01,
         1.89827248e-01,  3.23031127e-01],
       [ 1.05396718e-01, -2.76869506e-01,  5.11714295e-02,
         2.22167805e-01, -2.05771923e-01,  1.70004427e-01,
        -3.46745998e-01, -1.29382610e-01, -5.53133897e-03,
        -1.14205651e-01, -1.18846245e-01,  8.36208761e-02,
         1.84144348e-01, -8.84746984e-02,  6.93442672e-02,
        -1.44301951e-02,  1.88430399e-02, -3.67057770e-02,
         3.43550666e-04,  2.81151354e-01, -1.00691296e-01,
        -2.76924223e-01,  1.65769592e-01, -2.14145064e-01,
        -6.48262352e-02,  1.74609497e-01, -3.61827761e-01,
        -5.61464615e-02, -1.78857043e-01,  3.35550979e-02,
        -7.35481158e-02, -1.45655200e-01,  6.16559051e-02,
         1.45192854e-02, -5.09453081e-02, -3.23378704e-02,
         5.60615808e-02,  2.72553023e-02, -1.79884508e-02,
         1.22286096e-01,  1.48786932e-01, -1.56510741e-01,
         1.22132590e-02,  2.37512603e-01,  1.63318098e-01,
         1.30295241e-02, -2.52200127e-01,  8.56961012e-02,
         1.21146761e-01,  9.35355574e-02],
       [ 2.19324321e-01,  1.47299007e-01,  6.84130639e-02,
        -5.04549965e-02, -1.29699677e-01,  1.12491801e-01,
        -3.49055558e-01,  2.72511002e-02,  2.35040281e-02,
        -7.23455623e-02,  1.58158243e-01,  1.56642333e-01,
        -1.72358409e-01,  3.09972584e-01,  1.22851841e-02,
        -2.16550574e-01, -1.52066648e-01,  2.41905171e-02,
         8.91202986e-02,  1.34831682e-01, -6.88411519e-02,
         1.24984935e-01,  1.45094663e-01, -8.18047673e-03,
        -6.74745515e-02, -2.08843183e-02, -1.26813874e-01,
         7.94546381e-02, -1.48689717e-01,  1.61514580e-01,
         1.42363608e-01, -2.06497371e-01,  5.71798682e-02,
        -8.94978084e-03, -6.91943467e-02,  3.95601578e-02,
         1.51685491e-01, -2.49421701e-01, -5.37643954e-02,
         6.19886629e-02, -5.02088703e-02, -1.89130276e-01,
        -1.39009416e-01, -1.36517093e-01,  9.19840857e-03,
         1.15988754e-01, -2.28046894e-01, -5.26650669e-03,
        -1.51862577e-01, -3.04630660e-02],
       [ 2.27336228e-01,  2.12238520e-01,  1.04394630e-01,
        -2.17280224e-01,  1.12689167e-01, -2.40333870e-01,
        -1.18509263e-01, -2.08269149e-01, -1.07567444e-01,
        -2.26071756e-02, -2.78789222e-01,  1.13551028e-01,
        -1.99267298e-01,  2.00410318e-02, -4.77989912e-02,
         1.50659680e-01, -1.04252979e-01, -7.67720342e-02,
        -4.30276878e-02, -6.70463741e-02,  1.59438968e-01,
         1.58789709e-01, -4.07605059e-02,  1.70195937e-01,
         8.76406655e-02, -1.17187478e-01,  3.80371585e-02,
        -1.45787776e-01, -2.34168395e-01,  5.29250875e-02,
        -5.22994757e-01, -3.43438867e-03, -1.25360236e-01,
        -1.21015698e-01, -1.66727781e-01,  1.75893493e-02,
         1.23345144e-01,  1.14177652e-01, -8.51024613e-02,
        -1.11025073e-01, -3.63141656e-01, -1.14397578e-01,
        -5.83568886e-02,  2.78771902e-03, -1.42245382e-01,
         1.75452121e-02, -1.70809880e-01, -7.03687640e-03,
         1.81577634e-03,  7.34316558e-02],
       [-9.06930640e-02, -1.84463516e-01, -1.87497422e-01,
        -8.70559394e-01, -5.04046343e-02, -6.42899632e-01,
         1.72706917e-01, -5.92550263e-02, -6.87977374e-02,
        -3.20274621e-01,  1.73685446e-01, -1.72321320e-01,
        -1.47299885e-04, -4.09787655e-01,  1.01195402e-01,
         2.27856934e-02, -1.67835683e-01,  5.60220852e-02,
        -9.50020403e-02,  1.69573218e-01,  1.32738471e-01,
        -3.64287384e-02, -2.54209220e-01,  1.19029202e-01,
        -6.27755672e-02, -2.33374238e-01, -6.20645471e-02,
         4.48550545e-02, -5.00753857e-02, -3.12733680e-01,
         2.84585983e-01,  1.08626023e-01,  8.53780732e-02,
        -4.87940609e-01, -8.06708097e-01,  1.82319656e-01,
        -2.62546428e-02, -1.20438956e-01,  3.91912647e-02,
        -1.16405800e-01, -5.41201413e-01, -2.27814332e-01,
         1.72972322e-01, -5.29673874e-01,  1.11619152e-01,
         1.94187015e-01,  6.98937550e-02, -2.03803018e-01,
         1.24292234e-02, -3.04484904e-01],
       [ 1.39088228e-01, -1.93681549e-02, -1.18789710e-01,
         4.57489043e-01, -1.11941740e-01,  3.32241267e-01,
         6.85901344e-02,  7.75166452e-02,  9.30645987e-02,
         1.38361260e-01, -2.07125723e-01,  1.46429613e-01,
         8.29026029e-02,  2.74124652e-01, -5.05569100e-01,
        -1.43696681e-01,  8.04883838e-02, -1.74333647e-01,
        -1.08627722e-01,  8.46447647e-02, -5.34219146e-02,
        -3.98749858e-02, -2.51169708e-02,  5.62307909e-02,
        -9.17994604e-02,  1.80779517e-01,  5.97576983e-02,
         9.09398347e-02, -2.75547653e-02,  9.62665603e-02,
         7.41016772e-03,  3.16995978e-02, -3.59987617e-02,
        -9.66112390e-02,  2.05665186e-01, -8.86116102e-02,
         1.51882812e-01,  1.06917940e-01,  2.54752655e-02,
        -6.99501038e-02,  6.21387735e-02, -5.45443408e-02,
        -1.13649689e-01,  2.34447435e-01, -1.71547145e-01,
         2.28405893e-02, -5.65587915e-02, -5.56217565e-04,
        -7.46983290e-02,  1.26621872e-01],
       [-1.50018539e-02, -6.29655272e-02, -8.79475623e-02,
        -7.98286498e-02,  8.82380307e-02,  2.06004277e-01,
         1.39883623e-01,  9.62845683e-02,  6.99489117e-02,
        -9.28718895e-02, -1.50527298e-01,  2.18967944e-01,
        -6.85688155e-03, -5.85304461e-02, -1.17641874e-01,
         1.23841539e-01, -1.10050090e-01,  1.84004486e-01,
         1.59525499e-01,  2.02547058e-01,  6.43889457e-02,
        -4.22098152e-02,  6.53826967e-02,  1.21859297e-01,
        -1.90637067e-01, -1.80230573e-01, -1.26304358e-01,
         2.13014975e-01, -3.72184291e-02,  3.20905834e-01,
         3.93532254e-02,  4.31751274e-02,  6.44972250e-02,
        -1.22202389e-01, -7.34180165e-03, -6.49269596e-02,
        -1.89084858e-01, -5.87604530e-02,  1.09253526e-01,
         1.36995643e-01,  2.73475170e-01,  4.61486317e-02,
         1.06464148e-01,  8.16647783e-02, -1.97940003e-02,
         2.47272834e-01, -1.08802050e-01,  1.20819442e-01,
        -7.77630135e-02,  6.78562820e-02],
       [ 2.75596678e-01,  2.01704334e-02,  1.31162256e-01,
        -4.19084495e-03,  1.14134505e-01, -4.29153681e-01,
        -1.02626458e-01,  1.78399220e-01,  1.28331169e-01,
         1.51731521e-01,  5.56900017e-02, -1.09278344e-01,
        -4.67911512e-02, -5.20613968e-01, -1.77523997e-02,
         1.50532559e-01, -2.89900720e-01, -1.35941878e-01,
         7.27162361e-02,  3.05790287e-02,  9.78317484e-02,
        -2.14265939e-03, -6.62022352e-01,  1.70738786e-01,
        -2.65571177e-02, -5.11228919e-01,  1.28181592e-01,
        -1.26608253e-01,  1.56371102e-01, -3.49749446e-01,
        -1.13732005e-02, -5.70192635e-02, -1.12878308e-01,
         1.22835800e-01, -3.50200325e-01, -6.74649477e-02,
         1.67001322e-01,  1.24263689e-01,  1.39403641e-01,
        -5.41782565e-02, -4.42156643e-02, -5.98048329e-01,
        -1.60133764e-01,  4.01672423e-02,  6.93733394e-02,
        -1.28917117e-02,  7.94355199e-02,  9.26361084e-02,
        -4.58734840e-01,  8.63185003e-02],
       [ 1.07020877e-01,  7.46319965e-02, -3.24055143e-02,
         2.51931041e-01, -1.78700462e-01, -4.31210436e-02,
         1.59517035e-01,  2.12241858e-01, -4.92675230e-02,
         1.59980148e-01, -6.33819848e-02,  8.22966620e-02,
         1.12546034e-01,  2.35444933e-01, -1.38797462e-01,
         1.00423098e-01, -8.01778138e-02,  1.22851975e-01,
         1.66564792e-01, -6.99231476e-02, -3.58805805e-02,
         1.25787675e-01, -2.84255534e-01,  2.08986014e-01,
         1.49410442e-01, -3.21670771e-02,  1.81626633e-01,
         1.78940505e-01, -5.71454763e-02,  1.23747759e-01,
        -1.25299231e-03, -2.82355428e-01, -4.00925763e-02,
         7.82361329e-02,  1.59739554e-01, -1.08541898e-01,
         1.61185533e-01, -9.16927904e-02, -2.54502688e-02,
        -1.65704831e-01,  1.82200685e-01, -2.07745239e-01,
         1.24395899e-01,  4.53477241e-02, -1.17036216e-01,
         9.95191708e-02, -2.11733282e-02,  1.58276066e-01,
        -2.61459708e-01, -6.22063056e-02],
       [ 2.01935127e-01,  1.30660295e-01, -1.15107514e-01,
         1.66681722e-01, -2.05286711e-01,  2.48627588e-01,
        -4.14046884e-01,  1.24353915e-01,  8.82354602e-02,
        -1.48231447e-01,  1.13356173e-01, -4.76951897e-02,
         3.40551995e-02, -9.39222723e-02, -2.30992198e-01,
        -1.35741040e-01, -1.89373463e-01, -1.42419860e-01,
        -1.91598684e-02,  2.24452689e-02, -1.03198998e-02,
         5.76943569e-02,  6.91988021e-02, -1.83964893e-03,
        -1.21776136e-02, -2.23774895e-01,  8.87038782e-02,
        -4.22799960e-02, -6.50727153e-02,  6.43376485e-02,
         1.19064286e-01, -3.08673352e-01,  5.67149296e-02,
        -1.90322995e-01,  6.55168742e-02, -1.51642114e-01,
         4.23325822e-02, -1.44272491e-01,  2.28572190e-01,
        -1.80066228e-01, -1.45578738e-02, -1.08448036e-01,
         4.11388762e-02,  8.96165147e-02,  1.20140791e-01,
         1.09133139e-01, -1.42425597e-01, -5.52050658e-02,
        -1.83351979e-01,  3.89283448e-02],
       [-6.21526502e-02,  1.45754337e-01,  4.17542644e-03,
         2.07873851e-01,  6.03613965e-02,  1.84578057e-02,
        -1.90902963e-01, -9.77913216e-02, -1.78861748e-02,
         9.72392559e-02, -8.70039016e-02, -2.81983931e-02,
        -1.59184098e-01,  1.03060819e-01,  8.44866410e-02,
        -1.01578012e-01,  1.92605630e-01,  1.02426484e-01,
         1.76939517e-01, -4.73220050e-02,  1.30945772e-01,
         1.71343416e-01,  1.22550279e-01,  1.24918871e-01,
         1.99694857e-02,  1.69102132e-01, -1.60104603e-01,
         3.28839719e-02, -1.16486683e-01,  9.45402458e-02,
        -5.64519353e-02,  4.69030365e-02,  1.25534192e-01,
        -2.50449657e-01,  3.97761986e-02,  1.80969492e-01,
         1.61359757e-01, -1.38386562e-01,  1.09739386e-01,
        -1.14887021e-01,  8.54893476e-02,  8.47279504e-02,
        -8.48892853e-02,  1.19337954e-01,  1.24946371e-01,
        -8.64322111e-02, -7.26604415e-03,  1.57361731e-01,
         2.35506535e-01, -4.42260988e-02],
       [-4.96978581e-01,  8.19875672e-02,  4.85964790e-02,
        -5.71202874e-01, -2.21700431e-03, -2.94025868e-01,
        -1.00026436e-01,  2.13878900e-02, -2.91522503e-01,
        -1.49450228e-01, -2.11299118e-02, -6.04446679e-02,
        -3.04068141e-02, -2.06508577e-01, -5.96882030e-02,
        -7.34607549e-03, -6.68766722e-02, -2.79761761e-01,
        -2.30013356e-01,  6.04883954e-02, -2.05691695e-01,
        -9.04214233e-02, -3.60168427e-01,  2.39178598e-01,
         9.97011587e-02, -3.90086114e-01, -5.30115627e-02,
        -6.87786639e-02, -3.43657732e-02, -5.65264881e-01,
        -7.01356381e-02, -1.95053995e-01,  1.10736452e-01,
         1.19427294e-01, -9.70865935e-02, -2.84364969e-01,
        -2.91664451e-01, -5.09249233e-02,  2.57289201e-01,
        -1.15381733e-01, -1.92595035e-01, -2.76086275e-02,
        -2.19245851e-01,  1.02291614e-01,  1.83350518e-01,
        -1.24245495e-01, -8.11140165e-02, -2.53830124e-02,
        -2.35404104e-01, -4.66755241e-01],
       [-2.98708022e-01, -1.21749096e-01,  3.98957916e-02,
        -2.04844460e-01, -2.30018169e-01, -3.60156327e-01,
         4.03146679e-03,  3.44136097e-02,  1.15790442e-01,
         4.57461253e-02, -1.48562029e-01,  2.39866395e-02,
        -1.41101778e-01, -4.48409140e-01,  9.02340338e-02,
         1.46644354e-01, -7.53969178e-02, -1.55596435e-01,
         3.96545716e-02, -1.79055706e-02, -2.59836502e-02,
        -2.09642082e-01, -2.45330647e-01,  1.62294865e-01,
        -1.73377469e-01,  1.91662863e-01,  1.69365749e-01,
         1.13952637e-01, -9.13964584e-02, -3.02980840e-01,
        -2.23665044e-01, -1.31352454e-01, -1.19454078e-01,
         9.81943160e-02, -3.04446816e-01,  9.48120058e-02,
        -1.72370240e-01, -4.77115102e-02, -8.07401091e-02,
        -4.92448620e-02, -2.80352592e-01, -6.64564148e-02,
        -1.29531156e-02, -9.66473669e-02,  6.80523962e-02,
        -7.53282085e-02, -2.00933799e-01, -1.33149132e-01,
         2.17782799e-02, -1.66255280e-01],
       [-4.13131922e-01,  1.60979047e-01,  1.13978378e-01,
        -5.89738227e-02,  6.58573285e-02, -3.10280591e-01,
         2.57061869e-01, -1.52915955e-01, -2.47026682e-01,
        -1.45798191e-01,  7.15828016e-02, -4.80775923e-01,
        -2.38971552e-03, -4.90906775e-01,  1.54041871e-01,
         3.73374335e-02, -4.09443945e-01, -1.82590768e-01,
         1.09618478e-01,  9.96669978e-02,  1.50122017e-01,
        -1.35405988e-01, -6.42285496e-02, -5.70222028e-02,
         1.95514962e-01, -1.93530574e-01, -1.93906963e-01,
         1.04595773e-01, -2.25529969e-01, -3.53948958e-02,
         8.80201682e-02, -2.30057731e-01, -1.42529374e-02,
        -7.08899423e-02, -6.16814971e-01, -3.90768796e-02,
        -1.88990653e-01, -1.63340881e-01,  9.65472981e-02,
         4.30509150e-02, -1.94294974e-01, -3.12519699e-01,
        -1.22118063e-01,  8.33904892e-02,  1.69953361e-01,
        -1.72041524e-02,  1.48501575e-01,  8.18095803e-02,
         1.60176396e-01, -2.78693944e-01],
       [ 2.43221484e-02,  8.49405527e-02, -1.61655456e-01,
        -5.32583177e-01, -1.06699131e-01, -2.47940749e-01,
         1.81342974e-01, -2.77177334e-01, -2.41555586e-01,
        -1.11794956e-02,  6.33099005e-02, -1.62611887e-01,
         1.21849850e-01, -6.35074675e-01, -1.01087935e-01,
        -3.18618380e-02, -2.47286484e-01, -9.91455987e-02,
         2.21374612e-02, -2.19981689e-02, -1.83636308e-01,
        -1.08300656e-01, -6.68947816e-01,  1.75049558e-01,
        -1.08254045e-01, -4.51618940e-01,  1.43717170e-01,
        -3.86561528e-02, -8.83847699e-02, -4.09859985e-01,
         1.33658911e-03,  4.73851226e-02,  9.88231748e-02,
         5.78482300e-02, -2.47700483e-01, -6.36674985e-02,
         1.14081152e-01,  1.10633612e-01, -1.52513608e-01,
        -4.60166410e-02, -4.18283880e-01, -8.99630725e-01,
        -1.63401857e-01,  1.14363126e-01, -2.08757147e-01,
        -7.20213279e-02, -1.19511448e-01,  8.03686753e-02,
        -5.59900582e-01,  5.12592942e-02],
       [-2.63989329e-01, -5.26694432e-02, -1.10869497e-01,
        -3.69073570e-01,  1.48853928e-01, -1.76233068e-01,
        -7.50125423e-02,  2.04125568e-01,  1.30557910e-01,
        -4.60439287e-02, -1.10323265e-01,  1.50320604e-01,
         7.12217391e-02, -1.31058693e-01,  1.85515895e-01,
        -8.19276050e-02, -2.22221091e-02, -2.14765862e-01,
         6.72808513e-02,  1.60052665e-02,  3.51615660e-02,
        -5.55862188e-02, -3.28925550e-02, -6.90813502e-03,
        -1.97255328e-01,  8.99160877e-02,  5.77094965e-03,
        -1.79857254e-01, -1.50502369e-01,  9.16213319e-02,
         1.57335848e-01,  1.63547471e-01, -2.47487016e-02,
        -1.99056566e-01, -3.09639484e-01, -4.75365371e-02,
        -8.93374309e-02, -1.16058245e-01, -2.67047007e-02,
        -1.34490699e-01,  1.45755395e-01,  8.25696066e-03,
        -2.92838573e-01, -6.96137175e-02,  3.34447622e-02,
        -4.48603109e-02,  3.49581391e-02, -6.51828349e-02,
         6.51404634e-02, -1.41711056e-01],
       [-4.08436745e-01,  2.52967864e-01,  6.03921562e-02,
        -1.14362404e-01,  5.04200757e-02,  5.62169068e-02,
        -1.05247051e-01,  1.60376981e-01, -1.34614810e-01,
        -1.57907486e-01, -1.92517474e-01,  1.50834575e-01,
         1.17986806e-01, -2.38905549e-01, -5.83334304e-02,
        -2.20857598e-02,  8.10849294e-02, -3.02842129e-02,
         1.62049220e-03,  2.05020830e-01,  5.26531693e-03,
        -1.50980160e-01, -5.81170060e-02, -4.54612263e-02,
        -1.10782072e-01, -1.48067832e-01, -6.65857717e-02,
        -4.50775446e-03,  6.28725365e-02, -4.88613099e-02,
         6.14432245e-02, -1.58476323e-01,  8.90405700e-02,
         1.31952032e-01,  8.24256316e-02, -4.82644476e-02,
         4.22393419e-02, -1.65682107e-01,  5.30017056e-02,
         2.54089031e-02, -2.23550647e-01, -1.09118624e-02,
        -6.85614422e-02,  1.30889267e-01, -3.83452997e-02,
        -1.00088835e-01, -6.93781767e-03,  1.21418700e-01,
        -1.45003349e-01, -5.89994431e-01],
       [ 4.35803950e-01,  1.57649592e-01, -4.54666726e-02,
         2.91010477e-02,  2.43038274e-02,  3.25209677e-01,
         1.53950542e-01, -5.06490283e-02, -7.36808479e-02,
        -1.61339641e-01,  1.17443979e-01,  5.29281348e-02,
        -1.56969711e-01,  6.40444458e-04,  1.90728605e-02,
        -9.07263011e-02,  8.73142257e-02,  4.84013595e-02,
         1.31442547e-02, -1.57613695e-01,  1.06231026e-01,
         2.76804626e-01, -1.35521710e-01, -2.61674523e-01,
         1.75048225e-02,  6.78850710e-02, -3.22859287e-01,
         8.60098228e-02, -2.20300347e-01,  1.75119355e-01,
         4.95177805e-02,  2.85879504e-02, -2.29356036e-01,
         1.64161652e-01,  4.79404666e-02, -1.09653234e-01,
         2.39034146e-02,  7.42017701e-02, -1.76811427e-01,
        -1.41504526e-01, -1.39687713e-02,  2.15403050e-01,
        -8.72439444e-02, -1.19496748e-01, -7.28632044e-03,
        -2.28391796e-01, -1.01974942e-02,  1.67299032e-01,
        -1.29463196e-01,  5.60247660e-01],
       [-2.80059755e-01, -9.27136019e-02, -8.51394087e-02,
        -1.82120696e-01,  1.39742792e-01, -5.00199422e-02,
        -4.18036692e-02,  2.94173341e-02, -1.90673843e-01,
        -5.55566102e-02, -3.32490921e-01,  4.94128913e-02,
        -7.00475872e-02,  9.04762223e-02, -1.15266763e-01,
        -1.86774313e-01, -1.37991115e-01,  1.94234818e-01,
        -3.38870138e-02, -1.70512628e-02,  1.20062388e-01,
        -4.88184571e-01, -4.35035266e-02, -3.14512879e-01,
         9.34491158e-02, -3.51964645e-02,  2.13464901e-01,
         6.68415725e-02,  1.91686442e-03, -1.19595163e-01,
        -3.02443445e-01,  1.98237356e-02, -2.43937839e-02,
         7.70328492e-02,  6.99785128e-02,  2.65471071e-01,
        -7.52702951e-02,  5.72225675e-02,  5.83451688e-02,
        -2.11957201e-01, -1.83249384e-01, -1.91339180e-01,
        -4.25063401e-01,  8.30882415e-02,  1.37266323e-01,
        -7.04559162e-02,  6.80920631e-02,  2.19754037e-02,
         6.90875202e-02, -3.05140674e-01],
       [ 2.73917139e-01, -1.67352229e-01, -5.12588769e-02,
         3.21883947e-01, -1.49262205e-01,  3.31674367e-01,
         1.78371087e-01, -4.32098657e-02,  1.58700719e-01,
        -1.19212970e-01, -2.79780000e-01,  3.07804924e-02,
        -2.18362063e-02,  3.61285329e-01,  3.79568264e-02,
         8.48744363e-02, -1.03213862e-02,  2.08258078e-01,
        -1.48013547e-01, -1.19157769e-02,  2.28969097e-01,
         6.15307018e-02, -2.04553585e-02,  1.66620612e-01,
        -1.51826814e-01,  2.58754015e-01,  5.15368618e-02,
        -3.47730778e-02, -2.04231426e-01,  9.27777812e-02,
        -2.58819401e-01,  3.20630223e-01,  1.83499195e-02,
         7.61058852e-02,  1.17972732e-01, -2.12431565e-01,
        -4.21929546e-02,  1.25603631e-01, -4.93380465e-02,
         1.01397686e-01, -1.91644698e-01,  8.43626410e-02,
         3.66497874e-01, -2.02706680e-02,  8.31809863e-02,
        -5.40757105e-02, -1.05549850e-01, -1.81534767e-01,
         1.73199892e-01, -2.41980962e-02],
       [ 3.82321864e-01, -9.79779661e-02,  9.24649835e-02,
        -2.52904259e-02, -3.24254856e-02, -1.13129646e-01,
        -3.30102891e-02,  1.61213368e-01, -1.94303572e-01,
        -1.43464640e-01, -3.11587065e-01, -2.10125484e-02,
         2.43081078e-01, -9.31181246e-04, -4.11651373e-01,
        -1.78418860e-01,  3.06752957e-02, -1.73551649e-01,
         1.11769058e-01, -1.78393364e-01, -9.65931118e-02,
         5.24149463e-02, -3.31783265e-01,  1.20657198e-01,
         1.25570521e-01, -1.86604932e-02,  3.62878293e-02,
        -5.79397641e-02, -4.92272861e-02,  5.53643554e-02,
         2.59785026e-01,  8.31772462e-02, -2.19715461e-02,
         1.20948792e-01,  2.61823982e-01, -1.56896979e-01,
         9.34219733e-02, -1.45926595e-01,  2.01731429e-01,
         2.17465591e-02, -2.06950754e-01, -2.73143172e-01,
         3.32928486e-02,  2.90797260e-02, -2.07826987e-01,
         2.05600604e-01, -9.70241725e-02,  2.19122618e-02,
        -6.54064268e-02,  5.24787307e-02],
       [-1.17051244e-01, -9.41715091e-02,  6.67663440e-02,
        -6.69408939e-04, -3.12355220e-01,  2.82716677e-02,
         3.61090302e-02,  1.24641061e-01, -1.09764263e-01,
         1.82044074e-01, -3.19633693e-01, -5.31553738e-02,
        -7.06998110e-02,  1.22724287e-01, -2.98266746e-02,
        -9.33387578e-02,  6.56633377e-02, -9.75055695e-02,
         1.12435848e-01, -1.35843772e-02, -3.52464914e-02,
         2.41051205e-02, -7.26871118e-02, -6.69807792e-02,
         6.30643335e-04,  4.22645509e-02, -1.89122155e-01,
        -1.24310581e-02, -4.71316166e-02, -2.58537531e-01,
        -5.47127008e-01,  1.32677659e-01,  1.17504366e-01,
         1.99309979e-02, -1.56567439e-01, -1.74598143e-01,
        -2.13023290e-01, -1.11029968e-01,  8.26937705e-02,
         7.80200586e-02, -1.62648812e-01, -1.44787401e-01,
         1.07145138e-01, -1.41432881e-01,  1.79976940e-01,
         9.60588157e-02, -1.98096201e-01,  5.52477594e-03,
         2.92553771e-02, -4.32329744e-01],
       [-7.25228414e-02,  8.95420462e-03, -4.69970629e-02,
        -7.67148510e-02,  1.58778474e-01, -7.51249015e-01,
         2.17042491e-01, -5.85793704e-02,  5.63868880e-02,
         4.61245887e-02, -1.49754241e-01, -1.31244227e-01,
         1.18184187e-01, -4.65753227e-01, -1.85797334e-01,
        -9.33296233e-03,  4.81543243e-02,  1.21905647e-01,
        -2.14495629e-01, -1.07616417e-01,  3.27258185e-02,
        -4.54794206e-02, -5.80820203e-01,  2.29052156e-01,
        -1.30723894e-01, -1.26486108e-01,  5.16183935e-02,
        -1.53232440e-01,  1.33130010e-02, -3.58975440e-01,
         6.16614744e-02, -1.41406074e-01,  6.49239868e-02,
        -1.78780891e-02, -3.13019425e-01, -2.27223039e-01,
        -4.37790096e-01, -3.86996455e-02, -1.31655499e-01,
        -1.83469936e-01, -5.41582644e-01, -1.11167228e+00,
        -9.02967155e-02,  2.13252800e-03,  8.59873071e-02,
         1.52653769e-01, -5.14084101e-02,  4.88830954e-02,
        -1.74867153e-01, -2.82406062e-01],
       [ 3.00301433e-01, -2.50397027e-01,  1.41336516e-01,
         2.49521434e-01, -2.54519165e-01,  1.68051235e-02,
        -1.71866305e-02,  2.93201119e-01,  2.45658914e-03,
        -3.28849629e-02,  1.86845511e-02,  9.67779681e-02,
        -6.62186146e-02,  1.41056385e-02,  1.12198532e-01,
         5.43434545e-02,  4.27068286e-02,  4.66353409e-02,
        -3.08586415e-02, -8.87391046e-02,  8.57105106e-02,
        -5.41325137e-02,  9.85436421e-03, -8.68509561e-02,
        -2.19452605e-01,  9.67044234e-02, -2.70348545e-02,
         1.19119033e-01, -1.79669231e-01,  1.81150481e-01,
         1.32633314e-01, -3.27691622e-02,  1.08596034e-01,
        -4.26583784e-03, -1.94492638e-01,  8.22634902e-03,
         9.58712995e-02, -1.88753903e-01,  7.77837858e-02,
        -6.84365723e-03,  3.62856388e-01,  1.31012723e-01,
        -2.32627571e-01,  9.97896865e-02, -2.64707208e-01,
        -2.89632007e-02, -1.68350786e-01, -9.18870717e-02,
         1.08270369e-01,  2.56293684e-01],
       [ 8.66117608e-03, -1.37492314e-01,  2.09871237e-03,
         2.80173033e-01,  8.58875066e-02,  4.17609923e-02,
        -4.49745864e-01, -1.89930797e-01, -4.78893407e-02,
         2.80576646e-01,  9.22042355e-02, -6.97536767e-02,
        -9.73201841e-02,  2.15462208e-01,  5.24275601e-02,
        -2.10050836e-01,  1.07957035e-01,  7.08305985e-02,
        -1.52284309e-01,  9.78057832e-02,  9.74855348e-02,
        -2.17323247e-02,  7.73204863e-02, -1.31522238e-01,
        -1.02680616e-01,  6.26523495e-02, -5.79186082e-02,
         3.50911781e-04, -2.63513923e-01,  1.57787129e-01,
         6.55597076e-02,  7.38053098e-02,  9.67565402e-02,
        -2.82697082e-01,  2.32084751e-01, -1.35934085e-01,
         1.16849303e-01, -6.61291331e-02,  1.83665827e-02,
         2.23387986e-01,  1.95805669e-01,  1.46929577e-01,
         1.76493630e-01, -1.16247699e-01, -1.58636317e-01,
         7.08203623e-03, -4.92282920e-02, -1.28587604e-01,
         1.07300818e-01, -5.36718871e-03],
       [ 8.46446455e-02, -8.47288519e-02, -6.28642142e-02,
        -2.78247744e-01,  1.96575299e-02, -2.76527554e-01,
         1.86882466e-01, -1.43612549e-01, -2.75371447e-02,
        -3.45970429e-02, -2.00638071e-01, -2.16100514e-01,
         2.37293949e-04, -4.16180283e-01, -9.70196724e-02,
        -5.93719333e-02, -1.45014614e-01,  1.30194470e-01,
        -3.70691195e-02, -2.88201533e-02, -9.32789594e-02,
         4.14847136e-02, -5.25140047e-01, -3.58641222e-02,
        -2.24744976e-01, -2.22339541e-01, -4.11734693e-02,
        -2.27599442e-01,  1.25198498e-01, -4.81700510e-01,
         1.20020434e-01,  1.04160376e-01, -1.61093310e-01,
         1.42707318e-01, -4.98588771e-01, -3.60953920e-02,
         1.41578034e-01,  7.39499405e-02, -1.17706530e-01,
        -3.23931538e-02, -4.46545959e-01, -5.18736780e-01,
        -2.47310400e-01, -9.31735784e-02,  3.87034081e-02,
        -1.71063229e-01, -2.65656281e-02, -1.04122512e-01,
        -2.16054142e-01,  2.73799449e-01],
       [-3.75536121e-02,  5.97320534e-02, -2.11181983e-01,
         1.10882461e-01, -8.23234394e-02,  1.66506529e-01,
         8.15628529e-01, -8.93091932e-02,  3.69643092e-01,
         5.86170673e-01,  1.20748214e-01, -9.47382748e-02,
        -2.21667320e-01, -9.23345014e-02, -1.49262354e-01,
        -1.96742132e-01,  7.00697303e-01,  9.70221460e-02,
        -3.48213464e-01,  1.26859695e-01, -1.15847498e-01,
        -8.71209055e-02, -1.54746443e-01,  1.70795694e-01,
         3.68624359e-01,  8.07391226e-01, -1.51407570e-01,
        -1.65212587e-01, -9.81845185e-02,  1.83751032e-01,
         3.24756444e-01,  4.18062717e-01, -9.49849963e-01,
        -4.44638342e-01,  3.63794551e-03, -8.51143152e-02,
         2.07021907e-02, -6.79980144e-02, -1.02390893e-01,
         6.72037005e-02,  1.24145851e-01,  1.09411832e-02,
         3.34586442e-01,  3.72746103e-02,  6.94984868e-02,
        -8.75939131e-01,  2.46834345e-02,  1.09169275e-01,
         1.32552817e-01,  4.55908244e-03],
       [-2.11117297e-01,  3.39050181e-02,  5.20845465e-02,
        -9.57030356e-02, -3.11372191e-01,  2.27920234e-01,
        -2.93376707e-02,  3.88947502e-02, -6.38402179e-02,
         2.18686253e-01,  7.54675269e-03, -2.37219483e-02,
         1.43993407e-01,  1.63405463e-01,  7.76768401e-02,
        -2.71762639e-01, -3.45523134e-02, -6.22237800e-03,
        -4.31067795e-02, -1.04901150e-01,  2.37208027e-02,
         1.21648982e-01,  1.67445317e-01, -1.35807022e-01,
         1.47638664e-01,  1.45524457e-01, -4.27003950e-02,
         1.51616111e-01, -3.49819548e-02,  1.95830613e-01,
        -1.55916035e-01, -2.04103991e-01,  3.07030916e-01,
        -2.74711072e-01,  1.93949223e-01,  8.30153376e-02,
         1.44003890e-02, -3.82867977e-02, -8.80929604e-02,
        -1.19930916e-01, -6.84133545e-02,  1.00543715e-01,
        -1.43453762e-01,  1.50348470e-02,  8.77719894e-02,
         2.01707393e-01,  1.50265530e-01,  1.92427620e-01,
         3.73546705e-02, -2.02761665e-02],
       [-2.83114374e-01, -1.73399299e-01,  6.78704232e-02,
        -3.71195465e-01,  1.59776658e-02, -3.00503165e-01,
        -2.95735244e-03,  7.11361021e-02, -5.42868078e-02,
        -6.84565425e-01, -8.84645805e-02, -1.69205174e-01,
        -4.33477685e-02, -1.02381498e-01, -1.30134150e-01,
         1.43745661e-01,  1.66521654e-01,  1.32745296e-01,
         5.56299798e-02,  1.89489037e-01,  6.91736341e-02,
        -7.82972723e-02, -6.81869239e-02,  1.29025027e-01,
        -1.32751064e-02, -6.17867373e-02, -1.65380672e-01,
        -1.16407007e-01, -1.55739143e-01, -2.41377503e-01,
         6.20119367e-03,  2.34720498e-01, -8.29311907e-02,
         2.07242426e-02, -2.80774713e-01,  1.96358070e-01,
        -1.36384040e-01, -1.77544132e-01,  6.21396899e-02,
        -1.32167891e-01,  9.58114341e-02, -3.63278724e-02,
         1.21676415e-01,  2.38676518e-02,  1.99520327e-02,
         7.19511211e-02,  8.00932869e-02,  1.44176051e-01,
         2.56416291e-01, -3.06897134e-01],
       [ 1.97953470e-02, -1.76388711e-01,  1.63666472e-01,
        -8.29321295e-02,  1.66219182e-03, -1.02983676e-01,
        -2.49215022e-01, -8.86906758e-02,  1.65991738e-01,
         1.42584428e-01,  3.99925150e-02, -4.99931946e-02,
         8.84706303e-02,  1.18413322e-01,  7.14307725e-02,
        -1.17371883e-02, -7.50286803e-02,  4.89852279e-02,
         3.01353615e-02,  9.19787064e-02,  1.51301011e-01,
         1.44307107e-01,  1.20902710e-01, -1.58133537e-01,
         1.43311471e-02,  9.00032669e-02, -2.52514124e-01,
         1.65809646e-01, -1.92286253e-01, -1.57809943e-01,
        -7.99390078e-02, -4.32728119e-02,  1.69331372e-01,
         8.59123990e-02,  2.37759441e-01,  9.89543647e-02,
         1.80067629e-01, -4.49366085e-02, -1.59566194e-01,
        -1.83431029e-01,  2.03946829e-01,  1.59151986e-01,
         8.41814354e-02, -1.62323102e-01,  1.55403301e-01,
        -1.45694641e-02, -8.53798613e-02,  1.53134912e-01,
        -1.83653548e-01,  2.83003133e-02],
       [ 1.10740945e-01,  2.28708878e-01,  1.23674244e-01,
        -2.82256454e-01, -2.32993849e-02,  3.33024822e-02,
        -1.02720685e-01, -3.63931223e-03, -1.66228265e-01,
         7.41190091e-02, -7.27292523e-03, -1.26367494e-01,
         4.59778309e-02, -9.77429450e-02, -1.47460148e-01,
         2.20556911e-02, -1.56130427e-02, -1.30103573e-01,
         2.02156201e-01, -6.59264103e-02, -1.51964528e-02,
         1.33515358e-01, -8.03933367e-02,  1.10917285e-01,
         2.02402338e-01,  8.83215740e-02, -7.50414580e-02,
        -1.71054766e-01, -1.05883971e-01, -7.55557567e-02,
         1.05685346e-01, -1.10909261e-01, -3.39891016e-02,
         9.52152088e-02,  3.53981461e-03, -1.41069591e-01,
        -2.59477906e-02, -2.11094528e-01,  1.82782561e-02,
        -7.40187764e-02,  3.83749120e-02,  3.10960352e-01,
        -1.54423475e-01, -1.78135112e-01, -4.05903198e-02,
        -2.60785986e-02, -1.72243774e-01, -3.40050012e-02,
        -1.15835723e-02,  1.90493524e-01],
       [-9.85215306e-02, -4.80738729e-02,  2.65317321e-01,
         1.46572366e-01, -1.68664798e-01,  2.67640948e-01,
        -1.39439702e-01, -1.74184814e-01,  8.88939202e-02,
        -2.37163845e-02,  1.88848972e-01, -1.30531341e-01,
         2.10683689e-01,  6.63490361e-03, -3.49904299e-02,
         8.43067560e-03,  1.87658951e-01,  1.82653502e-01,
        -4.24378999e-02, -6.05051257e-02, -1.07967123e-01,
        -3.14780660e-02,  1.72095269e-01,  5.33453152e-02,
        -1.53515950e-01,  1.35435805e-01,  6.23321645e-02,
        -1.05575053e-02, -2.55478829e-01,  2.28542224e-01,
         1.25662938e-01, -9.67177004e-03,  7.52766132e-02,
         4.35952730e-02, -1.66009247e-01, -1.31598711e-01,
         3.83651368e-02, -2.43592456e-01,  1.12740435e-01,
        -8.45262483e-02, -1.69819951e-01,  1.08459830e-01,
         4.19679098e-02,  1.27124459e-01,  6.57487065e-02,
        -8.96820799e-02, -2.39100397e-01, -5.15652075e-02,
         2.22179383e-01, -7.39708692e-02],
       [-1.10349700e-01,  1.47088438e-01, -1.28347976e-02,
        -3.70562039e-02,  2.22884472e-02,  6.84246942e-02,
        -9.46414322e-02,  4.86610159e-02, -1.15480043e-01,
        -4.16089088e-01,  2.38176081e-02, -5.78172147e-01,
         4.46759202e-02, -3.47409517e-01,  1.86959103e-01,
         2.19214827e-01, -1.30200729e-01, -9.02728364e-02,
         2.77959704e-02, -9.96115133e-02, -3.22055109e-02,
        -1.28789112e-01, -3.53308246e-02, -8.10506567e-02,
        -5.01849838e-02, -1.44923152e-02,  3.71517651e-02,
        -2.39460915e-01,  1.57931998e-01, -2.52433598e-01,
         1.31091774e-01,  1.66271403e-01,  8.75882953e-02,
         7.20138475e-02, -5.15947044e-01, -6.99096695e-02,
        -1.58385456e-01, -4.83939759e-02, -1.27927691e-01,
         1.43088028e-01, -6.80119544e-02, -1.06320553e-01,
        -4.57364619e-01,  5.14876805e-02, -8.87687206e-02,
         1.65176898e-01, -9.27303880e-02,  4.58770022e-02,
        -1.23701118e-01, -5.57138979e-01],
       [ 1.00957870e-01,  1.34916473e-02,  4.13388386e-02,
         1.12759918e-01, -2.30003580e-01,  1.69438481e-01,
        -1.85678586e-01,  1.56259373e-01, -9.28229466e-03,
        -1.15658246e-01, -1.11505771e-02, -1.13173779e-02,
        -2.41176113e-02,  2.95866966e-01,  1.89109799e-02,
         1.06682912e-01,  1.09825879e-01, -1.16712272e-01,
         2.21904397e-01,  1.63167983e-01,  8.84433612e-02,
         2.17292875e-01, -3.38748068e-01,  8.69111530e-03,
         7.60278255e-02, -6.47513121e-02, -7.77343661e-02,
         1.83513284e-01,  2.92112920e-02,  3.12303770e-02,
        -5.37097976e-02, -7.89584592e-02, -6.05520234e-02,
         3.74888442e-02,  1.03999570e-01,  4.09842841e-02,
         9.46093574e-02,  1.25497699e-01, -3.27314772e-02,
        -1.69609442e-01,  3.48307262e-03, -2.64350265e-01,
        -9.27780569e-02,  1.54032052e-01, -9.58032720e-03,
        -1.22552224e-01, -1.88801616e-01, -6.34800503e-03,
         1.45386562e-01,  1.14034591e-02],
       [ 2.29212210e-01, -3.71778123e-02, -9.14739519e-02,
        -1.59868207e-02, -3.02865535e-01,  2.06749409e-01,
        -1.51114449e-01, -1.66075513e-01, -1.69727758e-01,
         1.45548955e-01,  3.99189383e-01, -1.16805725e-01,
         2.11401373e-01,  2.74300631e-02,  1.91440657e-01,
         1.32959276e-01, -7.69342482e-02, -1.48928806e-01,
        -1.06747322e-01, -1.62786134e-02,  5.26617691e-02,
        -3.99050601e-02,  1.53861538e-01, -2.45481089e-01,
        -9.49453786e-02,  7.59326108e-03, -9.34698135e-02,
         1.58557266e-01, -2.02031862e-02,  6.46717101e-02,
         3.69221807e-01,  2.29610968e-02, -1.88614950e-02,
         7.40590096e-02,  9.95347798e-02,  2.12631181e-01,
        -1.42178357e-01, -1.86464831e-01, -2.88099013e-02,
         1.41739935e-01,  5.51807284e-02,  1.85404822e-01,
         2.39466369e-01, -2.60570168e-01,  7.51742721e-02,
        -8.71148184e-02, -1.85335189e-01, -1.18547678e-01,
         6.19026721e-02,  5.64172804e-01],
       [-7.75417328e-01,  2.29099140e-01, -1.78390265e-01,
        -4.30340976e-01, -2.25111037e-01, -5.40463746e-01,
        -1.64482817e-01, -9.25384164e-02, -9.96181741e-02,
        -1.58118829e-01, -2.77589764e-02,  1.73885629e-01,
        -7.71270692e-02, -3.51661831e-01,  3.09450597e-01,
         7.38286600e-02,  5.77952452e-02, -7.47997686e-02,
        -1.18355744e-01,  8.78236443e-02, -7.92547241e-02,
        -3.77801023e-02, -5.99764695e-04,  2.50197232e-01,
        -2.24019021e-01,  8.17313567e-02, -1.54484615e-01,
        -8.76207575e-02, -1.52635854e-02, -1.95338696e-01,
        -2.18497679e-01,  1.28658131e-01, -2.10919470e-01,
         2.07874209e-01, -3.36256027e-01, -1.33369282e-01,
         1.29448846e-02, -7.32378513e-02, -2.28807762e-01,
        -5.54948449e-01,  2.00774282e-01, -3.35915059e-01,
        -2.50480264e-01,  1.66780576e-01,  9.41867232e-02,
        -1.20878138e-01,  4.46337909e-02,  7.36805126e-02,
         1.56652138e-01, -4.41631436e-01],
       [ 2.08603889e-01, -1.75601095e-02,  9.64537542e-03,
        -1.13052167e-01,  4.57501300e-02, -4.06744570e-01,
         4.42731045e-02,  2.00555921e-01,  5.12871146e-02,
         4.46603857e-02, -6.30191788e-02, -2.33061418e-01,
        -9.01949331e-02, -1.12109229e-01, -2.31679678e-02,
        -2.20488887e-02, -1.15040757e-01, -4.25252318e-02,
         1.85847417e-01, -1.60382286e-01, -1.25399902e-01,
        -8.00591856e-02, -7.45784342e-01,  5.55883087e-02,
        -7.26308152e-02,  1.79779723e-01,  1.36405334e-01,
         1.49242189e-02,  1.32285766e-02, -5.02559006e-01,
        -6.04168251e-02, -3.31110805e-02, -8.43282938e-02,
        -1.01817288e-01, -3.85282844e-01, -7.27896467e-02,
         4.32412550e-02, -6.64477497e-02, -1.18706830e-01,
        -1.61042303e-01, -3.77529472e-01, -8.21779132e-01,
        -1.03425905e-01, -9.51632261e-02, -4.00823802e-02,
        -2.85039446e-03,  1.64278913e-02,  1.55809060e-01,
        -7.34459281e-01,  2.49963049e-02],
       [ 2.81675644e-02, -4.26954068e-02,  1.05991131e-02,
        -2.37593472e-01,  1.81457698e-01, -1.01754792e-01,
        -1.03511959e-01,  2.35375509e-01, -1.30521685e-01,
        -4.22381282e-01, -1.19163506e-01, -3.00017953e-01,
         3.32857013e-01,  6.11488521e-02, -1.37104811e-02,
        -9.62116476e-03, -4.26238209e-01,  1.81298569e-01,
         3.35653424e-01,  1.52937889e-01,  2.06719667e-01,
        -9.67762396e-02, -1.74084425e-01, -3.18594724e-01,
        -1.51254982e-01, -6.43549720e-03,  1.47373959e-01,
        -2.41628528e-01, -6.94539472e-02,  2.03103535e-02,
         4.43220884e-02, -5.48193976e-02,  4.40728739e-02,
         3.16832483e-01, -2.10211501e-01, -1.93821117e-01,
        -4.52616625e-03,  2.12766305e-02,  1.74809128e-01,
        -1.33301347e-01,  7.09332060e-03,  6.62421063e-02,
        -1.83615819e-01,  5.75208329e-02,  1.97449401e-01,
        -2.56000966e-01,  1.32116169e-01,  5.78820296e-02,
        -8.33435357e-03, -6.62991405e-02],
       [ 1.40162006e-01,  1.15741722e-01,  7.46512413e-02,
         2.05663264e-01,  4.71536405e-02,  3.20281029e-01,
        -2.16854170e-01, -1.02094717e-01,  2.38394277e-04,
         1.16321355e-01,  1.50445074e-01,  1.33957684e-01,
        -1.65267050e-01,  2.65366882e-01,  1.51842415e-01,
        -3.85414034e-01,  1.06889270e-01,  1.52807876e-01,
        -1.70200676e-01, -1.41215622e-01,  1.67812288e-01,
         1.27660021e-01,  4.94504422e-02, -6.34257272e-02,
         1.06852978e-01,  4.67579253e-02,  1.72745913e-01,
         8.75727236e-02, -2.68853664e-01,  1.54090598e-01,
         8.84296000e-02, -1.59653723e-01,  1.28187137e-02,
         6.78421482e-02,  5.26320696e-01,  7.48343319e-02,
        -4.99231033e-02,  1.13060236e-01, -1.28976911e-01,
         1.48620561e-01,  9.88325570e-03,  5.45785995e-03,
         2.25846455e-01,  1.10419594e-01, -2.35580817e-01,
        -2.87881970e-01,  4.71195132e-02,  4.98589911e-02,
         5.29957004e-02,  1.63293816e-02],
       [ 1.53199673e-01, -2.96814721e-02,  1.01668942e-04,
         6.62631691e-02,  1.83475818e-02, -2.16051221e-01,
        -1.51570618e-01, -1.63148597e-01,  7.49564543e-03,
        -1.29565410e-03, -3.27009916e-01, -3.16402083e-03,
         5.66705689e-03, -1.68965131e-01, -2.25075126e-01,
         2.86161155e-01, -3.09038516e-02,  1.13857113e-01,
         1.18494257e-01,  1.82764754e-01, -3.85659076e-02,
         1.13819137e-01,  5.00132628e-02,  1.75480619e-01,
         1.28307745e-01,  4.21383604e-02, -1.17116116e-01,
        -5.67335598e-02,  6.13799021e-02, -1.90839246e-01,
         7.41595626e-02,  5.86081371e-02,  1.80633157e-01,
        -2.11529657e-01, -1.72784910e-01,  2.63440430e-01,
        -1.12277120e-01, -1.54948682e-01, -1.80228695e-01,
         1.28013372e-01, -1.75860211e-01, -1.65653929e-01,
         8.76805633e-02, -2.62982249e-01,  1.33122355e-01,
        -1.46752700e-01, -6.95708068e-03,  1.80927902e-01,
         3.05389971e-01,  2.58584738e-01],
       [ 8.95706266e-02, -1.87962428e-01, -1.02552071e-01,
        -1.45523056e-01, -6.50854558e-02, -1.38711751e-01,
        -1.61820412e-01, -5.52417226e-02, -1.63751200e-01,
         1.56350762e-01, -1.42397657e-01, -2.76828296e-02,
         1.21499158e-01,  2.33656824e-01, -3.28888953e-01,
         1.05925880e-01,  1.31266087e-01,  1.12741835e-01,
        -1.01870755e-02, -1.30396962e-01,  2.15932444e-01,
         5.88065982e-02,  7.89905787e-02,  8.99737105e-02,
         3.54629084e-02, -1.08771235e-01,  2.16357205e-02,
         1.78934395e-01, -4.70702024e-03,  1.02538764e-01,
        -1.55476615e-01, -4.51730154e-02, -3.09240371e-02,
        -3.26407760e-01,  2.21790239e-01,  5.27455956e-02,
        -7.56845772e-02, -1.47577345e-01, -9.67847183e-02,
         1.10322885e-01, -6.39484152e-02, -4.43476140e-02,
         1.42516121e-01,  1.29297808e-01, -1.05478475e-02,
         4.37526777e-02,  2.62441710e-02, -1.53304055e-01,
        -1.01270668e-01, -1.01745836e-01],
       [ 3.27347070e-01,  8.73021632e-02, -1.33600295e-01,
        -2.25604147e-01,  1.18237905e-01,  3.53511572e-01,
        -2.48282939e-01, -6.56151101e-02, -1.45935901e-02,
        -8.09809119e-02, -2.32765630e-01,  1.21164873e-01,
         1.27556682e-01, -1.89378429e-02, -3.46805632e-01,
        -5.67176118e-02, -1.79059207e-01, -2.73613155e-01,
         1.26072630e-01, -8.26869253e-03,  1.11276180e-01,
         2.37628967e-01, -1.62849903e-01,  8.93600360e-02,
        -1.61519676e-01, -1.65997654e-01, -1.10384502e-01,
         8.00168812e-02, -2.07040414e-01,  1.37737811e-01,
         2.37244852e-02,  1.99449640e-02,  7.37439543e-02,
         1.33021429e-01,  1.06428258e-01,  7.46299550e-02,
         1.43567339e-01,  3.48431915e-02, -8.17860663e-02,
         1.23926975e-01,  1.98798075e-01,  1.77974656e-01,
        -1.57798395e-01, -1.23791173e-02, -1.12763494e-01,
        -1.45914197e-01,  6.36158362e-02, -4.11526486e-02,
         1.07222863e-01, -3.60576473e-02],
       [-2.65940931e-02, -1.62391230e-01,  1.01225488e-01,
        -2.17076484e-02, -1.70280382e-01,  3.16625312e-02,
        -1.37938827e-01,  1.10838354e-01, -2.36531600e-01,
        -2.86192559e-02, -6.15685470e-02, -7.41962418e-02,
         1.12586834e-01,  1.05262481e-01, -1.02465913e-01,
         4.37980965e-02,  1.03051499e-01,  2.94781309e-02,
        -2.03571856e-01, -8.50152969e-02, -7.14672282e-02,
        -1.40770659e-01, -6.22720532e-02, -7.58652017e-02,
         1.74609751e-01,  2.62974557e-02, -1.05958261e-01,
         2.95411162e-02,  2.63122730e-02,  1.97684631e-01,
         4.47152257e-02, -4.57042679e-02,  1.22861728e-01,
        -2.89328191e-02, -1.43871859e-01, -1.13853216e-01,
         9.24840420e-02,  4.88578714e-03, -3.59093724e-03,
        -8.75370800e-02, -2.29844123e-01,  1.27646402e-01,
        -8.72465875e-03, -1.98371947e-01,  9.17743426e-03,
        -8.36375356e-02, -9.04366896e-02,  2.43475884e-02,
         5.39419204e-02,  2.29063526e-01],
       [-8.34221125e-01,  5.34434579e-02, -2.13894591e-01,
        -1.09409288e-01,  1.32112727e-01, -2.67286003e-01,
        -8.58392268e-02, -1.79479137e-01, -2.99781724e-03,
        -1.42807305e-01, -1.13293275e-01,  7.52998367e-02,
         1.34362221e-01, -5.74003220e-01,  1.33482277e-01,
        -4.01933491e-02, -2.86008745e-01, -2.81517297e-01,
        -9.26529020e-02,  2.68374890e-01, -1.29053473e-01,
        -2.45600328e-01, -1.01972327e-01, -3.06792408e-01,
        -7.97050968e-02, -1.30379841e-01,  1.17679074e-01,
        -8.49823356e-02,  3.58051248e-02, -4.99288023e-01,
         2.08280049e-02, -1.75561100e-01, -9.37990695e-02,
         1.30629167e-01, -3.15637261e-01, -3.37679893e-01,
        -3.74567360e-01,  5.29096015e-02, -1.20441383e-03,
         1.25694007e-01, -2.18299344e-01, -3.28547448e-01,
        -3.67435068e-01,  3.16196494e-02,  6.61209822e-02,
        -1.93839949e-02, -1.99292928e-01, -9.47384164e-02,
        -3.40401590e-01, -5.88463426e-01],
       [ 2.62567967e-01,  1.63404003e-01, -2.10249782e-01,
        -7.07408711e-02,  8.35660324e-02,  1.12043358e-02,
         2.11088806e-02, -1.69165060e-02,  1.40021756e-01,
         1.13085411e-01,  1.23051077e-01,  1.80514276e-01,
        -1.84141681e-01,  8.07703733e-02, -1.48592830e-01,
        -1.77206293e-01, -7.02920109e-02,  2.08594441e-01,
        -1.64549619e-01,  4.53887694e-02,  1.73632964e-01,
         3.79323736e-02, -3.89687642e-02, -6.36450648e-02,
        -2.89528593e-02,  1.42026812e-01,  1.12079941e-01,
        -1.55545752e-02,  3.68846813e-03, -1.22542135e-01,
        -3.96188013e-02,  2.68261194e-01, -1.05042405e-01,
         8.80573094e-02,  2.56547898e-01,  5.70729524e-02,
         2.08786204e-01, -1.39586674e-02, -2.53175974e-01,
        -8.78109410e-02,  5.89121357e-02,  1.30377412e-01,
         2.40060315e-01, -3.17715667e-02,  8.17668512e-02,
        -2.27935269e-01,  1.43940955e-01, -8.49443823e-02,
        -4.17051651e-02,  4.44512874e-01],
       [ 1.63894013e-01,  1.81431040e-01,  1.38340294e-01,
         1.64136082e-01,  5.29592820e-02, -6.52445331e-02,
         7.60505348e-02,  2.77932175e-02,  1.99574113e-01,
        -3.73042412e-02, -1.57916266e-02,  6.44820917e-04,
         6.59063505e-03,  1.60957128e-01,  4.38603573e-02,
         7.45698228e-04,  1.40637994e-01, -3.60144824e-01,
        -2.74072200e-01,  1.40017301e-01, -5.75929992e-02,
         1.52121544e-01,  1.68563575e-01,  3.56717885e-01,
         2.19908103e-01,  2.26443008e-01, -1.76203609e-01,
         1.24703266e-01, -1.23203710e-01,  3.00125092e-01,
         2.81750560e-01, -6.86601829e-03, -2.94705808e-01,
         2.29581296e-01,  1.10954218e-01, -7.85835609e-02,
         2.82598601e-04,  5.21884859e-02, -1.18069246e-01,
         2.76967078e-01,  2.01525763e-01,  2.34035239e-01,
         2.43075430e-01, -3.02534431e-01, -3.61372709e-01,
        -1.11416101e-01, -1.66902483e-01,  4.32611525e-01,
         2.08493277e-01,  2.70625144e-01],
       [-2.65504159e-02,  1.05661429e-01,  1.39002994e-01,
         9.19857621e-02, -3.48360270e-01,  8.96412879e-02,
        -1.26606777e-01,  2.00111404e-01, -1.88241929e-01,
         1.56167820e-01,  2.01962113e-01,  1.80651918e-01,
         1.76110804e-01,  1.09562539e-01,  1.31707802e-01,
        -7.78008029e-02,  2.94146258e-02, -1.20311258e-02,
         1.27548411e-01, -1.82986751e-01, -3.81234922e-02,
         1.37391135e-01,  8.41147229e-02,  1.83544797e-03,
        -1.20760329e-01, -1.05791651e-02, -4.63845760e-01,
         7.04962015e-02, -1.18706018e-01, -1.50924437e-02,
        -3.77418324e-02, -3.03967819e-02,  1.41101733e-01,
        -4.46056947e-02,  1.84291542e-01, -2.49798477e-01,
         1.25683725e-01, -4.24364060e-02, -5.16042486e-02,
         1.00427821e-01, -1.86337501e-01, -8.09355229e-02,
         1.43192410e-01, -1.17751071e-02, -4.05033939e-02,
         2.25679040e-01, -1.27054781e-01,  7.99878687e-02,
         1.97813511e-01,  7.11884117e-03],
       [-2.83589393e-01,  2.91733801e-01,  1.27167940e-01,
         1.25316530e-01,  6.51659304e-03, -3.51190150e-01,
        -9.81083512e-02,  1.45456586e-02,  4.99873981e-02,
         1.17203452e-01, -5.96092418e-02,  3.64436507e-02,
        -7.64190629e-02, -2.91244239e-01, -4.59296346e-01,
        -3.88657115e-02, -6.72216192e-02, -6.95655495e-02,
         9.78556797e-02, -1.40770406e-01,  1.89001426e-01,
        -3.58412042e-02, -8.41140032e-01, -1.07210003e-01,
        -2.14679912e-01, -1.28557131e-01, -9.83077958e-02,
        -4.56187949e-02, -1.40290558e-01, -4.39060986e-01,
         5.78614250e-02, -8.66217986e-02,  1.47876665e-01,
         2.05443949e-01,  3.54764946e-02, -2.34523624e-01,
         8.29244964e-03,  1.52969554e-01, -7.52033517e-02,
         1.26081213e-01, -3.28743666e-01, -3.60976070e-01,
        -8.99253599e-03,  1.25560224e-01, -4.26422879e-02,
         7.99866170e-02,  1.18292190e-01, -8.25599208e-02,
        -4.10864741e-01, -5.42939603e-01],
       [ 6.58899769e-02, -1.71575189e-01, -1.19197212e-01,
        -1.20837815e-01, -1.71079919e-01, -2.21722469e-01,
        -1.04694657e-01, -3.92502666e-01, -4.56125513e-02,
        -3.96931581e-02, -3.17985266e-02, -2.57125437e-01,
         1.33418646e-02, -3.42453131e-03, -8.68088901e-01,
        -5.96298873e-02, -6.50083050e-02,  3.29088598e-01,
         1.75607830e-01, -1.69634238e-01, -6.74169809e-02,
        -1.06945068e-01, -4.36853439e-01,  1.77194804e-01,
        -1.06385782e-01, -1.36439696e-01, -1.33661434e-01,
         3.07275616e-02, -4.97301407e-02, -2.40618989e-01,
        -2.13886961e-01, -1.22345917e-01,  1.18990228e-01,
        -1.10942811e-01, -1.30060300e-01,  1.26502797e-01,
         1.30269453e-01, -7.60379806e-02, -5.06237783e-02,
        -7.87334889e-02, -1.28888488e-01, -2.74264455e-01,
         1.67596728e-01,  1.19553450e-02,  2.44689435e-02,
        -9.32986587e-02,  6.16753511e-02, -3.29691656e-02,
        -6.60651445e-01, -7.35503137e-02],
       [-3.02809358e-01,  1.00642323e-01, -2.37046972e-01,
        -7.27452815e-01, -5.70470542e-02, -2.09408164e-01,
        -2.41471641e-02, -1.13920115e-01,  6.69255704e-02,
         9.48834568e-02, -1.69983357e-02, -4.70926017e-02,
        -2.26245210e-01, -1.75740451e-01,  1.90159798e-01,
         2.53225148e-01,  8.40027556e-02,  2.38060877e-01,
        -4.01792936e-02,  1.68235958e-01,  6.90316781e-02,
         5.12027740e-02, -2.36474853e-02,  2.07200184e-01,
        -2.43252907e-02,  8.15040544e-02, -1.37183219e-01,
        -2.20498651e-01,  1.81913093e-01, -2.92004406e-01,
         1.29385412e-01,  3.10072750e-01, -1.17376104e-01,
         4.93298322e-02, -3.23357247e-03,  8.06964468e-03,
        -1.76654816e-01, -1.29239351e-01, -2.00717628e-01,
        -3.48824263e-01, -1.34728670e-01,  1.87086374e-01,
        -1.34220019e-01,  4.39775959e-02, -1.26394257e-01,
        -7.22995214e-03,  1.24630488e-01, -9.04500782e-02,
         1.65299550e-01,  1.41303971e-01],
       [-8.16387758e-02, -1.30567148e-01,  2.04404175e-01,
        -3.40863943e-01, -1.44811183e-01, -2.02413872e-01,
         1.00230478e-01, -1.39075398e-01, -2.74083093e-02,
        -6.83258614e-03,  1.17031120e-01,  1.16045922e-01,
         1.03607349e-01, -5.45772731e-01, -3.71404201e-01,
        -1.04583859e-01,  1.00056641e-01, -3.63351583e-01,
        -2.20641941e-02,  5.66968955e-02,  5.89389876e-02,
        -6.45801499e-02, -8.20598423e-01,  1.21655919e-01,
         1.28166199e-01,  3.45556810e-02, -6.51123561e-03,
         9.59188328e-05,  1.00247122e-01, -6.66688919e-01,
        -1.15317971e-01,  1.51050568e-01,  5.75667582e-02,
         8.77288207e-02, -4.88886118e-01, -1.41575575e-01,
         6.05774075e-02,  1.36972800e-01, -1.29257858e-01,
         7.80661330e-02, -2.29976207e-01, -1.01664945e-01,
        -2.90670507e-02,  9.07654464e-02, -5.62983677e-02,
         1.36113212e-01, -1.07111871e-01, -8.84270892e-02,
         1.89296931e-01, -7.17323720e-02],
       [-3.30373585e-01, -1.24491148e-01, -1.90621957e-01,
        -7.77787045e-02,  5.45787960e-02, -2.08399907e-01,
         2.30388135e-01,  1.46704271e-01,  2.26801559e-02,
         1.32836010e-02,  1.47663966e-01, -9.86032709e-02,
         1.08557537e-01, -1.45504609e-01,  2.53561378e-01,
        -2.12341622e-01, -2.18636334e-01,  1.67105142e-02,
        -2.11810768e-02,  1.11040801e-01,  4.24830094e-02,
        -1.50006533e-01,  4.90942001e-02, -1.87849142e-02,
         3.83624844e-02, -1.01693869e-02, -2.33055264e-01,
         7.49871656e-02,  3.01485211e-02, -1.45969927e-01,
         2.20551580e-01,  4.28017825e-01,  4.85688001e-02,
        -1.59149766e-01, -2.00980350e-01, -1.45724952e-01,
        -4.13825922e-02, -1.84934795e-01, -1.25315145e-01,
         1.28548458e-01, -8.22232757e-03,  9.36434716e-02,
        -3.00626844e-01, -8.05433244e-02,  4.39737029e-02,
        -2.08205506e-02, -2.18944326e-01,  2.78781378e-03,
        -1.74380675e-01, -2.92150170e-01],
       [-2.53306240e-01,  1.39583141e-01,  1.48610696e-01,
        -1.24085687e-01,  1.24501884e-01, -3.73710185e-01,
        -4.96555399e-03,  6.95145130e-02, -1.60500139e-01,
         1.80209070e-01,  5.17676286e-02, -2.75646359e-01,
         5.61087914e-02, -7.39603758e-01, -3.63089412e-01,
        -1.05575696e-02, -5.23178279e-01,  4.90616411e-02,
         5.75559586e-02, -1.52972952e-01,  8.06918666e-02,
        -1.45044044e-01, -6.84514046e-01, -4.25908938e-02,
        -2.79308408e-01, -7.21827626e-01,  1.33504218e-04,
         1.17171265e-01, -1.57806754e-01, -9.80787650e-02,
         1.34868175e-01, -1.96134329e-01,  4.08068672e-02,
         1.35222360e-01, -8.14581871e-01,  1.20442934e-01,
        -1.47664398e-01,  1.39337666e-02,  5.32820299e-02,
        -5.50114596e-03, -2.09980711e-01, -7.02089846e-01,
         1.32863522e-01, -1.60240874e-01,  2.44391821e-02,
         1.43329263e-01, -7.32481480e-02, -1.60003304e-01,
         5.60182482e-02, -2.34296229e-02],
       [ 4.30857949e-02,  1.35919943e-01, -1.36154950e-01,
        -8.00195873e-01,  1.04571313e-01, -5.41132033e-01,
        -4.13833633e-02,  8.89156461e-02,  9.86462384e-02,
        -3.38540599e-02, -7.97135681e-02, -2.87532862e-02,
         1.32761672e-01, -4.18484628e-01,  1.20964423e-01,
         1.09353997e-01, -1.44087374e-01,  7.12454468e-02,
         9.98624787e-02, -7.09801689e-02, -1.09390691e-01,
         7.47897997e-02, -6.23537302e-01, -2.24229116e-02,
         1.09522976e-01, -9.14236903e-02,  1.96510434e-01,
         6.02944493e-02, -1.03306621e-01, -7.22379148e-01,
         1.53086618e-01,  1.93294510e-01,  1.32556632e-01,
        -2.60097474e-01, -6.20772421e-01,  1.62784785e-01,
        -7.53810555e-02, -6.10760748e-02, -2.75016241e-02,
        -4.10353728e-02, -2.68179715e-01, -3.05255711e-01,
        -1.58041656e-01,  8.66099149e-02,  1.39215281e-02,
         7.29948729e-02,  1.01070702e-01,  2.01972842e-01,
        -2.82519341e-01, -1.35155739e-02],
       [-2.64819771e-01,  1.10783972e-01, -2.74949312e-01,
         8.41835365e-02, -9.96499062e-02,  5.74594289e-02,
         6.15418330e-02,  1.06310658e-01, -1.33782491e-01,
         1.28926888e-01, -6.76460788e-02, -8.42787549e-02,
        -1.75599799e-01, -1.79011539e-01, -3.53983790e-02,
         1.53370634e-01,  1.22425526e-01,  2.92886272e-02,
        -4.15203944e-02, -3.87108698e-02, -1.66754514e-01,
        -2.45357677e-01, -6.15589395e-02, -9.07821283e-02,
         1.25881404e-01, -1.14737831e-01,  3.44254300e-02,
        -1.05484329e-01, -6.63612364e-03,  8.99918005e-02,
        -3.87063902e-03, -1.58878610e-01, -6.87097833e-02,
         2.22078934e-01, -8.49841256e-03, -5.95003702e-02,
         2.78642159e-02,  5.80529273e-02,  1.24902017e-01,
         1.48520276e-01,  9.05306041e-02,  9.63997468e-02,
        -8.66649374e-02,  1.96455568e-01, -1.32999465e-01,
        -4.51195613e-02,  3.72785330e-03,  1.51202995e-02,
        -1.66549727e-01, -4.47523803e-01],
       [ 1.56496018e-01, -1.41582906e-01, -5.77721111e-02,
         3.62724125e-01,  3.42795812e-02,  6.36743382e-02,
        -1.43414840e-01, -2.45372355e-01,  7.92468265e-02,
        -3.82392816e-02,  3.50910127e-02, -1.47160664e-01,
        -5.18723354e-02,  2.09571496e-01,  7.78921768e-02,
         1.18494123e-01,  1.49551407e-01, -3.12157422e-01,
         2.99186055e-02, -5.80315962e-02,  9.91017148e-02,
        -1.28390178e-01,  3.09771717e-01,  1.17933892e-01,
        -3.66683826e-02,  1.42116621e-01,  9.59771723e-02,
         1.10804406e-03,  1.03234574e-01,  1.58323720e-01,
         1.74028769e-01, -1.02429269e-02,  7.07347766e-02,
         7.31429681e-02,  2.64417410e-01,  7.00798750e-01,
        -2.47559547e-01, -1.21795125e-01,  4.47467715e-02,
         2.88836807e-01,  1.23775728e-01,  1.70509592e-01,
         5.87189011e-02,  1.53063303e-02, -1.98946476e-01,
        -4.42827120e-02, -7.08947033e-02, -1.49408385e-01,
         2.44239569e-01,  3.29564422e-01],
       [ 2.23740667e-01,  1.70293480e-01,  1.62727222e-01,
         2.91763484e-01,  1.51856065e-01,  2.47416198e-02,
         1.01683833e-01, -1.45474188e-02, -2.38360409e-02,
         1.37456479e-02,  1.90186892e-02,  8.50709900e-02,
        -1.61334470e-01,  1.07725538e-01,  6.97395951e-02,
        -7.72968829e-02, -2.26442870e-02,  1.94297954e-01,
        -8.95586610e-02, -2.37654164e-01,  2.39738151e-01,
         1.43026546e-01,  2.14439221e-02,  8.86520743e-02,
         7.26930574e-02, -2.40213536e-02, -2.53525227e-01,
        -1.98704198e-01,  3.37213315e-02,  1.95748806e-01,
         9.40975025e-02, -9.12668258e-02,  8.19908753e-02,
         8.69433135e-02, -9.67581347e-02, -1.24515027e-01,
        -1.99669823e-01, -1.98239103e-01, -2.34586895e-01,
        -7.25682378e-02,  5.39075024e-03,  1.35866314e-01,
        -8.88001472e-02, -5.79808839e-02,  1.15821347e-01,
         1.29078031e-02,  7.70265684e-02, -2.76445419e-01,
        -3.30497146e-01,  1.81235671e-01],
       [-3.12442333e-01, -4.07193303e-02, -3.66916284e-02,
         1.28850965e-02, -1.74097940e-01, -1.83889672e-01,
        -7.22530931e-02,  3.94479074e-02,  4.03079242e-02,
         8.96693207e-03, -3.24443668e-01,  1.86724558e-01,
         6.70178086e-02, -5.70921414e-02, -2.41615176e-02,
        -2.18389183e-01, -1.45248715e-02, -1.43548418e-02,
         2.56541232e-03,  1.34470746e-01, -2.92332321e-02,
         9.88554806e-02, -2.29324609e-01, -8.64306539e-02,
         3.50096934e-02, -9.40119624e-02,  9.13641527e-02,
        -4.23449390e-02, -8.05450380e-02,  1.85767899e-03,
        -5.20508885e-01,  7.73430318e-02, -1.16202105e-02,
        -1.59285799e-01,  1.66669581e-02, -2.25771368e-01,
        -2.45278329e-01, -1.87977090e-01, -2.78327763e-01,
         9.19550955e-02,  1.08157471e-01,  5.67706935e-02,
        -1.22884683e-01,  1.66298170e-02, -1.31184310e-01,
         1.50792807e-01, -8.71316344e-02, -1.45898849e-01,
        -1.46266147e-01, -2.37490475e-01],
       [ 8.24300647e-02, -8.35457221e-02,  1.06602505e-01,
         1.27492964e-01,  1.78547539e-02,  4.05803397e-02,
        -9.44472179e-02, -2.18055975e-02,  9.49406400e-02,
         1.78586170e-01,  1.68998271e-01,  1.09435275e-01,
        -4.72898595e-02, -6.41650930e-02, -1.73222348e-01,
        -2.24402279e-01, -2.29717307e-02, -2.02133711e-02,
        -6.05925098e-02, -2.14215398e-01,  1.90569669e-01,
        -2.12210983e-01, -3.52730900e-02,  4.39050943e-02,
         1.14508778e-01, -2.19106108e-01, -8.96300152e-02,
         1.23421811e-02, -1.42717972e-01,  2.88431179e-02,
         7.19902515e-02,  2.39292815e-01,  1.08783036e-01,
        -8.81644338e-03,  1.77363679e-01,  2.24956777e-02,
        -1.51833221e-01,  7.52279442e-03,  1.26477733e-01,
         1.13168202e-01, -1.75599623e-02, -4.37766016e-02,
         9.34288278e-03, -5.48010133e-02,  1.60902292e-01,
        -1.71861693e-01, -1.46143138e-01,  1.26200110e-01,
        -5.80151603e-02, -3.78607586e-02],
       [-3.40290256e-02,  5.44785447e-02,  1.31203458e-01,
        -1.78166077e-01,  5.71321277e-03,  1.25515297e-01,
        -3.29225659e-01,  5.17224520e-02, -6.48920089e-02,
        -7.98700005e-02,  1.09578416e-01, -1.02788042e-02,
        -1.22798800e-01, -5.11810184e-02, -2.63909012e-01,
        -1.25639662e-01,  1.84900492e-01, -1.47361279e-01,
         1.28165081e-01,  7.49567971e-02, -2.33795717e-01,
         5.55006303e-02, -9.03610662e-02, -6.23427704e-03,
        -1.93021938e-01,  7.16593340e-02, -6.02314323e-02,
        -1.35707390e-03, -2.61032907e-03,  9.41028222e-02,
         1.51715785e-01, -2.38487497e-01,  1.69918343e-01,
        -4.92849089e-02, -9.71074775e-03, -1.65896103e-01,
        -1.92641661e-01, -2.03498811e-01,  1.34032711e-01,
         1.72507301e-01, -9.13680941e-02,  9.03335810e-02,
         3.42040285e-02, -7.11645409e-02,  8.48297998e-02,
        -1.74430698e-01,  1.63291112e-01, -9.47856754e-02,
         1.65036678e-01,  2.10671917e-01],
       [-6.05135262e-02, -1.48292035e-01,  7.63933808e-02,
        -5.27766109e-01,  1.15163967e-01, -6.59785450e-01,
        -2.14847580e-01, -1.77477211e-01, -3.10333949e-02,
        -1.12202868e-01,  1.30256459e-01, -8.21129754e-02,
         2.03948870e-01, -7.42520213e-01, -2.09482517e-02,
        -1.87898234e-01, -3.22049737e-01,  1.47627098e-02,
         1.27689540e-01, -8.74264389e-02,  1.64086848e-01,
         7.63589293e-02, -6.69871151e-01,  1.47701316e-02,
        -4.10869978e-02, -2.25103080e-01, -1.31019950e-01,
         1.59119070e-01, -2.92204097e-02, -4.97796625e-01,
         7.10200444e-02, -1.88417986e-01,  6.64814143e-03,
        -5.53046502e-02, -7.07350433e-01,  1.89424857e-01,
        -1.08314186e-01,  5.31210564e-03, -6.82830289e-02,
        -6.53896481e-02, -1.97219744e-01, -5.48835158e-01,
         1.32549420e-01, -8.99541155e-02,  2.65924912e-02,
        -8.10722038e-02, -6.07926585e-02,  1.86506007e-02,
        -4.31432903e-01,  7.47326314e-02],
       [-2.56753296e-01,  1.19792290e-01, -7.33396690e-03,
         1.57666892e-01,  4.77784825e-03,  4.04886395e-01,
        -5.72377630e-02,  3.63931768e-02,  1.76003836e-02,
         7.27083459e-02, -6.21978752e-02,  1.20467432e-01,
        -2.10454717e-01,  1.12523563e-01,  4.75962721e-02,
         1.41290590e-01,  1.61837086e-01, -1.39176041e-01,
         7.17255697e-02, -1.89993992e-01, -9.17079151e-02,
         1.52503625e-01,  1.70812473e-01, -1.38460211e-02,
         5.49903698e-02,  4.11404632e-02,  1.66145980e-01,
        -9.48627219e-02, -1.02847978e-01,  4.17485297e-01,
        -2.08825633e-01, -1.21244967e-01, -3.01433831e-01,
         1.19291432e-01, -2.41800640e-02,  1.27115116e-01,
        -1.67437289e-02,  1.36087343e-01,  2.85473466e-02,
        -1.04317879e-02,  1.75802156e-01,  3.33234400e-01,
        -1.20619975e-01, -2.29145125e-01,  1.03976302e-01,
         7.22327009e-02, -2.57266313e-01,  1.45300537e-01,
        -1.73048019e-01,  2.03775376e-01],
       [ 1.32653698e-01,  1.81369036e-01,  9.63941291e-02,
        -6.89540327e-01, -1.39317930e-01, -5.95952511e-01,
        -1.27726495e-01, -1.14772573e-01,  7.95370340e-02,
        -1.79011628e-01, -1.67999327e-01, -3.21569502e-01,
        -4.17457297e-02, -6.90937281e-01, -1.91927984e-01,
        -7.66676068e-02, -5.21030366e-01,  1.25441328e-01,
         3.26631851e-02,  9.57318991e-02,  1.33620501e-02,
         3.88379302e-03, -2.78753072e-01, -2.24285379e-01,
        -7.03435168e-02, -3.69754463e-01, -1.07451536e-01,
        -1.13969579e-01, -1.43518850e-01, -5.26035547e-01,
        -1.42591493e-03, -2.91679382e-01,  9.02111828e-03,
        -8.75867605e-02, -3.87703240e-01,  1.73269734e-02,
         4.36471542e-03, -2.37248883e-01, -9.77762137e-03,
        -9.83103663e-02, -1.72411263e-01, -2.00587973e-01,
         1.55167326e-01,  8.75289142e-02, -1.95362419e-02,
        -8.20547808e-03,  3.38694490e-02, -1.69374153e-01,
        -4.29220527e-01,  7.35191405e-02],
       [ 8.04907531e-02, -8.96414965e-02, -5.67382909e-02,
         1.81300074e-01,  8.21818933e-02,  3.16326953e-02,
        -2.34035924e-02, -2.70789526e-02,  1.43545687e-01,
        -2.95675490e-02,  5.76066189e-02,  1.33159012e-01,
        -5.22828847e-02,  2.51017869e-01, -1.84429318e-01,
        -1.60869509e-01,  2.95468941e-02,  1.64100289e-01,
         1.04934514e-01, -2.21921235e-01,  6.33203611e-02,
         8.33138973e-02, -2.67285872e-02, -2.66048968e-01,
         1.01033092e-01,  9.47328750e-03, -2.47454673e-01,
        -2.10625511e-02,  9.48621333e-02,  3.94027829e-02,
         4.87900600e-02, -2.77386844e-01, -1.38655975e-01,
        -6.77535981e-02, -6.08968697e-02,  3.74057069e-02,
        -8.82942751e-02,  8.79050195e-02,  1.65555719e-02,
        -4.38788049e-02,  4.10220176e-02, -1.52703688e-01,
         8.91259089e-02, -3.09889521e-02,  3.64074670e-02,
         4.39387746e-02,  1.31707683e-01, -7.25434721e-02,
        -6.29282231e-03, -1.17227525e-01],
       [ 7.70961195e-02, -2.12856933e-01, -4.86088768e-02,
         7.22963661e-02, -1.43242568e-01, -9.88864526e-02,
        -5.22862196e-01, -2.42051035e-02,  6.52600378e-02,
        -1.19663753e-01,  1.63197219e-01, -1.45550177e-01,
         9.16213691e-02, -1.66977674e-01, -1.18806683e-01,
         4.91290062e-04,  1.11712769e-01, -1.35342821e-01,
        -1.80037737e-01, -2.14446172e-01, -1.75857544e-01,
         1.68022752e-01, -1.26222372e-01, -1.53777882e-01,
         6.19043410e-02,  9.06550959e-02,  1.92024920e-03,
        -1.79875270e-01, -8.02883785e-03,  7.12670088e-02,
        -1.44086918e-02, -2.60628760e-01, -1.79738700e-02,
        -9.59002972e-02,  1.13563068e-01,  1.47044659e-01,
        -3.23442519e-02,  4.48109396e-02,  3.03523242e-02,
         6.75006583e-02, -3.20012029e-03,  1.94237709e-01,
         3.20597589e-02,  1.52420744e-01,  3.07492148e-02,
         3.53319049e-02,  9.05011594e-02, -2.44105250e-01,
         1.59963831e-01,  1.39360845e-01],
       [ 5.82860112e-02,  8.51473361e-02,  2.00826690e-01,
        -3.86933312e-02, -3.57419206e-03,  1.31568238e-01,
         5.88055812e-02,  1.25781879e-01, -2.38819525e-01,
        -2.13440776e-01,  2.04264760e-01, -2.20983922e-01,
        -3.82440048e-03, -6.58436492e-02, -4.44699973e-02,
         3.22610922e-02,  2.04178661e-01,  1.93847030e-01,
         1.17046162e-01, -4.07726169e-01,  2.25002930e-01,
        -5.39680012e-02, -5.47202975e-02, -1.81170419e-01,
        -1.33335620e-01,  5.72870113e-02, -7.37377852e-02,
        -1.82604745e-01,  1.73692986e-01, -1.48848236e-01,
         1.54545993e-01, -4.94589619e-02,  4.73314859e-02,
        -3.49151343e-02,  8.46348032e-02,  1.91872537e-01,
        -1.72147036e-01, -1.12054065e-01, -1.21112779e-01,
         2.47855801e-02,  3.13097425e-02,  5.45597577e-04,
        -1.29787445e-01,  1.53028267e-02,  1.33529395e-01,
        -1.48702543e-02, -1.45221338e-01,  1.11627445e-01,
        -1.24472246e-01, -1.99945103e-02],
       [-1.70417354e-01,  8.34970996e-02, -1.72276393e-01,
         1.50460213e-01, -2.23926067e-01,  1.42573982e-01,
        -2.07705259e-01, -6.65331334e-02,  5.85089698e-02,
        -1.74324140e-01,  2.68324822e-01, -9.88040715e-02,
         6.37074281e-03,  2.65293360e-01,  2.99261753e-02,
        -1.55416429e-01, -6.89699277e-02,  7.39239529e-02,
         1.61435261e-01, -1.47400498e-01,  2.17322093e-02,
        -1.00548483e-01, -3.75495315e-01, -2.36181051e-01,
        -9.42448527e-02,  2.70929560e-02, -7.20527396e-02,
         1.37436986e-02, -6.60272455e-03,  4.58408743e-02,
        -8.57566521e-02,  3.85371186e-02, -1.52652888e-02,
        -1.29788920e-01,  1.75920442e-01, -6.11350350e-02,
         1.66060731e-01, -1.89833626e-01,  8.50470550e-03,
        -2.50530213e-01, -1.65492833e-01,  3.80821303e-02,
        -1.91742584e-01,  1.01447105e-02,  1.64345935e-01,
        -4.77751940e-02, -1.43594459e-01,  1.35222226e-01,
        -7.25894868e-02,  2.02270702e-01],
       [ 1.92918882e-01, -1.41704217e-01, -1.26963899e-01,
         2.34878674e-01, -5.51924966e-02, -2.31854051e-01,
        -3.32341582e-01,  1.01830043e-01, -8.70975628e-02,
         1.88267469e-01,  1.85789857e-02, -2.27501824e-01,
         8.45240876e-02, -1.28338888e-01, -3.40119749e-02,
         9.75573435e-02,  1.08607456e-01,  5.72568998e-02,
         1.15461357e-01, -7.34563842e-02,  1.44412696e-01,
         1.33073688e-01, -3.67415957e-02, -2.22278312e-01,
         1.57279909e-01, -1.85397025e-02,  1.64191857e-01,
         1.26030366e-03,  1.35789052e-01, -9.37808305e-02,
         3.06224264e-02, -1.80948883e-01, -1.12035677e-01,
        -9.60942581e-02,  1.20931035e-02,  1.53801322e-01,
         6.35542497e-02, -5.41253611e-02,  6.22179825e-03,
         7.87848234e-02,  1.09437294e-01, -7.74836317e-02,
         1.46946013e-01,  2.37597033e-01,  2.91970856e-02,
         1.39207363e-01, -8.19374174e-02,  1.15492031e-01,
        -1.86396420e-01,  2.56081194e-01],
       [ 2.70749241e-01, -1.82824627e-01,  4.83337743e-03,
        -2.34406039e-01,  1.01253957e-01, -1.58359170e-01,
         1.62165146e-02, -2.82893945e-02, -1.00298196e-01,
         1.41691118e-01,  1.01018704e-01, -6.59674853e-02,
         1.55465201e-01, -2.00486973e-01,  2.69344393e-02,
        -1.92864954e-01, -6.05365597e-02,  8.98396969e-03,
        -8.19654465e-02,  9.26479697e-02,  8.03677589e-02,
         1.28453970e-01, -3.06209512e-02,  5.69713339e-02,
        -7.30086640e-02, -1.47263989e-01,  2.10415810e-01,
        -2.33629113e-03, -3.70190591e-02, -4.97055538e-02,
         5.37607111e-02,  2.38380879e-01,  1.25202686e-02,
        -2.10300118e-01, -1.15382209e-01,  6.77857399e-02,
         1.12931654e-01, -1.59377173e-01, -3.44566368e-02,
        -1.48722261e-01,  1.15553819e-01, -3.57911289e-02,
        -1.90403506e-01,  9.02915671e-02, -1.85648099e-01,
        -1.43304020e-01,  1.25937954e-01,  1.34905607e-01,
        -1.47427721e-02,  3.13253939e-01],
       [-1.83616862e-01, -1.03409186e-01,  2.87434906e-02,
        -3.93722326e-01, -1.59881800e-01, -4.80836749e-01,
        -1.35320500e-01, -4.93430197e-02, -1.87199980e-01,
         3.03658005e-02,  6.20723292e-02, -2.67576069e-01,
        -1.83999736e-03, -8.97121012e-01,  6.14751689e-02,
         1.73760831e-01,  3.10208518e-02, -1.01862006e-01,
         1.93872258e-01,  2.04676002e-01,  1.47104427e-01,
         4.76311333e-02, -1.61233068e-01,  7.38629922e-02,
        -1.58740267e-01, -1.42274469e-01,  1.89224511e-01,
         7.52208978e-02,  1.81997091e-01, -4.94185954e-01,
         6.01009950e-02,  1.53911412e-01,  1.41476944e-01,
        -1.02313153e-01, -8.74545336e-01,  9.56432745e-02,
        -2.17855871e-01,  1.21634975e-02,  4.37268019e-02,
        -8.91503692e-02, -7.75135159e-02, -2.64519274e-01,
         2.95873135e-02, -1.06305093e-01,  1.05631724e-02,
        -6.80261925e-02,  1.70949101e-01,  1.70079038e-01,
         1.38118222e-01, -2.58380413e-01],
       [ 1.02284104e-02, -8.49146117e-03, -9.44285393e-02,
        -3.39888453e-01, -1.46973014e-01, -4.17153001e-01,
        -3.24746490e-01,  1.46668673e-01,  7.05884099e-02,
        -9.13897306e-02,  1.08867869e-01, -1.46607533e-01,
         4.70407270e-02, -4.52413142e-01,  6.92318603e-02,
         3.98933552e-02,  2.06898630e-01,  1.40506878e-01,
         3.41405906e-02, -1.92570705e-02,  1.83827475e-01,
        -1.81701615e-01, -1.71590652e-02,  3.52275632e-02,
        -8.91820863e-02, -1.82288647e-01,  9.78658944e-02,
         4.99376543e-02,  9.00138095e-02, -6.28562331e-01,
         7.51712546e-02,  7.38020465e-02,  1.15338564e-01,
        -4.91189584e-02, -5.27631819e-01,  1.16896681e-01,
        -2.98253179e-01, -1.37566209e-01, -3.46435346e-02,
        -3.10913563e-01, -5.32085717e-01, -4.38599020e-01,
        -5.08169904e-02, -6.41316846e-02, -7.76133463e-02,
         3.44425477e-02, -2.09221452e-01, -1.08622489e-02,
        -3.34838837e-01, -2.08856957e-03],
       [ 1.04106866e-01, -3.42324615e-01,  1.19307853e-01,
        -1.44959137e-01, -7.35376254e-02,  3.70940380e-03,
        -2.82331973e-01,  7.81293064e-02,  1.59088969e-01,
         9.53241140e-02, -1.62133023e-01, -9.62483287e-02,
        -1.99550437e-03,  3.01725477e-01,  5.87974228e-02,
        -1.14336871e-01, -1.43558532e-01, -1.60239801e-01,
         4.34200652e-02, -3.01894695e-02,  6.90755546e-02,
         1.50103882e-01, -2.76374407e-02, -1.74569383e-01,
        -1.98730871e-01, -1.36686325e-01, -8.20948854e-02,
         1.40605062e-01,  1.75528526e-02, -1.40531212e-01,
         1.05959706e-01, -6.65075406e-02,  3.83401550e-02,
        -4.75058658e-03, -8.81576240e-02,  1.82410806e-01,
        -4.46373262e-02,  4.46108319e-02,  1.14966631e-01,
         9.99007672e-02,  2.28564978e-01,  8.40127096e-02,
        -2.17599601e-01,  1.92915067e-01, -7.82592967e-02,
         8.52600113e-02, -1.34880424e-01,  1.76557928e-01,
         1.52919993e-01,  1.33663490e-01],
       [ 4.24316004e-02, -1.53820500e-01, -1.97203636e-01,
         2.04088926e-01, -2.24786368e-03,  1.88005120e-01,
        -1.26278222e-01,  3.91047150e-02, -1.81980789e-01,
        -1.06574766e-01, -9.00569633e-02,  1.02814384e-01,
        -9.58804861e-02,  3.10881078e-01, -1.71258241e-01,
        -4.37368751e-02, -1.93459556e-01,  8.80291909e-02,
        -1.67065442e-01,  2.56104264e-02, -1.37549117e-01,
         1.56819254e-01, -1.56213865e-01,  4.02953029e-02,
        -1.24466985e-01, -1.20068260e-01, -1.67882740e-02,
         1.11192971e-01, -2.63358559e-02,  2.04365849e-01,
        -1.32550970e-01, -5.75427786e-02, -6.22140206e-02,
         8.04522261e-02,  1.10557526e-01, -4.66920398e-02,
         1.41352266e-01, -1.59951635e-02,  1.57978281e-01,
         9.19270366e-02, -1.67416975e-01,  6.91113472e-02,
         1.73605755e-01, -5.51327271e-03,  9.14997235e-03,
        -1.77008033e-01,  1.35588691e-01, -3.67934704e-02,
        -1.70399159e-01,  1.19832560e-01],
       [ 1.73035845e-01, -5.86894229e-02,  1.46877900e-01,
         1.03257306e-01, -6.90537170e-02,  3.59963983e-01,
         1.09067997e-02, -1.78420097e-01,  8.86173919e-02,
         2.76770303e-03, -1.80963561e-01,  1.67548507e-01,
        -1.84302032e-03,  2.60181487e-01, -1.63722098e-01,
        -1.30362540e-01,  6.10233694e-02, -4.50406611e-01,
         1.64553255e-01, -5.92238642e-02, -3.34462345e-01,
         1.31661296e-01,  1.18943654e-01, -1.13689899e-01,
        -1.98372379e-02,  1.92714185e-01,  1.32099509e-01,
         4.40988615e-02, -1.11428514e-01,  2.60001212e-01,
         1.54950060e-02, -1.57993928e-01, -2.24798843e-02,
         2.08670676e-01,  2.48422977e-02,  1.54285729e-01,
        -1.96240619e-01, -1.36672795e-01, -7.52375694e-03,
        -1.32659987e-01,  1.55161500e-01,  2.47139469e-01,
        -2.67587435e-02, -2.16181859e-01, -3.55335861e-01,
         4.07798551e-02,  7.83851519e-02, -1.85915396e-01,
         8.82339254e-02,  2.31198892e-01],
       [ 1.75555557e-01, -7.34322444e-02,  1.72429234e-01,
         1.66256383e-01,  5.50775677e-02,  1.08588368e-01,
         1.74795657e-01,  2.97335200e-02,  1.91823274e-01,
        -7.06305206e-02,  1.18817329e-01,  1.61353201e-01,
        -1.31175727e-01,  4.90938798e-02,  4.15553972e-02,
         1.94492504e-01,  9.13119018e-02,  4.52921428e-02,
         2.18186885e-01, -1.59383461e-01, -9.80651826e-02,
        -1.08159930e-01,  2.80050248e-01,  1.84576243e-01,
         2.81121712e-02,  7.45780393e-02, -1.06035747e-01,
        -5.69895767e-02,  5.48978075e-02,  8.69789869e-02,
        -1.40267000e-01, -1.64626032e-01,  2.24558428e-01,
        -7.42684677e-02,  2.79549927e-01,  1.86012201e-02,
         5.92201799e-02, -1.08127847e-01, -2.53968328e-01,
         1.75027505e-01,  3.51410717e-01,  1.19082242e-01,
         1.29245624e-01, -3.55947345e-01,  4.22090432e-03,
        -1.29126385e-01, -2.74440572e-02,  2.47051999e-01,
        -1.10467546e-01,  1.17037510e-02],
       [ 1.81988358e-01,  6.90019950e-02,  9.22632292e-02,
         1.27564102e-01, -7.74590075e-02,  1.48111552e-01,
         2.28112787e-02,  1.16294265e-01,  7.68909380e-02,
         1.61493480e-01, -1.53442651e-01,  1.46079391e-01,
        -1.64942399e-01,  2.14018822e-01,  3.87129664e-01,
        -6.35733008e-02,  1.34044632e-01,  1.02674738e-01,
         1.10849962e-01, -7.39643648e-02, -2.73441344e-01,
         1.09877326e-01,  9.49495062e-02, -1.17091455e-01,
         1.90005273e-01, -3.34313922e-02,  1.92425177e-01,
         1.91855848e-01,  2.40030792e-02,  2.11010516e-01,
         3.04476172e-02,  6.53433893e-03, -4.34701383e-01,
        -1.67491227e-01,  1.07377492e-01,  1.07020557e-01,
         1.18312202e-01, -9.29052159e-02,  4.01994353e-03,
         8.30275565e-02,  8.18060413e-02,  1.54828921e-01,
        -1.25416666e-01,  1.70452654e-01, -1.28279537e-01,
        -2.56844997e-01, -1.22188129e-01, -1.21532567e-01,
         8.46646428e-02, -8.40798318e-02],
       [ 7.15631545e-02,  1.70360312e-01,  1.72940671e-01,
         1.66581780e-01,  9.49619561e-02, -1.51932314e-01,
        -3.21399480e-01, -1.97621152e-01,  1.43454969e-01,
         5.26886843e-02, -7.87988771e-03, -1.55917540e-01,
        -1.58429295e-01,  3.53604613e-04,  1.97513148e-01,
        -1.02839477e-01,  1.49814516e-01,  1.08094916e-01,
         1.26084983e-01, -9.98454913e-02,  1.62342370e-01,
         1.79875195e-01,  1.63836032e-01,  2.25488037e-01,
         2.38240287e-01,  1.56867668e-01,  9.53297019e-02,
        -1.67422071e-01,  1.12275705e-01,  5.62049821e-02,
        -1.81879625e-01,  3.07919793e-02, -3.94793525e-02,
        -1.19858772e-01,  9.55475792e-02,  1.29954830e-01,
         1.41726136e-01,  6.31461199e-03,  1.42975911e-01,
        -7.31267259e-02,  1.15799516e-01,  2.56208461e-02,
        -9.11037102e-02,  1.41547412e-01,  1.23577863e-01,
        -2.12127745e-01, -1.26192093e-01,  5.26689440e-02,
         5.87528460e-02,  9.07390192e-02],
       [-1.78772226e-01,  1.98559463e-01, -2.16080800e-01,
        -2.20620483e-01, -1.91036046e-01, -2.27336302e-01,
         1.19216390e-01,  9.28864032e-02,  1.28137544e-01,
        -1.47980005e-01, -3.19225878e-01,  1.48413286e-01,
         1.55755669e-01, -1.93710521e-01,  1.72600091e-01,
        -3.61142531e-02,  1.20124467e-01,  1.57206245e-02,
        -1.83801781e-02, -2.94044483e-02,  1.22450806e-01,
        -1.48095876e-01, -1.95848808e-01,  1.58865973e-01,
         6.95831552e-02,  1.08684719e-01, -3.72033827e-02,
         2.15419605e-02, -3.54611538e-02, -8.92492235e-02,
        -3.71603727e-01,  1.00266598e-02, -1.76898852e-01,
         8.67809206e-02, -2.05688596e-01,  1.19630825e-02,
        -2.14748792e-02, -1.15546823e-01,  1.94445103e-01,
        -1.16356157e-01, -1.62044719e-01,  3.15017737e-02,
        -2.01956406e-02, -1.49622886e-02, -1.27194688e-01,
         2.27702986e-02,  7.88727105e-02, -2.00903624e-01,
        -1.35916755e-01, -2.99994975e-01],
       [ 4.00117010e-01, -1.25648886e-01, -1.28785953e-01,
         8.10061172e-02, -4.87510003e-02,  5.97061329e-02,
        -1.65155709e-01, -6.10167682e-02, -6.09742478e-02,
         6.25224039e-02,  8.89683887e-02, -7.66973197e-02,
         1.38528198e-01,  2.91922148e-02, -6.10214293e-01,
        -1.47037432e-01,  1.59365326e-01, -1.19665384e-01,
        -1.57891661e-01, -7.18701258e-02, -2.65927196e-01,
        -4.04470749e-02, -3.54267247e-02, -1.22516811e-01,
        -9.98713821e-03,  1.07370175e-01,  1.65640622e-01,
        -1.83894038e-01,  2.49755997e-02,  2.12187558e-01,
        -7.07967207e-02,  1.46369621e-01,  7.69799352e-02,
         3.09800170e-02,  1.72565416e-01,  2.22229362e-01,
         6.36184290e-02, -4.67745103e-02,  3.48281533e-01,
        -1.77535221e-01,  4.33119386e-02, -2.07059756e-01,
         9.98513848e-02, -6.14029951e-02, -3.26850832e-01,
         1.48798540e-01,  6.85300156e-02, -1.53862014e-01,
        -1.38039127e-01,  4.23626006e-01],
       [ 1.93282604e-01, -5.12460433e-03,  6.33960962e-02,
         1.84867993e-01,  1.39238372e-01,  8.03966820e-02,
        -2.33096689e-01, -1.12066314e-01, -6.75227195e-02,
         1.70226380e-01, -5.97684085e-02,  1.12572186e-01,
         1.04004107e-01, -8.64928290e-02, -2.85410546e-02,
         5.44717275e-02, -1.24834597e-01, -3.01426230e-03,
         2.27950305e-01, -1.37031317e-01,  1.54417306e-01,
        -3.88700794e-03,  1.09844096e-01, -1.15028113e-01,
        -1.43017158e-01, -1.87879160e-01, -2.71143168e-01,
        -9.28222463e-02,  1.39168731e-03, -1.12713389e-02,
        -2.69732654e-01, -5.90274595e-02,  2.91947603e-01,
        -5.92246242e-02,  1.56782642e-01,  9.87919122e-02,
        -2.02141672e-01, -4.30111177e-02,  2.47611161e-02,
        -2.91455716e-01,  1.83249459e-01,  1.58476010e-01,
        -2.12243006e-01,  4.77712862e-02, -8.14145356e-02,
         9.46065485e-02, -2.34169200e-01, -1.49907827e-01,
        -2.98451027e-03,  6.67562336e-02],
       [ 1.69665381e-01,  5.84264360e-02, -1.16112314e-01,
        -3.18008900e-01,  8.14837143e-02, -5.74061453e-01,
         4.10375446e-02,  1.01667447e-02,  1.99097231e-01,
        -1.98786616e-01,  1.18566930e-01, -2.54730254e-01,
        -2.19241977e-01, -6.17964983e-01, -8.41133371e-02,
        -2.67597586e-01, -4.77602661e-01, -2.55289644e-01,
         6.83951601e-02,  1.09445378e-02,  1.15039021e-01,
        -2.34557524e-01,  3.03912479e-02, -4.24732417e-02,
         1.53273970e-01, -7.28899419e-01, -1.33982226e-01,
        -6.45528436e-02, -1.29529744e-01, -1.61265776e-01,
        -1.48997054e-01,  2.48981453e-02,  1.84453025e-01,
        -1.13839693e-01, -4.64930207e-01,  1.23420298e-01,
        -7.69441798e-02,  1.20262608e-01,  1.69236474e-02,
         1.33361652e-01, -1.97480559e-01, -2.96686590e-01,
        -1.37638133e-02, -2.00597718e-01, -6.70982972e-02,
        -1.71828136e-01,  4.43262905e-02, -5.85324727e-02,
        -4.95822340e-01,  1.27993515e-02],
       [ 2.82628685e-02, -1.41098514e-01, -1.28018677e-01,
        -5.54412544e-01, -4.11255173e-02, -3.90341401e-01,
        -3.83918554e-01, -2.08874401e-02,  6.93959445e-02,
         1.16120748e-01,  1.10826477e-01, -3.26379120e-01,
        -1.31478652e-01, -4.82538700e-01, -3.23527381e-02,
         1.83985442e-01, -6.48516566e-02, -7.22967684e-02,
         1.65961757e-01, -1.86269909e-01, -1.70445547e-01,
         8.46177414e-02, -2.94886410e-01,  1.71794608e-01,
         6.99676871e-02, -7.19665438e-02,  3.48601043e-02,
        -3.88757437e-02, -1.40807748e-01, -5.68091214e-01,
         7.14011639e-02,  4.34440337e-02, -6.94500059e-02,
         1.63271725e-01, -4.32028949e-01, -2.57736593e-01,
        -5.45700453e-02,  5.59377484e-02,  1.63623877e-02,
        -1.17507964e-01, -5.11865392e-02,  1.80308267e-01,
         6.53380482e-03,  3.74694057e-02, -7.55264750e-03,
        -1.91424508e-02, -1.64723471e-01,  1.59227580e-01,
        -4.86422516e-02, -5.68705127e-02],
       [ 4.44681823e-01, -1.19726351e-02,  2.00593382e-01,
         2.83264101e-01,  1.09299101e-01,  1.81436852e-01,
        -2.65181959e-01,  8.74182209e-02,  1.86256051e-01,
         1.82138026e-01, -2.93090731e-01,  7.26433098e-02,
        -1.39746383e-01,  1.59425899e-01,  1.20124280e-01,
        -6.79885522e-02,  9.39397141e-02, -7.14621916e-02,
         1.30620107e-01,  3.47930193e-03, -9.27948356e-02,
         8.89310092e-02,  1.11407124e-01, -1.10747684e-02,
        -3.61734368e-02,  1.66877121e-01,  2.33117029e-01,
        -7.24710748e-02, -3.73024791e-02,  1.38950706e-01,
        -4.14546937e-01,  1.00777142e-01, -3.24607909e-01,
         5.40815108e-02,  2.86703020e-01,  4.38150251e-03,
         5.37132006e-03,  1.49652809e-01, -4.18000780e-02,
         1.75525919e-01, -1.25744909e-01, -1.28561575e-02,
         2.51070052e-01,  6.55491948e-02,  8.16422999e-02,
        -2.15068147e-01,  3.81728970e-02, -5.54131949e-03,
        -2.28198528e-01, -1.33063883e-01]], dtype=float32), array([ 9.6742757e-02,  4.4619989e-02,  8.9836165e-02,  6.2776893e-02,
       -6.9388144e-02,  7.7233106e-02, -9.6289523e-02, -4.5976657e-02,
        3.1790048e-02,  1.1056322e-01,  9.2339560e-02,  6.3435085e-02,
       -4.6370149e-02,  9.8180003e-02, -1.2820400e-02, -5.8144506e-02,
        3.5740256e-02,  7.9681622e-03, -3.3452347e-02,  3.9856285e-02,
       -6.6997640e-02,  8.0866307e-02,  4.3821726e-02,  2.3514831e-02,
        3.3229858e-02,  1.5428821e-02, -2.2443970e-01,  7.7657744e-02,
       -1.0067078e-01,  7.9381384e-02,  1.2170441e-01, -1.1900352e-01,
       -1.3328799e-03, -1.3121460e-01,  9.1094516e-02,  2.6655762e-05,
        5.2624673e-02, -5.6664675e-02,  2.0333253e-02,  3.9229602e-02,
        4.8860122e-02,  1.5171881e-02,  5.9166033e-02, -7.9163991e-02,
       -1.1034081e-01, -6.2598661e-03, -7.7355385e-02,  9.4675072e-02,
       -6.1510531e-03,  1.0481523e-01], dtype=float32)]