{array({{{-1.09292962e-01, -8.22436064e-02, -7.11167753e-02,
          7.91214523e-04,  9.51303244e-02,  5.17582856e-02,
         -1.30513325e-01, -1.05984427e-01,  2.12182384e-02,
          1.27573371e-01, -4.20865640e-02, -8.28122646e-02,
          3.08191683e-02, -2.58402705e-01, -6.64606690e-02,
          3.45544577e-01, -7.81866908e-02, -1.29934579e-01,
          2.24336073e-01, -7.75856823e-02, -4.14383002e-02,
          1.52062058e-01,  1.44899383e-01, -2.03219935e-01,
          4.74278666e-02,  2.39561126e-02,  5.24472892e-02,
         -3.49730738e-02, -4.47469242e-02, -7.64234588e-02,
         -2.36736149e-01,  3.08952350e-02,  4.56365794e-02,
         -1.09906219e-01, -9.81230736e-02,  1.15268372e-01,
          1.38666093e-01, -7.67664164e-02,  4.31703962e-02,
          3.07600591e-02,  1.01771541e-01, -5.20523190e-02,
          1.89479347e-02, -2.07417369e-01, -2.65100170e-02,
         -2.47378662e-01, -8.77443887e-03, -5.80198586e-01,
         -1.96564555e-01,  1.03267752e-01, -2.04082921e-01,
          1.78915355e-03,  2.22299597e-04, -1.81902677e-01,
          1.61620200e-01,  1.48168281e-01,  3.19900997e-02,
         -1.24263570e-01, -8.61339569e-02, -3.05059012e-02,
          2.11178422e-01,  3.86547223e-02, -3.16055864e-02,
         -1.75237715e-01}},

       {{-4.03977651e-03,  1.49721697e-01,  1.11115023e-01,
          1.55308349e-02,  1.60502806e-01,  4.90773423e-03,
          3.62253040e-02, -3.24611440e-02, -5.31347236e-04,
          2.45829254e-01, -2.62731779e-02,  3.06001678e-02,
         -5.77618107e-02,  1.32483885e-01, -1.11695029e-01,
         -9.03033745e-03, -1.37000140e-02,  1.50306653e-02,
          2.00058922e-01,  2.55903825e-02,  1.53486624e-01,
          5.09995744e-02, -4.94404323e-02, -2.23490521e-02,
          1.76744089e-02, -9.87835079e-02,  1.83692388e-02,
         -6.02690168e-02,  8.00640061e-02, -9.70681384e-03,
         -2.22133577e-01, -5.33605665e-02, -1.87704921e-01,
          4.17104643e-03, -7.20334649e-02, -1.02367394e-01,
         -5.98997846e-02, -2.09835768e-02,  5.48505187e-02,
          4.57408577e-02, -4.03662995e-02,  6.34221584e-02,
         -5.66212460e-02, -8.94155502e-02,  1.18593454e-01,
          6.23349175e-02, -1.14241792e-02,  9.27486345e-02,
         -4.00278158e-02, -5.65087311e-02, -5.29918075e-01,
         -1.06766567e-01, -3.13606784e-02,  1.75966695e-02,
         -2.78449059e-02,  1.83377057e-01,  1.04878075e-01,
          5.75566739e-02,  1.15261273e-02,  2.99385041e-02,
          2.11431831e-01, -6.15140945e-02,  3.04669589e-02,
         -5.87656200e-02}},

       {{-2.87542343e-02,  7.11393133e-02, -1.22349106e-01,
          3.68617056e-03,  1.40085906e-01, -6.30251169e-02,
          3.42950262e-02,  1.36133596e-01, -9.17393640e-02,
          1.38066158e-01,  7.30814561e-02, -3.07369437e-02,
          7.89812133e-02,  2.54250586e-01, -1.68227211e-01,
          1.42652780e-01,  1.11273609e-01, -1.74833447e-01,
         -1.32700905e-01,  5.12021873e-03, -2.13969707e-01,
          2.71954518e-02,  4.74434234e-02, -4.78172228e-02,
          1.80320621e-01,  5.50811850e-02, -1.20006688e-01,
          1.71730012e-01, -4.09522392e-02,  5.70421144e-02,
          1.08152712e-02, -8.63753352e-03,  6.52657971e-02,
          1.29604459e-01, -4.53901365e-02,  2.91274618e-02,
          2.45477818e-02, -5.96264601e-02, -8.59132186e-02,
          6.97353855e-02, -8.15989003e-02, -9.18052718e-02,
          2.23945901e-02,  2.54950318e-02,  9.04167593e-02,
          1.54078320e-01, -1.68070346e-02,  3.20067614e-01,
         -4.29145470e-02,  7.11038709e-02, -1.49546042e-01,
          1.51115060e-01, -1.73924401e-01, -8.72136801e-02,
         -8.33611339e-02,  1.37717113e-01, -3.41597274e-02,
         -6.21852763e-02,  3.95887941e-02, -3.67413312e-02,
         -8.31032470e-02, -2.31239144e-02,  8.22937395e-03,
         -1.52618838e-02}},

       {{ 1.58272851e-02,  3.56114917e-02, -1.33633196e-01,
          9.60624963e-02, -2.97094975e-02,  4.68796827e-02,
         -2.11873259e-02, -7.21309483e-02,  3.07391360e-02,
          1.34003237e-01, -1.51116714e-01, -6.68561384e-02,
         -3.47571746e-02, -9.07723755e-02,  2.00436208e-02,
         -2.40757376e-01,  2.34266184e-03,  7.04857931e-02,
         -1.13428377e-01,  2.38946732e-02,  8.97740573e-02,
          1.55728413e-02, -2.31163874e-01,  1.38073057e-01,
         -3.28844935e-02,  6.31404594e-02,  5.24039567e-02,
         -1.84169322e-01,  1.61537137e-02, -2.84904763e-02,
          1.01815589e-01,  5.17828530e-03,  1.31615475e-01,
         -4.33316976e-02,  1.33487498e-02, -1.54487476e-01,
         -1.48282990e-01, -2.06987262e-02,  4.10304852e-02,
          2.53849596e-01,  6.57848492e-02, -1.25427753e-01,
         -5.51115163e-02,  7.99156427e-02, -9.77514461e-02,
          1.25496998e-01, -1.73234418e-02,  1.36804124e-02,
         -1.08911723e-01, -4.10576761e-02, -4.46693897e-01,
         -1.03274763e-01, -1.17063850e-01,  4.18422744e-02,
          1.10234253e-01,  1.10617325e-01,  2.29225606e-02,
         -1.45410150e-01, -1.43026128e-01,  1.12191215e-02,
         -1.35907695e-01, -1.59992382e-01, -5.08283935e-02,
          7.87738115e-02}},

       {{ 1.05278857e-01, -9.15481597e-02,  1.30150780e-01,
         -1.49579301e-01, -3.37279856e-01, -1.27547327e-02,
         -3.98630276e-03,  2.20057666e-02,  8.99450704e-02,
          1.07861824e-01,  4.99831438e-02,  1.34783134e-01,
          4.01383340e-02, -1.89593416e-02, -1.24644496e-01,
          2.60110885e-01,  5.57882376e-02, -1.84822716e-02,
         -2.37432659e-01,  4.88435328e-02, -1.54544711e-01,
         -1.73166707e-01, -1.05783895e-01,  4.73744199e-02,
          1.86914593e-01, -8.93216804e-02, -2.86170114e-02,
          9.03167948e-02, -8.94011930e-03,  2.41160002e-02,
          2.19336659e-01,  6.38543908e-03, -9.44869444e-02,
          8.48478153e-02,  1.79751627e-02,  6.68148845e-02,
         -2.52503976e-02,  1.41360030e-01, -7.40556270e-02,
          2.35829934e-01, -6.52653724e-02,  2.23532930e-01,
          2.26535425e-02,  2.03832924e-01, -3.09635550e-02,
          1.10629365e-01,  2.81962156e-02,  2.49383196e-01,
          1.29880875e-01,  4.68931869e-02, -2.15098128e-01,
          1.76892862e-01,  6.90787807e-02,  2.23607287e-01,
         -1.00682236e-01, -2.28897221e-02, -1.47309273e-01,
          1.50655270e-01,  2.72494555e-02, -1.49015477e-02,
         -1.23464927e-01,  2.65862606e-02,  3.37756500e-02,
          1.62724301e-01}}}, dtype=float32), array({-0.00143647, -0.00896355,  0.01157581,  0.01772926, -0.00245298,
       -0.01221259,  0.02354087, -0.00380526, -0.0120449 , -0.06753794,
       -0.05379797,  0.00118259,  0.03105378, -0.00541382,  0.03853121,
        0.05075911, -0.01799326,  0.03951399, -0.00420529,  0.00292102,
       -0.05592872, -0.0192824 ,  0.06970772, -0.007062  ,  0.01291146,
        0.00732735, -0.01541064,  0.08843398, -0.01747148,  0.00221368,
        0.02260878, -0.00191096,  0.00970749, -0.02089553,  0.06154622,
       -0.00276605,  0.05962811, -0.00064982, -0.0172384 , -0.0703054 ,
       -0.00124798, -0.03130282,  0.0035035 , -0.01062578, -0.02334992,
       -0.01707533,  0.01086266, -0.02029898,  0.00330333, -0.02605767,
        0.16864601, -0.06126038,  0.0322013 , -0.01499241, -0.01873833,
       -0.09347944,  0.00880155,  0.02445439,  0.01972927,  0.00365656,
       -0.02651729,  0.00875787, -0.00471407, -0.00220715}, dtype=float32)}
