[array([[-4.01412509e-02, -2.84407916e-03,  4.16678153e-02,
         3.77835296e-02, -3.97886410e-02,  3.48137841e-02,
         4.42052893e-02, -3.52276005e-02, -1.21143302e-02,
         7.53081143e-02,  8.29390362e-02, -4.24661860e-02,
         3.22673619e-02,  6.56514987e-02,  1.14901168e-02,
        -8.46568644e-02, -6.77813170e-03, -1.95635688e-02,
         2.47175843e-02,  9.25926715e-02,  7.85519034e-02,
         8.30566734e-02, -3.44994618e-03,  9.80158243e-03,
         5.91421723e-02, -2.62307376e-02, -1.68821216e-02,
        -5.44360429e-02, -3.00354548e-02, -4.12190557e-02,
         3.80660966e-02,  7.97264799e-02,  1.25209719e-01,
        -3.83616611e-02, -4.11045849e-02, -6.02978468e-02,
        -8.96128565e-02,  3.55103053e-02,  5.05331941e-02,
         5.11549041e-02, -1.02777295e-01, -6.05625510e-02,
        -2.22423836e-03, -1.75821692e-01, -6.18009549e-03,
         5.34928367e-02, -4.00855355e-02,  5.13212010e-03,
         5.59584610e-02,  8.87474790e-02, -1.76942833e-02,
         1.30290966e-02,  1.32817507e-01,  2.51928391e-03,
        -7.04408884e-02, -1.97848361e-02,  1.15995474e-01,
         5.35775535e-02,  1.04603767e-02,  1.28382223e-03,
        -1.72440354e-02, -3.47509757e-02,  2.73150541e-02,
         2.95254383e-02,  8.94041080e-03,  5.34129962e-02,
         3.11220232e-02,  1.00271434e-01,  1.90073084e-02,
        -2.46851612e-02,  2.55758446e-02,  4.95332442e-02,
        -5.58145568e-02, -7.01455995e-02,  6.08692169e-02,
        -5.29474765e-02,  1.08444446e-03,  2.77303178e-02,
        -4.74977791e-02,  7.09265471e-02, -2.87618376e-02,
        -6.17325753e-02,  2.34101452e-02,  2.06716992e-02,
         3.25423665e-02,  6.87880069e-02,  4.79715876e-02,
         4.34701927e-02, -9.77367014e-02, -7.79979080e-02,
         1.96899846e-02, -2.87094880e-02, -1.36175556e-02,
        -5.01756035e-02,  1.04407296e-01, -1.53981987e-02,
         2.78331768e-02,  8.36089533e-03,  3.59720327e-02,
        -2.18588579e-02],
       [-8.61187279e-03, -1.12424954e-03, -5.09996749e-02,
         6.07228428e-02, -3.81002948e-02, -1.70423105e-01,
         2.19115615e-02, -9.42173377e-02, -2.01182850e-02,
         5.08291461e-03,  9.68119781e-03, -3.10165919e-02,
        -1.55247152e-01, -1.31782115e-01,  4.05298080e-03,
        -1.15155146e-01, -7.15073338e-03, -6.38410747e-02,
        -7.07411319e-02, -2.04143878e-02, -7.85235614e-02,
        -2.62350813e-02, -8.07516202e-02, -3.41204517e-02,
        -6.07062504e-02, -7.40148593e-03,  2.44046431e-02,
        -2.05209963e-02, -1.76139467e-03,  8.50740522e-02,
        -4.14461270e-02,  8.46398696e-02, -1.81065455e-01,
        -1.92095473e-01, -1.65531948e-01, -2.89927218e-02,
         8.01409408e-02, -6.55052662e-02, -3.86578850e-02,
         1.41620440e-02, -9.66627710e-03,  8.94245207e-02,
        -8.43217745e-02, -8.76217186e-02,  1.02963746e-01,
        -6.05555698e-02,  1.48942828e-01, -9.65847820e-02,
         3.33203678e-03, -1.03378417e-02, -8.79402980e-02,
         8.72266814e-02, -2.49032900e-01,  2.85772178e-02,
        -2.61616763e-02,  1.76716894e-01, -7.95377791e-02,
         1.00285515e-01, -8.29802379e-02, -6.05424531e-02,
         4.54791009e-01, -3.54772136e-02, -2.01696903e-02,
         5.78176826e-02,  3.48701365e-02,  7.36458972e-02,
        -1.80823430e-01, -2.25703999e-01, -8.65711793e-02,
        -1.21693864e-01, -5.32227345e-02, -4.41387668e-02,
        -2.31138244e-02, -2.43967883e-02,  9.72305387e-02,
         2.62426045e-02,  2.02976465e-02, -6.79069906e-02,
         6.40995651e-02, -1.07763261e-01,  3.62348072e-02,
        -2.81884912e-02,  7.50378892e-02, -2.31001563e-02,
         1.19359745e-02, -5.21482043e-02, -1.02996089e-01,
        -7.44137391e-02, -5.06498665e-02, -1.57024279e-01,
        -2.71852743e-02,  4.18128334e-02,  2.19378117e-02,
         8.22926015e-02, -2.31487956e-02, -1.24983191e-01,
        -4.60434519e-02, -6.37635514e-02, -8.05096924e-02,
         8.91992524e-02],
       [ 6.96992548e-03, -1.10031873e-01,  5.16450442e-02,
        -2.62190606e-02,  7.24144727e-02,  1.38935015e-01,
         8.47861394e-02,  1.02704220e-01,  3.49030532e-02,
         4.57710878e-04, -5.18123806e-03, -2.31752042e-02,
         4.48978767e-02,  1.05393536e-01, -2.08382774e-02,
         1.61014780e-01, -4.01049778e-02,  1.05261050e-01,
         5.96652217e-02,  2.11966410e-03,  3.86094265e-02,
        -2.20707878e-02,  3.20968367e-02,  9.45640951e-02,
         5.26955202e-02, -4.22408432e-02,  3.07595823e-02,
        -1.69990119e-02, -8.18722546e-02, -1.54323101e-01,
         4.39118259e-02, -9.92146507e-02,  5.12977615e-02,
         7.91015662e-03,  7.06121027e-02,  7.51597062e-02,
        -7.36709908e-02,  3.53708528e-02,  2.65995655e-02,
         1.53529784e-02,  6.90229330e-03, -1.02575012e-01,
         9.16828215e-02,  6.04073927e-02, -3.21535915e-02,
         3.02314628e-02, -4.29896340e-02,  1.05386324e-01,
         4.04452113e-03, -7.51220360e-02,  1.68719832e-02,
        -1.24285873e-02,  1.98334977e-01, -1.91622637e-02,
        -4.02280092e-02, -3.83780040e-02, -2.27487404e-02,
        -8.90053362e-02, -8.96458514e-03,  6.88412786e-02,
        -3.93215835e-01,  2.24117935e-02, -6.69367425e-03,
         3.61551158e-02, -1.05412073e-01, -9.18875262e-02,
         7.02645406e-02,  1.82658181e-01,  6.90305382e-02,
         4.21996452e-02,  5.00071496e-02,  1.05874814e-01,
         1.72855668e-02, -9.90326237e-03, -1.08901322e-01,
         3.68595272e-02,  5.28411828e-02, -2.54678074e-02,
        -7.09649250e-02,  1.15114011e-01, -4.25083190e-03,
         8.44394416e-03, -2.60996763e-02, -3.56986076e-02,
         9.56420600e-03,  6.45311102e-02,  5.63015118e-02,
         1.04711913e-02, -2.67554708e-02,  1.33905247e-01,
        -4.64291945e-02,  2.07104348e-02, -8.12140778e-02,
        -9.63945612e-02,  1.01258889e-01,  6.61416724e-02,
        -2.63488702e-02, -1.03124473e-02,  2.69565377e-02,
        -5.36910072e-02],
       [ 2.79415166e-03, -5.88095263e-02, -9.98890325e-02,
         5.90222478e-02, -5.31057362e-03, -1.41455188e-01,
        -6.38981164e-02, -1.89128190e-01, -2.10568141e-02,
        -3.88555527e-02,  7.34926984e-02, -1.31835053e-02,
        -7.67528564e-02, -1.16447642e-01, -1.56024229e-02,
        -1.93155140e-01, -2.67072171e-02, -1.52070850e-01,
        -3.42277773e-02, -6.69824565e-03, -2.22564861e-02,
        -6.47236854e-02, -1.10902153e-01, -8.00144151e-02,
        -8.94051865e-02,  7.19749779e-02,  6.45160303e-02,
        -4.20941412e-02, -4.53475527e-02,  9.24012586e-02,
        -7.49773979e-02,  1.61582112e-01, -1.85794339e-01,
        -1.49953514e-01, -1.39823273e-01, -1.80334076e-02,
         5.58609180e-02,  2.21796110e-02, -1.46947084e-02,
        -3.87484767e-02,  5.23500517e-02,  1.14482805e-01,
        -1.23526767e-01, -8.82544667e-02,  5.21047302e-02,
        -1.00705139e-01,  1.27760738e-01, -8.57917145e-02,
        -3.50696146e-02,  3.34698241e-03, -9.59402472e-02,
         1.73734047e-03, -2.32587934e-01,  6.43682778e-02,
         4.31571789e-02,  6.47009313e-02, -7.98154473e-02,
         6.45058453e-02,  5.70080895e-03, -2.97799818e-02,
         5.00452161e-01, -2.48386245e-02, -8.18657316e-03,
         1.90527458e-03,  6.61975890e-02,  3.94249782e-02,
        -2.00536594e-01, -1.89832345e-01, -1.04365209e-02,
        -1.25898495e-01, -6.19399957e-02, -4.77860272e-02,
        -1.78226307e-02, -2.59549990e-02,  1.32149443e-01,
         6.66001439e-02,  6.08529039e-02, -4.06457707e-02,
         1.54571729e-02, -1.72359258e-01, -2.21648738e-02,
        -1.76394582e-02,  8.21496099e-02,  4.45631752e-03,
         2.41621025e-02, -1.01024613e-01, -7.17771351e-02,
        -1.43221304e-01,  3.97128910e-02, -1.39807761e-01,
         4.01461385e-02, -1.21876439e-02,  1.07321516e-01,
         9.56617519e-02, -2.81358827e-02, -1.14921868e-01,
         9.70025454e-03,  8.15072656e-03, -4.05321494e-02,
         5.73806465e-03],
       [ 3.79357152e-02,  5.13503104e-02,  2.34096497e-03,
         5.26151881e-02,  4.40481566e-02,  1.89749971e-02,
        -1.73246174e-03, -3.82589474e-02,  3.86671796e-02,
         2.95793507e-02,  3.61687653e-02,  5.09597175e-02,
         4.83163930e-02,  4.12663482e-02,  1.42396139e-02,
        -1.44762263e-01, -1.75733771e-02,  7.47410208e-02,
         5.81042841e-02, -1.09888017e-02, -5.87207591e-03,
        -2.46947445e-02,  7.16770738e-02,  4.09124382e-02,
         1.70690473e-02,  4.88889851e-02,  3.47700454e-02,
         2.64519434e-02, -9.97093273e-04, -8.03915486e-02,
        -4.98155244e-02, -4.07386459e-02,  2.96527036e-02,
         6.45633228e-03,  1.69595908e-02, -9.02273729e-02,
         9.43892542e-03, -5.39026335e-02, -5.10243624e-02,
        -7.55210668e-02,  5.32647558e-02,  1.82138029e-02,
        -1.94146298e-02, -1.61612734e-01,  1.19912094e-02,
         1.82429664e-02,  3.39638069e-02, -1.53319677e-02,
         8.57799202e-02,  2.96465121e-02, -1.21471966e-02,
         5.55641428e-02, -1.55525524e-02,  5.22457995e-02,
        -7.43214861e-02,  7.98640326e-02,  5.46362549e-02,
         1.20106442e-02,  2.35244595e-02,  4.65752445e-02,
        -1.43690803e-03,  1.10639326e-01,  2.31281333e-02,
         1.00992443e-02, -8.18930864e-02, -1.03602009e-02,
         1.46237994e-02, -7.47527108e-02,  9.50674992e-03,
         1.51574351e-02, -5.79879358e-02,  2.14057304e-02,
        -7.64820874e-02,  3.11404176e-04,  6.41304478e-02,
         4.50921692e-02,  5.06456569e-02, -3.81416571e-03,
        -2.28091814e-02, -4.87919264e-02,  5.90034947e-02,
         1.50139946e-02, -7.74707226e-03,  6.30116239e-02,
         5.49926935e-03,  2.25793328e-02, -5.18531799e-02,
        -7.77827948e-03,  1.30419610e-02, -1.17481844e-02,
        -2.35615689e-02,  4.29371037e-02,  2.47693975e-02,
         5.32862954e-02,  5.66353686e-02, -1.73728559e-02,
         2.37933230e-02, -7.28668571e-02, -2.89046690e-02,
         5.78301661e-02],
       [-1.04077226e-02, -4.79647480e-02,  1.03937961e-01,
        -3.09059024e-02, -8.43263268e-02,  1.75496921e-01,
         6.88234642e-02, -3.63329910e-02, -1.13693280e-02,
         6.80983737e-02,  9.42439437e-02, -2.70043779e-02,
        -5.91529021e-03, -4.92895767e-02,  4.66300845e-02,
         1.30320042e-01,  6.42489642e-02,  6.18651733e-02,
        -7.90127441e-02,  9.02907271e-03,  4.27707238e-03,
         1.67477101e-01, -7.57909790e-02,  6.38160408e-02,
        -4.08401480e-03, -2.76245177e-02,  3.56210023e-02,
        -2.25345641e-02, -3.03019267e-02, -1.21717967e-01,
         3.88534442e-02, -1.44450674e-02,  1.59873337e-01,
        -2.95215491e-02, -7.58967102e-02,  3.64435501e-02,
        -1.96941480e-01, -1.97052620e-02,  1.07828401e-01,
         4.00389209e-02, -2.59985682e-02, -1.00050375e-01,
         1.91631511e-01,  1.28471524e-01,  3.12701389e-02,
         1.39923409e-01, -5.82173355e-02, -6.33158907e-02,
         6.60733283e-02,  9.71536618e-03,  5.87352589e-02,
        -6.22588582e-02,  2.13560134e-01, -5.82260489e-02,
        -5.89926429e-02, -8.40640441e-02, -1.17216948e-02,
        -9.76958051e-02, -4.61113192e-02,  5.86684272e-02,
        -1.23523191e-01, -4.25242074e-02,  3.53705138e-02,
        -7.03911949e-03,  1.07346132e-01, -9.72131174e-03,
         7.36193061e-02,  1.93419605e-01,  9.14196074e-02,
         5.63470386e-02,  1.25677988e-01,  5.51762842e-02,
        -8.71533826e-02, -1.50062339e-02,  3.09867617e-02,
        -6.84864372e-02,  8.49982910e-03,  1.27664711e-02,
        -2.34234817e-02,  8.10352787e-02, -1.30752940e-03,
        -1.14306796e-03, -9.46987271e-02,  3.16248685e-02,
        -1.56351458e-02,  1.36747276e-02,  5.29930145e-02,
         2.99824774e-02,  4.66868654e-02,  3.52458283e-02,
        -1.02346905e-01, -2.44985092e-02, -1.03369392e-01,
        -8.88417959e-02,  1.99374128e-02,  3.13842250e-03,
         8.42081457e-02,  6.03526011e-02,  2.05733385e-02,
        -1.20542524e-02],
       [-2.83703387e-01,  2.75739998e-01,  4.62752223e-01,
        -5.56550562e-01, -2.43722901e-01,  7.16847539e-01,
        -4.37843144e-01,  2.90776044e-01,  4.00642127e-01,
        -2.49824002e-01, -1.81767121e-01, -3.49666923e-01,
         1.64687887e-01,  3.01418751e-01,  4.28402796e-03,
         5.65118313e-01, -5.39369620e-02, -3.57339650e-01,
        -3.48240912e-01, -1.67630449e-01,  4.34001893e-01,
         3.41466516e-01, -1.19233489e-01, -2.62267470e-01,
         3.85438979e-01, -2.52301812e-01, -1.95458919e-01,
        -4.98136491e-01,  1.40833795e-01,  1.42458349e-01,
        -3.32729071e-02,  8.28206912e-02,  4.45644826e-01,
         5.35351753e-01,  2.95253694e-01,  3.94903682e-02,
        -1.99334592e-01,  3.56461704e-02,  1.19228199e-01,
        -9.21783969e-02, -3.71080816e-01, -7.02374339e-01,
         1.25160933e-01,  2.52082080e-01, -4.73003983e-01,
         1.90088242e-01, -7.39151061e-01,  3.99856955e-01,
        -3.56670678e-01,  4.52913314e-01, -4.40835804e-01,
        -4.04920578e-01,  3.54773641e-01,  2.14162722e-01,
        -1.57937437e-01, -5.26243448e-01,  2.03137487e-01,
        -4.56158519e-01,  4.23676744e-02,  7.21770450e-02,
        -8.20375621e-01, -1.26691791e-03, -5.48218906e-01,
        -5.13437092e-01,  6.83354318e-01,  3.03478152e-01,
         5.85426867e-01,  4.99854833e-01,  1.16101727e-01,
        -1.03871124e-02,  2.63824999e-01,  1.76285714e-01,
        -1.62575066e-01,  9.74465385e-02,  1.34467244e-01,
        -5.27140796e-02, -3.74005139e-01,  1.16220675e-01,
        -4.12340373e-01,  3.35205734e-01, -1.78209871e-01,
        -6.96271136e-02,  1.12746783e-01, -9.43479314e-02,
         2.41978854e-01,  3.74869019e-01,  3.72342616e-01,
         4.60132211e-01, -6.34963036e-01, -1.40301630e-01,
        -4.19996828e-01, -2.99092948e-01, -1.56251222e-01,
        -5.39444387e-01,  2.00306505e-01,  1.70989871e-01,
        -2.51288980e-01,  1.64623916e-01,  2.78690964e-01,
         8.29204731e-03],
       [ 1.15786642e-01, -9.69807878e-02, -2.27563590e-01,
         3.56621891e-01, -4.48734686e-02, -3.44147801e-01,
         1.17469542e-01, -2.11504474e-01, -3.56563479e-01,
         2.17621908e-01,  3.53565276e-01, -2.09147371e-02,
        -1.69991091e-01, -4.48032022e-01,  2.86617756e-01,
        -4.07909036e-01,  1.45006523e-01,  4.58835140e-02,
         4.83211651e-02,  5.53815104e-02, -1.15012534e-01,
         6.32457733e-02, -1.44123539e-01,  3.34330797e-02,
        -1.95663005e-01,  6.50264919e-02, -6.65805861e-02,
         1.86073795e-01,  3.20066139e-03, -3.20193246e-02,
         8.80287737e-02,  1.28132418e-01, -1.65785730e-01,
        -2.43228063e-01, -4.37811702e-01, -5.40120201e-03,
        -2.32991278e-01, -3.11213657e-02,  1.17085472e-01,
         2.58148581e-01,  9.56021547e-02,  2.79642582e-01,
         1.95076168e-02, -1.91783443e-01,  1.07496686e-01,
         1.33314133e-01,  2.79495955e-01, -3.63311410e-01,
         6.50084615e-02, -7.22631216e-02,  1.22973792e-01,
         1.07229009e-01,  1.71984121e-01, -1.78293332e-01,
         1.47717461e-01,  4.74813133e-02, -4.28035259e-02,
         1.83695674e-01, -2.68503390e-02, -1.52772725e-01,
         7.56189048e-01, -1.71139419e-01,  3.74107867e-01,
         1.85584158e-01, -2.33951718e-01, -4.50043045e-02,
        -2.97854334e-01, -1.36638954e-01,  1.76944226e-01,
         2.38325030e-01, -5.56141511e-02, -2.12181285e-02,
         1.32188633e-01, -2.00219750e-01,  1.62728623e-01,
        -2.14066997e-01,  9.22296941e-02, -2.76982393e-02,
         3.02573480e-03, -2.38877565e-01,  1.10567566e-02,
        -8.32898393e-02,  4.61227186e-02, -5.35398349e-02,
        -2.64732808e-01, -3.30210239e-01, -3.80081654e-01,
        -2.57013828e-01,  2.93079048e-01, -7.39566386e-02,
         9.15185064e-02, -2.89934389e-02,  1.40823975e-01,
         1.61945462e-01,  4.82972115e-02, -3.17186236e-01,
         6.59640729e-02, -2.81211622e-02, -1.29667550e-01,
        -1.40702993e-01],
       [ 5.74788526e-02, -1.36588886e-02,  6.24397732e-02,
        -1.14817973e-02,  5.46138212e-02, -1.89394671e-02,
        -7.46031338e-03,  4.93616648e-02,  5.17043620e-02,
         1.72866546e-02, -6.43693879e-02,  6.87221140e-02,
         7.10284039e-02,  1.76200981e-03,  2.93650199e-02,
        -5.36007509e-02, -3.65213677e-02, -3.17270383e-02,
         2.51139142e-02, -9.44825355e-03,  2.67574415e-02,
         4.72519770e-02,  5.86294606e-02, -6.38471469e-02,
        -6.20669201e-02,  4.44689244e-02, -1.63544454e-02,
         1.53581491e-02, -1.88307855e-02, -1.37425914e-01,
        -2.88745612e-02, -9.64704715e-03,  3.89743745e-02,
        -4.12013568e-02,  6.42052740e-02, -7.44433105e-02,
        -9.38997138e-03,  1.95152743e-03,  4.72779907e-02,
        -8.90437141e-02, -4.70644468e-03,  8.06308985e-02,
        -1.45118628e-02, -1.14054322e-01, -8.19212478e-03,
        -2.31570341e-02, -2.70779058e-02,  8.48078877e-02,
        -3.10110189e-02, -9.21209436e-03,  4.38812450e-02,
        -3.48774046e-02, -2.52764374e-02, -1.94442831e-02,
        -9.23494026e-02,  2.66564055e-03,  5.86834317e-03,
         6.78684795e-03, -2.11422890e-02, -3.77126187e-02,
        -5.51322140e-02,  8.87547135e-02, -4.98603098e-02,
         4.79231067e-02, -1.18591927e-01,  3.18977609e-02,
        -6.41364753e-02, -1.20432414e-02, -1.51707353e-02,
        -5.11766151e-02, -8.49651992e-02,  7.37596378e-02,
        -9.84854102e-02, -3.55667509e-02,  6.50051236e-02,
         1.28460422e-01, -3.63869569e-03, -1.22568095e-02,
        -6.40814193e-04,  1.12630054e-02,  5.05221486e-02,
         2.48463862e-02, -3.13646868e-02,  3.20830755e-02,
         6.66536689e-02,  2.19948702e-02,  6.86522201e-02,
         3.59531343e-02, -6.01246953e-02,  3.58379781e-02,
         1.69117842e-02,  7.81807955e-03, -8.07462353e-03,
         4.68040518e-02,  2.72313114e-02,  3.20922621e-02,
        -2.87509803e-02, -4.58581038e-02, -3.19940187e-02,
         3.74700241e-02],
       [-6.81477934e-02,  9.07546803e-02, -5.51289469e-02,
         2.37515345e-02, -5.53476885e-02, -9.46644545e-02,
        -4.28839121e-04, -1.28032669e-01, -6.98741078e-02,
        -2.03230549e-02,  5.96217215e-02,  4.61811572e-02,
        -8.51752535e-02, -1.83248088e-01,  5.14038913e-02,
        -1.36176512e-01, -1.85180698e-02, -1.07463844e-01,
        -9.62217897e-02,  3.56204659e-02, -8.41447711e-02,
         2.16045994e-02, -1.08088568e-01, -1.00872368e-01,
         2.37759631e-02,  1.12344567e-02,  1.51783489e-02,
        -1.77001655e-02,  4.34549786e-02,  8.88418257e-02,
        -4.32385467e-02,  8.22932720e-02, -1.22780100e-01,
        -4.18377370e-02, -1.15340777e-01, -1.02742903e-01,
         2.68947072e-02, -6.78614825e-02, -5.10844365e-02,
        -1.84956249e-02, -1.37547888e-02,  9.03386697e-02,
        -1.36060482e-02, -1.23136446e-01,  3.01386206e-03,
        -5.03007919e-02,  4.20309231e-02, -6.19425923e-02,
        -2.65659522e-02,  6.94638758e-04, -5.36911041e-02,
        -5.78960869e-03, -1.71956137e-01,  6.64018691e-02,
        -3.69165279e-02,  5.83590306e-02, -7.62137100e-02,
         4.65578586e-02, -6.26454428e-02, -4.94294688e-02,
         4.01195705e-01, -9.86227542e-02,  3.91857661e-02,
         2.27830140e-03,  5.74544705e-02,  1.19618587e-01,
        -1.00281887e-01, -1.68930948e-01, -5.93077056e-02,
        -2.36797538e-02,  1.40596945e-02, -3.34788151e-02,
         2.41202712e-02, -4.61999401e-02,  6.35071844e-02,
        -3.23168524e-02,  3.02977487e-02,  4.26076613e-02,
         5.44278100e-02, -1.27917752e-01, -7.56222680e-02,
         5.09375660e-03,  7.74321631e-02, -1.80322621e-02,
         6.89488500e-02,  9.05115344e-03, -1.01953559e-02,
        -8.54556486e-02, -2.91029876e-03, -1.00357927e-01,
         3.39173549e-03, -8.06865096e-03,  1.07010834e-01,
         4.42528613e-02, -3.68581451e-02, -8.09744373e-02,
         2.58898158e-02, -2.38864105e-02,  3.10580004e-02,
        -8.20437679e-04],
       [ 3.13929878e-02, -1.39376000e-01,  3.18324193e-02,
        -4.29022796e-02,  5.44183068e-02,  1.44558504e-01,
         6.11731037e-02, -1.86333116e-02,  1.40141714e-02,
        -2.67507248e-02, -4.39156033e-02,  2.72991173e-02,
         2.11734306e-02,  6.25806078e-02,  1.56557299e-02,
         1.75797701e-01, -8.64462778e-02,  1.10010050e-01,
         3.65886725e-02,  4.06636111e-02,  4.67495620e-02,
         3.94662283e-02,  7.61399642e-02,  2.84083299e-02,
        -2.03690585e-02,  1.13785090e-02, -1.04681607e-02,
         6.10876493e-02, -4.07451056e-02, -1.49778754e-01,
         1.85279995e-02, -8.58462527e-02,  1.01599231e-01,
        -2.06898730e-02,  3.82192545e-02,  9.48022008e-02,
        -1.10955827e-01,  4.42151800e-02,  8.10227990e-02,
         7.47759864e-02,  2.75603253e-02, -2.00454146e-03,
         9.38455313e-02,  1.48850912e-02, -5.56026846e-02,
        -2.43807137e-02, -9.00704190e-02,  2.96158064e-02,
         1.99209875e-03, -3.25146690e-02,  6.64806515e-02,
        -4.95951138e-02,  1.08533762e-01, -8.35191831e-03,
        -6.07284904e-02, -1.88369714e-02,  5.38164675e-02,
        -7.46653229e-02, -1.41438339e-02,  1.72638148e-02,
        -3.24702859e-01,  8.50032717e-02,  1.21012540e-03,
        -2.36255908e-03, -3.07716113e-02, -4.42658961e-02,
         4.69069481e-02,  1.63374647e-01,  3.73169221e-02,
         5.04100770e-02,  1.02005266e-02,  7.77747482e-02,
        -7.09069222e-02,  4.40811440e-02,  1.66173093e-03,
         2.85108238e-02,  3.98012064e-02, -3.53062376e-02,
        -1.27277970e-02,  1.64335415e-01,  3.26697752e-02,
         3.98664773e-02, -7.09806904e-02,  5.29596675e-03,
         9.50990058e-03,  5.52595546e-03,  2.17970330e-02,
        -6.30016811e-03, -6.00916194e-03,  6.87025264e-02,
         5.18489182e-02,  6.45805299e-02, -1.83481574e-02,
        -3.22888531e-02,  1.10516906e-01,  8.66417959e-02,
        -3.71650904e-02,  6.47074135e-04,  5.35869272e-03,
        -5.27007245e-02],
       [ 1.57596637e-03,  3.58473957e-02, -6.97628632e-02,
        -2.62701772e-02, -3.32054384e-02, -1.30191818e-01,
        -7.16398982e-03, -5.09509854e-02, -2.89037246e-02,
        -2.42440104e-02,  4.55464382e-04,  1.25241047e-02,
        -1.18838303e-01, -1.31384149e-01, -1.77406222e-02,
        -1.80733547e-01,  4.54045497e-02, -1.53106242e-01,
        -1.01401746e-01,  1.20703960e-02, -4.80031222e-02,
         2.07803212e-02, -7.23648295e-02, -4.66354229e-02,
         3.47830094e-02, -2.13051178e-02, -3.12652849e-02,
        -2.30178218e-02,  5.89350872e-02,  1.22152783e-01,
        -1.10132314e-01,  5.73775023e-02, -9.32005122e-02,
        -1.00659961e-02, -1.06031202e-01, -1.98192392e-02,
         1.28138393e-01, -2.05386430e-02,  1.45853097e-02,
        -9.00644436e-03,  4.48540673e-02,  1.00523673e-01,
        -3.65047753e-02, -3.24390233e-02,  7.79581740e-02,
        -4.90424447e-02,  7.77944997e-02, -9.19206217e-02,
        -7.49759600e-02,  5.90965617e-04, -8.28648880e-02,
         1.11665074e-02, -2.35213786e-01, -1.40853506e-02,
         1.02156270e-02,  1.20777674e-01, -3.85335274e-02,
         2.61684321e-02,  8.46124999e-03, -6.77077174e-02,
         4.48202163e-01, -4.78432029e-02,  3.48830037e-02,
        -6.87315613e-02,  8.31778720e-02,  5.89122474e-02,
        -1.56731427e-01, -2.31713980e-01, -2.81535741e-02,
        -4.28247005e-02, -9.25986692e-02, -8.45342577e-02,
        -2.84298714e-02, -2.89917663e-02,  1.36414886e-01,
         4.52922285e-02,  4.50845435e-02, -4.32575345e-02,
        -3.04181837e-02, -1.16078362e-01, -2.71348748e-02,
        -3.44777815e-02,  1.17179332e-02,  2.90951766e-02,
         1.13419201e-02, -6.11560345e-02, -1.83297209e-02,
        -1.84051301e-02, -4.81214114e-02, -1.23405613e-01,
        -1.17823472e-02, -6.13911115e-02,  6.99838772e-02,
         6.42477646e-02, -3.77913751e-02, -5.42330295e-02,
         4.16734703e-02, -2.18641516e-02,  2.15632562e-02,
         7.55411088e-02],
       [ 1.91891715e-02,  2.35302728e-02,  1.16283186e-02,
         1.79330297e-02,  6.24475256e-03, -2.06184704e-02,
         2.80444585e-02, -3.34837995e-02,  1.95155106e-02,
         7.63710588e-03,  3.58360782e-02,  4.85340394e-02,
         8.55894610e-02,  8.30574632e-02, -2.99613159e-02,
        -7.37496614e-02, -1.67123799e-04, -1.13989441e-02,
         1.50884618e-03,  3.51667926e-02,  1.89538691e-02,
         3.46650742e-02,  7.83378351e-03,  3.12850997e-03,
        -1.09939780e-02,  2.10620370e-02, -2.03822535e-02,
         5.12898639e-02, -1.10433241e-02, -7.09262192e-02,
         3.09771225e-02, -2.44146995e-02,  3.41833830e-02,
         1.56503394e-02, -9.60272644e-03, -1.39658526e-01,
        -4.63964120e-02,  5.68808243e-03,  3.57412063e-02,
         2.63046920e-02,  7.26094283e-03,  5.36887348e-03,
        -1.81117933e-02, -1.58201665e-01,  1.68050732e-02,
         6.54888302e-02, -9.31998435e-03,  6.18736707e-02,
         2.96541732e-02,  4.29384522e-02, -3.66908051e-02,
         1.80120356e-02, -1.81487836e-02, -3.21214162e-02,
        -3.12798582e-02,  1.25809689e-03,  7.53350509e-03,
         6.76953793e-02,  1.47557613e-02,  4.12465371e-02,
         2.60637105e-02,  6.08869307e-02, -1.35653969e-02,
         2.98765302e-02, -9.10163915e-04,  3.20497453e-02,
         4.92928587e-02, -7.34440833e-02, -3.95424245e-03,
         1.38967521e-02,  1.29996669e-02,  3.20843048e-02,
        -4.73483391e-02,  6.96996748e-02,  7.45536685e-02,
         4.44278345e-02, -6.53571030e-03, -2.06314307e-02,
         5.03420904e-02, -4.56603877e-02,  1.82382409e-02,
        -2.34897081e-02, -5.40267304e-02, -7.24501768e-03,
         8.29658657e-02,  3.43964738e-03,  2.71098446e-02,
        -4.42675576e-02,  5.65478876e-02,  4.62093912e-02,
        -3.68057191e-02, -3.93863246e-02,  2.72368696e-02,
        -6.07935246e-03,  7.61068985e-02,  3.79479975e-02,
         2.01617107e-02, -4.10362966e-02,  2.34347079e-02,
         9.13666841e-03],
       [ 3.54971774e-02, -2.29153819e-02,  1.18289098e-01,
        -3.50300930e-02,  1.45937046e-02,  4.66162451e-02,
         7.46256346e-03,  4.04229946e-03,  5.33023067e-02,
        -1.75278112e-02,  3.96702588e-02, -8.92419275e-03,
        -1.23829599e-02, -1.98783930e-02,  1.61869470e-02,
         4.49034870e-02, -7.06657991e-02,  8.25954676e-02,
        -3.30300331e-02, -5.24788499e-02, -4.04920764e-02,
         1.01630829e-01,  6.16331436e-02,  3.30914464e-03,
         3.62771004e-02,  1.37959957e-01, -1.77621227e-02,
         6.51113838e-02, -9.91417617e-02, -1.84163749e-01,
        -3.85769904e-02,  6.49008751e-02,  8.01535510e-03,
        -1.15411192e-01,  6.90301284e-02,  6.27810135e-02,
        -9.09352079e-02,  5.07193580e-02,  2.71327123e-02,
        -5.38633624e-03, -5.46300225e-02, -3.55428755e-02,
         5.07236831e-02,  5.49349114e-02, -7.03422576e-02,
         7.32779205e-02, -6.25300556e-02, -4.18674313e-02,
        -3.78660411e-02,  2.36229468e-02,  4.89012524e-02,
        -6.09419607e-02,  1.21462919e-01, -3.37951481e-02,
        -5.78579083e-02,  2.10770871e-02, -9.23619419e-02,
        -8.51944089e-03, -4.69177179e-02, -3.27862911e-02,
        -1.49911895e-01,  4.99631688e-02, -8.66207480e-02,
        -2.69505335e-03,  1.36430755e-01, -5.90176061e-02,
         4.80415374e-02,  1.51192218e-01,  4.09087054e-02,
        -1.14826197e-02, -7.01430514e-02,  8.79352614e-02,
        -1.00535311e-01, -8.22541267e-02,  7.58040249e-02,
         8.25947672e-02, -8.20393860e-02, -2.50543728e-02,
        -8.42920691e-02,  6.01710612e-03,  5.08401804e-02,
         5.66480346e-02, -3.81265841e-02,  9.62068327e-03,
         5.15005104e-02,  4.94057909e-02,  1.74608864e-02,
         1.94342379e-02,  3.14574912e-02,  1.11664042e-01,
        -5.05983233e-02,  1.02296196e-01, -1.17101930e-02,
        -4.02161814e-02,  1.08422907e-02, -7.73641244e-02,
         2.74309386e-02,  3.89525816e-02, -2.97185518e-02,
        -7.20188841e-02],
       [ 8.13503936e-02,  1.75245926e-01,  2.27664579e-02,
        -2.53783107e-01,  1.01892509e-01,  2.79060125e-01,
        -6.36139587e-02,  3.39783221e-01,  3.36299121e-01,
        -2.27312431e-01, -1.14538692e-01,  3.25648971e-02,
         2.91628033e-01,  5.61067641e-01, -3.34659934e-01,
         5.46129167e-01, -1.05886973e-01,  1.01929240e-01,
         7.57922530e-02,  2.82671377e-02,  2.18669474e-01,
         5.14251441e-02,  1.70445070e-01,  2.76986752e-02,
         3.43785375e-01, -5.48735224e-02, -1.60947200e-02,
         4.66741994e-02, -3.31066027e-02,  2.86153316e-01,
        -3.55927646e-02, -2.31939062e-01,  1.66180909e-01,
         4.86127079e-01,  4.53143448e-01,  5.72620220e-02,
         1.59541890e-01, -1.43737569e-01, -3.03853929e-01,
        -3.79511833e-01,  4.82208543e-02, -7.93808699e-02,
         2.22734272e-01,  2.73072153e-01, -8.46397653e-02,
        -3.52329761e-01, -3.54153723e-01,  7.86796659e-02,
         3.14401418e-01, -1.26133244e-02, -1.32727593e-01,
         1.75515702e-03,  8.04704651e-02,  7.76489824e-03,
        -1.78057909e-01, -4.02165055e-01,  7.77162239e-02,
        -2.36523654e-02,  1.52165905e-01,  3.05427283e-01,
        -1.04030895e+00,  1.96361914e-01, -7.24614412e-02,
         9.25030559e-02,  2.13055521e-01, -8.91444907e-02,
         4.02236879e-01,  1.94009423e-01, -2.23535120e-01,
        -1.31224751e-01,  1.48423046e-01, -1.34245366e-01,
         1.78601146e-01,  1.63975403e-01, -4.18239772e-01,
         1.56833664e-01, -5.44345006e-03,  9.50009078e-02,
        -1.27382517e-01,  3.58855963e-01,  9.85229015e-03,
        -5.56256287e-02,  4.77934107e-02,  2.03723572e-02,
         8.42259079e-02,  4.19674605e-01, -2.37013567e-02,
         4.12386239e-01, -2.65845448e-01,  5.19898459e-02,
         1.37828827e-01,  7.31546432e-02, -1.56090245e-01,
        -1.24647856e-01, -2.83746690e-01,  2.06573084e-01,
         3.67064737e-02,  4.77123745e-02, -2.54583303e-02,
         3.11790984e-02],
       [-2.89934594e-02, -4.11354899e-02, -2.10361958e-01,
         2.42138132e-01, -9.06978399e-02, -2.14804202e-01,
        -6.85901567e-02, -2.46202737e-01, -1.73084304e-01,
         2.30782144e-02, -1.20071478e-01, -6.04766468e-03,
        -3.06521595e-01, -4.19215798e-01,  2.24508569e-01,
        -5.00278175e-01,  8.90680030e-02, -1.49180993e-01,
        -2.78349727e-01, -1.88576877e-01, -6.72708005e-02,
         6.95795715e-02, -8.46608654e-02, -2.49770492e-01,
        -1.72175229e-01,  3.07397366e-01,  1.08980564e-02,
         1.04598843e-01,  2.56935637e-02, -6.78005666e-02,
        -1.01481609e-01,  9.51742753e-02, -1.83799028e-01,
        -1.63153678e-01, -1.13876455e-01, -2.22810786e-02,
        -1.85391560e-01,  1.60878837e-01,  2.43678391e-01,
         5.77688739e-02,  2.17210595e-02,  1.56799227e-01,
        -2.02527240e-01, -1.76459312e-01,  1.75440703e-02,
         3.92714709e-01,  2.04904333e-01, -2.81535685e-02,
        -4.34384435e-01,  1.32461190e-01,  9.97941643e-02,
        -1.68858334e-01, -1.33107886e-01,  4.95991968e-02,
         5.53345867e-02,  4.25408900e-01,  8.65271129e-03,
         6.68889582e-02, -9.24691185e-02, -3.43097866e-01,
         8.03204536e-01,  2.60090325e-02, -9.73415822e-02,
        -1.10659212e-01, -1.12191923e-01,  2.20502988e-02,
        -3.51910561e-01, -4.57091257e-02,  1.12995401e-01,
         1.82869900e-02, -3.99331599e-01,  1.75411552e-01,
        -4.73430812e-01, -1.78037658e-01,  3.00435096e-01,
         1.43085182e-01, -1.24939449e-01, -1.13749534e-01,
         2.31682193e-02, -4.06819224e-01,  1.63169876e-01,
         3.09886076e-02, -4.44874866e-03, -3.59363519e-02,
         3.00336955e-03, -3.72001112e-01, -1.66819375e-02,
        -2.34170109e-01, -3.79569083e-02, -5.32670766e-02,
         1.01722497e-03,  1.08267749e-02,  2.33996421e-01,
         5.80387190e-02,  1.66373223e-01, -1.11827105e-01,
        -2.58482285e-02, -9.68727544e-02,  1.00610100e-01,
         1.25837609e-01],
       [-4.04318199e-02,  8.43827724e-02,  7.48402998e-02,
        -4.19865176e-02, -7.40389200e-03,  5.86508885e-02,
        -3.13195065e-02, -5.67830168e-02, -2.70251073e-02,
         5.66739663e-02, -2.11691074e-02, -3.02166864e-02,
        -7.27155525e-03,  9.94150899e-03,  1.77523326e-02,
        -2.21434124e-02, -2.27649324e-02,  1.00550521e-02,
         3.66237871e-02,  7.41268620e-02,  4.17086482e-02,
        -6.88301772e-02,  5.04820654e-03,  3.86966169e-02,
        -1.21863524e-03, -5.82889393e-02,  4.25866619e-02,
         3.40031646e-02, -9.39103030e-03, -3.18454280e-02,
        -1.26776816e-02, -1.06922671e-01,  1.16008513e-01,
        -4.02758382e-02,  4.92612384e-02, -2.06455197e-02,
         1.12544848e-02, -7.66999349e-02,  5.38147092e-02,
         4.79515977e-02,  4.32266742e-02,  1.23835295e-01,
        -6.95040375e-02, -7.93381259e-02,  4.93367761e-02,
         8.65416080e-02,  8.29130411e-02, -3.95470939e-04,
         4.85580647e-03, -5.54186516e-02,  4.91067767e-02,
         7.98981413e-02, -2.34525315e-02,  5.01123816e-02,
        -6.36267066e-02,  9.38505959e-03,  1.32229673e-02,
        -5.34791648e-02, -2.69819479e-02,  1.02427453e-02,
        -5.64834177e-02,  1.99713605e-03,  6.58678412e-02,
         9.49564390e-03, -5.45027331e-02, -2.18722224e-02,
         6.17448911e-02, -1.39196059e-02, -6.96202274e-03,
        -3.44356038e-02,  2.19715424e-02,  5.93744181e-02,
        -9.84094106e-03, -3.90017591e-02, -4.93952958e-03,
        -1.65038761e-02,  4.03967872e-03, -5.60452156e-02,
         2.14470681e-02,  2.34243460e-02,  2.33018156e-02,
         8.36247429e-02, -9.18161497e-02,  1.78051051e-02,
        -1.02093546e-02, -7.61137810e-03,  4.81047034e-02,
        -3.42929401e-02,  6.78381100e-02,  4.59821038e-02,
         3.88361444e-03,  1.73125919e-02,  1.08164512e-02,
         7.54223391e-02,  7.26103932e-02, -5.38072139e-02,
        -6.23758556e-03, -6.95751235e-03, -9.57780983e-03,
         2.88032237e-02],
       [ 3.32418606e-02,  1.13759689e-01, -2.25052871e-02,
        -3.10115032e-02,  2.89319374e-04, -7.71641210e-02,
        -9.20800045e-02, -5.14301062e-02, -6.22554049e-02,
        -2.85264999e-02, -2.88547929e-02, -3.31463665e-02,
        -7.13912249e-02, -1.16587058e-01,  1.62343420e-02,
        -1.31533921e-01,  7.95576200e-02, -1.63331673e-01,
        -9.90852118e-02, -2.51819137e-02, -5.94154112e-02,
        -4.53736726e-03, -9.30013433e-02, -2.64975075e-02,
         1.16187218e-03, -2.65268832e-02, -3.04622315e-02,
        -4.90537733e-02,  2.67967582e-02,  1.06975920e-01,
        -5.89893423e-02,  1.14144281e-01, -1.39724359e-01,
        -4.95243631e-02, -3.70371118e-02, -6.14993908e-02,
         5.27225621e-02, -2.20815297e-02,  1.05757732e-02,
        -2.86603309e-02, -1.60289127e-02,  5.51149389e-03,
        -4.33296189e-02, -5.27625903e-02, -2.42644753e-02,
        -5.13722040e-02,  1.11184210e-01, -4.11656275e-02,
        -5.24645671e-02, -5.89299854e-03, -1.18584856e-02,
        -1.58973765e-02, -1.51603669e-01,  2.98961438e-03,
        -6.41613686e-03,  1.28586069e-01,  1.36788245e-02,
         1.15431964e-01, -6.39978796e-02, -3.05187386e-02,
         3.52014780e-01,  4.38240869e-03, -1.34420134e-02,
        -2.37889513e-02,  7.38650039e-02, -7.20823184e-03,
        -5.32420389e-02, -1.28109798e-01, -7.80541152e-02,
        -9.15293097e-02, -8.60199630e-02, -6.48585930e-02,
         3.41047719e-02, -3.36918011e-02,  1.05822068e-02,
         6.07009269e-02, -5.18078357e-03,  1.35456994e-02,
         3.90761755e-02, -1.42253309e-01,  1.32559426e-02,
        -7.48318359e-02,  2.64504980e-02,  3.82604897e-02,
        -1.15608489e-02, -4.95705269e-02, -1.78869851e-02,
        -3.03922873e-02, -5.87102063e-02, -1.50023654e-01,
         2.45339163e-02,  3.29697728e-02,  1.85643099e-02,
         2.86390856e-02, -7.77702406e-02, -5.41159734e-02,
         4.15785126e-02, -8.26959591e-03, -5.72315827e-02,
         3.85202318e-02],
       [ 5.61876893e-02, -1.27692461e-01,  2.05920432e-02,
        -3.78544554e-02, -1.27651896e-02,  8.33498016e-02,
         4.69170464e-03, -2.52087452e-02,  3.89119945e-02,
         2.36840476e-03, -7.50260353e-02, -2.55821329e-02,
         2.06965078e-02,  6.18132427e-02,  2.06862614e-02,
         1.24023929e-01, -2.23398376e-02,  1.02261484e-01,
         7.24335834e-02,  2.51441784e-02,  3.72345746e-02,
         4.28706259e-02, -6.90118317e-03,  7.65071213e-02,
        -7.07324455e-03,  3.56191695e-02,  1.64200589e-02,
         8.93762708e-02, -9.08473209e-02, -1.30533770e-01,
         4.71029151e-03, -8.58367607e-02,  4.28363420e-02,
        -9.73531306e-02,  7.94733092e-02,  7.93970376e-02,
        -1.25816613e-01,  3.85527909e-02,  9.55085978e-02,
         7.16819689e-02,  2.57005710e-02,  2.40650941e-02,
         8.68435353e-02,  5.89413755e-02, -5.70608526e-02,
        -1.68729816e-02,  2.02185940e-02,  5.94359599e-02,
        -1.63662657e-02, -6.82508051e-02,  4.29520495e-02,
        -7.56570697e-03,  1.66804239e-01, -2.71755345e-02,
        -8.40579532e-03, -9.06856060e-02, -3.10134987e-04,
        -4.75020036e-02, -3.95625867e-02,  2.60644928e-02,
        -2.34464467e-01,  4.05014083e-02,  3.30224521e-02,
         3.86456549e-02, -3.44636943e-03, -2.77901758e-02,
         2.20163595e-02,  8.67991596e-02,  6.93600625e-02,
        -7.64682516e-03,  6.55444339e-02,  1.26079217e-01,
        -7.92547222e-03, -3.58553715e-02, -1.07164457e-02,
        -2.30995892e-03,  7.71316607e-03, -2.12547723e-02,
        -1.11336693e-01,  6.06180988e-02,  3.21194269e-02,
         1.62315108e-02, -6.15834296e-02, -7.20880628e-02,
        -9.59195290e-03,  2.37823948e-02,  6.84445649e-02,
         2.60391384e-02,  9.43500735e-03,  1.19332038e-01,
        -4.27035950e-02,  7.24148452e-02, -1.08248003e-01,
        -4.07541618e-02,  6.29227459e-02,  1.04798228e-02,
         2.55744476e-02,  8.76322985e-02,  1.46969082e-02,
        -8.80098790e-02],
       [-6.15994856e-02,  6.12839647e-02, -1.16916202e-01,
        -5.21281920e-02, -7.86837637e-02, -1.68699995e-01,
        -9.54036936e-02,  3.58570158e-03, -3.08908205e-02,
         5.41708572e-03,  5.41962273e-02, -6.41632602e-02,
        -3.53570208e-02, -6.59089684e-02,  4.59211878e-02,
        -9.08277184e-02, -2.18361826e-03, -1.00471124e-01,
        -4.88060787e-02, -3.64391878e-02, -9.08740517e-03,
        -1.55264065e-02, -2.09030546e-02, -1.01903036e-01,
         3.71946469e-02,  2.10786015e-02, -1.76073015e-02,
        -8.32413882e-03,  8.81322250e-02,  1.46362096e-01,
        -8.81829858e-02,  7.98576623e-02, -6.50407076e-02,
         4.54810597e-02, -1.01480000e-01, -2.07965448e-03,
         2.92116459e-02,  6.84886379e-03,  3.06634009e-02,
        -4.21767123e-02, -4.08877060e-02,  3.94533202e-02,
        -6.85849190e-02, -3.22549641e-02,  3.10811512e-02,
         1.41161552e-03,  9.94804651e-02, -2.52807718e-02,
         2.50046956e-03,  3.26983668e-02, -8.78973231e-02,
        -1.25009101e-02, -1.59558609e-01,  5.64733855e-02,
         1.40129048e-02,  9.06679630e-02, -3.08287814e-02,
         6.02679923e-02, -1.75814088e-02, -7.10247457e-02,
         2.77418405e-01, -4.62061949e-02, -3.08445096e-02,
         5.25105232e-03,  2.30185036e-02,  3.10288910e-02,
        -8.91632438e-02, -2.19623342e-01, -5.81998378e-02,
        -9.18245763e-02, -6.33750409e-02, -1.00239277e-01,
         7.98686519e-02,  1.39096407e-02,  2.97805928e-02,
        -2.17483044e-02, -2.24224646e-02,  6.63718209e-02,
         6.28662929e-02, -1.06125757e-01, -6.82017282e-02,
        -7.31420964e-02,  5.36824055e-02,  1.21465391e-02,
         3.23957540e-02, -2.13981774e-02, -4.24942002e-03,
         6.98711118e-03, -5.25363684e-02, -1.28447577e-01,
        -3.86756696e-02, -2.77831480e-02,  3.64053696e-02,
         5.56626320e-02, -6.55786246e-02, -7.72417635e-02,
         3.76577713e-02, -7.80398995e-02,  1.26248160e-02,
         7.61935860e-02],
       [ 1.32809458e-02,  3.77596579e-02,  5.24612479e-02,
        -1.90397426e-02,  6.03712797e-02, -4.11652103e-02,
        -2.64724195e-02, -2.07378473e-02,  7.00120777e-02,
         3.19871493e-02,  3.00770160e-02,  1.10188294e-02,
        -5.66690555e-03,  8.54016095e-02,  4.03931215e-02,
        -9.97844636e-02, -1.04087442e-02,  3.57507989e-02,
         1.90367866e-02,  2.84855608e-02,  4.78829965e-02,
        -3.09744906e-02,  4.77212518e-02,  3.23311128e-02,
         1.57751292e-02, -4.49146703e-02,  3.78331579e-02,
        -3.29626608e-03, -4.81609441e-02, -6.89811110e-02,
        -1.96558442e-02,  3.11992392e-02,  2.61939745e-02,
         2.73801596e-03,  2.93260347e-02, -1.01103269e-01,
        -4.17758673e-02, -2.60823444e-02,  3.46515290e-02,
         1.64168309e-02, -9.44806356e-03,  9.61769819e-02,
        -4.36550193e-02, -1.55878767e-01,  3.66467535e-02,
        -3.56885269e-02,  3.48252356e-02,  3.79908979e-02,
         6.16949648e-02,  3.09093911e-02,  6.06431738e-02,
        -2.73379069e-02, -4.89402004e-02,  5.66598214e-02,
         8.05090275e-03,  5.83735555e-02,  1.80124175e-02,
         1.20405154e-02,  3.81145366e-02,  2.39558797e-02,
        -2.23473273e-02,  8.88631716e-02, -7.23965913e-02,
         5.58631122e-02, -9.53296293e-03, -5.71895093e-02,
        -5.03089540e-02, -4.10657376e-02,  3.09203416e-02,
         1.71243269e-02,  1.69012304e-02,  1.35553516e-02,
        -5.53682484e-02,  1.39359990e-02,  9.29454044e-02,
         8.17923527e-03,  4.24471423e-02, -1.86913535e-02,
         6.90064393e-04, -4.20760969e-03,  2.47286092e-02,
         3.18099856e-02, -4.33961861e-02, -4.45964932e-03,
         1.06204404e-02,  6.46342263e-02, -4.70440127e-02,
        -6.74156472e-02,  2.55690236e-02, -4.04376723e-03,
         5.97938523e-02, -5.59403040e-02,  4.81208861e-02,
         4.32604365e-02, -5.97274350e-03,  1.41416080e-02,
         1.61859617e-02, -3.13349254e-02,  2.95535050e-04,
         2.09492519e-02],
       [ 6.90890327e-02,  8.61971304e-02,  1.19998232e-02,
        -6.26054406e-02,  6.15197513e-03,  2.25036149e-03,
         3.19808200e-02, -8.51170942e-02, -2.83029191e-02,
        -5.28757833e-02, -7.20700398e-02, -2.88629793e-02,
         1.24220056e-02, -2.28648223e-02,  5.17966375e-02,
         1.53184116e-01, -2.87952721e-02,  1.38057709e-01,
         5.76626994e-02,  1.89381782e-02, -8.58245715e-02,
        -3.11298836e-02, -2.43928060e-02,  1.06170811e-01,
        -4.26064841e-02,  1.26613071e-02,  8.20004195e-03,
         1.17740214e-01, -9.73459110e-02, -1.45493880e-01,
         6.79387227e-02, -6.98316768e-02,  8.87413025e-02,
        -8.46141130e-02,  1.32193640e-02,  2.17163656e-02,
        -1.02614723e-02, -7.91712776e-02,  4.58084419e-02,
         1.18879825e-02,  3.47958766e-02,  3.28039415e-02,
         2.08454356e-02,  7.25066289e-02, -5.20114340e-02,
         1.30703717e-01,  6.11459948e-02,  4.76496443e-02,
        -5.55747561e-03, -3.35771739e-02,  4.27333750e-02,
         8.33800435e-03,  4.19436954e-02, -1.61558483e-02,
        -6.65966868e-02, -6.19879737e-02, -9.23757628e-02,
        -9.75141749e-02,  4.29473445e-03, -7.98200741e-02,
         1.27425427e-02, -1.25314500e-02,  1.36225328e-01,
        -2.66969074e-02,  6.10739887e-02, -9.93056223e-02,
         9.80263650e-02,  5.97436307e-03,  4.33390997e-02,
        -3.77990864e-02, -1.10767052e-01,  1.03735566e-01,
         5.33541385e-03, -1.68191612e-01,  5.57458922e-02,
        -1.23967901e-01, -3.35448198e-02, -7.72091970e-02,
        -8.12538490e-02, -1.69264502e-03, -2.38632667e-03,
         7.02893510e-02, -1.36137411e-01, -5.39351776e-02,
        -4.28187437e-02,  1.09147411e-02,  2.49071606e-02,
        -4.64223471e-04,  1.26628295e-01,  1.73245102e-01,
        -9.55830514e-02,  1.37973666e-01, -1.04961641e-01,
         4.76264544e-02,  8.55789408e-02, -1.34310080e-02,
        -3.33090946e-02,  4.96916249e-02, -6.97211102e-02,
         1.21172788e-02],
       [ 9.62583050e-02, -9.04894099e-02,  9.02646855e-02,
         5.99103794e-02,  4.81576473e-02,  1.85819432e-01,
         3.24552745e-01,  2.61962652e-01,  2.34514490e-01,
        -1.20500550e-01,  2.83042133e-01,  2.54638791e-01,
         1.72464624e-01,  5.30290484e-01, -2.52503842e-01,
         4.51377749e-01,  9.65635926e-02,  1.26229569e-01,
         1.45471822e-02,  1.72895804e-01,  2.26614535e-01,
         1.11655295e-01,  1.02715626e-01,  2.00054526e-01,
         1.86474353e-01,  4.49791662e-02,  2.73536406e-02,
        -5.69487065e-02,  4.94821556e-02,  1.57823905e-01,
         3.11907027e-02, -5.35478592e-02, -1.89033151e-01,
         3.61228228e-01,  2.19446585e-01, -6.82427064e-02,
         1.56887993e-01,  6.96840361e-02, -2.54086643e-01,
        -2.39700213e-01, -1.41656160e-01, -5.00870461e-04,
         2.95127988e-01,  1.46168754e-01,  1.94236696e-01,
        -5.51042497e-01, -4.75113004e-01, -2.35462785e-01,
         5.65625131e-01, -3.25634405e-02,  5.68200946e-02,
         8.27183723e-02, -8.37966334e-03, -2.19319180e-01,
        -5.37158437e-02, -5.40030003e-01, -2.89480127e-02,
         3.81313711e-01,  1.58921689e-01,  5.36387444e-01,
        -8.34635198e-01,  7.56626129e-02, -1.44548535e-01,
         3.42075348e-01,  4.88511622e-02, -1.60625651e-01,
         1.05377115e-01,  2.01446161e-01, -2.14386523e-01,
        -5.07788174e-02,  2.11698353e-01, -1.74941584e-01,
         2.85875648e-01,  4.23215717e-01, -4.27780390e-01,
         2.29980126e-01,  2.72078961e-01,  1.33506596e-01,
         3.46638635e-03,  4.68820900e-01,  1.38057262e-01,
        -5.04743308e-03,  2.68613715e-02,  3.29646677e-01,
         7.03648254e-02,  2.50398397e-01, -2.76691288e-01,
         3.55949998e-01, -2.68411219e-01,  2.75411755e-01,
         4.46480334e-01,  6.12621233e-02,  4.26457338e-02,
        -9.01965052e-02, -2.57504255e-01,  2.12745056e-01,
         7.78634250e-02,  3.93131077e-02,  1.39944538e-01,
        -1.35793954e-01],
       [-5.71515504e-03,  1.77295119e-01, -9.31872427e-02,
        -1.40857935e-01,  4.13722396e-02, -2.33182147e-01,
        -1.98644213e-02, -2.43856296e-01, -4.16718245e-01,
        -5.60870022e-02, -6.03207201e-02, -1.39499828e-01,
        -7.43684843e-02, -6.90537035e-01,  1.08605944e-01,
        -2.59063363e-01, -1.63585648e-01,  1.57979786e-01,
         2.96455860e-01, -1.16304606e-01, -5.29331505e-01,
        -2.11183473e-01, -2.15548337e-01,  1.73095688e-01,
        -2.18459219e-01, -1.18718997e-01,  6.42196909e-02,
         1.07616670e-01, -5.22161573e-02, -3.65668274e-02,
         2.13226855e-01, -1.74222529e-01,  6.56321272e-02,
        -1.41932026e-01, -1.51346058e-01,  1.86178572e-02,
         1.37256548e-01, -1.07488118e-01, -9.23158228e-02,
         2.26536721e-01,  4.24893349e-01,  2.67081529e-01,
        -2.74338543e-01, -1.46944836e-01, -9.00783092e-02,
         3.28832537e-01,  6.20200276e-01,  2.37175167e-01,
        -1.66897848e-01, -2.21106499e-01,  1.71501935e-02,
         2.27503210e-01,  6.08090907e-02, -4.10074592e-02,
         9.49916095e-02,  3.59072328e-01, -1.74614698e-01,
        -2.94699669e-01, -2.92046871e-02, -4.26804811e-01,
         4.22164440e-01, -8.77932534e-02,  2.56576836e-01,
        -2.96525583e-02, -1.18702941e-01, -1.62419733e-02,
        -9.92297847e-03, -2.30899036e-01,  3.22035737e-02,
         2.17103705e-01, -8.19495097e-02, -4.65252101e-02,
         1.03179835e-01, -3.06329936e-01,  1.35469198e-01,
        -2.60908544e-01,  1.33013586e-02, -9.61711705e-02,
         1.77927166e-01, -4.48539764e-01, -1.53327778e-01,
         8.48479047e-02, -1.01186983e-01, -9.33651403e-02,
        -6.61412179e-02, -3.14780593e-01,  2.07132578e-01,
        -1.84321582e-01,  6.34590328e-01, -1.49805367e-01,
        -3.36378455e-01,  1.26975432e-01, -1.30861670e-01,
         2.77143210e-01, -1.00176051e-01, -1.75867796e-01,
         2.25910783e-01, -7.17017502e-02, -1.19270489e-01,
         1.49104789e-01],
       [-3.91402841e-02,  4.52985018e-02, -5.47262169e-02,
         2.71954332e-02,  5.06427549e-02, -2.67130490e-02,
         1.70793775e-02, -5.08446954e-02, -1.36504173e-02,
         1.48444902e-02, -5.70432246e-02,  4.50068293e-03,
        -3.85087095e-02,  8.59369338e-02,  1.62354652e-02,
        -1.18303500e-01,  6.85796961e-02, -2.29593869e-02,
         5.46719395e-02, -3.65359336e-02, -2.76244991e-03,
        -4.92065884e-02, -4.08933535e-02, -6.23545535e-02,
         6.61638007e-02, -5.44684604e-02, -4.18006850e-04,
         8.42077881e-02, -6.12700433e-02, -2.55817380e-02,
        -5.75492717e-03,  3.09343506e-02,  6.46293089e-02,
        -1.91557780e-02,  2.37295832e-02, -5.24250008e-02,
        -4.23453413e-02, -8.39935169e-02,  8.10858458e-02,
        -6.37574196e-02, -1.79889575e-02,  7.38813877e-02,
         4.90413457e-02, -1.58743978e-01,  7.42619857e-02,
         8.35567936e-02,  1.52422264e-02,  4.32386920e-02,
         6.36604801e-02, -1.43335070e-02, -6.37373282e-03,
        -2.62487028e-02, -1.05798366e-02,  2.84327473e-03,
        -1.12046912e-01,  3.18714301e-03,  9.29580405e-02,
        -6.37529567e-02, -8.40986371e-02, -4.05322090e-02,
         5.08994311e-02,  2.46636998e-02, -6.43536169e-03,
        -1.76937785e-02, -4.31670956e-02, -3.89962196e-02,
         1.01387709e-01, -4.99469973e-02,  5.63280508e-02,
         2.58957408e-02, -8.20416510e-02,  7.91932866e-02,
        -7.35763507e-03, -1.43418476e-01,  7.95208886e-02,
        -4.82257120e-02,  1.72650553e-02, -3.89930680e-02,
        -1.74874336e-01,  4.18569334e-02,  2.39773709e-02,
        -8.81209131e-03, -8.56699198e-02,  2.38115527e-02,
        -1.37697989e-02,  2.06945837e-02, -3.15188020e-02,
         4.08928283e-03, -9.55904089e-03,  5.54447509e-02,
        -3.71224284e-02,  5.42807430e-02, -5.27694710e-02,
         3.55707072e-02,  7.59659335e-02, -1.64272953e-02,
        -4.49526533e-02, -5.58987707e-02, -4.98622954e-02,
        -3.75124440e-02],
       [-3.10835540e-02,  1.33001015e-01, -1.04672357e-01,
         6.50939643e-02,  1.10923229e-02, -1.19040631e-01,
        -4.79339734e-02,  1.01008534e-03, -7.56957009e-02,
         3.61321941e-02, -2.35706335e-03,  1.19942427e-02,
        -1.47384359e-02, -6.36425987e-02, -1.37175797e-02,
        -1.68078557e-01,  7.96335712e-02, -8.22387934e-02,
        -2.44467463e-02, -2.00068206e-02,  1.93964355e-02,
        -2.01276541e-02, -8.74343608e-03, -6.38322458e-02,
         1.79287679e-02,  4.40191478e-02,  3.60250808e-02,
        -7.26272389e-02,  9.55969542e-02,  1.20143071e-01,
        -8.05570111e-02,  2.17638183e-02, -1.11537933e-01,
        -1.30079677e-02, -5.19338585e-02, -6.53919354e-02,
         4.66468520e-02, -5.78983016e-02, -1.20785013e-02,
        -1.47517398e-02, -9.99815017e-03,  1.46110412e-02,
        -1.07264109e-02, -6.41421601e-02,  3.09720542e-02,
        -5.25842570e-02, -2.73164106e-03, -7.96515718e-02,
        -4.22102995e-02,  5.35968393e-02, -9.31889713e-02,
         4.80587743e-02, -1.36222109e-01, -1.86583959e-02,
        -6.61308598e-03,  7.06754401e-02,  9.23573039e-03,
         1.94437578e-02, -1.86240468e-02,  2.56582163e-02,
         2.29116440e-01, -9.19771865e-02, -2.59012897e-02,
         2.10140217e-02,  7.32252235e-03,  9.08911377e-02,
        -5.91063984e-02, -1.71034247e-01,  4.10239771e-03,
        -2.67031007e-02, -3.78877334e-02, -1.39365107e-01,
         3.16069135e-03, -2.40186322e-02,  8.35675970e-02,
         3.65953930e-02, -2.19621863e-02,  4.28616144e-02,
         6.17915131e-02, -8.02879184e-02, -4.69117276e-02,
         1.40142217e-02,  1.04874551e-01, -7.67979957e-03,
        -1.66851131e-03, -4.20391485e-02, -1.35581940e-02,
         2.15927195e-02, -5.74090667e-02, -7.02057034e-02,
         3.08116712e-02, -2.64149308e-02,  9.10732895e-02,
         1.15017094e-01, -8.96809399e-02,  1.48722222e-02,
        -8.88520479e-03, -7.73806423e-02,  3.19737359e-03,
         4.12847288e-02],
       [ 6.26373757e-03, -1.48190007e-01,  6.24291897e-02,
        -2.22649053e-02, -9.02611949e-03,  9.36050862e-02,
         7.12242126e-02,  2.72719916e-02,  5.04203960e-02,
        -1.26280403e-03, -6.47506714e-02, -3.23260352e-02,
         2.83212047e-02,  5.61999120e-02,  4.19699820e-03,
         1.30353108e-01, -3.09405383e-02,  1.65827543e-01,
         6.01054505e-02, -3.32836658e-02, -6.08887449e-02,
         7.03069754e-03,  2.70519443e-02,  2.21794192e-02,
        -2.31759977e-02, -5.75266778e-02,  4.21923073e-03,
         1.16557069e-02, -8.69980603e-02, -1.39104575e-01,
         5.46820685e-02, -9.62673873e-02,  1.01708025e-01,
        -6.56098425e-02,  5.49478531e-02,  4.21357900e-02,
        -2.94298418e-02, -8.71521235e-03,  4.15135212e-02,
         3.51475016e-03, -1.21538024e-02, -3.96427102e-02,
         4.26197462e-02,  7.57700577e-02,  2.36245170e-02,
        -1.98748801e-02, -2.91859005e-02,  4.96619716e-02,
         4.41540219e-02, -7.61413425e-02,  2.96832342e-02,
        -7.76130110e-02,  1.80264309e-01,  2.93557197e-02,
        -3.00298147e-02, -1.72823239e-02, -4.86506298e-02,
        -6.05989620e-02, -5.88072464e-02, -2.57629026e-02,
        -2.16110215e-01,  7.96095580e-02,  8.57255515e-03,
         7.03032762e-02, -5.23527227e-02, -1.11326173e-01,
         4.53366861e-02,  8.68910849e-02,  8.48822668e-02,
         6.72887117e-02,  2.53792796e-02,  1.60594866e-01,
         1.39501719e-02, -7.28219301e-02,  3.22313346e-02,
        -3.80877592e-02,  5.10213245e-03, -2.51068361e-02,
        -1.48591965e-01,  1.20846219e-01, -6.00149250e-03,
         4.42345999e-02, -3.09055559e-02, -2.94417725e-03,
        -4.84969653e-02,  1.00145862e-02,  9.09746811e-03,
         4.35692370e-02,  8.91995877e-02,  9.62441415e-02,
        -4.81709391e-02,  7.69938156e-02, -5.65605946e-02,
        -2.14257706e-02,  1.02899596e-01,  3.72249284e-03,
         1.54412445e-02, -1.07882107e-02, -4.08077948e-02,
         2.89348466e-03],
       [ 1.42876776e-02,  1.23375662e-01, -1.14051728e-02,
         3.04021826e-03, -1.85141549e-03, -8.01768824e-02,
        -7.09061399e-02,  3.82852787e-03, -3.03987302e-02,
        -5.29217906e-02,  3.05184219e-02, -1.53192263e-02,
        -8.55648667e-02, -4.85977717e-02,  6.72085537e-03,
        -1.03325784e-01,  2.09231358e-02, -1.08021341e-01,
        -4.67783883e-02,  2.53851693e-02, -2.67771799e-02,
         5.72212860e-02, -1.17334882e-02, -7.21170902e-02,
        -1.66531131e-02,  3.43777500e-02, -1.41142858e-02,
        -8.22397321e-02,  1.02795765e-01,  1.65280238e-01,
        -4.69179600e-02,  9.85604748e-02, -9.91138443e-02,
         9.05184671e-02, -7.43240491e-02, -2.23655906e-02,
         6.04282394e-02, -3.97761120e-03, -6.30537346e-02,
        -9.94646177e-03,  4.86749709e-02,  3.86747122e-02,
        -1.81909639e-03, -3.69209908e-02,  5.60696498e-02,
        -2.23025610e-03,  5.95224164e-02, -3.92226093e-02,
        -4.44771834e-02,  3.76624092e-02, -9.82194617e-02,
         3.35898921e-02, -1.52367622e-01,  2.39391848e-02,
         7.52392085e-03,  5.41418418e-02,  1.00321164e-02,
         7.93757737e-02, -1.31510952e-02, -5.23633137e-02,
         2.21860439e-01, -1.20253870e-02,  3.02072372e-02,
         1.17175328e-02,  2.40818504e-02,  9.56957578e-04,
        -2.02846434e-02, -1.64910361e-01, -1.41029134e-02,
        -9.28621739e-02, -7.04504400e-02, -3.97189595e-02,
        -1.35526224e-03, -3.64081785e-02, -8.02082010e-03,
        -2.34727804e-02,  2.80670281e-02,  6.79146945e-02,
         2.51287781e-02, -9.34100151e-02, -3.46315280e-02,
        -3.20810750e-02,  2.15878561e-02,  4.54932377e-02,
         5.36921732e-02, -2.66726743e-02, -9.94727388e-02,
        -1.77032948e-02, -7.49158580e-03, -1.05977967e-01,
         2.52945442e-02, -4.12314832e-02,  9.60394889e-02,
         3.47856954e-02, -1.23268880e-01, -3.72316912e-02,
         3.61181010e-04, -7.45720267e-02,  2.45676134e-02,
         7.54997879e-02],
       [ 4.92208004e-02,  2.47101635e-02,  2.81477887e-02,
        -2.60425135e-02,  5.12927584e-02,  2.71163322e-03,
         5.53938076e-02, -4.18530889e-02,  6.87211677e-02,
        -2.52219625e-02, -2.33140197e-02,  7.17396960e-02,
         8.46958831e-02,  9.93898287e-02, -1.36728669e-02,
        -1.62348539e-01,  3.67331132e-02,  1.85969919e-02,
         5.90209998e-02,  9.31048095e-02, -4.65474185e-03,
         2.02267226e-02,  5.80533519e-02,  4.01285384e-03,
         2.21515894e-02,  5.03820181e-02,  1.92573965e-02,
         2.41808072e-02, -9.09404382e-02, -3.42117138e-02,
        -2.18700022e-02,  4.95369881e-02,  2.79549658e-02,
        -6.17127903e-02, -1.04146190e-02, -8.08172375e-02,
         5.99146932e-02, -4.63989154e-02,  2.08076229e-03,
        -4.79912832e-02,  4.28884150e-03,  2.71214861e-02,
        -2.14183726e-03, -2.02898890e-01,  7.18234330e-02,
        -3.18511836e-02,  4.35106875e-03,  5.93343982e-03,
         3.78615372e-02,  1.49044243e-03,  3.41261062e-03,
         5.80623699e-03,  1.29740704e-02, -4.86485008e-03,
        -6.65816143e-02, -2.95535265e-03,  3.76416966e-02,
         4.72346991e-02,  4.99746948e-03,  6.95261806e-02,
         1.24561880e-02, -2.10123090e-03, -3.97884697e-02,
         3.21836630e-03,  1.81803107e-02,  3.41767282e-03,
         4.19137031e-02, -2.83002425e-02,  4.29942124e-02,
        -2.26373225e-02, -1.22270193e-02,  5.41184731e-02,
        -6.04143403e-02, -2.15896312e-02,  2.28728633e-02,
         9.10528824e-02,  5.62714115e-02, -2.60475762e-02,
        -3.68049368e-04, -4.51355651e-02,  5.27830534e-02,
         4.39794436e-02, -9.86165833e-03,  3.32219154e-02,
         4.06778324e-03,  1.23557180e-01, -1.43688591e-02,
        -9.81044723e-04,  5.38750589e-02, -1.61667052e-03,
         2.54875924e-02,  2.83900276e-03, -2.84552462e-02,
         6.36810139e-02,  7.40774022e-03,  3.34826894e-02,
         1.49535118e-02, -5.26526645e-02, -7.58654177e-02,
         6.02591410e-03],
       [ 6.35788292e-02, -2.04832815e-02,  1.22872479e-02,
        -5.24064749e-02,  4.88174409e-02, -9.16808657e-03,
         8.43636170e-02, -4.79905643e-02,  2.60497518e-02,
         2.72912942e-02, -1.00590162e-01, -3.91931124e-02,
        -1.45341912e-02,  4.88606468e-03,  7.83318430e-02,
         6.87486678e-02, -2.36750823e-02,  1.10929683e-01,
         4.17195000e-02,  7.03251036e-03, -8.78882632e-02,
        -4.61823540e-03, -1.40716946e-02, -2.32293978e-02,
         2.56729238e-02, -9.89464745e-02,  2.86395214e-02,
         1.18295446e-01, -1.22509412e-01, -7.35339373e-02,
         4.45334800e-02, -1.21561368e-03,  1.60221264e-01,
        -1.11495711e-01,  3.10900435e-02, -2.08165348e-02,
        -1.42158223e-02, -3.21782157e-02,  3.67813930e-02,
        -2.23092921e-02, -8.17686915e-02, -2.45179944e-02,
        -7.29728723e-03,  9.04039741e-02, -1.07853245e-02,
         4.95064780e-02,  4.81387377e-02,  1.47824641e-02,
         6.89709783e-02,  5.63379079e-02, -2.28596921e-03,
        -1.01352548e-02,  1.03414103e-01,  2.08489113e-02,
        -4.70010424e-03, -1.01084523e-01,  1.08876899e-02,
        -1.18516244e-01, -5.00173047e-02, -2.44069193e-02,
        -1.18231606e-02,  3.46081555e-02,  5.01275547e-02,
         1.26238182e-01,  6.52276678e-03, -1.33209839e-01,
         1.41915917e-01, -1.29111633e-01,  9.58455354e-02,
        -2.29208916e-02, -7.55673274e-02,  1.13047928e-01,
         4.64744493e-02, -1.76207229e-01,  1.62484739e-02,
        -8.09208304e-02, -4.36623022e-02, -2.89496593e-02,
        -2.78815180e-01,  6.25625178e-02, -7.32312351e-02,
         3.95052787e-03, -7.19052479e-02, -8.15032199e-02,
        -2.48817932e-02, -4.49448936e-02, -1.19856268e-01,
         1.19028464e-02,  4.78090085e-02,  7.43417293e-02,
        -1.42752137e-02,  1.33405432e-01, -7.73750842e-02,
        -2.94070859e-02,  3.17583345e-02, -1.46504655e-01,
        -1.82525013e-02, -4.67776097e-02,  1.45194551e-03,
        -1.65245458e-02],
       [ 1.53636232e-01, -9.25842393e-03,  2.10018203e-01,
         3.11202556e-01,  1.36822239e-02,  2.79004037e-01,
         1.18854292e-01,  1.28716096e-01, -1.99349169e-02,
         1.68115664e-02,  4.03139800e-01,  4.17629361e-01,
         1.25231579e-01,  4.08096522e-01, -2.53879100e-01,
         3.40546727e-01, -1.30460337e-01,  6.27330467e-02,
         5.50003164e-02,  2.52275437e-01,  7.45054558e-02,
         4.33509797e-01,  1.78174227e-01,  1.61601663e-01,
         1.46118850e-02,  1.95134625e-01,  1.03175052e-01,
        -1.88112110e-01, -5.08760810e-02, -2.02585101e-01,
        -1.16369016e-01, -5.34891430e-03, -1.70483351e-01,
        -2.55631339e-02,  5.39209358e-02, -9.49020982e-02,
        -3.85075472e-02,  2.91928232e-01, -9.11385790e-02,
        -1.55184999e-01, -3.83078270e-02, -6.38482422e-02,
        -1.11793876e-02,  1.14243768e-01,  6.52938411e-02,
        -4.09730494e-01, -4.31688190e-01, -2.24647924e-01,
         1.80603176e-01,  7.21583813e-02,  2.71176457e-01,
        -3.36944461e-02, -1.61470976e-02, -2.60761291e-01,
        -4.95013595e-03,  1.83131583e-02, -9.15414318e-02,
         4.35345799e-01,  2.42728174e-01,  5.58555186e-01,
        -5.35542905e-01,  7.44813234e-02, -2.49731854e-01,
         6.58114702e-02,  6.01737984e-02,  9.28392559e-02,
        -2.16802433e-01,  3.95297706e-01, -1.20740883e-01,
        -7.51951709e-02,  1.08285859e-01, -1.24196090e-01,
        -9.80382189e-02,  5.39045990e-01, -1.69756860e-01,
         2.00718373e-01,  2.37021342e-01, -2.15255301e-02,
         4.07541901e-01,  3.94082010e-01,  3.05623144e-01,
         2.25446876e-02,  5.37726283e-02,  4.57776099e-01,
         2.83339471e-01,  2.68700004e-01, -5.32764345e-02,
         1.13644816e-01, -1.03333533e-01,  3.02338600e-01,
         3.52627635e-01, -1.62865862e-01,  6.98308200e-02,
        -2.98611522e-01, -1.44958243e-01,  2.91735679e-01,
         1.35517657e-01,  6.28113523e-02,  1.04493052e-01,
        -1.91872045e-02],
       [-4.79402132e-02,  1.30344421e-01, -2.62506813e-01,
        -1.66887313e-01, -9.74906608e-02, -2.06140503e-01,
        -1.39449626e-01, -1.68442190e-01, -9.65432674e-02,
         1.18929304e-01, -3.68187279e-01, -4.80484009e-01,
        -2.21495733e-01, -3.18510443e-01,  2.60291666e-01,
        -2.40390912e-01,  1.91573292e-01, -1.74497873e-01,
        -1.67382464e-01, -2.93037385e-01,  5.24505116e-02,
        -2.49423087e-01, -2.47669250e-01, -2.79716194e-01,
         1.20258942e-01, -2.11449534e-01, -2.40185127e-01,
         1.37565836e-01, -7.52721960e-03,  2.36495659e-01,
         1.95444226e-02,  1.50953382e-01,  2.07266122e-01,
         9.32245143e-03, -1.78695083e-01,  1.66618869e-01,
        -7.50917643e-02, -3.13079178e-01,  1.00638159e-01,
         6.76738173e-02, -1.01307221e-01,  5.96903749e-02,
        -6.65783659e-02, -1.24946773e-01, -8.61139148e-02,
         5.21804750e-01,  2.26497337e-01,  1.25153204e-02,
        -2.94046342e-01,  1.27839014e-01, -3.81933689e-01,
        -9.24192145e-02,  9.40519944e-02,  2.32645452e-01,
         4.58114259e-02, -1.96532309e-01,  5.50147593e-02,
        -4.12722409e-01, -5.11885405e-01, -4.57668394e-01,
         7.16463327e-01, -1.16916157e-01,  2.37246826e-01,
        -8.73307288e-02,  8.87385607e-02, -4.06245962e-02,
         2.27617264e-01, -3.22544247e-01,  2.65861541e-01,
         1.38261065e-01, -2.02084139e-01,  1.48975790e-01,
         5.32268248e-02, -5.21169484e-01,  3.34431708e-01,
        -2.86611080e-01, -3.51449668e-01,  9.33540165e-02,
        -6.65209591e-01, -3.40445966e-01, -3.75020891e-01,
        -1.99340835e-01, -1.13907002e-01, -4.17764485e-01,
        -3.70926201e-01, -2.71530092e-01, -9.89152193e-02,
        -1.97016582e-01, -1.88482981e-02, -3.02766800e-01,
        -3.90260994e-01,  4.01784293e-02, -2.74636358e-01,
         1.82700947e-01,  2.68838614e-01, -4.09028560e-01,
        -2.34835133e-01, -8.84483606e-02, -9.31948982e-03,
        -1.61316648e-01],
       [-4.74310443e-02, -1.62474476e-02,  2.19727941e-02,
        -2.29626745e-02, -1.99785382e-02, -3.22271883e-02,
         3.48290987e-02,  2.69466899e-02,  8.31991732e-02,
         1.15271118e-02,  8.27307627e-03, -2.78864522e-02,
         2.16231011e-02,  1.04909495e-01,  7.56480207e-04,
        -4.14201058e-02, -4.56619971e-02, -5.00334390e-02,
        -3.06354389e-02,  5.28850853e-02, -1.50649101e-02,
         3.56529355e-02, -8.39629099e-02, -2.50806566e-02,
         2.66948808e-02, -4.15389054e-02,  2.41374150e-02,
         2.89916992e-02, -2.70201284e-02, -9.80449542e-02,
        -2.50993762e-02,  5.35275042e-02,  9.74645913e-02,
         2.50857370e-03, -1.21127153e-02, -4.14640382e-02,
        -1.04175843e-01,  3.10306735e-02,  6.09661173e-03,
        -8.21311772e-02, -4.97827493e-02,  7.38750547e-02,
         6.11394085e-02, -1.36202112e-01,  7.21835569e-02,
         4.81605418e-02, -3.13282609e-02,  3.49985920e-02,
         6.07423820e-02,  5.53410649e-02, -2.28281431e-02,
        -3.56139876e-02, -4.09354339e-04, -6.64920136e-02,
         7.81399012e-03, -1.64995175e-02,  1.34309996e-02,
         1.54994857e-02, -3.76825556e-02, -6.28090128e-02,
        -4.56710719e-02,  2.33420096e-02, -4.38711187e-03,
         2.64740502e-03,  4.57884464e-03, -4.77644913e-02,
         1.04003258e-01, -4.31845430e-03,  3.87438498e-02,
        -4.20769565e-02, -3.76071408e-02,  1.31532714e-01,
        -1.02158405e-01, -3.79715227e-02,  3.20259035e-02,
         4.38484624e-02,  1.60490349e-02, -4.64122705e-02,
        -1.48395896e-01,  1.20964488e-02,  9.70437471e-03,
         1.05109038e-02,  3.94056831e-03, -5.70272245e-02,
         1.61023475e-02,  5.86631857e-02, -1.15461054e-03,
         6.25381917e-02, -3.08209714e-02, -3.85623681e-03,
        -2.84818076e-02,  5.56807220e-02,  8.58859271e-02,
         1.81697607e-02,  1.10254422e-01, -3.59248230e-03,
         2.40407940e-02, -1.89207960e-02, -3.14851962e-02,
         6.23881854e-02],
       [-1.29627408e-02,  1.73232913e-01, -5.58203757e-02,
        -5.24701597e-03,  3.56343389e-02, -1.37283772e-01,
        -5.60810417e-02,  1.68773942e-02,  4.06819470e-02,
        -7.44332001e-02, -3.81276151e-03, -3.11000086e-02,
        -1.61151867e-02, -8.40702653e-02, -8.62780362e-02,
        -8.46813694e-02,  3.55584510e-02, -7.42518678e-02,
        -6.15531281e-02, -4.56688367e-02, -5.45057794e-03,
        -6.20534234e-02,  8.23222380e-03, -9.29441024e-03,
        -2.82015763e-02,  1.44238668e-02, -1.58557110e-02,
         5.18795801e-03,  7.09588081e-02,  1.36110842e-01,
        -7.68751130e-02, -1.99431088e-03, -1.04281239e-01,
         4.94568534e-02, -3.77309956e-02, -4.62760404e-02,
         4.72923107e-02, -5.83140831e-03, -8.36364180e-02,
        -8.32071453e-02,  5.72776161e-02,  2.43880699e-04,
         2.15554447e-03, -2.68878788e-02,  6.21702597e-02,
        -3.59074883e-02,  2.23500933e-02, -8.24715197e-02,
         1.33306384e-02, -4.35751416e-02, -8.03308785e-02,
         3.28821354e-02, -1.85801461e-01, -3.88059132e-02,
        -2.84500583e-03,  4.32341099e-02,  3.80803347e-02,
         1.13759644e-01, -1.38359815e-02, -3.56650958e-03,
         1.98274717e-01, -5.78328548e-03,  1.61224250e-02,
        -1.82794333e-02, -1.15751447e-02,  1.06558232e-02,
        -7.88008273e-02, -1.01759695e-01, -1.14754915e-01,
        -8.70506167e-02, -3.39055769e-02, -8.05150196e-02,
         6.69911057e-02,  1.17718959e-02,  4.21597324e-02,
         2.29937937e-02,  1.68912206e-03,  1.16599007e-02,
         1.15808189e-01, -4.52055447e-02, -4.25988398e-02,
        -2.57234983e-02,  6.73897788e-02, -2.85110734e-02,
         3.80556881e-02, -1.60101522e-02, -9.17408541e-02,
         2.58734357e-02, -4.65813465e-02, -1.45240441e-01,
         8.29892308e-02, -3.48667465e-02,  5.42201996e-02,
         1.30877137e-01, -8.66209641e-02,  2.29289923e-02,
        -1.91654451e-02, -4.65435833e-02, -3.94198075e-02,
         5.89344949e-02],
       [-4.86168005e-02, -2.15695888e-01,  1.73862407e-03,
        -8.05899724e-02, -2.76744273e-02,  2.04964988e-02,
        -1.49936220e-02, -5.43433502e-02,  2.56166384e-02,
         1.70219541e-02, -1.08757854e-01, -4.96747438e-03,
         4.77553457e-02,  3.76857407e-02,  6.55683950e-02,
         1.33640334e-01,  1.76464282e-02,  5.15456274e-02,
        -3.67224552e-02, -4.55382057e-02, -1.65246520e-02,
         4.57770526e-02, -1.98408440e-02,  1.87204890e-02,
         2.48108320e-02, -5.95904924e-02, -3.02962419e-02,
         1.04904315e-02, -1.04340896e-01, -1.98816895e-01,
         6.74778223e-02, -5.91870919e-02,  1.15366586e-01,
        -1.06013685e-01, -3.31749558e-03,  6.14482388e-02,
        -3.46834995e-02,  3.08594741e-02,  5.24208210e-02,
        -3.14297490e-02, -6.18121363e-02,  2.31398419e-02,
         9.96311381e-02,  5.85639924e-02,  4.04914550e-04,
         1.00108124e-02,  5.60313975e-03,  3.76595818e-02,
        -1.79944877e-02, -1.42133329e-02, -1.69275720e-02,
        -3.09877880e-02,  1.16906680e-01, -1.39683969e-02,
        -3.44517902e-02, -1.29770726e-01,  3.02139800e-02,
        -1.29436910e-01, -5.69160171e-02, -3.61899473e-02,
        -9.96351019e-02,  2.58427840e-02,  3.91308777e-02,
         4.74830084e-02,  3.57371047e-02, -8.40621293e-02,
         1.27955258e-01,  4.62105535e-02,  2.24327352e-02,
        -3.55318119e-03, -5.02918623e-02,  9.38597769e-02,
        -9.73950103e-02, -8.57243240e-02, -2.98929773e-02,
         3.99109647e-02, -1.98647305e-02, -3.60876545e-02,
        -2.12641582e-01,  6.36258498e-02, -2.95327790e-02,
        -2.59150881e-02, -1.10615537e-01, -2.90159862e-02,
        -1.59849301e-02,  3.73210497e-02, -9.27158073e-03,
         1.33555634e-02,  4.64874366e-03,  1.16421379e-01,
        -3.40970904e-02,  4.91920151e-02, -7.03144595e-02,
        -9.44957435e-02,  1.30492166e-01, -6.78287912e-03,
        -5.86304180e-02,  4.44058292e-02,  7.16942698e-02,
        -7.36669637e-03],
       [ 7.75258429e-03,  1.02560170e-01,  1.19276531e-02,
         7.77185038e-02, -5.42304516e-02, -3.59571576e-02,
        -1.14436187e-02,  1.84139193e-04, -2.70550773e-02,
        -5.44376262e-02,  8.39603767e-02,  1.92052387e-02,
        -7.62075484e-02, -1.54305818e-02,  1.06263394e-02,
        -1.14417687e-01,  7.36347539e-03, -8.64861682e-02,
        -7.11695850e-02,  4.13095579e-02,  1.56238694e-02,
         3.83349434e-02, -5.46737388e-02, -2.76662130e-02,
        -2.06521992e-02,  4.25689630e-02, -2.09062565e-02,
        -7.94267356e-02,  9.49528962e-02,  1.92299336e-01,
        -1.13997661e-01,  9.17128548e-02, -1.37583300e-01,
         1.07581258e-01, -9.06853750e-02, -8.24566409e-02,
         4.92865704e-02,  3.16553898e-02, -4.41652834e-02,
        -1.28006060e-02,  1.93496160e-02,  3.92639711e-02,
        -5.55574484e-02, -8.27699006e-02,  2.31626667e-02,
        -1.51633341e-02, -3.24551202e-02, -1.12706218e-02,
        -6.15248345e-02,  2.70607751e-02, -9.48509872e-02,
         1.76758394e-02, -9.09745917e-02, -3.44876908e-02,
         5.30149378e-02,  6.32345676e-02, -1.88162662e-02,
         3.42997760e-02, -1.32073008e-03,  1.64242312e-02,
         1.63218319e-01, -8.38370323e-02, -6.07804582e-02,
        -3.06308530e-02,  1.41088013e-02,  8.32367390e-02,
        -1.04354829e-01, -1.15805678e-01, -9.29004997e-02,
        -7.82168657e-02, -4.86384518e-02, -1.52176559e-01,
        -1.17092095e-02,  2.68630609e-02, -3.79828885e-02,
         5.45222163e-02,  2.56084232e-03, -1.62675679e-02,
         7.02413619e-02, -4.65633869e-02, -1.64303444e-02,
        -7.78239816e-02,  7.78972208e-02,  2.35999264e-02,
         6.33766502e-02,  3.00268531e-02,  3.67135517e-02,
        -1.41490102e-02, -3.18754162e-03, -1.57239407e-01,
         4.86014038e-02, -1.70144551e-02,  6.05264194e-02,
         4.62987125e-02, -1.46039322e-01,  1.58460885e-02,
         4.42918316e-02, -3.31177711e-02,  3.11829504e-02,
         9.12796855e-02],
       [ 4.79896553e-02,  5.53951822e-02,  4.61490452e-02,
         4.66045626e-02,  5.63060120e-02, -4.86599980e-03,
        -3.28551643e-02, -4.05313894e-02, -1.58047341e-02,
        -1.66849550e-02,  8.83451849e-02,  1.70951970e-02,
         3.86430100e-02,  1.95514150e-02, -1.22308005e-02,
        -7.52377808e-02,  9.06857662e-03,  5.43920323e-03,
         8.73447135e-02,  5.93626201e-02, -5.14152758e-02,
        -2.07559578e-02,  5.28421178e-02,  5.46923988e-02,
        -6.95345476e-02, -1.82317197e-02,  6.12460217e-03,
         1.17216697e-02, -9.95496437e-02, -7.66225755e-02,
        -8.56907517e-02,  3.96715552e-02, -1.91514567e-02,
        -2.80691292e-02, -3.03157289e-02, -1.43161997e-01,
         7.17614964e-02,  3.95179121e-03, -6.97227055e-03,
         2.32118219e-02, -2.39611901e-02,  3.48052531e-02,
         5.33870831e-02, -1.29211560e-01,  3.30235213e-02,
         4.96859737e-02,  3.27451006e-02, -5.91802271e-03,
         2.71069780e-02,  3.34152691e-02,  1.46049671e-02,
         4.78058644e-02, -7.28460699e-02, -3.10453586e-02,
        -1.94916613e-02, -1.78431417e-03,  5.10395970e-03,
         4.75681871e-02,  7.55564682e-03,  6.34407774e-02,
         2.74780709e-02,  2.38964390e-02, -3.11500859e-02,
         5.54242358e-03, -4.92758267e-02,  2.04734560e-02,
        -4.48703915e-02, -2.70701759e-02, -3.18743708e-03,
        -4.58258353e-02, -5.15002534e-02,  6.87497780e-02,
        -5.71358483e-03,  5.12478426e-02,  8.18162337e-02,
         4.01103497e-02,  6.84291050e-02, -3.17213759e-02,
         4.77531850e-02, -1.42956600e-02, -1.02509959e-02,
         3.04189268e-02,  1.02817127e-02,  8.69718269e-02,
         7.72500187e-02,  9.02221724e-02,  3.08993682e-02,
         1.84668042e-02,  7.90587291e-02,  5.91936596e-02,
        -3.29608358e-02, -6.43405877e-03,  9.10274405e-03,
        -1.24973794e-02, -3.14437714e-03,  2.40468630e-03,
         3.26881930e-02, -3.04641966e-02,  1.95071101e-02,
         1.76912267e-02],
       [-6.61968812e-02, -1.55188262e-01,  2.95691527e-02,
         8.87679961e-03, -6.42153397e-02,  2.47561727e-02,
        -1.26958741e-02,  4.73361753e-04,  1.17237642e-01,
         3.85721810e-02, -6.82950094e-02, -8.69298950e-02,
        -5.22113070e-02,  1.43746454e-02,  7.84360096e-02,
         1.11743532e-01, -4.07059640e-02,  1.49911307e-02,
        -1.42986849e-02,  4.10103127e-02, -6.24414943e-02,
         1.93191007e-01, -5.49822710e-02, -7.28572905e-02,
         1.77981351e-02, -4.40636277e-02, -5.22759967e-02,
         6.34990353e-03, -6.55609444e-02, -1.51819885e-01,
         2.17847433e-02, -2.22520344e-02,  8.41671899e-02,
         7.73428055e-03,  5.22560738e-02, -4.20423858e-02,
        -1.76210910e-01,  5.17631276e-03,  1.07638963e-01,
        -2.08807271e-02, -7.03683048e-02, -3.17590013e-02,
         7.32685998e-02,  2.42681839e-02,  8.75097327e-03,
        -5.35739325e-02, -8.36034715e-02, -4.28542495e-02,
        -3.98833957e-03,  1.72098666e-01, -1.64940953e-02,
        -1.00741282e-01,  1.15214080e-01, -1.02549478e-01,
         1.19017651e-02, -1.29427895e-01,  3.83397229e-02,
        -1.37040228e-01, -2.86483876e-02, -4.65990156e-02,
        -5.31905740e-02, -3.53424903e-03, -1.82494894e-01,
         1.94819216e-02,  8.08429867e-02,  1.03816837e-02,
         1.84574500e-01,  5.41370921e-02,  1.37819648e-01,
         1.77411139e-02, -2.67427042e-02,  1.60985410e-01,
        -1.30612418e-01, -1.15179136e-01,  6.83078095e-02,
         5.98483011e-02, -1.69542700e-01,  3.40871029e-02,
        -2.67278850e-01,  1.45721361e-01, -3.54626514e-02,
        -2.18961630e-02, -6.26785606e-02, -3.28440145e-02,
         3.25970426e-02,  2.27041394e-02, -3.54507775e-03,
         5.73101230e-02, -1.71151787e-01,  9.74840820e-02,
        -7.67289326e-02,  7.87318721e-02, -5.04046045e-02,
        -1.25714485e-02,  8.31116512e-02, -1.17799267e-01,
        -3.97961847e-02,  3.12299351e-04, -9.90644097e-03,
        -3.93943973e-02],
       [ 3.03576410e-01,  1.77136034e-01,  1.74875334e-01,
         2.43402466e-01,  1.48956761e-01,  1.66607216e-01,
         1.45858109e-01, -2.49200780e-02, -2.31511831e-01,
        -1.76395059e-01,  2.71715254e-01,  3.85135531e-01,
         4.58084159e-02,  1.55482516e-01, -2.81775117e-01,
         2.93726444e-01, -4.21814352e-01,  1.22028239e-01,
         2.53765553e-01,  3.35465819e-01, -1.69451013e-01,
         7.92874992e-02,  3.10459644e-01,  3.68237466e-01,
        -2.19855279e-01,  2.26986185e-01,  5.09179719e-02,
        -6.49395809e-02, -1.09729916e-01, -2.93390632e-01,
        -4.41878438e-02, -1.32777527e-01, -2.33531341e-01,
        -2.72997528e-01,  7.65580460e-02, -6.77043423e-02,
         1.85280070e-01,  2.05580696e-01, -7.56512135e-02,
         5.92130981e-02,  7.46102929e-02,  1.22079097e-01,
        -7.76413530e-02, -2.33745519e-02,  1.41610414e-01,
        -1.30055293e-01, -1.15225546e-01, -9.14666206e-02,
         2.08734676e-01, -2.07171306e-01,  4.87733036e-01,
        -1.23908622e-02, -2.38448605e-01, -1.14373051e-01,
         4.53911982e-02,  4.80548739e-01, -2.24927634e-01,
         3.25824648e-01,  3.05489093e-01,  3.98553729e-01,
        -3.84681076e-01,  1.20647773e-01, -4.46281694e-02,
         1.00129522e-01, -5.05819283e-02,  4.60086502e-02,
        -2.36888811e-01,  2.74688303e-01, -3.44982415e-01,
        -1.17397740e-01, -1.86002046e-01, -8.14877674e-02,
        -7.97563791e-03,  5.79811335e-01, -1.49759248e-01,
         5.85401207e-02,  3.55758876e-01, -1.81322291e-01,
         6.04192078e-01,  1.47528797e-01,  3.05680841e-01,
         1.43991455e-01, -3.94063443e-02,  5.26604593e-01,
         2.09988832e-01,  2.19229564e-01,  1.27902403e-01,
        -1.13836423e-01,  3.10556203e-01,  4.59358692e-01,
         2.06504762e-01, -4.16281493e-03, -1.96876284e-02,
        -2.12275147e-01, -2.45508775e-01,  3.64765018e-01,
         1.62520751e-01,  9.47323292e-02, -1.61195591e-01,
         4.63614464e-02],
       [-1.52662769e-01, -2.19031870e-01, -1.35158464e-01,
         6.26931936e-02,  2.03980450e-02, -3.09705734e-01,
        -6.67507425e-02,  6.30840659e-02,  2.78503746e-01,
         5.32529764e-02, -1.10697307e-01, -1.15754224e-01,
         1.54895201e-01,  1.35546491e-01,  1.11441044e-02,
        -3.13141257e-01,  1.64493605e-01, -1.48983235e-02,
        -7.55407214e-02, -1.82973400e-01,  2.10732799e-02,
        -1.49066254e-01, -2.61379570e-01, -3.83201540e-01,
         1.81918398e-01, -6.76813871e-02,  6.34623393e-02,
         1.29483297e-01,  3.15136239e-02,  2.92819560e-01,
         1.05122015e-01, -2.29702555e-02,  3.09105273e-02,
         3.98915529e-01,  1.47001043e-01,  9.14687514e-02,
        -2.02923581e-01, -7.08467215e-02, -6.12225346e-02,
        -2.29180325e-02,  3.23187932e-03,  5.72039224e-02,
        -3.35644931e-02, -1.14721343e-01,  1.73698999e-02,
        -1.56555161e-01,  3.65923718e-02, -5.46812452e-03,
         2.42179651e-02,  1.63517490e-01, -4.22244996e-01,
         1.90968409e-01,  9.05252099e-02, -8.81872252e-02,
        -1.14904223e-02, -2.71277070e-01,  1.47462785e-01,
        -1.41639099e-01, -1.22601964e-01, -3.45313847e-01,
         1.24208018e-01,  3.04364413e-02, -2.18342077e-02,
         1.92080989e-01,  1.37165844e-01, -1.27470598e-01,
         1.32481709e-01, -1.95812121e-01,  3.03959340e-01,
         5.60843870e-02,  1.83918864e-01, -3.15877125e-02,
         1.03285788e-02, -1.28367722e-01, -1.92815334e-01,
         1.74977660e-01, -2.71114290e-01,  2.10528702e-01,
        -2.92287946e-01, -1.02148168e-02, -7.84890503e-02,
        -1.10421427e-01,  3.80515419e-02, -3.55103284e-01,
        -3.20267975e-02, -1.60602868e-01, -1.41872764e-02,
        -3.64172533e-02, -3.00604194e-01, -3.04911941e-01,
         1.48571089e-01,  1.93459064e-01,  2.95033723e-01,
         2.36772284e-01, -2.54132282e-02, -1.71762720e-01,
         7.88289495e-03,  2.16109212e-02, -4.32354584e-03,
         2.36380890e-01],
       [ 4.10517603e-02, -3.40895504e-02,  5.43226227e-02,
         1.41238244e-02,  1.43747113e-03, -5.46529144e-02,
         6.32315576e-02, -1.72944255e-02,  2.97437273e-02,
         4.37120534e-02,  5.35607040e-02, -9.24373604e-03,
         6.71780705e-02,  4.85684443e-03,  4.80854660e-02,
        -1.14553317e-01, -7.51743559e-03,  2.22759787e-02,
        -1.63774882e-02,  3.00413854e-02, -6.38436824e-02,
         5.20163439e-02,  5.30561507e-02,  3.32031772e-02,
        -1.62361171e-02, -5.14518842e-02,  3.46149206e-02,
         6.99393898e-02, -8.15250203e-02, -1.13322362e-01,
        -4.41314727e-02, -8.71073082e-03, -3.66833359e-02,
         5.00916392e-02,  6.78224936e-02, -9.35316980e-02,
        -1.52295679e-02,  4.34312634e-02, -2.48395149e-02,
        -5.71487918e-02,  3.97508480e-02,  5.56099899e-02,
         1.09841656e-02, -1.18363895e-01,  1.07530057e-02,
        -2.58551743e-02,  1.89700462e-02,  5.46615459e-02,
        -1.32078724e-02,  4.60125171e-02,  5.51453792e-02,
         1.17869573e-02,  5.65540418e-02, -7.72232711e-02,
        -4.41006422e-02, -5.48254997e-02,  1.01524265e-03,
        -5.39709954e-03,  4.63911742e-02, -3.27058434e-02,
        -4.47662827e-03, -1.81382503e-02, -3.96572500e-02,
         4.40396257e-02, -4.97102588e-02, -5.16305044e-02,
        -1.13038989e-02,  7.08720461e-02, -2.47694310e-02,
         3.64838131e-02,  6.78866962e-03,  7.47308061e-02,
         2.62608435e-02,  2.94249672e-02, -3.06189712e-02,
         4.32634018e-02, -1.38088400e-02, -1.37880817e-02,
        -2.44904272e-02, -1.82131398e-02, -1.48774851e-02,
         8.58011376e-03, -3.13489474e-02, -4.13117632e-02,
        -2.71793883e-02,  5.63390031e-02, -3.70012643e-03,
         7.88829252e-02, -2.92110024e-03,  6.18529245e-02,
         5.60129769e-02,  2.00950261e-02,  1.15331952e-02,
         8.34920065e-05, -2.17505731e-02, -1.30882068e-03,
         9.25039351e-02, -6.59594536e-02, -4.18486446e-02,
        -2.13436019e-02],
       [ 4.36301297e-03,  1.20171025e-01, -8.86561647e-02,
        -1.58036426e-02, -6.46164864e-02, -3.13101150e-02,
        -9.72424150e-02,  2.31259931e-02, -3.88612188e-02,
         4.97023799e-02,  4.44555469e-02, -1.68083832e-02,
         1.51311029e-02, -7.88996667e-02,  1.01846373e-02,
        -1.27941892e-01,  8.86486694e-02, -9.76520032e-02,
        -5.89959659e-02,  2.52530146e-02, -2.40480620e-02,
         4.54364866e-02, -3.19732353e-02, -7.45957941e-02,
        -1.44163445e-02, -4.90729790e-03,  3.81509922e-02,
        -1.99377611e-02,  5.70212826e-02,  1.76247165e-01,
        -1.37012988e-01,  2.38816105e-02, -1.76226348e-02,
         6.57263622e-02, -7.51488507e-02, -1.00517929e-01,
         8.46279785e-02,  3.64123397e-02, -6.83763325e-02,
        -1.97818894e-02,  4.54963818e-02, -1.07923988e-02,
        -1.70112215e-02, -6.42914101e-02, -4.45133373e-02,
         2.01609060e-02, -1.99697632e-02, -2.96785515e-02,
        -8.72260630e-02,  3.42173018e-02,  5.47528546e-03,
         6.84706792e-02, -1.45222053e-01, -3.99059728e-02,
        -5.14975078e-02,  9.90001485e-02,  1.48233101e-02,
         1.14568301e-01, -7.03515194e-04,  4.03918239e-04,
         1.62495092e-01, -6.49877936e-02, -2.49871053e-03,
        -5.58065474e-02,  7.47283474e-02,  4.15621549e-02,
        -4.95133437e-02, -1.07128233e-01, -6.08108900e-02,
        -8.08539391e-02,  6.02132306e-02, -1.07163168e-01,
         6.45247027e-02,  3.58189195e-02,  1.20091271e-02,
        -5.56061864e-02,  2.16673166e-02,  2.37973314e-02,
         1.34779781e-01, -3.36817242e-02,  2.32368633e-02,
        -5.15447408e-02,  7.82405883e-02,  2.02980102e-03,
         7.14424998e-02,  3.47454697e-02, -4.00390616e-03,
        -6.09768704e-02, -4.50403914e-02, -8.20352137e-02,
        -2.47350242e-02, -1.12585820e-01,  5.10449857e-02,
         9.26405042e-02, -1.07859939e-01, -1.60744190e-02,
         3.76817858e-04, -5.64262271e-02, -4.57820781e-02,
         9.13533941e-02],
       [ 2.47315746e-02, -1.65100098e-01, -1.45932734e-02,
        -3.63479741e-02,  9.34339222e-03,  7.11359233e-02,
        -1.03155095e-02, -4.74391393e-02,  8.45813528e-02,
         4.41489136e-03, -7.38649145e-02, -6.68716133e-02,
        -3.81430201e-02,  5.39812557e-02,  8.95241499e-02,
         7.58813247e-02, -1.12181790e-01,  6.26041740e-02,
         4.58413698e-02, -1.91987213e-03, -7.72339627e-02,
         1.07603706e-01, -6.80869818e-02,  3.11101787e-02,
        -4.52954089e-03,  3.79373617e-02,  1.97617933e-02,
         8.77300054e-02, -2.22923346e-02, -1.30367577e-01,
         1.01689316e-01, -2.05718782e-02,  1.97024345e-02,
        -2.91168354e-02,  6.59507066e-02,  4.42661829e-02,
        -9.45353284e-02,  1.27903149e-02,  4.13223952e-02,
         2.06189528e-02, -6.72907904e-02, -1.41094644e-02,
         1.11302666e-01,  3.38811912e-02,  1.25632808e-02,
        -6.26608878e-02, -6.76004589e-02,  1.02555123e-03,
         9.46030300e-03,  7.83937052e-02,  4.08993475e-02,
        -7.65341967e-02,  1.76747665e-01, -5.20123392e-02,
        -3.72380838e-02, -1.43805131e-01, -3.44533548e-02,
        -1.47361442e-01,  4.38285014e-03,  1.10572558e-02,
        -1.48500726e-01,  3.36364657e-02, -6.01439141e-02,
         3.29581387e-02, -2.62765959e-02, -4.77018841e-02,
         6.12378791e-02,  3.52556482e-02,  8.40497240e-02,
         3.44817117e-02, -7.02349935e-05,  1.47153065e-01,
        -8.32137018e-02, -3.75749283e-02,  2.50433702e-02,
         5.89871034e-02, -7.12523088e-02,  3.38838883e-02,
        -1.47928432e-01,  4.51868288e-02, -3.99767198e-02,
         3.69666307e-03, -3.08341961e-02, -7.46798739e-02,
         2.51717903e-02, -3.16864736e-02,  1.36066051e-02,
         1.59533527e-02, -4.17820774e-02,  1.04433008e-01,
        -6.80892318e-02,  4.17144001e-02, -6.54461831e-02,
        -1.89212188e-02,  1.40000626e-01, -5.31997457e-02,
         3.83240134e-02,  7.55438861e-03,  4.74427864e-02,
        -3.77717195e-03],
       [-2.62220632e-02,  1.23292118e-01, -5.10662347e-02,
        -2.89182295e-03, -5.17534874e-02, -9.95821208e-02,
        -6.30311295e-02,  4.96796407e-02, -3.83991860e-02,
        -3.63502279e-02,  8.22579190e-02,  1.53663419e-02,
         2.45975014e-02, -2.50180680e-02, -8.50743204e-02,
        -1.73835188e-01, -3.14984587e-03, -6.41938150e-02,
         1.31666968e-02, -8.28104652e-03, -3.02241612e-02,
         2.73483638e-02, -3.35408747e-02, -1.36571256e-02,
         5.09279640e-03, -1.01559218e-02,  6.69328272e-02,
        -6.23612218e-02,  1.57802049e-02,  1.19222142e-01,
        -1.21273793e-01,  8.13096985e-02, -1.56149969e-01,
         1.13532394e-02, -7.30871931e-02, -5.73409274e-02,
         7.17015713e-02, -3.20511423e-02, -8.01410899e-02,
         8.85802135e-03, -2.58417334e-03, -3.12791318e-02,
        -4.54828255e-02, -1.07696187e-02, -4.84726951e-03,
        -2.68192980e-02,  3.12469359e-02, -7.47596007e-03,
        -3.37415934e-02, -2.91421767e-02,  1.47719625e-02,
         5.09767458e-02, -2.15912640e-01,  2.03317199e-02,
        -4.47245166e-02,  4.37736548e-02,  4.20624763e-02,
         1.22810267e-01,  1.60921738e-02, -6.12377422e-03,
         1.96783349e-01, -6.72335178e-02,  1.82122923e-02,
         1.06054125e-02, -3.14197727e-02,  9.22365934e-02,
        -8.18347409e-02, -1.15518421e-01, -4.27573398e-02,
        -3.75560578e-03,  3.26939411e-02, -1.50580212e-01,
         2.76666880e-02,  4.32795063e-02, -2.53544729e-02,
         8.26993492e-03,  3.58672030e-02,  1.91222932e-02,
         1.03902340e-01, -1.16020329e-01,  1.75099988e-02,
        -1.17425574e-02,  5.08578829e-02,  2.79480591e-02,
         1.43475262e-02,  5.64806201e-02, -4.92799245e-02,
        -6.65912777e-02, -5.56761250e-02, -5.67835569e-02,
         4.02558893e-02, -4.87610623e-02,  2.04862636e-02,
         1.71449017e-02, -1.46095410e-01, -4.12859209e-02,
        -1.00885537e-02, -6.32999986e-02, -4.56670150e-02,
         9.20324475e-02],
       [ 3.16399299e-02, -2.30936538e-02, -6.96005113e-03,
         5.17674014e-02,  6.50103390e-03,  2.51229536e-02,
         3.06845754e-02, -6.12735972e-02, -2.18231957e-02,
        -3.09064742e-02, -2.06782147e-02,  5.81560954e-02,
         3.96642555e-03,  7.29682967e-02,  2.47269962e-02,
        -5.73425405e-02, -2.16263980e-02, -3.57654504e-02,
         6.73678219e-02,  7.85228014e-02,  4.89570480e-03,
        -3.13017778e-02, -3.25771719e-02,  5.03974501e-03,
        -2.77764276e-02, -9.81800724e-03,  5.19128293e-02,
         2.26108693e-02, -7.62841031e-02, -1.00931078e-02,
        -4.51706089e-02,  3.73857282e-02,  2.44590528e-02,
         1.61254480e-02, -4.10533044e-03, -1.39347568e-01,
         5.00993095e-02, -2.81845499e-02, -4.09747940e-03,
         1.20715452e-02, -7.62520544e-03,  1.70211885e-02,
         3.40842083e-02, -1.71325848e-01, -3.57622805e-04,
        -2.82498989e-02,  6.25275895e-02,  1.61548369e-02,
         3.85417156e-02, -4.96227928e-02,  3.63985188e-02,
         3.19965445e-02, -8.81947391e-03, -1.17011962e-03,
        -8.68382007e-02,  6.18028417e-02,  2.09607766e-03,
         1.99284796e-02, -1.85043756e-02,  3.84131521e-02,
         3.81236454e-03,  6.98479488e-02, -6.64122477e-02,
        -2.79018711e-02,  7.13818474e-03, -6.34767637e-02,
        -2.82554459e-02, -7.05093965e-02, -1.84240434e-02,
        -2.96555124e-02,  2.05494487e-03,  1.65744349e-02,
        -1.49309663e-02,  2.14433786e-03,  5.28802462e-02,
         2.67274864e-02, -3.16777732e-05, -5.04659079e-02,
         3.76733430e-02, -4.42293137e-02,  1.08720073e-02,
        -4.10046661e-03, -6.13120086e-02,  1.03941206e-02,
         6.41136095e-02,  6.63802028e-02,  2.57766899e-02,
        -1.52035467e-02, -1.39783863e-02,  2.69598644e-02,
        -1.94017850e-02, -5.00246300e-04, -1.75897181e-02,
         4.47429046e-02,  5.70156612e-02, -2.47368198e-02,
        -7.78663717e-03, -6.31504878e-02, -3.89154404e-02,
         2.25440133e-02],
       [ 2.98014637e-02, -2.17956558e-01,  5.08887209e-02,
         4.44795638e-02, -4.46982868e-02, -1.57729127e-02,
         8.67585316e-02, -3.27806845e-02,  1.18607514e-01,
        -2.15415340e-02,  6.55947849e-02,  3.80125828e-02,
         4.08991463e-02, -6.62313169e-03,  5.53327911e-02,
         1.43760890e-01, -1.88469633e-01,  1.52045667e-01,
        -1.82803161e-02,  4.26711924e-02, -3.06536276e-02,
         1.05808176e-01, -6.26772270e-02, -7.71948555e-03,
        -1.33996094e-02,  8.75054821e-02, -1.20212568e-03,
        -1.76572558e-02, -5.99284135e-02, -7.97892362e-02,
         1.29991099e-02, -5.17526641e-03, -5.84606081e-02,
        -3.24547887e-02,  3.19300592e-02, -6.36486560e-02,
         1.62132699e-02,  3.71518359e-02,  5.60268238e-02,
        -3.10961064e-02, -3.19426358e-02,  2.30120197e-02,
         1.09761566e-01,  1.97515786e-02,  5.35628386e-02,
        -1.40821666e-01, -4.11246493e-02, -3.02174687e-02,
         1.82534587e-02,  1.22432902e-01, -1.31307952e-02,
        -8.64439085e-03,  9.71499756e-02, -1.64277434e-01,
        -5.52993305e-02, -6.65968582e-02, -8.69510230e-03,
        -4.69630435e-02,  3.36218737e-02, -6.15985831e-03,
        -1.76609725e-01,  3.80873196e-02, -1.19672060e-01,
        -2.44973656e-02,  1.80696212e-02, -9.95150432e-02,
        -1.02807106e-02,  1.51252434e-01,  4.38704230e-02,
        -1.61217563e-02,  6.69744313e-02,  8.58145952e-02,
        -2.09431257e-02,  1.49098029e-02, -4.63789403e-02,
        -3.74052348e-03, -6.97246492e-02, -5.48110381e-02,
        -5.20259067e-02,  5.35276793e-02, -1.61153693e-02,
         6.69377446e-02, -2.63022594e-02,  1.43304199e-03,
        -1.84806972e-03,  9.05489102e-02,  5.69635555e-02,
         3.61090824e-02, -1.12609332e-02,  8.60352665e-02,
         6.63152838e-04,  9.38226283e-02, -8.19732919e-02,
        -1.99747514e-02,  8.10671598e-02, -9.30209924e-03,
         9.47140381e-02,  4.60794158e-02,  5.32486401e-02,
        -6.22852445e-02],
       [ 2.33852834e-01,  3.04692537e-01,  1.60389543e-01,
        -4.11120690e-02,  1.84302166e-01,  2.60358036e-01,
        -8.10774341e-02, -3.16848583e-03, -3.37736815e-01,
         1.95225731e-01, -2.74017570e-03,  1.34767801e-01,
        -7.56264701e-02, -1.00790702e-01, -2.19103172e-01,
         3.31888914e-01, -7.54736587e-02,  5.03337234e-02,
         2.41611734e-01,  1.01194315e-01, -6.15754090e-02,
        -1.84726194e-01,  2.05424637e-01,  2.11138815e-01,
        -9.06682909e-02, -4.06733342e-02, -1.48274869e-01,
         6.33831918e-02, -1.18999578e-01, -2.37837762e-01,
         2.08157986e-01, -1.27515078e-01,  1.40750214e-01,
        -3.24334949e-01, -1.30351052e-01,  8.12662765e-02,
         2.97143608e-02, -7.94463381e-02, -6.13384973e-03,
         1.41004011e-01, -8.97750258e-03, -8.94316658e-03,
        -2.04792306e-01, -1.77779160e-02, -4.19920534e-02,
         9.26238820e-02,  6.92843273e-02,  8.44236240e-02,
         1.37063069e-02, -2.03811347e-01,  3.62227052e-01,
        -7.17393830e-02,  1.02973521e-01,  2.44673431e-01,
         3.50273848e-02,  3.84419948e-01, -1.32911325e-01,
         6.22817986e-02,  1.41559809e-01,  2.49097794e-01,
        -3.78746092e-02,  2.69630887e-02,  1.94377795e-01,
        -4.90272753e-02, -6.09232746e-02,  1.25448003e-01,
         1.62944756e-02, -1.52578294e-01, -1.63044289e-01,
         1.46808643e-02, -3.29051733e-01,  1.12907007e-01,
        -5.99668473e-02,  7.81755075e-02,  5.40993549e-02,
        -1.86502352e-01,  3.64069313e-01, -9.04320106e-02,
         1.99223012e-01,  1.59831449e-01,  9.75091290e-03,
         1.01882905e-01, -4.41738293e-02,  2.47787207e-01,
         1.51161999e-02,  6.03713244e-02,  1.42636955e-01,
        -1.26223266e-01,  2.94995070e-01,  2.36584067e-01,
        -8.03184584e-02, -1.35383546e-01, -1.17459819e-01,
        -1.98399439e-01, -2.34997571e-02,  1.67755216e-01,
        -7.42765367e-02,  8.05759057e-02, -2.96737731e-01,
        -6.17098808e-02],
       [-4.75979932e-02, -3.03183317e-01, -6.16752803e-02,
         1.51138110e-02, -1.66391224e-01, -3.10139507e-01,
         7.73016214e-02, -1.60801094e-02,  3.23374122e-01,
        -2.86751240e-01,  6.35848716e-02, -1.20516390e-01,
        -2.97325645e-02,  1.63234785e-01,  9.60395634e-02,
        -3.26879323e-01, -2.52406914e-02,  3.46926693e-03,
        -1.04524575e-01, -8.26866925e-02, -5.28779663e-02,
         2.48382866e-01, -3.98212485e-02, -1.70727909e-01,
         1.60246149e-01,  1.51739538e-01,  2.51181930e-01,
        -1.13695070e-01,  1.01918587e-02,  1.51329994e-01,
        -9.42188203e-02,  9.95985866e-02, -2.30793402e-01,
         2.23345429e-01,  1.47164255e-01, -4.32083607e-02,
         2.26914003e-01,  2.15524986e-01, -1.15215920e-01,
        -1.26047269e-01,  3.14926505e-02, -4.99561355e-02,
         1.30946502e-01, -4.76400666e-02, -6.59424961e-02,
        -1.48870692e-01, -5.13809808e-02, -3.20685282e-02,
        -4.66248691e-02,  1.37846857e-01, -2.69523799e-01,
         6.93100169e-02, -2.59274006e-01, -3.73855859e-01,
        -8.45547542e-02, -2.46781141e-01,  4.39555906e-02,
        -7.78721878e-03, -8.17027166e-02, -2.66609281e-01,
        -7.59781599e-02, -4.96415831e-02, -1.89504638e-01,
         1.18976176e-01,  3.89941111e-02, -1.46163151e-01,
        -1.45504519e-01,  1.26004010e-01, -5.11046015e-02,
         4.90908287e-02,  1.12856396e-01, -1.70814037e-01,
         1.75016657e-01,  9.75964516e-02, -1.18703514e-01,
         2.09968060e-01, -1.96055353e-01,  3.21006998e-02,
        -1.30289793e-01, -1.01525746e-01, -7.20334612e-03,
        -9.78287905e-02,  1.46116093e-01, -9.19669867e-02,
         1.98480710e-01,  2.19351470e-01, -2.21701175e-01,
         1.29684374e-01, -1.49374798e-01, -9.26581174e-02,
         1.81663617e-01,  1.48560196e-01, -5.01401897e-04,
         1.87888056e-01, -1.22965828e-01, -2.11504512e-02,
         1.78388685e-01, -7.54719749e-02,  2.29435131e-01,
         5.59758730e-02],
       [-3.79112698e-02,  8.24937746e-02,  4.25680429e-02,
         2.88130064e-02, -1.72434486e-02, -4.05657478e-02,
         5.33062182e-02, -4.07050177e-02, -2.62610205e-02,
         3.29897478e-02,  1.06047496e-01,  8.67690053e-03,
         3.27193514e-02,  4.51643728e-02,  2.95484327e-02,
        -4.72449511e-02, -1.48240877e-02, -8.07099976e-03,
         4.39818203e-02,  1.01002138e-02, -6.06982363e-03,
         3.41779627e-02, -2.09887214e-02, -3.25332209e-02,
         5.67359030e-02, -6.32281974e-02, -5.73301949e-02,
         5.24521619e-02, -5.56176677e-02, -5.51453382e-02,
        -2.21134890e-02,  4.76504602e-02,  5.50993085e-02,
        -4.34277356e-02,  4.11586650e-02, -2.75321994e-02,
         1.03733595e-02,  2.18267012e-02, -2.39343010e-02,
        -2.76313331e-02, -3.02454606e-02,  1.05549330e-02,
        -1.25776203e-02, -1.33637235e-01, -2.95944978e-02,
        -4.00175042e-02,  4.67718467e-02,  1.14189044e-01,
        -2.61256620e-02,  7.59986416e-02, -4.05198000e-02,
         4.24753316e-03,  6.17113635e-02, -1.42676048e-02,
        -5.67157753e-02, -1.40197454e-02,  1.13550231e-01,
        -3.83251682e-02,  1.53932162e-02,  4.50205803e-02,
         3.76438648e-02,  3.02582849e-02,  3.63525301e-02,
         1.88087951e-02,  1.14641441e-02, -7.08339438e-02,
         5.29861934e-02,  4.64414246e-02,  4.27671224e-02,
        -7.29514612e-03,  2.06693709e-02, -1.09897554e-02,
        -4.48162481e-02, -5.42700142e-02, -3.44710099e-03,
        -8.04355145e-02, -5.47506660e-02, -6.82889298e-02,
        -4.15700395e-03,  1.26156202e-02, -4.78380695e-02,
         5.49846441e-02, -5.66764586e-02,  2.89025865e-02,
         5.25205508e-02,  8.20345357e-02,  6.50962219e-02,
         2.31275670e-02,  5.92671633e-02,  8.40536971e-03,
        -7.19460994e-02,  4.98998677e-03, -7.74237588e-02,
        -8.79168883e-03,  5.19721992e-02,  1.95826730e-03,
        -5.57044558e-02, -3.26961242e-02, -5.80764972e-02,
        -3.05147674e-02],
       [ 4.18549068e-02,  1.33059785e-01, -5.15167927e-03,
         9.17357206e-03,  6.47731945e-02, -8.49945918e-02,
        -2.52253227e-02,  1.13745145e-02,  3.89392697e-03,
        -8.84440169e-02,  9.14617553e-02,  5.92309423e-03,
        -3.32250223e-02, -1.19697293e-02, -2.76250578e-02,
        -1.50885984e-01,  2.97594871e-02, -3.69026959e-02,
        -2.26599425e-02,  2.86807846e-02, -2.95766839e-03,
        -1.21260760e-02, -1.94524620e-02,  1.92322228e-02,
        -2.69624009e-03,  2.91783810e-02,  6.50800914e-02,
        -8.33001658e-02,  3.04702185e-02,  1.25092283e-01,
        -8.35420564e-02,  1.56675316e-02, -5.31182401e-02,
         7.97486678e-02, -7.73023069e-02, -5.52542135e-02,
         8.19851756e-02, -3.47903073e-02, -5.52872643e-02,
        -2.78721172e-02,  2.12903880e-02,  3.37239169e-02,
        -4.91499752e-02, -1.22886583e-01, -1.60300396e-02,
        -1.78988557e-02,  6.67507648e-02,  2.51173954e-02,
         1.69986952e-02, -5.19026741e-02,  1.30372373e-02,
         4.15251292e-02, -1.81356490e-01, -4.34222706e-02,
         2.23297682e-02,  8.46786797e-02, -6.44828901e-02,
         8.30052122e-02,  5.53804217e-03,  2.78996024e-02,
         9.42102149e-02, -2.32217982e-02,  5.02776215e-03,
        -1.14353914e-02, -4.55740765e-02,  2.15319283e-02,
        -9.59563926e-02, -9.65280980e-02, -6.58071712e-02,
         1.44452862e-02,  4.85780761e-02, -1.11625671e-01,
         4.52243015e-02,  7.04187155e-02,  2.83278339e-02,
         3.26313674e-02,  9.33284909e-02, -3.39353979e-02,
         2.00119793e-01, -2.18980517e-02, -2.29956605e-03,
        -8.76374170e-03,  6.28771782e-02,  7.68103898e-02,
         2.57184748e-02,  2.76154485e-02, -2.15342455e-02,
        -3.80579010e-02,  1.08638713e-02, -7.21403584e-02,
         7.75940940e-02,  5.58341388e-03,  1.12944610e-01,
         6.69576153e-02, -7.26286694e-02,  6.61050081e-02,
        -3.07608359e-02, -1.10064922e-02,  2.11125501e-02,
         1.13549858e-01],
       [-3.53015773e-02, -1.51775405e-01, -2.10669152e-02,
         7.15600653e-03, -1.43188993e-02,  5.60406409e-02,
         4.45915163e-02, -4.51979563e-02,  1.76274981e-02,
         4.96554598e-02, -8.93611610e-02,  6.11068346e-02,
         3.52442153e-02,  4.48788591e-02, -2.26649898e-03,
         1.55339614e-01, -1.08472355e-01,  1.33865580e-01,
         1.99854523e-02, -5.29189520e-02, -3.19473520e-02,
         8.97407159e-02,  5.22871502e-02,  4.47751768e-03,
        -6.41631112e-02,  8.21559951e-02, -1.95255633e-02,
         8.11261907e-02, -3.88460234e-02, -1.86995238e-01,
        -7.10284663e-03, -3.62536870e-02,  1.79248024e-02,
        -9.62507874e-02,  1.01198487e-01, -1.19589120e-02,
         4.76130471e-02,  3.16550024e-02,  6.33483082e-02,
         7.57844886e-03, -1.07077742e-02,  4.64487914e-03,
         8.10808241e-02,  4.14247625e-02,  1.69932265e-02,
        -7.96169341e-02,  1.15652578e-02,  7.61531526e-03,
         4.88845818e-02,  1.46886846e-02,  2.53453869e-02,
        -3.06553859e-02,  1.50156274e-01, -1.67893823e-02,
         5.55110835e-02, -6.89818189e-02, -4.00865525e-02,
        -9.16175544e-02, -6.11723997e-02,  1.47229433e-03,
        -1.57818079e-01, -1.16740894e-02,  3.36728506e-02,
         1.44974673e-02, -2.83076279e-02, -1.43245056e-01,
