[array([[-1.11603588e-01, -5.50371073e-02, -7.56399482e-02,
        -8.72264579e-02, -9.54441726e-02,  6.97399005e-02,
         9.24865901e-02,  5.13418429e-02,  7.40269721e-02,
         5.86922094e-02, -1.14253320e-01,  8.18042159e-02,
         7.48462677e-02,  9.17163342e-02, -9.64857936e-02,
         8.31097439e-02, -1.16470538e-01, -8.46762434e-02,
        -9.57878530e-02,  8.94048810e-02,  8.36941078e-02,
        -1.15233921e-01,  1.32280096e-01,  1.18685693e-01,
         7.36803859e-02,  1.44924089e-01, -6.86351806e-02,
         7.85192847e-02, -2.49550445e-04, -1.11888595e-01,
        -1.29140854e-01, -1.01021901e-01, -1.01759516e-01,
         6.35986999e-02,  7.15487599e-02, -1.06899679e-01,
        -1.01077981e-01,  1.24995925e-01,  1.36884615e-01,
         2.86504962e-02,  1.12829059e-01,  1.64141014e-01,
         1.03346951e-01, -9.52815786e-02,  1.20054476e-01,
         1.13481268e-01, -1.48013458e-01, -7.50326291e-02,
        -1.08549230e-01, -1.14901781e-01],
       [-2.21216083e-02, -9.91005264e-03, -1.45007093e-02,
        -1.85572281e-02, -2.03029569e-02,  1.31255640e-02,
         1.88057050e-02,  9.30075534e-03,  1.40638882e-02,
         1.05951242e-02, -2.25946028e-02,  1.53101338e-02,
         1.40943481e-02,  1.92684531e-02, -1.85658745e-02,
         1.61163006e-02, -2.65683848e-02, -1.64036918e-02,
        -2.07058769e-02,  1.85795277e-02,  1.64105482e-02,
        -2.42415071e-02,  2.68309601e-02,  2.53931042e-02,
         1.43666770e-02,  3.01397070e-02, -1.27927912e-02,
         1.45220319e-02, -1.70250642e-04, -2.35061813e-02,
        -3.04053277e-02, -2.21013613e-02, -2.17576977e-02,
         1.15151647e-02,  1.31570445e-02, -2.13573650e-02,
        -2.01488435e-02,  2.73612887e-02,  2.78279223e-02,
         5.20956842e-03,  2.23193243e-02,  3.87072004e-02,
         2.06472240e-02, -1.86954122e-02,  2.46078800e-02,
         2.39944607e-02, -3.03542502e-02, -1.37134036e-02,
        -2.20680926e-02, -2.25578435e-02],
       [-2.35827882e-02, -2.15751701e-03, -5.03802625e-03,
        -2.01956704e-04, -1.34228244e-02,  5.79243014e-03,
        -5.51631115e-03,  2.61999201e-03,  8.14976520e-04,
         2.04836577e-03, -8.39446299e-03,  6.43303758e-03,
         6.51910575e-03, -4.81387274e-03, -4.13872954e-03,
         4.39854478e-03, -2.78863907e-02,  2.74994574e-03,
        -7.45859230e-03,  5.86900674e-03,  7.74919696e-04,
        -8.55947379e-03,  2.72042621e-02,  6.94482075e-03,
         6.88061863e-03,  3.12807062e-03, -3.56009696e-03,
         4.15538251e-03, -3.56651493e-04, -1.40090873e-02,
         1.62746198e-02, -1.87615864e-02, -2.14878451e-02,
         2.52497988e-03,  2.64052488e-03,  7.78261712e-03,
         2.89202924e-03,  2.29553115e-02, -1.26135610e-02,
         7.76018889e-04,  9.67856217e-03, -3.42641538e-03,
         1.66274589e-02, -6.79111853e-03, -8.37786682e-03,
        -3.73673718e-03, -3.86002101e-02, -2.16808892e-03,
         5.53298928e-03, -1.25120475e-03],
       [-8.22955668e-02, -4.00761627e-02, -5.55410199e-02,
        -6.40033707e-02, -7.01627210e-02,  5.10616116e-02,
         6.82160929e-02,  3.73151563e-02,  5.42872250e-02,
         4.28001024e-02, -8.50151181e-02,  6.04202934e-02,
         5.49909286e-02,  6.74456060e-02, -7.16094524e-02,
         6.12570010e-02, -8.57760161e-02, -6.24407418e-02,
        -7.01103732e-02,  6.56121969e-02,  6.16602041e-02,
        -8.52422863e-02,  9.81363431e-02,  8.75696763e-02,
         5.38818873e-02,  1.07043229e-01, -5.02696037e-02,
         5.78868911e-02, -3.61562415e-04, -8.27798471e-02,
        -9.48911756e-02, -7.44273067e-02, -7.48051926e-02,
         4.64978814e-02,  5.25067896e-02, -7.88765922e-02,
        -7.48499781e-02,  9.19981301e-02,  1.00280344e-01,
         2.10642163e-02,  8.39370936e-02,  1.19502746e-01,
         7.61160627e-02, -7.05551431e-02,  8.89666900e-02,
         8.43058154e-02, -1.08534381e-01, -5.52142933e-02,
        -8.04025382e-02, -8.48917738e-02],
       [ 1.29269818e-02,  6.52516354e-03,  9.01711266e-03,
         1.03073707e-02,  1.11883888e-02, -8.24248884e-03,
        -1.09680360e-02, -6.10824814e-03, -8.79266765e-03,
        -6.92222361e-03,  1.34247029e-02, -9.85557027e-03,
        -8.93847551e-03, -1.08152926e-02,  1.15138199e-02,
        -9.96190961e-03,  1.33869024e-02,  1.01398844e-02,
         1.11197550e-02, -1.05420565e-02, -1.00106364e-02,
         1.33982236e-02, -1.52024142e-02, -1.36366980e-02,
        -8.69604107e-03, -1.64257176e-02,  8.13057087e-03,
        -9.43065435e-03,  4.25264116e-05,  1.30245024e-02,
         1.46642905e-02,  1.18250651e-02,  1.18538216e-02,
        -7.48859532e-03, -8.50932766e-03,  1.24851577e-02,
         1.19715007e-02, -1.42868739e-02, -1.53578995e-02,
        -3.52628762e-03, -1.32625271e-02, -1.79896820e-02,
        -1.20589063e-02,  1.13408295e-02, -1.39417611e-02,
        -1.32880472e-02,  1.65079013e-02,  8.98068678e-03,
         1.27106700e-02,  1.33080753e-02],
       [-8.22891369e-02, -3.96328419e-02, -5.52995168e-02,
        -6.36295676e-02, -6.98351264e-02,  5.07454723e-02,
         6.80852383e-02,  3.67964096e-02,  5.39934114e-02,
         4.23960797e-02, -8.55293125e-02,  6.03939854e-02,
         5.47961891e-02,  6.71487600e-02, -7.17692599e-02,
         6.11346327e-02, -8.56714547e-02, -6.23214990e-02,
        -6.95031732e-02,  6.52124807e-02,  6.15080148e-02,
        -8.54637846e-02,  9.91288871e-02,  8.74809474e-02,
         5.34875579e-02,  1.08428732e-01, -4.99939919e-02,
         5.77663220e-02, -3.89020628e-04, -8.29207897e-02,
        -9.51569602e-02, -7.42200986e-02, -7.43988901e-02,
         4.61708456e-02,  5.22506982e-02, -7.88263455e-02,
        -7.49345049e-02,  9.21209455e-02,  1.00619063e-01,
         2.02710647e-02,  8.44120458e-02,  1.20826803e-01,
         7.58782998e-02, -7.06048757e-02,  8.94001424e-02,
         8.46911147e-02, -1.09241918e-01, -5.50486371e-02,
        -8.05394351e-02, -8.49728808e-02],
       [-5.77901490e-02, -2.95110680e-02, -4.00138721e-02,
        -4.53557968e-02, -4.93143909e-02,  3.70270275e-02,
         4.81872447e-02,  2.75172498e-02,  3.91596742e-02,
         3.14119868e-02, -6.00190833e-02,  4.32891995e-02,
         3.96943167e-02,  4.75882925e-02, -5.05960919e-02,
         4.37742472e-02, -6.01296127e-02, -4.45261300e-02,
        -4.90982905e-02,  4.63847443e-02,  4.40008193e-02,
        -5.99959344e-02,  6.91161454e-02,  6.13555983e-02,
         3.88528593e-02,  7.50505030e-02, -3.65375467e-02,
         4.15947214e-02,  7.38273011e-05, -5.82243949e-02,
        -6.65197149e-02, -5.22335581e-02, -5.23573495e-02,
         3.39728296e-02,  3.80113795e-02, -5.53764962e-02,
        -5.27271554e-02,  6.44922554e-02,  7.01265186e-02,
         1.53244957e-02,  5.92491217e-02,  8.19822177e-02,
         5.33491783e-02, -4.98257913e-02,  6.26470223e-02,
         5.94491884e-02, -7.55856857e-02, -3.98427919e-02,
        -5.65626994e-02, -5.96594661e-02],
       [ 6.80650212e-03,  3.56466975e-03,  4.48029395e-03,
         4.89773555e-03,  4.94267419e-03, -4.20984859e-03,
        -5.20933745e-03, -3.36282304e-03, -4.39286046e-03,
        -3.74763971e-03,  5.97346853e-03, -4.70003439e-03,
        -4.43239557e-03, -5.17180702e-03,  5.17098559e-03,
        -4.66398522e-03,  6.20782981e-03,  4.76674549e-03,
         5.06197847e-03, -5.17902104e-03, -4.77527548e-03,
         6.60112780e-03, -7.82078784e-03, -6.43178262e-03,
        -4.36036102e-03, -9.11215972e-03,  4.17777523e-03,
        -4.55527939e-03, -1.86653124e-05,  6.16756314e-03,
         9.02494788e-03,  5.52276429e-03,  5.82454586e-03,
        -3.97451362e-03, -4.29493235e-03,  6.09583547e-03,
         5.39483270e-03, -7.29948282e-03, -9.08159651e-03,
        -2.00993754e-03, -5.91123523e-03, -8.26129131e-03,
        -5.26989345e-03,  5.18761529e-03, -6.92060962e-03,
        -5.76099195e-03,  1.08530931e-02,  4.43571433e-03,
         5.69335325e-03,  6.53959485e-03],
       [-1.39446817e-02, -5.02364477e-03, -9.13848262e-03,
        -1.57697871e-02, -1.13505274e-02,  8.28281324e-03,
         1.22690136e-02,  5.08499332e-03,  9.32234246e-03,
         5.81318140e-03, -9.40684509e-03,  7.96530861e-03,
         4.72259102e-03,  1.33770257e-02, -7.38108158e-03,
         5.87310921e-03, -1.34322979e-02, -7.71304592e-03,
        -4.49247193e-03,  1.24071576e-02,  3.73495393e-03,
        -2.67292932e-03,  1.60659384e-02,  1.24713778e-02,
         8.52451008e-03,  2.70797126e-02, -4.85907914e-03,
         4.75740386e-03, -9.90111512e-05, -3.72720743e-03,
        -4.35504364e-03, -8.33906978e-03, -4.18803981e-03,
         5.50077949e-03,  5.54988161e-03, -1.13287764e-02,
        -8.78956541e-03,  1.20151499e-02,  3.22544761e-02,
         2.98103970e-03,  8.84963013e-03,  4.06123102e-02,
         2.37021521e-02, -7.40295369e-03,  2.84923334e-02,
         7.17290957e-03, -1.48880819e-03, -7.20667653e-03,
        -2.56268773e-03, -2.38920283e-02],
       [-2.64495593e-02, -4.12506191e-03, -8.84516165e-03,
        -1.48164798e-02, -1.85505394e-02,  7.21570943e-03,
         1.56928543e-02,  3.85236857e-03,  8.40615574e-03,
         4.44320263e-03, -2.21956782e-02,  9.33922920e-03,
         8.41943361e-03,  1.59609281e-02, -1.37934182e-02,
         1.06162746e-02, -2.98307184e-02, -1.13858208e-02,
        -2.06288751e-02,  1.59954596e-02,  1.13050370e-02,
        -2.71186493e-02,  3.33050899e-02,  3.11145298e-02,
         9.12054349e-03,  3.77926119e-02, -6.70807250e-03,
         8.04794487e-03, -1.64075696e-04, -2.48034038e-02,
        -3.45858634e-02, -2.07060333e-02, -2.26223972e-02,
         5.17308572e-03,  6.69700000e-03, -2.35373601e-02,
        -1.83671676e-02,  3.35253961e-02,  4.03518789e-02,
         1.31647626e-03,  2.20269263e-02,  5.16759679e-02,
         2.37729643e-02, -1.46981217e-02,  2.80753635e-02,
         2.49359179e-02, -4.54031564e-02, -7.12540327e-03,
        -2.16284785e-02, -2.81775445e-02],
       [-1.64200310e-02,  4.79450356e-03,  9.58128017e-04,
        -4.42117499e-03, -8.06261133e-03, -2.49795360e-03,
         5.61071886e-03, -4.80406871e-03, -1.34946441e-03,
        -4.62574000e-03, -1.47589287e-02,  1.57961374e-04,
        -1.30110886e-03,  5.86726703e-03, -5.31045347e-03,
         1.15526328e-03, -1.98036414e-02, -1.81265734e-03,
        -9.36295837e-03,  5.41971624e-03,  1.65098987e-03,
        -1.77839659e-02,  2.77517848e-02,  2.15914566e-02,
        -7.70277809e-04,  3.55739444e-02,  2.92078382e-03,
        -9.33830510e-04,  7.44208455e-06, -1.55040501e-02,
        -2.82195825e-02, -1.04120597e-02, -1.17034987e-02,
        -4.06390429e-03, -2.55885348e-03, -1.32864676e-02,
        -8.78727436e-03,  2.52042040e-02,  3.37346010e-02,
        -4.09324933e-03,  1.42784920e-02,  5.18997163e-02,
         1.24168769e-02, -5.48250601e-03,  2.02635545e-02,
         1.61766801e-02, -4.13501933e-02,  1.94064190e-03,
        -1.27603877e-02, -1.85299236e-02],
       [-3.63959596e-02, -1.50886998e-02, -2.03056261e-02,
        -2.65369937e-02, -2.36116908e-02,  1.89811271e-02,
         2.71797255e-02,  1.42565519e-02,  2.00751293e-02,
         1.59703344e-02, -2.93773133e-02,  2.14345548e-02,
         1.98113136e-02,  2.72868853e-02, -2.45819855e-02,
         2.22937595e-02, -3.28884386e-02, -2.24185139e-02,
        -2.90825646e-02,  2.73883007e-02,  2.26818435e-02,
        -3.14732753e-02,  3.53998914e-02,  4.08106782e-02,
         1.97302774e-02,  4.37385850e-02, -1.84777547e-02,
         2.06823982e-02, -4.74013068e-05, -3.35125662e-02,
        -3.62638645e-02, -2.45585144e-02, -2.29838304e-02,
         1.71268806e-02,  1.90429464e-02, -2.49402616e-02,
        -2.45916285e-02,  2.57364977e-02,  4.51919958e-02,
         8.44639447e-03,  2.87164375e-02,  2.68150438e-02,
         2.30944604e-02, -2.45992225e-02,  2.69190278e-02,
         3.45116854e-02, -4.76830788e-02, -1.98025294e-02,
        -3.02629061e-02, -3.53496671e-02],
       [ 1.50453933e-02, -8.92578810e-03, -3.43589950e-03,
        -3.31582665e-03,  3.45457316e-04,  4.47253510e-03,
        -3.42343259e-03,  9.25992522e-03,  3.21558979e-03,
         8.03449657e-03,  8.98781512e-03,  3.80502461e-05,
         1.72671070e-03, -1.55754085e-03,  4.00772830e-03,
         4.07169078e-04,  1.29233552e-02,  4.16224415e-04,
         3.34683061e-03,  7.37011491e-04, -2.47970631e-04,
         9.22525767e-03, -1.05814114e-02, -1.32859470e-02,
         1.24601461e-03, -1.57979429e-02, -5.44400793e-03,
         2.02689786e-03, -1.11579342e-04,  1.10045476e-02,
         3.12463939e-02,  7.61114387e-03,  1.52599476e-02,
         6.87563326e-03,  4.40358277e-03,  1.46415625e-02,
         3.92289693e-03, -2.49239802e-02, -2.07408965e-02,
         6.88054180e-03, -9.54169594e-03, -4.50071804e-02,
        -7.06537347e-03,  5.39632514e-03, -1.90449525e-02,
        -1.50749097e-02,  2.40391959e-02, -3.31834028e-03,
         8.25106725e-03,  1.18292868e-02],
       [-9.73401591e-02, -4.85541373e-02, -6.67763650e-02,
        -7.64067173e-02, -8.34511593e-02,  6.15455955e-02,
         8.13472718e-02,  4.52085510e-02,  6.52955621e-02,
         5.18079996e-02, -1.00627311e-01,  7.25098327e-02,
         6.61726072e-02,  8.03785846e-02, -8.53344277e-02,
         7.34141991e-02, -1.01234965e-01, -7.47668296e-02,
        -8.32569525e-02,  7.82417133e-02,  7.38523901e-02,
        -1.00774355e-01,  1.15599126e-01,  1.03270791e-01,
         6.47749081e-02,  1.25768930e-01, -6.06536008e-02,
         6.95441589e-02, -4.01770318e-04, -9.79461968e-02,
        -1.11676805e-01, -8.83624926e-02, -8.86873752e-02,
         5.62123433e-02,  6.32574931e-02, -9.34561267e-02,
        -8.89731571e-02,  1.08353011e-01,  1.17795736e-01,
         2.51833219e-02,  9.93937477e-02,  1.39858574e-01,
         9.02443901e-02, -8.40879381e-02,  1.05046369e-01,
         9.97751653e-02, -1.27286881e-01, -6.64429963e-02,
        -9.52589810e-02, -1.00314572e-01],
       [-5.38613163e-02, -2.86677144e-02, -3.84988748e-02,
        -4.33371477e-02, -4.69001010e-02,  3.57065424e-02,
         4.60038036e-02,  2.67960392e-02,  3.76836285e-02,
         3.04528102e-02, -5.57684116e-02,  4.16059494e-02,
         3.82164717e-02,  4.53810915e-02, -4.81689945e-02,
         4.20010462e-02, -5.55989817e-02, -4.26916331e-02,
        -4.65953946e-02,  4.42591794e-02,  4.21958007e-02,
        -5.56517281e-02,  6.29262701e-02,  5.65672927e-02,
         3.73528898e-02,  6.76426068e-02, -3.52667682e-02,
         4.00061943e-02, -7.71173363e-05, -5.42376488e-02,
        -6.06678724e-02, -4.94238585e-02, -4.93964925e-02,
         3.28649022e-02,  3.66404057e-02, -5.19649684e-02,
        -4.99080792e-02,  5.90420254e-02,  6.34665117e-02,
         1.54637247e-02,  5.51539958e-02,  7.37326443e-02,
         5.02931960e-02, -4.74756025e-02,  5.77567108e-02,
         5.52930869e-02, -6.78733215e-02, -3.83682810e-02,
        -5.29563874e-02, -5.53377643e-02],
       [ 1.88992582e-02,  1.06975324e-02,  1.39528848e-02,
         1.54849263e-02,  1.66368242e-02, -1.30304741e-02,
        -1.63751598e-02, -1.00583117e-02, -1.36748087e-02,
        -1.12931002e-02,  1.95861161e-02, -1.49895707e-02,
        -1.38688143e-02, -1.61529910e-02,  1.71186142e-02,
        -1.50998496e-02,  1.94202792e-02,  1.53211951e-02,
         1.64770912e-02, -1.57770552e-02, -1.51535366e-02,
         1.95024088e-02, -2.18960922e-02, -1.97172817e-02,
        -1.35557773e-02, -2.34365128e-02,  1.29019506e-02,
        -1.44528532e-02, -2.48011693e-05,  1.90438312e-02,
         2.10830756e-02,  1.74505338e-02,  1.74164753e-02,
        -1.21012041e-02, -1.33426245e-02,  1.82979479e-02,
         1.76651720e-02, -2.05414239e-02, -2.19892655e-02,
        -6.12267386e-03, -1.93843357e-02, -2.53855921e-02,
        -1.77299455e-02,  1.68812443e-02, -2.01946441e-02,
        -1.94049068e-02,  2.34170500e-02,  1.39182974e-02,
         1.86366923e-02,  1.93889104e-02],
       [-6.26292638e-03, -3.09966225e-03, -7.10714050e-03,
        -1.21081928e-02, -3.77537566e-03,  5.13866590e-03,
         1.41293351e-02,  3.18978820e-03,  2.79674679e-03,
         3.32685001e-03, -9.19867121e-03,  3.40686110e-03,
         5.46439691e-03,  8.26273393e-03, -6.90778205e-03,
         9.91143938e-03,  7.95775652e-03, -8.24900158e-03,
        -1.12457550e-03, -1.20128738e-03,  1.12992404e-02,
         2.76454695e-04,  2.38271933e-02,  2.34701727e-02,
         7.02383509e-03,  1.75552852e-02, -6.29511615e-03,
         5.14216814e-03, -1.30178800e-04, -1.81542747e-02,
        -4.81511699e-03, -9.64551046e-03, -6.48683310e-03,
         3.93500505e-03,  4.94012283e-03, -1.56194679e-02,
        -3.35079804e-03, -7.85125140e-03,  1.95004288e-02,
         1.22767768e-03,  7.08734896e-03,  2.32446603e-02,
         1.86222210e-03, -7.46776536e-03,  1.79419219e-02,
         1.46960309e-02, -3.58974487e-02, -4.65508830e-03,
        -1.31211001e-02, -1.48706511e-02],
       [ 2.17220020e-02,  6.00367459e-03,  9.95707791e-03,
         1.31663028e-02,  1.65408477e-02, -8.50167312e-03,
        -1.45699428e-02, -5.51483221e-03, -9.55979992e-03,
        -6.54898630e-03,  2.09749136e-02, -1.14822667e-02,
        -9.64596868e-03, -1.43743316e-02,  1.56821925e-02,
        -1.19071761e-02,  2.21523512e-02,  1.25075281e-02,
         1.73750073e-02, -1.47199845e-02, -1.24211339e-02,
         2.25835051e-02, -2.75039878e-02, -2.52690352e-02,
        -9.73462965e-03, -2.92982999e-02,  8.21371097e-03,
        -1.05178775e-02, -2.82343855e-04,  2.10244842e-02,
         3.05871069e-02,  1.83971617e-02,  1.82439163e-02,
        -7.29186693e-03, -8.77371989e-03,  1.90395657e-02,
         1.71400942e-02, -2.45545544e-02, -2.62255594e-02,
        -2.79023917e-03, -2.07851976e-02, -3.93764377e-02,
        -2.04918571e-02,  1.55201182e-02, -2.39161495e-02,
        -2.23314166e-02,  3.54497209e-02,  9.57925152e-03,
         1.99616626e-02,  2.33246274e-02],
       [-3.82481813e-02, -1.04533769e-02, -1.87838972e-02,
        -5.66855706e-02, -1.51527962e-02,  1.52580114e-02,
        -3.78046706e-02,  2.68148370e-02,  2.66008284e-02,
         2.06929464e-02,  2.34993966e-03, -3.03609017e-03,
        -4.95726103e-03, -2.52836719e-02, -1.24680083e-02,
        -1.30347935e-02,  7.12677985e-02,  1.44002878e-03,
         7.61692375e-02, -6.18061982e-02,  2.15926506e-02,
         5.98185733e-02, -5.35655506e-02, -7.54295141e-02,
        -2.95817871e-02, -3.05279810e-02,  1.21187754e-02,
         3.13784629e-02, -2.06955636e-04, -2.74811089e-02,
        -2.56724823e-02,  6.88950121e-02,  5.95666170e-02,
         9.66747291e-03,  2.18919497e-02, -1.41839050e-02,
         4.16318402e-02, -4.36091162e-02,  2.93441229e-02,
         2.00838037e-02,  5.48540801e-03,  5.09673692e-02,
         6.64020106e-02,  6.88027358e-03,  1.60229940e-03,
        -2.86167916e-02,  5.50289080e-02, -1.84918568e-02,
        -3.57668549e-02, -3.06139402e-02],
       [-2.53737401e-02, -1.06473435e-02, -1.56309884e-02,
        -1.89447030e-02, -2.11553518e-02,  1.42124938e-02,
         2.01008804e-02,  9.86304414e-03,  1.52635137e-02,
         1.14796758e-02, -2.53198296e-02,  1.68447141e-02,
         1.53752398e-02,  2.00572349e-02, -2.05671452e-02,
         1.74298603e-02, -2.69760899e-02, -1.78280994e-02,
        -2.17717420e-02,  1.96845401e-02,  1.76101401e-02,
        -2.62199435e-02,  3.04206330e-02,  2.77711377e-02,
         1.54207256e-02,  3.36289108e-02, -1.38990181e-02,
         1.60470568e-02, -2.68317293e-04, -2.52013765e-02,
        -3.03610750e-02, -2.27199588e-02, -2.31535975e-02,
         1.26006501e-02,  1.44960750e-02, -2.39893347e-02,
        -2.21583303e-02,  2.92789731e-02,  3.25604714e-02,
         5.07634785e-03,  2.49231569e-02,  3.93832289e-02,
         2.33413018e-02, -2.04605442e-02,  2.73214616e-02,
         2.54827403e-02, -3.56238298e-02, -1.52201056e-02,
        -2.41375193e-02, -2.63281986e-02],
       [ 4.60714176e-02, -8.66938382e-03, -6.83371769e-03,
         1.91620644e-03,  3.53456661e-02, -3.43941571e-03,
        -7.82956649e-03,  6.09624153e-03,  2.26706592e-03,
         8.74326471e-03,  2.97163101e-03, -5.62823145e-03,
         1.81879394e-03, -3.09246266e-03, -2.11335253e-03,
        -2.83842557e-03,  4.11417559e-02,  1.06892250e-02,
         1.36703439e-02, -1.14371572e-02, -5.72810555e-03,
         2.04087514e-02, -1.34077342e-02, -4.78914268e-02,
        -8.45673261e-04, -9.26322676e-03, -1.06286732e-02,
         2.59994762e-03, -6.13159500e-05,  6.03903318e-03,
         5.51332384e-02,  1.96393840e-02, -8.75149015e-03,
         9.81130078e-03,  5.96594904e-03,  1.73309725e-03,
         1.20252604e-03, -2.58233268e-02, -3.58504392e-02,
         4.98550897e-03,  9.17720888e-03, -5.98576665e-02,
        -3.90993915e-02, -4.15194919e-03,  5.52205893e-04,
        -3.03651113e-02,  1.61128566e-02, -5.06158499e-03,
         5.45530953e-03,  3.24185230e-02],
       [ 1.31195318e-02,  1.30239008e-02,  1.56568456e-02,
         6.65473100e-03, -3.16283219e-02, -3.96819692e-03,
        -1.49609661e-02, -1.01341708e-02, -5.59352757e-03,
        -1.22577418e-02,  7.08113145e-03, -9.04169772e-03,
        -7.86343496e-03,  2.29058340e-02,  3.30622308e-03,
        -5.22432150e-03, -2.90274434e-02, -1.11579488e-03,
        -2.54807230e-02,  6.12300821e-03,  4.90128528e-03,
         1.78295169e-02, -2.30930150e-02, -9.70253255e-03,
         2.09051394e-03, -6.88528502e-03,  1.46010248e-02,
        -1.69283673e-02, -2.99006002e-04,  3.37039120e-03,
        -5.02410941e-02,  2.29187794e-02, -2.66895369e-02,
        -1.14873424e-02, -1.02237538e-02, -6.68294169e-03,
         9.57718585e-03,  4.12523635e-02,  6.73829615e-02,
        -7.28507107e-03, -5.35992673e-03,  2.40689777e-02,
         3.78846452e-02, -1.13347231e-03, -5.67795755e-03,
        -2.79588834e-03,  3.25421034e-03,  1.34511339e-02,
        -1.53051019e-02, -1.71098839e-02],
       [-6.03712574e-02, -3.00235916e-02, -4.12019528e-02,
        -4.72602993e-02, -5.16618676e-02,  3.79739068e-02,
         5.02870232e-02,  2.80030798e-02,  4.02898826e-02,
         3.20047922e-02, -6.22700714e-02,  4.46956903e-02,
         4.08046804e-02,  4.97114696e-02, -5.26854172e-02,
         4.52911854e-02, -6.28694817e-02, -4.61390577e-02,
        -5.16440123e-02,  4.84174974e-02,  4.55763228e-02,
        -6.25180155e-02,  7.16971382e-02,  6.41978905e-02,
         3.99913192e-02,  7.80349821e-02, -3.74108218e-02,
         4.28746901e-02, -4.23247693e-04, -6.06957898e-02,
        -6.93541244e-02, -5.47621213e-02, -5.49923815e-02,
         3.46835330e-02,  3.90109681e-02, -5.79153188e-02,
        -5.50233871e-02,  6.72454312e-02,  7.34233558e-02,
         1.59296580e-02,  6.14962429e-02,  8.73378664e-02,
         5.59663661e-02, -5.19363955e-02,  6.51353821e-02,
         6.17840365e-02, -7.94743970e-02, -4.09583971e-02,
        -5.89851029e-02, -6.22164384e-02],
       [-9.14377719e-03, -6.69075502e-03, -6.95020659e-03,
        -9.63293947e-03, -1.32036274e-02,  6.80787070e-03,
         9.02452134e-03,  6.76762545e-03,  6.86576962e-03,
         5.49691822e-03, -4.33387607e-03,  4.94775409e-03,
         7.02094939e-03,  1.09740961e-02, -1.60053570e-03,
         6.20883750e-03, -1.45872189e-02, -6.74119079e-03,
        -1.07076783e-02,  8.63582268e-03,  7.27051776e-03,
        -1.12833846e-02,  8.32559634e-03,  2.01479420e-02,
         7.97397364e-03,  1.36537952e-02, -6.63508195e-03,
         3.49111063e-03, -2.42337643e-04, -1.14955138e-02,
        -1.42991692e-02, -1.16746686e-02, -1.45509019e-02,
         5.54462615e-03,  4.34350595e-03, -1.61611922e-02,
        -7.52087589e-03,  1.43640349e-02,  1.36822816e-02,
         7.00206775e-03,  5.70361549e-03,  1.29850404e-02,
         1.47945182e-02, -5.03392844e-03,  1.16432440e-02,
         1.34629691e-02, -2.45584380e-02, -3.55103752e-03,
        -8.04774277e-03, -1.55843562e-02],
       [-1.66837536e-02, -1.05285468e-02, -1.37654543e-02,
        -1.54198864e-02, -1.49889383e-02,  1.25497524e-02,
         1.63787082e-02,  9.95550677e-03,  1.32754371e-02,
         1.10937860e-02, -1.80578046e-02,  1.46438330e-02,
         1.36301806e-02,  1.62971467e-02, -1.61063503e-02,
         1.41405929e-02, -1.91904493e-02, -1.50705194e-02,
        -1.57504920e-02,  1.44337714e-02,  1.49684614e-02,
        -2.08169613e-02,  2.06181332e-02,  1.62539873e-02,
         1.32571505e-02,  2.39227749e-02, -1.24733038e-02,
         1.39799006e-02, -2.44036200e-04, -1.81012191e-02,
        -2.38345973e-02, -1.83574334e-02, -1.46671087e-02,
         1.18128816e-02,  1.29443649e-02, -1.81625988e-02,
        -1.78150386e-02,  1.97081119e-02,  2.53734514e-02,
         6.23831339e-03,  1.88865773e-02,  2.74973270e-02,
         1.71224736e-02, -1.62535161e-02,  1.87590867e-02,
         1.84603836e-02, -2.02618148e-02, -1.34305554e-02,
        -1.59675200e-02, -1.47579415e-02],
       [-2.54654735e-02, -8.36568326e-03, -1.26056932e-02,
        -1.21630514e-02, -1.79514159e-02,  1.14185251e-02,
         1.45011367e-02,  7.87873566e-03,  1.23863742e-02,
         8.94113537e-03, -1.92470811e-02,  1.34223048e-02,
         1.16271684e-02,  1.67441145e-02, -1.54567845e-02,
         1.42138954e-02, -1.34094777e-02, -1.29182581e-02,
        -1.74309425e-02,  1.66436303e-02,  1.45411920e-02,
        -2.58511920e-02,  1.76253002e-02,  2.98622102e-02,
         1.26572205e-02,  2.16045659e-02, -1.06100468e-02,
         1.23580117e-02, -2.21656286e-04, -2.10163798e-02,
        -2.60068513e-02, -1.87162776e-02, -2.09711716e-02,
         9.77747235e-03,  1.11277895e-02, -1.31172575e-02,
        -1.84498578e-02,  2.21627373e-02,  3.85016501e-02,
         4.21902956e-03,  2.04287563e-02,  2.41885260e-02,
         1.53703457e-02, -1.53251030e-02,  2.36622766e-02,
         1.80296656e-02, -1.48449047e-02, -1.15843583e-02,
        -1.55505072e-02, -1.93428267e-02],
       [ 1.79656744e-02, -7.22147664e-03, -6.01783744e-04,
         5.43755107e-03,  9.40467604e-03,  2.82953819e-03,
        -7.07818568e-03,  7.72962952e-03,  1.21912651e-03,
         6.41865050e-03,  1.79479513e-02, -1.47985551e-03,
         1.19401782e-03, -7.15547800e-03,  8.16619769e-03,
        -2.33689439e-03,  2.08692923e-02,  3.17771616e-03,
         1.01096481e-02, -6.36778120e-03, -2.82923854e-03,
         1.94029231e-02, -2.76626106e-02, -2.20325328e-02,
         1.24175148e-03, -3.32223773e-02, -3.44263064e-03,
        -9.43631821e-05, -3.89226829e-04,  1.75928269e-02,
         2.73834672e-02,  1.18379015e-02,  1.29098427e-02,
         5.08395117e-03,  2.48975423e-03,  1.52334860e-02,
         1.12587884e-02, -2.51260772e-02, -3.12480368e-02,
         6.46982249e-03, -1.72130410e-02, -4.23405692e-02,
        -1.38247311e-02,  7.87284691e-03, -2.18082387e-02,
        -1.80984456e-02,  3.61962840e-02, -1.33372052e-03,
         1.55248791e-02,  1.97482854e-02],
       [-4.47268374e-02,  6.09494932e-03,  3.11449775e-03,
        -1.66896433e-02, -2.94443481e-02, -8.60795099e-03,
         1.40665779e-02, -5.97223127e-03, -7.42328446e-03,
        -9.78314038e-03, -9.38989688e-03, -1.18337246e-02,
        -1.11381868e-02, -2.57481821e-02,  9.04344767e-03,
        -9.78665613e-03,  7.34198559e-03, -1.34075037e-03,
        -1.08195450e-02,  1.77383889e-02, -1.63719077e-02,
        -4.08661701e-02,  1.33957705e-02,  4.28477861e-03,
        -2.44169291e-02, -9.08442028e-03,  6.37564063e-03,
        -9.60977189e-03, -3.21315310e-04, -8.31028260e-03,
        -2.52980776e-02,  2.62499396e-02, -1.26513261e-02,
        -1.16299018e-02, -9.16139781e-03, -2.15772316e-02,
        -2.13461630e-02,  2.38685273e-02,  1.59441549e-02,
        -5.20506827e-03, -1.40202697e-02,  2.11357139e-03,
        -2.78354477e-04,  1.04278335e-02, -9.84178670e-03,
         1.81398634e-02, -4.47507910e-02,  1.17944162e-02,
        -7.58074922e-03, -2.03955770e-02],
       [ 4.56648791e-04,  3.10429867e-04,  3.87110107e-04,
         4.13026690e-04,  4.27302992e-04, -3.73176561e-04,
        -4.25247592e-04, -3.06199858e-04, -3.81177291e-04,
        -3.25695670e-04,  4.59841365e-04, -4.05408384e-04,
        -3.86497471e-04, -4.21629986e-04,  4.37235925e-04,
        -4.07130108e-04,  4.56621434e-04,  4.10504785e-04,
         4.25305043e-04, -4.19115560e-04, -4.07318294e-04,
         4.59014060e-04, -4.67515463e-04, -4.60157811e-04,
        -3.79727368e-04, -4.48496547e-04,  3.71150731e-04,
        -3.98162840e-04, -4.54181791e-05,  4.58828115e-04,
         4.81325493e-04,  4.41388431e-04,  4.39600874e-04,
        -3.53193027e-04, -3.78702534e-04,  4.46936785e-04,
         4.41048731e-04, -4.75037494e-04, -4.67971404e-04,
        -1.48035761e-04, -4.57033282e-04, -5.39397181e-04,
        -4.38618852e-04,  4.34236892e-04, -4.61128860e-04,
        -4.57451184e-04,  4.32094414e-04,  3.86848522e-04,
         4.54493478e-04,  4.54947934e-04],
       [-5.84328473e-02, -2.98986435e-02, -4.06068377e-02,
        -4.63247560e-02, -5.03963120e-02,  3.75519097e-02,
         4.90361117e-02,  2.79355608e-02,  3.97506431e-02,
         3.18235345e-02, -5.98195568e-02,  4.38359864e-02,
         4.02145423e-02,  4.85606082e-02, -5.11830896e-02,
         4.44088839e-02, -6.06730022e-02, -4.52009216e-02,
        -5.04303128e-02,  4.73722816e-02,  4.46963049e-02,
        -6.01987652e-02,  6.82645515e-02,  6.19027652e-02,
         3.94683890e-02,  7.38129541e-02, -3.70025970e-02,
         4.21511605e-02, -3.36697354e-04, -5.85595891e-02,
        -6.67457357e-02, -5.31891994e-02, -5.34543395e-02,
         3.43991220e-02,  3.85264941e-02, -5.60971536e-02,
        -5.33540212e-02,  6.47487938e-02,  7.04681054e-02,
         1.59169845e-02,  5.91367222e-02,  8.28080848e-02,
         5.43389320e-02, -5.05237430e-02,  6.24881126e-02,
         5.95056675e-02, -7.58681744e-02, -4.03535329e-02,
        -5.69706373e-02, -6.01190329e-02],
       [-2.07155552e-02, -2.02594907e-03, -7.21820910e-03,
        -1.21115195e-02, -1.48096168e-02,  5.59969340e-03,
         1.32329501e-02,  1.84064335e-03,  6.71435799e-03,
         2.47791409e-03, -1.77939776e-02,  8.13951716e-03,
         6.96202554e-03,  1.39772221e-02, -1.18616922e-02,
         9.82704386e-03, -2.27046087e-02, -1.00817028e-02,
        -1.47111863e-02,  1.29121337e-02,  9.89322457e-03,
        -2.05729678e-02,  2.62856074e-02,  2.39088070e-02,
         7.32020847e-03,  3.05978563e-02, -5.15115121e-03,
         6.83349045e-03, -1.06515272e-05, -1.98611934e-02,
        -2.68932302e-02, -1.64587796e-02, -1.53598581e-02,
         3.59188044e-03,  5.02651138e-03, -2.00812370e-02,
        -1.51392557e-02,  2.57690921e-02,  3.25081609e-02,
        -5.32550504e-04,  1.81968510e-02,  3.93419527e-02,
         1.81259140e-02, -1.20468726e-02,  2.23219171e-02,
         2.01435853e-02, -3.42824049e-02, -5.65496320e-03,
        -1.73837524e-02, -2.20177025e-02],
       [-2.35963389e-02, -1.24605298e-02, -1.63704492e-02,
        -1.87100917e-02, -2.03003306e-02,  1.52889630e-02,
         1.95336528e-02,  1.17256381e-02,  1.60717424e-02,
         1.31688435e-02, -2.29550060e-02,  1.73643138e-02,
         1.62309781e-02,  1.94010139e-02, -1.96791738e-02,
         1.76481623e-02, -2.47180294e-02, -1.79561004e-02,
        -2.05745939e-02,  1.91548467e-02,  1.78097859e-02,
        -2.41291746e-02,  2.72614863e-02,  2.52715275e-02,
         1.60548910e-02,  2.95317750e-02, -1.50670297e-02,
         1.67441834e-02, -1.78974442e-04, -2.32538283e-02,
        -2.74466779e-02, -2.12661177e-02, -2.16808282e-02,
         1.41064581e-02,  1.55400131e-02, -2.24441923e-02,
        -2.09029745e-02,  2.65354980e-02,  2.90574692e-02,
         6.85466081e-03,  2.27865968e-02,  3.42832431e-02,
         2.20406093e-02, -1.96659621e-02,  2.48612668e-02,
         2.35250648e-02, -3.14825885e-02, -1.61338784e-02,
        -2.22537890e-02, -2.42956970e-02],
       [ 4.16107140e-02,  1.38427531e-02,  2.08802409e-02,
         2.62059849e-02,  2.98148487e-02, -1.87789220e-02,
        -2.78826747e-02, -1.33468043e-02, -2.02979129e-02,
        -1.47955967e-02,  3.51509079e-02, -2.17047986e-02,
        -2.00814363e-02, -2.90140174e-02,  2.72531919e-02,
        -2.27602255e-02,  3.85344662e-02,  2.38095764e-02,
         3.17536779e-02, -2.92847138e-02, -2.36203969e-02,
         3.68045829e-02, -4.68635187e-02, -4.30813245e-02,
        -2.06433646e-02, -4.72052880e-02,  1.79202743e-02,
        -2.02390160e-02, -1.59120129e-04,  3.77028137e-02,
         4.87399176e-02,  3.21464650e-02,  3.48382294e-02,
        -1.60522163e-02, -1.83916260e-02,  3.44577432e-02,
         3.06985714e-02, -4.56713699e-02, -5.67418858e-02,
        -7.77102448e-03, -3.51059735e-02, -6.17578253e-02,
        -3.79133783e-02,  2.75768694e-02, -3.92518006e-02,
        -3.52416337e-02,  5.52109964e-02,  1.90496165e-02,
         3.45600359e-02,  4.01654951e-02],
       [ 2.68431045e-02, -1.60444342e-02, -1.64966621e-02,
        -3.18528782e-03, -2.93836667e-04,  1.21376868e-02,
        -1.08756945e-02,  1.61332637e-02,  7.03139789e-03,
         1.64459106e-02,  5.17151365e-03,  1.52565911e-02,
         7.82361813e-03, -6.35579403e-04, -4.93408926e-03,
         4.50779404e-03,  1.28697732e-03, -3.78094660e-03,
         2.22042613e-02,  8.76967981e-03,  4.12884494e-03,
         2.88811233e-03,  2.12360313e-03, -3.19741890e-02,
         1.31755508e-02, -1.89211108e-02, -1.73980147e-02,
         1.14607830e-02, -1.35858689e-04,  2.48811115e-02,
         4.04990427e-02, -2.10601109e-04,  1.50224296e-02,
         1.57234482e-02,  1.45845357e-02,  9.66662448e-03,
        -8.43991805e-03, -3.16622443e-02, -1.28605859e-02,
         1.12711200e-02, -3.87324812e-03, -2.32464448e-02,
         2.11635651e-03, -4.18201787e-03, -3.00161112e-02,
        -1.10808117e-02,  6.82854876e-02, -1.25047332e-02,
         4.59706690e-03,  3.93302646e-03],
       [-7.12672025e-02, -3.27639990e-02, -4.66116369e-02,
        -5.43703362e-02, -6.00278638e-02,  4.25863117e-02,
         5.81114739e-02,  3.03127691e-02,  4.54892516e-02,
         3.51915024e-02, -7.34586343e-02,  5.09445406e-02,
         4.60966565e-02,  5.74820340e-02, -6.10946529e-02,
         5.17437980e-02, -7.46078864e-02, -5.28191105e-02,
        -6.00981638e-02,  5.58404401e-02,  5.21263182e-02,
        -7.39065260e-02,  8.58386904e-02,  7.63155296e-02,
         4.51491997e-02,  9.42765698e-02, -4.18647341e-02,
         4.86781076e-02, -4.11595975e-04, -7.15984255e-02,
        -8.32709149e-02, -6.39230460e-02, -6.43900558e-02,
         3.84863988e-02,  4.38654497e-02, -6.80283606e-02,
        -6.41540438e-02,  8.04651082e-02,  8.85965526e-02,
         1.59146395e-02,  7.24584833e-02,  1.07009046e-01,
         6.55621961e-02, -6.01806864e-02,  7.73284137e-02,
         7.28882402e-02, -9.64805856e-02, -4.62791361e-02,
        -6.93281144e-02, -7.36949518e-02],
       [-2.12835222e-02, -5.78614324e-03, -1.17285587e-02,
        -1.52677856e-02, -1.74119920e-02,  9.96791571e-03,
         1.62650645e-02,  5.15186088e-03,  1.12918094e-02,
         6.65631425e-03, -2.12994143e-02,  1.30627779e-02,
         1.14319408e-02,  1.63542144e-02, -1.67693365e-02,
         1.36980088e-02, -2.25537810e-02, -1.40842898e-02,
        -1.80520266e-02,  1.59691125e-02,  1.39118331e-02,
        -2.19484959e-02,  2.51594763e-02,  2.31762882e-02,
         1.14804665e-02,  2.76380163e-02, -9.55099054e-03,
         1.22519769e-02,  4.07864572e-05, -2.11768672e-02,
        -2.51586027e-02, -1.88785959e-02, -1.93227362e-02,
         7.98270665e-03,  1.03539545e-02, -2.01342516e-02,
        -1.83314290e-02,  2.43338533e-02,  2.67659649e-02,
         2.10787659e-03,  2.09841281e-02,  3.17466035e-02,
         1.95223466e-02, -1.66635960e-02,  2.28850432e-02,
         2.13904474e-02, -2.89519578e-02, -1.12880366e-02,
        -2.02949960e-02, -2.20919773e-02],
       [-2.64623817e-02, -1.38131259e-02, -1.87193658e-02,
        -2.11443715e-02, -2.29326356e-02,  1.73269454e-02,
         2.24778783e-02,  1.28760533e-02,  1.83145981e-02,
         1.47070326e-02, -2.72999555e-02,  2.02571992e-02,
         1.85757373e-02,  2.21611261e-02, -2.35277545e-02,
         2.04622522e-02, -2.72154938e-02, -2.08005924e-02,
        -2.27594841e-02,  2.16240808e-02,  2.05596685e-02,
        -2.73220520e-02,  3.10945902e-02,  2.76182182e-02,
         1.81623250e-02,  3.33009213e-02, -1.71094257e-02,
         1.94657091e-02,  1.01934684e-05, -2.65525021e-02,
        -2.99195368e-02, -2.41838545e-02, -2.41984036e-02,
         1.59110297e-02,  1.77928992e-02, -2.54482720e-02,
        -2.43848842e-02,  2.89715305e-02,  3.08341198e-02,
         7.14767771e-03,  2.69725118e-02,  3.55536230e-02,
         2.46474016e-02, -2.31847949e-02,  2.83491313e-02,
         2.71354038e-02, -3.37081067e-02, -1.86504647e-02,
        -2.59589776e-02, -2.71875728e-02],
       [ 4.50000080e-05, -4.50000080e-05, -4.50000080e-05,
         4.50000080e-05, -4.50000080e-05, -4.50000080e-05,
         4.50000080e-05, -4.50000007e-05,  4.50000080e-05,
         4.50000080e-05, -4.50000080e-05,  4.50000080e-05,
         4.50000080e-05, -4.50000080e-05,  4.50000080e-05,
         4.50000080e-05, -4.50000080e-05, -4.50000007e-05,
        -4.50000080e-05, -4.50000080e-05,  4.50000080e-05,
        -4.50000007e-05,  4.50000080e-05,  4.50000080e-05,
         4.50000080e-05,  4.50000080e-05, -4.50000007e-05,
        -4.50000080e-05, -4.49999970e-05,  4.50000080e-05,
         4.50000080e-05,  4.50000080e-05,  4.50000007e-05,
        -4.50000080e-05, -4.50000080e-05, -4.50000007e-05,
         4.50000080e-05, -4.50000080e-05,  4.50000080e-05,
        -4.50000080e-05, -4.50000080e-05, -4.50000080e-05,
         4.50000080e-05, -4.50000080e-05,  4.50000080e-05,
        -4.50000080e-05, -4.50000080e-05, -4.50000080e-05,
         4.50000007e-05,  4.50000080e-05],
       [ 5.35067543e-03,  2.78322911e-03,  3.53994267e-03,
         4.10027849e-03,  4.45954967e-03, -3.32506490e-03,
        -4.20509605e-03, -2.63113994e-03, -3.47283622e-03,
        -2.92812637e-03,  5.18610096e-03, -3.67865176e-03,
        -3.47706093e-03, -4.19114996e-03,  4.24573338e-03,
        -3.73414299e-03,  5.60661964e-03,  3.81133799e-03,
         4.42040386e-03, -4.12577996e-03, -3.79614159e-03,
         5.52403973e-03, -6.60283444e-03, -6.18484383e-03,
        -3.43314302e-03, -7.96765927e-03,  3.26956087e-03,
        -3.57437739e-03, -6.75500360e-06,  5.33531420e-03,
         7.33756367e-03,  4.66392701e-03,  4.86399885e-03,
        -3.09974630e-03, -3.36041674e-03,  5.07973880e-03,
         4.56231972e-03, -6.37093652e-03, -8.31933785e-03,
        -1.55139214e-03, -5.10855392e-03, -1.07254041e-02,
        -5.14414767e-03,  4.24328772e-03, -5.89232612e-03,
        -5.39969793e-03,  8.80631339e-03,  3.46603687e-03,
         4.99068387e-03,  5.53815952e-03],
       [-3.02600451e-02, -1.51361246e-02, -2.08053011e-02,
        -2.38422360e-02, -2.60272492e-02,  1.91879403e-02,
         2.53680665e-02,  1.41080804e-02,  2.03536134e-02,
         1.61493849e-02, -3.11513469e-02,  2.25541294e-02,
         2.06107758e-02,  2.50719097e-02, -2.64995880e-02,
         2.28640065e-02, -3.15103866e-02, -2.32835878e-02,
        -2.60826126e-02,  2.44631413e-02,  2.29995474e-02,
        -3.12895030e-02,  3.56599391e-02,  3.21621373e-02,
         2.02392321e-02,  3.86561528e-02, -1.88943911e-02,
         2.16416586e-02, -1.86956007e-04, -3.03966682e-02,
        -3.46026532e-02, -2.75966246e-02, -2.76824851e-02,
         1.75101999e-02,  1.97037030e-02, -2.90534273e-02,
        -2.76591089e-02,  3.36294584e-02,  3.64333577e-02,
         7.87694938e-03,  3.07739414e-02,  4.29332033e-02,
         2.81202383e-02, -2.61386782e-02,  3.25264633e-02,
         3.09580322e-02, -3.92726921e-02, -2.06804592e-02,
        -2.95731518e-02, -3.11599206e-02],
       [-6.16415963e-02, -3.18699926e-02, -4.32877801e-02,
        -4.90672253e-02, -5.33051230e-02,  4.00334261e-02,
         5.21419011e-02,  2.97227949e-02,  4.23493236e-02,
         3.39342430e-02, -6.37648478e-02,  4.68743071e-02,
         4.29347008e-02,  5.14718220e-02, -5.46419732e-02,
         4.73749265e-02, -6.38406277e-02, -4.81941998e-02,
        -5.30516095e-02,  5.01569286e-02,  4.76244390e-02,
        -6.37397841e-02,  7.25475550e-02,  6.50380999e-02,
         4.19819169e-02,  7.84417838e-02, -3.95017788e-02,
         4.50270846e-02, -2.21127048e-04, -6.20458908e-02,
        -7.00312033e-02, -5.62924258e-02, -5.63597344e-02,
         3.67190205e-02,  4.11134921e-02, -5.93389384e-02,
        -5.67645095e-02,  6.80471510e-02,  7.35674128e-02,
         1.67301688e-02,  6.30273372e-02,  8.64469483e-02,
         5.73779717e-02, -5.38492203e-02,  6.62805289e-02,
         6.32224828e-02, -7.90860355e-02, -4.31117266e-02,
        -6.04738183e-02, -6.34215027e-02],
       [-4.08765264e-02, -1.87765863e-02, -2.63558831e-02,
        -3.10513973e-02, -3.43575329e-02,  2.41432693e-02,
         3.29108797e-02,  1.75131764e-02,  2.57584937e-02,
         2.00821068e-02, -4.11683582e-02,  2.85220593e-02,
         2.59790197e-02,  3.27164233e-02, -3.41948457e-02,
         2.91182902e-02, -4.25848812e-02, -2.97358688e-02,
        -3.47635746e-02,  3.19564156e-02,  2.93816887e-02,
        -4.21186015e-02,  4.83807847e-02,  4.34718020e-02,
         2.56949905e-02,  5.30641265e-02, -2.36821827e-02,
         2.73255240e-02, -4.01896716e-04, -4.06318270e-02,
        -4.78620045e-02, -3.64778303e-02, -3.70502174e-02,
         2.18232460e-02,  2.47629266e-02, -3.86226475e-02,
        -3.61389294e-02,  4.59901839e-02,  5.07502146e-02,
         9.74152889e-03,  4.06096764e-02,  6.05657026e-02,
         3.73220816e-02, -3.38094085e-02,  4.36655134e-02,
         4.12114747e-02, -5.50798737e-02, -2.60106940e-02,
        -3.91280018e-02, -4.18000817e-02],
       [-4.55295742e-02, -2.48996075e-02, -3.30748335e-02,
        -3.70870493e-02, -3.98121625e-02,  3.07880957e-02,
         3.90723832e-02,  2.33269334e-02,  3.24242339e-02,
         2.64080316e-02, -4.66412008e-02,  3.55429165e-02,
         3.28242481e-02,  3.88025269e-02, -4.07749079e-02,
         3.59174386e-02, -4.68494557e-02, -3.64734791e-02,
        -3.97601500e-02,  3.79144102e-02,  3.60678583e-02,
        -4.65212427e-02,  5.25721088e-02,  4.78985794e-02,
         3.21957730e-02,  5.47451526e-02, -3.04065365e-02,
         3.42732258e-02, -2.17082939e-04, -4.56453823e-02,
        -5.12882210e-02, -4.20379825e-02, -4.18091416e-02,
         2.84191519e-02,  3.15500535e-02, -4.40682694e-02,
        -4.21740264e-02,  4.87070829e-02,  5.24021834e-02,
         1.34641649e-02,  4.62347940e-02,  6.11592866e-02,
         4.27834056e-02, -4.02725935e-02,  4.78888415e-02,
         4.61641885e-02, -5.46055585e-02, -3.29425782e-02,
        -4.45490330e-02, -4.65068817e-02],
       [ 9.77321900e-03,  4.63199988e-03,  6.06148411e-03,
         7.06095481e-03,  7.86734186e-03, -5.64261666e-03,
        -7.09341746e-03, -4.38120309e-03, -5.93831809e-03,
        -4.88300389e-03,  8.69053882e-03, -6.44620089e-03,
        -5.91635704e-03, -7.03561772e-03,  7.40464870e-03,
        -6.48812251e-03,  8.27475823e-03,  6.50508376e-03,
         6.97936630e-03, -7.22222729e-03, -6.60548266e-03,
         9.45552438e-03, -1.10665970e-02, -7.68722733e-03,
        -5.81056345e-03, -1.00710485e-02,  5.53767243e-03,
        -6.23794366e-03, -1.37944999e-05,  8.24385975e-03,
         9.09080636e-03,  8.05183686e-03,  7.23244669e-03,
        -5.21334028e-03, -5.75821707e-03,  8.42744764e-03,
         7.75357522e-03, -8.60899035e-03, -8.32138211e-03,
        -2.90622865e-03, -8.92690197e-03, -1.72152743e-02,
        -7.75862392e-03,  7.36624235e-03, -9.15899593e-03,
        -9.16580949e-03,  1.40736056e-02,  5.99664217e-03,
         8.31104908e-03,  1.01339230e-02],
       [-6.13621203e-04, -2.84967915e-04,  3.99770448e-04,
        -3.39860562e-05, -3.05267004e-03,  3.02358676e-04,
        -2.97878357e-03,  1.99324306e-04,  3.79203877e-04,
         3.47510562e-04,  4.76943533e-04,  5.48754062e-04,
         5.16237225e-04,  4.13876551e-04, -6.02726825e-04,
        -2.09684164e-04, -3.28608812e-03,  2.66620715e-04,
         4.93695959e-03, -1.62921264e-03,  1.59678049e-04,
         5.58763044e-03, -5.38702263e-03,  4.31862054e-03,
         2.12665473e-04, -4.47524944e-03, -5.73612459e-04,
         4.82648553e-04, -2.80778622e-04,  1.35220785e-03,
         4.63834032e-03,  3.40723805e-03,  6.25744276e-03,
         4.67049016e-04,  6.03302964e-04, -3.59286251e-03,
         1.10401877e-03, -4.84524155e-03, -9.54364892e-03,
        -1.57099203e-04, -3.02237575e-04, -1.88223552e-02,
        -5.14472136e-03, -2.57527106e-04,  1.51827349e-03,
        -7.02460669e-03,  8.73295474e-04, -6.48319838e-04,
         1.46116945e-03, -2.04095244e-03],
       [ 3.17015424e-02,  1.60189085e-02,  2.16697901e-02,
         2.44463496e-02,  2.69255172e-02, -2.01100726e-02,
        -2.58520320e-02, -1.50002623e-02, -2.12717336e-02,
        -1.70343090e-02,  3.10267042e-02, -2.32784804e-02,
        -2.14116853e-02, -2.58975364e-02,  2.69577000e-02,
        -2.36486420e-02,  3.20245400e-02,  2.40565762e-02,
         2.70337071e-02, -2.49684714e-02, -2.37956103e-02,
         3.10052615e-02, -3.63325924e-02, -3.25783975e-02,
        -2.12137438e-02, -3.74981798e-02,  1.97895691e-02,
        -2.23854650e-02, -2.28872887e-04,  3.09417807e-02,
         3.47573385e-02,  2.79253069e-02,  2.83022858e-02,
        -1.83873307e-02, -2.05675587e-02,  3.04867122e-02,
         2.81127077e-02, -3.51539552e-02, -3.86212915e-02,
        -8.57106317e-03, -3.09130084e-02, -4.00630310e-02,
        -2.88517214e-02,  2.66678482e-02, -3.33453082e-02,
        -3.06367986e-02,  4.04069833e-02,  2.14768741e-02,
         3.00014317e-02,  3.15763541e-02],
       [-4.50000080e-05,  4.50000080e-05,  4.50000080e-05,
        -4.50000080e-05, -4.50000080e-05, -4.50000080e-05,
        -4.50000007e-05,  4.50000080e-05,  4.50000080e-05,
         4.50000080e-05, -4.50000080e-05,  4.50000080e-05,
         4.50000080e-05, -4.50000007e-05,  4.50000080e-05,
         4.50000080e-05,  4.50000080e-05,  4.50000080e-05,
        -4.50000007e-05, -4.50000007e-05,  4.50000080e-05,
         4.50000080e-05, -4.50000080e-05,  4.50000080e-05,
        -4.50000080e-05, -4.50000080e-05,  4.50000080e-05,
        -4.50000080e-05,  4.50000080e-05, -4.50000080e-05,
         4.50000080e-05,  4.50000080e-05,  4.50000080e-05,
        -4.50000080e-05, -4.50000007e-05,  4.50000080e-05,
        -4.50000080e-05,  4.50000080e-05,  4.50000080e-05,
         4.50000007e-05,  4.50000080e-05, -4.50000080e-05,
        -4.50000007e-05,  4.50000080e-05, -4.50000080e-05,
         4.50000080e-05,  4.50000080e-05, -4.50000080e-05,
        -4.50000080e-05,  4.50000080e-05],
       [-2.24177074e-02,  7.06520514e-04,  1.77230069e-03,
        -9.62773524e-03, -7.11455569e-03, -1.77884707e-03,
        -5.31991431e-03, -1.11164467e-03,  4.10783803e-04,
        -6.27208734e-04, -3.03871487e-03,  4.03600559e-03,
        -1.20168854e-03,  1.17333233e-02, -1.38088723e-03,
        -3.43679334e-04, -1.61071531e-02, -4.64284443e-04,
        -3.61209677e-04, -6.36287266e-04,  4.56058333e-04,
        -1.88874919e-02,  1.08683072e-02,  9.90452338e-03,
         1.22472050e-03,  3.80837102e-03, -1.31564215e-03,
         4.82138246e-04, -1.00447913e-04, -2.04900708e-02,
        -2.56919917e-02, -1.53122293e-02, -2.79566296e-03,
         6.51419687e-05,  2.70023011e-04, -2.18116343e-02,
        -1.09179039e-02, -9.31780878e-03,  2.63367575e-02,
        -1.91926293e-03,  6.41118968e-03,  1.39273172e-02,
        -8.34402308e-05, -4.28527314e-03,  1.24723520e-02,
         2.39529274e-03,  1.99224353e-02, -4.37757641e-04,
        -3.34909838e-03,  7.84740131e-03],
       [-5.46775907e-02, -2.79138032e-02, -3.79034616e-02,
        -4.31956314e-02, -4.70646396e-02,  3.50318588e-02,
         4.59165126e-02,  2.60848850e-02,  3.70870121e-02,
         2.96943970e-02, -5.64455949e-02,  4.10405435e-02,
         3.75691019e-02,  4.53683212e-02, -4.80711795e-02,
         4.15430702e-02, -5.68056032e-02, -4.22861241e-02,
        -4.69769835e-02,  4.42200750e-02,  4.17796709e-02,
        -5.65594621e-02,  6.45813271e-02,  5.79302423e-02,
         3.68104354e-02,  7.00535625e-02, -3.45420428e-02,
         3.94112580e-02, -2.48288619e-04, -5.49893603e-02,
        -6.24783002e-02, -4.97841835e-02, -4.99388762e-02,
         3.21031511e-02,  3.59646417e-02, -5.25396280e-02,
        -5.00842407e-02,  6.06748685e-02,  6.57858253e-02,
         1.51345516e-02,  5.57651259e-02,  7.76487067e-02,
         5.07944338e-02, -4.73921262e-02,  5.88595271e-02,
         5.60029894e-02, -7.09056705e-02, -3.77102755e-02,
        -5.35180531e-02, -5.63075170e-02],
       [-6.53415248e-02, -1.94898956e-02, -3.26663330e-02,
        -4.37220596e-02, -5.09736277e-02,  2.83821281e-02,
         4.69539724e-02,  1.81526206e-02,  3.15745585e-02,
         2.11950820e-02, -6.46962747e-02,  3.56307924e-02,
         3.15661319e-02,  4.72444445e-02, -4.69868556e-02,
         3.78322639e-02, -7.31349215e-02, -3.92984748e-02,
        -5.46729602e-02,  4.64205779e-02,  3.87443192e-02,
        -7.07182139e-02,  9.08047184e-02,  7.74461180e-02,
         3.20334248e-02,  1.08475775e-01, -2.72429567e-02,
         3.32241617e-02, -1.57257324e-04, -6.57507256e-02,
        -9.30156708e-02, -5.48792183e-02, -5.89666031e-02,
         2.37183701e-02,  2.88093537e-02, -6.05533831e-02,
        -5.33636995e-02,  8.57145563e-02,  9.87114832e-02,
         9.49670840e-03,  6.31100386e-02,  1.43580750e-01,
         5.86835295e-02, -4.71966825e-02,  7.43185505e-02,
         6.60451874e-02, -1.20368905e-01, -3.07465978e-02,
        -6.07740879e-02, -7.20879659e-02]], dtype=float32), array([-0.06754156, -0.06664848, -0.06464189, -0.06559872, -0.06595632,
        0.06427339,  0.06674132,  0.06272527,  0.06443638,  0.06207385,
       -0.06839777,  0.06436317,  0.06558289,  0.06591106, -0.0649059 ,
        0.06729819, -0.06942126, -0.0657272 , -0.06864128,  0.06644019,
        0.06571037, -0.06871437,  0.06946814,  0.07085111,  0.06582636,
        0.06977963, -0.0678717 ,  0.06407583, -0.0002537 , -0.06737784,
       -0.06959347, -0.06948001, -0.06816491,  0.06615757,  0.0669005 ,
       -0.06690591, -0.06800023,  0.07011655,  0.06983896,  0.05844219,
        0.06867421,  0.07086779,  0.06702343, -0.06596711,  0.06834082,
        0.06890166, -0.07123286, -0.06738081, -0.06704445, -0.06795898],
      dtype=float32)]