[array([[[ 3.27328831e-01, -6.78953379e-02, -3.22212189e-01,
         -1.07411325e-01, -3.25250149e-01, -1.70401052e-01,
         -2.53645033e-02,  1.05289012e-01, -3.58243436e-02,
         -1.54786631e-01, -3.09491843e-01, -6.56918138e-02,
          1.53822705e-01,  1.62838444e-01, -9.40972030e-01,
          1.93795632e-03,  4.68382500e-02, -3.14496517e-01,
         -2.58039534e-02, -1.63843960e-01, -4.23981756e-01,
          2.73316018e-02, -9.82412975e-03,  1.42253162e-02,
         -1.47431120e-01,  4.35862541e-02, -9.73207802e-02,
         -3.14937294e-01, -2.44925380e-01,  3.46797109e-02,
         -3.34449764e-03,  2.49773175e-01],
        [-5.44243790e-02, -1.61130741e-01,  6.13044240e-02,
         -6.11112118e-02,  1.36222035e-01, -1.85583517e-01,
         -5.79386391e-02,  2.44108945e-01, -2.13135570e-01,
          3.05616818e-02, -1.27334416e-01, -4.14395362e-01,
         -1.81391746e-01, -1.75991312e-01, -5.02315521e-01,
         -1.12899646e-01,  1.73488632e-01, -1.02552526e-01,
         -3.68562378e-02,  3.68936770e-02, -3.42461765e-01,
         -1.48982942e-01, -1.46245480e-01, -1.20556779e-01,
         -1.07799895e-01, -3.49482089e-01, -1.99215055e-01,
         -6.85924888e-02,  3.94487791e-02, -1.44373700e-01,
          1.35668188e-01,  1.74644575e-01],
        [ 2.41559878e-01, -2.32128441e-01, -3.65457863e-01,
          4.13184491e-04,  1.87768750e-02, -5.43256223e-01,
         -9.11704972e-02,  6.96041360e-02, -5.54111600e-02,
         -2.20768884e-01, -1.18324213e-01, -1.18939631e-01,
          7.85032883e-02, -4.34713095e-01, -4.81761068e-01,
          2.78920773e-03, -1.76185504e-01, -2.31562957e-01,
         -4.80218649e-01, -1.30483106e-01, -6.93282261e-02,
         -1.28115118e-01,  1.11768849e-01, -2.59688586e-01,
         -2.92621311e-02,  3.65703963e-02, -1.57562673e-01,
         -1.09594740e-01, -1.96842581e-01,  1.57402158e-02,
          1.18204728e-01,  5.90366304e-01],
        [-2.37691253e-01, -1.96200952e-01, -1.44782349e-01,
         -3.07773918e-01,  2.07797606e-02, -4.86958884e-02,
         -5.15495874e-02, -5.59882410e-02, -1.64712518e-01,
         -2.80882180e-01, -8.86038989e-02, -3.30591440e-01,
         -1.00284647e-02, -1.84793100e-01, -1.41114876e-01,
          4.31030467e-02, -1.17325589e-01, -1.62254289e-01,
         -1.84516937e-01, -1.15637176e-01, -5.48056781e-01,
         -7.61473924e-02, -3.71687077e-02,  2.25215837e-01,
         -3.86453688e-01, -1.79377958e-01, -1.08782865e-01,
         -1.55394301e-01, -2.97589064e-01, -2.38731369e-01,
          1.11110382e-01, -2.06103504e-01],
        [-7.04204082e-01, -2.56474584e-01,  3.44772130e-01,
          2.23559633e-01,  2.01193616e-01,  1.09498940e-01,
          1.69801027e-01,  1.50611997e-01, -1.66973829e-01,
          6.68192457e-04,  8.83307829e-02, -3.50589082e-02,
         -2.41806597e-01, -2.60235995e-01,  4.15634602e-01,
         -2.37027239e-02, -2.53765702e-01,  3.78007114e-01,
          1.12543568e-01, -2.89055943e-01,  2.97744274e-01,
          8.28882530e-02, -1.28058523e-01, -1.91098023e-02,
         -6.31123930e-02,  3.85276205e-03, -1.55770034e-01,
          1.88544825e-01,  1.54562378e-02, -2.91791826e-01,
         -9.48714763e-02, -1.00076175e+00],
        [ 7.47006312e-02, -2.27780238e-01, -1.45262524e-01,
         -5.90555929e-02,  1.34181172e-01,  2.13508438e-02,
          7.41615444e-02,  2.23729417e-01, -4.13083494e-01,
          8.34830031e-02, -1.64705906e-02, -1.17409877e-01,
         -3.13995928e-01, -2.99675286e-01, -5.48526764e-01,
         -8.01104456e-02,  1.79043915e-02, -5.16306937e-01,
          6.32569566e-02,  7.93940276e-02, -2.82709479e-01,
         -6.58535911e-03, -7.94261545e-02, -1.48507401e-01,
         -1.10105336e-01, -1.79232508e-01, -1.65474340e-01,
          2.66991824e-01,  6.00971766e-02, -1.16339102e-01,
          4.50028479e-02, -1.05412260e-01],
        [-2.31925830e-01,  2.59485662e-01,  3.70669477e-02,
         -2.58293226e-02, -1.31328106e-01, -3.09378624e-01,
         -1.43866623e-02, -1.65832728e-01, -1.55792311e-01,
          1.36240691e-01, -7.47867599e-02, -1.51869565e-01,
         -9.34116840e-02, -3.29609513e-01, -2.56217662e-02,
         -2.15319619e-01,  2.75395233e-02,  5.77032566e-02,
         -7.65343150e-03,  1.36356339e-01, -1.13210827e-01,
         -1.45794824e-01,  1.87510364e-02,  1.45403594e-01,
         -3.40591148e-02, -1.55468613e-01, -9.54705104e-02,
          2.20320448e-01,  4.64441746e-01, -1.92316584e-02,
         -1.66914389e-01,  6.75402954e-02],
        [ 1.11437872e-01, -1.06776878e-01,  8.94470140e-02,
          2.25549534e-01, -1.35079086e-01, -1.10129090e-02,
         -6.76702242e-03,  3.89674753e-02,  8.44516233e-02,
          3.07885669e-02,  1.46768004e-01,  3.35551113e-01,
          1.38126463e-01, -1.48913175e-01,  2.34727204e-01,
          9.48097035e-02, -2.36202404e-01,  5.77827871e-01,
         -7.97041059e-02, -2.44438276e-01,  2.69337207e-01,
          3.65772508e-02, -8.22960958e-02, -2.36758068e-01,
          1.45465992e-02,  6.17641471e-02,  1.91779062e-01,
          1.43918335e-01, -4.29817848e-02, -1.08263977e-01,
         -1.63774360e-02,  1.06869526e-01],
        [ 1.19319513e-01, -2.34559417e-01,  1.17088102e-01,
          2.34149575e-01,  7.38027841e-02, -3.69636387e-01,
         -2.29842290e-02,  1.66954830e-01,  1.18093260e-01,
         -5.51624484e-02, -1.14294238e-01,  2.11230859e-01,
          1.84678569e-01, -4.21398366e-03, -2.94112563e-01,
          1.57717019e-01, -3.37689668e-02,  4.45109941e-02,
         -2.88791865e-01,  1.62973523e-01,  1.86607271e-01,
          6.07235879e-02,  9.48726162e-02, -1.16835877e-01,
         -3.78155969e-02, -5.38245700e-02, -7.46085122e-02,
         -8.61905590e-02, -1.49955545e-02, -8.80837590e-02,
         -7.64642060e-02,  5.55046201e-01],
        [-3.87924254e-01, -9.05209109e-02, -2.18238011e-01,
         -4.36979145e-01,  7.12334225e-03,  9.61645842e-02,
         -4.22858670e-02, -1.05728313e-01, -3.75166088e-02,
          2.23715603e-01,  5.02247959e-02, -1.37835220e-01,
          2.91929662e-01, -3.23463857e-01, -7.35848963e-01,
         -1.80648342e-01, -9.91803706e-02, -2.11187661e-01,
         -7.15401396e-02,  3.22390139e-01, -1.72190487e-01,
          1.20998278e-01,  1.71369135e-01, -2.13740580e-02,
         -1.65661022e-01, -1.70132190e-01, -2.19124947e-02,
          2.29264870e-01,  4.09346446e-02, -2.73504872e-02,
         -2.40435272e-01, -2.02204823e-01],
        [ 1.28461808e-01, -1.59283504e-01,  7.97128081e-02,
         -1.53681010e-01, -1.11230686e-01,  1.21016927e-01,
          2.48587672e-02,  2.94821382e-01, -1.45537764e-01,
         -5.17060980e-02, -1.79843575e-01, -8.99040252e-02,
          1.37206331e-01, -3.68263096e-01, -5.19663751e-01,
         -2.11784780e-01, -2.17574760e-01, -2.13896096e-01,
          1.10226944e-02, -5.83848059e-02, -3.67377758e-01,
         -1.28208473e-01, -1.44342065e-01, -5.10708168e-02,
          1.08427569e-01, -6.94408491e-02,  5.39746322e-02,
         -2.99927324e-01, -1.17371216e-01, -1.07256383e-01,
          1.59437373e-01,  8.24697763e-02],
        [ 4.70328256e-02, -3.36974859e-02, -5.15557408e-01,
         -2.40001306e-01,  2.80675106e-02, -4.37055647e-01,
         -5.61476573e-02,  2.13541210e-01, -3.85995030e-01,
         -9.70515385e-02, -1.98749870e-01, -2.68969268e-01,
         -1.57295451e-01, -2.08377734e-01, -7.67225325e-01,
         -4.91903946e-02, -6.85251802e-02, -4.66188997e-01,
         -4.29177344e-01, -7.17950985e-02, -2.48904392e-01,
         -3.11414897e-01, -9.45146196e-03, -2.35717595e-01,
         -2.43422002e-01, -2.61642877e-03, -7.37689361e-02,
         -2.22456753e-01, -2.43328467e-01,  1.34427875e-01,
          9.71724838e-02,  3.90060574e-01],
        [ 1.94329426e-01, -1.52075231e-01, -1.25221804e-01,
         -8.04547518e-02,  1.68134794e-01, -9.45284516e-02,
         -4.25052829e-02,  1.79440342e-02, -3.45250070e-01,
         -1.16478279e-02, -8.60820636e-02,  7.27608874e-02,
         -2.36102343e-01, -1.49987921e-01, -5.15051961e-01,
          1.98749557e-01, -9.32378322e-02, -3.23474169e-01,
         -1.98894486e-01,  3.44730198e-01,  9.35238078e-02,
         -2.74582028e-01,  8.36225897e-02,  1.14519149e-01,
          1.13925757e-02, -1.75430730e-01,  1.07332915e-01,
          1.55133337e-01, -1.04049712e-01,  1.14797540e-02,
          6.04418032e-02,  1.70937061e-01],
        [ 2.52972245e-01, -1.01802394e-01, -2.24927161e-02,
          2.23191559e-01, -2.43955925e-02, -2.55026460e-01,
          9.25830081e-02, -1.67398974e-01, -1.24262504e-01,
          1.01764768e-01,  4.31158505e-02, -1.69248909e-01,
         -1.18794456e-01,  4.94139940e-02,  3.48986275e-02,
          1.51824966e-01,  6.19337074e-02,  1.86263695e-01,
         -2.72806883e-01,  1.74128152e-02, -1.18065804e-01,
          1.05083078e-01,  3.17719936e-01,  1.96900696e-01,
          2.96351104e-03, -3.24280649e-01, -2.91622162e-01,
          3.58641505e-01,  2.46965691e-01,  2.59821247e-02,
          1.29289433e-01,  5.42954803e-01],
        [ 2.16424242e-01,  5.23736328e-02, -2.63927639e-01,
         -2.98271865e-01, -7.19816014e-02, -1.65371910e-01,
         -1.08788602e-01,  2.66930431e-01, -2.04981361e-02,
         -2.00959310e-01, -3.19344372e-01, -1.93556666e-01,
          2.14342952e-01,  1.35408655e-01, -1.08091152e+00,
         -1.31474301e-01, -1.49359375e-01, -5.30313194e-01,
         -1.42052576e-01, -5.00272959e-02, -5.37470400e-01,
          9.49898586e-02, -9.79209766e-02,  1.06171124e-01,
         -2.92781770e-01,  5.79209775e-02, -5.48529103e-02,
         -2.92464763e-01, -1.55196205e-01,  1.17757805e-01,
         -3.93072367e-02,  2.63974607e-01],
        [ 3.05206150e-01, -1.72111034e-01,  2.67691687e-02,
          1.56369895e-01, -7.51658082e-02,  6.50912970e-02,
         -1.96111605e-01,  2.74005264e-01,  1.50409386e-01,
         -2.46426865e-01,  2.70756811e-01,  3.04015636e-01,
         -4.23391126e-02,  2.51560509e-01, -8.36360678e-02,
          1.70608535e-01,  1.38221219e-01, -1.29343823e-01,
         -3.40035379e-01, -2.79066592e-01,  3.11333034e-02,
         -4.34334517e-01, -1.22822531e-01,  7.89974034e-02,
         -2.15274304e-01, -9.99605581e-02,  4.67963852e-02,
         -2.55403101e-01, -6.00538813e-02,  6.01141043e-02,
          1.63799763e-01,  1.04894862e-01],
        [ 8.69957954e-02, -9.83522534e-02, -2.68272191e-01,
         -2.65816420e-01,  1.34764552e-01,  8.67657736e-02,
         -5.57418214e-03,  1.12317830e-01, -2.34776855e-01,
          1.97770700e-01, -3.80133055e-02, -4.47836995e-01,
          3.95820104e-02, -2.95474827e-01, -8.02673042e-01,
         -1.43469334e-01,  7.19426796e-02, -4.55140680e-01,
          3.10535207e-02,  8.89466256e-02, -3.86423767e-01,
          5.31469472e-03,  3.23040456e-01, -1.82667062e-01,
          9.59598050e-02, -2.69780844e-01,  1.85718462e-01,
          8.10169876e-02, -1.56650543e-01, -3.55031602e-02,
         -9.80863720e-03,  3.74589026e-01],
        [ 5.40017523e-02, -2.79120803e-01, -5.67572594e-01,
         -4.80914146e-01,  1.00073814e-01, -2.36441106e-01,
         -4.48788367e-02, -3.25232670e-02, -1.65679932e-01,
          7.17274621e-02, -1.17854267e-01, -2.46056676e-01,
          1.43846786e-02,  2.26906642e-01, -7.92710066e-01,
          1.93088084e-01, -3.25213492e-01, -3.84652138e-01,
         -1.52828410e-01, -5.82127869e-02, -2.33834118e-01,
          2.04299897e-01, -1.01303332e-01, -5.97244985e-02,
         -4.92919296e-01, -1.07623860e-01, -1.04690306e-01,
         -8.52556974e-02, -1.71753287e-01,  2.17097223e-01,
          1.74006760e-01,  1.31813943e-01],
        [-3.14980000e-01, -7.31750205e-02,  4.63564359e-02,
          1.79935694e-01,  1.67119622e-01,  1.79971218e-01,
         -3.03740203e-01,  2.12475196e-01, -2.90558159e-01,
         -2.56954245e-02, -3.46850269e-02,  1.63946912e-01,
         -2.12331682e-01,  3.94925959e-02, -3.20991158e-01,
         -1.67108759e-01, -1.05492234e-01, -3.64701390e-01,
         -1.91689357e-01, -9.02565848e-03,  8.19878653e-02,
          7.73429573e-02, -3.71252537e-01, -4.52832989e-02,
         -5.72229475e-02, -2.88671553e-01, -1.40827700e-01,
          6.60859456e-04,  1.08939841e-01, -8.02457854e-02,
         -1.23382904e-01, -3.17014903e-01],
        [ 1.48642123e-01, -1.76528729e-02, -2.44348317e-01,
         -6.20744526e-02, -2.11379174e-02, -2.68811017e-01,
          4.77208532e-02,  1.56718969e-01, -1.17529586e-01,
          1.51517782e-02, -2.02307478e-01, -1.98990613e-01,
         -8.44829809e-03, -1.81438223e-01, -5.10860026e-01,
         -1.86761677e-01, -1.39366305e-02, -4.82315481e-01,
          1.42788649e-01,  2.77479142e-01, -1.52891114e-01,
         -1.49478037e-02, -2.88028363e-02,  3.75540219e-02,
          8.27665702e-02, -1.79704025e-01,  4.13334742e-02,
          1.63467944e-01, -9.89343524e-02,  1.36743383e-02,
         -1.03280775e-01,  2.70187199e-01],
        [ 2.47444194e-02,  2.81108230e-01, -5.98040581e-01,
         -2.81059086e-01,  1.01601154e-01, -2.65380830e-01,
          2.23694742e-01,  6.24224067e-01,  5.42973392e-02,
         -2.93160900e-02, -2.63842717e-02, -3.88654202e-01,
          2.36019894e-01, -3.49024564e-01, -8.26391339e-01,
         -5.46083689e-01, -2.16387793e-01, -3.05273682e-01,
         -1.47795603e-01, -3.31565917e-01, -2.91584462e-01,
         -5.98656870e-02, -1.31393090e-01, -1.88101187e-01,
         -3.13481987e-01,  2.21641362e-02, -2.28954777e-02,
         -4.75443780e-01, -3.05141449e-01, -3.05945426e-01,
          1.03781775e-01,  2.90798336e-01],
        [-2.81633325e-02, -1.93590432e-01, -1.65415376e-01,
         -2.56553087e-02,  1.72344789e-01, -1.93630289e-02,
          1.46942362e-01,  9.50651690e-02, -1.45714790e-01,
          5.41788302e-02, -7.38729164e-02, -4.06023413e-01,
         -2.73000419e-01,  7.43183047e-02, -3.32380444e-01,
         -2.33174544e-02, -1.40707130e-02, -2.92720675e-01,
         -2.98414025e-02,  5.89175634e-02,  5.22223003e-02,
          1.92193076e-01, -1.10443011e-01,  1.88288271e-01,
          1.13434874e-01, -1.97537169e-01, -6.39903694e-02,
          2.55675204e-02,  5.09779230e-02, -8.49607363e-02,
         -8.15629512e-02, -1.70396581e-01],
        [ 9.95454565e-02,  1.07744530e-01, -2.28520751e-01,
          2.63123512e-01,  5.40322289e-02, -3.31363171e-01,
         -2.36933865e-02,  2.40795493e-01,  1.62428111e-01,
         -1.33646905e-01,  4.44747359e-02, -1.95229258e-02,
          2.84692682e-02,  3.16757523e-02, -3.30907017e-01,
         -8.35856702e-03, -1.62852705e-01,  8.98734666e-03,
         -1.52573407e-01, -2.26990972e-02,  1.12313561e-01,
         -7.75350630e-02, -3.03521454e-01,  1.41917884e-01,
         -2.97083974e-01, -2.20012322e-01, -7.22932741e-02,
         -8.65794942e-02,  2.95143425e-02,  6.47286838e-03,
         -1.59391686e-01,  1.92215055e-01],
        [ 7.15475827e-02, -3.56883109e-01, -4.48139496e-02,
         -3.71055454e-02,  9.41069797e-02, -1.41573340e-01,
         -1.69384167e-01, -2.50545800e-01, -2.61690855e-01,
          1.63186982e-01,  2.42584981e-02,  1.97974145e-01,
         -3.20783287e-01,  1.73001274e-01, -1.15801521e-01,
          2.13165134e-01,  1.03024676e-01, -7.47114420e-02,
         -2.54072756e-01, -1.96292341e-01,  3.27122658e-01,
         -1.14451207e-01,  1.16316810e-01, -1.60962507e-01,
         -8.59016106e-02, -3.26113433e-01, -1.36750951e-01,
          1.77712113e-01, -2.68803947e-02, -3.37397158e-02,
          5.39901592e-02,  3.66509974e-01],
        [ 1.67767465e-01,  2.15084180e-01, -2.59078860e-01,
         -1.69330269e-01, -2.29624420e-01, -1.60325035e-01,
         -2.55979568e-01,  4.07657512e-02, -3.18360627e-01,
         -1.09557785e-01, -1.74175680e-01, -5.02092779e-01,
         -1.69344470e-01, -3.31514448e-01, -8.25908959e-01,
         -7.70859346e-02, -7.17779472e-02, -3.09209943e-01,
         -2.14188755e-01,  6.71636984e-02, -2.40391791e-01,
         -3.97090204e-02, -1.16281379e-02, -2.71308631e-01,
          2.21239738e-02,  3.13119628e-02, -1.25642076e-01,
         -1.21717021e-01, -8.80662054e-02, -1.31248713e-01,
          9.36846249e-04,  4.01731163e-01],
        [-1.93175852e-01, -1.34717509e-01,  1.03468999e-01,
          4.20363732e-02, -8.47587734e-02, -1.75857216e-01,
          6.37460127e-02,  1.92542240e-01,  1.09822929e-01,
         -3.81082594e-02,  7.63600320e-02,  1.88094258e-01,
          5.28021492e-02, -3.01591814e-01, -7.98641816e-02,
         -7.15304464e-02, -1.76360592e-01,  1.00569800e-01,
         -4.35329795e-01, -2.54285671e-02, -1.77125516e-03,
          1.18049219e-01, -6.06260560e-02, -1.14515975e-01,
         -2.21574336e-01, -1.75209623e-02, -4.94892150e-02,
         -1.89709477e-02, -5.22118807e-02, -1.75555289e-01,
          7.65274316e-02,  3.94549906e-01],
        [-2.95759272e-02, -3.38147849e-01,  4.08134051e-02,
          1.28255054e-01, -1.60522182e-02,  8.64232630e-02,
         -2.88782567e-02,  6.01875857e-02,  7.21589476e-02,
          4.53169048e-02,  2.54243128e-02, -1.03243127e-01,
          2.06000775e-01, -2.58203804e-01, -3.15096855e-01,
          4.26641405e-02, -2.22981647e-01,  2.14341208e-01,
         -3.48342583e-02, -1.80980027e-01,  5.28379977e-02,
          1.37591958e-01, -1.80148140e-01, -2.36233369e-01,
         -3.86246704e-02,  1.19138062e-01, -1.32021546e-01,
         -1.84724405e-01, -2.22503453e-01, -1.93277299e-01,
          2.55972803e-01,  2.67261062e-02],
        [-5.88533515e-03, -1.38281927e-01,  1.53974429e-01,
          4.48639058e-02,  1.05658032e-01, -9.20957401e-02,
         -1.99952081e-01,  1.02275416e-01, -1.15374275e-01,
          9.53177884e-02, -1.23494498e-01, -2.58072279e-02,
         -1.09105952e-01, -1.57212093e-01, -5.24882615e-01,
          8.74950085e-03, -8.14260319e-02, -1.80178270e-01,
         -1.26099706e-01, -2.20865563e-01, -2.08674520e-02,
         -1.41821787e-01, -2.80120820e-01, -1.25369251e-01,
          1.66640580e-02, -4.97163832e-02, -6.95542693e-02,
         -6.63738698e-02,  3.04786162e-03, -2.34649843e-03,
          1.77254528e-01,  5.27697131e-02],
        [ 1.18651591e-01, -2.21511915e-01,  6.32144362e-02,
          1.20783493e-01,  6.65609241e-02,  3.66516635e-02,
         -7.32995048e-02,  5.31652346e-02, -1.88704543e-02,
          4.86779325e-02,  3.98329012e-02, -8.22431967e-02,
         -2.02477500e-01, -3.86451893e-02, -4.44285154e-01,
         -6.46556914e-02, -6.66280538e-02, -9.84761026e-03,
         -1.77565858e-01,  1.66483387e-01, -3.15154433e-01,
         -5.96603192e-02,  8.41274559e-02, -8.89843926e-02,
          3.62876207e-02, -1.83857203e-01, -4.04783040e-02,
         -6.76318780e-02, -7.39429072e-02,  2.13001948e-02,
          1.27467647e-01,  2.96927124e-01],
        [ 5.27837053e-02,  7.54217058e-02, -1.47850305e-01,
         -7.50382915e-02, -2.32530180e-02, -9.74306315e-02,
          6.28380943e-03, -5.18886186e-02, -1.54783502e-01,
          2.28765290e-02, -4.66203243e-02,  1.20073818e-02,
         -6.66108429e-02,  1.92267373e-01, -3.54100019e-01,
          9.63554457e-02, -2.62027979e-01, -1.76961496e-01,
         -2.24320307e-01, -1.07493840e-01, -2.81134129e-01,
          1.64595637e-02, -9.65513065e-02,  7.12828562e-02,
         -1.87480003e-01, -4.33502942e-02, -3.11170757e-01,
         -1.67534780e-02,  3.30230072e-02,  2.66439289e-01,
          1.74875394e-01,  4.76290077e-01],
        [ 9.73550379e-02, -4.28106263e-02, -2.10569352e-01,
          4.91493056e-03,  8.93716291e-02, -4.04182523e-01,
         -5.63326627e-02,  1.14589095e-01, -2.03121588e-01,
          2.20547557e-01, -8.06058571e-02,  4.34208214e-01,
          3.20039541e-02, -1.49886638e-01, -5.87659121e-01,
          2.48846114e-01,  5.43276891e-02, -2.29172841e-01,
         -4.26372617e-01,  2.45273411e-01,  2.37765953e-01,
         -2.87153363e-01, -3.87942307e-02, -3.03653121e-01,
         -1.63835868e-01, -7.83258751e-02,  1.11511543e-01,
          1.21335663e-01,  1.71058625e-01, -3.17808311e-03,
          1.95914730e-01,  2.65072137e-01],
        [ 3.18492576e-03, -1.56886786e-01, -4.98214401e-02,
         -1.42748773e-01,  2.56972271e-04, -2.86035269e-01,
         -1.50226071e-01, -1.27000660e-01, -4.25826132e-01,
          1.71290532e-01, -7.42337853e-02, -1.52169347e-01,
         -2.80363232e-01, -2.34252736e-01, -5.01906276e-01,
         -6.46851286e-02, -1.53286397e-01, -3.46707463e-01,
         -1.16677672e-01,  7.12193549e-02, -1.63289964e-01,
         -1.97550058e-01, -5.85990474e-02, -7.11760372e-02,
         -1.95005108e-02, -1.80499181e-01,  1.44465044e-01,
          2.89741367e-01,  8.71254057e-02, -7.88774267e-02,
          4.15473804e-02,  1.46772519e-01],
        [ 1.34974420e-01,  1.71085119e-01, -3.20978492e-01,
         -3.36348534e-01,  1.20704785e-01, -3.86514217e-01,
         -7.08248168e-02, -2.38412507e-02, -1.34876907e-01,
          9.36180055e-02, -9.22017545e-03, -5.31513691e-01,
         -3.68723199e-02,  1.52114809e-01, -5.78703701e-01,
         -1.23055696e-01, -3.28530222e-01, -3.96013051e-01,
         -1.34578630e-01, -8.86951983e-02, -3.00401866e-01,
          3.45413201e-02,  4.24409807e-02,  2.05751687e-01,
         -2.31654257e-01,  1.73007771e-02, -2.54530072e-01,
          4.85340413e-03,  9.09609869e-02, -9.25843883e-03,
          2.67182350e-01,  3.15075427e-01],
        [-1.47202268e-01,  1.11762449e-01,  2.06594601e-01,
          3.00686330e-01,  8.46053958e-02, -4.07973267e-02,
         -1.58737883e-01,  6.23604693e-02,  1.74808249e-01,
          3.13569099e-01, -6.86717331e-02,  1.69373989e-01,
         -4.99241382e-01, -2.04761431e-01,  3.74832809e-01,
         -9.63555500e-02,  1.03719011e-01,  3.38181227e-01,
          1.38736904e-01,  2.83842921e-01,  1.69474304e-01,
          3.15824360e-01, -3.31573896e-02, -1.47031069e-01,
          2.70819455e-01,  9.26210880e-02,  3.65800224e-02,
          2.06990555e-01,  4.96291071e-02, -1.26260072e-01,
         -1.61373466e-02,  1.26024082e-01],
        [ 2.49498487e-01,  1.87829345e-01, -4.28239077e-01,
         -4.06610072e-01, -5.51784933e-02, -4.71208274e-01,
          4.33428884e-02,  3.48086149e-01, -7.94700086e-02,
         -2.17748322e-02, -1.34970114e-01, -5.59366822e-01,
          2.21435279e-01, -9.76910219e-02, -3.89556915e-01,
         -3.67186010e-01, -3.44730228e-01, -4.50030863e-01,
         -3.43748182e-02, -4.68925647e-02, -5.71259916e-01,
         -9.38787013e-02, -3.29062305e-02, -1.56672318e-02,
         -3.97250473e-01,  2.51135975e-02,  3.50606531e-01,
         -2.35160843e-01, -1.51255786e-01, -1.61650389e-01,
          1.12135395e-01,  1.66482985e-01],
        [ 1.50787070e-01, -4.99194056e-01, -1.43090919e-01,
         -1.65710717e-01,  7.05557689e-02, -1.15375534e-01,
         -2.86519583e-02,  1.64315328e-01, -2.16862783e-01,
         -2.85786629e-01,  7.57492557e-02, -3.06333095e-01,
         -3.55580496e-03, -1.01187259e-01, -5.10115981e-01,
         -4.08580108e-03, -1.07032597e-01, -4.19873953e-01,
         -9.94544923e-02, -3.96703109e-02, -3.00686359e-01,
         -1.09038629e-01, -4.43283543e-02,  1.38155550e-01,
         -1.63371965e-01, -1.45200461e-01, -3.45222116e-01,
         -5.15566692e-02,  3.86672355e-02, -6.95838481e-02,
          9.67539698e-02,  2.42383748e-01],
        [-1.70922026e-01, -2.56288629e-02,  2.35697515e-02,
         -3.47976029e-01,  8.36256966e-02, -5.62539138e-02,
         -7.34062493e-02, -2.97244519e-01, -3.17132175e-01,
         -2.35433847e-01, -1.78438455e-01, -4.06603307e-01,
         -1.30246609e-01, -1.85655862e-01, -2.99238712e-01,
         -9.21442881e-02, -5.85893877e-02, -3.03136855e-01,
         -9.96739417e-02, -1.14700586e-01, -3.66362035e-01,
         -1.19058147e-01, -1.24599470e-03,  2.40395274e-02,
         -2.47219250e-01, -2.13434577e-01, -2.86721349e-01,
         -7.69214183e-02, -6.38267249e-02, -2.62323648e-01,
         -1.07108407e-01,  8.39093551e-02],
        [ 1.58111518e-03, -8.65189880e-02, -1.83479771e-01,
         -7.27050751e-02, -1.30380020e-01, -1.55377150e-01,
          2.44527999e-02, -1.66370213e-01, -2.11890012e-01,
         -3.45297605e-01, -6.83572069e-02, -3.63479435e-01,
         -1.63287684e-01, -2.00856209e-01,  8.92769545e-02,
         -1.32172748e-01, -1.70741305e-01, -2.49963000e-01,
         -4.26452994e-01, -3.86689693e-01, -3.11807752e-01,
         -2.52569854e-01, -1.32624194e-01, -6.52968213e-02,
         -3.93938661e-01, -1.77386075e-01, -9.76834521e-02,
         -2.71577269e-01, -2.10889056e-01,  1.39556527e-01,
          1.76947877e-01,  3.59288573e-01],
        [ 2.19066590e-01, -2.10868835e-01, -2.40776926e-01,
         -2.74077266e-01, -3.49471788e-03, -1.16424836e-01,
         -6.86911866e-02,  2.64044344e-01, -4.73501056e-01,
          1.37633860e-01, -4.02005240e-02, -2.79795796e-01,
          1.06544241e-01, -3.82147461e-01, -5.04359901e-01,
         -1.20510116e-01, -1.14828959e-01, -4.05341834e-01,
          5.17026186e-02, -4.66805510e-02, -4.30125713e-01,
         -2.89890077e-02,  1.48091674e-01, -5.08215167e-02,
         -2.07429096e-01, -2.33246118e-01,  5.63518554e-02,
          4.29561399e-02, -1.61347330e-01, -2.52407223e-01,
         -8.04240406e-02, -1.50417546e-02],
        [ 2.14575946e-01, -1.40342221e-01, -3.22143167e-01,
         -1.53603181e-01,  4.05075885e-02, -1.51553648e-02,
         -7.28667900e-02,  1.01524487e-01, -1.56429056e-02,
          1.24189660e-01,  1.32719800e-02,  2.56501496e-01,
          2.48205826e-01, -6.29994869e-02, -3.98356378e-01,
          1.40317306e-01, -3.09670776e-01, -1.26017317e-01,
         -5.06912880e-02, -2.42930651e-01, -1.21734180e-01,
          1.01261074e-02, -2.25741148e-01, -1.09578758e-01,
         -3.93208593e-01,  3.07853576e-02,  2.93688506e-01,
          2.89864615e-02, -7.88815245e-02,  1.63750023e-01,
          1.72617510e-01,  1.06212869e-02],
        [ 1.02859370e-01, -1.33691087e-01, -4.78467196e-02,
         -7.52292573e-02, -5.63032292e-02, -8.28158930e-02,
          3.27108838e-02,  1.12353027e-01, -3.23829316e-02,
         -1.52745798e-01, -7.35997781e-02,  1.25203626e-02,
          7.95669034e-02, -3.07058692e-01, -5.36474407e-01,
         -1.02534955e-02, -1.87097833e-01, -1.05708987e-01,
         -2.99352825e-01, -2.64943182e-01, -5.05802780e-02,
          4.14702147e-02, -2.23887861e-01, -1.08790360e-01,
         -2.31451262e-02, -1.19955502e-01, -2.70215213e-01,
         -1.49819642e-01, -1.28843024e-01, -1.37196288e-01,
          1.08532280e-01,  7.17839459e-04],
        [ 2.07150340e-01, -1.66819572e-01, -5.43695986e-01,
          6.47053868e-02, -9.16523673e-03, -3.19615632e-01,
         -3.63706537e-02,  2.12298155e-01, -3.84953022e-02,
          2.88212541e-02, -1.26882955e-01,  2.51939017e-02,
         -2.30111763e-01, -2.08302379e-01, -6.60208702e-01,
         -1.97684858e-02, -1.37639835e-01, -2.33000174e-01,
         -6.18296206e-01, -1.66790068e-01, -4.26544771e-02,
         -2.68192679e-01,  2.40624212e-02, -3.73577863e-01,
         -1.08327262e-01,  7.74128549e-03,  2.37581179e-01,
         -2.96506673e-01, -1.79572284e-01, -6.94052503e-02,
          2.57903785e-01,  4.60040867e-01],
        [ 1.64848357e-01, -3.08009923e-01, -7.67242238e-02,
         -1.40012935e-01, -9.66534019e-02, -7.24059567e-02,
         -2.11098157e-02, -2.22678334e-02, -2.16153041e-01,
          2.46094298e-02, -8.80105123e-02, -1.47631481e-01,
         -8.88796523e-02,  4.32565250e-02, -4.10991281e-01,
          1.48810863e-01, -2.47169703e-01, -1.03132084e-01,
         -2.98865557e-01, -1.04431398e-01, -8.64361376e-02,
         -2.38073453e-01, -6.32126117e-03, -1.64796993e-01,
         -1.50710776e-01, -4.83215079e-02,  1.30123183e-01,
         -1.42885670e-01,  1.26712937e-02,  1.17974728e-01,
          1.78574082e-02,  1.04971133e-01],
        [-9.91631821e-02, -1.39990970e-01,  8.56049582e-02,
          1.41022682e-01,  2.65857950e-03, -5.54687262e-01,
          2.36526970e-02,  2.04174723e-02,  7.69378841e-02,
         -1.03904016e-01,  1.41465843e-01,  5.92886329e-01,
         -2.71084309e-01, -2.60488778e-01,  4.80681419e-01,
          1.86304063e-01,  5.89299276e-02,  3.23691338e-01,
         -3.73522818e-01,  4.64598686e-02,  5.41897058e-01,
         -2.62964189e-01,  1.31492779e-01, -3.09586555e-01,
          9.52383578e-02, -8.44093114e-02,  8.81220447e-04,
          7.76319802e-02,  2.34414652e-01, -2.18349416e-03,
          1.79186881e-01,  3.83222938e-01],
        [ 1.10051800e-02,  3.06150198e-01, -1.33448780e-01,
          4.92901914e-02, -2.75644869e-01, -6.16258442e-01,
         -6.75602108e-02,  2.18786329e-01, -9.71897542e-02,
         -2.01273352e-01, -1.42613068e-01, -2.71595538e-01,
          1.97825320e-02, -8.16866010e-02,  1.22480258e-01,
         -3.12099636e-01, -2.81797260e-01, -1.73634544e-01,
         -2.16874957e-01, -1.26545802e-01, -2.67639309e-01,
         -1.11030601e-01, -2.22503632e-01,  2.11324971e-02,
         -3.75815094e-01,  1.54859409e-01, -1.28015934e-04,
         -1.93969414e-01, -1.37793168e-01, -1.21402718e-01,
          1.56415328e-01,  1.75692942e-02],
        [-2.24613938e-02,  1.39158726e-01, -1.94774881e-01,
          1.04165711e-01, -2.42780358e-01, -8.53380114e-02,
         -3.22989114e-02, -3.02402470e-02, -2.75934637e-02,
         -1.96314707e-01,  4.36665528e-02, -3.72907996e-01,
         -1.12291180e-01, -2.47252509e-01, -2.00297758e-02,
         -1.16792858e-01, -8.43859017e-02,  8.16898420e-03,
          1.04282692e-01, -1.70743927e-01, -2.47129619e-01,
         -1.69002950e-01,  8.16348195e-02, -4.97562578e-03,
         -1.03626750e-01, -4.32994999e-02,  8.58302638e-02,
         -8.26307535e-02, -2.31267493e-02, -5.70030846e-02,
          1.13029607e-01,  2.96852767e-01],
        [-5.18065095e-02, -1.01595715e-01, -3.12545747e-01,
         -1.71057776e-01,  1.88268960e-01, -2.07675308e-01,
         -7.04222694e-02,  9.62796733e-02, -2.35077143e-01,
          6.89797997e-02, -1.89719930e-01, -6.55499846e-02,
         -1.51012495e-01, -1.85916469e-01, -5.56773663e-01,
          1.67074487e-01,  8.14733803e-02, -2.80569196e-01,
         -2.18039662e-01,  2.84121074e-02, -2.40289718e-01,
         -1.39271960e-01, -7.24890642e-03, -2.79466026e-02,
         -3.73966135e-02, -2.01547340e-01,  6.45367503e-02,
         -1.97527513e-01, -6.11996055e-02,  2.08366916e-01,
          7.80723840e-02,  9.10060331e-02],
        [ 6.64553285e-01, -2.75852352e-01,  3.54793847e-01,
          2.58878917e-01,  2.58777128e-03, -1.03173792e-01,
          1.45487517e-01, -3.39400619e-01,  5.02803147e-01,
          3.22820604e-01,  7.60543197e-02,  6.58254206e-01,
         -6.31327406e-02,  2.95884520e-01,  5.65277874e-01,
          6.90590888e-02,  6.68903887e-02,  5.58318615e-01,
         -1.99949116e-01,  1.47254094e-01,  5.45417368e-01,
          7.11432099e-02,  2.84503549e-01,  1.27480000e-01,
         -1.48142204e-01, -9.95389670e-02,  2.13494152e-01,
          2.71111369e-01,  3.42775166e-01, -4.04446088e-02,
          4.68718469e-01,  8.22147071e-01],
        [-5.50288782e-02,  2.04257503e-01, -5.68105161e-01,
         -2.98138946e-01,  3.93440165e-02, -3.67098778e-01,
         -2.34426737e-01, -7.96173140e-02, -1.37895912e-01,
         -8.26700181e-02, -1.62208423e-01, -3.32012355e-01,
         -1.25846162e-01,  1.58497207e-02, -7.35671878e-01,
         -1.47971824e-01, -1.03674524e-01, -4.20778841e-01,
         -3.93657237e-01,  1.16640925e-01, -2.72027344e-01,
         -6.17085025e-02, -1.00119539e-01, -4.53660414e-02,
         -2.44774669e-01, -3.80704217e-02,  1.69545829e-01,
         -5.51213436e-02, -4.25825194e-02,  3.54328640e-02,
         -5.54851070e-02,  3.91474813e-01],
        [ 2.16239020e-01, -3.25938612e-01, -1.43485084e-01,
         -1.11788251e-01, -1.05383992e-01,  8.69528204e-02,
         -1.70896016e-02,  1.09412558e-01, -1.62246823e-01,
         -1.43901899e-01, -1.98182434e-01, -4.59981680e-01,
         -8.70598853e-02, -2.13178188e-01, -5.25156677e-01,
          8.17152038e-02,  6.72101006e-02, -4.53899741e-01,
          2.82519888e-02, -1.93792060e-01, -2.63137758e-01,
         -6.56807646e-02, -1.69224128e-01, -1.37640983e-01,
         -8.60925913e-02, -2.49661610e-01, -9.70608294e-02,
         -7.13014752e-02, -1.44199014e-01, -2.22939342e-01,
          1.65796831e-01,  1.34159938e-01],
        [ 4.05453324e-01, -3.77803773e-01, -7.50402585e-02,
         -4.44962792e-02,  4.11197133e-02,  7.22141284e-03,
          6.53156415e-02,  2.64074057e-01, -2.52432019e-01,
         -2.80138791e-01,  3.54689509e-01, -3.89775544e-01,
         -2.32355334e-02, -2.80808121e-01, -5.56263447e-01,
         -1.14440300e-01,  4.09259409e-01, -5.35714865e-01,
          9.31654945e-02, -2.45134383e-01, -4.11491096e-01,
         -3.32665980e-01,  2.29953364e-01,  5.25548160e-02,
          5.06111801e-01, -4.45229337e-02,  2.12008759e-01,
          7.29352385e-02,  1.64214253e-01,  8.19501001e-03,
          1.02146775e-01,  5.45155823e-01],
        [ 9.21011493e-02, -2.59629548e-01,  2.09045894e-02,
          1.93581596e-01, -1.48098379e-01,  1.45078957e-01,
          1.42464027e-01, -5.87000651e-03, -1.34821355e-01,
         -1.29035532e-01, -4.85071428e-02, -4.04933058e-02,
         -1.83203533e-01, -2.34003171e-01, -2.54903644e-01,
         -5.73337153e-02, -8.14846084e-02, -1.12461410e-01,
          1.02602467e-01, -2.11407430e-02,  1.32699072e-01,
         -2.63543278e-01, -2.18710169e-01, -1.19172499e-01,
         -9.74082127e-02, -6.07422255e-02, -1.07889744e-02,
          3.98350433e-02, -1.09925009e-01, -1.41706258e-01,
          1.85152143e-01,  4.33968231e-02],
        [ 5.09603024e-02, -4.54467773e-01, -9.19278115e-02,
          1.45377591e-01,  1.41048968e-01, -9.32798982e-02,
          5.41427247e-02,  2.81062067e-01,  1.80567965e-01,
          1.40120029e-01,  9.68582183e-02,  2.08383456e-01,
          1.90946627e-02, -2.94223517e-01, -5.02101719e-01,
          7.04293847e-02, -2.98641950e-01,  2.99716800e-01,
          4.12016995e-02,  1.00592010e-01,  2.51329601e-01,
          2.56332934e-01, -1.58238009e-01, -3.64172876e-01,
          1.82451874e-01,  3.21997851e-02,  1.13791391e-01,
          7.79687911e-02, -1.10612251e-01, -1.13926269e-01,
          2.02657655e-02,  1.78674206e-01],
        [ 1.72726318e-01, -3.02969068e-01, -8.71425271e-02,
          1.43687353e-01, -9.67866480e-02, -1.18240952e-01,
          7.08490238e-02, -1.06591031e-01, -1.20016716e-01,
          4.05786447e-02, -4.21479903e-02,  2.45806694e-01,
         -1.36902258e-01,  1.85157865e-01,  5.77744246e-02,
          2.15111375e-01, -4.60986374e-03,  1.15834072e-01,
         -1.37965545e-01, -8.29536170e-02,  2.73684263e-01,
         -5.03837317e-02,  1.65509045e-01, -1.24365482e-02,
         -2.49857724e-01, -2.20547095e-01,  7.11116493e-02,
          3.07845950e-01,  1.52140319e-01,  1.14586309e-01,
          1.24912336e-01,  4.80360478e-01],
        [-1.38276622e-01, -1.69784009e-01, -1.41164646e-01,
         -1.17695324e-01,  5.11587523e-02,  6.49106354e-02,
         -8.56794938e-02,  1.81401432e-01, -3.23293954e-01,
         -1.19629160e-01, -1.69875726e-01, -5.35967886e-01,
         -2.78900623e-01, -1.27777413e-01, -6.10162675e-01,
         -1.78661138e-01,  6.17301874e-02, -4.75893229e-01,
         -2.11084336e-01, -7.36320987e-02, -4.40786481e-01,
         -9.73993465e-02, -1.28789872e-01, -9.57153812e-02,
          1.09987877e-01, -3.31816435e-01, -2.80223697e-01,
         -9.05349553e-02, -1.34114653e-01, -1.35728300e-01,
          1.06135957e-01, -6.76376596e-02],
        [ 5.15368115e-03,  1.80068061e-01,  1.65914148e-01,
          1.78301141e-01,  1.24085899e-02, -1.29426748e-01,
         -2.67385066e-01,  7.21604824e-02,  1.61945343e-01,
         -3.74424346e-02,  1.02397926e-01,  3.43990445e-01,
         -2.28992656e-01, -5.70521206e-02,  5.66423953e-01,
         -1.97531298e-01, -2.86865562e-01,  5.56260765e-01,
         -4.78661545e-02,  2.91166008e-01,  5.93367040e-01,
          2.93991771e-02, -2.03425065e-01, -2.45838612e-01,
         -3.03441286e-02,  2.17468408e-03,  1.23283386e-01,
          1.35886714e-01, -1.80202425e-02,  3.50731239e-02,
         -4.60154116e-02,  1.55632049e-01],
        [ 5.24268895e-02, -5.21153584e-02, -2.04001665e-01,
          1.30942553e-01,  3.08485180e-01, -4.79161412e-01,
         -4.23991717e-02,  6.77843317e-02, -6.79034740e-02,
          5.94613142e-02,  1.16126956e-02,  1.40653383e-02,
         -8.93761963e-02, -3.06788146e-01, -1.27586098e-02,
         -6.53649354e-03, -2.23753080e-01,  6.03833236e-02,
         -1.78065717e-01,  3.06812786e-02, -3.72171775e-03,
          1.49963545e-02, -3.66717391e-02, -2.44165454e-02,
         -8.52846205e-02, -2.00733066e-01,  1.14032120e-01,
          7.66102821e-02, -1.50146171e-01, -1.78507492e-01,
         -1.17986627e-01,  8.19970891e-02],
        [-1.18805490e-01, -1.02127187e-01, -4.73742038e-01,
         -3.09916824e-01, -5.92542589e-02, -6.11684680e-01,
          4.24312055e-03,  8.01433846e-02, -2.44981259e-01,
          8.30594897e-02, -1.24879675e-02, -2.97065914e-01,
         -8.58842358e-02, -2.29829773e-01, -4.78465348e-01,
          1.45333439e-01, -1.66534916e-01, -4.50485200e-01,
         -2.18578398e-01, -9.22007933e-02, -3.37922513e-01,
         -3.08758616e-01, -1.48028538e-01, -1.63938925e-01,
         -3.36958677e-01,  1.33600846e-01,  1.45548493e-01,
         -2.82710940e-01, -1.89769924e-01, -6.95859194e-02,
          1.87229022e-01,  1.55986026e-01],
        [-1.52943432e-01,  2.27820590e-01, -3.02082151e-01,
         -3.18192691e-01,  7.47065097e-02, -4.20893133e-01,
         -2.26470575e-01, -1.32280350e-01, -2.53534555e-01,
         -2.22455993e-01, -1.96525097e-01, -3.46860796e-01,
         -9.45131108e-02,  1.00863531e-01, -6.41890705e-01,
         -1.86822899e-02, -3.00051659e-01, -4.64546651e-01,
         -2.11481065e-01, -1.81294754e-01, -4.29357648e-01,
         -2.33694851e-01, -2.25674689e-01, -1.04273252e-01,
         -4.89317864e-01, -2.05048677e-02, -1.66196331e-01,
         -3.98936957e-01, -2.95975953e-01,  1.22740783e-01,
          8.67483914e-02,  1.89941138e-01],
        [-9.94361565e-03,  1.26826659e-01, -1.48905426e-01,
         -2.23035768e-01, -8.78028050e-02,  6.38858154e-02,
         -3.37313376e-02,  1.89270511e-01, -1.94480360e-01,
         -7.06734061e-02, -2.05877796e-01, -3.00527900e-01,
         -1.53992981e-01, -6.36779144e-02, -5.61976254e-01,
         -1.14516951e-02, -1.35873511e-01, -2.71403462e-01,
         -1.93734482e-01, -1.49219826e-01, -2.03701720e-01,
          7.15993866e-02, -7.93194547e-02, -3.75909731e-02,
          2.15861462e-02, -3.54462489e-02, -1.08327881e-01,
         -1.62006184e-01,  1.30000785e-02,  2.68366877e-02,
          1.41989797e-01,  1.62003592e-01],
        [-1.70568973e-01, -8.05528462e-02, -1.46951169e-01,
         -5.49943559e-02,  3.04512620e-01, -9.28032845e-02,
         -9.62788835e-02,  3.55363160e-01, -2.84206271e-01,
         -1.99354768e-01, -1.74982324e-01, -1.86440259e-01,
         -2.59176224e-01,  3.75292860e-02, -2.66419590e-01,
         -1.44313782e-01,  9.04088393e-02, -6.15406573e-01,
         -2.26526588e-01, -2.70262863e-02, -2.43997321e-01,
         -4.89842109e-02, -2.18855724e-01,  2.02595472e-01,
         -8.80993009e-02, -2.77477950e-01, -2.81787515e-01,
         -9.95691959e-03, -8.68188515e-02, -1.76630199e-01,
         -7.24440292e-02, -4.40105587e-01],
        [-4.01257984e-02, -4.34636682e-01,  1.58535242e-01,
         -4.42320481e-02,  8.36099535e-02,  1.02986470e-01,
         -2.27455492e-03,  2.29484588e-01,  4.63057533e-02,
          8.37894306e-02,  1.69300273e-01, -8.75722766e-02,
          1.02293864e-02, -3.03340971e-01, -3.57473165e-01,
          1.57336175e-01, -6.67703152e-02,  2.14353919e-01,
          1.23182414e-02,  4.40417416e-02,  1.44472033e-01,
          2.83480167e-01, -2.11207733e-01, -1.17034838e-01,
         -2.33605087e-01, -3.62553936e-03, -1.90792814e-01,
         -1.40792513e-02, -1.11366669e-02, -1.91418268e-02,
          8.74253549e-03, -1.05327785e-01],
        [ 2.38272116e-01, -7.34889507e-02, -2.77253658e-01,
         -2.18197986e-01,  1.91109449e-01, -3.04200411e-01,
         -1.09109364e-01,  2.72593945e-01, -3.29833627e-01,
          3.69750010e-03, -1.77590832e-01, -2.54374743e-01,
         -2.89838221e-02, -2.02074751e-01, -8.70965362e-01,
         -1.08510353e-01, -2.38118380e-01, -7.55678177e-01,
         -2.42147267e-01, -5.57908937e-02, -4.59472209e-01,
         -1.55345798e-01, -7.85262790e-03,  1.25694022e-01,
         -1.88265607e-01, -1.58369198e-01, -1.26952961e-01,
         -1.52367562e-01, -1.24779180e-01,  4.42320853e-02,
         -6.27634749e-02,  4.27719742e-01],
        [ 1.25872865e-01, -3.87385160e-01, -9.41415802e-02,
          9.82005894e-02, -7.52909854e-02, -2.41050422e-01,
         -3.84840518e-02,  4.96630231e-03,  1.87075660e-02,
          1.66773260e-01, -9.68195498e-02,  4.44721758e-01,
         -1.66363299e-01,  6.10826015e-02, -1.58244282e-01,
          3.05483758e-01,  2.64985170e-02, -2.41428288e-03,
         -4.36954945e-01,  2.98859868e-02,  3.56693566e-01,
         -1.87675338e-02,  3.59604806e-01, -5.58022177e-03,
         -2.63549358e-01, -3.30883235e-01,  1.83785588e-01,
          9.08195302e-02,  6.60262033e-02,  1.09136654e-02,
          1.58261791e-01,  6.55218482e-01]],

       [[ 1.49148896e-01,  1.76657349e-01, -2.08072200e-01,
         -1.30070776e-01, -1.34876564e-01, -2.57099926e-01,
         -1.19467594e-01,  2.67907709e-01, -6.19030185e-02,
         -1.64992973e-01, -2.34130800e-01, -2.88792372e-01,
          1.41590789e-01,  2.39295810e-01, -5.47418177e-01,
         -2.05643132e-01, -6.03482872e-02, -4.69244480e-01,
         -2.25530326e-01, -2.11215988e-01, -5.02149642e-01,
          1.44091351e-02, -2.10480280e-02,  4.14945930e-02,
         -3.54046673e-01,  2.48846069e-01, -2.19349414e-01,
         -1.47893310e-01, -5.19080125e-02,  1.00532278e-01,
         -5.55914789e-02,  6.42806664e-02],
        [-2.27965519e-01, -1.54462680e-01,  2.05428049e-01,
         -3.19337770e-02, -9.34171025e-03,  1.22922234e-01,
         -5.57247028e-02,  1.72305495e-01, -2.83600539e-02,
         -2.70787645e-02,  3.11508030e-02,  1.82249453e-02,
         -1.28676265e-01, -3.87447737e-02, -4.92398906e-03,
         -2.36495193e-02, -1.11843109e-01, -2.02881899e-02,
          2.47806445e-01,  3.03866342e-02,  9.95990634e-02,
          1.57822728e-01, -1.98771745e-01, -1.67559490e-01,
         -3.43817584e-02, -9.53470692e-02,  5.15940748e-02,
         -1.87238678e-01, -7.00586513e-02, -2.49894410e-01,
          6.12382665e-02, -4.07193959e-01],
        [-3.01826775e-01, -1.32836059e-01, -3.04393858e-01,
         -1.59300208e-01,  6.60761595e-02, -1.74398944e-02,
         -1.06939021e-02,  3.78257632e-01, -2.48551741e-01,
         -1.74016804e-01, -4.59536389e-02, -7.37371206e-01,
          1.06436543e-01,  2.14630440e-02, -1.88898385e-01,
          1.54115409e-01, -1.86287984e-01, -2.62381136e-01,
         -1.58973858e-02, -1.39730722e-01, -7.21584678e-01,
         -1.55214444e-01,  9.79537517e-02,  9.21387002e-02,
          1.83696583e-01,  3.76372621e-03, -3.12550426e-01,
          9.11317840e-02,  2.61554688e-01, -1.26819551e-01,
          8.99445117e-02, -5.01891822e-02],
        [-2.51393598e-02,  1.43275291e-01, -6.49597421e-02,
         -2.01183930e-01,  3.07803159e-03, -8.98357034e-02,
         -9.48219150e-02, -1.19182870e-01, -1.63370855e-02,
         -2.28762597e-01, -6.32235855e-02, -8.93251523e-02,
         -7.43394578e-03,  1.48441002e-01, -2.69358873e-01,
          1.25566632e-01, -2.09732071e-01, -1.19307667e-01,
         -2.15543117e-02,  6.27534688e-02, -1.64203063e-01,
          1.36666112e-02,  6.97964206e-02,  2.54217591e-02,
         -2.55245477e-01,  1.54511139e-01, -2.29117468e-01,
         -1.92156076e-01, -4.43104804e-02, -1.11561187e-01,
         -3.83467153e-02, -2.10088193e-01],
        [-2.24473983e-01,  5.23347734e-03,  5.05307436e-01,
          6.88385814e-02,  1.44146129e-01, -3.42699848e-02,
          1.62623301e-01, -5.95897913e-01,  4.47318494e-01,
          5.11602089e-02,  1.45448402e-01,  8.88312101e-01,
         -5.22983968e-02,  1.84247687e-01,  1.74976170e-01,
         -2.52471603e-02, -2.05936342e-01,  7.79690087e-01,
          1.95834652e-01,  2.48205796e-01,  8.04987729e-01,
          3.24650109e-01, -4.28133756e-01, -3.52975249e-01,
         -2.19086930e-01,  1.65920854e-01,  1.70654580e-01,
          2.42156629e-02,  2.01698720e-01,  7.91792646e-02,
         -1.30888969e-01, -4.07549024e-01],
        [-1.57832518e-01, -1.69654991e-02, -1.32357314e-01,
          3.68913375e-02,  3.93449701e-02, -1.97228342e-01,
          5.29518537e-02, -8.75421464e-02, -4.19987261e-01,
         -2.98953075e-02,  1.32484855e-02, -1.62041023e-01,
         -7.76244029e-02,  2.90947929e-02, -1.53937593e-01,
         -9.03777257e-02,  1.93493180e-02, -3.01946610e-01,
         -5.57775833e-02,  1.24862725e-02, -1.08677521e-01,
         -5.39594330e-02, -1.41928298e-02, -8.59625265e-02,
         -2.45189041e-01, -5.89632094e-02, -1.74607903e-01,
          3.09979290e-01,  3.73575240e-01,  2.07748804e-02,
         -1.09620757e-01, -2.03875482e-01],
        [-4.19726670e-01,  1.25418082e-01, -8.02446008e-02,
         -1.41834214e-01, -1.79744139e-02, -1.32966578e-01,
         -9.03021544e-02,  4.40394104e-01, -6.38107955e-02,
          9.05484259e-02, -6.55907439e-03,  1.11523038e-03,
         -4.22580726e-02, -7.95565128e-01,  1.96856167e-02,
         -8.92233774e-02,  5.41323386e-02, -1.91186398e-01,
          3.51871550e-01,  1.78348139e-01, -1.32060438e-01,
         -4.14583012e-02, -4.99402522e-04,  2.90802360e-01,
          2.83680800e-02, -3.17236297e-02,  7.42884278e-02,
          1.63286150e-01,  2.40529224e-01,  3.91767500e-03,
         -1.73034951e-01, -2.32717410e-01],
        [-2.56654799e-01, -2.40132153e-01,  1.31307602e-01,
         -1.04520455e-01,  6.29518777e-02,  1.95221633e-01,
          1.38378330e-02,  6.01522505e-01, -2.81676322e-01,
         -8.43104869e-02,  1.28727600e-01, -2.07999479e-02,
         -8.25900137e-02, -1.32566497e-01,  1.67426035e-01,
          7.79907331e-02, -1.24222353e-01,  3.18935543e-01,
          2.08766937e-01, -3.12830240e-01, -3.45336080e-01,
         -2.24616185e-01, -1.45749122e-01, -2.25393623e-02,
          2.92810768e-01, -1.09278537e-01,  2.12868690e-01,
          1.59425754e-02,  9.91326720e-02, -1.81668568e-02,
         -4.09144871e-02, -2.50802785e-01],
        [-2.28497058e-01, -7.20737949e-02, -1.67054743e-01,
          2.69911617e-01,  1.72025517e-01, -1.78581193e-01,
          3.75547819e-02,  2.25808620e-01, -7.06338882e-02,
         -1.45336360e-01, -2.11356357e-02, -2.51889914e-01,
          6.49132878e-02, -1.19309023e-01, -1.62018254e-01,
         -1.07253969e-01,  6.24384359e-02, -8.01858008e-02,
         -2.40159929e-01,  1.76961850e-02, -1.35949612e-01,
         -2.11545825e-01,  2.99988538e-02, -9.05763954e-02,
          3.76464874e-02,  7.44180102e-03, -1.11902811e-01,
         -5.61982952e-02,  3.37997936e-02, -2.14641485e-02,
         -1.21347807e-01,  1.66825205e-01],
        [-3.74901533e-01, -8.68775025e-02, -3.63821030e-01,
         -4.18236434e-01,  9.43186060e-02,  1.76632367e-02,
          1.19999982e-02,  1.18758991e-01,  3.57449837e-02,
          2.14647695e-01,  4.11343351e-02, -3.71125847e-01,
          2.42223397e-01, -3.24039519e-01, -3.50573897e-01,
         -1.86522096e-01, -3.35020535e-02, -2.66660333e-01,
         -5.08759730e-02,  2.97932625e-01, -3.46703678e-02,
          1.05535276e-01,  2.30300128e-01,  1.16931610e-02,
         -3.30449879e-01,  6.98746145e-02, -1.38026420e-02,
          2.69029707e-01,  7.43997768e-02, -1.00596488e-01,
         -2.77603179e-01, -2.61330962e-01],
        [-2.00677946e-01, -1.20124497e-01, -4.98236045e-02,
         -3.22142355e-02, -1.23777464e-01,  2.07614049e-01,
         -5.91418594e-02,  3.72192889e-01, -1.98395789e-01,
         -7.83240497e-02, -1.04735903e-01, -1.78274676e-01,
          9.23100710e-02, -3.21816653e-02, -7.51112327e-02,
         -1.38124987e-01, -2.25450993e-01, -3.33662680e-03,
          1.61064684e-01, -7.72734592e-03, -4.80703473e-01,
         -6.10533133e-02, -1.54944241e-01,  6.54141158e-02,
         -4.20164317e-02, -5.11223823e-02, -3.27043759e-04,
         -2.00781986e-01, -2.59466507e-02, -1.48488596e-01,
          7.00807348e-02, -2.01778784e-01],
        [-2.45705023e-01,  6.12633415e-02, -2.78878987e-01,
         -3.39196146e-01,  2.17069089e-02,  6.39770478e-02,
         -8.76980796e-02,  3.52323234e-01, -4.16906893e-01,
         -1.92436919e-01, -9.47153494e-02, -6.16693139e-01,
         -5.36123030e-02,  2.16883108e-01, -3.12808275e-01,
          5.90769351e-02, -2.22061545e-01, -3.47237021e-01,
         -2.07682416e-01, -2.18310192e-01, -6.88863277e-01,
         -1.33781865e-01,  8.72345045e-02,  1.04596496e-01,
         -1.48142412e-01, -4.62760143e-02, -2.70002931e-01,
         -1.57619432e-01,  1.22784853e-01,  1.55052496e-02,
         -5.72294705e-02, -5.84221557e-02],
        [-1.18091390e-01, -1.26899809e-01, -2.64685452e-02,
         -3.46715786e-02,  6.92708269e-02, -1.30365133e-01,
         -2.79666148e-02,  3.07007521e-01, -2.83936501e-01,
         -8.37502629e-02, -5.13584986e-02, -2.45394275e-01,
         -3.10334772e-01,  1.14809014e-02, -3.13125521e-01,
          3.31929326e-02,  4.22965847e-02, -5.43516695e-01,
          5.73264658e-02,  2.41219044e-01, -3.88872549e-02,
         -3.72328222e-01, -3.59086879e-02,  1.02760218e-01,
          1.75957698e-02, -2.63509989e-01,  1.81790758e-02,
          1.74733788e-01, -1.39135063e-01,  2.68830117e-02,
         -1.10068165e-01, -4.07187566e-02],
        [-2.22052202e-01, -2.10195810e-01, -5.36481664e-03,
         -3.13275270e-02, -3.49654667e-02,  1.32501736e-01,
          5.84657267e-02,  7.08873987e-01,  4.42457981e-02,
         -3.94547395e-02,  1.65029913e-01,  5.34550071e-01,
         -4.40326743e-02, -5.12688637e-01, -1.98879857e-02,
          3.59169960e-01, -2.00343519e-01,  1.71400756e-01,
         -1.05629310e-01,  1.33064073e-02,  1.26850829e-01,
          8.33287686e-02, -7.05882013e-02,  4.18352010e-03,
          1.25951365e-01,  5.07073328e-02,  2.01348215e-01,
         -1.30781054e-01, -6.92801327e-02,  9.23173502e-03,
          3.44714522e-02, -2.44971484e-01],
        [ 6.73753023e-02,  5.76323755e-02, -3.26091915e-01,
         -1.23191923e-01, -7.27973431e-02, -1.48322612e-01,
         -1.85906097e-01,  1.44718602e-01,  1.71419039e-01,
          4.47982252e-02, -3.16964477e-01, -2.42797032e-01,
          2.94208169e-01,  2.45436341e-01, -8.01913083e-01,
         -1.57124907e-01, -1.82974786e-01, -3.63279492e-01,
         -3.41535360e-02, -2.03097686e-01, -1.92807063e-01,
          6.26140386e-02, -1.10163055e-01,  2.78725713e-01,
         -4.35894132e-01,  2.51964897e-01, -5.62582426e-02,
         -2.16416717e-01, -1.88150153e-01,  1.44155398e-01,
         -9.24521592e-03, -4.33480293e-02],
        [ 1.32995188e-01, -2.03666463e-01, -3.91970575e-02,
          1.82692692e-01, -3.58291194e-02,  1.92362875e-01,
         -1.20595142e-01,  3.26250680e-02,  2.26915687e-01,
         -3.16950887e-01,  1.84028774e-01,  7.22435787e-02,
          7.49107674e-02,  3.91297311e-01,  1.18512861e-01,
          1.45346045e-01,  5.02097458e-02,  1.80558592e-01,
         -3.36072832e-01, -2.30611697e-01,  2.03835502e-01,
         -3.27043533e-01, -1.26651019e-01,  5.15013337e-02,
          1.13593638e-01, -1.20067872e-01, -1.46720707e-01,
         -4.51954789e-02, -4.21787053e-02,  5.72844259e-02,
          4.43682149e-02,  8.33288580e-02],
        [-1.11426435e-01, -6.99973945e-03, -3.77075404e-01,
         -2.31767595e-01,  1.80831298e-01,  2.24972084e-01,
          2.32501924e-01,  4.69835326e-02, -1.71964750e-01,
          5.78812882e-03, -2.60978807e-02, -6.93337083e-01,
         -1.17390051e-01, -1.17305987e-01, -1.70811370e-01,
          5.19629940e-02,  2.41854526e-02, -3.39211613e-01,
          1.07828349e-01,  1.25671074e-01, -5.39974749e-01,
          3.11227050e-02,  2.17086524e-01, -4.75330278e-02,
          4.49759439e-02, -3.25497955e-01, -2.79458947e-02,
          1.23148210e-01, -1.21080652e-01, -9.48379263e-02,
         -2.36234590e-01,  2.20950600e-02],
        [-4.59828973e-03,  7.17532681e-03, -3.72895479e-01,
         -4.59635884e-01,  3.17036986e-01, -1.90834120e-01,
         -2.49661610e-01,  3.54063302e-01, -2.51582503e-01,
         -5.26615568e-02, -1.72693327e-01, -5.21200061e-01,
          2.21790280e-02,  2.78394431e-01, -5.81969142e-01,
          5.24521247e-02, -4.04524982e-01, -6.58836126e-01,
         -2.17711374e-01,  2.06807014e-02, -4.22592789e-01,
          2.35286161e-01,  4.51199673e-02,  3.19107026e-02,
         -5.21067262e-01, -4.48344015e-02, -2.95431226e-01,
         -1.47616431e-01, -1.79077998e-01,  9.03652012e-02,
         -9.22154412e-02, -3.47861469e-01],
        [-6.99339211e-02,  2.05732599e-01,  1.65673465e-01,
          4.48381566e-02,  4.99049686e-02, -2.48032925e-03,
         -3.24812621e-01, -5.42602956e-01, -5.29172756e-02,
          1.74002513e-01, -1.40738204e-01,  4.74443793e-01,
         -1.54641345e-01,  3.07794154e-01, -2.19213367e-01,
         -1.84431300e-01,  8.60406086e-02, -2.95011904e-02,
         -3.55496556e-01,  9.62876305e-02,  7.29533136e-01,
          1.23282500e-01, -1.99706510e-01, -2.35957965e-01,
         -1.15775578e-01, -4.60304245e-02,  1.55178159e-01,
          1.29465774e-01,  2.50043869e-01,  2.28332445e-01,
          5.69010340e-03, -1.81378290e-01],
        [-1.07798643e-01,  2.16753092e-02, -1.71664178e-01,
          1.86728891e-02,  2.98045743e-02, -3.23288560e-01,
          7.07348362e-02,  3.72659057e-01, -1.86038494e-01,
         -2.86536813e-02, -7.31948987e-02, -5.00304580e-01,
          1.42550364e-01, -1.46492615e-01, -3.38784993e-01,
         -2.37381101e-01, -1.29801571e-01, -3.66053700e-01,
          1.56909436e-01,  1.38030261e-01, -3.76708478e-01,
         -1.07313983e-01,  2.13784054e-02,  2.91525722e-01,
         -1.33870214e-01,  5.32156266e-02,  1.66945159e-02,
          4.72278781e-02, -1.13117099e-02,  1.09824445e-02,
         -1.15097560e-01,  9.92586613e-02],
        [-1.72144115e-01,  3.33216816e-01, -4.72482771e-01,
         -5.72153218e-02, -1.46321505e-01, -3.34341079e-01,
          4.30447757e-02,  4.97668654e-01,  1.13699868e-01,
          1.38231739e-01, -5.01401536e-02, -1.84124291e-01,
          3.23986948e-01, -4.21357542e-01, -5.86459816e-01,
         -5.90447068e-01, -3.97712380e-01, -4.99191016e-01,
         -5.86258844e-02, -2.00715616e-01, -2.42827758e-01,
          8.94579962e-02, -4.21724059e-02, -2.98826665e-01,
         -4.44017112e-01,  4.22577351e-01, -2.77389828e-02,
         -2.12053940e-01, -1.12258270e-01, -3.20346028e-01,
         -5.52145317e-02, -1.20382048e-02],
        [-2.21742347e-01, -2.48988140e-02,  2.03507319e-01,
          1.72841072e-01, -3.33931781e-02, -3.49225223e-01,
          2.68442743e-02, -1.95051521e-01,  4.45736274e-02,
          1.46213844e-01,  5.35449423e-02,  4.08075482e-01,
         -8.26946497e-02,  1.15852989e-01,  1.17327191e-01,
          5.04940264e-02,  7.36106783e-02,  1.86667502e-01,
         -1.24363162e-01,  1.67185649e-01,  6.16621971e-01,
          1.54470146e-01, -1.10483184e-01, -1.02747217e-01,
          2.80298479e-02, -7.00560063e-02, -2.44301148e-02,
          1.26674458e-01, -3.66368406e-02, -3.02537922e-02,
         -6.35809153e-02, -1.58910736e-01],
        [-1.15746848e-01,  8.06255639e-02, -1.04334265e-01,
          1.30666807e-01,  3.45434658e-02, -3.10934037e-01,
         -7.20722079e-02,  1.35589495e-01,  3.61154109e-01,
         -3.21985148e-02,  9.88077819e-02,  4.79901314e-01,
         -7.51001388e-02, -3.74033675e-02,  7.73114115e-02,
          1.06632054e-01, -3.39166492e-01,  2.33109832e-01,
         -1.67247206e-01, -2.73214784e-02,  4.39966381e-01,
         -1.30454689e-01, -2.50904173e-01, -2.25036163e-02,
         -4.96548563e-02, -2.08186477e-01, -1.37988791e-01,
         -8.65362212e-02,  1.29251584e-01,  1.14268899e-01,
          6.19449243e-02, -9.97594744e-02],
        [-1.90850675e-01, -2.22433120e-01, -2.55022556e-01,
         -4.30027306e-01,  1.30371884e-01, -1.19796775e-01,
         -3.07788663e-02,  4.52299088e-01, -5.65557003e-01,
         -3.02611351e-01,  3.63383554e-02, -4.94012445e-01,
         -1.07484490e-01, -4.38515283e-02, -2.74974138e-01,
          3.71131003e-01, -1.51378006e-01, -6.46682739e-01,
          9.89691094e-02, -8.00636709e-02, -8.24937582e-01,
         -3.97706151e-01, -1.26731219e-02, -3.71031538e-02,
          2.12691799e-01, -1.50963157e-01, -7.37652853e-02,
         -2.09370360e-01, -1.18014857e-01, -8.18460211e-02,
          7.29160234e-02, -3.01494837e-01],
        [-9.77199972e-02,  2.70847529e-01, -4.10977565e-02,
         -7.17444047e-02, -1.41629381e-02, -5.12574799e-04,
         -2.34673545e-01,  1.84389740e-01, -4.06410962e-01,
         -2.31032133e-01, -5.69157377e-02, -5.07064462e-01,
         -2.63511330e-01, -4.77604102e-04, -4.63510334e-01,
         -6.89449981e-02, -2.99115241e-01, -4.86037701e-01,
         -9.83180329e-02, -4.23843041e-02, -3.73594761e-01,
          4.14939336e-02,  3.91319469e-02,  7.30126128e-02,
          3.90017480e-02,  1.08921647e-01, -3.82710189e-01,
          1.70433205e-02,  6.95160031e-02, -5.88156693e-02,
          3.33912112e-02, -1.18026085e-01],
        [-3.06742340e-01, -2.02852249e-01, -2.85116404e-01,
          1.37094483e-01,  8.33251029e-02,  8.59460831e-02,
          2.11734157e-02,  1.27450004e-01,  2.11813152e-02,
         -1.09082557e-01, -2.04558540e-02, -1.59625307e-01,
          9.02520418e-02, -1.77512214e-01, -1.56189606e-01,
         -4.68451120e-02, -1.81577340e-01, -1.13642447e-01,
         -1.31065160e-01,  8.25613886e-02,  6.67465851e-03,
          2.35452615e-02,  8.27896297e-02, -2.28815958e-01,
         -1.48150437e-02,  1.22746438e-01, -1.79734677e-02,
         -1.45399049e-01, -1.10327326e-01,  2.05547102e-02,
         -1.52379051e-01, -2.44202875e-02],
        [-6.52326224e-03, -2.66568691e-01,  1.49267480e-01,
         -5.44517450e-02, -3.68662477e-02,  1.14658978e-02,
          1.80205509e-01,  4.49357867e-01,  4.55630049e-02,
         -4.01608795e-02,  1.61125943e-01, -3.24196756e-01,
          1.65504143e-01, -1.83759108e-02, -1.18975848e-01,
          3.11197224e-03, -1.78194135e-01,  1.90106794e-01,
          7.60013834e-02, -2.23212719e-01, -1.18738683e-02,
         -7.28509650e-02, -9.74860340e-02, -1.26380235e-01,
         -2.02773735e-01,  1.46205902e-01, -1.27683431e-01,
         -9.62483790e-03,  8.02799873e-03, -8.18128884e-02,
          1.55705586e-01, -2.24157080e-01],
        [-2.08823338e-01, -3.03493645e-02,  2.34218821e-01,
          7.75981471e-02,  1.09804915e-02,  1.29447013e-01,
         -5.52099273e-02,  1.39948040e-01, -2.46803060e-01,
         -1.12072326e-01, -2.08927207e-02, -1.02124564e-01,
         -1.83216855e-01,  1.02272637e-01, -1.10203415e-01,
         -3.16904113e-02,  6.39679432e-02, -2.65452623e-01,
         -5.65735400e-02, -6.98326752e-02,  1.31654246e-02,
          3.01811118e-02,  6.17635762e-03, -6.31173775e-02,
          8.32178071e-02, -4.27787155e-02, -1.10899337e-01,
          9.61507559e-02,  1.30397752e-01,  6.27572313e-02,
          6.05068393e-02, -2.64852792e-01],
        [-1.12995356e-01, -1.90068275e-01,  6.93428563e-03,
         -5.82870580e-02, -4.89641950e-02, -3.50324735e-02,
         -5.80152031e-03,  3.99253935e-01, -1.17040932e-01,
         -8.70266184e-02, -1.12917908e-01, -2.49735221e-01,
         -5.84460795e-02, -1.74375847e-01, -3.32576990e-01,
          9.99473110e-02, -1.07604742e-01, -2.32978836e-01,
          1.19216457e-01, -3.94066982e-02, -3.59839708e-01,
         -2.33879790e-01, -5.16333319e-02, -4.40875441e-02,
         -1.11373372e-01,  1.25133559e-01, -5.42349257e-02,
         -1.67254627e-01, -9.22200158e-02, -3.10303979e-02,
          4.66309041e-02,  7.01204091e-02],
        [-1.88561216e-01, -2.18616426e-02, -2.73916513e-01,
         -1.60841942e-01, -1.07613981e-01, -1.09008290e-01,
         -3.52526754e-02,  4.81247902e-01, -2.31195316e-01,
         -3.77731808e-02,  8.37194733e-03, -2.07227245e-01,
         -8.28806460e-02, -7.68625662e-02, -4.86613244e-01,
          6.60119951e-02, -2.51656532e-01, -4.62283939e-01,
         -4.15658094e-02, -1.44288689e-01, -4.17282254e-01,
         -1.65346831e-01, -5.39053418e-03, -5.41156344e-02,
         -1.71078339e-01, -3.76780070e-02,  1.61695499e-02,
         -1.13572171e-02, -1.02249116e-01,  1.18469866e-02,
         -4.62577641e-02, -1.90912724e-01],
        [-4.80196744e-01, -8.48105997e-02, -3.88793945e-01,
         -2.40766376e-01,  2.36514106e-01,  2.59560585e-01,
          9.50460136e-02,  8.49060059e-01, -4.92151707e-01,
         -4.81521338e-01, -1.39382277e-02, -1.20586407e+00,
         -3.24574821e-02,  3.23913097e-01, -3.67899954e-01,
          3.51382762e-01, -1.36198670e-01, -4.99255389e-01,
          3.54330033e-01, -3.20620537e-01, -1.44347966e+00,
         -2.80882180e-01,  1.29783584e-03,  1.27138346e-01,
          2.23836780e-01, -3.48921925e-01,  9.85946739e-04,
          2.95806140e-01,  2.04746515e-01,  1.06148869e-01,
         -6.25735498e-04, -2.82641768e-01],
        [-1.87948152e-01, -1.35620581e-02, -4.75876220e-02,
         -2.14739501e-01,  9.35115945e-03, -1.51248470e-01,
         -1.04572296e-01,  1.97663352e-01, -3.25564057e-01,
         -2.15199217e-02, -7.39907920e-02, -5.17627835e-01,
         -2.28630975e-01, -2.15173140e-01, -2.69146532e-01,
         -8.27273205e-02, -2.18455866e-01, -3.91898185e-01,
         -3.30898911e-02,  1.44259810e-01, -2.87902325e-01,
         -2.24977747e-01,  3.03740557e-02,  1.34925311e-02,
         -2.80871660e-01, -4.43002880e-02,  7.16976225e-02,
          1.20676070e-01,  1.81369931e-01, -3.45529318e-02,
          6.84857965e-02, -2.80575782e-01],
        [-9.10317078e-02,  3.86583097e-02,  4.46889885e-02,
         -1.52558744e-01,  3.94064188e-02, -1.21157415e-01,
         -1.05208218e-01,  2.03009427e-01,  1.10227115e-01,
         -7.22733140e-02, -2.17869580e-01,  3.82374793e-01,
          5.44911027e-02, -3.45165469e-02, -2.21196309e-01,
          1.83877274e-02, -1.75245360e-01,  3.19963358e-02,
         -2.49574944e-01,  1.20279128e-02,  3.97824287e-01,
          1.94691241e-01, -8.16313326e-02, -5.78188114e-02,
         -3.14301431e-01,  7.37985224e-02,  4.04677726e-03,
         -2.11342782e-01, -9.03438255e-02, -2.34010100e-01,
          5.60063757e-02, -2.20104396e-01],
        [-1.10038012e-01, -1.12337492e-01,  3.06839526e-01,
          1.07101493e-01,  1.60032779e-01, -5.60498983e-02,
         -1.22491330e-01,  1.04453035e-01,  7.59150609e-02,
          1.85895920e-01, -1.00298142e-02,  3.64740968e-01,
         -5.11333704e-01, -2.71868795e-01,  4.32170987e-01,
          1.52268231e-01,  1.54903293e-01,  2.10588306e-01,
          4.12915915e-01,  2.70330161e-01,  2.40966141e-01,
          3.09498698e-01,  2.23384593e-02, -5.60999401e-02,
          3.24281752e-01, -2.31073909e-02,  6.89769238e-02,
          2.18752757e-01,  8.51995721e-02, -1.45271122e-01,
          7.85220191e-02,  3.64426106e-01],
        [ 1.65354073e-01,  1.68382466e-01, -2.90197462e-01,
         -1.25583574e-01, -1.53258547e-01, -3.83416712e-01,
          3.37306298e-02,  5.17778218e-01, -2.22520754e-02,
         -1.96328118e-01, -3.65199178e-01, -6.52730823e-01,
          2.69902110e-01, -3.60714905e-02, -2.00022444e-01,
         -4.01241601e-01, -5.92494845e-01, -2.83793569e-01,
          2.93262452e-02,  3.99300538e-04, -5.01806855e-01,
          3.67208868e-02,  3.11310161e-02,  9.04708430e-02,
         -4.29320633e-01,  2.66422600e-01,  2.18161613e-01,
         -2.17576325e-01, -2.68057466e-01, -1.89415202e-01,
         -4.75876480e-02, -2.26261109e-01],
        [-3.95722575e-02, -4.01323676e-01,  1.62410189e-03,
         -1.32891834e-01, -1.10726999e-02,  7.98651129e-02,
         -1.05777465e-01,  7.89467394e-02, -1.68970138e-01,
         -1.48392186e-01,  3.13349813e-02, -2.38763034e-01,
         -4.38957363e-02, -3.86126786e-02,  8.58317763e-02,
         -3.43569480e-02, -2.10132189e-02, -1.34962514e-01,
         -7.34015778e-02, -1.81241497e-01, -1.38501778e-01,
         -9.50481370e-02, -1.52220449e-03,  9.56934765e-02,
         -6.15763962e-02, -2.60304362e-01, -3.77774596e-01,
         -3.74381867e-04,  5.43100834e-02, -6.67385161e-02,
         -9.46144313e-02, -1.92689270e-01],
        [-3.37127090e-01,  6.67168424e-02,  6.41386062e-02,
         -3.29460800e-01, -2.32303850e-02, -4.62422855e-02,
         -1.90107882e-01, -4.33591008e-01, -2.28711486e-01,
         -1.63907379e-01, -1.71783373e-01, -1.26932174e-01,
         -3.00719291e-01, -4.26548421e-02, -1.23091497e-01,
         -3.15347984e-02, -8.14480856e-02, -2.46534377e-01,
         -1.78132430e-02,  1.27083793e-01,  2.12066174e-01,
          1.99111238e-01,  6.68117553e-02, -1.90284774e-01,
         -9.62347984e-02, -8.76599699e-02, -2.37305567e-01,
          4.58647944e-02,  8.89844894e-02, -1.09989308e-01,
         -2.52681732e-01, -3.27147305e-01],
        [-1.16098382e-01,  8.44212472e-02, -1.25126511e-01,
         -7.63472766e-02, -1.53676659e-01, -2.35337019e-01,
         -6.28363341e-02,  2.37301230e-01, -1.68297812e-01,
         -3.67178261e-01, -5.79211712e-02, -5.54073155e-01,
         -2.07383603e-01, -2.94108838e-01, -1.92870691e-01,
         -1.73893407e-01, -1.46486953e-01, -3.09379637e-01,
         -1.00306951e-01, -2.16452494e-01, -7.28508890e-01,
         -1.88623145e-01, -5.90550974e-02,  1.02825232e-01,
         -1.77330405e-01,  2.34269619e-01, -2.76811123e-01,
         -2.82183647e-01, -1.15710407e-01, -4.64281440e-02,
          1.40882820e-01, -1.04143135e-01],
        [ 1.56673640e-01, -1.59419343e-01, -3.08804214e-01,
         -1.71885774e-01,  9.83665213e-02, -1.69578552e-01,
         -7.06940889e-02,  1.94976464e-01, -4.31208402e-01,
          1.04569189e-01, -1.10733315e-01, -1.94315776e-01,
          2.80438699e-02, -3.67670767e-02, -4.57841069e-01,
         -1.55989364e-01, -2.89599776e-01, -2.63188690e-01,
         -1.34903695e-02,  1.23701580e-01, -8.26123059e-02,
         -4.80747484e-02,  1.50652498e-01,  1.57110751e-01,
         -4.15850371e-01, -1.58956304e-01,  1.79651286e-02,
          6.31832257e-02,  3.91209908e-02, -1.21416755e-01,
         -1.00280538e-01, -2.09338710e-01],
        [ 8.54077935e-02, -2.27161050e-01, -6.07570969e-02,
         -1.34304538e-01,  1.58789769e-01,  1.73117518e-01,
         -3.35965268e-02,  5.72372615e-01, -1.40468001e-01,
         -2.79804647e-01,  1.11113578e-01, -1.19866699e-01,
          3.39299589e-01,  1.66888580e-01, -3.19238722e-01,
          3.65899168e-02, -3.65194410e-01, -3.28901529e-01,
          2.29749113e-01, -2.71167338e-01, -4.72343266e-01,
         -1.08707279e-01, -1.27244890e-01,  2.00742800e-02,
         -4.04783227e-02, -5.58239333e-02,  1.75448343e-01,
          8.22080672e-02,  4.18984145e-02, -1.14878230e-01,
         -7.83979893e-02, -3.05711716e-01],
        [-2.49082707e-02, -1.20261379e-01, -3.95995453e-02,
         -6.19899444e-02, -5.83583489e-02, -3.84860635e-02,
          2.51976475e-02,  3.18936825e-01,  6.19377904e-02,
         -4.06768620e-02,  5.92542738e-02, -2.60314971e-01,
          1.07182719e-01,  1.42819017e-01, -2.24497259e-01,
         -6.41708728e-04, -2.80988455e-01, -9.00021940e-02,
         -1.88141372e-02, -1.19015135e-01,  7.07634836e-02,
          4.83999634e-03, -1.51549935e-01, -3.55367921e-02,
         -2.14804381e-01,  1.44199938e-01, -1.53025240e-01,
         -2.31042624e-01,  1.94383591e-01, -8.71818792e-03,
         -6.91625401e-02, -2.25028768e-01],
        [-3.14962655e-01, -1.37802720e-01, -2.83250332e-01,
          6.93155336e-04, -1.67648181e-01,  3.79645914e-01,
          1.47942707e-01,  7.51315117e-01, -5.61068773e-01,
         -3.48246694e-01,  4.96621849e-03, -1.12243807e+00,
          1.01423867e-01,  3.93653154e-01, -1.84591591e-01,
          1.54568940e-01, -2.46941388e-01, -2.12928608e-01,
          3.58052142e-02, -1.59998924e-01, -1.05569887e+00,
         -4.88738179e-01,  1.41870350e-01,  5.72174005e-02,
          3.77432585e-01, -5.64405024e-02, -9.15324315e-02,
         -9.65179037e-03,  2.01944917e-01, -7.05127940e-02,
          1.69053853e-01, -6.51071295e-02],
        [-2.01893240e-01, -8.50786106e-04,  1.06803648e-01,
         -1.06274925e-01,  2.37123743e-02, -1.71000987e-01,
         -1.36081740e-01,  6.11835420e-01, -1.33574694e-01,
         -1.71458051e-01, -1.64150119e-01, -2.48719096e-01,
         -4.60881852e-02,  3.30133969e-03, -2.22285867e-01,
          1.00359999e-01, -1.78230941e-01, -3.70059371e-01,
          4.97184806e-02, -8.28854367e-02, -3.06506813e-01,
         -8.16843212e-02, -1.23070516e-01,  1.23495325e-01,
         -1.19755797e-01, -6.10125326e-02,  5.84708117e-02,
         -9.96038094e-02, -2.20505502e-02, -4.94903922e-02,
         -3.97280380e-02, -2.49776021e-01],
        [-3.39553982e-01, -3.26626152e-01, -4.09200817e-01,
          1.15064718e-02,  1.65410385e-01, -9.77353156e-02,
          3.70854698e-03,  6.04951441e-01, -5.48849165e-01,
         -5.27234018e-01, -2.72965301e-02, -7.33243406e-01,
         -3.76865923e-01, -6.68775290e-02, -4.12827022e-02,
          2.37102404e-01, -1.73446350e-02, -1.01529025e-01,
          4.05564696e-01, -2.29736045e-01, -9.86275256e-01,
         -3.55484158e-01,  2.27165788e-01,  5.20133190e-02,
          4.61335152e-01, -1.26451045e-01,  1.15232728e-01,
          2.88348913e-01,  2.52319187e-01, -1.36311471e-01,
          1.10892735e-01, -8.14590827e-02],
        [-4.90004234e-02,  2.99931079e-01,  4.44184542e-02,
          1.16384864e-01, -1.99057907e-01, -2.11248308e-01,
         -6.34090602e-02,  5.23588024e-02,  1.32214548e-02,
         -1.28241986e-01, -1.76034600e-01,  3.79096985e-01,
          4.82774489e-02, -1.03046447e-01,  8.74877125e-02,
         -3.45151216e-01, -2.66986132e-01,  1.54593810e-01,
         -1.52041748e-01, -4.01444659e-02,  2.79280990e-01,
          1.33861750e-01, -2.07821906e-01, -1.77488655e-01,
         -2.19269454e-01,  4.60051596e-01,  1.49032205e-01,
         -2.74987757e-01, -2.29931593e-01, -1.62132680e-01,
          1.69697419e-01, -2.12099642e-01],
        [-2.39214808e-01,  2.28238046e-01, -9.52336639e-02,
         -3.94796254e-03, -5.79450615e-02, -2.51479477e-01,
          3.52359749e-02,  3.59844416e-01, -1.80517375e-01,
         -1.21595815e-01, -1.19437449e-01, -1.39150932e-01,
          9.44299400e-02, -3.45229864e-01, -5.71152717e-02,
         -1.26132011e-01, -2.83048481e-01, -4.69351411e-02,
          2.19393641e-01, -1.40088340e-02, -3.79152745e-01,
         -2.34847236e-02, -1.85852021e-01,  1.70151055e-01,
          3.99937481e-02,  2.65039980e-01,  9.20620263e-02,
         -3.52306664e-01, -1.96068659e-01, -1.67790413e-01,
          1.68266624e-01, -1.36558846e-01],
        [-6.31885231e-02,  1.43182641e-02, -1.18888430e-01,
         -7.27012753e-02,  8.64889100e-02, -1.00220919e-01,
         -1.41538337e-01,  3.31720293e-01, -3.32415402e-01,
         -8.75736997e-02, -1.55857041e-01, -2.91775107e-01,
         -3.48719865e-01, -2.05435544e-01, -3.65125597e-01,
          8.41511339e-02, -5.59864379e-03, -5.57632864e-01,
          5.21627218e-02,  1.89617753e-01, -3.81255805e-01,
         -2.55550921e-01, -7.81573057e-02,  6.13122545e-02,
         -4.01159376e-02,  1.91858225e-02, -1.82899117e-01,
         -5.54219224e-02, -4.01029028e-02,  1.57323956e-01,
         -9.63363275e-02, -7.06144869e-02],
        [-1.83427826e-01, -5.20138919e-01, -3.82506818e-01,
          5.88475578e-02,  1.20738912e-02,  8.17492381e-02,
          2.27485597e-01,  1.05941665e+00, -1.95707873e-01,
         -3.18076104e-01,  1.00162350e-01, -2.14666247e-01,
         -1.25936702e-01, -8.77609074e-01,  6.30458370e-02,
          5.43313026e-01,  9.85904783e-02, -1.63954571e-01,
          6.79940939e-01, -1.42711699e-01, -7.27579713e-01,
         -6.72835171e-01, -3.91812064e-02,  2.40790442e-01,
          6.29588306e-01,  2.08871946e-01,  6.02065980e-01,
         -2.97149867e-01, -2.36789390e-01, -1.41999364e-01,
          3.78396332e-01,  7.95374960e-02],
        [-1.22157790e-01,  1.29272059e-01, -4.95762467e-01,
         -2.65039295e-01,  7.18091130e-02, -3.20696771e-01,
         -7.65678883e-02,  5.25991339e-03, -6.38536662e-02,
          7.27172792e-02, -2.79803276e-01, -2.26627335e-01,
          8.43314976e-02,  3.00347537e-01, -4.96087044e-01,
         -9.30036008e-02, -2.05693558e-01, -3.75329018e-01,
         -6.96567297e-02, -2.51393579e-02, -3.32540035e-01,
          1.00533292e-01, -4.34581153e-02,  8.90593678e-02,
         -9.66907591e-02,  1.32086992e-01,  3.33396345e-02,
         -1.20538764e-01, -1.25410482e-02,  6.79596737e-02,
         -2.96545755e-02,  3.65146771e-02],
        [ 9.48128179e-02, -1.71134740e-01, -5.10501377e-02,
          3.93507928e-02, -8.27642158e-02,  4.49758917e-02,
         -1.08860716e-01,  2.95444012e-01, -1.12287186e-01,
         -1.31432980e-01, -1.07934646e-01, -2.46340469e-01,
         -1.51711971e-01, -1.64848432e-01, -7.15188161e-02,
          1.24782510e-01,  2.57285833e-02, -2.24757969e-01,
          3.01223006e-02, -1.45166039e-01,  1.12654567e-01,
         -1.18811749e-01, -1.53307140e-01, -8.76081586e-02,
         -1.00731075e-01, -1.38346866e-01, -1.93263590e-01,
         -7.80249685e-02, -1.13668568e-01, -2.59820431e-01,
          2.13029966e-01, -6.41432554e-02],
        [-1.43180499e-02, -8.46631974e-02, -7.67834038e-02,
          5.28569557e-02,  1.41609963e-02, -1.08431764e-02,
          9.33362097e-02,  3.94101351e-01, -3.17500025e-01,
         -1.97785705e-01,  2.86826521e-01, -2.17982575e-01,
         -4.01824601e-02, -5.99638708e-02, -5.46092689e-02,
         -1.03557996e-01,  1.96726501e-01, -5.93725502e-01,
          1.15411527e-01, -2.57854700e-01, -3.08722973e-01,
         -4.05224562e-01,  1.84851989e-01,  2.68170953e-01,
          3.12269688e-01, -4.61887009e-02, -9.33384672e-02,
          4.32686627e-01,  9.04179737e-02, -9.36393738e-02,
          7.56598860e-02, -1.55310482e-01],
        [-6.02761023e-02, -2.47814551e-01,  1.04350531e-02,
          1.90376356e-01, -1.69686258e-01,  2.54944026e-01,
          2.54529584e-02,  5.20523548e-01, -3.27934146e-01,
         -2.44194806e-01,  9.82700810e-02, -2.64950305e-01,
         -5.24009727e-02, -1.79302339e-02,  1.17899639e-04,
          1.31231710e-01, -2.01866120e-01, -2.51552910e-01,
          3.89890045e-01, -2.10177675e-01, -4.59642529e-01,
         -2.22703114e-01, -2.12086961e-01,  8.27119797e-02,
          1.91140920e-01, -2.13901281e-01, -8.49862918e-02,
         -1.66588333e-02,  6.94007501e-02, -1.69815958e-01,
         -2.14065667e-02, -2.86225051e-01],
        [-5.86996824e-02, -4.99333471e-01, -6.06742539e-02,
          4.80157547e-02,  9.93882120e-02,  2.46731974e-02,
          1.05764985e-01,  4.65230018e-01, -8.86513386e-03,
          6.06234372e-02,  2.75651574e-01, -1.07813366e-01,
          2.17087120e-01, -2.98791137e-02, -9.50785540e-03,
          5.06313052e-03, -2.01312348e-01,  5.07456720e-01,
          2.18910053e-01,  1.10454425e-01,  1.21548563e-01,
         -4.98176087e-03,  2.25575385e-03, -7.75311962e-02,
          5.14058350e-03, -5.87875731e-02, -3.63610089e-02,
          1.73302725e-01,  3.33865942e-03, -2.24050015e-01,
         -3.27933356e-02, -1.52362347e-01],
        [-4.39752713e-02, -2.99737364e-01, -3.59402299e-01,
         -1.02338113e-01,  2.04544589e-02, -3.64349037e-02,
         -6.65961355e-02,  6.05078757e-01, -3.07976872e-01,
         -3.46618086e-01, -2.82513183e-02, -7.24492550e-01,
         -2.45489225e-01, -1.80473179e-01, -3.05139989e-01,
          3.37436527e-01,  5.86707890e-02, -4.11926240e-01,
          7.83653557e-02, -1.82043403e-01, -6.50336325e-01,
         -3.79776150e-01,  6.95877299e-02,  4.19103466e-02,
          9.50024053e-02, -2.09996179e-02, -1.18801989e-01,
         -1.37431264e-01, -3.51982206e-01,  2.13900153e-02,
          1.55482247e-01, -4.14012484e-02],
        [-2.02088669e-01,  6.88449815e-02, -4.09127139e-02,
          1.36957794e-01,  4.21967320e-02, -1.69074848e-01,
         -9.97963846e-02,  5.37460670e-02, -2.00864896e-01,
         -2.14753672e-01, -1.13460764e-01, -3.88502926e-01,
         -9.91136674e-03,  7.95869455e-02, -3.36843014e-01,
         -1.33771405e-01,  7.40555767e-03, -2.83344239e-01,
         -6.40469417e-02,  7.88952708e-02,  2.18274787e-01,
         -6.60960302e-02, -2.03336135e-01, -1.39177769e-01,
         -8.62529129e-02, -3.43386009e-02, -1.41185358e-01,
         -1.52125591e-02,  7.03947172e-02, -6.45960495e-02,
          2.05326617e-01, -1.90930098e-01],
        [-6.57420158e-02, -1.11711226e-01,  3.46273392e-01,
         -5.88799752e-02,  1.43728763e-01, -1.09127708e-01,
         -3.16105187e-01,  2.68099189e-01,  2.75808781e-01,
          1.73875615e-01,  2.20187893e-03,  6.16530895e-01,
         -3.54651868e-01, -1.92904487e-01,  6.20884717e-01,
         -1.08581699e-01, -2.47810885e-01,  4.99970317e-01,
          3.25931430e-01,  2.59516656e-01,  5.80472231e-01,
          1.89656094e-01,  7.07449508e-04, -1.33078322e-01,
          2.13339180e-01, -5.17975464e-02,  9.05856565e-02,
         -3.19193564e-02,  2.86665298e-02,  5.17240949e-02,
         -6.61532301e-03,  1.06168181e-01],
        [ 1.01565450e-01, -1.00231789e-01, -1.23339877e-01,
          9.55664515e-02,  3.37952673e-01, -4.53270704e-01,
         -1.27831355e-01, -2.00293392e-01, -8.30820203e-03,
         -4.58605699e-02,  1.81356557e-02,  6.00082755e-01,
          9.14076576e-04, -1.53321296e-01, -8.21370259e-02,
         -4.83755991e-02, -1.20559447e-01,  1.58517241e-01,
         -1.62975356e-01,  5.47500663e-02,  2.73714334e-01,
          2.95683146e-01, -1.46848381e-01,  7.63435066e-02,
         -1.58886015e-01, -1.35625497e-01,  1.71148092e-01,
         -2.04512253e-01,  5.17151654e-02, -2.18658391e-02,
         -5.75798750e-02,  2.36048669e-01],
        [-4.42353636e-01,  5.32484166e-02, -2.60644913e-01,
         -4.16888326e-01, -1.98433310e-01, -9.98170376e-02,
         -5.19267879e-02,  3.56652498e-01, -3.43279004e-01,
         -2.63055861e-01, -5.12275659e-02, -6.28075600e-01,
         -6.71079662e-03,  2.37050474e-01, -3.25478584e-01,
          3.96866769e-01, -3.18333834e-01, -2.90350646e-01,
          6.11942634e-02,  1.42992744e-02, -6.28128648e-01,
         -1.25643879e-01, -1.28787264e-01,  1.71347231e-01,
         -7.45107308e-02,  2.34590575e-01, -1.21506810e-01,
         -1.86366171e-01, -4.34941379e-03, -1.24190815e-01,
         -8.32200348e-02, -3.22951883e-01],
        [-4.05677676e-01,  1.59116104e-01, -1.32787406e-01,
         -4.09499913e-01, -2.61266716e-02, -2.86147654e-01,
         -2.34931543e-01,  1.80249270e-02, -8.56202990e-02,
         -7.11703375e-02, -1.48062527e-01, -2.16627136e-01,
         -7.60676190e-02,  3.27089578e-01, -5.10301769e-01,
          6.50747046e-02, -4.28293288e-01, -3.78681898e-01,
         -8.32383335e-02, -2.87702471e-01, -2.86402196e-01,
         -2.93018818e-02,  3.16498093e-02,  1.04939401e-01,
         -3.64569157e-01,  7.51096308e-02, -3.35362971e-01,
         -2.36541126e-02, -2.12320518e-02,  2.58188158e-01,
         -1.39201239e-01, -3.39628935e-01],
        [-1.05131678e-01, -7.91520923e-02, -8.86048898e-02,
          9.50290821e-04,  5.35506085e-02, -4.98395562e-02,
         -1.43526103e-02,  2.30499431e-01, -1.00957334e-01,
         -7.85203725e-02, -1.00981057e-01, -1.84878513e-01,
         -4.04591747e-02,  9.55448747e-02, -1.68304086e-01,
         -9.00044590e-02,  1.34621998e-02, -2.00842500e-01,
         -1.94950432e-01, -7.81077892e-02, -4.95630363e-03,
          1.30278513e-01,  7.07981810e-02,  1.38756245e-01,
         -8.70706439e-02, -3.60682160e-02, -1.43570334e-01,
         -7.13404920e-03, -5.42377830e-02,  9.12395641e-02,
          1.08299196e-01, -1.98213771e-01],
        [-2.17673123e-01,  1.68031231e-01, -2.12679788e-01,
         -1.51117891e-02,  7.18426034e-02, -2.19154477e-01,
         -2.52543181e-01, -4.43393409e-01,  2.00510607e-03,
         -1.21675976e-01, -2.23973379e-01,  4.01255965e-01,
         -2.30291650e-01,  3.72179300e-01, -1.00637831e-01,
         -3.10692161e-01,  2.66952273e-02,  2.40868293e-02,
         -3.36248487e-01,  2.62654632e-01,  5.99956453e-01,
          1.28597811e-01, -1.16240568e-01, -1.31899431e-01,
         -2.31453076e-01, -9.73329619e-02,  1.53658306e-03,
          3.83640416e-02,  7.57291019e-02,  2.03749806e-01,
          1.10872455e-01, -2.05298856e-01],
        [-5.84242158e-02, -7.08512545e-01,  1.22541152e-01,
          1.39708936e-01, -8.38389397e-02,  8.77578780e-02,
          4.87118363e-02,  2.22736821e-01,  1.83162913e-02,
         -9.32922438e-02,  2.68212885e-01,  2.28666782e-01,
          8.82651433e-02,  7.29810772e-03, -1.13242388e-01,
          2.70727485e-01, -2.02926353e-01,  4.55847830e-01,
          1.73081160e-01,  4.93710712e-02,  3.91519696e-01,
          1.56320840e-01, -2.63623684e-03, -1.24226101e-01,
         -2.01001257e-01, -1.59405321e-02, -7.27830604e-02,
          1.15015864e-01,  2.32912734e-01, -1.55521899e-01,
          1.88028403e-02, -2.92059690e-01],
        [ 3.84147428e-02,  1.64076790e-01, -3.25358331e-01,
         -2.38407686e-01,  1.51436314e-01, -1.59098774e-01,
         -2.77397990e-01,  3.04482192e-01, -2.41058499e-01,
          1.83615744e-01, -2.22866729e-01, -1.53426871e-01,
         -4.51847948e-02,  9.52276438e-02, -4.46261406e-01,
         -1.75192654e-01, -2.16141596e-01, -5.67891181e-01,
         -9.25729573e-02,  7.43879899e-02, -2.27401271e-01,
         -1.25140790e-02, -1.29068896e-01,  1.81835756e-01,
         -3.43205243e-01,  1.82711259e-02, -2.28350401e-01,
         -8.14416558e-02, -1.30347833e-01,  2.40333155e-02,
         -1.62705585e-01, -7.28437006e-02],
        [-8.48807395e-02, -1.15613095e-01, -3.68509203e-01,
         -2.74295628e-01,  1.05596006e-01, -2.08364055e-01,
         -5.13239019e-02,  5.97099960e-01, -3.11312288e-01,
         -4.48551238e-01,  1.08702593e-01, -8.82922530e-01,
         -1.85987532e-01, -2.98496753e-01, -3.82908165e-01,
          1.89639136e-01,  1.05710272e-02, -5.20832002e-01,
          1.70625314e-01, -7.08056912e-02, -8.86038065e-01,
         -3.89971614e-01,  5.64427376e-02,  5.46423569e-02,
          1.11726969e-01, -1.83172673e-01,  7.08471388e-02,
         -2.40310237e-01, -5.81147820e-02,  1.08265795e-01,
          2.20902443e-01,  7.56814629e-02]],

       [[ 1.46552175e-01,  3.97034258e-01, -5.79126298e-01,
         -7.58517953e-03, -6.75296709e-02, -3.83387774e-01,
         -1.03097461e-01, -1.94070011e-01,  1.83935329e-01,
          5.29042520e-02, -1.06734298e-01,  2.36336902e-01,
          3.73782873e-01,  5.63009143e-01, -5.00504911e-01,
         -1.38199419e-01, -2.17025563e-01, -4.92686890e-02,
         -3.65954041e-01, -2.60872006e-01,  1.94267079e-01,
          7.86811560e-02, -5.28949425e-02,  2.67184749e-02,
         -3.21492404e-01,  2.82185942e-01, -3.47940363e-02,
         -2.69484669e-01,  4.24561836e-02,  7.88664166e-03,
         -5.80758154e-02,  2.43671853e-02],
        [-3.51611786e-02,  5.19730523e-02,  1.81811988e-01,
         -1.20599225e-01,  5.76777533e-02,  2.70540833e-01,
         -6.03990406e-02, -3.25148761e-01,  9.32925567e-02,
         -1.12042964e-01,  1.17941545e-02, -3.10355604e-01,
         -1.45756081e-02,  4.60689189e-03, -2.49020178e-02,
         -7.80186504e-02,  6.06535235e-03,  4.93255407e-02,
          2.51551479e-01, -2.28867643e-02, -1.64219305e-01,
          6.54598922e-02, -4.18820351e-01, -9.43670869e-02,
         -2.22475901e-01,  3.13684605e-02, -1.21597327e-01,
          5.26312776e-02,  1.31832749e-01, -3.72399986e-02,
          9.65906754e-02, -2.36924827e-01],
        [-6.64466396e-02,  3.59146982e-01, -4.12124097e-01,
         -2.24440202e-01,  1.90867111e-01, -4.90285903e-01,
         -3.66331264e-02, -3.94192845e-01, -8.93831700e-02,
          1.54410630e-01,  1.31899506e-01, -7.14999735e-02,
          9.09198523e-02,  1.09289564e-01, -2.70350158e-01,
          1.63657427e-01, -4.96164560e-02, -3.28128338e-01,
         -2.28476271e-01, -3.83626148e-02, -1.04321495e-01,
         -1.39170542e-01, -9.25162155e-03, -8.89973491e-02,
         -1.41683072e-01,  5.86382858e-02, -1.36034489e-01,
          3.24425399e-02,  2.89604604e-01, -7.93438405e-02,
         -1.03351548e-01,  3.40104997e-02],
        [-1.12963878e-01,  2.54143029e-02, -1.27054542e-01,
         -2.28648588e-01, -3.48051973e-02,  1.72556918e-02,
         -5.64599037e-02, -3.78897130e-01,  1.21051818e-01,
          3.58908437e-04, -7.88015798e-02,  4.21188951e-01,
          5.67834079e-02,  2.29627788e-01, -1.48734003e-01,
          1.27282977e-01, -1.10688336e-01,  1.28774671e-02,
          9.14555043e-02, -5.73360138e-02,  1.42121717e-01,
          1.68978162e-02, -2.18116008e-02,  7.39696855e-03,
         -2.59334862e-01,  6.28751293e-02, -1.73862651e-01,
         -1.42023221e-01, -1.48297325e-01,  4.65729088e-02,
          2.87133706e-04, -1.45033017e-01],
        [-2.41493657e-01, -4.57352340e-01,  5.51082492e-01,
          3.92688904e-03, -1.57672539e-01,  5.62484503e-01,
          1.87104568e-01, -1.35390997e-01,  4.61700469e-01,
         -1.05089836e-01,  2.09492028e-01,  7.83187628e-01,
         -1.96522281e-01, -5.15250325e-01,  3.79356325e-01,
          4.90659438e-02,  1.05249517e-01,  6.11593664e-01,
          7.35731184e-01,  3.36050205e-02,  6.57970130e-01,
          4.26420003e-01, -5.26625633e-01, -4.96208936e-01,
          2.91745454e-01,  1.07359864e-01,  1.29225552e-01,
          5.51292971e-02, -1.84293106e-01, -1.31035909e-01,
         -4.24059853e-03, -2.82707483e-01],
        [ 2.15634704e-02,  1.37698829e-01, -2.65033633e-01,
         -1.47459865e-01,  6.11334257e-02, -9.78459045e-02,
         -1.00783192e-01, -2.61430889e-01, -1.14618905e-01,
          1.48998633e-01, -4.95953485e-02,  3.55973959e-01,
         -1.77344084e-01, -3.86570133e-02, -7.12959841e-02,
         -1.10743865e-01, -2.27318872e-02, -2.25473102e-03,
          1.50261968e-01,  1.89432651e-01,  3.80019546e-01,
          2.34963298e-01, -1.21099792e-01, -1.29628196e-01,
         -3.38276476e-01,  2.15012524e-02,  4.70852107e-02,
          8.02513808e-02,  1.94895402e-01,  8.99740215e-03,
         -3.92431282e-02, -7.69316033e-02],
        [-1.79121256e-01,  2.16892347e-01, -2.87649240e-02,
          6.05528839e-02, -1.38688326e-01,  2.94975154e-02,
         -1.70642361e-01,  3.35303554e-03, -2.47189239e-01,
          8.36268812e-02, -7.68111348e-02, -3.60761255e-01,
          8.16599205e-02, -3.17898214e-01,  6.75083175e-02,
         -1.02519996e-01,  1.27815202e-01, -5.13990521e-01,
          3.99000257e-01,  5.86037450e-02, -1.95669219e-01,
         -2.45443106e-01,  1.03116632e-01,  1.70171633e-01,
         -5.04021533e-03, -7.47381598e-02, -4.43724804e-02,
          1.44188255e-01,  5.35013139e-01,  1.21824317e-01,
         -2.08471462e-01, -2.19403863e-01],
        [ 4.42945100e-02,  1.08336963e-01, -2.21932665e-01,
          5.71919493e-02, -3.93444002e-02,  6.02756888e-02,
          2.06580937e-01,  3.84887829e-02,  9.99090746e-02,
         -7.14309886e-02,  1.21717602e-01, -5.12528777e-01,
          4.14152414e-01,  1.76637501e-01,  7.70775899e-02,
          1.17565326e-01, -1.83803722e-01, -1.26746505e-01,
          2.00452700e-01, -2.21415937e-01, -5.70550025e-01,
         -4.29678947e-01, -4.90888441e-03,  9.01848972e-02,
          1.87988237e-01,  2.30161659e-02,  6.79907501e-02,
         -9.28824581e-03,  2.64871091e-01,  6.67112544e-02,
         -1.21050447e-01,  1.59148291e-01],
        [-9.04942006e-02, -4.29253466e-02, -2.68400580e-01,
          6.34788126e-02,  4.59254310e-02, -4.35950428e-01,
          8.25133994e-02, -1.14159964e-01, -2.97293216e-02,
          2.11397722e-01,  1.08195595e-01, -3.97891909e-01,
          1.13598660e-01,  1.60654262e-01,  2.12113578e-02,
         -1.05014093e-01, -3.67496535e-02, -2.61840433e-01,
         -1.07313700e-01, -2.73754057e-02,  9.02593657e-02,
         -2.27935478e-01, -7.50239119e-02, -2.12184042e-01,
          2.79087983e-02, -1.58099279e-01, -2.58482271e-03,
         -9.54965726e-02,  2.13567868e-01, -8.56964514e-02,
         -2.35227451e-01,  3.67180228e-01],
        [-4.94881570e-01, -3.40129249e-02, -3.97987902e-01,
         -4.87038285e-01,  1.58049554e-01,  9.65039134e-02,
          1.09743528e-01, -2.43018493e-01, -1.60163000e-01,
          2.40501150e-01,  2.52043813e-01, -1.63358212e-01,
          2.10772827e-01, -2.30394527e-01, -3.50627244e-01,
         -3.63627285e-01, -1.53213106e-02, -1.03427835e-01,
          1.53396681e-01,  2.90428787e-01,  1.79788664e-01,
          2.59063482e-01,  9.75624099e-02, -2.26236895e-01,
         -2.91032195e-01,  5.80889694e-02,  7.39331171e-03,
          2.99170524e-01,  9.90985632e-02, -1.92475930e-01,
         -1.97192207e-01, -2.25367859e-01],
        [ 7.47352019e-02,  8.91159326e-02, -1.28830224e-01,
         -1.07953690e-01, -1.95336714e-01,  1.63648888e-01,
         -8.43144432e-02,  8.25922862e-02,  1.99473538e-02,
         -4.80526499e-03,  1.30521441e-02, -2.91247126e-02,
          2.60690302e-01, -1.03792874e-02, -4.25582081e-02,
         -6.94371983e-02,  2.38972232e-02,  4.27246466e-02,
          2.29703426e-01, -1.10645778e-01, -3.07005167e-01,
          1.32297799e-02, -2.03278080e-01,  7.09765702e-02,
         -1.94296762e-01,  1.85591638e-01,  9.38154608e-02,
         -1.94173679e-01,  1.24954827e-01, -1.15134746e-01,
          1.70782581e-01,  7.99265057e-02],
        [-1.47901043e-01,  5.52262664e-01, -3.57559174e-01,
         -2.46749476e-01,  1.52061731e-01, -3.47293854e-01,
         -1.81670353e-01, -5.12807369e-01,  1.44128408e-02,
          1.84602886e-01, -1.36532560e-01,  5.99853657e-02,
          1.41479969e-01,  4.42171603e-01, -3.48440468e-01,
          9.04448628e-02, -1.15761822e-02, -4.38617080e-01,
         -3.28550041e-01,  1.57725029e-02,  5.66740520e-02,
          1.10665828e-01,  2.10610032e-02,  2.13370398e-02,
         -4.09717619e-01,  6.02064431e-02, -1.37878165e-01,
         -1.82187930e-01,  2.46889129e-01,  1.16063349e-01,
         -4.55451608e-02, -9.99131985e-03],
        [ 7.38524124e-02, -4.86127473e-02, -1.58640921e-01,
         -5.47197685e-02,  1.06394894e-01, -1.51207909e-01,
         -2.04220816e-01, -3.82898510e-01, -3.22383434e-01,
          5.90735599e-02, -7.22359493e-02, -3.88743170e-02,
         -1.74069740e-02,  1.71066031e-01, -2.38062844e-01,
          3.87117043e-02, -1.34415934e-02, -2.90113300e-01,
         -2.69059483e-02,  2.62565851e-01,  1.19681112e-01,
         -1.24408491e-01, -1.85958147e-01,  1.19282991e-01,
         -2.52244659e-02, -1.47834077e-01, -7.44858310e-02,
          1.03110231e-01,  4.52261642e-02,  1.38369026e-02,
         -1.13870807e-01, -7.38256499e-02],
        [-4.98697162e-02, -4.18221325e-01,  2.28273124e-01,
          1.06073536e-01, -1.01286717e-01,  3.56742293e-01,
         -3.83475870e-02, -3.02188069e-01, -6.20374419e-02,
         -9.92879272e-02,  2.94864587e-02, -6.20091259e-01,
          1.84172854e-01,  3.92359123e-02,  3.46505970e-01,
          3.71709913e-01, -1.62228718e-01, -9.52350274e-02,
          4.48835850e-01, -3.36513609e-01, -8.76122534e-01,
         -4.90313649e-01, -1.80313215e-01, -2.48353571e-01,
         -5.18380441e-02, -6.68240115e-02,  7.23081604e-02,
         -8.76859128e-02,  2.15884775e-01,  1.97992288e-02,
          1.80532187e-02, -3.06729198e-01],
        [-1.66000321e-03,  2.50820577e-01, -4.33343709e-01,
         -9.97994766e-02, -2.19662383e-01, -1.07678004e-01,
         -3.49804640e-01, -9.88238826e-02,  4.77964193e-01,
          3.15105468e-01, -2.78191477e-01,  4.49508369e-01,
          3.94121230e-01,  4.20177281e-01, -6.58411384e-01,
         -9.77883637e-02, -1.17370538e-01, -7.51079246e-02,
         -2.90921330e-01,  1.62228439e-02,  4.29908842e-01,
          2.42809817e-01,  6.39688969e-02,  1.19666077e-01,
         -2.05866799e-01,  2.09114492e-01,  1.47004515e-01,
         -1.53455317e-01, -4.08497564e-02,  1.23766929e-01,
         -1.58866774e-02, -4.24936563e-02],
        [ 2.36127108e-01,  4.09905575e-02,  1.39762208e-01,
          1.41850889e-01, -9.13961418e-03,  6.13871217e-02,
         -1.87850818e-01,  6.64863065e-02,  1.62223712e-01,
          7.03764148e-03,  2.49873176e-01,  3.03991616e-01,
          6.28720745e-02,  1.92434117e-01, -1.93362758e-02,
          8.13243836e-02,  5.66348210e-02,  1.14270791e-01,
         -6.85274899e-02, -1.02228642e-01,  2.12442920e-01,
         -1.20758981e-01, -1.67447835e-01,  9.30696204e-02,
          9.97408852e-02,  7.92362262e-03,  5.87080121e-02,
         -1.38982356e-01, -4.90982924e-03,  1.00311115e-01,
          1.15095273e-01, -2.66114455e-02],
        [-4.00928035e-02,  3.69987845e-01, -2.86389410e-01,
         -3.66846681e-01,  1.39982551e-01, -4.85303290e-02,
          2.10220382e-01, -4.52973634e-01, -1.12546079e-01,
          8.83804485e-02, -1.46885723e-01, -3.91302049e-01,
         -3.44038717e-02, -3.94208618e-02, -1.07906021e-01,
         -1.93816930e-01, -2.95047946e-02, -2.28122875e-01,
          3.95120606e-02,  1.32651821e-01, -3.16914171e-01,
          2.27003351e-01,  5.83472885e-02, -2.30556443e-01,
         -2.82998800e-01, -4.54443283e-02,  1.53334111e-01,
          1.05404429e-01,  2.31542177e-02,  9.41547826e-02,
         -2.95221299e-01, -2.99445644e-04],
        [-1.27714425e-01,  7.05209970e-02, -3.51442963e-01,
         -3.01330924e-01,  1.57981396e-01, -5.10507882e-01,
         -2.31453121e-01, -3.39546323e-01, -6.34240285e-02,
          2.96182428e-02, -8.85760188e-02,  1.35690510e-01,
          3.26371901e-02,  5.20395696e-01, -4.65994209e-01,
          4.91473973e-02, -3.76532584e-01, -1.94408983e-01,
         -3.29325676e-01, -2.99216583e-02,  2.65485764e-01,
          1.76157862e-01,  4.80306074e-02,  1.47334933e-02,
         -4.42636102e-01,  1.20808676e-01, -2.92565018e-01,
         -9.17356014e-02, -6.80248514e-02,  1.06656119e-01,
         -1.33034497e-01, -3.03280294e-01],
        [-2.18327507e-01,  7.83762932e-02,  4.37359214e-01,
         -6.84697703e-02, -3.91827412e-02,  3.34454745e-01,
         -2.94337392e-01, -4.90739912e-01,  2.17656136e-01,
         -1.76978521e-02,  4.99748141e-02,  8.02574158e-01,
         -1.91489369e-01, -2.88512826e-01,  3.34553644e-02,
         -1.97803646e-01, -2.08226979e-01,  2.95663953e-01,
          1.22903831e-01,  1.20009363e-01,  6.00736499e-01,
          3.93870175e-01, -5.63066900e-01, -2.45876864e-01,
          4.53955829e-02,  2.63036519e-01,  3.41253020e-02,
         -1.42748272e-02, -3.01324874e-01, -1.32983569e-02,
         -2.38008320e-01, -8.76346529e-02],
        [-6.10468909e-02,  2.00221077e-01, -2.74733037e-01,
         -1.94308255e-02, -5.14659509e-02, -3.27603310e-01,
         -5.54107316e-02, -1.21451937e-01, -2.09434181e-02,
          1.59739599e-01, -2.64401734e-01, -4.77653369e-02,
          1.08894289e-01,  7.70450896e-03, -3.24502170e-01,
         -1.82364509e-01,  9.70462151e-03, -2.45853752e-01,
         -3.93981449e-02,  1.90226257e-01,  1.70408070e-01,
          5.90660889e-03,  1.48344606e-01,  4.14822577e-03,
         -4.76122946e-02,  4.90259565e-02,  2.08442196e-01,
          9.43941772e-02,  2.36811057e-01, -8.31300318e-02,
         -7.87252858e-02,  1.52342469e-01],
        [-2.64379233e-01,  6.58285975e-01, -5.17963111e-01,
         -1.32787988e-01, -2.26379558e-02, -3.67215425e-01,
         -7.56210089e-03,  1.86954260e-01,  4.57169712e-01,
          3.35707039e-01, -4.23078649e-02,  3.94444227e-01,
          4.82658178e-01, -2.34536484e-01, -3.42672437e-01,
         -4.30359572e-01, -4.87626612e-01,  9.07699838e-02,
         -3.49117517e-02,  1.86027348e-04,  3.15752536e-01,
          4.13972020e-01, -1.63508818e-01, -3.98309350e-01,
         -5.33660233e-01,  3.27651590e-01,  1.25736192e-01,
         -3.34340870e-01, -3.74972746e-02, -2.89834082e-01,
         -8.91190693e-02, -1.03741646e-01],
        [-4.10778895e-02,  2.66230516e-02,  1.65434167e-01,
          6.84070727e-03,  5.71625456e-02,  1.50848478e-01,
          8.56886432e-02, -2.34154835e-01,  2.78057963e-01,
          3.55334319e-02,  9.09203663e-02,  3.75366479e-01,
         -2.53020525e-01, -2.16437295e-01,  2.36131266e-01,
         -1.38216153e-01,  1.45450830e-01,  3.13295096e-01,
          5.43018505e-02,  2.84546018e-01,  5.49043238e-01,
          4.01165783e-01, -1.90752789e-01, -2.12892741e-01,
         -7.21824020e-02,  1.11036189e-01, -9.02319793e-03,
          6.01475947e-02, -5.62531650e-02,  1.67161115e-02,
          2.55671944e-02, -8.51620063e-02],
        [-1.06712349e-01,  1.54403746e-01,  1.28129825e-01,
         -8.66650883e-03,  9.28746462e-02, -2.27614462e-01,
         -1.13563702e-01,  4.94698137e-02,  5.65811515e-01,
         -6.55207038e-02, -9.07329749e-03,  6.68129206e-01,
          7.34499246e-02,  2.80683283e-02, -1.22589536e-01,
         -5.13875969e-02, -2.04859108e-01,  2.85072863e-01,
          6.27622902e-02,  1.19290344e-01,  5.02232015e-01,
          2.21017729e-02, -2.59298086e-01, -1.15984790e-01,
         -1.60282716e-01,  8.35239738e-02,  1.37104452e-01,
         -3.67816716e-01,  2.13586967e-02,  6.01555295e-02,
         -3.66664343e-02, -2.03183338e-01],
        [-6.60703853e-02, -4.62663397e-02, -3.83677661e-01,
         -8.83575529e-02,  1.47544563e-01, -3.61872286e-01,
         -2.42123485e-01, -2.16844767e-01, -4.99410719e-01,
         -1.68507740e-01, -1.80268828e-02, -7.40104198e-01,
         -2.00850982e-03,  4.12535340e-01, -3.28002542e-01,
          1.91273108e-01, -1.00325733e-01, -5.99653065e-01,
          9.27716494e-02, -3.58371317e-01, -6.59205914e-01,
         -4.87616271e-01,  1.07100002e-01,  5.65666370e-02,
         -8.27433616e-02, -1.05794281e-01, -3.68520647e-01,
         -9.23090056e-02,  5.24400584e-02, -3.31359654e-04,
         -8.50118175e-02, -1.13183185e-01],
        [-5.11265919e-02,  4.18898761e-01, -2.34914958e-01,
         -2.79845327e-01, -5.47163114e-02, -1.67084143e-01,
         -2.34088600e-01, -1.15854695e-01, -4.55144830e-02,
         -6.76805750e-02, -1.03992395e-01,  6.17826656e-02,
         -1.73700660e-01, -3.83096747e-02, -4.40629333e-01,
         -1.39468074e-01, -8.70957673e-02, -3.52604568e-01,
         -2.49379784e-01,  2.09593326e-01,  4.97331992e-02,
          8.95815492e-02, -7.43014067e-02,  5.14021143e-02,
          5.96303046e-02,  1.57673776e-01, -5.66772223e-02,
         -1.63271591e-01,  3.10864985e-01, -2.53745280e-02,
         -6.03479939e-03,  1.59882218e-01],
        [-1.87147828e-03,  2.50162408e-02, -4.26441133e-01,
         -1.01789512e-01,  6.77323341e-02, -1.22863501e-01,
         -2.22660396e-02, -9.46844816e-02, -1.38737224e-02,
         -8.45659077e-02,  9.62833837e-02, -3.88153762e-01,
         -5.52234054e-03, -1.57547761e-02,  1.73005403e-03,
          2.99116485e-02, -1.39900103e-01, -2.11066589e-01,
         -1.53144225e-01, -9.35300589e-02, -1.61240682e-01,
         -1.08083822e-01, -2.59067137e-02, -7.28552938e-02,
         -3.06962021e-02,  1.29512161e-01, -7.09218234e-02,
         -1.11629888e-01, -2.29722187e-02, -1.06670521e-01,
         -5.43311238e-02,  1.15298241e-01],
        [-7.34724477e-02,  1.01064578e-01, -1.95722342e-01,
         -1.77676648e-01, -7.46384859e-02, -3.64552625e-02,
          1.59464255e-02, -8.23937431e-02,  3.27361375e-02,
          5.91605753e-02,  2.14225575e-01,  1.20002488e-02,
          7.77158141e-02,  4.78724465e-02, -1.04272619e-01,
          4.53544073e-02,  2.85783540e-02,  7.17585608e-02,
         -9.88945216e-02, -1.78870052e-01, -2.73069814e-02,
         -7.96259493e-02, -4.48941290e-02, -2.02113420e-01,
         -1.16873823e-01, -5.06131090e-02,  9.06103030e-02,
          7.64676416e-03,  4.21949401e-02, -3.53130214e-02,
         -3.47037874e-02, -1.26977041e-01],
        [ 4.76220138e-02,  2.16886058e-01, -8.29346627e-02,
         -1.01563074e-01,  2.15823531e-01,  1.76338390e-01,
