[array([[[-1.04007507e-02,  1.91240057e-01, -1.92604016e-03,
         -1.11630492e-01, -1.71207428e-01,  4.61723357e-02,
         -1.13657646e-01, -1.26962662e-01,  8.99382383e-02,
         -1.12533778e-01, -3.78421359e-02, -3.40331011e-02,
         -4.37100828e-02,  6.45030383e-03,  3.41908514e-01,
          2.29141459e-01, -4.62445505e-02,  2.78980792e-01,
          1.40519783e-01, -5.07019646e-02, -1.03190362e-01,
          4.12202114e-03,  2.31583089e-01,  8.61263201e-02,
         -9.37153250e-02,  1.29458427e-01, -3.18550617e-01,
         -2.62439102e-01, -1.45345777e-01, -8.86533931e-02,
          1.61612239e-02,  2.24402845e-01],
        [-2.65503019e-01, -2.76894629e-01, -8.89392346e-02,
          8.82792920e-02,  9.77287218e-02,  5.01667798e-01,
         -6.85993135e-02,  3.56386483e-01,  5.92261791e-01,
         -2.70023588e-02, -8.34461898e-02, -4.26527292e-01,
         -2.28197828e-01,  2.61964679e-01, -1.40840545e-01,
          1.71404686e-02,  2.23817542e-01,  1.02352865e-01,
         -1.54872268e-01,  3.21586162e-01,  3.47810209e-01,
         -1.77905113e-01, -2.70399690e-01, -3.46826995e-03,
         -2.83238776e-02, -3.68986040e-01,  1.36203706e-01,
          3.72489870e-01,  3.52859229e-01,  1.53479978e-01,
         -8.05612132e-02, -1.50254175e-01],
        [ 4.76213396e-01,  1.22453555e-01,  1.00180283e-01,
         -1.45212188e-01,  2.06401169e-01, -1.61711290e-01,
          1.64436519e-01, -3.62633198e-01, -5.19036412e-01,
         -5.96437268e-02, -2.40787826e-02,  1.47793218e-01,
         -3.59867848e-02, -5.14447868e-01, -1.19717479e-01,
         -1.65569767e-01, -2.68334866e-01, -1.56486720e-01,
          2.28962719e-01,  2.29352489e-01, -4.33446378e-01,
         -1.82268098e-01, -5.50591648e-01, -2.43383899e-01,
          3.82826567e-01, -6.38790056e-02,  9.58532169e-02,
         -4.31409061e-01, -1.57386735e-01, -5.44227995e-02,
         -3.01669948e-02, -1.05332956e-01],
        [-9.76833403e-02,  2.77966321e-01,  1.22734554e-01,
         -1.30486026e-01,  1.77929863e-01, -1.52206868e-02,
          6.17539324e-02,  3.15974429e-02,  6.69842213e-02,
          5.59669808e-02, -7.52807083e-03,  8.40463042e-02,
          6.48349971e-02, -2.75072120e-02,  1.90127030e-01,
          1.62265435e-01, -9.88760591e-02, -3.57897654e-02,
         -4.53734785e-01, -1.81214049e-01,  5.08484729e-02,
          4.46706591e-03,  1.97151005e-01, -1.55872544e-02,
          1.24048389e-01, -9.31060836e-02, -1.15168551e-02,
         -4.22098748e-02,  7.98449144e-02, -1.78324744e-01,
          2.85555441e-02,  1.36160940e-01],
        [-2.49123245e-01, -1.81300640e-01, -9.09427274e-03,
         -2.37088725e-02, -3.39363098e-01,  2.11273268e-01,
         -1.64361000e-01, -6.37197942e-02,  2.22275928e-01,
          2.51888961e-01, -1.37378499e-01, -5.45818768e-02,
         -9.05072242e-02,  2.54882812e-01,  7.64597431e-02,
          1.26557603e-01,  1.07257687e-01, -1.56413317e-01,
          1.35862157e-01,  7.36910254e-02,  3.70576307e-02,
          1.20081984e-01, -1.42274546e-02, -6.62255809e-02,
          1.46594718e-02,  2.97575325e-01, -5.42588606e-02,
         -1.97501052e-02, -1.52805209e-01, -2.25636110e-01,
         -2.82118320e-01,  1.36593014e-01],
        [ 2.17353404e-01,  2.29363233e-01,  2.45281532e-01,
          7.89210498e-02, -1.23412713e-01,  2.42871404e-01,
         -1.32571682e-01, -3.04721355e-01, -3.56547028e-01,
         -9.69293714e-02, -6.66326657e-02, -3.44320349e-02,
          8.86569023e-02, -9.27755088e-02,  2.82651912e-02,
         -2.10641667e-01,  2.22398251e-01,  1.04280584e-01,
          2.78364748e-01,  2.06379950e-01, -2.30128065e-01,
          4.00446281e-02, -2.33751759e-01, -3.86101335e-01,
          2.54483402e-01,  3.37733388e-01, -2.00087219e-01,
         -4.19766754e-01, -3.39557111e-01,  1.22051291e-01,
         -6.99093491e-02, -9.69807804e-02],
        [ 3.03842872e-01, -2.05744907e-01,  3.75051737e-01,
         -4.97000404e-02, -3.50031048e-01, -2.52881885e-01,
         -1.45392686e-01,  1.43146083e-01, -8.76989067e-02,
         -1.89406395e-01,  1.46383330e-01,  8.84611234e-02,
          1.17848940e-01,  7.00147301e-02, -1.12012550e-02,
          8.62393156e-02,  2.27612808e-01,  6.94144657e-03,
          3.24676216e-01, -6.87301382e-02, -1.39797628e-01,
         -1.28086939e-01,  5.07635713e-01, -1.22445226e-01,
         -5.08675389e-02,  6.42253435e-04,  2.64086202e-02,
          6.32642508e-02,  3.72974813e-01, -2.36794010e-01,
          2.60899663e-01, -1.34029061e-01],
        [-4.12426919e-01, -4.35055524e-01, -2.33452618e-01,
          1.81142777e-01, -3.91898640e-02,  1.23594642e-01,
         -5.66966832e-01, -1.76068485e-01,  1.07801825e-01,
          5.16400160e-03,  1.97554365e-01, -8.83451775e-02,
          2.29887933e-01,  2.17956558e-01, -1.04136407e-01,
          7.76043683e-02, -9.60279431e-04,  2.14102387e-01,
         -2.86822915e-01,  2.03557819e-01,  5.09544075e-01,
         -1.93029806e-01, -3.09916526e-01,  1.93831176e-02,
          2.16573447e-01, -2.89180845e-01,  2.00337648e-01,
          1.13268588e-02,  1.33702829e-01,  1.75918028e-01,
         -2.53213614e-01, -1.78962331e-02],
        [ 1.76602617e-01, -9.72877890e-02, -2.03104746e-02,
          2.36613631e-01, -1.48139998e-01,  4.41999167e-01,
          2.93509841e-01, -1.57860935e-01, -5.96053302e-02,
          1.25194713e-01, -2.31521234e-01,  1.37856767e-01,
         -2.99265951e-01, -8.95985663e-02, -5.94143346e-02,
         -2.73442179e-01,  2.99068362e-01,  1.10713944e-01,
          2.05009505e-01, -1.28434867e-01, -5.60296252e-02,
          5.41596413e-02, -1.91599742e-01,  4.55054492e-02,
         -9.44748297e-02, -1.31045759e-01, -4.34888480e-03,
          1.73408329e-01, -4.10908729e-01,  2.15997070e-01,
         -1.73858985e-01, -2.96470374e-01],
        [ 4.05483171e-02,  2.78587162e-01,  8.22364539e-02,
         -7.34645724e-02, -4.28188324e-01,  7.13283658e-01,
         -8.70025903e-02, -8.11026692e-02,  1.24288425e-01,
          2.98188001e-01, -1.29408523e-01, -2.48786598e-01,
         -4.20191735e-02,  1.91439003e-01, -1.04309827e-01,
          7.77259469e-02,  3.88483286e-01,  1.15763368e-02,
          2.37616003e-01, -7.80527443e-02,  2.08490759e-01,
         -9.84217227e-02, -5.18127441e-01, -3.02105963e-01,
         -1.96939185e-01,  1.52621388e-01,  2.95559675e-01,
         -5.97060174e-02, -1.23166963e-01, -1.61675308e-02,
         -1.23724960e-01,  9.00217146e-02],
        [-1.00437522e-01, -1.08601637e-01,  1.07988201e-01,
         -1.69206843e-01,  2.41960920e-02, -3.94145697e-02,
         -1.40028177e-02,  5.63439190e-01,  5.00789344e-01,
         -5.90783469e-02,  2.96607286e-01, -3.77800196e-01,
          2.25601584e-01, -2.05790512e-02, -2.96149194e-01,
          7.97281936e-02, -2.83234119e-01, -2.84250319e-01,
          5.58658689e-02, -6.81578889e-02,  6.96241483e-02,
          3.92848477e-02, -6.47768900e-02, -2.73122638e-01,
         -5.62507994e-02, -3.19661617e-01,  5.34395240e-02,
          3.63875031e-01,  2.92876124e-01,  1.12730131e-01,
          4.57798056e-02,  1.25293687e-01],
        [ 2.88218975e-01,  2.19021171e-01,  3.76880467e-01,
          1.44530058e-01,  2.59797692e-01,  5.12471020e-01,
          5.08296311e-01,  1.02324471e-01,  2.41296276e-01,
         -4.85858023e-02,  3.76501791e-02, -3.53948653e-01,
         -2.47363821e-01,  1.50437787e-01, -4.12578017e-01,
          8.12351108e-02,  3.87888074e-01, -2.10222110e-01,
          3.22382987e-01,  2.19088912e-01,  2.02874482e-01,
          4.64030020e-02, -9.83618319e-01, -5.02793729e-01,
         -3.93132679e-02,  2.03549206e-01, -2.80082729e-02,
          1.19713664e-01, -2.20800504e-01,  4.39508744e-02,
         -8.65218118e-02,  7.68716186e-02],
        [-5.51474571e-01, -1.78410321e-01, -4.90173399e-01,
         -4.50481623e-02,  2.52981633e-01,  3.27733517e-01,
          2.89678514e-01,  2.93030053e-01,  1.50605723e-01,
         -2.45107681e-01,  2.13658214e-01,  2.19913632e-01,
          1.35509729e-01,  1.67833239e-01,  2.25013092e-01,
         -2.03994647e-01,  1.61343500e-01,  8.19905177e-02,
         -3.31525713e-01,  1.13466464e-01,  2.98183411e-01,
         -5.58638610e-02,  3.73607874e-01,  9.80555788e-02,
         -2.01512307e-01,  1.20155320e-01,  1.25597939e-01,
          4.86089170e-01,  1.61407679e-01,  3.54500003e-02,
         -3.94157274e-03, -1.74300179e-01],
        [ 5.79297394e-02, -7.52062574e-02, -3.35965417e-02,
          2.34005347e-01, -4.41230796e-02,  2.73069944e-02,
         -2.42092252e-01,  1.41251221e-01,  5.84110953e-02,
          2.19100833e-01, -1.11555278e-01,  1.69658065e-01,
          1.42646264e-02, -1.82687994e-02,  4.27160375e-02,
          1.31530482e-02, -4.62053642e-02, -1.89118665e-02,
          1.21453203e-01, -1.39367819e-01, -2.68319696e-01,
          1.47033468e-01,  4.69902337e-01,  2.62532625e-02,
          1.24608345e-01,  1.74954664e-02, -3.04712169e-03,
         -1.16335154e-01, -5.11708409e-02,  1.14981435e-01,
          6.20520078e-02, -2.75454596e-02],
        [-1.08236680e-02,  6.01408958e-01, -3.62644307e-02,
         -7.54971579e-02,  2.01117471e-02, -4.88411039e-01,
          2.57236302e-01, -3.60244438e-02, -1.15247540e-01,
          1.12193510e-01, -9.28599834e-02,  2.14766949e-01,
          1.46360859e-01, -3.60156804e-01, -1.54905736e-01,
         -2.03684002e-01, -3.16562176e-01, -3.35124671e-01,
          7.40341246e-02,  9.12733153e-02, -1.87819779e-01,
         -2.30903164e-01, -7.02447236e-01, -2.63590693e-01,
          3.66829246e-01, -7.02056229e-01,  2.48537064e-01,
         -4.59057748e-01,  5.75831123e-02, -6.86890364e-01,
         -1.49995506e-01,  8.34975913e-02],
        [-8.12838227e-02,  1.48761850e-02, -6.80109859e-02,
         -3.23413536e-02, -8.46217200e-02, -3.38424221e-02,
          1.26265541e-01,  3.33962105e-02,  4.66054343e-02,
          1.88140273e-02, -2.28171334e-01,  3.09638120e-02,
          3.32393460e-02,  1.05133109e-01,  1.94470689e-01,
          2.82371864e-02,  1.58478558e-01,  3.69591080e-03,
          1.01889390e-02, -3.18329483e-01, -2.26508677e-02,
          1.18648104e-01,  4.24280256e-01, -6.51113912e-02,
          2.50984490e-01, -8.78297910e-03, -2.23086879e-01,
          1.92925572e-01,  4.67230789e-02, -1.79359049e-01,
          1.42596483e-01,  1.23367291e-02],
        [ 1.27494812e-01,  4.46007326e-02,  1.41034827e-01,
          2.21754238e-01, -2.15508938e-01, -1.03577293e-01,
         -1.53172195e-01,  3.57591182e-01, -4.58808020e-02,
          1.92692161e-01,  2.48391092e-01, -1.65093273e-01,
         -3.67509872e-02,  8.52641389e-02,  9.21013206e-02,
          2.94717133e-01,  2.00332358e-01,  2.94799089e-01,
         -1.21890180e-01,  8.15383717e-02, -1.45614445e-01,
          3.02335590e-01,  2.09860787e-01,  9.95701998e-02,
         -3.31932485e-01,  4.54949662e-02, -3.36972773e-01,
         -4.52013880e-01,  1.72701240e-01, -1.53456945e-02,
          2.78396875e-01,  1.80145502e-01],
        [ 3.97954851e-01,  2.16613322e-01,  9.86454785e-02,
         -2.49521062e-01, -1.93523481e-01,  1.52141407e-01,
          3.04021150e-01, -1.19563982e-01, -7.06655532e-02,
          2.51187235e-01, -1.42554045e-01,  3.49821337e-02,
         -7.44850934e-02, -4.25071836e-01, -2.28940323e-01,
         -1.65713191e-01, -2.36942768e-02, -4.27103013e-01,
          5.25179982e-01, -1.60820261e-01,  2.51332596e-02,
         -8.81320238e-02, -1.02065599e+00, -1.53499678e-01,
          1.83473468e-01, -3.23818654e-01,  1.16208732e-01,
          2.07033813e-01,  4.81180288e-02, -2.45437980e-01,
         -1.02205969e-01, -1.42536581e-01],
        [ 1.60630003e-01, -1.87001713e-02, -3.32378626e-01,
         -1.57356054e-01, -8.72332752e-02,  3.07644814e-01,
         -8.49942863e-02, -4.86563779e-02, -2.15436399e-01,
          2.21952051e-01, -1.78527415e-01,  2.01922312e-01,
         -8.24396312e-03, -3.12619478e-01, -1.95975572e-01,
         -8.28386471e-02,  1.88884974e-01,  5.70582040e-03,
          4.15223718e-01, -1.16030261e-01, -3.93358976e-01,
         -3.32006253e-02, -3.78048450e-01, -1.06329799e-01,
         -6.62060529e-02, -6.51192740e-02,  1.62142381e-01,
         -2.19218314e-01, -1.53568476e-01,  6.10774420e-02,
         -3.12285483e-01, -6.00367375e-02],
        [ 1.16789043e-01,  1.25411555e-01, -1.17050931e-01,
          2.40668222e-01, -7.34585598e-02,  2.62610763e-01,
          1.02132306e-01, -4.29792225e-01,  7.71049876e-03,
         -3.03940177e-02, -1.00382557e-02, -8.18740875e-02,
         -1.76734664e-02,  1.53641149e-01, -1.23921923e-01,
         -9.98666324e-03, -1.76125586e-01,  4.09067497e-02,
         -5.63076623e-02, -4.57147174e-02,  1.76369101e-01,
          2.07284987e-01, -8.88425261e-02, -2.53050327e-01,
         -2.58380651e-01,  8.26831087e-02,  1.50282845e-01,
          1.07553788e-01, -1.96992442e-01, -2.24164113e-01,
          6.43267184e-02, -1.58956543e-01],
        [ 3.59922439e-01,  2.91628301e-01,  1.93615377e-01,
          1.21225111e-01,  5.69369555e-01,  1.84020519e-01,
          7.04104304e-01, -1.06214769e-01,  2.14694813e-01,
          1.69516250e-01,  1.09884202e-01, -2.90944904e-01,
         -3.64951998e-01,  5.90243489e-02, -3.68179888e-01,
          1.72955468e-01,  1.17788576e-01, -2.17794761e-01,
          2.54246771e-01, -2.07940966e-01,  2.37306014e-01,
          1.98661327e-01, -7.75529563e-01, -1.76979750e-01,
          1.71805188e-01,  2.45430097e-02,  9.19979364e-02,
          1.09494492e-01, -2.28780255e-01, -4.43292335e-02,
         -7.36488625e-02, -1.14848971e-01],
        [ 4.45257932e-01,  1.82396427e-01,  3.43049243e-02,
          1.52593628e-01,  1.11625440e-01,  6.69369161e-01,
          6.22215748e-01, -2.15256900e-01, -1.55898571e-01,
          2.69992828e-01, -1.21681415e-01, -2.41643507e-02,
         -2.65864283e-01, -1.96012542e-01, -3.66389677e-02,
         -1.28949448e-01, -1.35051575e-03,  4.08025719e-02,
          4.35671002e-01, -1.75574407e-01, -1.95664436e-01,
         -1.30400985e-01, -3.71414512e-01, -2.14655828e-02,
         -2.01040015e-01,  1.57345265e-01,  3.15315515e-01,
         -1.47719011e-01, -5.85937202e-01,  1.25651509e-01,
         -3.11089039e-01, -4.89589304e-01],
        [-2.11202785e-01, -2.04172701e-01, -2.15808988e-01,
         -8.57004197e-05,  1.54412715e-02,  3.64675283e-01,
         -2.01443270e-01,  2.18378469e-01,  3.65023464e-01,
          3.12695891e-01,  1.78836629e-01,  2.93134689e-01,
          2.04209104e-01,  8.98398161e-02,  2.17775702e-01,
          3.87623638e-01,  9.20250639e-02,  2.94814110e-01,
         -1.54986277e-01, -2.94595689e-01, -8.81231204e-02,
          2.04193577e-01,  3.74406040e-01,  8.47548544e-02,
         -5.94153181e-02,  3.59578967e-01, -1.45086959e-01,
         -4.26191717e-01, -3.05790752e-02, -2.42287204e-01,
          2.72394449e-01,  6.87808096e-02],
        [-1.47391811e-01, -2.22180918e-01,  1.53556228e-01,
         -4.89374362e-02, -1.59329832e-01,  1.67234048e-01,
         -4.02902573e-01, -1.72612667e-01, -6.05123937e-02,
         -9.77280140e-02, -1.51404738e-01,  5.43662049e-02,
          2.79975593e-01, -1.14713991e-02, -1.41296878e-01,
          3.70518774e-01, -1.35944858e-01, -5.39419875e-02,
         -1.11031868e-01, -8.28594714e-03, -2.52732694e-01,
         -8.58572274e-02,  4.29699868e-01, -1.15969740e-01,
         -7.83498064e-02,  3.26288193e-02, -1.15821198e-01,
         -1.96601540e-01, -8.06116387e-02, -2.62269676e-01,
          1.96480751e-01, -2.23296341e-02],
        [ 1.14968926e-01, -9.65336263e-02,  4.21421885e-01,
          2.07617745e-01, -2.64392734e-01,  1.87290713e-01,
         -2.86666274e-01,  2.68912822e-01,  1.32242337e-01,
          9.41677094e-02, -2.93358434e-02, -7.18826614e-03,
          3.51569839e-02,  8.89273435e-02, -4.05353270e-02,
          3.59143406e-01,  1.35194942e-01,  8.20005834e-02,
          2.48647347e-01, -1.07098639e-01, -1.60084978e-01,
         -4.84305210e-02,  2.32446924e-01, -1.88545305e-02,
         -1.82290778e-01,  1.64710388e-01, -2.78336406e-01,
         -4.36082065e-01, -2.18601543e-02, -6.91552833e-02,
         -9.47885811e-02,  2.71827936e-01],
        [ 1.12494111e-01,  1.82618499e-02,  1.52456120e-01,
         -6.38227612e-02, -2.31595844e-01,  6.96841359e-01,
         -1.33528318e-02,  1.24707557e-01,  1.30724549e-01,
          2.52650619e-01, -2.06605405e-01, -9.18745697e-02,
         -1.05886698e-01,  8.90499800e-02,  1.35259489e-02,
         -9.78482701e-03,  2.96132833e-01, -1.16763480e-01,
          9.62155685e-02, -2.89676785e-01,  5.94059788e-02,
         -3.23991001e-01, -1.64818943e-01, -2.02824064e-02,
         -1.52925700e-01,  1.32217914e-01,  2.10292816e-01,
          1.52988285e-01, -2.42414504e-01,  9.09327418e-02,
         -4.12360355e-02, -7.11113885e-02],
        [ 1.96566254e-01, -1.99837126e-02,  2.53339112e-01,
         -3.04549545e-01, -3.49745601e-01,  3.02632421e-01,
         -3.16132009e-01,  1.53541550e-01,  4.43248361e-01,
         -1.19907215e-01, -1.36592627e-01, -3.59976798e-01,
         -5.04394993e-02,  6.44497573e-03, -1.12357020e-01,
          1.49245039e-01,  2.99466431e-01, -1.62879601e-01,
          1.67148933e-01, -1.90064788e-01,  1.26521394e-01,
          5.15511222e-02, -3.87430966e-01, -1.51097327e-01,
         -1.14310570e-01,  8.75576138e-02,  1.45436525e-01,
         -1.34697691e-01,  9.79788881e-03, -1.21869259e-01,
         -2.15519309e-01,  7.67828301e-02],
        [ 1.08510613e-01,  2.15507358e-01,  1.36159301e-01,
         -1.14084095e-01, -1.57143384e-01,  1.38594493e-01,
         -3.04999985e-02,  2.35485837e-01,  2.20094711e-01,
          2.36193419e-01,  1.77323595e-01,  3.94953042e-02,
          5.60411578e-03,  5.59785813e-02, -5.57781085e-02,
          3.32602501e-01,  1.94875404e-01,  2.66514886e-02,
         -2.83119958e-02, -4.49070841e-01, -1.57715511e-02,
          2.21617743e-02, -1.96903080e-01, -1.46688849e-01,
         -1.38546333e-01,  2.65792876e-01,  1.29772231e-01,
         -1.45490676e-01,  6.38109967e-02, -2.70658970e-01,
         -3.14730555e-02,  1.99470535e-01],
        [-1.13764130e-01,  3.89638580e-02,  3.33163738e-01,
          7.07788616e-02, -3.02139014e-01, -3.73510015e-03,
         -4.39354688e-01,  1.54524356e-01,  3.71406227e-01,
         -8.21636617e-03,  1.18080541e-01, -2.11142689e-01,
         -1.39928266e-01,  3.16633642e-01, -1.39052331e-01,
          1.80045962e-01,  1.06657483e-01,  6.22414984e-02,
         -1.90351561e-01, -6.88821003e-02,  1.99057460e-01,
          1.51397027e-02,  2.53797144e-01,  2.63602644e-01,
          5.62598817e-02,  1.45298943e-01,  5.40504083e-02,
          7.44537869e-03,  3.16563785e-01, -3.67058739e-02,
         -7.40162209e-02,  2.98710197e-01],
        [ 2.40284145e-01,  1.53025880e-01,  3.80968004e-01,
          3.39142501e-01, -1.76132143e-01,  2.61907935e-01,
         -4.06183958e-01,  1.14530161e-01, -9.76018384e-02,
          2.77921170e-01,  2.68431604e-01,  3.79469395e-02,
         -6.68641180e-02,  3.36484700e-01,  9.50499475e-02,
          2.98343837e-01,  2.79160053e-01,  1.35966942e-01,
          1.73167095e-01, -3.75751667e-02, -6.04806617e-02,
          2.37664789e-01,  8.60596150e-02,  2.60089785e-01,
         -3.36198926e-01,  1.06544718e-01, -1.51592091e-01,
         -1.73847228e-01,  5.49754128e-02, -8.52428898e-02,
          3.28425586e-01,  1.58634871e-01],
        [ 1.36929214e-01,  2.98334986e-01, -5.09316102e-02,
          1.38199344e-01, -2.70284247e-02,  1.64439995e-02,
          2.08194256e-02, -2.54414737e-01,  1.02224894e-01,
          4.19591695e-01, -2.01783523e-01,  1.76494241e-01,
         -5.44642136e-02, -2.08598271e-01,  2.10735008e-01,
         -3.35951708e-02, -3.90123367e-01, -2.30254680e-02,
         -2.48271823e-01, -3.54639366e-02, -1.38375491e-01,
         -2.14049034e-02,  2.59349883e-01, -1.01209907e-02,
         -9.79649052e-02, -2.31183156e-01,  4.33400683e-02,
         -2.05406412e-01, -1.42858312e-01,  2.77871192e-02,
         -2.56421100e-02,  1.05703667e-01],
        [ 1.17433719e-01, -1.48508519e-01,  1.41538130e-02,
          2.09818669e-02, -9.27849784e-02,  1.39189273e-01,
         -1.65341109e-01,  2.05118492e-01,  1.67272657e-01,
          5.29870018e-02,  7.00724870e-02,  6.19183816e-02,
          5.11231348e-02, -8.23363364e-02,  2.52335966e-01,
          7.58568496e-02, -1.49344534e-01,  8.88406932e-02,
          6.07044846e-02, -3.14087480e-01, -1.73246533e-01,
          2.89050132e-01,  4.03984219e-01,  2.64580309e-01,
         -2.98650473e-01,  3.39214951e-02, -1.54081345e-01,
         -5.02420902e-01, -2.07589969e-01, -2.89413065e-01,
         -6.88246340e-02,  1.35301799e-01]],

       [[-2.80423425e-02, -1.81722373e-01, -5.73887341e-02,
         -6.51227161e-02, -1.46776944e-01,  7.80221596e-02,
         -1.85921922e-01, -2.02381596e-01, -1.08997442e-01,
         -2.74720788e-01, -2.48649746e-01, -1.35924324e-01,
         -1.22678764e-01,  2.30480582e-02,  1.20169170e-01,
         -2.05143750e-01, -1.90669492e-01, -1.92096028e-02,
          4.99488339e-02,  1.43760085e-01,  1.25997931e-01,
          3.04415300e-02,  1.06079832e-01, -5.92818856e-02,
          4.25979644e-02,  8.42592418e-02,  7.12386072e-02,
         -1.24682307e-01, -1.81626022e-01, -5.38323708e-02,
         -9.20570567e-02, -1.49686873e-01],
        [ 2.54747104e-02, -7.62543678e-02,  1.29818901e-01,
          1.13381267e-01, -2.16937996e-02,  3.40898633e-01,
          3.62200409e-01,  2.45285645e-01,  5.77656254e-02,
          6.11146092e-02, -1.24429606e-01,  1.01675898e-01,
         -1.49529502e-01,  4.88776088e-01, -1.96682140e-01,
         -4.28404585e-02,  1.37297750e-01,  9.25137997e-02,
         -1.02081243e-03,  1.44804299e-01,  1.51924968e-01,
          4.81171794e-02, -5.35002112e-01, -1.85492799e-01,
         -1.65023245e-02,  2.27232113e-01,  4.42864262e-02,
          5.88256866e-02,  1.75287336e-01,  1.75735459e-01,
         -2.30269909e-01, -1.53245181e-01],
        [ 4.17153002e-04, -1.42998129e-01, -2.18455642e-01,
          1.33388057e-01,  3.94994393e-02, -2.86932588e-02,
         -1.78448409e-01, -3.50465536e-01, -2.57420301e-01,
         -1.58922877e-02, -2.59890497e-01,  1.94507763e-01,
          1.85620144e-01,  2.81602710e-01,  9.39720050e-02,
          1.51377451e-02, -7.80063421e-02,  2.18728378e-01,
          1.69495806e-01, -3.58870804e-01, -6.98210150e-02,
          7.20140710e-02,  5.17404079e-01,  1.16114877e-01,
         -1.20812450e-02, -9.43035707e-02, -3.46788645e-01,
         -2.06977315e-02,  5.37451990e-02,  9.90058035e-02,
          2.68444389e-01, -1.91289589e-01],
        [ 1.59584820e-01,  6.15980849e-02,  1.45540863e-01,
         -4.15658206e-03,  3.37464482e-01,  4.55908775e-02,
          3.89305800e-01,  1.21174399e-02, -1.38533041e-01,
          9.01371147e-03, -4.49101292e-02,  1.37959257e-01,
          1.35127306e-01,  2.14061826e-01,  2.83625513e-01,
          1.90258548e-01, -1.67505026e-01,  2.23627746e-01,
         -1.22138478e-01,  5.18584475e-02,  1.22482635e-01,
         -2.17995867e-02,  1.20174903e-02,  1.47679627e-01,
         -1.68909624e-01,  3.96227986e-02,  4.45588976e-02,
         -1.54333726e-01, -1.13025457e-01,  3.32880393e-02,
         -5.28546721e-02, -7.05827847e-02],
        [ 1.32402167e-01,  9.97058582e-03,  1.35188073e-01,
         -2.00843230e-01, -1.62469700e-01, -1.75286591e-01,
         -8.78843814e-02,  7.91684687e-02, -3.98573745e-03,
          1.63033828e-01, -3.61755043e-02,  1.25964656e-02,
         -1.05200708e-01,  7.06416508e-03, -1.13932826e-01,
         -1.12257250e-01,  9.93134007e-02, -1.27750024e-01,
          2.55446225e-01,  1.25682920e-01,  1.53797626e-01,
          1.47015214e-01, -5.06608263e-02, -8.34145844e-02,
          1.91535488e-01,  5.97244054e-02,  3.21134180e-02,
          7.68248290e-02,  3.64016630e-02, -2.87660301e-01,
         -4.66316305e-02, -1.17099017e-01],
        [-4.98540103e-01, -1.53004574e-02, -4.70762640e-01,
         -6.81736916e-02, -3.25516105e-01,  8.27254727e-02,
         -3.18567380e-02, -1.18081473e-01,  5.55461124e-02,
          6.84706867e-02, -1.66359141e-01,  1.62101775e-01,
          3.47058952e-01, -2.47833896e-02,  1.54893860e-01,
          3.53534594e-02, -2.73631424e-01,  1.30309179e-01,
         -4.41968977e-01, -2.78065324e-01, -1.26180336e-01,
         -2.09339216e-01,  3.09013337e-01,  6.98059201e-02,
         -9.29473639e-02, -2.74742320e-02,  2.15481400e-01,
          2.04455853e-01,  1.09476887e-01, -2.82569136e-02,
          1.43784091e-01,  3.14769894e-02],
        [ 1.38906807e-01, -1.78261414e-01,  2.21936405e-01,
         -1.55508739e-03, -3.18660498e-01, -3.24065357e-01,
         -2.28091367e-02, -1.38181979e-02,  1.04807187e-02,
         -1.14726551e-01,  9.83143598e-02,  2.19328105e-01,
          1.67992741e-01,  4.68216278e-03, -8.56789425e-02,
          5.09205982e-02,  5.54394387e-02,  3.43952663e-02,
          3.10118735e-01,  1.51516587e-01, -3.17723453e-01,
         -6.10723980e-02,  3.88012946e-01, -3.04323230e-02,
          4.56384905e-02, -2.30718523e-01, -2.27024108e-02,
         -1.46798119e-01,  3.37183297e-01, -1.44968212e-01,
          3.13728929e-01, -8.12319443e-02],
        [-3.42040449e-01, -9.49114114e-02,  3.86533663e-02,
         -1.27485022e-01,  2.91639686e-01, -1.41921133e-01,
          1.13837890e-01,  2.48864293e-01,  5.04685998e-01,
          1.07362479e-01,  1.10817410e-01, -3.18466350e-02,
         -4.23218450e-03, -1.95421845e-01, -1.88356906e-01,
         -2.52697170e-01, -2.65892167e-02, -5.25868163e-02,
          1.33415043e-01,  6.60895228e-01,  1.44051507e-01,
         -3.58638982e-03, -4.75109890e-02, -3.00628752e-01,
          1.55501157e-01, -2.31529266e-01, -3.11404258e-01,
          6.42997742e-01,  3.21683377e-01,  4.55596149e-01,
         -1.73807204e-01,  4.03378457e-02],
        [ 1.48783430e-01,  3.57721411e-02, -3.33875939e-02,
         -8.63705017e-03, -2.96073288e-01,  1.04648620e-01,
          1.20967656e-01, -1.14693098e-01, -1.00664683e-01,
          1.34174839e-01, -8.78036618e-02,  1.21435530e-01,
         -9.02635679e-02,  3.86096910e-02, -9.55723003e-02,
         -4.52270478e-01,  5.93693890e-02, -9.46100578e-02,
          1.85130090e-01,  8.24705586e-02,  3.82665582e-02,
         -2.53847558e-02,  8.10245201e-02, -4.60139774e-02,
         -1.68259203e-01, -3.93546186e-02,  1.27368242e-01,
          1.66548103e-01, -1.12659156e-01, -3.90321203e-02,
         -1.41570762e-01, -8.00675303e-02],
        [ 8.87140483e-02,  9.33367684e-02, -4.90396582e-02,
          2.28332561e-02, -2.60312319e-01, -7.11524859e-02,
         -2.51506418e-02, -3.17945570e-01,  1.26280501e-01,
         -2.77935353e-04, -3.05443972e-01, -1.64465308e-01,
         -2.19567120e-01,  3.09218735e-01, -1.36235833e-01,
         -2.82486171e-01, -1.96588427e-01, -6.48914054e-02,
          3.73434462e-02,  2.47858897e-01,  3.52024198e-01,
         -3.51398028e-02,  1.02534844e-02,  7.75398593e-03,
         -3.08500737e-01,  1.10452957e-02,  8.57032016e-02,
          2.89761782e-01,  1.17059804e-01, -1.37006208e-01,
         -2.15264618e-01,  4.65231054e-02],
        [-9.33381319e-02,  7.92278498e-02, -5.42264357e-02,
          1.31559968e-01, -8.56492296e-02, -2.17106923e-01,
         -1.78114220e-01,  3.71549398e-01,  3.34502906e-01,
         -3.41697186e-02,  3.21059644e-01, -4.08743531e-01,
         -2.39119958e-02, -1.59082741e-01, -1.44209847e-01,
         -4.05423380e-02, -3.26798141e-01, -3.14675927e-01,
          1.07751228e-01, -5.91110997e-02, -2.39281371e-01,
          2.42675453e-01,  8.20059106e-02, -2.61555910e-01,
         -2.09145725e-01, -1.65064856e-01, -2.31904490e-03,
          3.04209292e-01,  3.68252955e-02, -6.80530537e-03,
          1.92822516e-01,  2.37899870e-01],
        [ 4.71289963e-01,  5.42233467e-01,  4.69175667e-01,
         -2.24868268e-01,  1.90279797e-01,  1.15898676e-01,
          1.79669783e-01, -1.78108782e-01,  2.47883704e-02,
          1.89084262e-01,  2.88735665e-02, -1.18078114e-02,
          3.20396066e-01,  5.41939616e-01, -4.57129069e-03,
          4.07391749e-02,  1.42396241e-01,  3.46211553e-01,
          2.02573076e-01, -3.87025416e-01, -7.63294846e-02,
          7.93362688e-03, -8.03971291e-02, -2.85996109e-01,
          4.52676952e-01,  2.32528597e-01, -8.19502398e-02,
          1.29220083e-01, -7.30087832e-02,  9.19762701e-02,
          4.73654158e-02, -1.03670828e-01],
        [ 2.30387330e-01, -6.04583602e-03, -4.89078797e-02,
          1.36695266e-01, -5.98760694e-02,  2.22108409e-01,
          3.91836427e-02, -2.99654245e-01,  2.39281077e-02,
         -1.21774092e-01, -1.12105392e-01,  9.20246914e-02,
          6.40013143e-02, -3.99236947e-01, -9.87378880e-03,
         -2.02857971e-01, -1.17390692e-01, -3.15827280e-01,
          1.22816108e-01,  3.04185878e-02, -4.66407686e-02,
         -1.56259760e-01, -2.91416287e-01, -1.16145620e-02,
         -1.16191998e-01,  1.78739503e-01,  1.41150132e-01,
         -3.04831695e-02, -3.58691365e-01,  6.66598007e-02,
         -1.49072826e-01, -4.73042101e-01],
        [-4.67413634e-01, -2.50789404e-01, -3.55729908e-01,
          2.16527767e-02,  2.02660896e-02,  1.30681098e-01,
         -2.81704888e-02, -1.03098013e-01,  9.84037519e-02,
          7.86226019e-02, -1.01867996e-01, -3.20240706e-02,
          1.32719949e-01,  1.49629533e-01, -3.57390828e-02,
         -1.03657171e-02, -6.75254390e-02,  9.19881240e-02,
         -3.16612393e-01, -1.53494567e-01, -3.69938552e-01,
          3.08823079e-01,  4.02413234e-02,  1.11945383e-01,
          7.12820217e-02,  7.25531206e-02,  1.71243861e-01,
         -5.88912293e-02, -1.55568451e-01, -1.81640595e-01,
          9.78826806e-02, -3.74939814e-02],
        [-2.80213822e-02, -2.41584659e-01, -7.62931034e-02,
          6.20074213e-01, -3.82157206e-03,  2.14966163e-01,
         -1.08917914e-01,  2.97924280e-02, -5.50051510e-01,
          2.93352038e-01, -2.00668558e-01,  3.21607403e-02,
          7.23192632e-01,  2.65135616e-01,  5.15336581e-02,
         -4.46630605e-02,  8.54218528e-02,  2.15852827e-01,
         -1.44812269e-02, -4.88770306e-01, -4.84422222e-02,
         -3.84319457e-03,  3.19882810e-01,  1.10186026e-01,
         -2.17635334e-01, -3.54897454e-02, -1.36384591e-01,
          1.17075955e-02, -9.71620828e-02, -2.82566808e-03,
          1.86470032e-01, -4.20093209e-01],
        [ 5.85688278e-02,  1.26873717e-01,  4.33909036e-02,
         -5.96586466e-02, -1.70726016e-01, -8.29564258e-02,
         -1.80398464e-01, -2.29233131e-01, -1.16300113e-01,
         -1.29183441e-01, -1.09184638e-01,  6.63943440e-02,
         -1.43668234e-01, -2.06202582e-01, -3.39456834e-02,
         -1.17303096e-01,  9.05428082e-03, -1.49491772e-01,
         -2.94553470e-02,  2.40328498e-02, -1.53252050e-01,
          5.25630824e-02,  1.17377870e-01, -5.41737862e-02,
         -1.89316601e-01,  9.45700109e-02,  3.19140851e-02,
         -7.31341839e-02, -3.06126952e-01, -3.53328407e-01,
          4.69634049e-02, -3.62907618e-01],
        [-3.39084506e-01, -1.21735543e-01,  1.50725603e-01,
         -1.85108826e-01,  3.35089825e-02, -1.12965986e-01,
          2.10836515e-01, -4.09579687e-02, -1.71152979e-01,
         -1.12257726e-01,  1.00874826e-01, -2.00693198e-02,
         -2.29299739e-02,  4.86652786e-03, -2.61954069e-01,
          9.47922021e-02, -4.73207682e-01, -1.60864592e-01,
         -2.65345156e-01,  1.46273673e-01, -2.79441059e-01,
          1.09384730e-01, -3.55827659e-02, -1.26555756e-01,
         -4.77654003e-02, -6.37622923e-02, -5.95815554e-02,
         -2.73021609e-01,  2.51314431e-01,  3.53012956e-03,
          2.32468024e-01,  3.78795597e-03],
        [ 2.61901051e-01,  2.84625977e-01,  1.35974497e-01,
          1.94406316e-01,  5.36931455e-02,  4.76725399e-02,
          2.13262483e-01, -5.64145111e-02, -1.02326557e-01,
          1.80354789e-01, -4.24252987e-01,  2.77688354e-01,
          3.90060842e-01,  3.03565741e-01,  1.88851953e-02,
         -3.82177889e-01, -7.70367384e-02,  1.43784970e-01,
          3.66635919e-01, -3.84815671e-02,  3.75906050e-01,
         -1.80991173e-01,  1.19679697e-01,  5.43527491e-02,
          1.44969746e-02,  8.04200321e-02, -1.62886664e-01,
         -1.56259481e-02, -3.14572364e-01,  1.38668209e-01,
          2.42701232e-01, -4.94096309e-01],
        [-2.74520844e-01, -1.90719351e-01, -2.35145465e-01,
          2.87901878e-01, -2.39308178e-01, -1.98311180e-01,
          9.69591141e-02,  2.56025861e-03,  3.87488976e-02,
         -1.96851827e-02,  1.13609046e-01,  2.32722715e-01,
         -7.55531639e-02, -1.62707224e-01,  2.43611008e-01,
         -2.20510647e-01, -1.25957787e-01,  2.23548695e-01,
          3.38595659e-02,  9.47402716e-02,  5.89917190e-02,
          3.10588162e-02,  2.00309113e-01, -3.65215838e-02,
         -1.80115327e-01, -4.19496559e-02, -3.44008029e-01,
         -4.10515182e-02, -1.18452899e-01, -8.82821456e-02,
         -4.85700518e-02, -1.25512760e-02],
        [ 2.45948695e-02,  2.54479423e-03, -2.03911699e-02,
         -3.16771567e-02,  7.80218989e-02, -2.08003759e-01,
          2.74544023e-02, -2.87589598e-02,  1.45512506e-01,
         -2.65358780e-02,  1.25895664e-02,  9.97724608e-02,
         -2.64608771e-01, -9.26175117e-02,  1.44399274e-02,
         -2.15223908e-01, -6.24013133e-02, -3.18032876e-02,
         -2.22770441e-02,  1.92828104e-01,  2.22239867e-01,
          1.66661903e-01, -3.12906206e-02, -1.21009417e-01,
          2.88995374e-02, -1.90332234e-01,  1.07106686e-01,
          5.96658979e-03,  1.20240808e-01, -2.41002738e-01,
         -1.61513224e-01, -2.22320840e-01],
        [ 6.53323710e-01,  4.35718119e-01,  5.03961623e-01,
         -2.13390425e-01,  2.96653390e-01,  1.03703596e-01,
          2.08981141e-01, -7.08335489e-02,  4.75356020e-02,
          1.90491527e-01, -2.66184330e-01,  5.07237241e-02,
          2.33455300e-01,  4.56277817e-01, -5.26537038e-02,
         -1.62019163e-01, -1.19191892e-01,  3.23317319e-01,
          4.33844090e-01, -4.06238973e-01, -1.87938288e-02,
         -2.72046804e-01, -1.89108670e-01, -8.01284611e-02,
          2.43179813e-01,  1.96358427e-01,  1.84534818e-01,
          3.27338368e-01,  6.54120520e-02,  1.16303019e-01,
          2.44115777e-02,  5.61798774e-02],
        [ 1.12339944e-01,  1.32076383e-01, -7.03548789e-02,
          1.64309487e-01, -2.78307468e-01,  3.42928201e-01,
          1.00229889e-01, -1.05313271e-01, -7.66929537e-02,
          2.20509306e-01, -2.33663365e-01,  7.31455833e-02,
         -3.42327473e-03, -1.22630857e-01,  8.83366317e-02,
         -2.92884439e-01, -8.31106305e-02,  2.24643797e-01,
          5.18351078e-01,  7.36575946e-02,  4.62870270e-01,
         -8.59021693e-02, -1.14041038e-01, -7.36018047e-02,
         -2.72306800e-01, -9.95852053e-02,  3.06482762e-01,
          4.66207117e-02, -2.37527996e-01, -1.36411294e-01,
         -9.68107358e-02, -1.10533923e-01],
        [-1.18073322e-01, -1.78504616e-01, -1.68677092e-01,
         -2.19147101e-01, -3.45175504e-03,  2.10474357e-01,
         -1.03671998e-01, -2.24005848e-01,  1.11272059e-01,
          7.28170872e-02, -1.45130083e-01, -3.84775013e-01,
          2.31961593e-01, -3.99469994e-02, -5.36916442e-02,
          3.82923000e-02, -3.79358202e-01, -2.47975234e-02,
         -1.18460119e-01,  1.00619800e-01,  1.95844635e-01,
          2.16860265e-01, -3.16348895e-02,  1.64743796e-01,
          7.40145296e-02,  2.12509468e-01,  2.17193346e-02,
         -1.05560862e-01, -1.04264691e-01,  1.09153893e-02,
         -1.78992860e-02, -1.02042019e-01],
        [-2.39892542e-01, -2.40438282e-01, -1.17126152e-01,
          1.02978826e-01,  4.03443091e-02, -9.14617255e-02,
         -1.76663190e-01, -9.29788947e-02, -4.92984354e-02,
          5.37097901e-02, -1.52340889e-01, -5.97109534e-02,
          8.52984339e-02,  1.12394862e-01, -1.21548481e-01,
          6.00126386e-02, -3.06444615e-01, -3.48558798e-02,
         -2.87633836e-01,  3.46343637e-01,  2.84587622e-01,
          2.19102606e-01,  2.52697140e-01, -1.86624769e-02,
         -5.22661805e-02, -1.17676213e-01,  1.40498728e-01,
          2.91970760e-01,  3.79832089e-03, -7.63365626e-02,
          1.39894247e-01,  5.35676777e-02],
        [-3.05313796e-01, -2.94712961e-01,  1.97910722e-02,
          6.58915043e-02,  3.39322425e-02, -1.13573268e-01,
          4.26539406e-02, -3.97263765e-01, -2.05271289e-01,
         -4.50214185e-02, -1.68659359e-01, -6.22875728e-02,
          3.14386576e-01,  4.27125208e-02, -1.15297297e-02,
          5.68818650e-04, -4.59158182e-01,  4.81384993e-02,
         -2.10524261e-01, -1.36394158e-01, -7.82764927e-02,
          1.57931056e-02,  2.52959102e-01, -6.75188228e-02,
         -9.91559625e-02, -5.73882498e-02,  3.65161672e-02,
         -4.68635187e-02, -3.67467314e-01,  4.36950177e-02,
         -1.18325777e-01, -3.96455489e-02],
        [-1.61510125e-01, -6.05305284e-02, -5.53493463e-02,
          3.52240652e-02, -3.94426912e-01,  1.62853137e-01,
         -8.92044678e-02, -1.20224291e-02,  1.38480648e-01,
          9.55623835e-02, -8.05396289e-02, -2.23021787e-02,
         -3.08180183e-01,  2.39080071e-01,  1.79517400e-02,
         -1.88288853e-01,  1.36894539e-01,  1.01153724e-01,
         -1.37851924e-01,  4.01143581e-02,  3.00119579e-01,
         -1.61676049e-01,  5.40781133e-02, -4.06903476e-02,
         -4.30681884e-01,  1.51091963e-01, -1.15122147e-01,
          2.21903235e-01,  1.33673385e-01, -1.98658705e-02,
         -5.20120673e-02, -2.35187472e-03],
        [-4.06039804e-01, -5.06549031e-02, -2.03964576e-01,
          1.77273914e-01, -1.85748845e-01,  2.12991938e-01,
         -1.12972543e-01,  9.35733467e-02,  7.74614289e-02,
          7.55661353e-02,  1.17913829e-02, -1.70594409e-01,
          2.52180994e-01,  7.61202127e-02,  1.09021276e-01,
          4.31821235e-02, -4.66723042e-03, -2.16754321e-02,
          1.37366772e-01,  8.99604931e-02,  2.27052316e-01,
         -4.91078608e-02,  5.03191873e-02,  7.78634027e-02,
         -6.45557046e-02,  8.04189965e-02, -1.20183475e-01,
         -9.26645752e-03,  8.89658853e-02, -1.10491686e-01,
          8.22228380e-03, -3.71662267e-02],
        [ 1.84537381e-01, -7.78713450e-02,  9.81493071e-02,
         -1.48840770e-01,  8.12525302e-02,  5.25274873e-02,
         -3.24081024e-03, -1.14193801e-02,  3.24234292e-02,
         -8.07746276e-02, -7.55334720e-02, -3.54846537e-01,
         -1.27798036e-01,  2.49168739e-01,  8.53869393e-02,
          1.12328716e-01, -2.12774411e-01,  1.95041507e-01,
          1.15710616e-01, -2.83683254e-03,  1.69226214e-01,
          2.28792757e-01,  1.17987812e-01,  8.07485506e-02,
         -1.24702066e-01,  9.02389362e-02,  1.47826210e-01,
         -1.59765869e-01, -4.18305118e-03, -5.48751205e-02,
          4.45505641e-02, -3.71145159e-02],
        [-1.53994039e-01, -3.10881108e-01,  1.71030648e-02,
          1.26373410e-01,  3.30025479e-02,  3.39362770e-02,
         -1.39836565e-01,  2.39565447e-01,  6.57614395e-02,
         -6.09475076e-02,  1.48443058e-01, -1.18595645e-01,
         -3.07195317e-02,  2.83396274e-01, -5.61490171e-02,
          6.45667091e-02,  5.08564748e-02,  9.06063467e-02,
         -2.19285309e-01,  2.01160431e-01, -2.17374414e-02,
          1.30081013e-01, -2.49476030e-01,  2.65758298e-02,
         -2.50145327e-03,  3.29182185e-02, -2.59376526e-01,
          3.04809541e-01,  3.16486031e-01, -1.76319540e-01,
          1.57230586e-01,  3.50333378e-02],
        [-3.12260896e-01, -2.47724935e-01,  9.74440724e-02,
          2.15930372e-01,  1.24412045e-01,  6.29340410e-02,
         -1.00528419e-01, -2.61425152e-02, -1.93427414e-01,
         -1.01598710e-01,  2.24296391e-01, -3.51986177e-02,
          4.89772484e-03,  1.82848334e-01,  1.87283754e-02,
          2.18183756e-01, -1.07655145e-01,  1.51914373e-01,
         -7.34257847e-02,  4.72349897e-02,  1.17560476e-01,
         -1.42297354e-02,  1.30960271e-02,  8.02066550e-02,
         -1.87909871e-01,  6.05520606e-02,  2.13464722e-01,
         -1.80644676e-01, -4.46710736e-02, -1.83968678e-01,
          1.50551841e-01,  2.25752052e-02],
        [-4.38532643e-02, -2.11090930e-02,  2.73152255e-02,
          2.80775785e-01,  1.12350672e-01, -1.63427785e-01,
          2.45517164e-01, -2.09310636e-01,  1.22349821e-01,
         -6.00983351e-02, -1.09378017e-01, -2.32829586e-01,
         -3.37013081e-02, -1.26642957e-01, -1.98750887e-02,
          1.40088081e-01, -2.67332911e-01, -1.32245906e-02,
         -4.96774986e-02,  6.80449679e-02, -2.17071325e-01,
          7.00441003e-02,  3.08182389e-01,  2.03680351e-01,
         -9.10912603e-02, -1.93123043e-01,  1.30226254e-01,
          6.20529428e-03,  3.25294100e-02, -1.33800805e-01,
         -1.54962555e-01, -4.10099775e-02],
        [-3.21711004e-01, -3.10991466e-01, -2.57664442e-01,
          3.98099534e-02,  1.91111688e-03,  5.34101799e-02,
         -3.69063094e-02, -2.71691591e-01, -3.41956854e-01,
          6.17152266e-02, -3.81519020e-01, -9.01292413e-02,
          3.23709659e-02,  1.81078799e-02, -1.07913144e-01,
         -2.34909758e-01, -1.87979892e-01, -6.73324987e-02,
         -1.09643921e-01,  1.56945780e-01, -3.22446913e-01,
         -1.63509607e-01,  2.85490230e-02,  1.83941305e-01,
         -7.18724206e-02, -7.09414855e-02, -8.68407637e-02,
          1.15566082e-01, -3.13580602e-01, -3.96936294e-03,
          9.20210034e-02, -3.39514554e-01]],

       [[-1.16323814e-01,  7.60111734e-02, -1.61500230e-01,
         -3.88698280e-02, -2.17612058e-01, -1.48253456e-01,
         -3.22693847e-02, -1.76740348e-01, -6.63229004e-02,
         -2.07756579e-01,  2.45245453e-02,  8.01056623e-02,
         -2.20706791e-01, -8.68709385e-02, -1.66082233e-01,
          6.06586076e-02,  1.29768893e-01, -1.48878798e-01,
          1.93162877e-02,  1.03528433e-01,  1.64726675e-01,
          1.77926905e-02,  5.91908619e-02, -5.97769730e-02,
         -3.10072273e-01,  3.63776386e-02,  1.89768270e-01,
          6.03112020e-02,  3.70655179e-01,  3.58356573e-02,
          1.24990515e-01,  1.56603381e-01],
        [-4.98020723e-02, -5.64953126e-02, -6.85099838e-03,
          1.85363233e-01,  8.80369842e-02, -1.21784853e-02,
          1.92727014e-01, -1.55702114e-01,  1.53995110e-02,
         -7.42621347e-02,  2.28803474e-02, -1.19213359e-02,
         -2.22209565e-05,  1.90439016e-01,  2.00635940e-02,
          4.09789048e-02, -4.46051240e-01, -3.08016967e-02,
          3.90968546e-02, -2.66985712e-03,  3.83085422e-02,
         -1.91321205e-02,  1.51513085e-01,  1.13039412e-01,
         -5.89385629e-03,  1.19954877e-01, -3.17973882e-01,
         -2.11624429e-02, -2.61458427e-01,  8.47108364e-02,
         -4.88910638e-02, -5.77978753e-02],
        [-1.35313720e-01, -1.88515991e-01, -1.12768479e-01,
          1.95071287e-02,  1.03630207e-01, -1.07484207e-01,
         -1.01974368e-01,  9.46744904e-02,  2.24535674e-01,
         -4.49306779e-02,  2.86459476e-02, -2.50849396e-01,
          2.03570891e-02, -4.22357768e-01, -6.47153631e-02,
         -1.38420537e-01,  7.76540041e-02, -1.15516633e-01,
          2.42107268e-02,  8.30118582e-02, -2.80853540e-01,
          2.56088991e-02,  2.76014566e-01,  1.83290660e-01,
         -2.80634224e-01,  2.23184489e-02,  1.20794624e-01,
         -1.23758011e-01, -5.82472146e-01, -5.47638983e-02,
          1.36038512e-01, -8.07539150e-02],
        [ 9.24885552e-03,  2.04535916e-01,  2.13687345e-02,
         -3.76789182e-01,  2.24831358e-01,  5.26516698e-02,
          2.91794240e-01,  1.26179218e-01,  5.39375469e-02,
          2.84572452e-01, -1.13584444e-01, -1.03021786e-01,
          1.60933752e-02, -3.50344069e-02,  6.24182299e-02,
          1.33912221e-01, -1.60260543e-01,  4.20066603e-02,
         -1.91312879e-01, -2.19038695e-01, -2.79238015e-01,
         -2.73427129e-01,  4.38489355e-02, -4.00509946e-02,
          7.78502524e-02,  2.74143536e-02,  1.32815018e-01,
         -3.19036067e-01, -1.04710467e-01,  9.04419422e-02,
          1.48987666e-01, -1.66280895e-01],
        [-1.90290641e-02, -1.46269634e-01, -8.09003487e-02,
         -1.59733236e-01, -1.15936257e-01, -1.59539104e-01,
         -1.46577805e-01, -1.64455235e-01, -3.55236381e-02,
         -5.23787439e-02, -7.52668595e-03,  2.30187811e-02,
          7.23728314e-02, -2.65770610e-02,  3.95818949e-02,
         -6.03514612e-02,  5.11566848e-02, -1.80171326e-01,
          1.73002049e-01, -1.35893017e-01,  5.23384241e-03,
          1.09173365e-01,  8.16816688e-02,  6.49157241e-02,
          1.33134529e-01,  2.11723149e-01, -1.56722099e-01,
          1.65007859e-01, -2.06754357e-03, -2.62910515e-01,
          1.25182718e-02,  7.87969828e-02],
        [-4.65248227e-01,  4.81005087e-02, -3.31523776e-01,
          6.48923963e-02,  1.32880788e-02, -2.77821481e-01,
          1.12960830e-01, -7.67468810e-02,  1.71644107e-01,
         -9.02652964e-02,  1.19442269e-02, -2.30068900e-02,
          4.77809571e-02, -1.94000721e-01, -4.06730585e-02,
         -2.43059859e-01,  2.66372323e-01, -1.49903238e-01,
         -1.37377948e-01,  3.47184777e-01,  1.15390420e-01,
         -5.98755144e-02, -8.20140392e-02,  4.93746484e-03,
          1.22733600e-02,  8.61672685e-02,  2.12952178e-02,
         -2.68392712e-01, -3.03222895e-01, -1.49322271e-01,
          1.51509911e-01,  1.85336918e-01],
        [ 3.59025955e-01, -4.28172708e-01,  1.39521539e-01,
         -3.98439467e-02,  9.47001427e-02, -4.63566303e-01,
          5.04296087e-03,  4.92576435e-02, -9.45275798e-02,
         -1.35297015e-01, -6.36241632e-03,  3.76929104e-01,
          1.61412522e-01,  1.82896331e-01,  3.51950116e-02,
         -2.81101419e-03,  2.20705658e-01,  1.07822947e-01,
          1.35584593e-01,  1.57060534e-01, -2.40431800e-01,
         -2.85031293e-02,  5.64766109e-01,  7.91019276e-02,
          8.22993517e-02, -2.56141216e-01,  8.73951241e-02,
          4.51033488e-02,  3.47869217e-01,  8.95626172e-02,
          3.97411168e-01, -7.91010857e-02],
        [ 3.02514106e-01,  3.41881484e-01,  5.02208412e-01,
          1.13465888e-02,  2.46134296e-01, -2.45762601e-01,
          4.58060294e-01,  1.73732430e-01,  3.22580636e-01,
         -2.24692952e-02,  2.39097118e-01, -6.16325364e-02,
          2.48705104e-01, -2.03547195e-01, -1.98987231e-01,
         -1.91467945e-02, -1.37802392e-01, -7.88554177e-02,
          2.86781251e-01, -3.27324182e-01, -6.22455895e-01,
         -6.72479672e-03,  3.84537168e-02,  2.25648120e-01,
         -1.14621520e-01,  1.67062446e-01, -2.56396234e-01,
         -4.07074869e-01, -3.69820684e-01,  1.03634343e-01,
          5.10843880e-02,  4.42893431e-02],
        [-3.32682952e-02, -7.20541701e-02,  7.28547573e-02,
          3.41758952e-02, -8.15391243e-02,  1.72014150e-03,
          3.66478920e-01, -1.92943439e-01, -2.02285703e-02,
         -1.63052842e-01,  7.55826384e-02,  3.53220642e-01,
         -7.84331858e-02, -9.35151428e-02, -7.91685954e-02,
         -1.03372559e-01, -1.25490621e-01, -8.99463743e-02,
          3.71572524e-01,  1.28518036e-02, -4.76949811e-02,
          2.07770482e-01,  2.38746926e-02,  6.82535246e-02,
          1.84319347e-01,  1.07656680e-02, -4.24809366e-01,
         -2.34761402e-01, -6.90940976e-01, -3.89405787e-02,
         -2.21402198e-01, -2.22056024e-02],
        [-1.65051714e-01,  2.65315007e-02, -4.66421604e-01,
         -1.07606001e-01,  1.32246166e-01,  2.47498993e-02,
          3.53401482e-01, -2.01718718e-01,  4.62128147e-02,
          5.08439168e-02,  2.39812918e-02, -4.14194800e-02,
         -8.25333372e-02, -1.15960680e-01,  1.31868541e-01,
         -7.24675357e-02, -1.19195826e-01,  1.56121450e-02,
         -8.90720114e-02,  2.61691064e-01,  6.11169599e-02,
          1.81084037e-01,  1.53721385e-02, -1.61572583e-02,
          1.92506313e-01,  2.95739740e-01,  1.99654073e-01,
         -1.20765090e-01, -1.94392383e-01, -1.06482685e-01,
         -3.64037901e-02,  5.98376878e-02],
        [-8.26552659e-02, -1.06547717e-02, -9.04733241e-02,
          2.79796511e-01, -3.60257588e-02, -1.40533179e-01,
          7.26602674e-02,  1.81137517e-01,  2.26040870e-01,
          1.08778616e-02,  1.35077447e-01, -4.78410929e-01,
          1.63179249e-01, -1.49931476e-01, -3.43700320e-01,
         -1.16808405e-02, -3.17712933e-01, -5.46988964e-01,
          1.25741154e-01, -2.66193505e-02, -1.07850261e-01,
          2.63041317e-01, -1.35729328e-01, -1.46374658e-01,
          2.01616868e-01, -2.84327149e-01,  1.45688176e-01,
          2.02099323e-01,  8.96415561e-02,  1.92065120e-01,
          2.39957616e-01,  2.15422928e-01],
        [ 2.47116163e-01,  2.40632609e-01,  2.50755221e-01,
         -3.03239882e-01, -1.26900628e-01,  5.73056862e-02,
         -1.53029576e-01, -7.95749947e-02,  6.76762611e-02,
          1.67158529e-01, -1.69076752e-02, -6.97085112e-02,
         -2.83679008e-01, -1.02415852e-01, -1.96954794e-02,
         -3.03308189e-01,  1.50483146e-01,  1.00743435e-01,
          5.84652424e-01,  5.00373542e-01, -8.76742974e-02,
         -2.45797023e-01,  3.05758089e-01,  2.44467370e-02,
         -1.58080459e-01, -1.03172041e-01,  3.72477323e-02,
         -2.50561237e-01, -7.02233970e-01,  3.67818982e-03,
         -1.28466589e-02,  2.34316260e-01],
        [ 2.80507982e-01,  2.41865758e-02, -1.50979191e-01,
          1.77697852e-01,  1.11296110e-01, -5.16827963e-02,
          1.27398655e-01, -1.59808800e-01,  2.33427063e-01,
          1.89336866e-01,  1.91537902e-01, -1.37674898e-01,
          9.30358376e-03, -3.99762532e-03, -1.43516762e-03,
          3.56384255e-02, -1.61990821e-01,  7.71328732e-02,
          1.34589866e-01, -2.18640313e-01,  3.46337445e-02,
          1.15490124e-01, -1.31642163e-01, -1.16876699e-01,
          3.43953848e-01, -7.40050757e-03, -2.07378387e-01,
          1.75735176e-01,  6.71733692e-02,  4.50835712e-02,
         -7.62063265e-02, -5.92758246e-02],
        [ 3.21673393e-01, -3.75002697e-02,  1.99562207e-01,
          1.66956037e-02, -7.59244561e-02, -2.55252481e-01,
         -1.16284862e-01, -6.65080845e-02, -2.75301337e-02,
          2.51981299e-02,  4.63698730e-02, -1.76548466e-01,
          8.88222232e-02,  1.04434259e-01, -1.80220976e-01,
          1.58031911e-01, -1.28949666e-02, -2.84646720e-01,
          1.18294433e-02,  3.11505282e-03,  3.33734392e-03,
          1.95781603e-01, -2.37082109e-01, -2.78383374e-01,
         -1.93503886e-01,  2.62791906e-02, -1.67262807e-01,
         -1.95682030e-02,  1.29274562e-01,  6.60110340e-02,
         -2.08446354e-01, -1.42977476e-01],
        [-2.81288207e-01, -8.76600370e-02, -2.43868291e-01,
         -6.75333142e-02,  2.58122981e-01,  1.11495659e-01,
         -4.43508536e-01, -2.41592415e-02,  2.31933042e-01,
          1.98609889e-01, -8.14406499e-02, -3.04399967e-01,
         -3.48144263e-01, -3.79416466e-01,  2.51783550e-01,
          2.39960983e-01, -5.04557695e-03,  3.18129472e-02,
         -8.49148929e-02,  9.76203233e-02,  2.06048340e-02,
          4.14051376e-02,  6.85026288e-01,  2.25604609e-01,
         -4.18134369e-02, -3.14767659e-02,  2.02162981e-01,
          3.16079631e-02, -5.82175970e-01,  3.68870497e-01,
         -3.71606946e-01, -1.64535388e-01],
        [ 6.28407151e-02, -1.23938657e-02, -1.45473897e-01,
         -8.03966001e-02, -7.43762180e-02, -5.07758856e-02,
          6.68765083e-02,  3.20218503e-02,  6.61530644e-02,
         -1.75642803e-01, -1.22769721e-01, -1.43890798e-01,
         -2.81398855e-02,  1.30573869e-01, -8.01017359e-02,
          3.97267081e-02, -1.07160144e-01,  6.35463968e-02,
          5.65558448e-02,  5.67549653e-02, -1.07575238e-01,
          9.90592018e-02,  6.03310391e-02,  1.36271706e-02,
         -8.72220472e-02,  1.88025087e-01,  1.49940088e-01,
          2.89865792e-01,  8.95639975e-03, -2.51350969e-01,
         -2.46841282e-01, -2.28605747e-01],
        [-1.10164629e-02, -2.73506287e-02,  3.54522139e-01,
         -1.78896934e-01, -9.26323757e-02, -2.86936879e-01,
         -7.85619542e-02,  1.42871514e-01, -7.60763288e-02,
         -7.20023513e-02,  1.26560554e-01,  1.16652045e-02,
          2.41027959e-03, -1.40663430e-01, -1.43630281e-01,
          1.79400191e-01,  1.16385095e-01, -2.32440159e-01,
          3.07621747e-01,  2.64961123e-02, -2.59429842e-01,
          2.44887426e-01, -8.43862072e-02, -3.25769149e-02,
          2.38234811e-02, -2.91731954e-01, -4.20609638e-02,
         -8.29390362e-02,  1.80606753e-01,  7.81233162e-02,
          5.65166287e-02, -2.47357562e-02],
        [-2.69001573e-01, -1.07639551e-01, -3.03761363e-01,
         -5.60992919e-02,  9.49689522e-02, -5.18313758e-02,
         -4.34195399e-02,  5.93247823e-02,  1.88602746e-01,
          5.43769635e-03, -2.61086315e-01, -1.89963043e-01,
         -8.26958120e-02, -3.19753677e-01, -3.86309326e-02,
         -2.23138005e-01,  4.90491949e-02, -1.83376655e-01,
          5.00786118e-02,  4.00244445e-01,  3.25429857e-01,
         -8.79773051e-02,  3.43068272e-01,  1.77565292e-01,
         -2.00755857e-02, -1.56674892e-01,  1.11477718e-01,
          4.79342192e-02, -5.59569955e-01,  2.77585834e-01,
         -1.75663799e-01, -7.66493157e-02],
        [-1.33489892e-01, -1.01869665e-01, -1.18812606e-01,
         -1.03469923e-01,  1.59252942e-01, -2.46481583e-01,
          1.84283942e-01,  9.32030659e-03,  1.54577017e-01,
         -2.24862382e-01,  1.36648551e-01,  2.05671787e-02,
          5.99119775e-02, -3.78911495e-01, -1.10871591e-01,
          1.53333202e-01, -3.07890058e-01,  9.47475620e-03,
         -1.82685986e-01,  1.55086964e-01, -2.62201637e-01,
          1.47322575e-02,  2.27174386e-01,  1.35896161e-01,
          2.06755504e-01, -1.59048349e-01, -1.13818653e-01,
         -1.41707987e-01, -3.70929301e-01,  1.36216700e-01,
         -4.97960709e-02,  4.06923331e-02],
        [ 1.54496193e-01, -3.02777380e-01, -1.45882130e-01,
          9.04268250e-02,  2.64378667e-01, -3.06109041e-01,
          1.91079974e-01, -4.04161006e-01, -1.32989837e-02,
         -2.73693860e-01, -1.97387803e-02,  9.98928696e-02,
          1.89821377e-01,  8.52607191e-02, -1.89454824e-01,
          5.61528932e-03, -2.03492139e-02, -7.25423023e-02,
          1.46576285e-01,  5.91449961e-02, -2.63094485e-01,
          1.32687315e-01, -8.04068148e-02, -8.72512683e-02,
         -1.19450636e-01, -9.81587842e-02, -6.68988749e-02,
         -4.27254103e-02, -2.07180619e-01, -3.26659739e-01,
         -1.26039803e-01, -2.37366319e-01],
        [ 2.40211990e-02,  2.85286736e-02,  2.61746556e-01,
         -1.38676334e-02,  3.18118483e-02,  4.39975969e-02,
         -7.68524185e-02, -1.57234848e-01, -1.94669068e-01,
          3.18882555e-01, -4.88658398e-02, -1.67995393e-01,
         -1.23443253e-01, -1.29396707e-01,  1.78485975e-01,
         -1.49292350e-01, -2.47980431e-02,  6.22961931e-02,
          5.74783444e-01,  3.94889146e-01, -2.29550585e-01,
         -2.36487374e-01,  2.81770855e-01,  2.27464035e-01,
         -2.79523879e-01, -2.62840778e-01,  9.79290232e-02,
         -3.44797313e-01, -6.13232970e-01, -1.28170419e-02,
          2.15129450e-01,  6.48726970e-02],
        [-1.98808134e-01, -1.43696181e-02, -3.07182491e-01,
          7.65698478e-02,  1.08713277e-01, -1.39903009e-01,
          5.49477935e-01, -6.01190329e-02, -1.28169686e-01,
         -2.91738480e-01, -2.86065713e-02,  1.59863144e-01,
          2.05917120e-01, -1.36870397e-02,  1.65951625e-01,
         -2.88215935e-01, -1.62758157e-01, -1.40558211e-02,
          1.97917119e-01,  8.27607885e-02,  2.40061924e-01,
         -1.77433521e-01,  2.42688805e-01,  7.22875968e-02,
         -9.40830410e-02, -2.17551351e-01,  2.52375621e-02,
         -1.27929360e-01, -4.18628305e-01, -1.42722055e-01,
         -5.32260053e-02,  1.14383355e-01],
        [ 1.74765706e-01, -2.21651092e-01, -1.05811104e-01,
         -2.31797099e-01, -1.75949439e-01, -5.44385165e-02,
         -2.17179283e-01, -3.57430503e-02,  3.01610261e-01,
         -2.05808774e-01, -2.74562966e-02,  6.60574436e-02,
          3.14924300e-01, -2.83227321e-02, -1.47694558e-01,
          1.88490316e-01,  5.57012595e-02, -3.94161940e-02,
          1.89198017e-01,  1.01817168e-01,  7.30364546e-02,
          2.50698384e-02, -2.57705927e-01, -1.97302386e-01,
         -2.54812896e-01, -5.60615305e-03,  1.92062363e-01,
         -1.31396845e-01,  5.32709241e-01, -2.31093392e-01,
          1.93196148e-01,  1.22045860e-01],
        [ 1.51256159e-01, -1.26639590e-01,  2.83580571e-01,
         -1.10389404e-01, -4.01085652e-02, -2.75110304e-01,
         -4.97217104e-02, -1.17459543e-01,  1.47923976e-01,
         -1.36272222e-01,  5.11315884e-03,  1.03477389e-01,
          3.65750082e-02,  1.01816475e-01, -2.99203128e-01,
          1.63339078e-01,  7.99571201e-02, -2.26972789e-01,
          3.15246359e-02,  6.08722819e-03,  4.03592847e-02,
          1.18512303e-01, -2.22513929e-01, -5.52691258e-02,
         -2.64583021e-01,  2.09948942e-02,  9.07204673e-02,
          7.87546411e-02,  2.51553118e-01, -1.90286145e-01,
          1.33051053e-01, -2.32530888e-02],
        [ 1.60594493e-01,  1.13015637e-01,  2.13494524e-01,
         -1.57340258e-01,  5.36372885e-02, -2.04070002e-01,
          3.91348973e-02,  1.29310519e-01, -2.13806689e-01,
          8.22013989e-02, -8.18331435e-04,  1.39060810e-01,
          2.19311230e-02, -4.12159592e-01, -2.38595232e-02,
         -4.31413352e-02,  3.88017558e-02, -2.47628182e-01,
          3.62767160e-01,  1.61873296e-01, -1.76539227e-01,
          1.42116711e-01, -6.18033670e-02,  7.57152289e-02,
          3.44832897e-01, -1.45117953e-01, -8.41000583e-03,
         -2.12142766e-01, -3.01259100e-01,  1.14232399e-01,
         -7.17882859e-03, -2.92070583e-02],
        [-1.48337796e-01, -2.50358060e-02, -2.55069405e-01,
          1.56997129e-01,  2.57517248e-02, -2.82503404e-02,
          2.25710094e-01, -1.29769832e-01,  1.69138491e-01,
         -1.07831927e-02,  1.37194693e-01, -1.30541950e-01,
         -2.98580099e-02, -4.82667349e-02, -5.20644672e-02,
         -7.41159618e-02, -2.43318141e-01,  2.09125727e-01,
          3.95334139e-02,  4.12964448e-02,  2.71865726e-01,
         -2.57499367e-02, -1.07687805e-02, -1.96191192e-01,
          1.57082766e-01,  3.09516788e-01, -1.31539591e-02,
         -1.32652938e-01, -1.49174720e-01,  5.61085297e-03,
         -1.96387351e-01,  3.84174697e-02],
        [-1.43538132e-01,  4.56959829e-02, -1.52971774e-01,
         -1.49862573e-01,  8.75407737e-03,  1.24991704e-02,
          1.78747356e-01, -1.18452936e-01,  1.37812987e-01,
         -2.99503542e-02, -1.11839868e-01, -4.05054480e-01,
          8.66248906e-02, -1.35567963e-01, -5.99610284e-02,
         -3.88776176e-02,  7.88506195e-02, -1.56159893e-01,
         -1.06238835e-01,  1.12221181e-01,  7.23379999e-02,
          5.67380041e-02, -7.27278292e-02,  9.30350870e-02,
          1.59869865e-01,  1.16055235e-01,  1.97423503e-01,
          1.01727033e-02,  1.22227453e-01,  4.40902226e-02,
         -1.90359041e-01,  1.99908584e-01],
        [-5.88824749e-02,  7.34906048e-02, -1.60182595e-01,
         -1.81352347e-01,  7.92063400e-02, -1.40750840e-01,
          1.78425387e-01, -6.68285564e-02, -7.95407146e-02,
         -1.15222707e-01,  8.36169440e-03, -3.25035974e-02,
          2.12828174e-01, -1.40972912e-01,  3.90556874e-04,
          9.11110640e-02, -1.17065623e-01, -1.35026082e-01,
         -2.47537009e-02,  2.34550416e-01,  5.32619022e-02,
          5.48787005e-02, -3.16539735e-01, -8.38912353e-02,
          2.36548558e-01,  1.05007812e-01,  1.14929393e-01,
          1.55611053e-01,  1.02698527e-01, -3.05756312e-02,
         -4.19332599e-03,  6.29228214e-03],
        [ 6.78184032e-02,  1.01962306e-01, -1.06654361e-01,
          6.55250698e-02,  1.04734555e-01, -2.57073373e-01,
         -4.97181229e-02,  1.14816926e-01, -2.87723303e-01,
         -2.00447422e-02,  1.44368678e-01, -1.59077227e-01,
          7.02356547e-02,  1.97159544e-01, -6.58054054e-02,
          1.64821252e-01,  5.32425009e-02, -1.64508164e-01,
         -1.74462825e-01,  3.53442460e-01, -5.78058772e-02,
          1.39408827e-01, -1.35305405e-01, -1.58979729e-01,
          1.22836344e-01,  2.24562556e-01, -1.25151739e-01,
          1.15553252e-01,  9.40825865e-02,  2.83065230e-01,
          4.22331803e-02,  1.19619362e-01],
        [ 4.42247540e-02, -1.24956422e-01,  7.76120201e-02,
         -1.69739366e-01, -1.80474948e-02, -2.79681589e-02,
         -2.71779388e-01,  4.94175665e-02, -1.73499629e-01,
         -1.35258645e-01,  1.78930879e-01,  5.71297184e-02,
          4.37819771e-02,  8.32791254e-02, -3.71406555e-01,
          3.05109501e-01,  2.53927916e-01, -1.81021169e-01,
          6.48475960e-02,  3.10871303e-01, -1.51991054e-01,
          5.65097034e-02, -3.35194200e-01, -8.83305892e-02,
         -6.00943388e-03,  1.11885712e-01,  1.89573765e-01,
          7.30381534e-02,  1.43594131e-01,  3.98145244e-02,
         -1.59760378e-02,  1.24084376e-01],
        [-1.82793494e-02, -6.55556321e-02, -7.64786378e-02,
         -1.51666790e-01,  7.72705972e-02,  5.95467957e-03,
          1.57652423e-01,  3.46806977e-04,  9.34561715e-02,
         -8.93862769e-02,  1.36190861e-01,  4.81531620e-02,
          8.24154392e-02, -1.81816638e-01, -8.11593682e-02,
          1.78196639e-01,  5.69983944e-02,  2.57477015e-02,
         -3.82167161e-01,  1.62138745e-01, -2.29745969e-01,
         -2.55447030e-01, -1.62115052e-01, -1.04622409e-01,
         -1.27662510e-01,  1.83636472e-02,  2.83632189e-01,
         -1.26264200e-01,  2.68272348e-02,  1.68728605e-01,
         -7.32340217e-02,  8.28957260e-02],
        [-3.04278755e-03,  7.84855261e-02, -7.11478740e-02,
         -7.69673735e-02,  4.21156399e-02,  4.13838737e-02,
         -1.76541269e-01,  1.42410517e-01,  1.20223537e-01,
         -2.32414588e-01, -3.11546829e-02,  3.11041921e-01,
          2.95193437e-02, -1.05537273e-01, -1.71488613e-01,
         -6.60036728e-02,  2.15111509e-01, -1.59122497e-01,
          4.11277443e-01,  3.20651799e-01, -1.36421667e-02,
         -1.21514149e-01, -3.33389699e-01, -2.16012821e-01,
          2.19389439e-01, -2.41912290e-01, -1.15759492e-01,
          1.50001124e-01,  1.93508923e-01,  1.94796145e-01,
         -2.97142752e-03, -5.69636188e-02]],

       [[-2.52764374e-01,  1.17065810e-01, -8.90107378e-02,
          5.96097447e-02, -7.95910601e-03, -4.88024838e-02,
         -3.05146538e-02, -3.04764271e-01, -1.55766755e-01,
         -2.13070452e-01,  1.51800094e-02,  1.25502527e-01,
         -3.78560245e-01,  3.83912623e-01,  6.14385679e-02,
         -5.94923086e-02, -2.28012696e-01, -7.64342770e-02,
         -3.89375240e-01, -1.22023694e-01,  1.18409283e-01,
         -1.92332733e-02,  3.45795043e-02, -1.63953617e-01,
         -1.21907949e-01,  4.63798493e-02, -4.69222367e-02,
          2.51925588e-01,  1.88511401e-01,  2.00491846e-02,
         -2.27158833e-02, -1.65814102e-01],
        [-3.95130068e-02, -1.43070310e-01,  8.96323472e-02,
         -3.04259658e-01,  1.87283829e-01, -7.44029135e-02,
         -1.50327191e-01, -2.28213206e-01,  2.55766064e-02,
          1.63868234e-01, -3.15322429e-01, -5.53402640e-02,
          3.50477844e-01, -2.36062720e-01, -1.12085111e-01,
          9.87399966e-02,  1.00163102e-01,  5.70152514e-02,
         -2.61057224e-02, -1.64079294e-01, -6.30947173e-01,
         -8.27350467e-02, -7.25423023e-02, -4.44215164e-03,
          2.56374609e-02,  2.58913577e-01,  1.23528071e-01,
         -4.25524056e-01, -5.82000077e-01, -2.91042626e-01,
          1.06576115e-01, -2.50025600e-01],
        [ 2.85041053e-03, -2.78923333e-01,  6.21860698e-02,
          3.05750310e-01, -2.34388620e-01, -3.33734490e-02,
         -4.95271921e-01, -1.32281244e-01,  2.64884621e-01,
         -1.29869964e-03, -7.55987912e-02,  3.75596166e-01,
          8.86228010e-02,  1.25479043e-01, -2.19287872e-01,
          1.23130910e-01, -3.07128839e-02, -2.31037721e-01,
         -7.60891587e-02,  3.28691900e-01, -2.17558462e-02,
         -5.04953749e-02, -9.19768274e-01, -4.69389617e-01,
         -2.51090288e-01,  1.61836103e-01,  3.15649897e-01,
          3.03763241e-01,  2.92652637e-01,  6.79960400e-02,
          9.45037510e-03, -7.30691180e-02],
        [ 4.70265225e-02,  3.02166551e-01,  1.34914652e-01,
         -1.37831613e-01,  4.08518277e-02, -2.19040379e-01,
         -4.37935367e-02,  3.11287433e-01,  1.03803724e-01,
          1.97574481e-01,  1.98439896e-01,  1.00622281e-01,
         -4.44405861e-02,  4.25027963e-03,  1.77139044e-01,
          1.26277417e-01, -5.35721034e-02,  2.46101901e-01,
          1.13240808e-01,  9.58874524e-02, -1.93399072e-01,
         -1.46500617e-01,  3.02480221e-01,  8.06235895e-03,
         -7.77649879e-02,  9.47409645e-02,  5.13600484e-02,
         -1.34380713e-01, -2.66456038e-01,  1.10753290e-01,
         -1.74797013e-01,  2.11764455e-01],
        [-7.76544493e-03, -2.21523847e-02, -1.28824741e-01,
          7.31145144e-02, -1.09105602e-01, -2.14392468e-01,
         -1.11197948e-01, -2.66619120e-02,  8.20608344e-03,
          1.34510612e-02,  8.78534392e-02, -8.28600004e-02,
         -1.55111596e-01,  1.04516029e-01,  4.53673378e-02,
         -1.23027496e-01, -9.13370028e-02, -1.01771824e-01,
         -4.12922688e-02, -2.05930769e-02, -3.52128930e-02,
          1.13279365e-01,  2.06942677e-01,  3.19325179e-02,
          1.44539833e-01,  2.27289990e-01, -2.86536328e-02,
          3.29353511e-02, -4.72786911e-02, -2.87804097e-01,
         -9.96964201e-02, -2.18237981e-01],
        [ 2.83658087e-01,  1.84967190e-01, -2.64635906e-02,
          1.04604922e-01,  3.87812033e-02,  3.21944878e-02,
         -8.34283233e-02, -3.41067672e-01, -2.36453280e-01,
          3.03143021e-02, -1.63578093e-01,  1.31681293e-01,
          1.62164330e-01,  1.62677705e-01, -1.25502437e-01,
         -2.46668998e-02,  1.44437701e-01, -1.62332103e-01,
         -1.42258212e-01, -2.06456900e-01,  1.65592842e-02,
         -1.20158435e-03, -8.41577232e-01, -4.30740178e-01,
         -1.52767241e-01, -3.54724228e-02, -4.10087332e-02,
          2.61755466e-01,  4.48576242e-01,  2.47675404e-01,
         -1.77676249e-02, -7.93764442e-02],
        [ 3.63768160e-01, -3.75363916e-01,  1.65698126e-01,
         -9.63527635e-02,  8.94142389e-02, -2.40690246e-01,
         -3.51696834e-02,  1.28722742e-01,  1.37815237e-01,
         -2.17257679e-01, -2.98658572e-03,  4.36077476e-01,
         -6.18546456e-02, -3.66788656e-02, -4.88368385e-02,
         -1.69155851e-01,  1.03929035e-01,  6.24555834e-02,
          2.17408285e-01,  4.61581722e-02, -2.63788134e-01,
          4.55575585e-02,  3.75422299e-01, -1.00252643e-01,
          1.74749374e-01, -1.31800860e-01,  1.69729903e-01,
         -8.64378139e-02,  2.88216650e-01,  8.86116400e-02,
          4.18204725e-01, -4.85055074e-02],
        [ 5.90359330e-01,  3.82974505e-01,  6.47207677e-01,
          2.47102663e-01, -1.40252277e-01, -2.59304941e-01,
         -6.76697552e-01,  9.02404413e-02,  2.50032078e-02,
         -8.99245813e-02,  9.16929245e-02, -2.63354480e-01,
         -3.11362535e-01,  2.57369339e-01,  1.53803363e-01,
         -3.12918834e-02, -9.32231620e-02,  4.42343861e-01,
          5.01076758e-01, -2.05921039e-01,  3.94553915e-02,
          9.03737471e-02,  3.48950565e-01,  2.01548561e-01,
          3.33671123e-02, -2.66538501e-01, -2.53389031e-01,
          4.59151626e-01,  1.49785027e-01,  2.58550614e-01,
         -1.04982898e-01, -2.83262014e-01],
        [-8.31293836e-02,  8.86583328e-02, -1.13026574e-01,
         -2.43566588e-01, -2.05136016e-01, -3.58022541e-01,
          8.92003775e-02, -2.67995238e-01, -1.61653776e-02,
          1.52627021e-01, -1.38567477e-01,  3.85997355e-01,
          3.87575954e-01, -2.78120488e-01, -1.23892492e-02,
          1.77189596e-02, -3.86655889e-02, -3.43037061e-02,
          7.12917298e-02, -1.68258145e-01, -4.16545346e-02,
         -2.64589284e-02, -8.33244473e-02, -1.20803177e-01,
         -1.30028605e-01, -2.09843859e-01,  2.04914510e-02,
         -2.96725243e-01, -4.24987793e-01, -1.80607304e-01,
         -1.12648398e-01, -1.14482582e-01],
        [ 1.48461670e-01,  2.01593891e-01, -1.18282296e-01,
          7.89258182e-02, -3.27298716e-02, -1.48102790e-01,
         -1.06599368e-01, -1.93077609e-01, -2.24609673e-01,
          8.05432424e-02, -1.00024074e-01,  1.05708063e-01,
          1.47586301e-01, -1.59786176e-02,  3.38126440e-03,
          1.05746157e-01,  8.96703079e-02, -2.21271396e-01,
          4.82125401e-01,  1.81607366e-01,  3.75483483e-02,
          2.02095211e-02, -3.18159729e-01,  5.13308644e-02,
         -1.93361625e-01, -6.25022799e-02,  2.32636556e-01,
          1.61709309e-01, -6.41113594e-02, -4.10215324e-03,
          3.02845538e-02, -1.06641650e-01],
        [ 2.97925156e-02, -6.12887405e-02, -2.20434234e-01,
          2.21996933e-01,  1.43102080e-01, -4.36615199e-02,
         -7.13740615e-03,  2.42935643e-01,  3.47430468e-01,
          2.83852309e-01,  2.46581018e-01, -3.86041880e-01,
          2.23584935e-01, -2.32040882e-01, -3.90896291e-01,
         -2.31694654e-01, -1.79482475e-01, -5.48120499e-01,
         -1.18749984e-01, -2.09994227e-01, -4.62644435e-02,
          1.78412005e-01,  3.21513899e-02,  8.31706896e-02,
          1.55821756e-01, -3.31573933e-01,  2.82825291e-01,
          5.42465188e-02,  2.97771562e-02,  3.10903907e-01,
          9.97994989e-02,  5.61579596e-03],
        [ 9.23845395e-02, -1.94747210e-01, -7.97382146e-02,
         -8.14635381e-02, -2.02190816e-01, -2.90652931e-01,
         -6.16170883e-01,  9.93666425e-02,  4.72591817e-02,
         -6.68583214e-02,  9.01251882e-02,  2.74685115e-01,
          5.95654488e-01, -1.87957942e-01, -6.29539136e-03,
         -2.32302770e-01,  3.57740559e-02, -6.97439536e-02,
         -2.28273332e-01,  7.23817587e-01, -1.36059985e-01,
         -1.07816145e-01, -6.12575531e-01, -1.80312723e-01,
         -1.14398420e-01,  1.33946491e-03,  4.91664290e-01,
         -6.78409077e-03, -1.61896914e-01,  1.04813534e-03,
         -6.41259411e-03,  2.38856271e-01],
        [-9.34961811e-02,  2.99443025e-02, -7.80619383e-02,
          3.94780263e-02, -1.65431239e-02, -1.98838204e-01,
          2.41181880e-01, -1.78526402e-01,  5.45374416e-02,
          1.10549584e-01,  6.25978187e-02, -2.95021236e-01,
          8.59221965e-02, -2.60985970e-01,  1.64794639e-01,
          2.40944460e-01, -1.13504671e-01,  1.17583610e-01,
          2.80047208e-01, -2.15762392e-01, -1.15069225e-01,
          4.50935028e-02,  4.15610939e-01,  8.46349671e-02,
         -1.85068563e-01,  3.41331422e-01, -9.68599021e-02,
         -1.53432012e-01, -6.14791155e-01, -2.51390666e-01,
          5.24114259e-02, -1.12395622e-01],
        [ 3.73517007e-01, -1.58174559e-01,  4.05160218e-01,
         -7.96150491e-02,  1.30854160e-01, -6.01968706e-01,
         -1.31181888e-02, -3.30013305e-01, -5.99692203e-02,
         -2.56237149e-01, -1.43928751e-01,  9.57082435e-02,
          2.22036988e-01,  1.90313458e-01, -1.08367547e-01,
          1.69247717e-01, -8.42024162e-02,  3.16422693e-02,
          4.42817688e-01, -3.50106210e-01, -1.96701795e-01,
         -1.65469691e-01,  2.40423366e-01,  3.19397566e-03,
         -1.84636846e-01, -3.30926865e-01, -3.83355856e-01,
          2.06913114e-01, -2.31684864e-01,  2.84897760e-02,
          2.91152418e-01, -1.58944786e-01],
        [-3.64618212e-01, -3.63702953e-01, -6.31832033e-02,
         -1.58617329e-02, -3.33453357e-01,  4.15131338e-02,
         -1.88293517e-01,  1.46298155e-01,  6.57035232e-01,
          4.28748177e-03,  3.87684196e-01,  6.99126482e-01,
          1.81730300e-01,  1.68796971e-01,  1.84882194e-01,
          1.72125787e-01,  1.14950351e-01,  1.47373870e-01,
         -2.29724735e-01,  4.90858525e-01,  3.66885424e-01,
         -5.44606671e-02, -1.29517400e+00, -2.24523872e-01,
         -3.30842584e-01,  6.15318827e-02,  3.81312996e-01,
          2.87902981e-01,  2.37001017e-01, -5.39804161e-01,
          3.19721997e-02,  7.27288797e-02],
        [-1.83772102e-01,  5.53958453e-02, -3.05435389e-01,
         -1.10497467e-01, -1.95988461e-01, -3.74811918e-01,
          1.42094344e-01, -1.10783570e-01, -1.20758377e-01,
          1.31527916e-01, -1.29882246e-01, -1.16538396e-02,
          4.84557487e-02,  1.41505361e-01,  5.48804440e-02,
          4.07922089e-01, -1.78406209e-01, -1.43291429e-01,
         -4.99679148e-02,  5.31182438e-02, -6.89485222e-02,
          6.53426647e-02,  1.75078779e-01, -2.21478492e-01,
          8.09838697e-02,  1.50570422e-01,  1.08988099e-01,
          1.43688649e-01, -5.45187704e-02, -5.65795451e-02,
         -1.42775148e-01,  1.02863617e-01],
        [ 7.58695230e-02, -8.67041852e-03,  1.14092529e-01,
         -2.94104308e-01,  3.95934097e-02, -1.36798128e-01,
         -3.25588845e-02,  2.94650435e-01,  8.55132937e-02,
          1.65345177e-01,  2.60137111e-01,  2.61427611e-02,
          7.21217915e-02,  1.70728937e-01, -8.64654332e-02,
          2.43911356e-01,  1.58404946e-01, -4.37746421e-02,
         -1.22398145e-01, -2.55108416e-01, -5.81174381e-02,
         -7.20800608e-02,  1.00258924e-01,  1.47607654e-01,
         -1.39443457e-01, -1.18301891e-01,  8.67824480e-02,
          6.18605837e-02,  2.48828739e-01,  1.50047228e-01,
          1.66711584e-01,  2.16658413e-01],
        [ 5.32820597e-02, -2.57373601e-03, -3.17142084e-02,
          2.23345175e-01, -3.95168006e-01, -2.68450063e-02,
         -2.04039812e-01,  7.40000606e-02,  5.09461224e-01,
         -1.38928279e-01, -6.19089939e-02,  4.32978332e-01,
          4.42927927e-01, -2.30155021e-01, -1.67343363e-01,
          6.76021650e-02, -1.11297024e-02, -2.48433098e-01,
         -3.76493745e-02,  1.70586899e-01,  3.04155916e-01,
          7.35265985e-02, -1.00349474e+00, -1.44800231e-01,
         -3.30724239e-01,  2.98738450e-01,  1.74584001e-01,
          5.96104003e-03, -6.16770908e-02, -4.13363010e-01,
         -1.48247302e-01, -1.03652120e-01],
        [ 1.98391497e-01, -2.55596489e-02, -1.00985639e-01,
         -1.57219589e-01, -3.03740978e-01, -5.71191192e-01,
         -1.00487992e-01,  3.51558290e-02,  5.99151812e-02,
         -6.75816387e-02,  1.12516582e-01,  9.93572995e-02,
          1.61003858e-01,  1.60780698e-02, -8.21677670e-02,
          4.74020183e-01, -1.11252367e-01, -2.25463480e-01,
         -6.93121254e-02, -3.46792966e-01, -2.86578149e-01,
          3.23930353e-01, -2.64456004e-01, -2.96499014e-01,
         -2.86730696e-02, -2.16969565e-01, -2.24930078e-01,
          1.41698331e-01,  1.16203070e-01,  4.81985286e-02,
          5.45192920e-02, -2.36398235e-01],
        [ 3.90143096e-02,  1.12869725e-01,  3.66302356e-02,
         -1.69069111e-01,  3.11639570e-02, -2.37875208e-01,
         -2.40576833e-01, -2.85555236e-02,  1.68673247e-01,
          1.54728051e-02, -1.31994396e-01, -3.90914008e-02,
          1.48145944e-01, -2.56221980e-01,  6.64283633e-02,
          3.26122999e-01, -1.45018667e-01, -6.59671202e-02,
          2.67433021e-02, -3.83811146e-02, -3.59115958e-01,
         -2.01599300e-01, -1.46666810e-01, -2.04081848e-01,
          7.66947120e-02,  4.81792120e-03, -5.81620671e-02,
         -6.13625310e-02, -1.56537607e-01,  1.48357272e-01,
          8.39382634e-02, -2.19697461e-01],
        [ 1.07296575e-02,  8.00490528e-02, -2.54077941e-01,
         -1.58344090e-01, -1.02586485e-01, -3.40744644e-01,
         -6.05042696e-01,  1.13475010e-01,  1.71232745e-01,
         -1.01997353e-01,  1.04737841e-01,  3.14031363e-01,
          4.84265924e-01, -3.67869377e-01,  4.80368594e-03,
         -6.74304590e-02, -1.33982480e-01, -1.52974362e-02,
          2.11614653e-01,  4.72559452e-01, -2.22157478e-01,
          3.90434638e-02, -3.10501963e-01, -1.22484565e-01,
         -2.10644290e-01,  1.37162760e-01,  3.91196966e-01,
         -2.26676181e-01, -6.27365828e-01,  3.87971699e-02,
          4.14852228e-04,  1.40937462e-01],
        [ 1.28314188e-02,  2.51967490e-01, -1.81755334e-01,
         -4.28794697e-02, -8.80811512e-02,  1.44051284e-01,
          9.62598473e-02, -2.56972581e-01,  7.41599128e-02,
         -5.61969914e-02, -3.56701106e-01,  5.84018677e-02,
          2.06832051e-01, -5.20190477e-01, -2.75839865e-01,
         -1.21193752e-02,  4.03967500e-02, -1.61728829e-01,
          1.68168619e-01, -8.08002502e-02,  2.54448541e-02,
         -1.31584555e-01, -4.14911062e-01, -1.92580312e-01,
         -5.27100973e-02, -2.63715023e-03,  3.22897166e-01,
         -3.20472777e-01, -2.82041281e-01,  9.01345313e-02,
          8.47105607e-02, -3.05928141e-01],
        [ 1.79335698e-02, -5.48026375e-02, -1.08458139e-01,
          2.04297621e-03,  1.12991281e-01,  6.71923310e-02,
          1.50201261e-01, -1.94756657e-01,  1.59284979e-01,
         -4.89143804e-02, -6.09636530e-02, -2.58075774e-01,
         -7.10825250e-03,  2.72164941e-01,  1.25503749e-01,
          2.11472005e-01, -3.43840241e-01,  1.96916223e-01,
         -4.92768511e-02, -1.71562284e-01,  7.30194673e-02,
          9.25711617e-02, -3.61804152e-03, -1.59115829e-02,
         -3.33597571e-01,  2.77114883e-02,  3.22406515e-02,
          1.72505915e-01,  3.70633543e-01, -9.42397788e-02,
          1.04620099e-01, -3.18640023e-02],
        [ 7.77608063e-03,  1.16279691e-01,  2.62106478e-01,
          2.88039111e-02,  1.23807445e-01, -3.30303371e-01,
          9.09383893e-02, -3.06160390e-01, -2.33203962e-01,
         -4.29412127e-02,  5.56162372e-02, -7.20955059e-02,
         -2.91356742e-01,  2.26695716e-01, -9.01905820e-02,
          3.71300429e-02, -2.11589634e-01,  6.45750761e-02,
          1.08291633e-01,  4.14290652e-02,  1.13788635e-01,
         -1.86499760e-01,  1.11133434e-01, -9.44123268e-02,
         -2.03679129e-01,  5.60767464e-02, -6.62290677e-02,
          3.28136861e-01,  3.22192401e-01,  6.49826378e-02,
          2.23141626e-01, -2.03905270e-01],
        [ 1.08219117e-01, -5.37538454e-02, -4.67339456e-02,
          1.09913550e-01, -2.25599557e-01, -2.96507925e-01,
         -2.21446052e-01, -3.64814922e-02, -1.41305476e-01,
         -2.44017690e-01,  1.77417144e-01,  6.41296953e-02,
          3.66024077e-02,  8.31359848e-02, -1.17428198e-01,
          3.63286108e-01,  1.46691829e-01,  3.66715975e-02,
          1.07902801e-02, -3.35388094e-01, -5.72250597e-02,
          8.42940062e-02,  1.47371054e-01, -1.05192490e-01,
         -2.35786170e-01, -1.47875801e-01,  9.23409835e-02,
          3.52563024e-01,  3.17820579e-01,  2.39491880e-01,
          9.28304195e-02, -1.81609347e-01],
        [ 1.40544400e-01,  2.97074839e-02,  2.32192082e-03,
         -4.89039682e-02, -4.04616185e-02, -2.64820725e-01,
          2.53441811e-01,  5.56838922e-02,  1.55530766e-01,
          3.80204543e-02, -1.73690096e-01,  2.24090427e-01,
          3.39712650e-01, -2.37886846e-01, -1.72234371e-01,
          1.87157784e-02,  2.75611222e-01, -1.81633592e-01,
          2.16270179e-01, -9.14414003e-02, -9.72208902e-02,
          2.67962188e-01, -2.26797625e-01,  7.87920505e-02,
          2.43621632e-01, -1.90532401e-01, -7.82349929e-02,
         -2.37746283e-01, -1.10142075e-01, -8.26617554e-02,
          2.20752180e-01, -1.15696676e-01],
        [ 1.59616649e-01,  1.99635178e-01,  1.37082294e-01,
          2.26968944e-01, -1.57136023e-01,  1.08214721e-01,
          3.39672305e-02, -3.25987907e-03,  1.56970620e-01,
         -2.03898937e-01, -1.24108091e-01, -1.40342638e-01,
         -5.23604192e-02,  1.24791607e-01, -2.96437331e-02,
          1.23518519e-02,  1.93125024e-01, -1.55330762e-01,
          1.81391425e-02, -1.06337816e-01,  2.37640515e-01,
          1.33173332e-01, -2.51620889e-01, -5.79446591e-02,
          5.79769015e-02,  1.49893360e-02,  1.95251808e-01,
          1.70773432e-01,  3.01903725e-01, -3.99193689e-02,
         -1.04506232e-01, -7.96868280e-02],
        [ 3.73774558e-01,  1.80712193e-01,  1.52431920e-01,
         -5.15083298e-02, -4.77773137e-02,  8.05094391e-02,
         -2.11945444e-01,  8.55290368e-02,  1.23480767e-01,
          3.25627043e-03,  5.99284619e-02, -2.35545263e-01,
          9.67167988e-02,  8.19114447e-02, -5.53574692e-03,
          6.81617558e-02,  1.04761142e-02, -1.16748661e-01,
          1.10252380e-01, -8.22360143e-02, -5.25809899e-02,
          1.63757824e-03, -2.77062714e-01, -3.61497737e-02,
         -3.34417671e-02, -1.45443836e-02,  1.07228898e-01,
         -4.27200273e-02,  3.07755888e-01,  7.69819543e-02,
         -1.95122823e-01, -8.15081410e-03],
        [ 5.02043009e-01,  8.82372186e-02,  4.16908413e-01,
         -9.57460478e-02,  2.17033684e-01, -1.62763193e-01,
          3.03358858e-04, -3.47051490e-03,  1.55755177e-01,
         -1.86726913e-01, -1.64021105e-02, -1.11545324e-01,
          1.92908511e-01,  2.13448122e-01, -1.90947875e-01,
          1.32840611e-02, -1.07427657e-01,  5.88190043e-03,
          2.26931989e-01, -8.64325240e-02, -3.99434388e-01,
         -1.90697983e-01, -2.70007104e-02,  8.08381941e-03,
          1.74906328e-02,  8.82855132e-02, -1.07049733e-01,
          1.96780950e-01, -3.32050234e-01,  7.00350851e-02,
          1.17678747e-01, -2.02356681e-01],
        [ 5.83936833e-02, -3.24430391e-02,  1.69144765e-01,
          7.22683147e-02,  5.92886358e-02, -1.27614081e-01,
         -3.72502804e-01, -2.06733886e-02,  5.57058305e-03,
         -1.39254212e-01,  2.95339942e-01, -2.22776346e-02,
         -2.30512731e-02,  3.97709578e-01, -1.59693882e-01,
          4.25721914e-01, -1.79592557e-02, -6.65889541e-03,
         -3.29888351e-02, -5.31889088e-02, -3.90672050e-02,
         -1.82478681e-01, -4.48940881e-02, -1.52014673e-01,
         -2.49352783e-01,  6.29026592e-02, -5.27569018e-02,
          2.23914161e-01,  2.48901978e-01, -1.13408178e-01,
          7.46167526e-02,  3.74604285e-01],
        [-1.52919516e-01,  1.53889313e-01,  2.80801151e-02,
         -8.35721344e-02,  1.42491922e-01,  9.25523192e-02,
         -8.79839808e-02,  2.46169254e-01,  1.65420234e-01,
         -3.69993933e-02,  7.58414492e-02,  1.35808587e-01,
          8.77723098e-02, -7.18127489e-02,  1.69693962e-01,
          2.90122092e-01, -2.25962594e-01,  1.38567701e-01,
         -2.91866302e-01, -1.98078007e-01, -1.53472871e-02,
         -1.92842007e-01,  1.31556526e-01, -2.15416893e-01,
         -2.46367618e-01,  1.70627758e-01, -1.21124007e-01,
         -2.34180704e-01, -1.56050041e-01,  2.97045887e-01,
         -1.13507524e-01,  3.14534932e-01],
        [-3.12874496e-01, -1.51488096e-01, -1.42155275e-01,
         -5.22434153e-02, -1.17226057e-02, -6.39346093e-02,
          4.20493275e-01,  1.50584206e-01,  1.62541330e-01,
         -9.56661999e-02, -5.28530497e-03, -1.06448732e-01,
         -1.29154950e-01,  3.93567160e-02,  1.26530126e-01,
          7.00013787e-02,  5.12873195e-02,  2.59966254e-01,
         -3.07950228e-01, -2.20335260e-01,  1.31295741e-01,
         -2.83610784e-02,  1.07882738e-01,  2.10681260e-01,
         -2.88564228e-02, -2.03590944e-01, -4.09797858e-03,
         -4.84272912e-02,  1.52077720e-01,  3.72667983e-02,
         -1.13392189e-01, -4.98004630e-03]],

       [[ 1.63054988e-01,  1.12584017e-01,  1.31407574e-01,
          3.87712158e-02, -2.39759266e-01, -1.35469157e-02,
          2.35402063e-02, -1.11224040e-01, -2.50557482e-01,
         -1.93233147e-01,  1.00287043e-01, -6.05086386e-02,
         -3.13631386e-01,  2.51535084e-02,  7.58429468e-02,
         -2.64386088e-01,  1.93776980e-01, -3.28429997e-01,
          1.66067228e-01, -2.50431061e-01,  3.94109115e-02,
         -6.47221580e-02,  1.68366998e-01, -1.25401586e-01,
          9.00876746e-02,  1.23116992e-01, -1.99642498e-02,
         -1.14562763e-02, -1.92025512e-01,  1.55170932e-01,
         -1.49510741e-01,  7.40859136e-02],
        [ 2.08963044e-02, -2.64455318e-01,  2.63088554e-01,
          1.65140331e-01, -4.22477514e-01, -7.52185658e-02,
         -1.01968527e+00, -2.39361987e-01, -3.91878963e-01,
          1.08228795e-01, -2.64156669e-01,  2.00332358e-01,
         -1.16998978e-01,  4.53075916e-01, -1.00189425e-01,
         -1.14048719e-01, -9.21061635e-02,  2.99935341e-02,
          1.16407573e-01,  5.22027552e-01,  1.08484946e-01,
          1.28186911e-01, -7.36207068e-02,  9.81507152e-02,
         -1.15828097e-01, -4.38027717e-02, -6.49107322e-02,
          1.88879728e-01,  2.24303916e-01, -2.68505424e-01,
         -1.37996942e-01, -9.26902890e-02],
        [-6.08321011e-01, -2.55699635e-01, -3.43382299e-01,
          2.39422992e-01,  2.49338090e-01, -4.90530953e-02,
          2.57339627e-01,  1.17989995e-01,  2.42640674e-01,
         -2.12312281e-01,  5.95918782e-02,  6.45950064e-02,
          1.33531662e-02,  5.92981458e-01,  2.77319878e-01,
         -2.71513648e-02, -5.72532892e-01,  2.70094126e-01,
         -1.96148247e-01, -6.55311793e-02,  2.37710267e-01,
          1.18281022e-01,  6.82116866e-01,  2.30341151e-01,
          3.82908508e-02,  8.24195985e-03, -3.74816865e-01,
          6.29043162e-01,  6.93979204e-01, -6.72388002e-02,
         -6.15363233e-02,  7.22432835e-03],
        [-2.68543333e-01, -1.51220411e-01, -1.73942909e-01,
         -3.67623508e-01,  1.62244812e-01,  6.17818944e-02,
          1.56240121e-01,  3.08336258e-01,  3.44872400e-02,
         -2.90369987e-01, -4.66125682e-02, -2.19482616e-01,
          2.10958630e-01,  4.01534066e-02,  2.93617815e-01,
          2.91720897e-01, -1.29828081e-01,  2.79705137e-01,
         -1.36152506e-01, -1.35816097e-01,  9.36725270e-03,
         -1.96333602e-01,  5.96693121e-02, -1.03403544e-02,
          5.63306250e-02,  2.51605250e-02,  1.70615599e-01,
         -2.61003494e-01, -5.50308302e-02, -9.19348095e-03,
          2.86918700e-01,  1.88476831e-01],
        [-5.34996390e-03, -2.26897702e-01, -9.36031044e-02,
          1.01138525e-01, -1.24417752e-01, -5.04056513e-02,
          1.00375623e-01, -1.17401659e-01,  2.36035269e-02,
          2.40266137e-02,  7.43927285e-02, -9.74846855e-02,
          3.25849280e-02,  8.28464106e-02, -8.12015831e-02,
         -5.56767657e-02,  2.07742546e-02, -7.80658647e-02,
          1.16503090e-02,  3.58754136e-02, -6.39062896e-02,
          4.94477488e-02,  3.45157497e-02, -2.52095126e-02,
          2.32150048e-01,  3.09579760e-01, -2.96566505e-02,
         -5.24354950e-02,  1.43255129e-01, -1.01552472e-01,
          6.22185133e-02, -1.53207481e-01],
        [-2.77753741e-01,  2.79770792e-01, -2.07742602e-02,
         -9.50734038e-03,  9.62944850e-02, -3.22311260e-02,
          5.00290275e-01, -4.98491079e-02,  3.57541233e-01,
          1.05360493e-01,  2.48940885e-02, -1.97889879e-01,
         -2.79029727e-01,  1.46229491e-01,  3.49723130e-01,
         -9.09844339e-02, -2.59753972e-01,  1.01116501e-01,
         -3.60305876e-01, -1.04566984e-01,  1.11865565e-01,
          8.06873441e-02,  5.22071302e-01,  2.82847881e-01,
          6.93482608e-02, -7.35361800e-02,  5.99979907e-02,
          2.15662748e-01,  5.53781748e-01, -6.49700224e-01,
         -2.04615250e-01,  1.03682183e-01],
        [ 3.54621232e-01, -2.70804137e-01, -2.89437808e-02,
          3.30729246e-01, -2.80724466e-02, -1.72370031e-01,
         -2.38953363e-02,  6.59059733e-02, -2.86396947e-02,
         -1.99418336e-01, -9.68061388e-03,  3.24486226e-01,
          1.03560902e-01, -8.93458053e-02,  1.49024442e-01,
         -1.30799264e-01,  3.00571680e-01,  1.00145273e-01,
          1.60195425e-01, -1.16704270e-01, -2.89114684e-01,
         -1.55149512e-02,  6.06390417e-01,  3.74243036e-02,
          2.34689578e-01, -2.20074281e-01,  2.92252183e-01,
         -1.22038655e-01,  9.34785530e-02,  1.52890697e-01,
          4.36887026e-01, -1.99831650e-01],
        [-3.99065465e-01, -3.13829154e-01, -2.73627937e-01,
          1.09481020e-02,  4.64704424e-01, -5.12944937e-01,
          6.27222806e-02,  1.82032827e-02,  2.12950762e-02,
         -2.35267624e-01,  6.94442168e-02, -4.23600478e-03,
         -1.06302805e-01, -6.38853729e-01,  1.59532484e-02,
          6.85638189e-02,  1.56555012e-01, -1.54486045e-01,
         -3.08905870e-01,  9.74135101e-02, -5.43465853e-01,
          1.32099032e-01, -4.28122729e-01, -4.78751808e-02,
          2.50835009e-02,  1.85432553e-03,  7.64873996e-02,
         -2.05641493e-01, -3.72779638e-01, -1.44316042e-02,
          2.89052814e-01, -1.11403517e-01],
        [-3.97191733e-01,  8.97248238e-02, -1.48422882e-01,
         -2.70689309e-01, -2.65252918e-01, -2.35103980e-01,
         -1.91156358e-01, -3.14502984e-01, -1.20446950e-01,
         -1.62729546e-01, -3.14898014e-01,  8.49486366e-02,
         -9.86090973e-02, -1.68347247e-02, -7.13269562e-02,
         -1.19025260e-01, -2.40869716e-01, -5.38764708e-02,
          9.79988575e-02,  1.32049993e-01, -1.44586489e-02,
          8.20611715e-02,  3.50295812e-01, -2.06331417e-01,
         -1.56236932e-01, -1.18221462e-01, -3.46790791e-01,
          1.72821954e-02,  3.03577594e-02, -2.91845053e-01,
         -2.76314914e-01, -2.47732207e-01],
        [-2.76280910e-01, -8.27973709e-02, -3.23667824e-01,
          2.12085694e-01,  1.61304042e-01,  7.59107023e-02,
          1.09673426e-01, -2.49682590e-01, -2.99520403e-01,
         -6.32049739e-02, -2.56855279e-01,  2.61085331e-01,
         -2.81608492e-01,  1.50127098e-01,  5.07508740e-02,
         -2.67481416e-01,  2.37578154e-01,  2.01032296e-01,
         -2.25259870e-01,  1.91923052e-01,  2.90794939e-01,
          1.02509558e-01,  6.89347014e-02, -3.59064527e-02,
          5.82271576e-01,  7.50966836e-03,  1.76976830e-01,
          2.25620806e-01,  7.43489787e-02, -1.42868280e-01,
         -8.53828341e-02, -8.62178281e-02],
        [ 1.50338247e-01,  6.52662367e-02, -2.16530353e-01,
          3.92103076e-01,  1.98717445e-01, -1.65047850e-02,
          1.50367454e-01, -2.97957323e-02,  6.94695637e-02,
          4.45683599e-01,  1.99404746e-01, -7.58135691e-02,
          4.40065637e-02, -2.37966999e-01, -5.69307134e-02,
         -1.95425972e-01, -2.83341974e-01, -4.13296789e-01,
         -2.37657949e-01, -8.49325396e-03,  3.34548578e-02,
          3.88628423e-01, -1.16169974e-01,  1.96620002e-01,
          2.02638075e-01, -9.97948572e-02,  8.67419094e-02,
          1.44701689e-01, -1.46397367e-01,  1.53871447e-01,
          2.61969008e-02, -1.32348821e-01],
        [-7.33389497e-01, -2.66081631e-01, -4.35962617e-01,
          2.17389390e-01,  1.41425282e-01, -2.20451087e-01,
         -2.07714736e-01,  1.43024415e-01,  3.11747026e-02,
         -7.99969137e-02, -7.71966949e-02,  1.41704634e-01,
          1.26807973e-01,  2.61409372e-01,  9.63206515e-02,
         -8.31762776e-02, -1.88148007e-01,  2.58908659e-01,
         -6.82310283e-01,  7.46567488e-01,  6.38715252e-02,
          1.96115494e-01,  5.45644820e-01,  5.35895303e-02,
          5.92586659e-02, -1.12888359e-01, -1.01645719e-02,
          5.69034219e-01,  4.88353014e-01,  3.11436325e-01,
         -1.64449528e-01, -5.40547036e-02],
        [ 1.26040876e-01,  1.85718551e-01,  2.22878158e-01,
         -1.08249336e-01,  4.79805730e-02, -1.30242512e-01,
         -1.97665155e-01, -2.62926430e-01, -2.83770412e-01,
         -7.52208233e-02, -1.84484348e-01, -4.74029779e-02,
         -1.53094064e-02, -2.31148243e-01, -1.67237610e-01,
         -8.76746420e-03,  1.44304316e-02,  7.22568110e-03,
          3.53773803e-01, -4.11617802e-03,  5.76369762e-02,
         -8.13062415e-02, -3.49204719e-01, -3.06775540e-01,
          3.51484627e-01, -3.28409702e-01,  9.72197652e-02,
         -1.28953651e-01, -1.95612330e-02, -2.78461576e-01,
         -2.30794847e-01, -4.07627881e-01],
        [ 1.82361960e-01,  3.51916328e-02,  3.15672569e-02,
         -3.24140638e-01, -1.92073584e-01, -2.92728961e-01,
         -2.21623451e-01, -1.67517290e-01, -2.20131367e-01,
         -6.11298904e-02, -9.85524580e-02, -7.79219717e-02,
         -1.34091638e-02, -4.20994461e-01, -1.37558058e-01,
          3.86069089e-01, -4.57263999e-02,  6.46163300e-02,
          2.14592248e-01, -1.52935430e-01, -6.11687541e-01,
         -3.65201682e-01,  3.06132827e-02,  4.37985696e-02,
         -1.33228689e-01, -2.11147472e-01, -9.73499753e-03,
         -3.85571688e-01, -3.77221733e-01, -8.63042548e-02,
         -1.73921302e-01, -1.80511490e-01],
        [-4.30937916e-01, -3.08507472e-01, -1.90352842e-01,
          2.78262701e-02,  2.83439279e-01,  4.25342619e-01,
          6.04250193e-01, -3.91398698e-01, -9.25326720e-02,
          8.11397359e-02, -3.86928618e-01,  2.07036524e-03,
         -1.30761668e-01,  6.98544979e-01,  1.11868456e-01,
          2.03747317e-01, -6.16778433e-01,  3.58913839e-01,
         -1.99000552e-01, -1.87063739e-01,  2.41361558e-01,
         -2.33516276e-01,  5.13069928e-01,  2.95733988e-01,
          5.09197712e-01,  1.88749373e-01, -4.91082937e-01,
          2.15792149e-01,  5.65241933e-01,  8.86225551e-02,
         -3.91517043e-01, -7.45782396e-03],
        [ 1.64812759e-01,  2.52914935e-01, -3.14897560e-02,
         -3.38039815e-01, -1.22499712e-01, -2.11815447e-01,
         -1.84957590e-02, -1.78053394e-01, -2.58439183e-01,
          8.06090906e-02, -3.32081497e-01, -5.11298701e-02,
          6.64164796e-02, -4.07992393e-01, -2.36671895e-01,
          1.73228040e-01,  1.24078449e-02, -3.25744927e-01,
          2.62357712e-01, -1.02301531e-01, -3.12828511e-01,
         -2.50893950e-01, -1.62740231e-01, -3.28853428e-01,
          3.94354790e-01,  9.55567360e-02,  5.11503443e-02,
         -3.89084041e-01, -2.89790690e-01,  2.31254362e-02,
          3.48142497e-02, -1.25151128e-01],
        [-1.86972573e-01, -2.72733122e-02,  4.70193662e-02,
         -1.41342416e-01, -2.16604680e-01,  2.02849340e-02,
          2.21295819e-01,  3.40927988e-01,  4.92182374e-02,
         -1.93656921e-01,  1.19348206e-01, -4.99679148e-01,
          7.34612998e-03,  1.67902753e-01,  6.03261888e-02,
         -1.83256641e-02, -1.74095444e-02,  3.32039386e-01,
         -4.79195356e-01, -2.45110705e-01, -1.02246091e-01,
          3.39883752e-02,  1.38256580e-01, -2.24858802e-02,
          7.09494576e-02,  1.61607131e-01, -1.25734910e-01,
         -2.08310232e-01,  1.64382234e-01,  2.18946800e-01,
          6.20875582e-02,  2.59418905e-01],
        [-4.52420354e-01, -9.24476385e-02, -4.05562162e-01,
          4.09968734e-01,  2.08364829e-01,  1.07357182e-01,
          2.86389440e-01, -2.12562740e-01, -1.23812281e-01,
          2.32742056e-01, -1.95629567e-01,  2.31689438e-01,
         -1.07289225e-01,  2.10245952e-01,  9.92877409e-02,
         -3.40949558e-02, -4.30143535e-01,  7.31291696e-02,
         -4.23280746e-01, -1.94728613e-01,  4.65784669e-01,
          1.34670094e-01,  5.06333530e-01,  2.32302234e-01,
          2.11673230e-01,  1.44665793e-01, -1.10142462e-01,
          5.56665026e-02,  3.35038394e-01,  2.73441873e-03,
         -3.54467809e-01, -4.39507008e-01],
        [-3.04523587e-01, -5.47906756e-02, -3.19142878e-01,
         -3.40207405e-02,  4.53455336e-02, -2.70117342e-01,
          1.57705173e-01, -2.01764405e-01,  3.49666290e-02,
         -8.85495842e-02, -2.92710334e-01, -3.15257430e-01,
         -3.04084927e-01,  2.17285454e-01,  3.68760042e-02,
          1.44171029e-01, -1.09195292e-01, -4.62040007e-02,
         -1.57522500e-01,  9.25573558e-02,  3.01856697e-01,
          3.96376818e-01,  2.20412135e-01,  9.90751386e-02,
          1.46902472e-01, -2.15985030e-01, -2.05388799e-01,
          2.98307151e-01,  2.19560698e-01, -2.48103753e-01,
          6.98696971e-02, -3.56093317e-01],
        [-8.25772882e-02, -2.33143657e-01, -3.08198005e-01,
          1.13269374e-01, -4.48041648e-01, -3.87719981e-02,
         -5.04055142e-01, -9.98370871e-02, -1.52094383e-02,
         -1.66945323e-01,  6.13265596e-02,  5.85970245e-02,
          3.31964672e-01, -3.07850447e-02,  3.50995250e-02,
          2.59900182e-01,  2.14551967e-02, -1.94147527e-01,
         -1.49227425e-01,  9.91898775e-02, -2.40544617e-01,
          7.75390863e-02, -6.40200451e-02,  8.40288997e-02,
         -1.46603495e-01, -1.43501580e-01, -1.27178943e-02,
          2.07696199e-01, -2.00399250e-01, -5.71484305e-02,
         -2.66049784e-02, -1.62663698e-01],
        [-5.48849046e-01, -6.15989380e-02, -5.79222143e-01,
          2.17451230e-01, -8.69365633e-02, -2.62545981e-02,
         -4.20654863e-01,  8.79748389e-02,  1.11471014e-02,
         -3.20281237e-01,  2.51614563e-02,  3.83878231e-01,
          3.12652439e-01,  5.46900690e-01,  9.83706787e-02,
          9.15926695e-02, -2.07304329e-01,  1.77022099e-01,
         -6.37420475e-01,  5.18795848e-01,  1.82332084e-01,
         -3.55550391e-03,  2.78475851e-01,  2.11244792e-01,
          1.28990918e-01,  8.17984715e-02, -4.60019894e-02,
          4.59893644e-01,  6.25377059e-01,  2.03616932e-01,
         -1.54266283e-01,  2.58239992e-02],
        [-4.94475543e-01,  1.60018191e-01, -1.02111623e-01,
          2.22779974e-01,  4.97298874e-02, -1.95204467e-01,
         -1.30669490e-01, -2.42495537e-01,  4.24748287e-03,
         -3.00004154e-01,  1.19133890e-01,  2.00827777e-01,
          1.78152680e-01,  1.18287317e-01,  2.72541404e-01,
          4.69929390e-02, -8.44817162e-02,  3.42529789e-02,
         -3.87955040e-01,  9.09288973e-02,  4.67979670e-01,
          4.78249751e-02,  1.85514092e-01,  2.43850797e-01,
         -6.48907274e-02, -1.18946560e-01, -2.80233920e-01,
          3.97086054e-01, -4.94756922e-02, -1.70673370e-01,
         -2.00152084e-01, -2.62179881e-01],
        [ 1.82956904e-01,  4.88531850e-02, -4.88256998e-02,
          7.44916946e-02,  2.97271069e-02, -2.03001112e-01,
          1.04539134e-01, -1.05732664e-01, -9.90922600e-02,
          4.47100587e-03,  9.26838443e-02, -5.60834073e-02,
          4.91113076e-03, -1.92471996e-01, -3.01874638e-01,
         -9.32680890e-02,  2.43347362e-01, -3.86141151e-01,
         -1.84876412e-01, -3.19214970e-01, -1.25076488e-01,
         -1.36432767e-01, -3.26398671e-01,  8.59578773e-02,
          2.97209173e-01, -1.56000331e-01,  9.72869322e-02,
         -5.57822641e-03, -2.26539239e-01,  1.28027394e-01,
         -1.87158585e-01,  1.02401681e-01],
        [ 5.69043271e-02,  1.45961985e-01,  1.08927935e-01,
          5.47879301e-02,  2.04006687e-01, -3.01077694e-01,
          1.94158271e-01, -1.90388747e-02, -9.43351984e-02,
         -1.29457861e-01,  6.49950728e-02,  1.32726878e-01,
         -6.90001771e-02, -1.15779757e-01, -1.87104777e-01,
         -3.26232873e-02,  1.43855721e-01, -6.33010343e-02,
          6.47066757e-02, -2.36789346e-01, -1.52103141e-01,
         -2.29322761e-02, -1.90318286e-01, -5.87975532e-02,
          4.61478718e-02, -7.20203370e-02,  6.54336587e-02,
         -2.27871701e-01, -2.20148265e-01, -1.07951239e-01,
         -9.68025923e-02,  3.62097472e-02],
        [-4.84275013e-01, -3.40232179e-02, -3.40022266e-01,
         -7.24107996e-02,  2.15596687e-02, -1.01925835e-01,
         -8.30387771e-02, -1.33017167e-01,  1.36825576e-01,
         -2.61604898e-02,  2.42556874e-02, -5.33613086e-01,
         -2.99410313e-01,  1.29187018e-01, -8.18689615e-02,
         -1.42341882e-01, -6.01379275e-02, -9.24065895e-03,
         -3.73069793e-01, -8.75978917e-02,  8.64973143e-02,
         -2.57336169e-01,  4.18309063e-01,  2.68940508e-01,
          5.13081364e-02,  1.20395876e-01, -1.45918846e-01,
          5.94009496e-02,  2.24333048e-01, -1.34441465e-01,
         -6.91319555e-02, -1.19844854e-01],
        [ 1.23235077e-01,  5.25639616e-02,  1.29366353e-01,
         -1.30159587e-01, -1.96816355e-01,  3.22036296e-02,
         -1.93062708e-01, -2.07740352e-01, -3.49002570e-01,
          1.36456087e-01, -1.87009946e-01, -5.44788204e-02,
         -6.16875514e-02,  1.66792303e-01,  1.40811503e-02,
         -3.48266453e-01, -1.90345719e-01, -1.80185819e-03,
         -4.88127768e-02,  3.61784548e-02,  8.72030109e-02,
          7.95125067e-02,  2.92885959e-01,  7.77072087e-02,
          3.24754357e-01, -1.78459696e-02, -3.22804868e-01,
          4.30529676e-02, -2.22704858e-02, -3.33034664e-01,
         -2.92872310e-01, -3.81360389e-02],
        [-1.59281179e-01,  7.36706257e-02, -2.90844534e-02,
          9.10751969e-02,  1.08863056e-01,  2.96472996e-01,
          2.07820743e-01, -1.35036334e-01,  4.41771327e-03,
         -3.88973877e-02, -2.52287894e-01, -2.88142949e-01,
         -1.55207440e-01,  2.19495192e-01,  1.58835769e-01,
         -3.39551345e-02, -1.00597003e-02, -5.56803644e-02,
         -1.81920052e-01, -3.82374562e-02,  2.14970320e-01,
          2.30272248e-01,  7.58137554e-02,  1.46580592e-01,
          3.39056164e-01,  3.92534211e-02,  9.57739726e-02,
          2.29992181e-01,  2.72186607e-01, -1.43784016e-01,
         -2.28802413e-01, -7.69836083e-02],
        [-2.15027109e-01, -1.55341923e-01, -9.79048461e-02,
         -6.54425398e-02,  1.03332467e-01,  2.08683148e-01,
